// This file is computer-generated by onnx2c 
// (TODO: add creating command line here)
// (TODO: print creation date here )

// ONNX model:
// produced by pytorch, version 2.5.1
// ONNX IR version: 11
// Model documentation: 
/*

*/

#include <float.h>
#include <math.h>
#include <stdbool.h>
#include <stdint.h>
#include <string.h>

#define MAX(X,Y) ( X > Y ? X : Y)
#define MIN(X,Y) ( X < Y ? X : Y)
#define CLIP(X,L) ( MAX(MIN(X,L), -L) )

#if __STDC_VERSION__ < 199901L
#define FUNC_PREFIX
#else
#define FUNC_PREFIX static inline
#endif

static const float tensor_actor_0_weight[64][7] = 
{
  {0.02179575338959693909f, 0.56581479310989379883f, -0.49481517076492309570f, 0.02431015297770500183f, -0.20375859737396240234f, -0.14981061220169067383f, 0.39954999089241027832f},
  {-0.67862713336944580078f, -0.81088608503341674805f, 0.04376468062400817871f, -0.04296979680657386780f, 0.31472128629684448242f, 0.02219085395336151123f, 0.08265414834022521973f},
  {-0.43374308943748474121f, -0.25260853767395019531f, 0.38940906524658203125f, -0.13854038715362548828f, -0.38498136401176452637f, -0.24184970557689666748f, 0.89651757478713989258f},
  {-0.43352630734443664551f, -0.50952196121215820312f, 0.46918323636054992676f, -0.17358072102069854736f, 0.51219499111175537109f, -0.31166145205497741699f, 0.49976763129234313965f},
  {0.49143376946449279785f, 0.18565376102924346924f, -0.41100072860717773438f, 0.00324267288669943810f, -0.05286802724003791809f, -0.28186580538749694824f, -0.35201385617256164551f},
  {-0.78803467750549316406f, 1.08804416656494140625f, 0.33520120382308959961f, -0.32496568560600280762f, -0.07479982078075408936f, 0.09230532497167587280f, 0.71249139308929443359f},
  {-0.76898610591888427734f, -0.12000618129968643188f, -0.02764610201120376587f, 0.06197109073400497437f, -0.12466318905353546143f, -0.48391598463058471680f, 0.13848486542701721191f},
  {-0.65749996900558471680f, -0.30905267596244812012f, 0.03792673349380493164f, -0.05406792461872100830f, 0.34059989452362060547f, -0.16203331947326660156f, 0.06387371569871902466f},
  {0.53915977478027343750f, 0.55436676740646362305f, -0.33677291870117187500f, -0.05121207237243652344f, -0.11124055087566375732f, 0.25640785694122314453f, 0.16403320431709289551f},
  {0.14695420861244201660f, 0.50025558471679687500f, 0.23660109937191009521f, 0.43348690867424011230f, -0.01803479343652725220f, 0.51085370779037475586f, 0.54982000589370727539f},
  {0.25817525386810302734f, -0.09430858492851257324f, 0.34874707460403442383f, 0.94443506002426147461f, 0.26223075389862060547f, 0.32064175605773925781f, 0.29451084136962890625f},
  {-0.53078234195709228516f, 0.16334837675094604492f, 0.31964522600173950195f, 0.19533534348011016846f, 0.51155662536621093750f, 0.39523622393608093262f, -0.73925286531448364258f},
  {-0.02590907923877239227f, -0.14547531306743621826f, -0.30013963580131530762f, 0.36330321431159973145f, 0.07417884469032287598f, 0.53063851594924926758f, -0.32698982954025268555f},
  {0.65620237588882446289f, -0.84960240125656127930f, 0.30282056331634521484f, 0.12816348671913146973f, 0.77823841571807861328f, -0.30491775274276733398f, 0.43848538398742675781f},
  {0.34068071842193603516f, 0.17614708840847015381f, -0.33896920084953308105f, 0.39760482311248779297f, 0.63040500879287719727f, -0.73438113927841186523f, 0.10075187683105468750f},
  {0.11714141070842742920f, -0.48581755161285400391f, 0.53847950696945190430f, -0.38356736302375793457f, 0.03746515139937400818f, 0.17231789231300354004f, 0.15264767408370971680f},
  {-0.61456978321075439453f, 0.12785139679908752441f, 0.00090835243463516235f, 0.42465600371360778809f, 0.03088071383535861969f, 0.29859891533851623535f, -0.15395727753639221191f},
  {-0.42762693762779235840f, -0.59960263967514038086f, 0.12164705991744995117f, 0.29634863138198852539f, -0.40279895067214965820f, -0.50490766763687133789f, 0.33313944935798645020f},
  {0.24055267870426177979f, 0.20136745274066925049f, 0.77700775861740112305f, 0.83603185415267944336f, -0.18722265958786010742f, -0.14454206824302673340f, -0.63233959674835205078f},
  {0.45368710160255432129f, -0.25420263409614562988f, 0.05600782856345176697f, -0.03124726191163063049f, -0.36170545220375061035f, 0.05957591161131858826f, -0.15964968502521514893f},
  {0.35784402489662170410f, 0.60190153121948242188f, 0.33104792237281799316f, -0.08831090480089187622f, -0.31793618202209472656f, -0.29782304167747497559f, 0.32183241844177246094f},
  {0.91166335344314575195f, -0.03290598839521408081f, 0.18273305892944335938f, 0.15301981568336486816f, 0.43287032842636108398f, -0.09049016982316970825f, 0.07768508046865463257f},
  {-0.99961638450622558594f, -0.37039947509765625000f, 0.48684787750244140625f, -0.47150656580924987793f, 0.88861799240112304688f, -0.40115949511528015137f, -0.23419298231601715088f},
  {0.23317053914070129395f, 0.44976979494094848633f, -0.10240606218576431274f, -0.54098027944564819336f, -0.50789386034011840820f, 0.17857988178730010986f, -0.49473145604133605957f},
  {0.25886663794517517090f, -0.15700244903564453125f, 0.53078269958496093750f, 0.15605284273624420166f, -0.75827884674072265625f, -0.32393714785575866699f, -0.45612496137619018555f},
  {-0.42644751071929931641f, 0.52878952026367187500f, -0.08654262125492095947f, 0.18927755951881408691f, -0.24216294288635253906f, 0.54452538490295410156f, 0.17764006555080413818f},
  {0.90541726350784301758f, 0.21730163693428039551f, 0.23222239315509796143f, 0.11266192048788070679f, 0.48958498239517211914f, 0.16665671765804290771f, 0.12911999225616455078f},
  {-0.62907689809799194336f, 0.97848749160766601562f, 0.08106828480958938599f, 0.01976296678185462952f, -0.42404881119728088379f, -0.60350853204727172852f, 0.07540683448314666748f},
  {-0.27438861131668090820f, 0.40390902757644653320f, 0.18015342950820922852f, -0.81209439039230346680f, 0.26861986517906188965f, -0.80180811882019042969f, -0.27314755320549011230f},
  {-0.15550239384174346924f, 0.25866734981536865234f, -0.57769900560379028320f, -0.23698957264423370361f, 0.45202833414077758789f, 0.27268418669700622559f, 0.13728170096874237061f},
  {-0.54619139432907104492f, -0.43067660927772521973f, 0.37540784478187561035f, 0.05340071767568588257f, -0.16298705339431762695f, 0.28246700763702392578f, -0.33563813567161560059f},
  {0.27662426233291625977f, -0.36735886335372924805f, 0.14188939332962036133f, -0.19997182488441467285f, -0.36252549290657043457f, 0.27048459649085998535f, -0.13485738635063171387f},
  {0.26211896538734436035f, -0.19923976063728332520f, 0.50623387098312377930f, -0.38874739408493041992f, -0.66270178556442260742f, 0.04263625666499137878f, -0.35793864727020263672f},
  {-0.41801151633262634277f, 0.33352157473564147949f, -0.25999915599822998047f, 0.37403059005737304688f, -0.49409720301628112793f, -0.25330370664596557617f, 0.50923961400985717773f},
  {-0.26286500692367553711f, -0.69411283731460571289f, 0.05298015475273132324f, -0.18689413368701934814f, -0.22817285358905792236f, -0.46310040354728698730f, -0.15121132135391235352f},
  {-0.58337056636810302734f, 0.68617373704910278320f, -0.35892099142074584961f, 0.06061788648366928101f, -0.17116534709930419922f, 0.29417288303375244141f, 0.50095415115356445312f},
  {0.23676003515720367432f, 0.24147653579711914062f, 0.22417621314525604248f, -0.42067140340805053711f, -0.02333749644458293915f, 0.44153928756713867188f, 0.44822424650192260742f},
  {0.33569219708442687988f, -0.36090254783630371094f, -0.20711995661258697510f, -0.47907197475433349609f, -0.26741340756416320801f, 0.08154331892728805542f, -0.19263479113578796387f},
  {-0.46991962194442749023f, -0.21310138702392578125f, 0.51288115978240966797f, 0.02195750363171100616f, 0.14289304614067077637f, 0.20287814736366271973f, -0.26832547783851623535f},
  {0.04084861278533935547f, -0.37282431125640869141f, -0.17430925369262695312f, -0.50040006637573242188f, 0.74374681711196899414f, 0.35441860556602478027f, -0.11611456423997879028f},
  {-0.63470727205276489258f, 0.84478235244750976562f, 0.16588196158409118652f, -0.20921431481838226318f, -0.36301118135452270508f, -0.13474127650260925293f, 0.21128229796886444092f},
  {-0.43097615242004394531f, -0.19947917759418487549f, 0.90266817808151245117f, 0.84171426296234130859f, 0.02687106840312480927f, -0.00702859926968812943f, 0.16707956790924072266f},
  {0.70222228765487670898f, 0.45067816972732543945f, 0.20668072998523712158f, 0.14339628815650939941f, 0.34360232949256896973f, -0.61865055561065673828f, -0.31618458032608032227f},
  {0.34372380375862121582f, 0.03212290629744529724f, -0.17191186547279357910f, 0.43919396400451660156f, -0.66715192794799804688f, -0.23149183392524719238f, 0.10219280421733856201f},
  {0.14509281516075134277f, -0.73876351118087768555f, 0.19004386663436889648f, 0.14350508153438568115f, -0.05310820415616035461f, -0.75634717941284179688f, -0.04553363099694252014f},
  {0.14435590803623199463f, -0.44945043325424194336f, 0.07920126616954803467f, -0.50537973642349243164f, 0.36868080496788024902f, 0.66941779851913452148f, 0.34228765964508056641f},
  {-0.20384418964385986328f, -0.94146555662155151367f, 0.11861608177423477173f, 0.22659362852573394775f, -0.96824902296066284180f, 0.41222140192985534668f, -0.16539104282855987549f},
  {0.35705110430717468262f, -0.53760129213333129883f, -0.07274816930294036865f, 0.42269527912139892578f, 0.15119707584381103516f, -0.87258803844451904297f, 0.45478713512420654297f},
  {0.04979116097092628479f, -0.02696062810719013214f, 0.32786127924919128418f, -0.68985366821289062500f, -0.89900124073028564453f, -0.27167814970016479492f, 0.59628665447235107422f},
  {-0.05113752186298370361f, 0.18442760407924652100f, 0.16370151937007904053f, 0.64502912759780883789f, -0.04682458937168121338f, 0.61578124761581420898f, -0.18161344528198242188f},
  {-0.18640096485614776611f, 0.22958147525787353516f, -0.06007127091288566589f, -0.49264612793922424316f, -0.14763937890529632568f, -0.91400408744812011719f, 0.20575490593910217285f},
  {0.44331368803977966309f, -0.94775617122650146484f, -0.02898718602955341339f, 0.21604976058006286621f, -0.65239161252975463867f, -0.16878025233745574951f, -0.40645128488540649414f},
  {0.41922673583030700684f, 0.14625418186187744141f, 0.17200739681720733643f, 0.21010041236877441406f, 0.24405907094478607178f, -0.67626941204071044922f, -0.46528473496437072754f},
  {-0.01559070590883493423f, 0.49125775694847106934f, 0.10547196865081787109f, 0.19725544750690460205f, 0.40719684958457946777f, 0.49409779906272888184f, -0.26190546154975891113f},
  {-0.31771254539489746094f, 0.68261277675628662109f, -0.04625002667307853699f, -0.50148290395736694336f, 0.35015228390693664551f, -0.49321553111076354980f, -0.60301935672760009766f},
  {-0.13444904983043670654f, 0.62241905927658081055f, -0.28732797503471374512f, 0.50471407175064086914f, 0.46017596125602722168f, -0.23490516841411590576f, -0.40330901741981506348f},
  {0.05892058461904525757f, 0.80277425050735473633f, -0.08964809030294418335f, -0.70418530702590942383f, -0.18209627270698547363f, 0.42963385581970214844f, -0.60503804683685302734f},
  {0.49820461869239807129f, 0.38599085807800292969f, 0.01397301349788904190f, -0.08917894214391708374f, -0.18560680747032165527f, -0.85452282428741455078f, -0.68855726718902587891f},
  {0.46163061261177062988f, 0.12597650289535522461f, 0.16893292963504791260f, 0.10086377710103988647f, 0.21034809947013854980f, 0.58113545179367065430f, 0.53259813785552978516f},
  {0.44317433238029479980f, -0.46966663002967834473f, 0.14141727983951568604f, -0.07556729763746261597f, -0.55140906572341918945f, -0.16419470310211181641f, -0.11256877332925796509f},
  {-0.09988679736852645874f, -0.29178673028945922852f, 0.59173613786697387695f, 0.00812110770493745804f, 0.09874122589826583862f, -0.08589391410350799561f, -0.42284622788429260254f},
  {0.22217004001140594482f, -0.15508629381656646729f, 0.18274414539337158203f, -0.19968475401401519775f, -0.18291430175304412842f, 0.27444830536842346191f, -0.37349331378936767578f},
  {-0.09594535082578659058f, 1.12014055252075195312f, 0.06795067340135574341f, 0.35531786084175109863f, 0.28656905889511108398f, -0.50673055648803710938f, -0.26638528704643249512f},
  {0.42426794767379760742f, -0.59972018003463745117f, -0.33380082249641418457f, -0.11001526564359664917f, 0.41009995341300964355f, -0.30316501855850219727f, 0.32171779870986938477f}
};
static const float tensor_actor_0_bias[64] = 
{0.14489102363586425781f, -0.13495762646198272705f, 0.13154104351997375488f, -0.22218279540538787842f, 0.13955143094062805176f, 0.06447872519493103027f, -0.04666413739323616028f, -0.11977312713861465454f, -0.13741365075111389160f, -0.36936718225479125977f, -0.14857852458953857422f, -0.14028321206569671631f, -0.17632700502872467041f, 0.13769406080245971680f, -0.48467719554901123047f, 0.31694710254669189453f, 0.10405078530311584473f, 0.21660928428173065186f, 0.38732904195785522461f, -0.01912041381001472473f, -0.14535166323184967041f, 0.25799849629402160645f, 0.24309094250202178955f, -0.21956887841224670410f, -0.00970875658094882965f, -0.30226147174835205078f, 0.16496223211288452148f, 0.03426973521709442139f, -0.28181815147399902344f, -0.54085612297058105469f, -0.30217307806015014648f, -0.17160651087760925293f, 0.05680057406425476074f, -0.06863471865653991699f, 0.32397896051406860352f, -0.43410819768905639648f, 0.20257726311683654785f, 0.13324223458766937256f, -0.24726139008998870850f, -0.37084171175956726074f, 0.14245380461215972900f, -0.16758637130260467529f, 0.02188713848590850830f, -0.38639980554580688477f, 0.01191906910389661789f, -0.34073150157928466797f, 0.09833434969186782837f, -0.32031300663948059082f, -0.54433465003967285156f, -0.29367524385452270508f, -0.18304978311061859131f, 0.06459233909845352173f, -0.08047519624233245850f, -0.19360579550266265869f, -0.26077878475189208984f, 0.11328577995300292969f, -0.10802298784255981445f, -0.32868990302085876465f, -0.32954567670822143555f, -0.03502549603581428528f, 0.28628304600715637207f, -0.23879948258399963379f, 0.04212356358766555786f, 0.08922620117664337158f};
static const float tensor_actor_2_weight[64][64] = 
{
  {0.02318450622260570526f, -0.07802290469408035278f, 0.17964906990528106689f, 0.10084973275661468506f, -0.03949513658881187439f, 0.06575518846511840820f, 0.04207438230514526367f, 0.01050138566642999649f, -0.01554372441023588181f, -0.11762752383947372437f, 0.03378402069211006165f, 0.05836777389049530029f, -0.03006429038941860199f, -0.11065404117107391357f, 0.12944699823856353760f, 0.11997018754482269287f, -0.11808233708143234253f, 0.05090768635272979736f, 0.07193487137556076050f, -0.02109274826943874359f, -0.08388739079236984253f, -0.07148590683937072754f, -0.16566717624664306641f, 0.07888548821210861206f, -0.02874400652945041656f, 0.03880951553583145142f, 0.00562567915767431259f, -0.02108347974717617035f, 0.09622021764516830444f, 0.11841776221990585327f, 0.16431161761283874512f, 0.07099743187427520752f, -0.00841709040105342865f, 0.00917740166187286377f, -0.05867009982466697693f, -0.02753553166985511780f, -0.01665504276752471924f, -0.04798947274684906006f, -0.01743548549711704254f, 0.18325003981590270996f, -0.07592986524105072021f, -0.01562814600765705109f, -0.17330148816108703613f, -0.02762536518275737762f, 0.04425261169672012329f, -0.02213915623724460602f, -0.05045139044523239136f, 0.04602167382836341858f, -0.11905348300933837891f, -0.03218369185924530029f, -0.05211268365383148193f, 0.15747410058975219727f, -0.00694423355162143707f, -0.07789529860019683838f, -0.12673775851726531982f, 0.10465604066848754883f, 0.17507314682006835938f, -0.05848004668951034546f, -0.04482361301779747009f, -0.03028763458132743835f, 0.01106264814734458923f, -0.08750253170728683472f, 0.18384902179241180420f, 0.04337364807724952698f},
  {-0.07084105163812637329f, 0.03071904554963111877f, 0.06268437951803207397f, 0.01766141317784786224f, -0.08587737381458282471f, 0.11578140407800674438f, 0.04006544873118400574f, -0.05835813283920288086f, -0.02731968089938163757f, 0.02373598515987396240f, -0.08721220493316650391f, 0.00937408953905105591f, -0.20576176047325134277f, 0.12426312267780303955f, -0.01250429917126893997f, -0.05000410601496696472f, -0.06424382328987121582f, 0.01001212932169437408f, 0.03904018923640251160f, -0.04599559307098388672f, -0.04767012596130371094f, -0.04712488129734992981f, -0.04685041680932044983f, 0.03204553201794624329f, 0.01863607391715049744f, -0.08793440461158752441f, -0.03297899663448333740f, 0.08966581523418426514f, -0.17906947433948516846f, -0.04144107550382614136f, 0.19695436954498291016f, -0.07035601139068603516f, -0.07200700044631958008f, -0.09837953746318817139f, -0.08690943568944931030f, -0.10047189891338348389f, 0.00830096751451492310f, -0.02603349089622497559f, 0.00033392550540156662f, 0.00896950345486402512f, -0.04212207719683647156f, 0.05599275976419448853f, 0.04712531343102455139f, 0.03886585682630538940f, -0.12603624165058135986f, 0.14258563518524169922f, 0.03868149593472480774f, 0.20519834756851196289f, -0.05353537201881408691f, -0.08931056410074234009f, -0.05907277017831802368f, 0.09688425064086914062f, -0.02099528722465038300f, -0.05437590181827545166f, 0.01358509715646505356f, -0.11740705370903015137f, 0.11640854924917221069f, 0.05488893389701843262f, 0.03787067160010337830f, -0.10690294951200485229f, 0.17745174467563629150f, 0.06097293272614479065f, 0.09094475209712982178f, -0.07184543460607528687f},
  {-0.17189198732376098633f, -0.04150221496820449829f, -0.15973344445228576660f, -0.09350699931383132935f, 0.08122728765010833740f, -0.31496527791023254395f, -0.18940751254558563232f, 0.08028818666934967041f, -0.30107706785202026367f, 0.05563092604279518127f, 0.03965801000595092773f, 0.31805402040481567383f, 0.05349766463041305542f, -0.08167821913957595825f, -0.15123973786830902100f, 0.12044146656990051270f, -0.02313387952744960785f, -0.14334312081336975098f, -0.02291616983711719513f, -0.10015407949686050415f, 0.14295868575572967529f, 0.15974733233451843262f, 0.15042978525161743164f, 0.04554231464862823486f, 0.14642475545406341553f, -0.16666606068611145020f, 0.32545107603073120117f, -0.03174174204468727112f, 0.28721600770950317383f, -0.11693307757377624512f, -0.08814380317926406860f, -0.07813145965337753296f, 0.19751161336898803711f, -0.22274479269981384277f, 0.11962349712848663330f, -0.21445994079113006592f, -0.14238500595092773438f, 0.04279047250747680664f, 0.07943160831928253174f, -0.24576148390769958496f, 0.05913930758833885193f, 0.00681007327511906624f, 0.34321472048759460449f, -0.00587633857503533363f, 0.05720717459917068481f, -0.33517792820930480957f, -0.42399930953979492188f, -0.35439530014991760254f, 0.41292318701744079590f, 0.13377895951271057129f, 0.29106590151786804199f, 0.00435933703556656837f, 0.32591637969017028809f, 0.23897702991962432861f, 0.33062401413917541504f, 0.08911690860986709595f, -0.28978481888771057129f, 0.42418786883354187012f, 0.19638031721115112305f, 0.11266964673995971680f, 0.20142084360122680664f, 0.00663819350302219391f, -0.02327546477317810059f, -0.20489346981048583984f},
  {0.00264653167687356472f, 0.46680951118469238281f, -0.02774262800812721252f, -0.20910269021987915039f, 0.04104124382138252258f, -0.05471473932266235352f, 0.36376556754112243652f, 0.30893456935882568359f, 0.01576227881014347076f, -0.17775645852088928223f, -0.20258615911006927490f, 0.00659115705639123917f, 0.09249070286750793457f, -0.28278028964996337891f, 0.15814822912216186523f, -0.56710946559906005859f, 0.32056340575218200684f, 0.10437086224555969238f, -0.07322904467582702637f, -0.11261862516403198242f, -0.19681683182716369629f, -0.50777912139892578125f, -0.01576635241508483887f, -0.13278773427009582520f, -0.14447095990180969238f, -0.03805495053529739380f, -0.35138145089149475098f, -0.14001582562923431396f, -0.19487227499485015869f, 0.35170522332191467285f, 0.05680476129055023193f, -0.04482919350266456604f, -0.21042683720588684082f, 0.20231063663959503174f, -0.05471033230423927307f, 0.35802745819091796875f, -0.40544110536575317383f, 0.00868726614862680435f, 0.03223535045981407166f, 0.03458433598279953003f, -0.12306103110313415527f, 0.01208012364804744720f, -0.45095568895339965820f, 0.22001561522483825684f, -0.07967253774404525757f, -0.04588488489389419556f, 0.14768312871456146240f, 0.24552460014820098877f, -0.01553932111710309982f, -0.10791261494159698486f, -0.06039328873157501221f, 0.10690540820360183716f, -0.13882759213447570801f, -0.14379586279392242432f, -0.00078885187394917011f, -0.00985390879213809967f, -0.32960528135299682617f, -0.16538946330547332764f, -0.21549460291862487793f, -0.04697449132800102234f, -0.38541939854621887207f, -0.20339946448802947998f, -0.12352952361106872559f, 0.04299879819154739380f},
  {0.20108535885810852051f, -0.24743323028087615967f, -0.08053002506494522095f, 0.00679034367203712463f, 0.32253676652908325195f, -0.56604444980621337891f, -0.05667558684945106506f, -0.04834710061550140381f, 0.10997114330530166626f, -0.12017256766557693481f, -0.19834086298942565918f, 0.01856085099279880524f, 0.23863939940929412842f, 0.19921559095382690430f, -0.07953327894210815430f, -0.19795426726341247559f, -0.09268407523632049561f, 0.11140762269496917725f, -0.16051462292671203613f, 0.17980496585369110107f, 0.20418281853199005127f, 0.28663307428359985352f, 0.01898438669741153717f, 0.04534316807985305786f, -0.14930300414562225342f, -0.02970001660287380219f, 0.00852629169821739197f, -0.09593433886766433716f, -0.13712620735168457031f, -0.01677216589450836182f, -0.17793798446655273438f, 0.10587163269519805908f, -0.03197300806641578674f, 0.22508087754249572754f, -0.26206269860267639160f, -0.22677396237850189209f, -0.23470325767993927002f, -0.05778095871210098267f, -0.07582401484251022339f, 0.16917580366134643555f, 0.00108413549605756998f, -0.59415715932846069336f, -0.05904604122042655945f, 0.03282297402620315552f, -0.01476463489234447479f, 0.05390175059437751770f, 0.07442273944616317749f, 0.20145104825496673584f, -0.04212282970547676086f, 0.16051979362964630127f, -0.00392779428511857986f, -0.01485570892691612244f, -0.03941412270069122314f, 0.18721131980419158936f, -0.07725945860147476196f, -0.22460974752902984619f, 0.12639763951301574707f, 0.18390800058841705322f, 0.02810008078813552856f, 0.01748502627015113831f, -0.24420709908008575439f, 0.02114642970263957977f, -0.19101154804229736328f, 0.24086754024028778076f},
  {-0.19359479844570159912f, -0.05214375630021095276f, 0.12288847565650939941f, 0.03856629878282546997f, -0.28043577075004577637f, 0.11023862659931182861f, -0.33845850825309753418f, -0.33359465003013610840f, 0.09576611220836639404f, 0.17354756593704223633f, 0.05911264196038246155f, -0.16592718660831451416f, -0.19104841351509094238f, 0.33946844935417175293f, -0.01462201215326786041f, 0.26212075352668762207f, -0.12625069916248321533f, -0.16493685543537139893f, 0.09321962296962738037f, 0.05007731914520263672f, 0.17184963822364807129f, 0.27325549721717834473f, -0.29331508278846740723f, 0.03621086478233337402f, 0.03234722837805747986f, -0.18184095621109008789f, 0.18297436833381652832f, -0.39441168308258056641f, -0.14634156227111816406f, -0.14512635767459869385f, 0.06396242231130599976f, 0.17811344563961029053f, 0.19185444712638854980f, -0.38011148571968078613f, -0.02986407279968261719f, -0.04469072073698043823f, 0.26996919512748718262f, 0.09403440356254577637f, 0.08436556905508041382f, -0.15872144699096679688f, -0.02686585858464241028f, 0.08197838813066482544f, -0.13863255083560943604f, -0.12592086195945739746f, -0.03405757248401641846f, 0.08889233320951461792f, -0.11090634018182754517f, -0.09229943901300430298f, 0.00393049884587526321f, -0.18182225525379180908f, -0.44498518109321594238f, 0.10576216131448745728f, 0.03112503886222839355f, -0.18358102440834045410f, -0.29900664091110229492f, -0.20964978635311126709f, -0.00700358161702752113f, 0.12791560590267181396f, 0.19133764505386352539f, 0.13125315308570861816f, -0.00913279410451650620f, -0.05861631408333778381f, -0.16102837026119232178f, -0.00187899381853640079f},
  {-0.01400109473615884781f, -0.19505555927753448486f, 0.04877359792590141296f, 0.09412707388401031494f, -0.02857415191829204559f, 0.48095086216926574707f, -0.01216646563261747360f, -0.00217544008046388626f, -0.03493067994713783264f, -0.05921943485736846924f, -0.19945225119590759277f, -0.05656707659363746643f, -0.17418929934501647949f, 0.07652696222066879272f, 0.26121109724044799805f, -0.01256852690130472183f, -0.08272116631269454956f, 0.11603252589702606201f, 0.12177056819200515747f, 0.02069441601634025574f, 0.17545320093631744385f, -0.06642971187829971313f, -0.07428395748138427734f, 0.02192625030875205994f, 0.16938202083110809326f, -0.05560272932052612305f, 0.15440499782562255859f, -0.02763574942946434021f, -0.22871704399585723877f, 0.01603046804666519165f, 0.00789044983685016632f, -0.04757576808333396912f, 0.10345478355884552002f, -0.08300179243087768555f, 0.00735353399068117142f, -0.11128183454275131226f, 0.20389881730079650879f, -0.13500721752643585205f, 0.05984165892004966736f, 0.02547260373830795288f, 0.13254003226757049561f, 0.07860216498374938965f, -0.00659974617883563042f, 0.01775733195245265961f, -0.14902368187904357910f, 0.10774992406368255615f, -0.04725672677159309387f, 0.16656805574893951416f, -0.30790239572525024414f, -0.26354363560676574707f, -0.20240819454193115234f, -0.12798911333084106445f, 0.03415282815694808960f, -0.07145236432552337646f, -0.05950233712792396545f, -0.07045143842697143555f, 0.36696305871009826660f, -0.09088486433029174805f, -0.14705058932304382324f, 0.08946701884269714355f, -0.18307898938655853271f, 0.10665516555309295654f, 0.25938034057617187500f, -0.12694127857685089111f},
  {-0.00407144334167242050f, -0.38635602593421936035f, 0.23715068399906158447f, -0.20518109202384948730f, 0.04277757555246353149f, 0.00691920612007379532f, -0.09913779795169830322f, -0.17017439007759094238f, -0.06156573444604873657f, 0.24388025701045989990f, 0.03265891224145889282f, -0.12572491168975830078f, -0.05870167911052703857f, -0.21714027225971221924f, -0.32899823784828186035f, 0.15645723044872283936f, -0.04135111346840858459f, -0.19165353477001190186f, 0.03201603516936302185f, -0.00219136825762689114f, 0.26065918803215026855f, 0.22937671840190887451f, 0.01931136660277843475f, -0.05363474041223526001f, 0.02740182541310787201f, 0.04273666068911552429f, 0.18510451912879943848f, 0.18689233064651489258f, 0.36629861593246459961f, -0.23062135279178619385f, -0.24929197132587432861f, -0.07053846120834350586f, 0.09878490120172500610f, -0.05573137477040290833f, 0.05452599003911018372f, 0.02869968861341476440f, 0.14463034272193908691f, -0.07200299203395843506f, -0.23650240898132324219f, -0.40585920214653015137f, 0.16070815920829772949f, -0.05692099034786224365f, 0.21110497415065765381f, -0.03676489368081092834f, -0.10787326097488403320f, -0.34356784820556640625f, -0.29422825574874877930f, -0.31390967965126037598f, 0.29874584078788757324f, 0.02549286186695098877f, 0.25407513976097106934f, -0.20668509602546691895f, 0.30151903629302978516f, 0.12535262107849121094f, 0.23893178999423980713f, 0.00459915352985262871f, -0.27452158927917480469f, 0.19679616391658782959f, 0.26631736755371093750f, 0.14195305109024047852f, 0.06877162307500839233f, -0.03404231369495391846f, 0.24060256779193878174f, -0.16883505880832672119f},
  {-0.10851834714412689209f, 0.03870260715484619141f, 0.01956842467188835144f, 0.03366289287805557251f, -0.12834228575229644775f, 0.21134237945079803467f, 0.16148415207862854004f, 0.04540795460343360901f, -0.15783149003982543945f, 0.04410617426037788391f, -0.13554999232292175293f, 0.32537013292312622070f, 0.03132696077227592468f, -0.40789058804512023926f, -0.35346424579620361328f, 0.02799739316105842590f, 0.13024967908859252930f, -0.06096057593822479248f, 0.08707565814256668091f, -0.12000612169504165649f, 0.21385249495506286621f, -0.21663069725036621094f, 0.15028026700019836426f, -0.29126262664794921875f, -0.02394750155508518219f, 0.09900593757629394531f, -0.22026972472667694092f, 0.15686173737049102783f, 0.21789675951004028320f, -0.10823711007833480835f, 0.17963558435440063477f, -0.13800056278705596924f, -0.24821117520332336426f, 0.07273750752210617065f, -0.11359207332134246826f, -0.03727183863520622253f, -0.08948951214551925659f, -0.25282317399978637695f, 0.13765825331211090088f, 0.01643158495426177979f, 0.12109833210706710815f, 0.25803819298744201660f, -0.06003275141119956970f, 0.08798840641975402832f, -0.22000807523727416992f, -0.32521951198577880859f, -0.18456120789051055908f, -0.05491115152835845947f, 0.10949854552745819092f, -0.02206772193312644958f, 0.13291877508163452148f, -0.15578062832355499268f, -0.15146408975124359131f, -0.01671238057315349579f, 0.08488786220550537109f, -0.09030735492706298828f, -0.03353010490536689758f, -0.30309510231018066406f, -0.29695037007331848145f, -0.18256492912769317627f, 0.00605322327464818954f, -0.17078471183776855469f, -0.08604586124420166016f, -0.18124620616436004639f},
  {-0.02153673581779003143f, -0.10899635404348373413f, -0.27191299200057983398f, -0.05448246747255325317f, -0.06168229132890701294f, 0.01447172556072473526f, 0.02090232446789741516f, -0.04042174294590950012f, 0.45827776193618774414f, -0.12221263349056243896f, -0.43967798352241516113f, -0.17813384532928466797f, 0.15480747818946838379f, -0.12476664781570434570f, 0.39692154526710510254f, -0.35423949360847473145f, -0.16019234061241149902f, -0.06400938332080841064f, -0.50630223751068115234f, -0.08099914342164993286f, -0.10156074911355972290f, -0.00197428488172590733f, -0.22378803789615631104f, 0.21273027360439300537f, -0.25574371218681335449f, -0.02908144146203994751f, 0.08082071691751480103f, -0.25709837675094604492f, -0.17173276841640472412f, 0.46959084272384643555f, -0.10687528550624847412f, -0.08524417877197265625f, -0.15451073646545410156f, 0.05561045557260513306f, -0.29988735914230346680f, 0.25370359420776367188f, -0.12867160141468048096f, 0.06212754920125007629f, -0.11219473928213119507f, 0.21726171672344207764f, -0.14067775011062622070f, -0.38774794340133666992f, -0.14400155842304229736f, 0.34847518801689147949f, -0.23313471674919128418f, 0.10488930344581604004f, -0.12123221158981323242f, 0.13424143195152282715f, -0.15682093799114227295f, -0.07621214538812637329f, 0.12823456525802612305f, -0.10589434951543807983f, -0.22217147052288055420f, -0.05495601147413253784f, -0.01116590574383735657f, -0.04266976192593574524f, 0.28657075762748718262f, 0.01931432820856571198f, -0.09890567511320114136f, -0.12739978730678558350f, -0.60711759328842163086f, 0.20303094387054443359f, 0.04281170293688774109f, 0.10849874466657638550f},
  {0.04039501026272773743f, -0.16540232300758361816f, -0.14880175888538360596f, 0.15677353739738464355f, -0.00379539025016129017f, -0.09651296585798263550f, -0.03617286682128906250f, -0.05193289369344711304f, -0.18074132502079010010f, -0.05267897620797157288f, 0.27775362133979797363f, -0.23056440055370330811f, -0.12253401428461074829f, 0.06052970141172409058f, 0.15059220790863037109f, -0.05504340305924415588f, -0.16213756799697875977f, -0.00754418456926941872f, 0.07014310359954833984f, -0.19801217317581176758f, -0.12565954029560089111f, -0.05645991489291191101f, -0.27236422896385192871f, 0.05319204181432723999f, 0.16352473199367523193f, -0.04448090493679046631f, -0.04254850000143051147f, -0.07669468224048614502f, -0.26142388582229614258f, -0.25673112273216247559f, -0.03547850623726844788f, -0.02830064296722412109f, 0.01027014199644327164f, 0.02416511811316013336f, 0.02529115043580532074f, -0.15590666234493255615f, -0.14274740219116210938f, -0.24979276955127716064f, -0.08846718817949295044f, -0.17884998023509979248f, -0.18312688171863555908f, 0.18291299045085906982f, 0.12046447396278381348f, 0.01241563819348812103f, 0.28275743126869201660f, 0.08699566870927810669f, -0.04298968240618705750f, 0.10130652040243148804f, -0.26387959718704223633f, 0.10474158823490142822f, -0.05609627440571784973f, 0.01543273031711578369f, 0.22049503028392791748f, -0.17394039034843444824f, -0.05988489091396331787f, 0.01552100945264101028f, -0.19231434166431427002f, 0.19806458055973052979f, -0.02072631195187568665f, -0.03585542365908622742f, -0.05081141740083694458f, 0.02105155587196350098f, 0.12377859652042388916f, -0.01687767542898654938f},
  {0.13918195664882659912f, -0.22843164205551147461f, 0.00496995402500033379f, -0.03390703350305557251f, -0.10868670046329498291f, 0.18004873394966125488f, -0.10227181762456893921f, 0.10927458852529525757f, -0.16159068048000335693f, 0.13092604279518127441f, 0.14108391106128692627f, 0.19353677332401275635f, 0.02148779481649398804f, -0.35078793764114379883f, -0.27834287285804748535f, 0.00290303654037415981f, 0.17026275396347045898f, -0.21516856551170349121f, 0.28985720872879028320f, -0.29178506135940551758f, 0.12149790674448013306f, 0.07240701466798782349f, -0.00038515849155373871f, -0.00818631611764431000f, 0.04196035861968994141f, 0.14711774885654449463f, 0.25912696123123168945f, 0.32280746102333068848f, 0.36372202634811401367f, -0.15082024037837982178f, -0.00013688589388038963f, -0.16507053375244140625f, -0.01819289661943912506f, 0.16615161299705505371f, -0.24105574190616607666f, 0.13535268604755401611f, 0.17045666277408599854f, -0.14062251150608062744f, 0.12678973376750946045f, -0.19430945813655853271f, 0.38169166445732116699f, 0.21451650559902191162f, 0.20741763710975646973f, -0.31856617331504821777f, -0.40200829505920410156f, -0.17721369862556457520f, -0.38421192765235900879f, -0.55889993906021118164f, 0.07717397809028625488f, 0.15199196338653564453f, 0.03418729826807975769f, -0.55934995412826538086f, 0.11758186668157577515f, 0.14348603785037994385f, 0.18808268010616302490f, 0.06878995895385742188f, 0.06830146908760070801f, -0.12977634370326995850f, 0.04650107026100158691f, -0.23439098894596099854f, 0.14874313771724700928f, -0.08769171684980392456f, 0.31081795692443847656f, -0.32135894894599914551f},
  {-0.09178745746612548828f, 0.08017291128635406494f, -0.03409988805651664734f, -0.14289468526840209961f, -0.19930818676948547363f, 0.01788735762238502502f, -0.47195184230804443359f, 0.12449300289154052734f, 0.04522811621427536011f, 0.38499510288238525391f, 0.42938408255577087402f, -0.08992775529623031616f, 0.06545630097389221191f, 0.01830669306218624115f, 0.42431658506393432617f, -0.01797886751592159271f, -0.06996311247348785400f, -0.32677188515663146973f, -0.12759354710578918457f, -0.16125488281250000000f, 0.12315576523542404175f, 0.06184182688593864441f, -0.51308089494705200195f, -0.19793009757995605469f, -0.10100166499614715576f, 0.22500111162662506104f, -0.03707955405116081238f, -0.48947834968566894531f, -0.28358864784240722656f, 0.28329434990882873535f, 0.29700049757957458496f, 0.03294584155082702637f, 0.06826104968786239624f, -0.19735686480998992920f, -0.47472465038299560547f, 0.31756284832954406738f, -0.00132263207342475653f, -0.23606336116790771484f, 0.29499828815460205078f, -0.05928600206971168518f, -0.10977777838706970215f, 0.45796033740043640137f, 0.14053672552108764648f, -0.25059202313423156738f, -0.29435345530509948730f, 0.11892671883106231689f, -0.24636511504650115967f, -0.17452272772789001465f, 0.16762584447860717773f, 0.31161260604858398438f, -0.41228589415550231934f, -0.10837350040674209595f, 0.03682236373424530029f, 0.19391672313213348389f, -0.16584676504135131836f, 0.09482631087303161621f, -0.32176208496093750000f, 0.12506218254566192627f, 0.48201569914817810059f, 0.06902057677507400513f, -0.22909615933895111084f, -0.03331912308931350708f, -0.05818234756588935852f, -0.11791884154081344604f},
  {-0.09142541885375976562f, -0.10187381505966186523f, 0.05416220799088478088f, 0.04475703090429306030f, -0.13205067813396453857f, 0.02431826852262020111f, -0.02113120630383491516f, -0.11022388935089111328f, -0.01072649937123060226f, -0.02322554402053356171f, -0.19057898223400115967f, 0.03201727569103240967f, 0.04960331320762634277f, -0.04086053743958473206f, -0.02937106043100357056f, -0.05809308588504791260f, -0.17187838256359100342f, 0.14359308779239654541f, 0.06286685913801193237f, 0.00992607884109020233f, 0.11424340307712554932f, 0.00912262871861457825f, 0.05484200268983840942f, 0.12524959444999694824f, -0.15447598695755004883f, -0.14927051961421966553f, 0.03462895378470420837f, -0.06264644861221313477f, -0.14327764511108398438f, -0.12472169101238250732f, 0.09750750660896301270f, -0.04429005086421966553f, 0.05546245723962783813f, 0.07692132890224456787f, -0.16073702275753021240f, -0.19654107093811035156f, -0.10230284184217453003f, -0.16843309998512268066f, -0.08814293146133422852f, 0.14532807469367980957f, 0.03849428147077560425f, -0.10045634955167770386f, -0.02465017698705196381f, 0.14282687008380889893f, 0.03974825888872146606f, 0.12445706874132156372f, 0.09560236334800720215f, 0.19978457689285278320f, -0.23940409719944000244f, 0.01502771209925413132f, 0.00832932069897651672f, -0.06320451200008392334f, -0.16244964301586151123f, 0.07144019752740859985f, -0.03717003390192985535f, -0.07377287745475769043f, 0.13731074333190917969f, 0.01804908178746700287f, -0.07281449437141418457f, -0.01200798433274030685f, 0.00996691454201936722f, 0.00313909957185387611f, 0.07266553491353988647f, 0.13646261394023895264f},
  {-0.11144001036882400513f, 0.06929173320531845093f, -0.24070695042610168457f, -0.02656744234263896942f, -0.14773498475551605225f, -0.39439973235130310059f, -0.04074407741427421570f, 0.14991068840026855469f, -0.11511850357055664062f, 0.08902709186077117920f, -0.00007892116991570219f, 0.12421032041311264038f, 0.24769464135169982910f, -0.22652468085289001465f, 0.19455730915069580078f, -0.23584721982479095459f, 0.21844373643398284912f, -0.27324908971786499023f, -0.01323113869875669479f, 0.14778301119804382324f, -0.00307354610413312912f, -0.18194290995597839355f, -0.10672137141227722168f, -0.09051532298326492310f, -0.09221928566694259644f, 0.16595514118671417236f, -0.01952169463038444519f, -0.07521286606788635254f, -0.12849943339824676514f, -0.08075836300849914551f, 0.23329368233680725098f, 0.06532088667154312134f, -0.09588485211133956909f, 0.10012599080801010132f, -0.19630593061447143555f, -0.11841614544391632080f, -0.19337937235832214355f, -0.16723674535751342773f, 0.27821797132492065430f, 0.02426447160542011261f, -0.18413347005844116211f, 0.34304323792457580566f, 0.02035171166062355042f, 0.14461264014244079590f, -0.13593041896820068359f, 0.03486372902989387512f, -0.12286710739135742188f, -0.17773000895977020264f, 0.07720719277858734131f, 0.10578992962837219238f, -0.10945698618888854980f, -0.19864058494567871094f, -0.03602859750390052795f, 0.28491333127021789551f, -0.09333258867263793945f, 0.17932391166687011719f, -0.24775823950767517090f, -0.09010809659957885742f, 0.13543626666069030762f, -0.08160884678363800049f, 0.05074286460876464844f, -0.04410112649202346802f, 0.18848983943462371826f, -0.03965958580374717712f},
  {0.01984576322138309479f, -0.08232668787240982056f, -0.09476681053638458252f, -0.06067072972655296326f, 0.04592838138341903687f, -0.53571593761444091797f, -0.12188261002302169800f, 0.08226874470710754395f, 0.18703533709049224854f, -0.13848972320556640625f, -0.20582364499568939209f, 0.14315311610698699951f, 0.17666134238243103027f, -0.11029434949159622192f, 0.09957681596279144287f, -0.08942775428295135498f, -0.03039689548313617706f, 0.03993758931756019592f, 0.02233148925006389618f, 0.17202617228031158447f, 0.21985214948654174805f, 0.12865099310874938965f, 0.19016665220260620117f, -0.08944911509752273560f, -0.18003499507904052734f, -0.08641549944877624512f, -0.00908493436872959137f, 0.04267046600580215454f, 0.00413113413378596306f, 0.05913955718278884888f, -0.18581272661685943604f, -0.00751201156526803970f, 0.03826795518398284912f, 0.15141211450099945068f, -0.00612373044714331627f, -0.26932486891746520996f, -0.00215839850716292858f, -0.03664591535925865173f, 0.13005547225475311279f, -0.06242290511727333069f, 0.01829106360673904419f, -0.27621781826019287109f, -0.09600978344678878784f, 0.26590639352798461914f, 0.04354065656661987305f, 0.09704584628343582153f, 0.07694848626852035522f, 0.02012203820049762726f, -0.24408026039600372314f, 0.17913208901882171631f, -0.02834825217723846436f, -0.10284669697284698486f, -0.15537966787815093994f, -0.07828767597675323486f, -0.05972462147474288940f, -0.07884395867586135864f, 0.14316658675670623779f, -0.03125058859586715698f, -0.07327192276716232300f, -0.09827301651239395142f, -0.05045690760016441345f, 0.10865933448076248169f, -0.06053401157259941101f, 0.15737821161746978760f},
  {-0.17272309958934783936f, -0.09649099409580230713f, 0.01350960601121187210f, 0.09053284674882888794f, -0.11949125677347183228f, 0.00581920333206653595f, -0.14012153446674346924f, -0.05533466115593910217f, -0.09220297634601593018f, -0.10770481079816818237f, -0.20645810663700103760f, 0.07628832012414932251f, -0.18139198422431945801f, -0.10737662762403488159f, -0.16455014050006866455f, 0.23245717585086822510f, -0.20404528081417083740f, 0.02680872753262519836f, -0.01084256544709205627f, -0.16871522367000579834f, 0.10152276605367660522f, -0.02835796028375625610f, 0.16695493459701538086f, -0.01349695026874542236f, 0.03333492577075958252f, -0.10156222432851791382f, -0.13955526053905487061f, 0.04400739446282386780f, -0.03044573776423931122f, -0.05195915699005126953f, -0.06345462799072265625f, -0.08753544837236404419f, 0.10731465369462966919f, -0.05945574864745140076f, -0.08462461084127426147f, -0.18390212953090667725f, -0.06487273424863815308f, -0.11766272038221359253f, 0.13694402575492858887f, 0.01275784242898225784f, -0.03879048675298690796f, 0.16857521235942840576f, -0.20911663770675659180f, 0.06407321989536285400f, -0.08174437284469604492f, -0.15385371446609497070f, 0.00298010185360908508f, 0.12509240210056304932f, -0.19456137716770172119f, -0.00091998977586627007f, -0.27485892176628112793f, 0.03198648244142532349f, -0.22792948782444000244f, -0.07904050499200820923f, -0.12134990841150283813f, -0.24075114727020263672f, 0.06558082997798919678f, -0.26657432317733764648f, -0.00463556358590722084f, 0.01392618753015995026f, 0.05187313258647918701f, -0.08132100850343704224f, -0.21019384264945983887f, 0.00393687142059206963f},
  {0.04505649954080581665f, -0.04923610389232635498f, -0.18571016192436218262f, 0.25724825263023376465f, 0.08278158307075500488f, -0.19588775932788848877f, 0.02577679231762886047f, 0.22630603611469268799f, 0.02957591973245143890f, -0.19403211772441864014f, -0.07457307726144790649f, -0.18525166809558868408f, -0.11950988322496414185f, 0.04690104350447654724f, 0.20139996707439422607f, -0.17109702527523040771f, -0.16363140940666198730f, 0.01369578298181295395f, 0.26903331279754638672f, 0.04670887440443038940f, 0.05574721843004226685f, -0.05064855515956878662f, -0.16874684393405914307f, -0.05179186165332794189f, 0.18770922720432281494f, -0.15556851029396057129f, -0.08753303438425064087f, 0.12615430355072021484f, 0.01615609042346477509f, -0.33129271864891052246f, 0.16601885855197906494f, -0.04812379553914070129f, 0.01161315850913524628f, -0.00129057955928146839f, -0.00371913891285657883f, -0.15008977055549621582f, -0.47990557551383972168f, -0.01754329539835453033f, 0.06958217173814773560f, -0.12836927175521850586f, -0.22399964928627014160f, 0.37457245588302612305f, 0.05200649052858352661f, 0.27384009957313537598f, 0.37586924433708190918f, -0.09388939291238784790f, -0.01003948599100112915f, 0.24781364202499389648f, -0.29460144042968750000f, -0.17278310656547546387f, 0.07327695190906524658f, 0.07784571498632431030f, 0.40780356526374816895f, -0.23129591345787048340f, -0.30748814344406127930f, 0.03037057444453239441f, -0.06120686233043670654f, 0.30524998903274536133f, -0.08245828747749328613f, 0.09034773707389831543f, 0.17791298031806945801f, 0.19260807335376739502f, 0.14381910860538482666f, 0.00743620516732335091f},
  {-0.14267383515834808350f, -0.24984617531299591064f, 0.14369717240333557129f, -0.00755651434883475304f, -0.21251513063907623291f, 0.18422843515872955322f, -0.10531058162450790405f, -0.17172643542289733887f, 0.01346131600439548492f, -0.05634654313325881958f, 0.03084326162934303284f, 0.22665841877460479736f, -0.12533836066722869873f, -0.20846845209598541260f, -0.03148777037858963013f, 0.12971718609333038330f, -0.08741182088851928711f, -0.04017790779471397400f, 0.14422908425331115723f, 0.06612954288721084595f, 0.15785332024097442627f, -0.00628595193848013878f, 0.02979399822652339935f, -0.10696659982204437256f, -0.05177871882915496826f, -0.03705066815018653870f, 0.15761837363243103027f, -0.05145618692040443420f, 0.22724609076976776123f, -0.12757909297943115234f, 0.20175766944885253906f, 0.05343886837363243103f, -0.02006742730736732483f, -0.09907375276088714600f, -0.16223068535327911377f, -0.09094008058309555054f, 0.05220495909452438354f, -0.02808940596878528595f, 0.02455499023199081421f, 0.11547556519508361816f, 0.07485667616128921509f, 0.26050052046775817871f, 0.01508347410708665848f, 0.05569336563348770142f, -0.23319472372531890869f, -0.32862594723701477051f, -0.12351530045270919800f, -0.08940963447093963623f, 0.19404560327529907227f, -0.01989697478711605072f, -0.11779545992612838745f, -0.09662970900535583496f, 0.11576718837022781372f, -0.07788696140050888062f, 0.10408281534910202026f, 0.05067991465330123901f, 0.09279873222112655640f, -0.45624300837516784668f, -0.17896248400211334229f, 0.00012264614633750170f, 0.16664130985736846924f, 0.25515899062156677246f, -0.03669065237045288086f, 0.03861001506447792053f},
  {-0.02762841805815696716f, -0.20428727567195892334f, -0.01283576991409063339f, 0.15921980142593383789f, -0.23760013282299041748f, 0.47237482666969299316f, -0.05098535865545272827f, 0.02289820089936256409f, -0.11190148442983627319f, -0.08168391883373260498f, -0.05791868269443511963f, -0.10698325186967849731f, -0.46011275053024291992f, 0.04704332724213600159f, 0.10386005043983459473f, 0.18860739469528198242f, -0.20503474771976470947f, -0.09759578108787536621f, 0.05942421779036521912f, 0.02996676787734031677f, -0.03844028338789939880f, 0.11775688827037811279f, -0.10105594992637634277f, 0.02983268536627292633f, 0.29223823547363281250f, -0.13491886854171752930f, -0.04626590013504028320f, -0.06462877243757247925f, 0.06611048430204391479f, 0.01271106209605932236f, 0.17528310418128967285f, -0.04070817679166793823f, 0.14739759266376495361f, -0.01171305309981107712f, -0.00072042015381157398f, -0.10648500919342041016f, 0.11129147559404373169f, 0.04291918501257896423f, 0.15119798481464385986f, 0.06150563806295394897f, -0.00528942653909325600f, 0.36324107646942138672f, 0.19561778008937835693f, -0.03066510707139968872f, 0.10623281449079513550f, -0.21982616186141967773f, 0.03446856513619422913f, 0.03150757774710655212f, 0.14320948719978332520f, -0.19025701284408569336f, -0.14368598163127899170f, -0.00036129509680904448f, 0.05986883118748664856f, -0.28704977035522460938f, -0.19527114927768707275f, 0.06988474726676940918f, 0.16043817996978759766f, -0.12420795112848281860f, 0.03575263917446136475f, 0.01286099385470151901f, 0.20282348990440368652f, 0.14428883790969848633f, 0.31304627656936645508f, -0.15128393471240997314f},
  {-0.12321288883686065674f, -0.02866278588771820068f, -0.11241973936557769775f, 0.09001182019710540771f, -0.19496279954910278320f, 0.44338652491569519043f, 0.00082048896001651883f, 0.01531095523387193680f, -0.08390907198190689087f, -0.02449361607432365417f, 0.10096519440412521362f, -0.14106345176696777344f, -0.11525187641382217407f, 0.09325813502073287964f, -0.10332183539867401123f, 0.26760709285736083984f, -0.07184655964374542236f, -0.01132937893271446228f, 0.27441588044166564941f, -0.11841612309217453003f, 0.07443283498287200928f, -0.03503365814685821533f, -0.01175834983587265015f, -0.11239737272262573242f, -0.04870288446545600891f, -0.02748198062181472778f, 0.14465144276618957520f, 0.10243321210145950317f, -0.04586429148912429810f, -0.08168278634548187256f, 0.12586696445941925049f, -0.05269919335842132568f, -0.00830292608588933945f, -0.16769617795944213867f, -0.10740582644939422607f, -0.20592409372329711914f, 0.11769261211156845093f, -0.14108501374721527100f, 0.06015381589531898499f, 0.02318414300680160522f, 0.03391089662909507751f, 0.69462192058563232422f, -0.08781622350215911865f, -0.04144598171114921570f, 0.02550662308931350708f, 0.13558351993560791016f, -0.14083640277385711670f, -0.01263840124011039734f, -0.12670601904392242432f, -0.10991008579730987549f, -0.01332170143723487854f, -0.10970167070627212524f, 0.15535600483417510986f, -0.09222022444009780884f, -0.20915344357490539551f, -0.22962772846221923828f, 0.07792728394269943237f, -0.01604032330214977264f, 0.12509655952453613281f, -0.06043934822082519531f, 0.12706114351749420166f, 0.02040391042828559875f, 0.21090464293956756592f, 0.01229937467724084854f},
  {0.05261887982487678528f, -0.12556575238704681396f, -0.15048722922801971436f, -0.06825369596481323242f, 0.20122407376766204834f, -0.24184475839138031006f, 0.06315214186906814575f, 0.10600378364324569702f, 0.13299393653869628906f, 0.12528310716152191162f, -0.21894547343254089355f, 0.03740567341446876526f, 0.11133428663015365601f, -0.11306899040937423706f, -0.19906818866729736328f, -0.29793491959571838379f, 0.21589200198650360107f, 0.09720820933580398560f, 0.01212999597191810608f, -0.08945406228303909302f, 0.03348878398537635803f, 0.05953721329569816589f, 0.11542660742998123169f, -0.17726683616638183594f, -0.04744195565581321716f, -0.00517084868624806404f, -0.04693682491779327393f, -0.15462300181388854980f, 0.02285267226397991180f, -0.06264898180961608887f, -0.17606715857982635498f, -0.10737338662147521973f, -0.18065606057643890381f, 0.08791770040988922119f, 0.10508915036916732788f, 0.12776602804660797119f, -0.14629255235195159912f, -0.11228929460048675537f, -0.16132210195064544678f, -0.06702300161123275757f, -0.09319588541984558105f, -0.26106730103492736816f, 0.01184198539704084396f, -0.17344252765178680420f, -0.08381374925374984741f, -0.11823501437902450562f, -0.03769792988896369934f, 0.01820216327905654907f, 0.20582631230354309082f, 0.11285665631294250488f, -0.03471248224377632141f, -0.07917739450931549072f, -0.02583628706634044647f, 0.01152831874787807465f, 0.20672394335269927979f, 0.06711871922016143799f, -0.21845862269401550293f, 0.01160906627774238586f, 0.03354337438941001892f, -0.03776439651846885681f, -0.13207267224788665771f, -0.20592342317104339600f, -0.21829549968242645264f, 0.10722925513982772827f},
  {0.07875835150480270386f, -0.30460047721862792969f, -0.29857158660888671875f, -0.12531347572803497314f, 0.03090955130755901337f, -0.24158453941345214844f, -0.05549176409840583801f, -0.24540463089942932129f, 0.15724627673625946045f, -0.06246641650795936584f, -0.06421519070863723755f, -0.23307177424430847168f, -0.04821040853857994080f, 0.04428378865122795105f, 0.12406843900680541992f, -0.07558827102184295654f, -0.16093975305557250977f, -0.20676732063293457031f, 0.18494324386119842529f, 0.05050983279943466187f, 0.15853746235370635986f, 0.14003418385982513428f, -0.22506776452064514160f, 0.19062031805515289307f, 0.25399231910705566406f, 0.01053742226213216782f, 0.14693924784660339355f, 0.12859661877155303955f, -0.07848234474658966064f, -0.01336672063916921616f, -0.03819148987531661987f, 0.22297132015228271484f, 0.07204320281744003296f, 0.00926477368921041489f, -0.04094922915101051331f, 0.23257417976856231689f, 0.08544495701789855957f, 0.06884127855300903320f, -0.14460058510303497314f, -0.11700579524040222168f, 0.13741955161094665527f, -0.12519121170043945312f, 0.16753460466861724854f, -0.03847339749336242676f, -0.03540630266070365906f, 0.09225209057331085205f, -0.13886423408985137939f, 0.12700162827968597412f, -0.12677198648452758789f, -0.19232100248336791992f, 0.08871067315340042114f, 0.05684543773531913757f, 0.15187346935272216797f, -0.04583520814776420593f, 0.16917157173156738281f, 0.15001627802848815918f, 0.19240432977676391602f, 0.52017319202423095703f, 0.12363995611667633057f, 0.17056643962860107422f, -0.01413146965205669403f, 0.06701654195785522461f, 0.12693974375724792480f, 0.00946034677326679230f},
  {0.10250852257013320923f, -0.16951389610767364502f, 0.17157867550849914551f, -0.11101838201284408569f, -0.30554080009460449219f, 0.06818757206201553345f, -0.07686946541070938110f, -0.22522893548011779785f, 0.05555593594908714294f, 0.47946846485137939453f, 0.28376060724258422852f, 0.06424484401941299438f, 0.04596457630395889282f, -0.56107443571090698242f, -0.29921936988830566406f, 0.04543147981166839600f, 0.15666131675243377686f, 0.07166574895381927490f, -0.03948146849870681763f, 0.04104252159595489502f, 0.36089462041854858398f, -0.27189055085182189941f, -0.49590510129928588867f, -0.21018648147583007812f, 0.10618055611848831177f, 0.34753239154815673828f, -0.14235627651214599609f, 0.11797409504652023315f, -0.01879345811903476715f, 0.22319796681404113770f, 0.10299000144004821777f, 0.03986413404345512390f, -0.01993326842784881592f, 0.19549663364887237549f, -0.01754529774188995361f, 0.14721849560737609863f, -0.13015528023242950439f, -0.10270184278488159180f, -0.02813030965626239777f, -0.08693099766969680786f, 0.14131115376949310303f, 0.22349132597446441650f, -0.08875653892755508423f, 0.09049218147993087769f, -0.10740682482719421387f, -0.13419967889785766602f, 0.05045373365283012390f, -0.13049331307411193848f, 0.37452447414398193359f, 0.35695719718933105469f, 0.05442193523049354553f, -0.11416020989418029785f, -0.13507528603076934814f, 0.18978871405124664307f, -0.16995899379253387451f, -0.19327202439308166504f, -0.37719520926475524902f, -0.22105693817138671875f, 0.07399584352970123291f, 0.21046310663223266602f, -0.29155713319778442383f, 0.05066546052694320679f, -0.09622187912464141846f, -0.17506879568099975586f},
  {-0.28514933586120605469f, 0.04851758107542991638f, 0.12972061336040496826f, 0.08326368778944015503f, -0.17975541949272155762f, 0.27136957645416259766f, -0.17919968068599700928f, 0.01444831863045692444f, -0.04919603466987609863f, 0.14650702476501464844f, 0.32543790340423583984f, -0.00739283207803964615f, -0.21044430136680603027f, 0.08107018470764160156f, -0.03318861499428749084f, 0.23287253081798553467f, -0.07109475880861282349f, -0.15504734218120574951f, 0.04456433281302452087f, 0.11109425872564315796f, 0.05345449596643447876f, 0.09234053641557693481f, -0.06380715966224670410f, -0.05935818701982498169f, 0.28506374359130859375f, -0.09466005861759185791f, 0.08425062149763107300f, -0.08717587590217590332f, 0.12367651611566543579f, -0.09703560173511505127f, 0.07364244759082794189f, 0.00932788010686635971f, 0.14208705723285675049f, -0.23388335108757019043f, 0.03134617209434509277f, 0.07063816487789154053f, 0.16348692774772644043f, -0.07088642567396163940f, 0.01645427569746971130f, -0.20259197056293487549f, 0.04104327782988548279f, 0.29058477282524108887f, 0.13046839833259582520f, -0.25653505325317382812f, -0.00727667566388845444f, -0.06376233696937561035f, -0.04458679631352424622f, -0.05308514833450317383f, 0.16171187162399291992f, -0.11183479428291320801f, -0.20469532907009124756f, -0.01604014076292514801f, 0.01137909572571516037f, -0.01036513969302177429f, 0.02489083260297775269f, -0.07083421200513839722f, -0.05931803211569786072f, -0.03613226115703582764f, -0.04580612108111381531f, 0.05061743408441543579f, 0.31011673808097839355f, 0.10900040715932846069f, -0.01026576105505228043f, 0.01406543608754873276f},
  {-0.06031478196382522583f, 0.10226882249116897583f, 0.08207424730062484741f, 0.27085110545158386230f, 0.01664763130247592926f, -0.05257192626595497131f, 0.10421235859394073486f, 0.12625271081924438477f, -0.24756124615669250488f, -0.20315346121788024902f, -0.17889474332332611084f, -0.01681818999350070953f, -0.02254208177328109741f, -0.08584504574537277222f, -0.16524243354797363281f, 0.02778194285929203033f, -0.35383656620979309082f, -0.18062359094619750977f, -0.48244196176528930664f, -0.08167646825313568115f, 0.13881680369377136230f, -0.25494393706321716309f, 0.13901448249816894531f, -0.04764662310481071472f, -0.16449275612831115723f, -0.19611580669879913330f, -0.08976899832487106323f, 0.06913443654775619507f, 0.47033861279487609863f, -0.08285336941480636597f, -0.09964807331562042236f, -0.07478705793619155884f, -0.02694683708250522614f, -0.02486532740294933319f, 0.12568549811840057373f, -0.03462026268243789673f, -0.21785640716552734375f, 0.09154286235570907593f, 0.02243064157664775848f, 0.13407090306282043457f, 0.00609632534906268120f, -0.37559908628463745117f, -0.04568842798471450806f, 0.10370459407567977905f, 0.04730514436960220337f, 0.04213447496294975281f, -0.48041355609893798828f, 0.06393729150295257568f, 0.27432206273078918457f, -0.07365161925554275513f, 0.38837593793869018555f, -0.10512842983007431030f, 0.06307187676429748535f, 0.07744775712490081787f, 0.20202760398387908936f, -0.22145658731460571289f, -0.03636427596211433411f, 0.09315192699432373047f, -0.10665182024240493774f, 0.01639576628804206848f, -0.10278320312500000000f, 0.01931486092507839203f, -0.33126878738403320312f, 0.14151120185852050781f},
  {-0.22865171730518341064f, 0.26525399088859558105f, -0.05967051908373832703f, 0.20737934112548828125f, -0.22676086425781250000f, 0.14406484365463256836f, -0.02771943435072898865f, 0.11221755295991897583f, 0.03020194172859191895f, -0.09551887959241867065f, -0.01450450159609317780f, -0.10514362156391143799f, -0.25378292798995971680f, 0.19602665305137634277f, -0.04918846487998962402f, 0.36881682276725769043f, -0.07002571225166320801f, 0.01371616963297128677f, 0.14569164812564849854f, -0.00630475440993905067f, -0.10413643717765808105f, 0.04242800921201705933f, -0.00021297522471286356f, -0.22443783283233642578f, 0.15952946245670318604f, -0.18682008981704711914f, -0.06543210148811340332f, -0.23925344645977020264f, -0.05343123897910118103f, 0.00171674997545778751f, 0.21841254830360412598f, -0.03521925583481788635f, 0.13042573630809783936f, -0.36155250668525695801f, 0.18821845948696136475f, -0.20852468907833099365f, 0.07637331634759902954f, -0.02458170056343078613f, 0.01663528382778167725f, -0.07181945443153381348f, -0.05820343643426895142f, 0.41555926203727722168f, -0.15860104560852050781f, -0.00443603377789258957f, 0.10856863111257553101f, 0.02626086957752704620f, 0.01932782307267189026f, 0.07512098550796508789f, -0.00616667978465557098f, -0.11413682997226715088f, -0.17058925330638885498f, 0.02868731133639812469f, -0.02586042508482933044f, -0.04975219070911407471f, -0.11881507188081741333f, -0.26953598856925964355f, -0.03385031968355178833f, -0.23392516374588012695f, 0.04929682984948158264f, -0.11303059756755828857f, 0.18447478115558624268f, 0.04424420371651649475f, -0.13043949007987976074f, 0.03331520408391952515f},
  {0.10242353379726409912f, -0.03123237192630767822f, -0.20825999975204467773f, -0.27543190121650695801f, 0.07113683968782424927f, -0.15705892443656921387f, 0.03913845494389533997f, -0.00371589628048241138f, 0.12790089845657348633f, -0.12597705423831939697f, 0.02580879814922809601f, -0.21914087235927581787f, -0.02912731841206550598f, -0.24763914942741394043f, 0.06297004222869873047f, -0.24870675802230834961f, -0.14007583260536193848f, -0.07834782451391220093f, -0.06689433008432388306f, 0.01701191626489162445f, -0.23593622446060180664f, -0.17624495923519134521f, -0.22565586864948272705f, 0.15818570554256439209f, -0.23703771829605102539f, 0.05626457557082176208f, -0.20680104196071624756f, -0.10153298825025558472f, -0.00532799027860164642f, 0.00605037389323115349f, -0.31284838914871215820f, 0.01858198642730712891f, -0.24577981233596801758f, 0.12376388907432556152f, -0.03317210823297500610f, 0.22757869958877563477f, 0.00255794753320515156f, 0.11006681621074676514f, -0.32546195387840270996f, -0.14181271195411682129f, -0.18064896762371063232f, -0.47068294882774353027f, -0.14868266880512237549f, -0.14535491168498992920f, -0.09843049943447113037f, -0.04973867163062095642f, -0.05226027965545654297f, -0.22283621132373809814f, 0.06001672521233558655f, -0.15684771537780761719f, 0.10953507572412490845f, -0.07612663507461547852f, 0.08154595643281936646f, -0.10596553236246109009f, 0.28701195120811462402f, -0.02227196097373962402f, -0.04747451096773147583f, 0.12933751940727233887f, -0.08557214587926864624f, -0.05467485636472702026f, -0.37877812981605529785f, -0.04029507562518119812f, -0.10310156643390655518f, 0.00616592261940240860f},
  {0.11162010580301284790f, -0.27384313941001892090f, 0.08659745007753372192f, -0.08296982198953628540f, -0.05072823539376258850f, 0.01311177480965852737f, -0.06901074200868606567f, -0.10028951615095138550f, -0.11874226480722427368f, 0.02959841489791870117f, -0.07318319380283355713f, -0.02661476656794548035f, -0.09568814933300018311f, -0.13751280307769775391f, -0.22105172276496887207f, -0.06296131014823913574f, -0.09476053714752197266f, -0.09817694872617721558f, -0.02595402114093303680f, -0.04690865054726600647f, -0.19811624288558959961f, -0.06244646012783050537f, -0.18627275526523590088f, 0.09589714556932449341f, -0.23191232979297637939f, -0.07534682005643844604f, 0.01704186201095581055f, -0.02738140337169170380f, 0.04009025543928146362f, -0.19738015532493591309f, -0.04137545078992843628f, -0.14684933423995971680f, -0.05167071148753166199f, 0.06805469840764999390f, 0.00165584147907793522f, 0.00013473113358486444f, 0.02161269821226596832f, -0.09540478140115737915f, -0.16900628805160522461f, 0.04897690936923027039f, -0.11658755689859390259f, -0.16645394265651702881f, -0.13967834413051605225f, 0.02720723673701286316f, -0.17048141360282897949f, -0.20716744661331176758f, 0.00752037484198808670f, -0.21095839142799377441f, 0.14308154582977294922f, 0.05040026456117630005f, -0.08277630060911178589f, -0.08421617001295089722f, -0.09805054217576980591f, -0.14892491698265075684f, 0.16528175771236419678f, -0.08541931211948394775f, -0.01880729198455810547f, -0.17577986419200897217f, -0.04784205555915832520f, -0.18481194972991943359f, 0.00382074830122292042f, -0.01827154867351055145f, -0.03504571318626403809f, -0.01449162978678941727f},
  {-0.00308365072123706341f, -0.23138481378555297852f, 0.20879645645618438721f, 0.00669462652876973152f, -0.09948800504207611084f, 0.11715276539325714111f, -0.04999014735221862793f, -0.11517217755317687988f, 0.01140159554779529572f, -0.01445473358035087585f, 0.01527105923742055893f, 0.17189168930053710938f, -0.06695677340030670166f, -0.24583578109741210938f, 0.09033006429672241211f, 0.06726199388504028320f, -0.01231672707945108414f, -0.14573846757411956787f, 0.09523092210292816162f, 0.13077645003795623779f, 0.12115301191806793213f, 0.03435650095343589783f, 0.06461564451456069946f, -0.02137209288775920868f, -0.01667820289731025696f, -0.08828963339328765869f, -0.01279165875166654587f, 0.02205851115286350250f, 0.16247908771038055420f, -0.02573341876268386841f, 0.00245100096799433231f, 0.07227755337953567505f, -0.17722563445568084717f, 0.09661965817213058472f, -0.05963230878114700317f, -0.15159474313259124756f, -0.01440304983407258987f, -0.01565350778400897980f, 0.03082318603992462158f, 0.19519616663455963135f, 0.15186087787151336670f, 0.21433474123477935791f, 0.02311862073838710785f, 0.15742450952529907227f, -0.12063469737768173218f, -0.12589398026466369629f, 0.07491175830364227295f, 0.09565501660108566284f, -0.22326779365539550781f, 0.12435545772314071655f, 0.03843623399734497070f, -0.12599802017211914062f, -0.11782424896955490112f, -0.00232452689670026302f, 0.10399485379457473755f, 0.02656390331685543060f, -0.02077323757112026215f, -0.26953259110450744629f, -0.23488074541091918945f, -0.04922578856348991394f, -0.03159561380743980408f, 0.11504060029983520508f, -0.06217531114816665649f, 0.11100274324417114258f},
  {-0.21077421307563781738f, -0.28538990020751953125f, 0.07434307038784027100f, -0.05974611639976501465f, -0.12129108607769012451f, 0.08256002515554428101f, -0.16390633583068847656f, -0.26405090093612670898f, 0.00171185331419110298f, 0.20321018993854522705f, 0.08830954134464263916f, -0.40820166468620300293f, -0.19247640669345855713f, -0.18395420908927917480f, -0.43783485889434814453f, 0.13916933536529541016f, -0.31678539514541625977f, -0.20098391175270080566f, -0.09260047227144241333f, 0.18784210085868835449f, 0.20335125923156738281f, 0.09061625599861145020f, -0.36050730943679809570f, -0.03645499423146247864f, 0.22006776928901672363f, -0.10507453978061676025f, 0.07560637593269348145f, -0.08191893994808197021f, 0.34510061144828796387f, -0.11260311305522918701f, -0.12312512099742889404f, 0.22873480618000030518f, 0.38236656785011291504f, -0.08708009868860244751f, 0.06398544460535049438f, -0.04523494839668273926f, 0.28239166736602783203f, 0.14788269996643066406f, -0.00351903703995049000f, -0.31349626183509826660f, -0.04248568788170814514f, -0.03626162558794021606f, 0.16110801696777343750f, -0.19403775036334991455f, 0.13491237163543701172f, -0.10478998720645904541f, 0.01338681392371654510f, -0.28472769260406494141f, 0.61356246471405029297f, -0.04114747792482376099f, 0.06074637919664382935f, -0.02308586053550243378f, 0.08178449422121047974f, -0.28741994500160217285f, 0.18888764083385467529f, -0.34604483842849731445f, -0.16468040645122528076f, 0.06207951530814170837f, 0.29196894168853759766f, 0.36092087626457214355f, 0.04661259800195693970f, 0.00919714942574501038f, -0.23302318155765533447f, -0.02375245466828346252f},
  {-0.14401565492153167725f, 0.15461093187332153320f, -0.43122541904449462891f, -0.10024707764387130737f, -0.02586241438984870911f, -0.54528278112411499023f, 0.01067658327519893646f, 0.07213757932186126709f, -0.10768970102071762085f, 0.36365437507629394531f, 0.17520220577716827393f, 0.36267253756523132324f, 0.09373456984758377075f, 0.07656322419643402100f, 0.29774627089500427246f, -0.18756130337715148926f, 0.08594747632741928101f, -0.30323848128318786621f, 0.14923712611198425293f, -0.05207971110939979553f, -0.04179575294256210327f, 0.10703206807374954224f, -0.00984789617359638214f, -0.23448386788368225098f, 0.02539398707449436188f, 0.09787008911371231079f, 0.13032895326614379883f, -0.11063617467880249023f, 0.09503819048404693604f, -0.15158315002918243408f, -0.01885323412716388702f, -0.09302452951669692993f, 0.20250606536865234375f, -0.06365552544593811035f, 0.05202224105596542358f, 0.20160959661006927490f, -0.21358239650726318359f, -0.29698097705841064453f, 0.10574404150247573853f, -0.22027878463268280029f, -0.39604219794273376465f, 0.02379019372165203094f, 0.25940024852752685547f, -0.19013378024101257324f, -0.04373152554035186768f, -0.14812958240509033203f, -0.52744299173355102539f, -0.21930599212646484375f, 0.00912370719015598297f, 0.21675424277782440186f, 0.02045566402375698090f, -0.18852262198925018311f, 0.49156394600868225098f, 0.27783864736557006836f, 0.25318011641502380371f, 0.18326804041862487793f, -0.32215857505798339844f, 0.42738437652587890625f, 0.23841723799705505371f, -0.06065382435917854309f, 0.25597208738327026367f, -0.05516258254647254944f, 0.15110009908676147461f, -0.19161321222782135010f},
  {-0.19334727525711059570f, 0.10385219752788543701f, -0.09999910742044448853f, 0.09178365767002105713f, 0.00508422544226050377f, 0.38735669851303100586f, -0.06578098237514495850f, -0.18045331537723541260f, 0.09227772802114486694f, 0.01543041598051786423f, 0.15407982468605041504f, 0.09521054476499557495f, -0.19641986489295959473f, -0.02689402364194393158f, 0.22175577282905578613f, 0.19688236713409423828f, -0.16491957008838653564f, -0.04922433570027351379f, 0.15662246942520141602f, -0.17012442648410797119f, 0.09377595782279968262f, 0.04098657146096229553f, -0.22095997631549835205f, -0.11746262013912200928f, 0.11914619058370590210f, -0.06733216345310211182f, -0.04975614696741104126f, -0.03578786551952362061f, -0.00809749308973550797f, -0.10943279415369033813f, 0.13494580984115600586f, -0.00502438237890601158f, -0.06773595511913299561f, -0.13259868323802947998f, -0.10069158673286437988f, -0.04733257368206977844f, 0.09884641319513320923f, 0.05987609922885894775f, -0.03943229839205741882f, 0.06278668344020843506f, 0.10501623153686523438f, 0.46489876508712768555f, -0.07920262217521667480f, 0.00638705538585782051f, 0.04941538721323013306f, 0.11368075013160705566f, -0.11464845389127731323f, 0.02656034007668495178f, -0.01714841090142726898f, -0.15297926962375640869f, -0.00120238517411053181f, 0.07518409192562103271f, 0.01006960961967706680f, -0.03437604755163192749f, 0.03712368384003639221f, -0.08243650943040847778f, 0.05744726583361625671f, -0.02376152388751506805f, 0.16188944876194000244f, -0.09378232061862945557f, -0.09459784626960754395f, -0.08135059475898742676f, 0.18754801154136657715f, -0.06172881275415420532f},
  {0.12672233581542968750f, -0.08559291809797286987f, 0.17362572252750396729f, -0.02626512944698333740f, -0.10876519978046417236f, 0.07889547944068908691f, 0.13618762791156768799f, -0.26377144455909729004f, -0.00690704863518476486f, 0.21514366567134857178f, -0.08247201889753341675f, -0.44647049903869628906f, -0.03791891038417816162f, -0.27314499020576477051f, -0.28615164756774902344f, 0.05872495472431182861f, -0.05656016618013381958f, 0.06105941906571388245f, -0.27432879805564880371f, -0.10702473670244216919f, -0.09678924083709716797f, -0.16246856749057769775f, -0.45175692439079284668f, -0.17809614539146423340f, -0.15126828849315643311f, 0.18668387830257415771f, -0.05985072627663612366f, 0.03784041106700897217f, -0.01215868629515171051f, -0.16476967930793762207f, -0.00381618388928472996f, -0.01117381267249584198f, 0.06596571952104568481f, 0.07118681073188781738f, -0.06661723554134368896f, 0.16376398503780364990f, 0.18949621915817260742f, 0.02681514061987400055f, -0.19727575778961181641f, -0.15339533984661102295f, 0.14880140125751495361f, 0.08850475400686264038f, -0.31446316838264465332f, -0.05465346947312355042f, -0.09966810792684555054f, -0.09222657233476638794f, -0.07989419996738433838f, -0.17696672677993774414f, 0.30222055315971374512f, 0.10539782047271728516f, 0.16186232864856719971f, -0.08334423601627349854f, -0.14453819394111633301f, -0.08966428041458129883f, -0.27739620208740234375f, -0.30462649464607238770f, -0.18014386296272277832f, 0.03613364696502685547f, 0.18979361653327941895f, 0.00581384729593992233f, -0.23887616395950317383f, -0.13516026735305786133f, -0.38732126355171203613f, -0.09787394851446151733f},
  {-0.10936608165502548218f, 0.09845061600208282471f, 0.13990579545497894287f, 0.18277075886726379395f, -0.06948277354240417480f, 0.27554374933242797852f, 0.15106631815433502197f, 0.19939470291137695312f, -0.27082857489585876465f, -0.07672956585884094238f, -0.05116285011172294617f, 0.26575937867164611816f, -0.13939039409160614014f, -0.34554913640022277832f, -0.23736716806888580322f, -0.05777104943990707397f, 0.05400279909372329712f, 0.09936805069446563721f, 0.04866521060466766357f, -0.13112995028495788574f, 0.00851596891880035400f, -0.22581921517848968506f, 0.15784229338169097900f, -0.10370371490716934204f, -0.02771434746682643890f, -0.00993229076266288757f, -0.30362370610237121582f, 0.20889180898666381836f, 0.06684120744466781616f, 0.03582211956381797791f, 0.10908420383930206299f, -0.08057757467031478882f, -0.15172253549098968506f, 0.06366211175918579102f, -0.14517545700073242188f, -0.04338445141911506653f, -0.22671559453010559082f, -0.16009151935577392578f, 0.19403514266014099121f, -0.00932482816278934479f, 0.13020843267440795898f, 0.24608010053634643555f, -0.23046618700027465820f, 0.00884991697967052460f, -0.18027286231517791748f, -0.12175086885690689087f, 0.00692964438349008560f, -0.05715002864599227905f, -0.05641020834445953369f, -0.10004439949989318848f, 0.10996656119823455811f, -0.30797597765922546387f, -0.22979640960693359375f, -0.17818875610828399658f, 0.05466879531741142273f, -0.02539592795073986053f, -0.13988050818443298340f, -0.28388172388076782227f, -0.31833881139755249023f, -0.24943408370018005371f, 0.03316593170166015625f, -0.00340619310736656189f, 0.10410807281732559204f, -0.29976230859756469727f},
  {-0.05785812065005302429f, 0.04659571126103401184f, -0.00834151636809110641f, 0.14055588841438293457f, -0.19439804553985595703f, 0.57344627380371093750f, -0.04510070383548736572f, -0.03275394812226295471f, 0.06920742243528366089f, 0.04604796692728996277f, 0.44615021347999572754f, -0.20059226453304290771f, -0.14468233287334442139f, 0.03577843680977821350f, -0.00850658677518367767f, 0.29470074176788330078f, -0.03959777206182479858f, -0.16631291806697845459f, 0.02942067757248878479f, -0.08589041233062744141f, 0.05922335013747215271f, 0.07926092296838760376f, -0.09071993082761764526f, -0.01644265279173851013f, -0.04827065020799636841f, -0.14794969558715820312f, 0.04604929685592651367f, 0.02953126095235347748f, -0.07847157865762710571f, -0.14005883038043975830f, -0.02010146528482437134f, -0.02948682755231857300f, 0.05109208077192306519f, -0.29236897826194763184f, -0.01694497466087341309f, -0.02222193591296672821f, 0.24816781282424926758f, -0.01865304633975028992f, 0.12143378704786300659f, 0.07818647474050521851f, -0.06861755251884460449f, 0.74714142084121704102f, 0.10914980620145797729f, -0.13715222477912902832f, -0.06968944519758224487f, 0.21327231824398040771f, -0.24014489352703094482f, 0.05695414915680885315f, 0.02688237279653549194f, -0.19063781201839447021f, 0.03298392519354820251f, -0.21057145297527313232f, 0.08032324165105819702f, -0.16065436601638793945f, -0.11336032301187515259f, -0.15273128449916839600f, -0.06409665942192077637f, -0.11411522328853607178f, 0.08863081037998199463f, -0.02001757919788360596f, -0.09799133241176605225f, 0.00092682061949744821f, 0.17517109215259552002f, -0.09130925685167312622f},
  {0.24405157566070556641f, -0.02583603002130985260f, -0.21409252285957336426f, -0.04871494695544242859f, 0.12658244371414184570f, -0.10061267763376235962f, 0.00021339346130844206f, 0.16067217290401458740f, 0.03596397489309310913f, 0.23445543646812438965f, -0.20391683280467987061f, -0.61953908205032348633f, 0.06780722737312316895f, -0.01216552965342998505f, 0.11670328676700592041f, -0.28348982334136962891f, 0.08390567451715469360f, -0.01976916193962097168f, -0.52439004182815551758f, -0.18394464254379272461f, -0.31658092141151428223f, -0.12431885302066802979f, -0.08203895390033721924f, 0.20355491340160369873f, -0.39755591750144958496f, 0.24115376174449920654f, -0.09258356690406799316f, 0.10483292490243911743f, 0.04583422839641571045f, -0.26395958662033081055f, -0.13229502737522125244f, -0.05365826934576034546f, -0.24686773121356964111f, 0.23661853373050689697f, 0.12269961088895797729f, 0.28569990396499633789f, 0.05415454134345054626f, 0.08073201030492782593f, -0.35144773125648498535f, -0.39981064200401306152f, 0.23406137526035308838f, -0.45166388154029846191f, -0.23065286874771118164f, -0.25961261987686157227f, -0.07772899419069290161f, -0.05841284990310668945f, 0.07227303087711334229f, -0.00132062972988933325f, -0.16529123485088348389f, 0.18476235866546630859f, 0.24065363407135009766f, -0.07846627384424209595f, -0.08417382836341857910f, -0.24041855335235595703f, 0.18598522245883941650f, 0.06933701783418655396f, 0.07702911645174026489f, 0.03169264271855354309f, 0.15341135859489440918f, -0.21016152203083038330f, -0.25533136725425720215f, -0.15487235784530639648f, 0.03953510522842407227f, 0.03956494480371475220f},
  {0.19625125825405120850f, -0.14615671336650848389f, 0.14694161713123321533f, -0.38834637403488159180f, 0.03996695578098297119f, 0.30263000726699829102f, -0.13708853721618652344f, -0.22043740749359130859f, 0.15510611236095428467f, 0.21128609776496887207f, -0.00043177811312489212f, -0.05615049600601196289f, -0.02447548881173133850f, -0.28781393170356750488f, -0.09852992743253707886f, -0.27987951040267944336f, 0.06339219212532043457f, -0.11399155855178833008f, -0.44084888696670532227f, -0.13484144210815429688f, 0.05365525186061859131f, -0.34123548865318298340f, -0.36528587341308593750f, 0.09526889026165008545f, -0.11590670794248580933f, 0.47897362709045410156f, -0.24855300784111022949f, 0.12624184787273406982f, 0.04911470785737037659f, 0.13235196471214294434f, 0.23659561574459075928f, 0.14877992868423461914f, -0.19974066317081451416f, -0.06364493817090988159f, -0.28207099437713623047f, 0.39826968312263488770f, 0.10233127325773239136f, -0.16983848810195922852f, -0.05783980339765548706f, -0.15324345231056213379f, 0.37340638041496276855f, -0.21163892745971679688f, 0.04107068106532096863f, 0.10087060928344726562f, -0.46990585327148437500f, 0.01333482936024665833f, -0.02760234847664833069f, -0.18133676052093505859f, 0.17902523279190063477f, -0.04923442378640174866f, -0.00729318708181381226f, -0.30348959565162658691f, -0.12719130516052246094f, 0.11666709184646606445f, 0.30132746696472167969f, 0.00684148445725440979f, 0.19386386871337890625f, 0.11518057435750961304f, 0.24499395489692687988f, -0.16522310674190521240f, -0.21390655636787414551f, -0.05910765379667282104f, 0.20474255084991455078f, -0.15232680737972259521f},
  {-0.29726320505142211914f, 0.36566162109375000000f, -0.06849756091833114624f, 0.08254635334014892578f, 0.02035976201295852661f, -0.20255519449710845947f, 0.04322177544236183167f, 0.07329010963439941406f, -0.13327382504940032959f, -0.23553973436355590820f, 0.10113671422004699707f, -0.09158636629581451416f, -0.20234331488609313965f, 0.29846423864364624023f, 0.18583363294601440430f, 0.19733105599880218506f, -0.16954010725021362305f, 0.00414907513186335564f, 0.13108314573764801025f, 0.08588322997093200684f, -0.09119209647178649902f, -0.00690138526260852814f, 0.06210330501198768616f, 0.12841092050075531006f, 0.25721034407615661621f, -0.18457117676734924316f, -0.15787684917449951172f, -0.08407413214445114136f, -0.23289714753627777100f, -0.16747826337814331055f, 0.11627844721078872681f, 0.26643145084381103516f, 0.17437876760959625244f, -0.08620230853557586670f, 0.24367418885231018066f, -0.22805880010128021240f, -0.04321957379579544067f, 0.16880337893962860107f, 0.05100832134485244751f, -0.24050474166870117188f, -0.19151169061660766602f, 0.23521673679351806641f, -0.17353352904319763184f, 0.10795692354440689087f, 0.27323210239410400391f, 0.11251457035541534424f, 0.02100380510091781616f, 0.20482242107391357422f, -0.10263714939355850220f, -0.15796411037445068359f, -0.11936260014772415161f, 0.22111132740974426270f, -0.02698651142418384552f, -0.36405003070831298828f, -0.32451328635215759277f, -0.19216267764568328857f, -0.19673855602741241455f, 0.12962788343429565430f, -0.07398972660303115845f, 0.24430200457572937012f, 0.24361996352672576904f, 0.10845784097909927368f, -0.29288941621780395508f, 0.05109746009111404419f},
  {0.00880318135023117065f, -0.03343743830919265747f, 0.08876916766166687012f, 0.01929929666221141815f, -0.00538980402052402496f, -0.11397904902696609497f, 0.07188516855239868164f, 0.11277832090854644775f, 0.10083180665969848633f, 0.09795036911964416504f, 0.04681658372282981873f, 0.13867960870265960693f, -0.05920349061489105225f, 0.01030119601637125015f, 0.07013177126646041870f, 0.05703127756714820862f, -0.08073661476373672485f, -0.05090954527258872986f, -0.02508630231022834778f, 0.00096278631826862693f, -0.05113975703716278076f, -0.17767287790775299072f, 0.02817317657172679901f, -0.01318129803985357285f, 0.07774103432893753052f, 0.04836534708738327026f, -0.11256346851587295532f, 0.00548256235197186470f, -0.09595145285129547119f, -0.04564905911684036255f, -0.12695804238319396973f, -0.13659559190273284912f, 0.03691862151026725769f, 0.04369360208511352539f, -0.11126240342855453491f, -0.13647225499153137207f, -0.00917834043502807617f, 0.07445512712001800537f, 0.00185602565761655569f, 0.05696568638086318970f, 0.12259618937969207764f, 0.01704711653292179108f, -0.06096101924777030945f, 0.12032295018434524536f, -0.05935099720954895020f, -0.03144589811563491821f, -0.00076546496711671352f, 0.11596979945898056030f, -0.18712215125560760498f, -0.01062540151178836823f, -0.08582653105258941650f, -0.02676395513117313385f, -0.04269492998719215393f, -0.09213060140609741211f, 0.07559177279472351074f, -0.16528593003749847412f, 0.06625244021415710449f, 0.06049995496869087219f, 0.03436608612537384033f, 0.03065557032823562622f, 0.14443121850490570068f, -0.04938040673732757568f, 0.01224911492317914963f, 0.07520983368158340454f},
  {-0.07541012763977050781f, -0.11949744075536727905f, 0.11446920037269592285f, -0.04599481448531150818f, 0.05225814133882522583f, -0.12673541903495788574f, 0.01156177558004856110f, -0.07314077019691467285f, 0.20787243545055389404f, 0.05043778941035270691f, 0.02184614352881908417f, 0.11679806560277938843f, -0.08435622602701187134f, -0.11534505337476730347f, 0.00476674083620309830f, 0.10867221653461456299f, -0.05658508092164993286f, -0.09629769623279571533f, -0.03373570367693901062f, 0.12262926995754241943f, 0.02345943450927734375f, -0.12599679827690124512f, 0.10992974787950515747f, -0.08489238470792770386f, 0.04523395746946334839f, 0.06212757900357246399f, 0.10058759152889251709f, -0.02853598818182945251f, 0.07491628825664520264f, 0.08269994705915451050f, -0.02079555578529834747f, -0.12569707632064819336f, -0.13892062008380889893f, -0.01066413056105375290f, 0.04142108559608459473f, 0.02339345030486583710f, -0.12217264622449874878f, 0.08375949412584304810f, 0.12977279722690582275f, -0.05893168970942497253f, -0.04588483646512031555f, -0.00227923411875963211f, -0.12684379518032073975f, 0.09402604401111602783f, -0.17383860051631927490f, -0.05193105712532997131f, 0.10896400362253189087f, 0.06179209053516387939f, -0.00992802064865827560f, 0.03949480876326560974f, 0.16265794634819030762f, -0.06846717745065689087f, 0.02666614949703216553f, 0.02931657992303371429f, -0.02299529872834682465f, 0.07276248931884765625f, 0.00184320274274796247f, -0.10297191143035888672f, -0.09500180184841156006f, -0.00156617141328752041f, -0.00351966125890612602f, -0.02984883636236190796f, 0.05061387643218040466f, 0.09172532707452774048f},
  {-0.14164589345455169678f, 0.04531726613640785217f, 0.02085317112505435944f, 0.41268476843833923340f, -0.21006672084331512451f, -0.02653217874467372894f, -0.12198280543088912964f, 0.05158904939889907837f, -0.20361672341823577881f, 0.27288863062858581543f, -0.16824398934841156006f, -0.18141707777976989746f, -0.29814779758453369141f, 0.25409969687461853027f, 0.12649802863597869873f, 0.11942284554243087769f, -0.12166753411293029785f, -0.11803890764713287354f, -0.35220071673393249512f, -0.18832691013813018799f, -0.17359858751296997070f, -0.18420113623142242432f, -0.10809077322483062744f, -0.07616251707077026367f, -0.13633581995964050293f, -0.07580617815256118774f, 0.07107881456613540649f, -0.50543087720870971680f, -0.24737030267715454102f, 0.10963471233844757080f, 0.14884798228740692139f, -0.01295808516442775726f, -0.18086370825767517090f, -0.23479786515235900879f, -0.05174813419580459595f, -0.06285317242145538330f, -0.06569615006446838379f, 0.03755255043506622314f, 0.13882063329219818115f, 0.02361887507140636444f, -0.34918877482414245605f, 0.09141337871551513672f, -0.39787718653678894043f, -0.09001563489437103271f, 0.03967619687318801880f, 0.46426096558570861816f, -0.18450514972209930420f, 0.13766299188137054443f, -0.22442905604839324951f, -0.07791245728731155396f, -0.20683749020099639893f, -0.20175142586231231689f, -0.24443662166595458984f, 0.03380101919174194336f, -0.33129975199699401855f, -0.24289961159229278564f, 0.02087683975696563721f, -0.02604233473539352417f, 0.33925759792327880859f, -0.14666652679443359375f, -0.15072885155677795410f, 0.03370942920446395874f, -0.36478036642074584961f, -0.07843828201293945312f},
  {-0.17133203148841857910f, 0.00292957527562975883f, 0.07791807502508163452f, 0.19447953999042510986f, -0.11022146791219711304f, 0.37031584978103637695f, 0.08714862912893295288f, -0.03271265327930450439f, 0.01783476024866104126f, 0.06773251295089721680f, 0.02481802552938461304f, 0.12744033336639404297f, -0.23665818572044372559f, -0.11592123657464981079f, -0.08288545906543731689f, 0.19356565177440643311f, -0.23545837402343750000f, 0.03821720182895660400f, 0.17447620630264282227f, 0.08392711728811264038f, 0.03216480091214179993f, -0.00150925444904714823f, -0.01536418590694665909f, -0.02589694969356060028f, -0.05553256347775459290f, -0.13915245234966278076f, 0.06827290356159210205f, -0.04221787303686141968f, 0.06871931254863739014f, -0.09194713830947875977f, 0.11922504007816314697f, 0.13893489539623260498f, -0.09435314685106277466f, -0.13305163383483886719f, -0.04676249623298645020f, -0.03311260417103767395f, -0.02656792290508747101f, 0.02124009467661380768f, 0.05356750637292861938f, 0.11197894066572189331f, 0.14624215662479400635f, 0.39223706722259521484f, 0.03908378630876541138f, -0.11726016551256179810f, -0.05712005868554115295f, -0.08043562620878219604f, 0.05685377866029739380f, 0.06671325862407684326f, -0.05870253965258598328f, -0.07520764321088790894f, -0.24169635772705078125f, 0.05512229725718498230f, 0.13737370073795318604f, -0.19390755891799926758f, -0.02041413448750972748f, -0.05499824136495590210f, 0.10819419473409652710f, -0.24763751029968261719f, -0.19535277783870697021f, -0.02717458270490169525f, 0.08477748185396194458f, 0.18246826529502868652f, 0.13262708485126495361f, 0.04229340329766273499f},
  {-0.11614797264337539673f, -0.03918133303523063660f, -0.17672178149223327637f, 0.06952584534883499146f, 0.11817916482686996460f, -0.15323419868946075439f, -0.02851961180567741394f, 0.13761116564273834229f, -0.17562107741832733154f, -0.10774797201156616211f, -0.10950903594493865967f, 0.19866703450679779053f, -0.02399723976850509644f, -0.05784828215837478638f, -0.10670417547225952148f, -0.04818125069141387939f, 0.04724596068263053894f, -0.35144245624542236328f, -0.29331651329994201660f, -0.26081225275993347168f, -0.12945611774921417236f, -0.06365665048360824585f, 0.08946413546800613403f, -0.21224254369735717773f, -0.33611503243446350098f, -0.14977112412452697754f, 0.08315402269363403320f, -0.08333037793636322021f, 0.20646701753139495850f, -0.06878963112831115723f, -0.19907762110233306885f, -0.25541475415229797363f, -0.17791940271854400635f, -0.08474016934633255005f, 0.11460333317518234253f, -0.40008702874183654785f, -0.27414265275001525879f, -0.16587381064891815186f, -0.10062544047832489014f, 0.22143247723579406738f, -0.07352624088525772095f, -0.41352200508117675781f, -0.06987804174423217773f, -0.11774493008852005005f, 0.01412670779973268509f, 0.09266781806945800781f, -0.60782921314239501953f, 0.01463479083031415939f, 0.04085844382643699646f, 0.15582923591136932373f, 0.17737525701522827148f, -0.38162082433700561523f, -0.00579612608999013901f, 0.12744396924972534180f, 0.20845343172550201416f, -0.05213966593146324158f, -0.04570189863443374634f, -0.00530291395261883736f, -0.15551492571830749512f, -0.26549205183982849121f, -0.04924020916223526001f, -0.05517342314124107361f, -0.08671736717224121094f, 0.08960212022066116333f},
  {0.03788454458117485046f, -0.26116999983787536621f, 0.11804941296577453613f, -0.22113315761089324951f, -0.15994460880756378174f, -0.21851728856563568115f, -0.06296157091856002808f, -0.17059957981109619141f, 0.19961099326610565186f, -0.00970196351408958435f, 0.02622079104185104370f, 0.11381286382675170898f, 0.14414526522159576416f, -0.41392645239830017090f, -0.22996097803115844727f, -0.23369008302688598633f, 0.01882496662437915802f, 0.14765186607837677002f, 0.20765675604343414307f, 0.19809021055698394775f, 0.32201597094535827637f, -0.39556682109832763672f, -0.51096469163894653320f, -0.05208381637930870056f, 0.25823122262954711914f, -0.10599632561206817627f, -0.33030331134796142578f, 0.03124186396598815918f, -0.14015530049800872803f, -0.13612458109855651855f, -0.00023549402249045670f, 0.18789999186992645264f, 0.05218484252691268921f, 0.18037256598472595215f, -0.16704808175563812256f, 0.10551439970731735229f, -0.26639193296432495117f, -0.10832140594720840454f, -0.18849791586399078369f, 0.06333771347999572754f, -0.06452722102403640747f, 0.27712750434875488281f, -0.12836731970310211182f, 0.49051123857498168945f, -0.02306215837597846985f, -0.34729048609733581543f, 0.15741918981075286865f, 0.22035051882266998291f, 0.21270136535167694092f, 0.14835412800312042236f, -0.04601547122001647949f, 0.10305625945329666138f, 0.06246064230799674988f, -0.06597589701414108276f, -0.13091728091239929199f, -0.21384759247303009033f, -0.29190123081207275391f, 0.05510118603706359863f, -0.28379935026168823242f, 0.34802213311195373535f, -0.25137782096862792969f, 0.04510299116373062134f, 0.01460785046219825745f, -0.10438999533653259277f},
  {-0.00005885473001399077f, 0.15152023732662200928f, 0.21540023386478424072f, 0.27799001336097717285f, -0.17921750247478485107f, 0.29517543315887451172f, 0.22122243046760559082f, 0.09440012276172637939f, -0.26826539635658264160f, -0.10893298685550689697f, -0.23708561062812805176f, 0.11003198474645614624f, -0.20416839420795440674f, 0.05418244004249572754f, 0.03605333715677261353f, -0.07804135978221893311f, -0.11750654131174087524f, 0.13046470284461975098f, -0.24591693282127380371f, -0.25863277912139892578f, 0.15225088596343994141f, -0.20788431167602539062f, 0.21199576556682586670f, -0.27878078818321228027f, -0.22516156733036041260f, -0.20444928109645843506f, -0.00465951720252633095f, 0.00997393112629652023f, 0.28553211688995361328f, 0.06809974461793899536f, 0.19041138887405395508f, -0.24248144030570983887f, -0.36453253030776977539f, 0.05967994779348373413f, -0.08741194009780883789f, -0.09072648733854293823f, -0.02657927200198173523f, -0.06421810388565063477f, 0.04701743647456169128f, 0.26370811462402343750f, 0.07564631849527359009f, -0.04770528525114059448f, -0.02585710398852825165f, 0.24266779422760009766f, 0.02004494890570640564f, -0.04974111542105674744f, -0.05114284530282020569f, 0.38052919507026672363f, 0.14072425663471221924f, 0.00483340909704566002f, 0.06570535153150558472f, 0.03774249553680419922f, -0.03699093312025070190f, -0.17303749918937683105f, 0.06508219987154006958f, -0.23676261305809020996f, -0.02768938988447189331f, -0.28617954254150390625f, -0.26354229450225830078f, -0.18720988929271697998f, -0.01192232687026262283f, -0.01843139529228210449f, -0.06620243191719055176f, 0.12426720559597015381f},
  {-0.30093893408775329590f, -0.09146045148372650146f, -0.37039881944656372070f, -0.25114813446998596191f, -0.24145573377609252930f, -0.50550001859664916992f, -0.30020868778228759766f, 0.10430673509836196899f, -0.11186116933822631836f, 0.00649419659748673439f, -0.19379220902919769287f, 0.31797412037849426270f, 0.19384174048900604248f, -0.49210387468338012695f, 0.01375657692551612854f, 0.05359137058258056641f, 0.12102529406547546387f, -0.66930365562438964844f, -0.16340687870979309082f, -0.03015032410621643066f, -0.08580937981605529785f, -0.22758041322231292725f, -0.00210976926609873772f, -0.00664281286299228668f, -0.07367280870676040649f, -0.02381940372288227081f, -0.07244325429201126099f, -0.17202320694923400879f, 0.16062057018280029297f, -0.22143410146236419678f, 0.37232762575149536133f, 0.35907664895057678223f, 0.03497258946299552917f, -0.10677036643028259277f, -0.29156118631362915039f, -0.31478959321975708008f, -0.12301807105541229248f, -0.13947503268718719482f, 0.36268299818038940430f, 0.16684418916702270508f, -0.40548551082611083984f, -0.05297238752245903015f, -0.12028779834508895874f, -0.11455788463354110718f, -0.47265478968620300293f, 0.27080482244491577148f, -0.19403810799121856689f, -0.28280618786811828613f, 0.08658639341592788696f, 0.31421309709548950195f, -0.02572082355618476868f, -0.38846170902252197266f, -0.05680365487933158875f, 0.25957125425338745117f, 0.05890741571784019470f, -0.01696972362697124481f, 0.02791846729815006256f, -0.27902919054031372070f, 0.08867982029914855957f, -0.16433583199977874756f, 0.13558495044708251953f, 0.26724609732627868652f, -0.03372823074460029602f, -0.17819936573505401611f},
  {-0.10989908128976821899f, -0.02221759036183357239f, 0.09384355694055557251f, -0.10565590858459472656f, -0.04963300749659538269f, 0.08883279561996459961f, 0.06373599916696548462f, -0.01042601279914379120f, -0.19415582716464996338f, 0.06019179522991180420f, -0.01033442746847867966f, -0.06014723703265190125f, 0.00456698145717382431f, -0.06399046629667282104f, 0.02367060258984565735f, 0.03327213227748870850f, 0.01726735010743141174f, 0.05274191126227378845f, 0.08551353961229324341f, -0.11414743959903717041f, -0.01040433067828416824f, 0.08796397596597671509f, -0.03884174302220344543f, 0.05777318775653839111f, -0.00096317951101809740f, -0.03422284126281738281f, -0.08861467242240905762f, -0.08993776142597198486f, -0.08912076801061630249f, 0.02358210273087024689f, -0.01937584951519966125f, 0.05846173688769340515f, 0.09740839153528213501f, 0.01226700004190206528f, -0.01949395239353179932f, 0.02015230618417263031f, 0.03800692036747932434f, 0.02564998529851436615f, -0.04714018478989601135f, 0.14059431850910186768f, 0.02417000010609626770f, 0.04416792094707489014f, 0.04667600616812705994f, -0.08171721547842025757f, -0.01777770556509494781f, -0.05477613210678100586f, -0.08461789786815643311f, 0.07639834284782409668f, 0.01125175319612026215f, -0.00143770291469991207f, -0.03588725253939628601f, 0.00076676846947520971f, 0.01638906262814998627f, -0.02178104594349861145f, 0.06795179843902587891f, 0.10463146865367889404f, -0.00019251440244261175f, -0.00509206438437104225f, 0.04889526963233947754f, 0.06684093177318572998f, -0.02739660069346427917f, 0.12348955869674682617f, -0.02737315744161605835f, 0.08066827803850173950f},
  {-0.05530779808759689331f, 0.25338408350944519043f, 0.26910322904586791992f, 0.10181497782468795776f, 0.02573113888502120972f, 0.11276360601186752319f, 0.14439260959625244141f, 0.08342418074607849121f, -0.14654034376144409180f, -0.07874958217144012451f, -0.13781516253948211670f, 0.22354635596275329590f, 0.13400705158710479736f, -0.09371422976255416870f, 0.00757490238174796104f, -0.13385397195816040039f, 0.10967604070901870728f, 0.11604093015193939209f, -0.18011440336704254150f, -0.12539231777191162109f, 0.17422513663768768311f, -0.14354056119918823242f, 0.14207173883914947510f, -0.15385662019252777100f, -0.04413355141878128052f, 0.13049502670764923096f, -0.17223550379276275635f, 0.07064499706029891968f, 0.09373315423727035522f, 0.08395532518625259399f, 0.14206682145595550537f, -0.05344494059681892395f, -0.13425861299037933350f, 0.06279437988996505737f, 0.00467617576941847801f, 0.13905206322669982910f, -0.04436557367444038391f, -0.01350170839577913284f, 0.09377854317426681519f, 0.17126156389713287354f, 0.04790893942117691040f, 0.07773232460021972656f, -0.09310778975486755371f, 0.28844892978668212891f, 0.02795996144413948059f, -0.08169829100370407104f, 0.26037871837615966797f, 0.13113451004028320312f, 0.14564204216003417969f, -0.00927185826003551483f, 0.08067066222429275513f, 0.19964653253555297852f, -0.19411942362785339355f, -0.11971249431371688843f, 0.15528482198715209961f, 0.01081070117652416229f, -0.15483011305332183838f, -0.13526450097560882568f, -0.04238748177886009216f, -0.01651145517826080322f, -0.09521460533142089844f, -0.07054048031568527222f, -0.08583042770624160767f, 0.03432350233197212219f},
  {0.04591785371303558350f, 0.01991422474384307861f, -0.35367259383201599121f, 0.12313847243785858154f, 0.04370198026299476624f, -0.07447944581508636475f, -0.23666280508041381836f, 0.15175805985927581787f, 0.08836111426353454590f, 0.21259318292140960693f, 0.32761976122856140137f, -0.09815169125795364380f, -0.08694608509540557861f, 0.20619449019432067871f, 0.35880839824676513672f, -0.46555128693580627441f, 0.04186141863465309143f, -0.20030023157596588135f, 0.15167531371116638184f, -0.12647959589958190918f, -0.06439513713121414185f, 0.11720648407936096191f, -0.06779879331588745117f, -0.13894283771514892578f, -0.12764593958854675293f, -0.08896771818399429321f, -0.02000848203897476196f, 0.01748695597052574158f, -0.18339885771274566650f, 0.04837050661444664001f, -0.19450037181377410889f, -0.13393703103065490723f, -0.27507507801055908203f, 0.01017366349697113037f, -0.25880122184753417969f, 0.30728486180305480957f, -0.06442118436098098755f, -0.05623058602213859558f, -0.04720366001129150391f, -0.12680317461490631104f, -0.08282522857189178467f, 0.30456790328025817871f, 0.29927614331245422363f, -0.04590914398431777954f, 0.04673567414283752441f, 0.13189028203487396240f, -0.32877936959266662598f, 0.20848241448402404785f, -0.31738087534904479980f, 0.07565166056156158447f, -0.10831731557846069336f, -0.04320582374930381775f, 0.32992580533027648926f, 0.02175578847527503967f, 0.12254236638545989990f, 0.16143156588077545166f, -0.08160058408975601196f, 0.30256760120391845703f, 0.21462522447109222412f, -0.03973346576094627380f, -0.07807584851980209351f, -0.07534138113260269165f, 0.33832269906997680664f, -0.04734958708286285400f},
  {-0.10443267226219177246f, -0.13850584626197814941f, 0.17831206321716308594f, 0.03109740465879440308f, -0.12675201892852783203f, 0.25845327973365783691f, -0.14943279325962066650f, -0.21009093523025512695f, 0.01439881883561611176f, 0.06508380174636840820f, -0.05315235629677772522f, 0.19237175583839416504f, -0.08352223038673400879f, -0.19030134379863739014f, 0.10280632972717285156f, 0.26016727089881896973f, -0.09765179455280303955f, -0.04318399727344512939f, 0.06250622123479843140f, -0.03916608914732933044f, 0.20451381802558898926f, -0.04803123697638511658f, 0.01919041201472282410f, 0.02779140509665012360f, 0.09922972321510314941f, -0.14229044318199157715f, 0.03781191632151603699f, 0.07858052849769592285f, 0.10625933855772018433f, -0.09530963003635406494f, 0.16688445210456848145f, 0.09266113489866256714f, -0.12801083922386169434f, -0.03117287904024124146f, -0.16564063727855682373f, -0.17663940787315368652f, 0.09324713796377182007f, -0.17289495468139648438f, 0.10669651627540588379f, 0.05464066565036773682f, 0.06310762465000152588f, 0.41873332858085632324f, 0.05327912792563438416f, -0.02488541789352893829f, -0.17701660096645355225f, -0.15006886422634124756f, -0.09863154590129852295f, -0.00982995610684156418f, 0.01495127752423286438f, 0.05768147855997085571f, 0.03645692393183708191f, -0.05551902577280998230f, 0.06506150960922241211f, -0.07377745956182479858f, -0.04088311642408370972f, 0.02722752466797828674f, -0.00863528437912464142f, -0.35296639800071716309f, -0.20410345494747161865f, -0.20312018692493438721f, 0.08183150738477706909f, 0.08177069574594497681f, 0.13156390190124511719f, 0.05998400971293449402f},
  {-0.27633452415466308594f, 0.21387964487075805664f, 0.11785052716732025146f, 0.31233289837837219238f, -0.20404350757598876953f, 0.13782180845737457275f, 0.23054565489292144775f, 0.31692719459533691406f, -0.13340963423252105713f, -0.02563636563718318939f, -0.14594417810440063477f, 0.26272612810134887695f, -0.02344615757465362549f, -0.21872341632843017578f, -0.29243820905685424805f, 0.09970132261514663696f, 0.01558181084692478180f, 0.25586315989494323730f, 0.16277766227722167969f, -0.13747639954090118408f, -0.12155085802078247070f, -0.41438594460487365723f, 0.35801976919174194336f, -0.06280290335416793823f, 0.07659701257944107056f, -0.06331698596477508545f, -0.13423164188861846924f, -0.01899210549890995026f, -0.00536368554458022118f, -0.04200487583875656128f, 0.50629222393035888672f, 0.14661614596843719482f, 0.15942129492759704590f, -0.28641465306282043457f, 0.09471689164638519287f, -0.35511410236358642578f, -0.06084661558270454407f, -0.00116868328768759966f, 0.34734550118446350098f, 0.14757490158081054688f, 0.05903744697570800781f, 0.15707446634769439697f, -0.42801702022552490234f, -0.02586448006331920624f, 0.06863901764154434204f, 0.03013888373970985413f, 0.24346973001956939697f, 0.11387718468904495239f, -0.32231873273849487305f, 0.13435600697994232178f, -0.22188420593738555908f, 0.09392489492893218994f, -0.30951634049415588379f, -0.00310690095648169518f, -0.10051191598176956177f, -0.34698736667633056641f, 0.14950883388519287109f, -0.24489915370941162109f, -0.07254096865653991699f, 0.02048203721642494202f, 0.28129592537879943848f, 0.17797183990478515625f, -0.20992735028266906738f, -0.26993113756179809570f},
