// This file is computer-generated by onnx2c 
// (TODO: add creating command line here)
// (TODO: print creation date here )

// ONNX model:
// produced by pytorch, version 2.5.1
// ONNX IR version: 11
// Model documentation: 
/*

*/

#include <float.h>
#include <math.h>
#include <stdbool.h>
#include <stdint.h>
#include <string.h>

#define MAX(X,Y) ( X > Y ? X : Y)
#define MIN(X,Y) ( X < Y ? X : Y)
#define CLIP(X,L) ( MAX(MIN(X,L), -L) )

#if __STDC_VERSION__ < 199901L
#define FUNC_PREFIX
#else
#define FUNC_PREFIX static inline
#endif

static const float tensor_actor_0_weight[64][7] = 
{
  {0.00206204759888350964f, 0.00877600256353616714f, 0.00546058220788836479f, -0.00551971979439258575f, 0.00085864547872915864f, 0.00228329398669302464f, -0.00475577823817729950f},
  {-0.41291075944900512695f, -0.65470272302627563477f, 0.05789723992347717285f, -0.00184875971172004938f, 0.04030956700444221497f, -0.08187208324670791626f, -0.08300608396530151367f},
  {-0.95362579822540283203f, 0.92415428161621093750f, 0.25592771172523498535f, 0.18556904792785644531f, -0.16219332814216613770f, -0.01174364890903234482f, 1.10181784629821777344f},
  {-0.21536901593208312988f, 0.10322131216526031494f, 0.39107441902160644531f, -1.86775350570678710938f, -0.05638768896460533142f, -0.14569167792797088623f, 0.83982431888580322266f},
  {0.20182098448276519775f, 0.29608675837516784668f, -0.23848401010036468506f, 0.05714186653494834900f, 0.06144766509532928467f, -0.00059970264555886388f, 0.22162725031375885010f},
  {-0.44362217187881469727f, 0.84455573558807373047f, 0.23559282720088958740f, -0.80826199054718017578f, -0.13057996332645416260f, -0.10985122621059417725f, 0.98367261886596679688f},
  {-1.02288758754730224609f, -1.18705904483795166016f, -0.25183108448982238770f, 0.16218490898609161377f, 0.06080830842256546021f, -0.46658080816268920898f, -0.03782599419355392456f},
  {-1.17639958858489990234f, -0.17743223905563354492f, -0.49990409612655639648f, -0.16682222485542297363f, 0.61507052183151245117f, -0.20317783951759338379f, 0.26177388429641723633f},
  {1.01033592224121093750f, 0.50871473550796508789f, -0.46165513992309570312f, -0.06986860185861587524f, -0.06116108223795890808f, 0.31749173998832702637f, 0.05591333657503128052f},
  {-0.24683240056037902832f, 1.26929032802581787109f, -0.07085240632295608521f, 0.67979431152343750000f, -0.47716653347015380859f, 0.54488360881805419922f, 0.60974651575088500977f},
  {-0.76123934984207153320f, 0.47403919696807861328f, 0.04475646838545799255f, 0.89826387166976928711f, -0.12894028425216674805f, 0.41142147779464721680f, -0.08579084277153015137f},
  {-0.28179454803466796875f, 0.29903537034988403320f, -0.24436645209789276123f, 0.12955112755298614502f, 0.82338589429855346680f, 0.49296915531158447266f, -1.14188623428344726562f},
  {0.11944517493247985840f, -0.79712665081024169922f, -0.36577513813972473145f, 0.15906175971031188965f, 0.05876175314188003540f, 0.03723018616437911987f, 0.10686611384153366089f},
  {0.74562811851501464844f, 0.32794511318206787109f, 0.12097642570734024048f, 0.45796132087707519531f, 0.37847006320953369141f, -0.00534836295992136002f, 0.85731649398803710938f},
  {0.67056000232696533203f, 0.48304593563079833984f, -0.41258084774017333984f, 0.83368360996246337891f, 1.17946219444274902344f, -0.77313667535781860352f, -0.13243550062179565430f},
  {1.11873471736907958984f, 0.57044029235839843750f, 0.07811892032623291016f, -0.32706648111343383789f, -0.05736181512475013733f, -0.01116945035755634308f, 0.03105188533663749695f},
  {-1.61495888233184814453f, 0.01805186830461025238f, -0.09914543479681015015f, 0.52028757333755493164f, -0.00960580911487340927f, 0.48585876822471618652f, -0.52640569210052490234f},
  {-0.74228072166442871094f, -0.83125293254852294922f, -0.11401268094778060913f, 0.26005375385284423828f, -0.18539106845855712891f, -0.54471659660339355469f, 0.17049586772918701172f},
  {-0.44614237546920776367f, 0.37020799517631530762f, 0.15151272714138031006f, 0.61181896924972534180f, -0.04933694750070571899f, 0.24969814717769622803f, -1.29035329818725585938f},
  {-0.00612305942922830582f, 0.00733962934464216232f, -0.00096691556973382831f, 0.01069758366793394089f, 0.00312544172629714012f, -0.00056291912915185094f, 0.00735243735834956169f},
  {0.66326230764389038086f, 1.27951633930206298828f, -0.24288609623908996582f, -0.35615709424018859863f, -0.43213909864425659180f, -0.29765841364860534668f, 0.11605513840913772583f},
  {1.24317800998687744141f, 0.45904344320297241211f, -0.12434375286102294922f, 0.21090543270111083984f, 0.18114092946052551270f, 0.01674864441156387329f, -0.03627568855881690979f},
  {-0.62684726715087890625f, -0.99473464488983154297f, 0.19245550036430358887f, -0.24499914050102233887f, 1.35463142395019531250f, -0.01586361601948738098f, -0.15120169520378112793f},
  {-0.02096288464963436127f, 0.02203722484409809113f, 0.00176110642496496439f, 0.01184061542153358459f, 0.00201246282085776329f, 0.00013154301268514246f, 0.00540747819468379021f},
  {-0.33772230148315429688f, 0.81468760967254638672f, -0.10279368609189987183f, 0.74109840393066406250f, -0.74032545089721679688f, 0.30341219902038574219f, -0.36498808860778808594f},
  {-0.49157419800758361816f, 0.91953587532043457031f, -0.31257784366607666016f, 0.33307263255119323730f, -0.52825081348419189453f, 0.47716414928436279297f, 0.45844343304634094238f},
  {-0.00684477668255567551f, 0.03535863757133483887f, 0.00984799582511186600f, 0.00520298210904002190f, 0.00807165354490280151f, -0.00056491594295948744f, 0.02167052589356899261f},
  {0.00338460062630474567f, -0.00795915909111499786f, -0.00686988234519958496f, 0.00757469795644283295f, -0.00002033895907516126f, -0.00259563745930790901f, 0.00331399100832641125f},
  {-0.43767279386520385742f, 0.90623152256011962891f, -0.30139312148094177246f, -1.08750069141387939453f, 0.32219418883323669434f, -0.64205509424209594727f, -0.44427061080932617188f},
  {-0.83255505561828613281f, 0.78666234016418457031f, -0.54017710685729980469f, -0.36348000168800354004f, 0.05744649097323417664f, -0.36977890133857727051f, 0.05282756686210632324f},
  {-0.00967006199061870575f, 0.00194483005907386541f, 0.00937994476407766342f, -0.00694196112453937531f, 0.00219763116911053658f, 0.00382562493905425072f, -0.00278288079425692558f},
  {1.31041979789733886719f, -0.16189856827259063721f, -0.44290110468864440918f, -0.37927079200744628906f, -0.14487805962562561035f, 0.45581683516502380371f, -0.10682172328233718872f},
  {0.84916990995407104492f, 1.09426319599151611328f, 0.08970572799444198608f, -0.05522778257727622986f, 0.03340008482336997986f, -0.02559236623346805573f, -0.34351250529289245605f},
  {-1.21769607067108154297f, 0.17056840658187866211f, -0.36516374349594116211f, 0.40387880802154541016f, -0.54326921701431274414f, -0.62087917327880859375f, 0.43668189644813537598f},
  {0.62525904178619384766f, -0.75611454248428344727f, 0.12101683765649795532f, -0.18034021556377410889f, -0.23331955075263977051f, -0.53717607259750366211f, -0.11344444751739501953f},
  {-1.02038598060607910156f, 0.23918764293193817139f, -0.58934211730957031250f, -0.13617126643657684326f, 0.10724476724863052368f, -0.50917112827301025391f, 0.36193189024925231934f},
  {1.24124586582183837891f, -0.04582982137799263000f, -0.06551332026720046997f, -0.44905978441238403320f, -0.12494385987520217896f, 0.28810673952102661133f, 0.03233445063233375549f},
  {1.07445216178894042969f, -1.17102050781250000000f, -0.33292838931083679199f, -0.51131838560104370117f, -0.39750158786773681641f, 0.07248920202255249023f, -0.13963173329830169678f},
  {0.00300452229566872120f, 0.01088954415172338486f, 0.00565920537337660789f, -0.00801120325922966003f, 0.00019578852516133338f, 0.00093324936460703611f, -0.00460592936724424362f},
  {-0.69792753458023071289f, -0.53668624162673950195f, -0.27110263705253601074f, -0.96105968952178955078f, 1.42621099948883056641f, 0.60309666395187377930f, -0.33897805213928222656f},
  {-0.46842080354690551758f, 0.05302954092621803284f, 0.11579754948616027832f, -0.11371207237243652344f, -0.04884304478764533997f, 0.03555322811007499695f, -0.08651573956012725830f},
  {-0.87350088357925415039f, -0.34349501132965087891f, -0.29805487394332885742f, 0.52672684192657470703f, -0.52520644664764404297f, -0.03213617578148841858f, -0.30368846654891967773f},
  {1.03519833087921142578f, 0.86351209878921508789f, -0.36336407065391540527f, 0.43541666865348815918f, 0.36125358939170837402f, -0.40315118432044982910f, -0.49243557453155517578f},
  {-1.01593077182769775391f, -0.72673255205154418945f, -0.30124759674072265625f, 0.55220478773117065430f, -0.70276993513107299805f, -0.56803983449935913086f, 0.08324827253818511963f},
  {0.60990470647811889648f, -0.97935408353805541992f, -0.11934261769056320190f, 0.41087317466735839844f, 0.02473171241581439972f, -2.07996201515197753906f, -0.21703895926475524902f},
  {0.60260391235351562500f, -0.41803497076034545898f, -0.20513731241226196289f, -0.70926350355148315430f, 0.23718015849590301514f, 0.77592229843139648438f, 0.63630515336990356445f},
  {-0.17587016522884368896f, -1.37621045112609863281f, -0.26971724629402160645f, -0.34745132923126220703f, -1.04796302318572998047f, 0.42984661459922790527f, -0.42014089226722717285f},
  {-0.64027357101440429688f, -0.81030058860778808594f, -0.19918659329414367676f, 0.44490197300910949707f, -0.22924551367759704590f, -1.66039454936981201172f, 0.56403893232345581055f},
  {-0.04274730756878852844f, 1.23973286151885986328f, -0.16222992539405822754f, -0.68030160665512084961f, -0.94563734531402587891f, -0.52082031965255737305f, 0.85091835260391235352f},
  {-0.15566743910312652588f, 0.53160184621810913086f, -0.11663940548896789551f, 0.53638267517089843750f, -0.18437817692756652832f, 0.21146824955940246582f, -0.48068705201148986816f},
  {0.00080550194252282381f, -0.01258709561079740524f, -0.00760598015040159225f, 0.00989052746444940567f, -0.00125250511337071657f, -0.00092294509522616863f, 0.00243000616319477558f},
  {0.27545079588890075684f, -1.45552325248718261719f, -0.30329272150993347168f, 0.08637721091508865356f, -0.32528796792030334473f, -0.05945963412523269653f, -0.17822535336017608643f},
  {-0.01638143323361873627f, 0.96731013059616088867f, -0.16453403234481811523f, -0.02110521495342254639f, 0.19995383918285369873f, -0.45046201348304748535f, -0.63339704275131225586f},
  {-0.51663070917129516602f, 0.04063276946544647217f, -0.29521870613098144531f, 0.06212484464049339294f, 0.22692416608333587646f, -0.09977649152278900146f, 0.26058402657508850098f},
  {-0.71208000183105468750f, 1.11921918392181396484f, -0.22989709675312042236f, -0.79356211423873901367f, 0.64433139562606811523f, -0.66911542415618896484f, -0.67353290319442749023f},
  {0.00046836098772473633f, 0.01841948181390762329f, 0.00631214585155248642f, -0.00453336955979466438f, 0.00039698753971606493f, 0.00062994443578645587f, -0.00105489999987185001f},
  {-0.07286138832569122314f, 0.53093892335891723633f, 0.09876786917448043823f, -1.08053386211395263672f, 0.08881237357854843140f, 0.24551889300346374512f, -0.69222092628479003906f},
  {0.58889788389205932617f, 0.92376685142517089844f, -0.24256429076194763184f, -0.24567118287086486816f, -0.74733954668045043945f, -1.08282303810119628906f, -0.92284148931503295898f},
  {1.30390655994415283203f, 0.20456704497337341309f, -0.19356374442577362061f, 0.27926936745643615723f, 0.31787481904029846191f, 0.77477997541427612305f, 0.72375857830047607422f},
  {0.47575718164443969727f, 0.27654963731765747070f, -0.58543866872787475586f, -0.42732501029968261719f, -0.37919795513153076172f, -0.07343731075525283813f, -0.06977609544992446899f},
  {0.44404441118240356445f, 0.35214328765869140625f, -0.22566387057304382324f, 0.09482289850711822510f, 0.05155508965253829956f, 0.01513243373483419418f, 0.18234540522098541260f},
  {0.00237112212926149368f, -0.01103111077100038528f, -0.00671214563772082329f, 0.00954505708068609238f, -0.00079540006117895246f, -0.00118671171367168427f, 0.00267428066581487656f},
  {-1.26380908489227294922f, 0.52244025468826293945f, -0.39730149507522583008f, -0.03895514830946922302f, 0.20008930563926696777f, -0.44928878545761108398f, 0.09726317971944808960f},
  {0.82261651754379272461f, -1.16258275508880615234f, -0.26092985272407531738f, 0.23873890936374664307f, 0.27763432264328002930f, -0.00107290479354560375f, 0.58533006906509399414f}
};
static const float tensor_actor_0_bias[64] = 
{-0.01131303794682025909f, -0.27637955546379089355f, -0.28193527460098266602f, -0.57577359676361083984f, 0.64092868566513061523f, -0.19088712334632873535f, -0.20125398039817810059f, -0.04645493254065513611f, 0.59922987222671508789f, -0.39876112341880798340f, -0.37380802631378173828f, -0.65095692873001098633f, -0.03502820804715156555f, 0.00271175988018512726f, -0.07921562343835830688f, 0.04393061250448226929f, -0.18251173198223114014f, 0.00847070757299661636f, -0.43247708678245544434f, 0.00035860115895047784f, 0.23074266314506530762f, 0.15298838913440704346f, -0.21264342963695526123f, 0.00174669269472360611f, -0.63297772407531738281f, -0.17062556743621826172f, -0.01359638851135969162f, 0.01345334108918905258f, -0.45191299915313720703f, -0.01081979461014270782f, -0.01869193278253078461f, 0.19973479211330413818f, -0.39071139693260192871f, -0.21471260488033294678f, 0.19804878532886505127f, -0.24083192646503448486f, 0.02815311960875988007f, 0.06315486133098602295f, -0.00753386644646525383f, -0.69105207920074462891f, -0.31070381402969360352f, -0.38551464676856994629f, 0.03141130134463310242f, -0.35453048348426818848f, -0.04578597098588943481f, -0.34075334668159484863f, 0.13069894909858703613f, -0.58181804418563842773f, -0.49384611845016479492f, -0.46790844202041625977f, 0.01010151021182537079f, 0.13080361485481262207f, -0.04094902053475379944f, 0.28800609707832336426f, -0.38753333687782287598f, -0.00996311474591493607f, -0.61090803146362304688f, -0.14475898444652557373f, -0.30148640275001525879f, 0.45576685667037963867f, 0.53673654794692993164f, 0.00762799428775906563f, 0.25916555523872375488f, -0.25794333219528198242f};
static const float tensor_actor_2_weight[64][64] = 
{
  {0.00088989123469218612f, -0.03767376020550727844f, 0.23313133418560028076f, 0.06130861118435859680f, 0.00631729047745466232f, -0.19927020370960235596f, -0.08064282685518264771f, 0.04680209234356880188f, -0.17295205593109130859f, -0.14415940642356872559f, 0.00820794049650430679f, -0.01917998120188713074f, 0.01203690096735954285f, -0.05286362767219543457f, 0.05446276813745498657f, 0.13748581707477569580f, -0.04119741916656494141f, 0.12225476652383804321f, 0.11503955721855163574f, 0.00929041206836700439f, -0.05532272160053253174f, -0.02566366270184516907f, -0.07362163811922073364f, 0.00440169358626008034f, -0.12276630103588104248f, 0.14188490808010101318f, -0.04559610038995742798f, 0.02183050476014614105f, 0.15311907231807708740f, 0.00861322414129972458f, 0.02431949414312839508f, 0.13867668807506561279f, 0.08225305378437042236f, -0.03921599313616752625f, -0.01972155086696147919f, -0.02519876509904861450f, -0.09235011041164398193f, -0.07378003001213073730f, 0.00690302392467856407f, 0.07160710543394088745f, -0.16426110267639160156f, 0.06683839112520217896f, -0.17069327831268310547f, -0.02758902125060558319f, 0.09291678667068481445f, -0.05285681411623954773f, 0.02770587429404258728f, -0.14203773438930511475f, 0.07280736416578292847f, -0.00019628487643785775f, 0.00896670203655958176f, 0.04639619588851928711f, 0.02971430867910385132f, -0.08851733803749084473f, -0.10023766756057739258f, 0.01503127627074718475f, -0.00532121350988745689f, -0.05851421132683753967f, 0.06461966037750244141f, 0.04287573322653770447f, -0.04485207051038742065f, -0.01029714196920394897f, 0.12027633190155029297f, 0.09407044202089309692f},
  {-0.02404223755002021790f, 0.04042023792862892151f, -0.00551685504615306854f, 0.04335903748869895935f, -0.07311820238828659058f, -0.15268084406852722168f, 0.04779893532395362854f, 0.04508898407220840454f, -0.03838996216654777527f, 0.09000925719738006592f, -0.06729675084352493286f, -0.10384207963943481445f, -0.08232462406158447266f, 0.10000289976596832275f, -0.04366451874375343323f, -0.00719167804345488548f, 0.03319831565022468567f, 0.00143506121821701527f, 0.01587459817528724670f, 0.01290238741785287857f, -0.07531663775444030762f, -0.02154093608260154724f, 0.01170033402740955353f, -0.00302760326303541660f, 0.00361430644989013672f, -0.02056887373328208923f, -0.00985428411513566971f, 0.02905319817364215851f, -0.04395096749067306519f, -0.03196305409073829651f, 0.00635556038469076157f, 0.02321613952517509460f, -0.09858693927526473999f, -0.09925359487533569336f, -0.00093818351160734892f, 0.04957854375243186951f, 0.06008443236351013184f, -0.01242373418062925339f, -0.00716896355152130127f, 0.01374115608632564545f, -0.00151612458284944296f, -0.17363521456718444824f, 0.18839052319526672363f, 0.06468523293733596802f, -0.09730370342731475830f, 0.06236184015870094299f, -0.04165934771299362183f, 0.06832800805568695068f, 0.14980001747608184814f, 0.15406680107116699219f, 0.01310834195464849472f, 0.08141089230775833130f, 0.02880670316517353058f, 0.04923771321773529053f, 0.01949462853372097015f, -0.03502070158720016479f, 0.08276499807834625244f, 0.06951893866062164307f, -0.05665045976638793945f, -0.13627375662326812744f, 0.12854124605655670166f, 0.02049858681857585907f, 0.02294575609266757965f, -0.06569433957338333130f},
  {-0.01464269403368234634f, -0.05487228557467460632f, 0.07219271361827850342f, -0.10000468045473098755f, 0.09076149761676788330f, -0.04175790026783943176f, -0.12567001581192016602f, 0.05325409397482872009f, -0.14801464974880218506f, -0.09346735477447509766f, -0.03504526242613792419f, -0.00752048334106802940f, -0.11252184957265853882f, -0.12886108458042144775f, 0.03128322213888168335f, 0.08126451820135116577f, 0.08967330306768417358f, 0.30385404825210571289f, -0.12061963975429534912f, -0.00265564420260488987f, 0.03964488953351974487f, -0.13596187531948089600f, 0.05187908932566642761f, 0.00131074013188481331f, 0.06349039077758789062f, -0.01989096030592918396f, 0.01935102976858615875f, -0.00940933823585510254f, 0.09179770201444625854f, 0.12050937861204147339f, -0.00929461047053337097f, -0.05027118697762489319f, -0.04567591473460197449f, -0.10719242691993713379f, -0.00750331953167915344f, -0.02982678450644016266f, 0.16762375831604003906f, -0.01042263582348823547f, -0.01086729578673839569f, -0.06610929965972900391f, 0.12318634986877441406f, -0.12528681755065917969f, 0.20835341513156890869f, 0.00512225786224007607f, -0.03611231595277786255f, -0.06272899359464645386f, -0.04658507555723190308f, -0.03457605466246604919f, 0.09098805487155914307f, 0.11812206357717514038f, 0.00117920059710741043f, 0.04208756238222122192f, -0.05448756366968154907f, 0.01768626645207405090f, -0.07624644786119461060f, -0.00942257512360811234f, 0.11527904123067855835f, -0.03169658407568931580f, 0.16967776417732238770f, -0.07643564045429229736f, -0.02748815529048442841f, 0.00688935164362192154f, -0.01554082892835140228f, 0.03559653088450431824f},
  {0.00467779627069830894f, -0.02704914472997188568f, -0.06958468258380889893f, -0.00240091397427022457f, 0.08593928068876266479f, -0.01965373568236827850f, 0.12121437489986419678f, -0.01983578875660896301f, -0.08751740306615829468f, 0.00297634280286729336f, -0.06978370994329452515f, -0.05632113292813301086f, 0.01851996593177318573f, 0.05242713540792465210f, -0.00125074165407568216f, -0.02246997319161891937f, 0.10345616936683654785f, -0.02346938475966453552f, -0.01552496850490570068f, 0.00759670231491327286f, -0.07286125421524047852f, 0.01175774447619915009f, -0.01817674934864044189f, -0.00003854592796415091f, 0.14003638923168182373f, -0.02996372990310192108f, -0.00090687000192701817f, 0.00834210030734539032f, -0.02606927603483200073f, -0.02347779273986816406f, -0.00868547987192869186f, -0.04360504820942878723f, 0.09980737417936325073f, 0.12098319828510284424f, 0.03457578644156455994f, -0.11435987800359725952f, -0.02112749032676219940f, 0.05601690337061882019f, -0.00350268976762890816f, -0.00980880297720432281f, 0.01761514320969581604f, -0.14516389369964599609f, -0.02028292790055274963f, -0.04840289056301116943f, -0.05381903797388076782f, 0.06100973114371299744f, -0.03489575535058975220f, 0.01481809094548225403f, 0.07755218446254730225f, -0.01943963207304477692f, 0.00631039775907993317f, 0.02057416923344135284f, 0.09198628365993499756f, 0.12794904410839080811f, 0.05602133274078369141f, -0.00078577699605375528f, 0.01818056218326091766f, -0.02084494009613990784f, 0.01631636731326580048f, 0.00317468820139765739f, -0.02920209243893623352f, 0.00085744663374498487f, -0.05795165523886680603f, -0.00287644518539309502f},
  {0.04286579787731170654f, -0.00213878671638667583f, -0.04148888960480690002f, 0.08819028735160827637f, 0.08629135787487030029f, -0.10566801577806472778f, 0.12936589121818542480f, -0.13526387512683868408f, -0.30701735615730285645f, 0.04625011608004570007f, -0.00577505305409431458f, -0.00678648799657821655f, -0.10135018825531005859f, 0.16188026964664459229f, -0.08590786159038543701f, -0.09774775058031082153f, -0.07957854121923446655f, 0.10558582097291946411f, 0.00120112067088484764f, -0.01395662873983383179f, -0.06219283863902091980f, 0.20840072631835937500f, -0.02636794559657573700f, 0.00636797817423939705f, 0.03225507587194442749f, -0.00549899181351065636f, -0.02107192203402519226f, -0.06413067132234573364f, -0.01096006669104099274f, -0.09352208673954010010f, -0.00309356022626161575f, 0.33259731531143188477f, -0.13639867305755615234f, -0.12364783138036727905f, -0.12662309408187866211f, -0.05152641981840133667f, -0.05432494357228279114f, -0.17188318073749542236f, 0.01748343184590339661f, 0.04959991574287414551f, 0.22276492416858673096f, 0.01246496476233005524f, -0.02188515290617942810f, -0.14599756896495819092f, 0.02481228671967983246f, 0.01000034157186746597f, 0.03007860668003559113f, -0.02299643307924270630f, 0.14338427782058715820f, 0.06827454268932342529f, -0.01900851167738437653f, 0.07750511914491653442f, 0.12076188623905181885f, 0.01094219088554382324f, -0.02854594960808753967f, 0.00814339052885770798f, 0.00506193470209836960f, 0.08140046894550323486f, -0.07757911086082458496f, 0.08494705706834793091f, 0.00936768483370542526f, -0.00181055290158838034f, 0.11546412855386734009f, 0.05584564805030822754f},
  {-0.00646929442882537842f, 0.18405719101428985596f, 0.17069309949874877930f, 0.04390817880630493164f, -0.11626633256673812866f, -0.19754883646965026855f, 0.05296266824007034302f, 0.05219931527972221375f, 0.12806710600852966309f, 0.01571538485586643219f, -0.10218518972396850586f, 0.04294319450855255127f, -0.10699275881052017212f, 0.19875538349151611328f, 0.00509244622662663460f, -0.06022426113486289978f, 0.04661850258708000183f, -0.07096777111291885376f, 0.11825203150510787964f, 0.00983325578272342682f, 0.09332995116710662842f, 0.11026817560195922852f, -0.05979279801249504089f, -0.02831326983869075775f, 0.01629232242703437805f, -0.02166865766048431396f, 0.02086364664137363434f, 0.00108409277163445950f, 0.14234922826290130615f, 0.07466857880353927612f, -0.01089505013078451157f, -0.02640597708523273468f, -0.19769662618637084961f, -0.06609178334474563599f, -0.04503722488880157471f, 0.04832503944635391235f, 0.08603715151548385620f, 0.04993516951799392700f, -0.00119893695227801800f, -0.02660947293043136597f, -0.02848813682794570923f, -0.01563162356615066528f, -0.13539876043796539307f, 0.15031643211841583252f, 0.06634046137332916260f, 0.07119147479534149170f, -0.04372058808803558350f, -0.14781513810157775879f, 0.05175276845693588257f, -0.05703712627291679382f, 0.00274581322446465492f, -0.07755443453788757324f, 0.08835242688655853271f, -0.21838238835334777832f, -0.03432929888367652893f, 0.01628960482776165009f, 0.00997424870729446411f, 0.00736398482695221901f, -0.09720314294099807739f, -0.08154845982789993286f, -0.09295410662889480591f, -0.00654370617121458054f, 0.12503528594970703125f, 0.11241826415061950684f},
  {-0.02219339832663536072f, 0.09516094624996185303f, -0.05380637198686599731f, -0.07656945288181304932f, 0.05377443879842758179f, 0.22338178753852844238f, -0.00909124594181776047f, -0.09311418980360031128f, 0.11309484392404556274f, 0.04470399394631385803f, -0.06464097648859024048f, -0.06523124873638153076f, -0.00814452487975358963f, -0.10294786095619201660f, 0.18791152536869049072f, -0.03462997823953628540f, 0.07942747324705123901f, 0.12643688917160034180f, 0.07989250123500823975f, -0.00035615501110441983f, 0.13500896096229553223f, 0.06312690675258636475f, -0.00283639412373304367f, 0.00578305590897798538f, -0.02555286325514316559f, 0.02949550561606884003f, -0.00114450789988040924f, -0.00007021149212960154f, -0.06554653495550155640f, 0.06861845403909683228f, -0.00628492934629321098f, -0.03970994427800178528f, 0.06408408284187316895f, 0.04893232136964797974f, 0.06756918877363204956f, -0.12487765401601791382f, 0.03997311741113662720f, -0.09787835180759429932f, -0.00935149658471345901f, 0.02836938388645648956f, -0.18905761837959289551f, -0.05093921720981597900f, -0.21697753667831420898f, 0.02989448606967926025f, -0.11719206720590591431f, 0.05311384052038192749f, -0.03540497273206710815f, 0.07095444202423095703f, -0.16466762125492095947f, 0.00573490606620907784f, 0.02860021218657493591f, 0.07688573002815246582f, -0.07012396305799484253f, -0.06468854844570159912f, 0.11916235834360122681f, -0.02362408116459846497f, -0.05286583304405212402f, 0.02777020260691642761f, -0.02331711724400520325f, 0.15691919624805450439f, 0.04494953900575637817f, 0.01564548537135124207f, -0.13982258737087249756f, 0.00263847270980477333f},
  {0.02942939102649688721f, 0.02012677118182182312f, 0.10626785457134246826f, 0.01351718604564666748f, 0.05044550076127052307f, -0.13623073697090148926f, 0.03205516561865806580f, 0.12726674973964691162f, -0.09715560078620910645f, 0.00968849193304777145f, -0.08026571571826934814f, 0.00835255067795515060f, 0.06115933880209922791f, -0.05663821101188659668f, -0.01161103416234254837f, 0.06596264243125915527f, 0.01689776033163070679f, -0.11816889792680740356f, -0.03055705502629280090f, 0.01889571361243724823f, -0.04986390471458435059f, 0.05751092359423637390f, -0.00418643746525049210f, 0.00541334878653287888f, -0.03237079828977584839f, -0.03890031203627586365f, -0.04484567791223526001f, -0.01797974109649658203f, 0.09683515131473541260f, -0.15182188153266906738f, -0.00109228724613785744f, 0.04108182713389396667f, 0.03439589589834213257f, -0.19428287446498870850f, -0.00750883389264345169f, -0.11058931052684783936f, -0.05319163575768470764f, -0.01413535699248313904f, -0.00364804337732493877f, -0.04527973383665084839f, -0.02681359834969043732f, 0.07187285274267196655f, -0.07631013542413711548f, 0.12732526659965515137f, -0.01327558513730764389f, 0.05563633888959884644f, -0.00488613126799464226f, 0.04746602103114128113f, 0.07784467935562133789f, 0.08565868437290191650f, 0.00863859429955482483f, -0.02602140232920646667f, 0.05335162207484245300f, 0.08240363001823425293f, -0.06037819385528564453f, 0.02708698064088821411f, 0.02486958727240562439f, -0.02567661181092262268f, -0.02682386152446269989f, -0.05045028403401374817f, 0.03541610389947891235f, 0.01057283300906419754f, 0.04239018261432647705f, 0.03557916730642318726f},
  {-0.02269351668655872345f, -0.03422627970576286316f, 0.06888430565595626831f, 0.03888823464512825012f, -0.09212654829025268555f, -0.05427134409546852112f, 0.15376137197017669678f, -0.09942118823528289795f, -0.19445574283599853516f, 0.05918930843472480774f, 0.02497691661119461060f, 0.01804098486900329590f, -0.07764791697263717651f, 0.07075555622577667236f, -0.02973639592528343201f, 0.01457722112536430359f, -0.10570348799228668213f, -0.17846405506134033203f, 0.09511560201644897461f, -0.01589913479983806610f, 0.07469797879457473755f, 0.08382175862789154053f, 0.00340248038992285728f, -0.00448994198814034462f, 0.03363815322518348694f, -0.04139297455549240112f, -0.01427365187555551529f, -0.01236396376043558121f, 0.06032265350222587585f, -0.00248043192550539970f, 0.01594482362270355225f, 0.12482082843780517578f, -0.30921393632888793945f, -0.14298793673515319824f, -0.00722944131121039391f, 0.04460671544075012207f, 0.06041202694177627563f, -0.15974758565425872803f, -0.01011656876653432846f, 0.00442242575809359550f, 0.05203265324234962463f, -0.04177068546414375305f, 0.22399629652500152588f, 0.10265405476093292236f, -0.07758167386054992676f, -0.00173072505276650190f, -0.00827939156442880630f, 0.11373937129974365234f, -0.03829260542988777161f, -0.03187973797321319580f, 0.00339984521269798279f, 0.06942015886306762695f, -0.02093404158949851990f, 0.01733284816145896912f, -0.06707645952701568604f, -0.00135505676735192537f, 0.02363773062825202942f, 0.03059780970215797424f, -0.00545745436102151871f, 0.21163043379783630371f, -0.11762683838605880737f, 0.01149725262075662613f, 0.02872886881232261658f, 0.02799052372574806213f},
  {-0.01159251667559146881f, -0.04143107682466506958f, -0.03620255365967750549f, -0.02623625472187995911f, -0.00375351984985172749f, 0.08846698701381683350f, -0.02436791732907295227f, 0.01634574122726917267f, 0.18926596641540527344f, -0.01886883378028869629f, 0.00992129556834697723f, -0.04112856090068817139f, 0.02904833480715751648f, -0.00849469564855098724f, 0.04781293123960494995f, -0.01219433732330799103f, 0.05956213176250457764f, 0.10837852954864501953f, -0.06331472098827362061f, -0.00307450303807854652f, -0.01816428452730178833f, 0.09562536329030990601f, 0.04243759810924530029f, 0.00249504903331398964f, -0.03840701282024383545f, 0.04868756979703903198f, 0.02373035997152328491f, 0.00216651102527976036f, -0.01650134287774562836f, 0.02495910227298736572f, 0.05113166198134422302f, -0.02551472187042236328f, 0.01490903738886117935f, 0.07022727280855178833f, 0.07056293636560440063f, -0.04286822304129600525f, -0.10554186999797821045f, -0.02348083443939685822f, -0.01885563507676124573f, -0.02170222066342830658f, -0.10044299066066741943f, -0.18791243433952331543f, -0.11257070302963256836f, -0.00700030243024230003f, -0.04713139683008193970f, 0.01916503347456455231f, 0.02784033119678497314f, -0.06638734787702560425f, -0.01517269480973482132f, 0.15352913737297058105f, -0.00848389323800802231f, 0.06541398167610168457f, 0.08875889331102371216f, -0.05082172900438308716f, -0.01087396871298551559f, 0.01118380483239889145f, 0.01832691207528114319f, 0.04134508967399597168f, -0.07202270627021789551f, -0.09840430319309234619f, -0.07320132851600646973f, -0.01490884087979793549f, -0.03165256977081298828f, 0.04680539295077323914f},
  {0.00243563205003738403f, 0.19419330358505249023f, -0.32786431908607482910f, -1.34540784358978271484f, -0.51885598897933959961f, -0.76585900783538818359f, 0.00300226057879626751f, 0.66870498657226562500f, 0.09651187062263488770f, -0.37759271264076232910f, -0.39151391386985778809f, -1.40381157398223876953f, -0.17998883128166198730f, -0.17737719416618347168f, 0.55483472347259521484f, -0.79265880584716796875f, -0.88188201189041137695f, 0.17334008216857910156f, 0.42278307676315307617f, -0.00534606026485562325f, 0.03629392012953758240f, -0.91893047094345092773f, -0.17213357985019683838f, -0.01316111534833908081f, 0.94293498992919921875f, 0.07493721693754196167f, 0.01537057384848594666f, -0.00299086980521678925f, -0.29717195034027099609f, 0.17476190626621246338f, -0.00260974466800689697f, 0.09810625016689300537f, 0.12282438576221466064f, 0.43325591087341308594f, 0.07616597414016723633f, 0.61851346492767333984f, -0.73144900798797607422f, -0.47342678904533386230f, 0.00506143271923065186f, -0.49809518456459045410f, 0.30255812406539916992f, 0.35001164674758911133f, 0.12587460875511169434f, 0.49766993522644042969f, 0.26664206385612487793f, 0.35507458448410034180f, 0.42955932021141052246f, 0.18436321616172790527f, -0.73195230960845947266f, -0.23322878777980804443f, -0.00746754324063658714f, -0.02332409843802452087f, 0.30853673815727233887f, -0.08550257235765457153f, 0.44894519448280334473f, 0.00661961780861020088f, 0.01115815341472625732f, 0.57759582996368408203f, -0.01134290080517530441f, 0.02500729076564311981f, -0.65180999040603637695f, -0.00731902569532394409f, 0.51589512825012207031f, 0.20724903047084808350f},
  {-0.00384202296845614910f, 0.04205314815044403076f, -0.67476212978363037109f, -0.61423337459564208984f, -0.11033958196640014648f, -0.61831951141357421875f, -0.12495248019695281982f, 0.32938376069068908691f, 0.05544212460517883301f, -0.05343295633792877197f, 0.03814499825239181519f, 0.74168002605438232422f, 0.12453486025333404541f, -0.63793963193893432617f, -0.46031486988067626953f, -0.06733457744121551514f, 0.27396488189697265625f, -0.13591739535331726074f, 0.43126845359802246094f, 0.00487788580358028412f, -0.45108491182327270508f, 0.01657325774431228638f, -0.18147265911102294922f, 0.00737189408391714096f, 0.58069878816604614258f, 0.05624011158943176270f, -0.00416913488879799843f, 0.00552859809249639511f, 0.05448857694864273071f, 0.08126689493656158447f, -0.00311067840084433556f, -0.01726166158914566040f, 0.11569370329380035400f, 0.52893167734146118164f, -0.81044161319732666016f, 0.42594340443611145020f, -0.02718700841069221497f, -0.19357442855834960938f, -0.00543905142694711685f, 0.43048620223999023438f, 0.05383342877030372620f, 0.62051194906234741211f, -0.41040086746215820312f, 0.29856935143470764160f, -1.59829699993133544922f, -0.21445249021053314209f, -0.03762787580490112305f, -0.24512118101119995117f, -0.37572044134140014648f, 0.43703156709671020508f, 0.00614128401502966881f, -0.26864418387413024902f, -0.27215328812599182129f, 0.28852754831314086914f, 0.14777559041976928711f, -0.00556910363957285881f, 0.35283428430557250977f, -0.87462633848190307617f, -0.29639115929603576660f, -0.36521756649017333984f, -0.11830925196409225464f, 0.00626283697783946991f, 0.28098300099372863770f, -0.38913923501968383789f},
  {-0.03019321337342262268f, -0.17095287144184112549f, -0.19438518583774566650f, -0.41384339332580566406f, -0.44583642482757568359f, -0.15440379083156585693f, -0.17155420780181884766f, -0.37729343771934509277f, 0.01847479119896888733f, -0.16012626886367797852f, 0.36705574393272399902f, 0.55328005552291870117f, 0.01433769147843122482f, -0.02227852120995521545f, -0.17546746134757995605f, 0.19966350495815277100f, 0.00861122179776430130f, -0.02223305404186248779f, 0.00507785612717270851f, -0.03599986806511878967f, 0.07435797899961471558f, 0.54685854911804199219f, -0.24060975015163421631f, -0.07319578528404235840f, -0.17795793712139129639f, -0.20048518478870391846f, -0.04732118546962738037f, 0.02686939388513565063f, 0.04007640853524208069f, 0.43494698405265808105f, -0.02331423200666904449f, 0.04460360854864120483f, 0.41986873745918273926f, 0.23547436296939849854f, -0.47016179561614990234f, 0.34671646356582641602f, 0.14413686096668243408f, -0.47901546955108642578f, -0.02544072456657886505f, -0.29313564300537109375f, 0.02032877504825592041f, -0.15227678418159484863f, 0.43036335706710815430f, -0.14161027967929840088f, -0.38565948605537414551f, -0.20137664675712585449f, -1.29691541194915771484f, -0.57211285829544067383f, 0.05538812279701232910f, 0.33085501194000244141f, 0.02584300376474857330f, -0.13856874406337738037f, 0.11637378484010696411f, -0.09271702915430068970f, 0.11111031472682952881f, -0.03625184670090675354f, -0.01399512495845556259f, 0.28588831424713134766f, 0.34125086665153503418f, -0.33462321758270263672f, -0.09289776533842086792f, 0.01834247447550296783f, 0.39701265096664428711f, -0.45690211653709411621f},
  {0.00946234446018934250f, 0.08805721998214721680f, 0.00569289643317461014f, 0.22449341416358947754f, 0.03213109448552131653f, 0.27042618393898010254f, 0.20057800412178039551f, 0.96859663724899291992f, 0.20661875605583190918f, -0.46631950139999389648f, -0.74217754602432250977f, -0.29300719499588012695f, 0.21060755848884582520f, -0.17319047451019287109f, 0.15328662097454071045f, -0.70670753717422485352f, -0.87124198675155639648f, 0.04635126143693923950f, -0.76631975173950195312f, -0.02108327858150005341f, -0.39306187629699707031f, -0.44991686940193176270f, 0.07317829877138137817f, -0.02871622517704963684f, -0.16244915127754211426f, -0.42010056972503662109f, 0.00821127463132143021f, -0.01174267102032899857f, -0.00992248114198446274f, 0.58220976591110229492f, 0.00261268019676208496f, 0.46583560109138488770f, -0.52668333053588867188f, -0.17955888807773590088f, -0.50839257240295410156f, 0.33982792496681213379f, -0.07407481223344802856f, 0.10923967510461807251f, 0.01186812855303287506f, 0.44689989089965820312f, -0.08683097362518310547f, 0.04911062866449356079f, -0.32136997580528259277f, 0.09724140912294387817f, -0.04758160561323165894f, 0.87919259071350097656f, -0.21039994060993194580f, 0.85537916421890258789f, -0.96572023630142211914f, -0.11263549327850341797f, -0.01246344763785600662f, -0.20831720530986785889f, -0.23775212466716766357f, 0.56147772073745727539f, 0.16115091741085052490f, 0.00834339763969182968f, 0.44325864315032958984f, -0.11174774914979934692f, 0.21193215250968933105f, -0.01008496433496475220f, -0.05453592911362648010f, -0.01315007079392671585f, 1.03493261337280273438f, 0.21500952541828155518f},
  {0.03014770336449146271f, -0.16620321571826934814f, -0.16642810404300689697f, -0.02932520024478435516f, 0.07492085546255111694f, 0.13375805318355560303f, -0.20500743389129638672f, 0.06951159238815307617f, 0.19719156622886657715f, 0.00443926034495234489f, -0.21782711148262023926f, -0.11116803437471389771f, 0.14515638351440429688f, -0.06991704553365707397f, 0.08698562532663345337f, 0.07776933908462524414f, 0.16092143952846527100f, 0.00053399224998429418f, 0.02369730733335018158f, -0.01477842312306165695f, 0.07056535780429840088f, -0.21220961213111877441f, -0.06308349967002868652f, -0.03043773025274276733f, -0.07965751737356185913f, 0.08986207097768783569f, 0.05105623602867126465f, -0.00281418813392519951f, -0.14993233978748321533f, -0.10660458356142044067f, -0.00178352172952145338f, 0.15234248340129852295f, 0.12072409689426422119f, 0.18878082931041717529f, -0.00705342693254351616f, -0.25443089008331298828f, -0.15572178363800048828f, 0.16500157117843627930f, 0.00439455267041921616f, 0.07879805564880371094f, -0.06511695683002471924f, 0.20867328345775604248f, -0.05024069547653198242f, 0.12150887399911880493f, 0.00925983581691980362f, -0.02730595320463180542f, -0.09949915111064910889f, -0.00418220367282629013f, -0.11432658135890960693f, -0.12151166051626205444f, -0.00933311134576797485f, -0.10428151488304138184f, -0.08512006700038909912f, 0.06194661557674407959f, 0.18296694755554199219f, 0.01427490450441837311f, -0.13952523469924926758f, -0.05712136253714561462f, 0.02157591655850410461f, -0.17185907065868377686f, 0.03843632340431213379f, 0.00692516798153519630f, -0.02228011563420295715f, -0.15187187492847442627f},
  {0.00870854314416646957f, 0.05083326995372772217f, 0.16970214247703552246f, -0.01387049909681081772f, 0.09422411769628524780f, -0.00742410402745008469f, -0.14529785513877868652f, 0.14508429169654846191f, 0.08401101827621459961f, -0.05254138261079788208f, -0.02570288628339767456f, 0.11092846840620040894f, 0.18971814215183258057f, -0.08604314923286437988f, 0.06437405943870544434f, -0.03767946362495422363f, -0.00231538549996912479f, 0.09289520978927612305f, 0.06641908735036849976f, -0.00741696404293179512f, 0.25645783543586730957f, 0.12674793601036071777f, 0.05431092903017997742f, 0.03338748216629028320f, -0.04069352522492408752f, 0.07999565452337265015f, -0.00360382627695798874f, -0.01498481910675764084f, 0.05500514432787895203f, 0.12517510354518890381f, -0.01977743394672870636f, -0.22604247927665710449f, 0.00733827752992510796f, 0.06936213374137878418f, 0.11903453618288040161f, -0.11153098940849304199f, 0.06425730884075164795f, 0.06525353342294692993f, -0.01345197297632694244f, -0.12257388234138488770f, 0.04196317866444587708f, -0.10753455013036727905f, -0.16871227324008941650f, 0.10376808792352676392f, 0.06487469375133514404f, 0.06728307157754898071f, 0.01459632813930511475f, -0.12685692310333251953f, -0.19764001667499542236f, 0.10987229645252227783f, -0.00247331266291439533f, 0.01447320356965065002f, -0.09438214451074600220f, -0.05416565388441085815f, -0.03486836701631546021f, 0.00400526216253638268f, 0.07709009945392608643f, -0.04801890999078750610f, 0.01824621111154556274f, -0.08796761929988861084f, 0.02616507560014724731f, 0.02014061808586120605f, 0.09595374763011932373f, -0.01158029306679964066f},
  {-0.01563958078622817993f, -0.16142563521862030029f, -0.11525064706802368164f, 0.03865304216742515564f, 0.09475833922624588013f, 0.09688564389944076538f, -0.08221001923084259033f, -0.08533058315515518188f, 0.11312033981084823608f, -0.05520789697766304016f, -0.04894381761550903320f, -0.04989966005086898804f, 0.12755249440670013428f, -0.11026362329721450806f, 0.04835601150989532471f, 0.04836266487836837769f, -0.01651591248810291290f, 0.11358881741762161255f, -0.06604146212339401245f, 0.03855556249618530273f, 0.17105302214622497559f, -0.10196544229984283447f, 0.09826245903968811035f, -0.03681841492652893066f, -0.05457775294780731201f, 0.11216337233781814575f, 0.09233030676841735840f, 0.03345491364598274231f, -0.14906039834022521973f, 0.01963403820991516113f, 0.01647361181676387787f, 0.14422278106212615967f, 0.02847065404057502747f, 0.10599619895219802856f, -0.07380874454975128174f, -0.05190454050898551941f, -0.23438972234725952148f, -0.07818274945020675659f, -0.02362562716007232666f, -0.01797813922166824341f, -0.02531404606997966766f, 0.05280772969126701355f, 0.02566647529602050781f, -0.13849417865276336670f, -0.02894975617527961731f, -0.11402989178895950317f, 0.03418179228901863098f, 0.10033441334962844849f, -0.13749890029430389404f, 0.14892789721488952637f, -0.02393991313874721527f, 0.18895962834358215332f, -0.09078579396009445190f, 0.08950325846672058105f, 0.03896329924464225769f, -0.03518503904342651367f, -0.01365565881133079529f, 0.00917806569486856461f, 0.12998954951763153076f, 0.00855127722024917603f, 0.01860720664262771606f, -0.00394332408905029297f, -0.14728763699531555176f, -0.14479540288448333740f},
  {-0.04198108240962028503f, -0.66502749919891357422f, -0.41325661540031433105f, -0.11801259219646453857f, 1.42787289619445800781f, 0.01427393686026334763f, 0.26777583360671997070f, 0.83826035261154174805f, 1.79287695884704589844f, -0.80743777751922607422f, -0.45761898159980773926f, -0.66529470682144165039f, 0.35777160525321960449f, 0.19346448779106140137f, 0.44305577874183654785f, -0.45373660326004028320f, -0.46661719679832458496f, 0.51962417364120483398f, -0.45747143030166625977f, 0.05213425680994987488f, 0.17017158865928649902f, 0.42027592658996582031f, -0.84970277547836303711f, 0.06159035488963127136f, -0.72828108072280883789f, -0.20063279569149017334f, 0.02162786573171615601f, 0.05017974972724914551f, -0.24858343601226806641f, 0.49235489964485168457f, -0.04753651842474937439f, 0.43666309118270874023f, -0.65925538539886474609f, 0.16824959218502044678f, -0.25422176718711853027f, 0.34846311807632446289f, -0.33487388491630554199f, -0.09782519936561584473f, -0.04300114512443542480f, -0.09429999440908432007f, -0.74711722135543823242f, 0.04281111806631088257f, 0.26988041400909423828f, -0.09206683188676834106f, 0.06146994605660438538f, 0.20085527002811431885f, 0.16965548694133758545f, 0.26662367582321166992f, -0.70062905550003051758f, -0.42654657363891601562f, 0.04794015362858772278f, 0.22485490143299102783f, 0.04646246507763862610f, 0.83131873607635498047f, -0.40133398771286010742f, -0.02942997217178344727f, -0.20922613143920898438f, -0.60446918010711669922f, -0.08061245828866958618f, 1.02102637290954589844f, 1.37041330337524414062f, 0.04544913023710250854f, 1.01130926609039306641f, 0.70630866289138793945f},
  {0.03454298153519630432f, -0.34698650240898132324f, -0.16492970287799835205f, -0.17617845535278320312f, 0.40627357363700866699f, 0.11176148056983947754f, -0.66770887374877929688f, -0.02930102497339248657f, 0.18090626597404479980f, -0.33540648221969604492f, -0.10920320451259613037f, -0.29514414072036743164f, 0.24631458520889282227f, -0.22080971300601959229f, 0.14783968031406402588f, -0.16871051490306854248f, -0.15187808871269226074f, -0.14649271965026855469f, 0.33892029523849487305f, -0.01263938378542661667f, 0.32881736755371093750f, -0.22777172923088073730f, -0.02887769229710102081f, -0.08086781203746795654f, -0.00570539757609367371f, -0.02036345377564430237f, 0.01010636985301971436f, 0.01005838532000780106f, -0.19155190885066986084f, -0.04183623567223548889f, 0.07413351535797119141f, -0.14826636016368865967f, -0.04014228656888008118f, -0.07970889657735824585f, -0.10985446721315383911f, 0.03029017336666584015f, -0.25744685530662536621f, 0.10198963433504104614f, 0.02940830774605274200f, 0.20273782312870025635f, -0.22319614887237548828f, 0.11826988309621810913f, -0.05378301814198493958f, 0.13080173730850219727f, -0.02656923793256282806f, 0.00891868118196725845f, -0.07445792108774185181f, 0.16107375919818878174f, -0.00540442299097776413f, 0.08359557390213012695f, -0.01901997998356819153f, 0.40228766202926635742f, -0.04516686126589775085f, 0.14845958352088928223f, 0.07575107365846633911f, 0.05490778759121894836f, 0.19751109182834625244f, -0.10019830614328384399f, -0.14980623126029968262f, 0.00631752517074346542f, 0.36867097020149230957f, -0.00289952964521944523f, -0.08325140923261642456f, 0.31986775994300842285f},
  {0.02028163149952888489f, 0.08854490518569946289f, 0.00502838287502527237f, -0.08430361002683639526f, -0.07193054258823394775f, 0.09634291380643844604f, 0.00621786713600158691f, 0.01765093766152858734f, 0.09908226132392883301f, -0.05259505659341812134f, -0.14637486636638641357f, -0.02082762122154235840f, -0.07465306669473648071f, -0.07538485527038574219f, -0.01085544750094413757f, -0.10114601254463195801f, 0.07964555174112319946f, -0.04248566180467605591f, -0.12982879579067230225f, -0.04347419738769531250f, -0.19883066415786743164f, 0.08340773731470108032f, -0.05302225053310394287f, -0.02291936427354812622f, 0.05165421217679977417f, -0.06552840769290924072f, -0.05745117366313934326f, -0.04377631470561027527f, 0.08371709287166595459f, 0.07894397526979446411f, 0.01928381063044071198f, 0.00453536631539463997f, 0.00841061118990182877f, 0.05025341734290122986f, 0.01305266562849283218f, 0.07198052108287811279f, -0.09675561636686325073f, 0.07539824396371841431f, 0.02167487330734729767f, 0.06430070847272872925f, -0.08938121050596237183f, -0.02132607065141201019f, 0.09703500568866729736f, -0.07395509630441665649f, 0.07289823144674301147f, -0.10447235405445098877f, 0.08308253437280654907f, -0.02224670164287090302f, 0.03976165875792503357f, 0.02590552531182765961f, -0.01632141508162021637f, -0.14787958562374114990f, -0.09530913084745407104f, -0.14986324310302734375f, -0.09579768031835556030f, -0.02366065979003906250f, -0.05174052715301513672f, -0.02971429564058780670f, 0.13225202262401580811f, -0.01195204630494117737f, 0.04512216150760650635f, -0.03651274368166923523f, -0.04355515167117118835f, -0.15293984115123748779f},
  {0.02357199415564537048f, 0.14670990407466888428f, -0.06280449777841567993f, 0.03972706571221351624f, -0.09882672131061553955f, 0.01339829899370670319f, -0.08622542768716812134f, -0.00085460441187024117f, 0.04156877845525741577f, 0.07524470239877700806f, -0.10397431254386901855f, -0.00905020441859960556f, -0.01757757738232612610f, 0.16828779876232147217f, -0.05092140659689903259f, -0.02076478302478790283f, 0.00448369793593883514f, 0.01293477416038513184f, 0.02801227383315563202f, -0.01584437489509582520f, 0.00754704978317022324f, -0.01044868864119052887f, 0.01340507436543703079f, 0.00120486004743725061f, -0.06359386444091796875f, 0.02761998772621154785f, -0.01366010680794715881f, -0.00343282730318605900f, -0.02455940656363964081f, 0.03507189825177192688f, -0.02772258222103118896f, 0.18375766277313232422f, -0.10515978187322616577f, -0.08250256627798080444f, -0.13057605922222137451f, -0.06594721972942352295f, -0.06979932636022567749f, -0.05252385511994361877f, 0.01376436930149793625f, 0.00486487289890646935f, -0.10300659388303756714f, 0.11759626865386962891f, -0.07585899531841278076f, 0.07483557611703872681f, 0.06022593751549720764f, -0.00087029131827875972f, -0.00999222695827484131f, -0.02896212227642536163f, -0.00497186928987503052f, 0.05093497037887573242f, -0.01469522714614868164f, -0.04411789029836654663f, 0.04117061942815780640f, -0.23747736215591430664f, 0.01979422010481357574f, 0.00585166504606604576f, -0.04604800045490264893f, 0.03852618858218193054f, -0.09874165058135986328f, 0.04537966474890708923f, 0.02782105281949043274f, -0.02629070915281772614f, 0.06968730688095092773f, 0.00849909707903862000f},
  {0.00413211528211832047f, -0.17429503798484802246f, -0.10484906286001205444f, 0.10827656090259552002f, -0.01076938956975936890f, -0.13835525512695312500f, 0.05060254782438278198f, -0.09533903002738952637f, 0.02087830565869808197f, 0.08792149275541305542f, 0.02022378891706466675f, -0.04806288704276084900f, -0.05333466082811355591f, 0.00881348364055156708f, -0.09409714490175247192f, -0.07135281711816787720f, 0.05544002354145050049f, 0.09456551820039749146f, -0.07544732093811035156f, -0.00269523099996149540f, 0.13437560200691223145f, 0.09086740761995315552f, 0.07564809173345565796f, -0.00091460684780031443f, 0.08970130980014801025f, -0.08939564973115921021f, 0.00259118899703025818f, -0.01385062187910079956f, -0.16691283881664276123f, -0.05526695400476455688f, -0.02227109484374523163f, -0.07826983183622360229f, -0.05158554390072822571f, 0.04476276040077209473f, 0.05761901289224624634f, -0.00318170269019901752f, -0.00272215181030333042f, -0.02984572015702724457f, -0.00646373815834522247f, -0.02605741657316684723f, 0.15511928498744964600f, -0.01317831967025995255f, 0.15273877978324890137f, -0.15978997945785522461f, -0.07607480883598327637f, -0.04867847263813018799f, 0.02572170272469520569f, 0.05948405340313911438f, 0.02669121511280536652f, -0.08351904898881912231f, 0.00860755797475576401f, -0.01802611351013183594f, 0.10933973640203475952f, 0.14640364050865173340f, 0.01842753589153289795f, -0.00101147720124572515f, 0.03636907413601875305f, -0.01528050191700458527f, 0.08368293195962905884f, 0.00615059398114681244f, -0.10017284750938415527f, -0.00650967145338654518f, 0.15967597067356109619f, 0.05946067348122596741f},
  {-0.02071503549814224243f, 0.02217828854918479919f, 0.08720447868108749390f, 0.10160234570503234863f, -0.10364218801259994507f, -0.11038856953382492065f, 0.05494316667318344116f, -0.10647566616535186768f, 0.25512883067131042480f, -0.02610072307288646698f, -0.08955319970846176147f, 0.01240334380418062210f, -0.02815552987158298492f, 0.08739819377660751343f, 0.07707724720239639282f, -0.04680474102497100830f, 0.02835699170827865601f, -0.07325712591409683228f, 0.02341758273541927338f, -0.00284554506652057171f, -0.01459970418363809586f, 0.01071836054325103760f, -0.05260891467332839966f, 0.01091971248388290405f, 0.06673294305801391602f, -0.01203840505331754684f, -0.01372160576283931732f, 0.00612419936805963516f, -0.06858042627573013306f, -0.05251292139291763306f, 0.01455918606370687485f, 0.10569537431001663208f, -0.03474222868680953979f, 0.03677402809262275696f, -0.06568404287099838257f, -0.00003236793418182060f, -0.13569076359272003174f, 0.00361406989395618439f, -0.00304558663628995419f, 0.01545686367899179459f, 0.04701884835958480835f, 0.00487059447914361954f, -0.08608393371105194092f, -0.04989190027117729187f, -0.05625979229807853699f, 0.03745146095752716064f, -0.08119639009237289429f, 0.04979713633656501770f, -0.03319486230611801147f, -0.02104364521801471710f, -0.01228602882474660873f, 0.07396345585584640503f, -0.11378457397222518921f, -0.12754264473915100098f, 0.19265541434288024902f, 0.01111574936658143997f, -0.11360199004411697388f, 0.09372731298208236694f, -0.09616432338953018188f, 0.06185736507177352905f, -0.09438244253396987915f, -0.00342977209948003292f, -0.11358765512704849243f, -0.00931600853800773621f},
  {0.00181905471254140139f, -0.39167764782905578613f, 0.42163041234016418457f, 0.03430040553212165833f, 0.20057182013988494873f, 0.22896198928356170654f, -0.23621878027915954590f, -0.16411171853542327881f, 0.20753715932369232178f, 0.96591317653656005859f, 0.36922147870063781738f, -0.33012038469314575195f, -0.40499451756477355957f, 0.19427980482578277588f, -0.86724448204040527344f, 0.28222879767417907715f, 0.01690450310707092285f, 0.11845087260007858276f, -0.00692366203293204308f, -0.00958608370274305344f, 0.43957620859146118164f, 0.03782816976308822632f, -0.93328529596328735352f, -0.01851212419569492340f, 0.36694690585136413574f, 0.57659178972244262695f, -0.00752435019239783287f, -0.00374637451022863388f, 0.12449898570775985718f, 0.25998717546463012695f, 0.00468329247087240219f, -0.03406184166669845581f, -0.02487260103225708008f, 0.44607302546501159668f, 0.12908455729484558105f, 0.39292949438095092773f, -0.15508908033370971680f, -0.19317729771137237549f, 0.00189028191380202770f, -0.68532806634902954102f, -0.10807306319475173950f, 0.02675317041575908661f, -0.38198325037956237793f, 0.08039729297161102295f, -0.44131532311439514160f, -0.42933911085128784180f, 0.01022673211991786957f, 0.09555968642234802246f, 0.70248335599899291992f, 0.14563010632991790771f, -0.00348130799829959869f, -0.14868529140949249268f, -0.37862208485603332520f, -0.00953374244272708893f, -0.01471204031258821487f, 0.00044295002589933574f, -0.63784700632095336914f, -0.26256939768791198730f, -0.60826319456100463867f, 0.35233175754547119141f, 0.22514569759368896484f, -0.00333801400847733021f, 0.05768551677465438843f, -0.62051534652709960938f},
  {0.00376826478168368340f, -0.15434637665748596191f, 0.10278502851724624634f, -0.56987500190734863281f, 0.13297140598297119141f, -0.26586261391639709473f, -0.48025000095367431641f, 0.63511472940444946289f, 0.13628655672073364258f, 0.98361676931381225586f, 0.38780805468559265137f, 0.08992248028516769409f, 0.21395014226436614990f, 0.11429575830698013306f, 0.55265820026397705078f, -0.46418532729148864746f, 0.29199376702308654785f, -0.48717013001441955566f, 0.24216486513614654541f, -0.00188842939678579569f, 0.04982982203364372253f, -0.25048571825027465820f, -0.23860245943069458008f, 0.00537552218884229660f, 0.55586695671081542969f, 0.65057414770126342773f, 0.00528627587482333183f, -0.00718790525570511818f, -0.09064893424510955811f, 0.17825618386268615723f, 0.00643308088183403015f, -0.09378848969936370850f, -0.22298927605152130127f, -0.22918586432933807373f, -0.92565423250198364258f, 0.39527782797813415527f, -0.23508183658123016357f, -0.48697227239608764648f, 0.00565140275284647942f, -0.32637563347816467285f, -0.00815573334693908691f, -0.14082399010658264160f, 0.19406871497631072998f, -0.65981954336166381836f, -0.87022519111633300781f, 0.13398486375808715820f, -0.11894909292459487915f, -0.81554877758026123047f, 0.23987764120101928711f, 0.48758393526077270508f, -0.00742356292903423309f, -0.58332389593124389648f, -0.20291428267955780029f, 0.30309766530990600586f, 0.05487431958317756653f, 0.00156206777319312096f, -0.50187659263610839844f, -0.06724341958761215210f, 0.22319968044757843018f, -0.03493018820881843567f, 0.07401635497808456421f, -0.00827957410365343094f, 0.20913152396678924561f, 0.15511739253997802734f},
  {0.00543183181434869766f, -0.01443017553538084030f, 0.24916671216487884521f, 0.17945982515811920166f, 0.12568242847919464111f, 0.21472671627998352051f, 0.27323573827743530273f, 0.55252838134765625000f, -0.23640875518321990967f, 0.05595850199460983276f, -0.24306602776050567627f, -0.63754767179489135742f, -0.00596924545243382454f, -0.07289012521505355835f, -0.00699023203924298286f, -0.38122865557670593262f, -0.56392133235931396484f, 0.08922189474105834961f, -0.49060261249542236328f, -0.00020275528368074447f, 0.09058646857738494873f, -0.49143376946449279785f, -0.10143914073705673218f, 0.00698987208306789398f, 0.00111905450467020273f, 0.26164010167121887207f, -0.01760261133313179016f, -0.00437294179573655128f, 0.69325107336044311523f, 0.65601527690887451172f, 0.01361392624676227570f, -0.21829907596111297607f, -0.42268481850624084473f, 0.28746008872985839844f, -0.14646121859550476074f, 0.79261732101440429688f, -0.56975364685058593750f, -0.48476666212081909180f, 0.00089607154950499535f, -0.29505980014801025391f, -0.02599327452480792999f, -0.08429919928312301636f, -0.04413930326700210571f, 0.09704019129276275635f, 0.00478249974548816681f, 0.18764093518257141113f, -0.70276772975921630859f, 0.44204786419868469238f, -0.02712960541248321533f, -0.20691767334938049316f, 0.00022000634635332972f, -0.43341058492660522461f, 0.15645268559455871582f, 0.35790672898292541504f, 0.63103121519088745117f, -0.00195969641208648682f, -0.27812603116035461426f, -0.02404556050896644592f, -0.31631374359130859375f, -0.02981264889240264893f, -0.03031252510845661163f, 0.00039159576408565044f, 0.76880669593811035156f, 0.02417318522930145264f},
  {-0.00114111078437417746f, -0.21096742153167724609f, 0.00183154316619038582f, -0.19685278832912445068f, -0.08428657054901123047f, -0.21285742521286010742f, -0.07887887954711914062f, -0.23469224572181701660f, -0.06660750508308410645f, -0.43108037114143371582f, -0.28595137596130371094f, -0.44237461686134338379f, -0.18755197525024414062f, -0.08952657878398895264f, -0.58984357118606567383f, -0.18027870357036590576f, -0.10517790913581848145f, 0.03788157179951667786f, -0.23674069344997406006f, 0.00216006231494247913f, -0.16883721947669982910f, -0.34700220823287963867f, -0.19383017718791961670f, 0.01153950672596693039f, 0.12005086988210678101f, -0.36951515078544616699f, -0.04591213166713714600f, 0.00408863695338368416f, -0.18360744416713714600f, 0.39890706539154052734f, 0.00459418725222349167f, -0.02064409106969833374f, 0.08365789055824279785f, -0.03872271627187728882f, -0.22543978691101074219f, 0.16122360527515411377f, -0.08745828270912170410f, -0.28185710310935974121f, -0.00648984452709555626f, 0.35674393177032470703f, 0.38721838593482971191f, 0.32001101970672607422f, -0.19871789216995239258f, 0.18341112136840820312f, 0.03047967888414859772f, -0.01854174211621284485f, -0.42348787188529968262f, 0.89830023050308227539f, -0.62003213167190551758f, 0.00084486848209053278f, 0.01167764794081449509f, -0.22679597139358520508f, -0.14565779268741607666f, -0.00501438695937395096f, -0.19566544890403747559f, -0.02258072420954704285f, 0.54693746566772460938f, -0.64390546083450317383f, -0.43826627731323242188f, -0.40776160359382629395f, -0.10997208207845687866f, 0.00978961866348981857f, 0.19734367728233337402f, 0.03812818601727485657f},
  {0.03147176653146743774f, 0.02858617715537548065f, 0.07084225863218307495f, 0.02728708274662494659f, -0.05401609465479850769f, -0.08203876018524169922f, 0.07020418345928192139f, -0.02392731048166751862f, -0.11154641956090927124f, -0.12781333923339843750f, 0.14577355980873107910f, 0.00707351136952638626f, 0.05836142227053642273f, 0.07060921937227249146f, -0.00286181434057652950f, 0.02032249234616756439f, 0.03275271877646446228f, -0.03408062830567359924f, -0.01291683409363031387f, -0.02068505063652992249f, -0.17460815608501434326f, 0.11358330398797988892f, -0.05707072094082832336f, -0.04790544509887695312f, 0.01901269890367984772f, 0.04899310693144798279f, 0.02587260305881500244f, 0.00965776946395635605f, -0.01338567864149808884f, -0.10093145817518234253f, 0.04590926319360733032f, -0.04811223223805427551f, -0.09191048890352249146f, -0.01762695424258708954f, 0.00517451670020818710f, 0.04029073193669319153f, 0.22757735848426818848f, -0.12414434552192687988f, 0.02849185466766357422f, 0.00410624034702777863f, -0.08472026139497756958f, -0.14662350714206695557f, -0.08199590444564819336f, 0.02963314764201641083f, -0.00983797665685415268f, -0.01831891573965549469f, 0.02733695134520530701f, -0.08370174467563629150f, 0.10255183279514312744f, -0.04746982455253601074f, -0.02638126350939273834f, -0.02404139004647731781f, 0.11304383724927902222f, 0.05782253667712211609f, 0.06040593609213829041f, 0.01593724824488162994f, 0.01450821943581104279f, 0.07912980020046234131f, -0.05792713537812232971f, 0.07639661431312561035f, 0.02756284363567829132f, -0.00451460527256131172f, 0.10619183629751205444f, 0.06990513950586318970f},
  {-0.01192257273942232132f, -0.09352133423089981079f, -0.07632374018430709839f, -0.03158229216933250427f, 0.00769703323021531105f, -0.00526846852153539658f, 0.14799329638481140137f, -0.04874156787991523743f, -0.12317481637001037598f, 0.03844184055924415588f, -0.03688775002956390381f, -0.15608732402324676514f, -0.02168793603777885437f, 0.02551322057843208313f, -0.05533049255609512329f, -0.04837362095713615417f, 0.08632192015647888184f, -0.07099347561597824097f, 0.04618041962385177612f, -0.01062974520027637482f, -0.12133964896202087402f, 0.07456180453300476074f, -0.06229758635163307190f, 0.00546896317973732948f, -0.07748330384492874146f, 0.02408087626099586487f, -0.00077430356759577990f, 0.02434850484132766724f, -0.07446673512458801270f, -0.07531417161226272583f, 0.03586717322468757629f, -0.08973722904920578003f, -0.01773107051849365234f, -0.05462335795164108276f, 0.03421624749898910522f, 0.05291705206036567688f, 0.20683521032333374023f, -0.08868413418531417847f, 0.00895160343497991562f, 0.14467629790306091309f, -0.02712185867130756378f, -0.13242283463478088379f, 0.09324912726879119873f, 0.04971074312925338745f, 0.00122212199494242668f, -0.07778605073690414429f, 0.04663681983947753906f, -0.03209741786122322083f, 0.13539452850818634033f, -0.02501649409532546997f, -0.00300590344704687595f, -0.04512802138924598694f, -0.02307620830833911896f, -0.04872330650687217712f, 0.03933927789330482483f, 0.01034415978938341141f, -0.02772887982428073883f, -0.00602967757731676102f, 0.02753002196550369263f, 0.02043111249804496765f, 0.00590911181643605232f, -0.01593420282006263733f, 0.26886311173439025879f, 0.01079455763101577759f},
  {0.03102195821702480316f, -0.23148821294307708740f, 0.37966898083686828613f, 0.32539087533950805664f, -0.64960616827011108398f, 0.42704999446868896484f, -0.67792117595672607422f, -0.21511228382587432861f, 0.22854234278202056885f, -0.18465511500835418701f, 0.14972688257694244385f, -0.10209903866052627563f, -0.29629123210906982422f, -0.01399769820272922516f, 0.18239046633243560791f, 0.03591440245509147644f, -0.08491625636816024780f, -0.55944687128067016602f, -0.41766148805618286133f, -0.09669595211744308472f, -0.03614061325788497925f, 0.21398103237152099609f, -0.39457818865776062012f, -0.12708349525928497314f, 0.57340240478515625000f, -0.10555469989776611328f, 0.07954613864421844482f, -0.05167085677385330200f, 0.52233815193176269531f, 0.38063120841979980469f, 0.02815834060311317444f, 0.37848851084709167480f, -0.13734374940395355225f, -0.21605771780014038086f, -0.09990327805280685425f, -0.03466469049453735352f, 0.16672217845916748047f, 0.14798030257225036621f, 0.04470275714993476868f, 0.31314694881439208984f, 0.48984155058860778809f, 0.63627630472183227539f, 0.37502500414848327637f, 0.23797380924224853516f, -0.02825167588889598846f, -0.37156641483306884766f, 0.37724927067756652832f, 0.11094290763139724731f, -0.40167987346649169922f, 0.39725178480148315430f, -0.05551944673061370850f, 0.17328368127346038818f, 0.18464957177639007568f, 0.05173013359308242798f, 0.53039127588272094727f, 0.02479509823024272919f, -0.18565310537815093994f, -0.91415911912918090820f, -0.28934237360954284668f, 0.33582800626754760742f, -0.20187085866928100586f, -0.06164090707898139954f, 0.24317459762096405029f, 0.44353577494621276855f},
  {-0.00042482573189772666f, 0.07388232648372650146f, 0.20891685783863067627f, 0.24038378894329071045f, -0.00215293653309345245f, 0.29681453108787536621f, -0.11526422947645187378f, -0.31805053353309631348f, 0.27783358097076416016f, 0.49783971905708312988f, -0.09760858118534088135f, -0.24857981503009796143f, -0.37735733389854431152f, -0.21959175169467926025f, -0.35273766517639160156f, 0.09487415850162506104f, -0.31985762715339660645f, -0.09153063595294952393f, -0.51876741647720336914f, 0.00934620946645736694f, 0.20869030058383941650f, 0.03211602196097373962f, -0.97058075666427612305f, 0.01755077205598354340f, -0.16832971572875976562f, 0.28402405977249145508f, 0.00186359474901109934f, 0.00156485417392104864f, 0.70911478996276855469f, 0.40379080176353454590f, 0.00460334261879324913f, 0.15912303328514099121f, 0.12540268898010253906f, -0.00392279122024774551f, 0.00883992016315460205f, 0.16370536386966705322f, 0.14526498317718505859f, 0.26205757260322570801f, -0.00185409968253225088f, -1.25470960140228271484f, 0.13596101105213165283f, -0.14627437293529510498f, 0.17620459198951721191f, -0.22057428956031799316f, -0.17989243566989898682f, -0.30679798126220703125f, -0.10368356108665466309f, -0.55876982212066650391f, 0.76391857862472534180f, -0.18025521934032440186f, 0.00175858067814260721f, 0.02257153950631618500f, 0.13834127783775329590f, -0.20117318630218505859f, 0.51179695129394531250f, -0.00178813922684639692f, 0.26599997282028198242f, 0.22824436426162719727f, 0.14324423670768737793f, 0.22288531064987182617f, -0.01388214714825153351f, 0.00237163552083075047f, 0.13171748816967010498f, -0.54294592142105102539f},
  {-0.00199844385497272015f, 0.23918953537940979004f, -0.45796704292297363281f, -0.62260049581527709961f, -0.10528565943241119385f, -0.50811523199081420898f, 0.23798462748527526855f, 0.16466587781906127930f, 0.04382000491023063660f, 0.28909021615982055664f, 0.08423589915037155151f, 0.55445891618728637695f, 0.07866916060447692871f, -0.21640387177467346191f, 0.16900685429573059082f, -0.28608557581901550293f, 0.14001685380935668945f, -0.21066413819789886475f, 0.29258549213409423828f, 0.00978025980293750763f, 0.05363153666257858276f, -0.08782996982336044312f, -0.03287243470549583435f, 0.01327696349471807480f, -0.38183307647705078125f, 0.12556777894496917725f, 0.00521480524912476540f, 0.00331359822303056717f, 0.35187944769859313965f, 0.28132572770118713379f, -0.00130081805400550365f, -0.33208802342414855957f, 0.13397380709648132324f, -0.03193403035402297974f, -0.18866798281669616699f, 0.41291543841361999512f, -0.38589227199554443359f, -0.72710853815078735352f, -0.00333685288205742836f, -0.43940219283103942871f, 0.12070064991712570190f, -0.54847306013107299805f, 0.35833150148391723633f, -0.49268898367881774902f, -0.66813105344772338867f, -0.40117439627647399902f, -1.66543364524841308594f, -0.94356483221054077148f, 0.06904336810111999512f, 0.01851002126932144165f, 0.00376907386817038059f, -0.44485938549041748047f, 0.40109410881996154785f, 0.02461238391697406769f, 0.65530651807785034180f, -0.00022609454754274338f, -0.21060648560523986816f, 0.09705649316310882568f, 0.07096944749355316162f, -0.25209391117095947266f, -0.20483645796775817871f, 0.00461359834298491478f, 0.12610934674739837646f, -0.37661400437355041504f},
  {-0.02822060510516166687f, -0.09956032037734985352f, -0.33395648002624511719f, -0.09024687856435775757f, 0.43256440758705139160f, 0.11114067584276199341f, -0.47471615672111511230f, 0.06456540524959564209f, 0.56533068418502807617f, -0.21661733090877532959f, -0.17159174382686614990f, -0.08831594139337539673f, 0.03030640445649623871f, -0.14504523575305938721f, 0.14721706509590148926f, 0.03318207710981369019f, -0.19901275634765625000f, -0.00700204120948910713f, 0.30640950798988342285f, 0.01409723330289125443f, 0.25314933061599731445f, -0.02650391496717929840f, -0.13705180585384368896f, 0.00776627752929925919f, -0.08032571524381637573f, -0.00469981227070093155f, -0.03830720484256744385f, 0.03202907368540763855f, -0.27188125252723693848f, -0.13684727251529693604f, -0.00714383134618401527f, 0.09484663605690002441f, 0.17165657877922058105f, 0.11550065875053405762f, -0.22259500622749328613f, 0.02052609249949455261f, -0.32128024101257324219f, 0.15157271921634674072f, -0.01090387534350156784f, 0.13237230479717254639f, -0.13487438857555389404f, 0.01881776377558708191f, -0.21898481249809265137f, 0.15666189789772033691f, 0.10937441140413284302f, 0.12586086988449096680f, -0.07731962203979492188f, 0.01847309991717338562f, -0.26586574316024780273f, 0.05671809241175651550f, 0.00806586071848869324f, 0.26032087206840515137f, -0.30646997690200805664f, -0.02504329942166805267f, 0.17043292522430419922f, 0.00913902558386325836f, 0.19993260502815246582f, -0.07637522369623184204f, -0.11146983504295349121f, -0.26696416735649108887f, 0.18636743724346160889f, 0.00381449586711823940f, -0.05828792601823806763f, 0.10398904234170913696f},
  {0.00536717195063829422f, 0.53460317850112915039f, -0.24354456365108489990f, -0.35044276714324951172f, -0.11903093755245208740f, -0.53987985849380493164f, 0.05169792473316192627f, -0.17691759765148162842f, 0.15915630757808685303f, -0.55565512180328369141f, -0.27741256356239318848f, -0.68126487731933593750f, 0.18313398957252502441f, -0.15156903862953186035f, -0.15908363461494445801f, -0.38182377815246582031f, -0.24803104996681213379f, -0.22230000793933868408f, -0.42173704504966735840f, -0.01419208291918039322f, -0.22249749302864074707f, -0.41794851422309875488f, -0.32067674398422241211f, -0.01918169297277927399f, -0.43061390519142150879f, -0.41454210877418518066f, 0.03840840607881546021f, -0.00470146443694829941f, -0.22364397346973419189f, 0.30909833312034606934f, -0.00544651923701167107f, 0.19774593412876129150f, 0.13013777136802673340f, -0.71101361513137817383f, -0.30211532115936279297f, 0.19923464953899383545f, -0.07236441969871520996f, 0.23028385639190673828f, 0.01255142781883478165f, -0.65798068046569824219f, -0.05645696446299552917f, -0.17207442224025726318f, -0.03866184502840042114f, -0.65343827009201049805f, -0.13936446607112884521f, -0.08063395321369171143f, -0.28418835997581481934f, -0.46251720190048217773f, -0.23365356028079986572f, 0.11163888871669769287f, -0.01423514727503061295f, -0.14143954217433929443f, 0.11712127178907394409f, 0.17899778485298156738f, -0.49110454320907592773f, 0.01340509951114654541f, -0.23573759198188781738f, 0.27399668097496032715f, 0.19706518948078155518f, 0.02631202526390552521f, -0.08630350977182388306f, -0.01251780521124601364f, -0.10377784073352813721f, 0.34716343879699707031f},
  {-0.00053567497525364161f, 0.70544898509979248047f, -0.03816110640764236450f, 0.04839762672781944275f, 0.20571826398372650146f, -0.02549849264323711395f, 1.03975713253021240234f, 0.35234767198562622070f, -0.12759369611740112305f, -0.23559428751468658447f, -0.11821910738945007324f, 0.24564476311206817627f, 0.32797518372535705566f, -0.43286675214767456055f, -0.83478152751922607422f, -0.49340134859085083008f, 0.02012356929481029510f, 0.41581615805625915527f, -0.12721085548400878906f, 0.01625044457614421844f, -0.59682899713516235352f, -0.00794879253953695297f, -0.14201648533344268799f, 0.03042056038975715637f, -0.12883929908275604248f, -0.09721010178327560425f, 0.01685346290469169617f, -0.00163127051200717688f, 0.16732072830200195312f, 0.34750351309776306152f, 0.00458221370354294777f, 0.04146677255630493164f, -0.38127392530441284180f, 0.19199110567569732666f, -0.06646080315113067627f, 0.37679865956306457520f, -0.40033385157585144043f, -0.15059988200664520264f, -0.00291772419586777687f, 0.23529393970966339111f, -0.19177241623401641846f, 0.43174177408218383789f, -0.39346393942832946777f, 0.35421714186668395996f, 0.10998907685279846191f, -0.45187947154045104980f, -0.19459226727485656738f, 0.66876471042633056641f, -0.49221372604370117188f, -0.01193495560437440872f, 0.00059590686578303576f, 0.07139507681131362915f, -0.17371957004070281982f, -0.11831988394260406494f, 0.22646312415599822998f, 0.00618834234774112701f, -0.37655940651893615723f, -0.75595855712890625000f, -0.88507062196731567383f, -0.28400450944900512695f, 0.33135268092155456543f, 0.00278983265161514282f, 0.36835661530494689941f, 0.31639531254768371582f},
  {0.00871444586664438248f, -0.00910196546465158463f, -0.03094427473843097687f, -0.04884941503405570984f, 0.09264185279607772827f, 0.08371596038341522217f, -0.12408690899610519409f, 0.18046978116035461426f, 0.17407259345054626465f, 0.03707489371299743652f, -0.05566707625985145569f, -0.14178484678268432617f, 0.07800807803869247437f, -0.14193704724311828613f, 0.07681309431791305542f, 0.06716039776802062988f, 0.07904827594757080078f, 0.00103132100775837898f, 0.06210239604115486145f, -0.00713464943692088127f, 0.03414595127105712891f, -0.19519355893135070801f, -0.09267970919609069824f, -0.00930146034806966782f, -0.06398953497409820557f, -0.02742113731801509857f, 0.03760455548763275146f, -0.01542034652084112167f, -0.15944598615169525146f, -0.25830820202827453613f, -0.01934782974421977997f, -0.00202846853062510490f, 0.19742536544799804688f, -0.00081822840729728341f, -0.06070647761225700378f, -0.08936807513236999512f, -0.04365178197622299194f, 0.10624331980943679810f, 0.00639218697324395180f, 0.10482864826917648315f, -0.30955407023429870605f, 0.11387198418378829956f, 0.10172526538372039795f, 0.13475997745990753174f, -0.11714735627174377441f, 0.07918070256710052490f, -0.13341872394084930420f, 0.15124303102493286133f, -0.00134907511528581381f, -0.10330350697040557861f, -0.01867199130356311798f, 0.01525739394128322601f, -0.01515644975006580353f, -0.08823872357606887817f, 0.22243307530879974365f, 0.00962098967283964157f, -0.08235135674476623535f, -0.06923707574605941772f, -0.02593650296330451965f, 0.05120688676834106445f, -0.17172595858573913574f, -0.02420741319656372070f, -0.08810286968946456909f, -0.04873549938201904297f},
  {0.01373315136879682541f, -0.16177046298980712891f, -0.09895199537277221680f, 0.00920688081532716751f, 0.20555660128593444824f, -0.05316955223679542542f, -0.59144550561904907227f, 0.22266975045204162598f, -0.16691765189170837402f, 0.07205177098512649536f, -0.07374811917543411255f, -0.17739103734493255615f, 0.23157691955566406250f, 0.00113476987462490797f, -0.04429474472999572754f, -0.03972031921148300171f, -0.12139979004859924316f, -0.26487275958061218262f, 0.24602867662906646729f, -0.00884929578751325607f, 0.15297649800777435303f, -0.21098409593105316162f, -0.06268747150897979736f, 0.03036997839808464050f, -0.17410358786582946777f, -0.01998511888086795807f, 0.05373021215200424194f, -0.03538922220468521118f, -0.12557098269462585449f, -0.03669064119458198547f, -0.03492198511958122253f, -0.04481043294072151184f, 0.02347192540764808655f, 0.14394491910934448242f, 0.08230247348546981812f, -0.10049378126859664917f, -0.11329893767833709717f, 0.19065085053443908691f, 0.01659425534307956696f, 0.10187233239412307739f, 0.04749725013971328735f, 0.29417806863784790039f, -0.08747068792581558228f, 0.11526348441839218140f, 0.06812592595815658569f, 0.05665986984968185425f, -0.25824859738349914551f, -0.03642822802066802979f, -0.00837631896138191223f, 0.14194591343402862549f, -0.01739303767681121826f, 0.36400952935218811035f, 0.00976176187396049500f, 0.03077581711113452911f, 0.09546249359846115112f, 0.01520514674484729767f, 0.23389269411563873291f, -0.17950512468814849854f, -0.07957808673381805420f, -0.10530561953783035278f, 0.05517227202653884888f, -0.01448784954845905304f, 0.05935290083289146423f, 0.11506022512912750244f},
  {-0.00547965057194232941f, 0.11872249096632003784f, 0.19091850519180297852f, -0.23154532909393310547f, 0.05908871442079544067f, 0.12078006565570831299f, -0.43359640240669250488f, 0.04520612955093383789f, 0.15151029825210571289f, 0.74499237537384033203f, 0.27147519588470458984f, -0.37714341282844543457f, 0.00790360290557146072f, -0.07256679236888885498f, -0.33521005511283874512f, -0.36595451831817626953f, 0.09695380181074142456f, 0.01653865724802017212f, -0.26498633623123168945f, 0.00091334915487095714f, 0.01231817062944173813f, -0.42464417219161987305f, -0.89929455518722534180f, -0.00086086546070873737f, 0.17992885410785675049f, 0.94935756921768188477f, -0.01841991022229194641f, 0.00584648782387375832f, 0.30281269550323486328f, 0.42354306578636169434f, -0.00290353246964514256f, 0.23188345134258270264f, -0.33658340573310852051f, -0.02920567430555820465f, -0.53036767244338989258f, 0.52513742446899414062f, -0.05624243244528770447f, -0.15172936022281646729f, -0.00814823992550373077f, -0.75508791208267211914f, 0.01986751705408096313f, 0.07081939280033111572f, -0.07195406407117843628f, -0.27374237775802612305f, -1.40335988998413085938f, 0.20978593826293945312f, 0.16694396734237670898f, -0.98829483985900878906f, 0.30037969350814819336f, 0.12967061996459960938f, 0.01053391490131616592f, -0.28101861476898193359f, -0.19757837057113647461f, 0.26563164591789245605f, 0.33010721206665039062f, -0.00752078462392091751f, -0.07431259751319885254f, -0.10521661490201950073f, 0.29881116747856140137f, 0.08241492509841918945f, -0.03054968640208244324f, 0.00998215563595294952f, 0.28696677088737487793f, -0.34742665290832519531f},
  {0.01411200128495693207f, -0.17914710938930511475f, -0.09546567499637603760f, -0.03665013238787651062f, 0.21942549943923950195f, 0.17951734364032745361f, -0.11974662542343139648f, 0.07412787526845932007f, 0.26868319511413574219f, -0.07129198312759399414f, -0.05089728534221649170f, 0.02702558226883411407f, -0.01603515446186065674f, -0.04759493842720985413f, 0.18219503760337829590f, 0.10800787061452865601f, 0.10817424207925796509f, -0.04985996335744857788f, -0.05890557542443275452f, -0.05269670858979225159f, 0.05927199497818946838f, -0.21565335988998413086f, 0.06081790849566459656f, -0.02909214608371257782f, -0.07779054343700408936f, 0.13671898841857910156f, 0.03762348741292953491f, -0.01755758747458457947f, -0.09755093604326248169f, -0.00234660902060568333f, 0.03449513390660285950f, 0.04610562324523925781f, -0.01108732353895902634f, 0.25704884529113769531f, -0.02423766069114208221f, -0.09280706197023391724f, -0.04553088173270225525f, 0.11831871420145034790f, 0.05014054477214813232f, -0.07317740470170974731f, -0.11570078134536743164f, 0.18493115901947021484f, -0.00485407235100865364f, 0.03884867951273918152f, -0.10890226066112518311f, 0.00630998099222779274f, -0.10317294299602508545f, 0.10047059506177902222f, -0.20178523659706115723f, 0.00136424810625612736f, -0.01269388850778341293f, 0.06970545649528503418f, -0.07528398185968399048f, -0.07261902093887329102f, 0.08331479877233505249f, 0.01132164616137742996f, -0.10319031774997711182f, 0.07385187596082687378f, 0.03080337867140769958f, -0.02620270289480686188f, -0.00310429302044212818f, -0.06356591731309890747f, -0.17252187430858612061f, -0.27446463704109191895f},
  {0.01732502132654190063f, 0.02717709355056285858f, -0.31671610474586486816f, 0.10232255607843399048f, 0.42969593405723571777f, -0.04087732359766960144f, 0.01183930970728397369f, 0.53598296642303466797f, 0.34872296452522277832f, -0.17876617610454559326f, 0.17866206169128417969f, 0.01175306178629398346f, 0.17325502634048461914f, -0.39121514558792114258f, 0.05727512016892433167f, -0.06070966646075248718f, -0.05630185827612876892f, -0.06260035932064056396f, 0.17368969321250915527f, -0.01973151043057441711f, -0.19854748249053955078f, -0.24442759156227111816f, -0.09785238653421401978f, -0.03022566623985767365f, 0.04875464364886283875f, 0.01995391398668289185f, -0.09063254296779632568f, -0.00926110893487930298f, -0.05574240162968635559f, 0.03050321713089942932f, -0.05011557415127754211f, -0.09175111353397369385f, -0.02698008902370929718f, 0.34356787800788879395f, -0.11911617219448089600f, -0.03290986642241477966f, -0.23760290443897247314f, 0.28625628352165222168f, 0.01994941197335720062f, 0.20878468453884124756f, -0.06929290294647216797f, -0.22422324120998382568f, -0.20912416279315948486f, 0.22414657473564147949f, -0.24327282607555389404f, 0.01269199326634407043f, -0.16093671321868896484f, -0.21864974498748779297f, -0.48893928527832031250f, 0.23045849800109863281f, 0.00392475165426731110f, 0.26642224192619323730f, -0.27277228236198425293f, 0.09874818474054336548f, 0.14031961560249328613f, -0.00926660560071468353f, 0.17841911315917968750f, -0.10035987943410873413f, -0.41326674818992614746f, -0.18418820202350616455f, 0.39912685751914978027f, 0.00500445673242211342f, 0.05962572619318962097f, 0.21715947985649108887f},
  {0.04207099601626396179f, 0.11831367015838623047f, 0.09965658187866210938f, 0.02203745394945144653f, -0.22526499629020690918f, -0.30500611662864685059f, 0.30872514843940734863f, -0.14632740616798400879f, -0.00370409339666366577f, -0.00481514632701873779f, 0.13898557424545288086f, 0.11841528862714767456f, -0.16549710929393768311f, -0.00215197657234966755f, -0.10674544423818588257f, 0.07075227051973342896f, -0.04812806099653244019f, -0.18776822090148925781f, -0.11475641280412673950f, 0.00665285391733050346f, -0.04396131634712219238f, 0.04988216981291770935f, 0.00825303513556718826f, 0.02185262553393840790f, 0.02019049227237701416f, -0.08103664219379425049f, 0.00551167922094464302f, 0.00474838493391871452f, 0.12645207345485687256f, 0.03481199592351913452f, -0.02045104466378688812f, -0.10370204597711563110f, -0.24989579617977142334f, -0.17811639606952667236f, 0.14143748581409454346f, 0.13227663934230804443f, 0.03031084127724170685f, -0.00591079844161868095f, 0.03704483434557914734f, -0.02579707093536853790f, 0.08568648993968963623f, -0.23403631150722503662f, -0.05347887426614761353f, -0.03358198329806327820f, -0.02451472170650959015f, 0.05698110908269882202f, 0.03832503780722618103f, 0.01352722011506557465f, 0.21752722561359405518f, 0.08203218877315521240f, -0.02828304655849933624f, -0.38004904985427856445f, 0.26644474267959594727f, -0.01910316385328769684f, -0.32296967506408691406f, 0.06902883201837539673f, -0.06795204430818557739f, 0.02907593548297882080f, -0.03769558668136596680f, 0.13344210386276245117f, -0.09979539364576339722f, -0.01466921530663967133f, 0.05524737015366554260f, 0.19724096357822418213f},
  {0.00019637409423012286f, -0.01808352954685688019f, -0.06643626093864440918f, 0.13654978573322296143f, -0.02197200059890747070f, -0.11636653542518615723f, 0.25898033380508422852f, 0.12571817636489868164f, 0.12221057713031768799f, 0.23104208707809448242f, -0.21857923269271850586f, -0.09487040340900421143f, -0.18779496848583221436f, 0.03081237897276878357f, 0.08076254278421401978f, 0.08281412720680236816f, 0.11757467687129974365f, -0.18588751554489135742f, 0.05298897996544837952f, 0.00220488337799906731f, -0.12550979852676391602f, -0.11828865855932235718f, -0.02409685030579566956f, -0.01645212620496749878f, -0.08003941923379898071f, -0.07375092059373855591f, -0.01057003811001777649f, -0.00442871078848838806f, 0.03469630330801010132f, 0.12633775174617767334f, -0.00165319396182894707f, 0.01577155292034149170f, 0.09530632942914962769f, 0.02024289593100547791f, 0.10688209533691406250f, 0.01863190904259681702f, -0.23774148523807525635f, 0.28821897506713867188f, -0.00057168636703863740f, -0.01329671498388051987f, -0.00820962060242891312f, 0.09238092601299285889f, -0.06968060135841369629f, 0.11636890470981597900f, 0.02806218899786472321f, -0.03914951533079147339f, -0.08869642764329910278f, -0.10612147301435470581f, 0.00823514722287654877f, -0.04655690491199493408f, -0.00569017464295029640f, -0.15496641397476196289f, 0.07075452804565429688f, -0.01583428494632244110f, -0.11450626701116561890f, -0.00315956305712461472f, -0.18096284568309783936f, -0.02171399630606174469f, 0.18450093269348144531f, -0.04976836219429969788f, -0.01170472055673599243f, -0.00158189714420586824f, -0.11829322576522827148f, -0.23110620677471160889f},
  {-0.08702281862497329712f, -0.59187263250350952148f, 0.27051201462745666504f, 0.39088585972785949707f, -0.01926201209425926208f, 0.35824775695800781250f, -0.04003397375345230103f, -0.04274512082338333130f, -0.31594258546829223633f, -0.32490348815917968750f, -0.51540428400039672852f, 0.44313919544219970703f, -0.32883182168006896973f, -0.01789058558642864227f, -0.52708089351654052734f, -0.02776290476322174072f, -0.20851469039916992188f, -0.07762879878282546997f, 0.10347537696361541748f, 0.07862816751003265381f, -0.32372808456420898438f, 0.06786178797483444214f, -0.17162503302097320557f, 0.05801610276103019714f, 0.00202914932742714882f, -0.35866788029670715332f, 0.27852693200111389160f, 0.11494816094636917114f, 0.17415100336074829102f, 0.22373835742473602295f, -0.15632787346839904785f, -0.31652724742889404297f, 0.01706988923251628876f, 0.41058233380317687988f, -0.29146090149879455566f, 0.57214164733886718750f, 0.08378208428621292114f, -0.58242946863174438477f, -0.04808128625154495239f, 0.04254912585020065308f, -0.02059612609446048737f, 0.42004802823066711426f, 0.01462553162127733231f, 0.41090095043182373047f, -0.09875825792551040649f, -0.56509190797805786133f, -0.43816417455673217773f, 0.58002018928527832031f, -0.26597559452056884766f, 0.27471569180488586426f, 0.04848770052194595337f, 0.03836712241172790527f, 0.12019325792789459229f, 0.04445020109415054321f, 0.22486461699008941650f, -0.00053971313172951341f, 0.49407050013542175293f, -0.69511294364929199219f, -0.33166942000389099121f, -0.24965326488018035889f, 0.03188288211822509766f, 0.04833357408642768860f, 0.38451707363128662109f, -0.33745300769805908203f},
  {-0.00693139107897877693f, 0.14516785740852355957f, -0.21910850703716278076f, 0.39224055409431457520f, -0.01092431414872407913f, 0.27096503973007202148f, 0.23726114630699157715f, 0.16317632794380187988f, -0.35921430587768554688f, 0.06706643849611282349f, -0.40085682272911071777f, 0.21804139018058776855f, 0.00607200339436531067f, -0.21135078370571136475f, -0.09540787339210510254f, -0.03733371943235397339f, -0.48724731802940368652f, -0.01514892280101776123f, -0.58262252807617187500f, 0.00636808993294835091f, 0.02394447103142738342f, -0.02381284162402153015f, 0.37086832523345947266f, 0.00607346277683973312f, -0.07164830714464187622f, 0.05762521550059318542f, -0.01132574398070573807f, 0.00566398305818438530f, 0.90592324733734130859f, 0.26424157619476318359f, -0.00158761092461645603f, -0.59779793024063110352f, -0.01016865298151969910f, 0.34542161226272583008f, 0.23645532131195068359f, 0.15024444460868835449f, -0.20688185095787048340f, -0.16309079527854919434f, -0.01003740169107913971f, 0.66091996431350708008f, -0.04016695171594619751f, -0.26994544267654418945f, -0.14479452371597290039f, 0.44746837019920349121f, 0.11229759454727172852f, -0.15820702910423278809f, -0.80198383331298828125f, 0.20249436795711517334f, 0.63837313652038574219f, -0.17344154417514801025f, 0.01069394964724779129f, 0.06321656703948974609f, 0.06915614008903503418f, -0.02814754843711853027f, 1.02761805057525634766f, -0.01137560978531837463f, 0.07536876946687698364f, 0.30980369448661804199f, -0.13608980178833007812f, -0.13020657002925872803f, -0.01585260033607482910f, 0.01048087701201438904f, 0.04508842527866363525f, 0.13134348392486572266f},
  {0.00647870264947414398f, 0.07509565353393554688f, -0.15785235166549682617f, -0.50477093458175659180f, -0.22628578543663024902f, -0.33049038052558898926f, -0.01147337071597576141f, 0.11620341986417770386f, 0.02386665903031826019f, -0.13703204691410064697f, -0.02152543328702449799f, 0.27897632122039794922f, 0.20198571681976318359f, -0.46034473180770874023f, -1.54073619842529296875f, -0.17641213536262512207f, 0.10302507877349853516f, -0.06622206419706344604f, 0.18775060772895812988f, -0.01441385596990585327f, 0.05469159781932830811f, -0.27101913094520568848f, -0.29427343606948852539f, -0.01581091992557048798f, 0.23770707845687866211f, -0.09517531096935272217f, 0.00696775224059820175f, -0.00740488944575190544f, 0.04182068631052970886f, 0.08017786592245101929f, 0.00570687046274542809f, -0.18213713169097900391f, 0.07094255089759826660f, 0.13677749037742614746f, -0.16313149034976959229f, 0.45123618841171264648f, -0.37120220065116882324f, -0.19108307361602783203f, 0.00807824637740850449f, 0.68086087703704833984f, -0.01092468667775392532f, 0.22212335467338562012f, -0.80116951465606689453f, 0.14103667438030242920f, -1.00312113761901855469f, -0.68503880500793457031f, -0.03121535666286945343f, 0.06539456546306610107f, -0.16982884705066680908f, 0.13905379176139831543f, -0.00861602276563644409f, 0.07395109534263610840f, -0.30815270543098449707f, -0.22129265964031219482f, 0.12514780461788177490f, 0.00928930379450321198f, -0.12237923592329025269f, -0.59281527996063232422f, -0.95035433769226074219f, -0.07375629991292953491f, -0.23179695010185241699f, -0.00931277312338352203f, -0.22996942698955535889f, 0.00316722388379275799f},
  {0.00829287897795438766f, 0.09942781925201416016f, -0.46746113896369934082f, 0.17614102363586425781f, -0.06810767948627471924f, -0.00964752864092588425f, 0.44593107700347900391f, 0.10980629920959472656f, -0.20899511873722076416f, -0.00629728194326162338f, -0.39183345437049865723f, -0.08249389380216598511f, 0.00830057263374328613f, -0.61616396903991699219f, -0.56232476234436035156f, -0.12257161736488342285f, -0.35397067666053771973f, 0.15034462511539459229f, -0.09497247636318206787f, -0.02263951860368251801f, -0.09573862701654434204f, -0.29008394479751586914f, 0.04782254248857498169f, -0.03083774633705615997f, -0.22269640862941741943f, 0.02187802642583847046f, -0.02572577819228172302f, -0.01207463629543781281f, 0.98312175273895263672f, 0.51502794027328491211f, 0.00420249579474329948f, -0.38016882538795471191f, -0.23535019159317016602f, 0.29869759082794189453f, -0.15580101311206817627f, 0.56208401918411254883f, -0.06388960778713226318f, -0.25455650687217712402f, 0.01058809924870729446f, 0.12007927149534225464f, -0.01307366136461496353f, -0.02662786468863487244f, -0.17597733438014984131f, 0.25394511222839355469f, -0.35109397768974304199f, -0.44971376657485961914f, -1.09881639480590820312f, 0.11109403520822525024f, -0.24715870618820190430f, 0.05862551182508468628f, -0.01129140146076679230f, -0.02728959359228610992f, 0.24436233937740325928f, -0.08971405774354934692f, 0.83728480339050292969f, 0.00159989041276276112f, 0.04657986760139465332f, -0.09335500746965408325f, -0.52502185106277465820f, -0.16076833009719848633f, 0.03922614455223083496f, -0.01395165175199508667f, 0.29963549971580505371f, -0.10639174282550811768f},
  {0.00783875025808811188f, -0.21092884242534637451f, -0.59582692384719848633f, -0.28305092453956604004f, -0.13981378078460693359f, -0.37573897838592529297f, -0.23462384939193725586f, 0.36893811821937561035f, -0.04356374591588973999f, 0.16781659424304962158f, -0.06707695871591567993f, 0.56570893526077270508f, 0.07109434157609939575f, -0.40722456574440002441f, 0.36898452043533325195f, 0.09655299782752990723f, 0.24519421160221099854f, -0.65223908424377441406f, 0.27953398227691650391f, -0.00522875878959894180f, 0.10069365054368972778f, -0.14503099024295806885f, -0.02733206562697887421f, -0.00765567412599921227f, 0.58777940273284912109f, 0.15082807838916778564f, 0.01389219984412193298f, -0.01006686128675937653f, 0.31787183880805969238f, -0.00698012392967939377f, 0.01191141176968812943f, 0.14510695636272430420f, -0.07790391147136688232f, -0.06070369109511375427f, -0.58386856317520141602f, 0.14127255976200103760f, -0.02657487802207469940f, -0.45720291137695312500f, 0.00963221210986375809f, 0.37909519672393798828f, 0.31775274872779846191f, 0.28031939268112182617f, 0.15292787551879882812f, -0.23542748391628265381f, -0.71628499031066894531f, -0.03015426360070705414f, -0.11256564408540725708f, -0.72579300403594970703f, 0.36454969644546508789f, 0.25636589527130126953f, -0.01373965479433536530f, -0.45744910836219787598f, 0.23193186521530151367f, 0.07229904085397720337f, 0.52051299810409545898f, 0.01404245290905237198f, 0.39241704344749450684f, 0.10765378177165985107f, -0.02427736856043338776f, -0.03439524769783020020f, -0.15631774067878723145f, -0.01189116947352886200f, -0.08687184005975723267f, -0.03718191385269165039f},
  {0.02118078619241714478f, -0.24120850861072540283f, 0.00456964271143078804f, -0.09883454442024230957f, 0.23357284069061279297f, 0.23761443793773651123f, -0.16947536170482635498f, 0.05363380163908004761f, 0.24697467684745788574f, -0.00352646131068468094f, -0.08691168576478958130f, -0.18858590722084045410f, 0.16470250487327575684f, -0.18857043981552124023f, 0.19577887654304504395f, 0.06611419469118118286f, 0.02570119313895702362f, 0.12213841080665588379f, 0.19699653983116149902f, -0.02260126173496246338f, -0.04709748178720474243f, -0.06962525844573974609f, -0.02422612719237804413f, -0.01620520278811454773f, -0.20547106862068176270f, 0.04491793736815452576f, 0.05023409798741340637f, -0.04021514207124710083f, -0.20298869907855987549f, -0.05686353519558906555f, -0.05818493291735649109f, 0.07276526838541030884f, 0.08051303029060363770f, 0.19461397826671600342f, -0.05215420946478843689f, -0.04759369045495986938f, -0.07831975072622299194f, 0.12951551377773284912f, 0.01245334185659885406f, 0.12569677829742431641f, -0.18956699967384338379f, 0.14304593205451965332f, -0.05328097194433212280f, 0.02999157272279262543f, -0.06074558198451995850f, -0.02493462525308132172f, -0.05657643079757690430f, 0.06547238677740097046f, -0.09527230262756347656f, 0.03403097391128540039f, -0.03361108526587486267f, 0.14171099662780761719f, -0.12859958410263061523f, 0.14011630415916442871f, 0.23824171721935272217f, 0.02545876801013946533f, -0.02382590994238853455f, 0.01866486854851245880f, 0.03893524035811424255f, -0.01673569716513156891f, 0.01093973405659198761f, -0.01776054874062538147f, -0.21298840641975402832f, -0.14972698688507080078f},
  {0.03286894038319587708f, 0.05918245762586593628f, 0.05576598644256591797f, 0.00038710155058652163f, 0.02693001739680767059f, -0.01286686677485704422f, 0.04303887113928794861f, -0.06224760785698890686f, 0.03854331746697425842f, -0.08818930387496948242f, 0.01284185145050287247f, -0.03052644431591033936f, -0.14755371212959289551f, -0.07964944839477539062f, 0.05292372032999992371f, -0.09830283373594284058f, 0.01214843615889549255f, -0.02126239612698554993f, 0.02607565186917781830f, 0.01078969333320856094f, 0.00416097790002822876f, 0.13837906718254089355f, 0.00070717983180657029f, -0.00675471499562263489f, -0.00586824025958776474f, 0.12129782140254974365f, -0.01199477817863225937f, -0.00702832918614149094f, -0.07463070750236511230f, 0.07028224319219589233f, -0.03227929398417472839f, -0.06369343400001525879f, -0.05647179856896400452f, -0.03251272439956665039f, 0.01548606809228658676f, 0.21373392641544342041f, 0.11078878492116928101f, -0.07188195735216140747f, 0.00645752018317580223f, 0.03277761489152908325f, -0.03723464161157608032f, -0.18164208531379699707f, 0.02054142393171787262f, 0.01421360392123460770f, -0.03981121629476547241f, -0.05348221212625503540f, 0.01040836703032255173f, 0.01832961291074752808f, -0.04472438618540763855f, -0.04919577389955520630f, -0.00654709059745073318f, 0.11260252445936203003f, -0.21717746555805206299f, -0.10295914113521575928f, 0.08942016959190368652f, 0.02287388592958450317f, -0.02778879925608634949f, 0.08428885787725448608f, 0.01770174875855445862f, -0.02637328766286373138f, 0.16969728469848632812f, -0.01097219157963991165f, -0.00788335502147674561f, -0.11019568145275115967f},
  {0.00528913177549839020f, 0.02264495193958282471f, -0.04783337190747261047f, 0.07918018102645874023f, 0.13244134187698364258f, 0.04194324463605880737f, -0.19935254752635955811f, 0.08117009699344635010f, 0.15419057011604309082f, 0.10367210954427719116f, 0.04727128520607948303f, -0.17098386585712432861f, 0.19290615618228912354f, -0.07999915629625320435f, 0.03966952487826347351f, -0.02945736423134803772f, -0.06774479150772094727f, 0.01440698746591806412f, 0.20160818099975585938f, -0.00651520816609263420f, 0.09240538626909255981f, -0.13474905490875244141f, 0.01563731953501701355f, -0.00029964317218400538f, -0.19949066638946533203f, 0.04293773695826530457f, -0.03190348297357559204f, -0.01305433921515941620f, -0.14263232052326202393f, -0.06164200976490974426f, 0.01556051056832075119f, -0.06780595332384109497f, 0.10765213519334793091f, 0.11470600217580795288f, -0.03156172111630439758f, 0.02842947281897068024f, -0.02251553907990455627f, 0.14520418643951416016f, -0.00914216786623001099f, 0.09463877230882644653f, -0.07422021776437759399f, 0.07816358655691146851f, -0.01956389658153057098f, 0.03874091804027557373f, -0.04924027249217033386f, -0.07235911488533020020f, -0.05169497802853584290f, 0.10314215719699859619f, -0.08999904245138168335f, 0.00313606392592191696f, 0.00079004897270351648f, 0.01025049388408660889f, 0.09483475238084793091f, -0.05968051031231880188f, 0.12378738075494766235f, -0.00786161608994007111f, -0.09323786199092864990f, -0.05459389090538024902f, 0.03135829418897628784f, 0.07133375108242034912f, -0.00772744463756680489f, -0.00222288863733410835f, -0.21103255450725555420f, -0.03335716947913169861f},
  {0.00238453876227140427f, -0.09348627924919128418f, -0.01029647048562765121f, -0.10851676017045974731f, 0.03639145940542221069f, 0.10248808562755584717f, -0.00146712351124733686f, -0.12899459898471832275f, -0.03571681305766105652f, 0.05860329046845436096f, -0.10821674764156341553f, 0.02564050629734992981f, -0.10256790369749069214f, -0.13797202706336975098f, 0.14588797092437744141f, 0.07639002799987792969f, 0.02734920196235179901f, 0.00483565405011177063f, -0.12243635207414627075f, 0.00390435126610100269f, 0.10595597326755523682f, -0.07987628132104873657f, 0.04396838694810867310f, -0.00200270302593708038f, 0.11011991649866104126f, -0.16094939410686492920f, 0.02696559019386768341f, 0.01404876355081796646f, -0.02615682594478130341f, -0.00418702978640794754f, -0.00807480327785015106f, -0.03178333118557929993f, -0.05009487271308898926f, 0.00046599385677836835f, -0.08408442884683609009f, -0.03595767915248870850f, -0.02497811242938041687f, -0.06881898641586303711f, -0.00570660782977938652f, -0.09543681144714355469f, 0.01278991252183914185f, 0.16649441421031951904f, -0.10567425191402435303f, -0.09916041791439056396f, -0.00251363241113722324f, 0.07927288115024566650f, -0.11615917086601257324f, -0.00810784194618463516f, -0.00452736346051096916f, 0.06485703587532043457f, 0.00320124649442732334f, 0.30474781990051269531f, -0.06865804642438888550f, 0.10623634606599807739f, 0.01051202043890953064f, -0.00571757135912775993f, 0.14874176681041717529f, 0.01764506101608276367f, 0.05490553006529808044f, -0.02579049207270145416f, -0.08170852065086364746f, -0.00359179265797138214f, -0.00095735810464248061f, 0.05879538133740425110f},
  {-0.06067833676934242249f, -0.24386154115200042725f, -0.16563497483730316162f, -0.08808555454015731812f, 0.21563647687435150146f, 0.02111735939979553223f, -0.70630359649658203125f, 0.15886822342872619629f, -0.10540917515754699707f, -0.11695750802755355835f, -0.11875972896814346313f, -0.07101396471261978149f, 0.18351551890373229980f, -0.23481199145317077637f, -0.00680812541395425797f, -0.10716246068477630615f, -0.20531584322452545166f, -0.05857949331402778625f, 0.15597485005855560303f, 0.12918618321418762207f, 0.19275411963462829590f, -0.08008253574371337891f, -0.09591917693614959717f, 0.09747431427240371704f, -0.32501521706581115723f, 0.02315627597272396088f, 0.09043475240468978882f, 0.09145296365022659302f, -0.19381630420684814453f, 0.14001008868217468262f, 0.04400542750954627991f, -0.01451807655394077301f, 0.06677441298961639404f, 0.17298938333988189697f, 0.01682462170720100403f, 0.08983863890171051025f, -0.28150004148483276367f, 0.25963273644447326660f, -0.06624856591224670410f, 0.22846159338951110840f, -0.04313454031944274902f, 0.09657852351665496826f, 0.06066837161779403687f, -0.00319983321242034435f, -0.02851627767086029053f, -0.05596306547522544861f, -0.14632996916770935059f, 0.10609493404626846313f, -0.33297142386436462402f, 0.05088589340448379517f, 0.05651281774044036865f, 0.18822050094604492188f, -0.06618601828813552856f, 0.16654920578002929688f, 0.05426024645566940308f, -0.02495882101356983185f, -0.16109631955623626709f, -0.14099274575710296631f, -0.16021503508090972900f, 0.00142816861625760794f, 0.08173844218254089355f, 0.07735274732112884521f, -0.14547783136367797852f, -0.17507448792457580566f},
