// This file is computer-generated by onnx2c 
// (TODO: add creating command line here)
// (TODO: print creation date here )

// ONNX model:
// produced by pytorch, version 2.7.0
// ONNX IR version: 11
// Model documentation: 
/*

*/

#include <float.h>
#include <math.h>
#include <stdbool.h>
#include <stdint.h>
#include <string.h>

#define MAX(X,Y) ( X > Y ? X : Y)
#define MIN(X,Y) ( X < Y ? X : Y)
#define CLIP(X,L) ( MAX(MIN(X,L), -L) )

#if __STDC_VERSION__ < 199901L
#define FUNC_PREFIX
#else
#define FUNC_PREFIX static inline
#endif

static const float tensor_actor_0_weight[64][104] = 
{
  {-0.01274932362139225006f, -0.01855172030627727509f, 0.32214310765266418457f, 0.00559322535991668701f, 0.02974380739033222198f, -0.02644660696387290955f, 0.00016091909492388368f, -0.02908399887382984161f, -0.01144803129136562347f, 0.00595648121088743210f, 0.06351868808269500732f, -0.00294003332965075970f, 0.02516641840338706970f, 0.00324748922139406204f, 0.01448799017816781998f, 0.01145121827721595764f, -0.09105864912271499634f, -0.00006300491804722697f, -0.00171507394406944513f, 0.02686879597604274750f, -0.00027459589182399213f, -0.02295251563191413879f, 0.04981479048728942871f, -0.01008728984743356705f, 0.02146709710359573364f, -0.02613822184503078461f, 0.01137800328433513641f, -0.00766764208674430847f, 0.00570419803261756897f, -0.04312718287110328674f, 0.00333129335194826126f, 0.00706899119541049004f, -0.00161161355208605528f, -0.00456385267898440361f, -0.02828625030815601349f, 0.02546539530158042908f, 0.00733965076506137848f, -0.01336964499205350876f, -0.00495407031849026680f, -0.00411039032042026520f, 0.19679585099220275879f, 0.01808562688529491425f, 0.02581735327839851379f, 0.04018509015440940857f, 0.01105972379446029663f, -0.01036613620817661285f, 0.02579536847770214081f, 0.00608519790694117546f, -0.02237092331051826477f, -0.06488311290740966797f, 0.02729647420346736908f, 0.00995234120637178421f, -0.02779892645776271820f, -0.01832278817892074585f, -0.00971164088696241379f, -0.08929139375686645508f, -0.02073100954294204712f, -0.00976556725800037384f, 0.05406367406249046326f, 0.00570548605173826218f, 0.00718468334525823593f, -0.00778530631214380264f, -0.02153089456260204315f, 0.00346779054962098598f, -0.04361481592059135437f, -0.01239747647196054459f, -0.00634682085365056992f, -0.08085319399833679199f, -0.01410974562168121338f, -0.00013527704868465662f, -0.05024700984358787537f, 0.01897182129323482513f, 0.03055046685039997101f, -0.11574258655309677124f, -0.01190728973597288132f, -0.02028750441968441010f, 0.09137013554573059082f, 0.00775265460833907127f, -0.00266789202578365803f, -0.04728110879659652710f, -0.00590017205104231834f, -0.01030164677649736404f, 0.02551762573421001434f, -0.00124543870333582163f, 0.00155050354078412056f, -0.03445896878838539124f, 0.00557674700394272804f, -0.01984509639441967010f, -0.06110908463597297668f, 0.02293700166046619415f, -0.00125333515461534262f, 0.07225891202688217163f, -0.01094928383827209473f, -0.01631405390799045563f, 0.05981738120317459106f, -0.00456343637779355049f, 0.00903481058776378632f, -0.10340990871191024780f, 0.00934104993939399719f, -0.02127367444336414337f, 0.10075023770332336426f, -0.00586661137640476227f, -0.02875027991831302643f, -0.10178588330745697021f},
  {-1.01233553886413574219f, -0.50295758247375488281f, -7.49604797363281250000f, -0.05834670737385749817f, 0.06077351421117782593f, -0.87542021274566650391f, 0.03754764050245285034f, 0.00657044071704149246f, 0.01002243161201477051f, 0.11707472056150436401f, 0.39274418354034423828f, 0.01757378689944744110f, -0.07999967783689498901f, -0.05894424021244049072f, 0.00698111718520522118f, -0.10526503622531890869f, -0.06856120377779006958f, 0.10871235281229019165f, 0.05305097997188568115f, 0.05570096522569656372f, 0.02554742246866226196f, -0.01254588179290294647f, -0.18788379430770874023f, -0.00957802683115005493f, -0.03854518011212348938f, 0.06218660622835159302f, -0.02015973441302776337f, 0.01405293308198451996f, 0.05756490677595138550f, 0.00757338386029005051f, 0.02636119537055492401f, -0.08707141876220703125f, 0.08833067119121551514f, -0.05107779800891876221f, 0.03583285585045814514f, -0.00890896655619144440f, -0.03597964718937873840f, 0.00363776972517371178f, -0.04980432987213134766f, -0.07451210916042327881f, 0.00308625865727663040f, -0.03468636795878410339f, -0.03227692842483520508f, 0.14680996537208557129f, 0.01132244989275932312f, 0.05687794089317321777f, 0.26875287294387817383f, -0.03364053368568420410f, 0.03565726801753044128f, 0.01638312451541423798f, 0.02751797810196876526f, 0.01148628722876310349f, -0.11949349939823150635f, -0.05246854573488235474f, 0.03041904792189598083f, 0.03878786414861679077f, -0.05642818659543991089f, -0.06362684071063995361f, 0.09506136178970336914f, 0.05897475033998489380f, -0.03948647901415824890f, -0.08801651000976562500f, -0.00652388622984290123f, -0.03001630306243896484f, 0.07692454755306243896f, 0.06941537559032440186f, -0.01872632093727588654f, 0.02509750239551067352f, -0.01694776676595211029f, -0.10048375278711318970f, 0.21466201543807983398f, 0.16565263271331787109f, -0.02598170004785060883f, 0.07059324532747268677f, -0.00678075104951858521f, -0.04259531199932098389f, -0.00920566823333501816f, 0.09159334748983383179f, 0.02994513139128684998f, 0.00910683535039424896f, 0.04445063322782516479f, 0.01636033691465854645f, -0.11883916705846786499f, 0.10291123390197753906f, -0.00765236373990774155f, -0.09646771103143692017f, 0.06663932651281356812f, -0.04205226898193359375f, -0.24217878282070159912f, 0.06390953809022903442f, 0.04145064204931259155f, -0.23040150105953216553f, 0.12958367168903350830f, 0.05319979041814804077f, -0.29144909977912902832f, 0.12703241407871246338f, 0.15127219259738922119f, -0.25488188862800598145f, 0.08833725750446319580f, -0.02906705625355243683f, -0.53652435541152954102f, 0.04431217908859252930f, -0.37021037936210632324f, 0.30943435430526733398f},
  {-2.48794507980346679688f, -6.33249187469482421875f, -0.61818259954452514648f, -0.55530226230621337891f, 3.17724752426147460938f, 0.69225043058395385742f, 1.14196670055389404297f, 0.01339740026742219925f, -0.27021595835685729980f, -0.94117254018783569336f, -0.97074419260025024414f, -0.02660904079675674438f, 0.24142993986606597900f, -0.60533487796783447266f, 0.06871566176414489746f, 0.05964639782905578613f, -0.15400698781013488770f, -0.02859187126159667969f, -0.16254277527332305908f, -0.36948260664939880371f, 0.04310241341590881348f, -0.09321834146976470947f, -0.62297093868255615234f, -0.07130329310894012451f, -0.12916317582130432129f, 0.20397752523422241211f, -0.02969618327915668488f, -0.06511364132165908813f, -0.32075276970863342285f, -0.06769559532403945923f, -0.06614411622285842896f, -0.49599415063858032227f, -0.06908284127712249756f, 0.00964201521128416061f, 0.16670179367065429688f, 0.00540294824168086052f, -0.09360469877719879150f, -0.01731294579803943634f, 0.01643313094973564148f, -0.04326354712247848511f, -0.03099519014358520508f, 0.08932235091924667358f, 0.00306732999160885811f, -0.17441429197788238525f, 0.02064742706716060638f, -0.00563387665897607803f, -0.56926548480987548828f, 0.00782171823084354401f, -0.16546405851840972900f, 0.14045214653015136719f, -0.02654051780700683594f, -0.07605404406785964966f, -0.47241818904876708984f, -0.03883524984121322632f, -0.08495549857616424561f, -0.61938941478729248047f, 0.09642429649829864502f, -0.08266425132751464844f, -0.60038673877716064453f, -0.03027360513806343079f, -0.01003133505582809448f, -0.53482389450073242188f, -0.01199615001678466797f, -0.08517409861087799072f, -0.52899891138076782227f, -0.06785543262958526611f, -0.12327624857425689697f, 0.00373385357670485973f, 0.06775747239589691162f, -0.07095065712928771973f, -0.18248745799064636230f, -0.04575116559863090515f, -0.13844290375709533691f, 0.01017258595675230026f, 0.03821159154176712036f, -0.10800991952419281006f, -0.30708852410316467285f, -0.03132465109229087830f, -0.13258232176303863525f, -0.32792696356773376465f, 0.02847990393638610840f, -0.07901196181774139404f, -0.53141725063323974609f, -0.03884571045637130737f, -0.12199831008911132812f, -0.43289640545845031738f, 0.05979533866047859192f, -0.04162997007369995117f, -0.05985656008124351501f, -0.08602617681026458740f, -0.16166338324546813965f, -0.40604582428932189941f, -0.21845762431621551514f, -0.19493086636066436768f, 0.26688402891159057617f, -0.15837799012660980225f, -0.37828060984611511230f, 0.33644220232963562012f, -0.11931613832712173462f, -0.13297602534294128418f, -0.41375494003295898438f, 0.49482667446136474609f, 2.09475517272949218750f, -1.38215756416320800781f},
  {0.35243171453475952148f, 0.09086462855339050293f, 8.05320358276367187500f, -0.05242095515131950378f, -0.00106268841773271561f, -0.27908021211624145508f, -0.00071545771788805723f, -0.00754486303776502609f, 0.07430990785360336304f, -0.08837802708148956299f, 2.35299968719482421875f, -0.02943321131169795990f, 0.07447924464941024780f, -0.05360989272594451904f, 0.02361517027020454407f, 0.00086242455290630460f, -0.64060091972351074219f, -0.02233762666583061218f, 0.13835337758064270020f, -0.05259329825639724731f, 0.06607393175363540649f, -0.09939584881067276001f, -0.04370384663343429565f, -0.09806581586599349976f, -0.02816355787217617035f, 0.68069362640380859375f, -0.12837249040603637695f, -0.00990341044962406158f, 0.38013193011283874512f, -0.08341903239488601685f, -0.03929015994071960449f, 0.15917193889617919922f, 0.15980961918830871582f, 0.13161587715148925781f, 0.02624479122459888458f, -0.04904865473508834839f, 0.08394329994916915894f, 0.30617624521255493164f, -0.10440530627965927124f, -0.05974565446376800537f, 0.44599708914756774902f, 0.02980847284197807312f, 0.00628054281696677208f, 0.56205493211746215820f, 0.05466825515031814575f, -0.06042303889989852905f, 0.43859422206878662109f, 0.02521069161593914032f, -0.09934969991445541382f, -0.09372793883085250854f, 0.04029398038983345032f, -0.06027957797050476074f, -0.01313497312366962433f, 0.07251635193824768066f, 0.11094222217798233032f, 0.03875500336289405823f, -0.02818512171506881714f, -0.11445298045873641968f, 0.44792163372039794922f, 0.05334464088082313538f, 0.13655754923820495605f, 0.48334091901779174805f, 0.01230924762785434723f, 0.06249313801527023315f, 0.00335921649821102619f, 0.07071822881698608398f, -0.00508761359378695488f, 0.30661991238594055176f, -0.17068187892436981201f, 0.03372909501194953918f, 0.12346339970827102661f, 0.22125373780727386475f, 0.04180455952882766724f, -0.08678574115037918091f, -0.10444411635398864746f, -0.05410591140389442444f, 0.08896543085575103760f, 0.05322541296482086182f, 0.00582469953224062920f, -0.14856146275997161865f, -0.03857314959168434143f, 0.03726188465952873230f, 0.78512763977050781250f, 0.01182028558105230331f, -0.06270508468151092529f, 0.05592831969261169434f, 0.11182565987110137939f, -0.21213831007480621338f, -0.25140175223350524902f, 0.11023047566413879395f, -0.03317972645163536072f, 0.10859299451112747192f, -0.01286031864583492279f, -0.05903104320168495178f, 0.08150734752416610718f, -0.13341030478477478027f, 0.15569324791431427002f, -0.71423226594924926758f, -0.32013040781021118164f, 0.05706696584820747375f, -2.38806462287902832031f, 0.29979133605957031250f, -0.15357170999050140381f, -10.03458118438720703125f},
  {0.04285229369997978210f, -0.01183497440069913864f, -0.13890539109706878662f, 0.00225878902710974216f, -0.02224458195269107819f, 0.01474124751985073090f, 0.00136591063346713781f, -0.00056343147298321128f, -0.03800015151500701904f, 0.01309570670127868652f, 0.01235152222216129303f, 0.03161120042204856873f, -0.00109294767025858164f, -0.02766582556068897247f, -0.00221146666444838047f, 0.00949731655418872833f, 0.07628767192363739014f, -0.02261238917708396912f, 0.01030774973332881927f, 0.00270195677876472473f, -0.00089130544802173972f, -0.03101394325494766235f, 0.00528422510251402855f, -0.02519624866545200348f, -0.00611762376502156258f, -0.07395996153354644775f, 0.00782567821443080902f, 0.01131817605346441269f, -0.17334717512130737305f, -0.00107015657704323530f, 0.01743207685649394989f, 0.04108493402600288391f, 0.00457809586077928543f, 0.01524846814572811127f, 0.07601968944072723389f, -0.00709918886423110962f, -0.00861024390906095505f, 0.05391374602913856506f, 0.00990159995853900909f, 0.00184728403110057116f, 0.03708927333354949951f, 0.03582703322172164917f, -0.01059493515640497208f, -0.02998276799917221069f, -0.00394090637564659119f, -0.01065414212644100189f, 0.15173932909965515137f, -0.00271104951389133930f, -0.00553169660270214081f, -0.05377643555402755737f, -0.00647031795233488083f, 0.00517036346718668938f, -0.05680107697844505310f, -0.00461217761039733887f, -0.01523521449416875839f, 0.03720331564545631409f, 0.01027805916965007782f, -0.00556124141439795494f, -0.02930454351007938385f, 0.00192231417167931795f, -0.00451606465503573418f, 0.10409415513277053833f, -0.01571610756218433380f, 0.01148757152259349823f, 0.17035892605781555176f, 0.01873571239411830902f, 0.00031397180282510817f, 0.04573047161102294922f, 0.01002875715494155884f, 0.01508625876158475876f, 0.01210795808583498001f, -0.02941012755036354065f, 0.01006123609840869904f, -0.10405486077070236206f, -0.00160641851834952831f, 0.00219824188388884068f, -0.05400381982326507568f, 0.00971748866140842438f, -0.00890343263745307922f, 0.01646215654909610748f, -0.00844467803835868835f, 0.00023812022118363529f, -0.10274090617895126343f, -0.00120876962319016457f, 0.00815551169216632843f, 0.03483388200402259827f, 0.01290894765406847000f, 0.01481956429779529572f, 0.03401521593332290649f, -0.03020812757313251495f, -0.01780579052865505219f, 0.01894468069076538086f, 0.02504527196288108826f, -0.00877175386995077133f, 0.00501963170245289803f, 0.01257665362209081650f, -0.01100258063524961472f, -0.02551549673080444336f, -0.01743407733738422394f, 0.03428858146071434021f, -0.02531183697283267975f, 0.02777462825179100037f, -0.01313397474586963654f, 0.02413305826485157013f},
  {-0.03041551448404788971f, -0.04604369401931762695f, 0.02053444646298885345f, -0.01601835526525974274f, -0.01537870243191719055f, -0.00768204638734459877f, 0.00055769737809896469f, 0.00855909101665019989f, 0.01720078475773334503f, -0.01053809281438589096f, -0.06443054229021072388f, 0.00303244357928633690f, -0.01732390187680721283f, 0.05613166466355323792f, 0.00358681613579392433f, 0.02032956853508949280f, -0.08606462925672531128f, 0.02566471509635448456f, 0.03402992337942123413f, -0.08954310417175292969f, -0.03264744579792022705f, 0.00473646773025393486f, 0.03924442082643508911f, -0.02250310219824314117f, 0.01230640150606632233f, -0.01517554000020027161f, -0.01453340798616409302f, -0.00860220659524202347f, -0.13853901624679565430f, -0.00461279926821589470f, -0.00025888835079967976f, 0.04349357634782791138f, 0.01949160173535346985f, -0.00642986129969358444f, -0.00378409028053283691f, 0.00121504638809710741f, -0.00614132406190037727f, 0.04491701722145080566f, 0.00340043636970221996f, 0.00666586915031075478f, 0.04562399163842201233f, -0.00266837119124829769f, -0.01830591075122356415f, -0.03147826343774795532f, 0.02549140900373458862f, 0.01252015121281147003f, 0.05728169158101081848f, -0.00741560291498899460f, 0.00248685572296380997f, 0.12221575528383255005f, 0.02878777682781219482f, -0.01946397498250007629f, -0.05341439321637153625f, 0.00057513255160301924f, -0.01155326049774885178f, 0.10071160644292831421f, -0.01014824863523244858f, -0.00661291508004069328f, -0.07889156788587570190f, 0.00129376107361167669f, -0.01511790417134761810f, 0.04292633756995201111f, -0.03685139864683151245f, 0.02681622095406055450f, 0.06837321817874908447f, -0.01763015426695346832f, -0.01092369761317968369f, -0.02861475571990013123f, -0.00924233905971050262f, 0.01606606133282184601f, 0.03539545461535453796f, 0.01897447369992733002f, -0.00051378138596192002f, -0.05815778672695159912f, -0.00212805718183517456f, 0.00381457922048866749f, -0.13423018157482147217f, -0.01167706307023763657f, 0.00397644052281975746f, -0.05235088989138603210f, -0.02028601616621017456f, -0.00067879434209316969f, -0.10752771049737930298f, 0.01353798899799585342f, -0.01413903292268514633f, -0.03489360958337783813f, 0.00597184849902987480f, -0.00363151822239160538f, 0.04930733889341354370f, -0.03792006894946098328f, -0.00822476204484701157f, 0.09847087413072586060f, 0.03110495023429393768f, -0.00409989850595593452f, 0.02552171982824802399f, 0.01889591291546821594f, -0.01317472103983163834f, 0.09737292677164077759f, 0.02593833021819591522f, 0.01496767997741699219f, 0.10298208147287368774f, 0.00382411340251564980f, 0.04344431683421134949f, -0.08006183058023452759f},
  {11.79070854187011718750f, 0.58279985189437866211f, -2.87962889671325683594f, -0.54381036758422851562f, -3.56349396705627441406f, -3.47027683258056640625f, -0.71546494960784912109f, 0.01532075833529233932f, 0.75557982921600341797f, 0.08122263103723526001f, -0.87687283754348754883f, -0.12086067348718643188f, -0.00538473622873425484f, -0.15247042477130889893f, 0.06962595134973526001f, -0.05151528120040893555f, -0.56615144014358520508f, 0.15679253637790679932f, 0.05618954449892044067f, -0.70347309112548828125f, 0.11875424534082412720f, -0.03934528678655624390f, -0.55000203847885131836f, 0.09509892761707305908f, 0.02466717921197414398f, -0.41861814260482788086f, 0.07695259898900985718f, 0.02937527559697628021f, -0.08401049673557281494f, 0.11264385282993316650f, 0.00832646153867244720f, -0.56591612100601196289f, 0.01540336385369300842f, 0.02096491120755672455f, -0.27336370944976806641f, 0.10026583820581436157f, 0.04715143516659736633f, -0.59415876865386962891f, 0.04587357491254806519f, -0.01076988503336906433f, -0.58894318342208862305f, 0.04173626750707626343f, 0.01560270972549915314f, -0.41351106762886047363f, 0.14662812650203704834f, -0.02789996750652790070f, -0.13531397283077239990f, 0.07791818678379058838f, -0.00861890148371458054f, -0.60491341352462768555f, 0.10348045080900192261f, 0.00632910756394267082f, -0.22596518695354461670f, 0.04895927757024765015f, -0.02682002633810043335f, -0.27392691373825073242f, 0.11577162891626358032f, -0.00130170839838683605f, -0.31622314453125000000f, 0.08940012753009796143f, -0.03194160014390945435f, -0.31989634037017822266f, 0.12126237154006958008f, -0.01189855765551328659f, 0.09206017106771469116f, 0.10459266602993011475f, -0.01873515732586383820f, -0.16369190812110900879f, 0.09525188058614730835f, 0.04396117478609085083f, -0.10243459790945053101f, 0.10579855740070343018f, 0.05317939072847366333f, -0.16094508767127990723f, 0.09898645430803298950f, 0.03658151626586914062f, -0.09632794559001922607f, 0.10391555726528167725f, -0.00735165039077401161f, -0.26941722631454467773f, 0.08081331849098205566f, 0.02743718773126602173f, -0.06990399956703186035f, 0.17570909857749938965f, 0.03443352878093719482f, -0.28340312838554382324f, 0.07715363800525665283f, -0.02449205517768859863f, -0.40234130620956420898f, 0.11954112350940704346f, -0.02528108097612857819f, -0.41988927125930786133f, 0.18714115023612976074f, 0.00575241306796669960f, -0.31015995144844055176f, 0.19506070017814636230f, -0.00679258024320006371f, -0.74871891736984252930f, 0.38063842058181762695f, -0.10371840000152587891f, -0.71147423982620239258f, -1.17934787273406982422f, -0.00499997753649950027f, -0.87901139259338378906f},
  {0.00669129844754934311f, -0.00770245678722858429f, -0.19108708202838897705f, 0.00113841041456907988f, -0.02476016059517860413f, 0.01044712867587804794f, 0.00441015418618917465f, -0.00445808097720146179f, -0.01611228846013545990f, -0.03851731121540069580f, -0.01195589080452919006f, 0.01722866296768188477f, 0.01199868135154247284f, 0.06561563909053802490f, 0.03815819695591926575f, 0.02182976529002189636f, -0.17996622622013092041f, 0.01376937050372362137f, 0.00970919616520404816f, -0.12530279159545898438f, -0.00372845679521560669f, 0.00701080355793237686f, 0.02593818306922912598f, -0.02060659974813461304f, -0.01907457225024700165f, 0.05798666179180145264f, -0.00228502042591571808f, 0.00678978208452463150f, -0.00626363605260848999f, 0.02642866596579551697f, 0.02818962000310420990f, -0.04587338864803314209f, -0.00765154883265495300f, -0.01831475459039211273f, 0.12330643087625503540f, -0.00427661370486021042f, -0.02228690311312675476f, -0.16861301660537719727f, -0.00366070494055747986f, 0.01479695271700620651f, 0.06011573597788810730f, 0.00325413420796394348f, 0.00514392787590622902f, 0.01902221515774726868f, 0.00595040107145905495f, -0.00297716306522488594f, 0.06888653337955474854f, -0.03045199438929557800f, -0.02275316230952739716f, 0.02071060240268707275f, 0.00059555220650509000f, 0.02858771756291389465f, -0.02754269912838935852f, 0.01753559336066246033f, -0.00276625389233231544f, 0.09346108138561248779f, -0.00679806014522910118f, -0.01747287996113300323f, 0.09609260410070419312f, 0.05806277692317962646f, 0.01241660676896572113f, -0.02095613442361354828f, 0.00634883251041173935f, 0.01709630154073238373f, 0.06494940072298049927f, 0.02131034061312675476f, 0.00323478225618600845f, 0.03113869391381740570f, -0.01836403459310531616f, 0.01732249930500984192f, 0.09807330369949340820f, 0.01975164562463760376f, -0.02911400049924850464f, -0.08748744428157806396f, -0.00018969055963680148f, 0.00027332079480402172f, 0.11075361073017120361f, -0.01093625836074352264f, -0.02503702044486999512f, 0.02999188378453254700f, -0.01620722934603691101f, -0.00330743798986077309f, -0.00393915502354502678f, -0.01492071896791458130f, 0.00875461474061012268f, -0.02470039017498493195f, 0.01073340512812137604f, -0.00437743589282035828f, 0.07736233621835708618f, 0.00838670320808887482f, 0.00601608539000153542f, 0.01134091895073652267f, -0.01382708176970481873f, -0.00373264634981751442f, -0.07674828916788101196f, -0.00590522354468703270f, 0.02135881781578063965f, 0.05213187262415885925f, -0.02951524406671524048f, 0.01218096632510423660f, -0.11278560012578964233f, 0.03712442517280578613f, 0.00057452823966741562f, 0.12136189639568328857f},
  {-0.21906690299510955811f, 0.10650826990604400635f, -8.26360988616943359375f, 0.05314867198467254639f, -0.17418913543224334717f, -0.01122378185391426086f, 0.00170296919532120228f, -0.00373089988715946674f, -0.00986332632601261139f, 0.17463260889053344727f, -3.14610266685485839844f, -0.00501485262066125870f, -0.14787983894348144531f, 0.13438533246517181396f, -0.13402257859706878662f, -0.09250505268573760986f, 0.82547467947006225586f, 0.12914782762527465820f, -0.02637554518878459930f, 0.33677235245704650879f, 0.04080897942185401917f, 0.06040984764695167542f, 0.46271345019340515137f, 0.09249782562255859375f, -0.01087352819740772247f, -0.90818303823471069336f, 0.17805171012878417969f, 0.04673882946372032166f, -0.66122734546661376953f, 0.11845327168703079224f, 0.21341271698474884033f, 0.23043856024742126465f, -0.15706352889537811279f, -0.14349196851253509521f, 0.09643661230802536011f, 0.08475591242313385010f, -0.21347203850746154785f, -0.54606044292449951172f, -0.07681173086166381836f, 0.07060214132070541382f, -0.22647015750408172607f, -0.03105704300105571747f, -0.00330279953777790070f, -0.07548947632312774658f, -0.21482488512992858887f, 0.05582289025187492371f, -0.55172276496887207031f, -0.09702702611684799194f, 0.05152509734034538269f, 0.05625607818365097046f, -0.13086746633052825928f, 0.06849119067192077637f, -0.43231716752052307129f, -0.05338973924517631531f, 0.01386366412043571472f, 0.34034708142280578613f, 0.03992943093180656433f, -0.02856430411338806152f, -0.10278182476758956909f, -0.27821651101112365723f, -0.01544219814240932465f, -0.27881902456283569336f, 0.00122361630201339722f, -0.29058611392974853516f, 0.06882897019386291504f, 0.00571005884557962418f, 0.00390261621214449406f, -0.06704552471637725830f, 0.01925765536725521088f, -0.12165837734937667847f, -0.33517214655876159668f, -0.10076322406530380249f, 0.00392789766192436218f, -0.14002129435539245605f, -0.05532538890838623047f, 0.10035512596368789673f, 0.45775312185287475586f, 0.14020107686519622803f, 0.10769940912723541260f, -0.22123870253562927246f, -0.03734801337122917175f, 0.07306676357984542847f, -0.27335277199745178223f, 0.01034520380198955536f, -0.03924472630023956299f, -0.15034778416156768799f, -0.03820982575416564941f, 0.18523392081260681152f, 0.02188969776034355164f, -0.08579824119806289673f, 0.06981503218412399292f, -0.57880377769470214844f, -0.02105348743498325348f, 0.01826583035290241241f, 0.06116029620170593262f, -0.06706517934799194336f, 0.01013877801597118378f, 1.49517297744750976562f, -0.08217205852270126343f, 0.29954442381858825684f, 4.16422986984252929688f, 0.56188935041427612305f, -0.42064327001571655273f, 13.50599765777587890625f},
  {0.03415979072451591492f, -0.01904006861150264740f, 0.17589740455150604248f, 0.00000965364233707078f, 0.01660911925137042999f, 0.03102112002670764923f, 0.00027338077779859304f, 0.02025934681296348572f, 0.00839539989829063416f, 0.01103042066097259521f, 0.10425356030464172363f, -0.01391915604472160339f, 0.01386824157088994980f, -0.09363437443971633911f, 0.00593512086197733879f, 0.02437408082187175751f, 0.14654311537742614746f, 0.02470848523080348969f, 0.00368557265028357506f, 0.05822280049324035645f, -0.03456553816795349121f, 0.00643530953675508499f, -0.08164746314287185669f, -0.00311734830029308796f, 0.02185682021081447601f, -0.06001771613955497742f, 0.01078822650015354156f, 0.02760293707251548767f, -0.01734098419547080994f, -0.01467892061918973923f, -0.01413879636675119400f, 0.07328524440526962280f, -0.01926083303987979889f, 0.00110079266596585512f, -0.10101045668125152588f, 0.00820537935942411423f, 0.04284204915165901184f, 0.10324135422706604004f, -0.00225443276576697826f, -0.00253456761129200459f, 0.15382987260818481445f, -0.02365258522331714630f, -0.00330446800217032433f, -0.10866456478834152222f, -0.00228007929399609566f, -0.02765501104295253754f, 0.06440816074609756470f, 0.01823457330465316772f, -0.02019651420414447784f, -0.01653543673455715179f, 0.02037862502038478851f, -0.00944504514336585999f, -0.06771913170814514160f, 0.01787997409701347351f, -0.01279419381171464920f, 0.07498387247323989868f, 0.00138378620613366365f, -0.00093717785784974694f, 0.01451009977608919144f, 0.00972381886094808578f, -0.01422929856926202774f, -0.00918026082217693329f, 0.01127935387194156647f, 0.00184448203071951866f, 0.07310295850038528442f, 0.00361466174945235252f, -0.02150580473244190216f, -0.01000855304300785065f, -0.01707628183066844940f, -0.00051069969777017832f, 0.15096694231033325195f, -0.00489693554118275642f, -0.02958941087126731873f, 0.00610841438174247742f, 0.00335327745415270329f, -0.04447257891297340393f, -0.11634944379329681396f, -0.02146551758050918579f, 0.01504371967166662216f, 0.07823432236909866333f, -0.02757307700812816620f, -0.02947173640131950378f, 0.02063974179327487946f, -0.00403025699779391289f, -0.03386298567056655884f, -0.04175231605768203735f, 0.00097722373902797699f, 0.01484812516719102859f, -0.07794686406850814819f, 0.01140683237463235855f, -0.00698138866573572159f, 0.05949459597468376160f, -0.00864246953278779984f, 0.01228706538677215576f, -0.04013192653656005859f, -0.01119840424507856369f, 0.01336285751312971115f, -0.05693883448839187622f, -0.02446222305297851562f, -0.00460873916745185852f, 0.04234782606363296509f, 0.00962029024958610535f, 0.04620341584086418152f, -0.11354339122772216797f},
  {0.01005863118916749954f, -0.00769573543220758438f, 0.06159925088286399841f, -0.00861027091741561890f, 0.02336185052990913391f, 0.00313800550065934658f, -0.00064009649213403463f, 0.01152353826910257339f, -0.01364032458513975143f, 0.00205493997782468796f, 0.13658791780471801758f, -0.00259410706348717213f, 0.03055793233215808868f, 0.01580930314958095551f, -0.01162432506680488586f, 0.01661299727857112885f, 0.05517729744315147400f, -0.02796025574207305908f, -0.05772578716278076172f, -0.07538401335477828979f, -0.01010418217629194260f, 0.00862338300794363022f, 0.15766565501689910889f, 0.02538171969354152679f, 0.01953587122261524200f, -0.19335491955280303955f, -0.01512523740530014038f, -0.01874078065156936646f, 0.18912525475025177002f, -0.01114013511687517166f, -0.01616240665316581726f, 0.03729030117392539978f, -0.00043544560321606696f, 0.01023940090090036392f, -0.11829433590173721313f, 0.01299986243247985840f, 0.00230279471725225449f, 0.11193468421697616577f, 0.00887799356132745743f, 0.00284375599585473537f, -0.03446685522794723511f, -0.02251044660806655884f, 0.02555186487734317780f, -0.12085550278425216675f, 0.02142536453902721405f, -0.00923865381628274918f, 0.11390009522438049316f, 0.02108646370470523834f, 0.03160943090915679932f, -0.10675141215324401855f, 0.01036045514047145844f, -0.01581469364464282990f, -0.06601817160844802856f, -0.00478531373664736748f, 0.01529523916542530060f, 0.16556921601295471191f, 0.02399852313101291656f, -0.00664474302902817726f, -0.09882255643606185913f, -0.01192420721054077148f, -0.01742634922266006470f, -0.05811662599444389343f, 0.01134242024272680283f, -0.00064483878668397665f, -0.12377120554447174072f, -0.01136688515543937683f, -0.01005014218389987946f, 0.05158616229891777039f, 0.01616636104881763458f, 0.01097110006958246231f, 0.01054328866302967072f, 0.01350764092057943344f, -0.01451332401484251022f, 0.05422879755496978760f, -0.04513948038220405579f, 0.00097436609212309122f, 0.17770402133464813232f, 0.00200023408979177475f, -0.00767080765217542648f, 0.13148136436939239502f, -0.01044026669114828110f, -0.00898783653974533081f, 0.08414342999458312988f, 0.00595262693241238594f, 0.00751632126048207283f, -0.13387244939804077148f, -0.00650197174400091171f, -0.00751965492963790894f, -0.17316523194313049316f, -0.03355359658598899841f, -0.00152018154039978981f, 0.07184100896120071411f, 0.00688012829050421715f, -0.01083968486636877060f, 0.09593202918767929077f, -0.01814962550997734070f, -0.00239062868058681488f, 0.08074884861707687378f, 0.00012289101141504943f, 0.01822442747652530670f, 0.15338109433650970459f, 0.01677883975207805634f, 0.00191806873772293329f, -0.05595189332962036133f},
  {-0.02452648617327213287f, 0.05655569210648536682f, -1.00396609306335449219f, 0.00061492947861552238f, 0.02408809959888458252f, 0.02565723843872547150f, -0.00035265952465124428f, 0.00542093627154827118f, -0.01662767119705677032f, -0.01609465293586254120f, 0.06156668066978454590f, -0.01098745781928300858f, 0.02830021828413009644f, 0.04808283224701881409f, -0.03256098926067352295f, -0.00998618267476558685f, -0.19202804565429687500f, -0.01601524651050567627f, -0.01790726557374000549f, -0.10172678530216217041f, -0.00925807654857635498f, 0.01118312217295169830f, 0.10863768309354782104f, 0.00120410684030503035f, -0.02171330153942108154f, -0.11610440909862518311f, 0.02945151366293430328f, -0.01489559095352888107f, 0.15718232095241546631f, 0.00121642334852367640f, -0.03270746022462844849f, -0.08139229565858840942f, 0.01163413282483816147f, 0.00065354950493201613f, -0.10157821327447891235f, 0.02110150270164012909f, 0.01437218673527240753f, 0.06534165889024734497f, -0.01382564287632703781f, -0.01766294054687023163f, -0.03083181381225585938f, 0.01386661734431982040f, 0.01322153396904468536f, -0.14174881577491760254f, -0.01549815665930509567f, 0.00795186311006546021f, -0.17534047365188598633f, 0.00705862883478403091f, 0.01428709365427494049f, 0.01640962809324264526f, 0.01520092505961656570f, -0.02029816620051860809f, 0.01100262533873319626f, 0.02083004266023635864f, -0.00328250345773994923f, -0.06055578589439392090f, 0.00798139628022909164f, 0.00663456460461020470f, 0.02154084108769893646f, 0.01555034518241882324f, 0.00387767865322530270f, -0.11724860966205596924f, 0.00290320138446986675f, 0.00423746369779109955f, -0.07759188860654830933f, 0.01266678608953952789f, -0.00523715605959296227f, -0.05691583454608917236f, 0.01288749929517507553f, 0.01085206866264343262f, -0.04602896422147750854f, -0.02915289066731929779f, 0.02470857836306095123f, 0.06535691767930984497f, 0.01257502008229494095f, 0.00991433300077915192f, -0.06029834225773811340f, -0.00816048029810190201f, 0.00017164772725664079f, -0.06769905984401702881f, -0.00086412683594971895f, 0.01733119972050189972f, 0.00933183357119560242f, -0.01593298837542533875f, 0.02165778540074825287f, -0.03834506124258041382f, -0.00899376627057790756f, 0.01413260772824287415f, -0.00446077436208724976f, -0.00867149326950311661f, -0.02525039762258529663f, -0.15557818114757537842f, -0.03165557235479354858f, 0.00043368630576878786f, 0.01671709120273590088f, -0.01720022968947887421f, -0.03622236102819442749f, -0.11182631552219390869f, 0.02358442544937133789f, -0.01523094810545444489f, -0.04062289372086524963f, 0.02395758405327796936f, 0.04260487854480743408f, 0.00262537854723632336f},
  {-0.00816605705767869949f, 0.01198184117674827576f, 0.09649557620286941528f, 0.00067362631671130657f, -0.00682988576591014862f, 0.02420608513057231903f, -0.00135020073503255844f, 0.00465573230758309364f, 0.00861718226224184036f, 0.00882663950324058533f, 0.10104988515377044678f, -0.01578875258564949036f, 0.01145187113434076309f, 0.02088761143386363983f, 0.01633456349372863770f, -0.01764778606593608856f, 0.01770697906613349915f, -0.02686383202672004700f, -0.01434335485100746155f, -0.09795889258384704590f, 0.00042803722317330539f, 0.00550251407548785210f, 0.07925399392843246460f, -0.00998907908797264099f, 0.01214631367474794388f, -0.04433871433138847351f, 0.00823867600411176682f, -0.02882225252687931061f, 0.07476896047592163086f, 0.02386376447975635529f, -0.00471891695633530617f, -0.19661141932010650635f, -0.00257992278784513474f, 0.00337121007032692432f, 0.04545314237475395203f, 0.00001562205397931393f, 0.02349585480988025665f, 0.08563581109046936035f, 0.01394331082701683044f, 0.00325177516788244247f, -0.09976324439048767090f, 0.00243298453278839588f, -0.00114534958265721798f, 0.12828323245048522949f, 0.01416795980185270309f, -0.02094263955950737000f, -0.04358017444610595703f, -0.00124963303096592426f, -0.00462865270674228668f, 0.04890592768788337708f, 0.00412726821377873421f, -0.01589803397655487061f, 0.03992654010653495789f, 0.00050342903705313802f, 0.00073770171729847789f, 0.14616836607456207275f, -0.02286619693040847778f, 0.00823818147182464600f, 0.01058988831937313080f, 0.00784782692790031433f, 0.00165053887758404016f, -0.09663979709148406982f, -0.00238152360543608665f, 0.01186984963715076447f, -0.07386071979999542236f, 0.01151739433407783508f, -0.01246742065995931625f, 0.19012221693992614746f, 0.01482425816357135773f, 0.02280351519584655762f, -0.10716599225997924805f, -0.00979690346866846085f, 0.00043357015238143504f, 0.12597097456455230713f, -0.00277075148187577724f, 0.01663397997617721558f, -0.08909245580434799194f, -0.00451749283820390701f, -0.00593226449564099312f, 0.04469961673021316528f, -0.01336003281176090240f, -0.01139838341623544693f, 0.01870151795446872711f, 0.00454779993742704391f, -0.01167452055960893631f, 0.05014129728078842163f, -0.02984508499503135681f, 0.01737062819302082062f, -0.09818326681852340698f, 0.00691332109272480011f, -0.00143799791112542152f, -0.06111700832843780518f, -0.00559783354401588440f, -0.00813889130949974060f, 0.07543431967496871948f, 0.01541231758892536163f, -0.00364602124318480492f, -0.10209558159112930298f, -0.01940702274441719055f, 0.03440493345260620117f, 0.05616173148155212402f, 0.00828048028051853180f, -0.00955784693360328674f, -0.04344200715422630310f},
  {0.05971214175224304199f, -0.04704375192523002625f, 2.81876301765441894531f, -0.01024852599948644638f, -0.02410386130213737488f, -0.03933217003941535950f, 0.00970879662781953812f, 0.01065720245242118835f, -0.00926776323467493057f, 0.04061745479702949524f, -0.12812031805515289307f, 0.00590132223442196846f, -0.01313340570777654648f, -0.13190962374210357666f, 0.02151705883443355560f, 0.01339070964604616165f, 0.05681231245398521423f, -0.00239996961317956448f, 0.04024755209684371948f, 0.01922812685370445251f, -0.01257911697030067444f, 0.05002612993121147156f, 0.09870572388172149658f, 0.00653357943519949913f, 0.00609713094308972359f, 0.14623142778873443604f, 0.01141863502562046051f, 0.01343534234911203384f, 0.09425903111696243286f, -0.00536129856482148170f, -0.03843465819954872131f, 0.06569388508796691895f, 0.00975885428488254547f, -0.01889997720718383789f, 0.02807085029780864716f, 0.01031923387199640274f, -0.00441609928384423256f, 0.04612268507480621338f, -0.00666897743940353394f, -0.03063543140888214111f, -0.09972128272056579590f, 0.00647279946133494377f, -0.03741405904293060303f, 0.00872296281158924103f, -0.00968840159475803375f, -0.02576622366905212402f, 0.11789560317993164062f, 0.00322114583104848862f, 0.00145237601827830076f, -0.04368272051215171814f, -0.00653269095346331596f, 0.00390024622902274132f, 0.00933119282126426697f, -0.02274616435170173645f, 0.03506115451455116272f, 0.28771713376045227051f, -0.00398972351104021072f, 0.02515554241836071014f, 0.00094147230265662074f, 0.00603802455589175224f, -0.00346126290969550610f, -0.05226398259401321411f, -0.00961933471262454987f, 0.01270799152553081512f, 0.04730340093374252319f, 0.00012157615856267512f, -0.01375302765518426895f, -0.00391454203054308891f, -0.01362852007150650024f, -0.02682708390057086945f, 0.14535859227180480957f, -0.03262925148010253906f, -0.01808480359613895416f, 0.06106292828917503357f, -0.02018026635050773621f, 0.01572633348405361176f, -0.02255968935787677765f, 0.00046175529132597148f, -0.02331468835473060608f, -0.14066521823406219482f, 0.01449387148022651672f, 0.01297072786837816238f, 0.05915012583136558533f, 0.01550354529172182083f, -0.01089060213416814804f, 0.12497679144144058228f, -0.00168737047351896763f, -0.04484191909432411194f, 0.14058257639408111572f, 0.00432823318988084793f, -0.00897709000855684280f, 0.12050728499889373779f, 0.00494609447196125984f, -0.02034846507012844086f, 0.17919954657554626465f, -0.00281346566043794155f, 0.01912915334105491638f, 0.23424023389816284180f, 0.01092866342514753342f, -0.01670687831938266754f, 0.02201920188963413239f, -0.04344731196761131287f, 0.06859198212623596191f, 0.59169656038284301758f},
  {0.00324657442979514599f, 0.03772105649113655090f, 0.00986848119646310806f, -0.01074620708823204041f, -0.04042725637555122375f, 0.02225970849394798279f, 0.00929304119199514389f, -0.00281090289354324341f, 0.02952210977673530579f, -0.00148409663233906031f, 0.11693736910820007324f, 0.03568519279360771179f, -0.01418501045554876328f, 0.01798583939671516418f, -0.02879795990884304047f, 0.02124577015638351440f, 0.12209089845418930054f, -0.02219274640083312988f, -0.06617347896099090576f, -0.11931961029767990112f, 0.02242054976522922516f, 0.02013709023594856262f, 0.11695321649312973022f, 0.02144153602421283722f, 0.00031300284899771214f, 0.24801802635192871094f, 0.00847784057259559631f, 0.00606688717380166054f, -0.04684155806899070740f, -0.01558136567473411560f, -0.00607622042298316956f, -0.12656855583190917969f, 0.00512672355398535728f, 0.00150593405123800039f, -0.29961130023002624512f, -0.00981666706502437592f, 0.02426121197640895844f, 0.29897060990333557129f, -0.02205521613359451294f, -0.00270291278138756752f, -0.26706880331039428711f, -0.00896830670535564423f, 0.00454219989478588104f, 0.14564256370067596436f, 0.00853130035102367401f, 0.00603782478719949722f, -0.08597094565629959106f, -0.02035451680421829224f, -0.00795261748135089874f, 0.05101924389600753784f, -0.00488921441137790680f, -0.02574494481086730957f, 0.01643742434680461884f, -0.04786358401179313660f, 0.01704017072916030884f, -0.13461668789386749268f, 0.01505084242671728134f, 0.01056251954287290573f, 0.03513002395629882812f, 0.00381231633946299553f, -0.01453183591365814209f, -0.13819500803947448730f, 0.00267951632849872112f, 0.01048705261200666428f, 0.16800040006637573242f, -0.01360803563147783279f, 0.01131891086697578430f, 0.07140322029590606689f, 0.02869562990963459015f, 0.01738865859806537628f, -0.01215622294694185257f, 0.01619271934032440186f, -0.02135006152093410492f, -0.14355729520320892334f, 0.02809340879321098328f, 0.00819640234112739563f, -0.04263744503259658813f, -0.01034577749669551849f, 0.02008691057562828064f, 0.20295536518096923828f, 0.02067482843995094299f, 0.00660360231995582581f, 0.05101709440350532532f, 0.03190238028764724731f, -0.01896196417510509491f, 0.02536959759891033173f, -0.00310763181187212467f, 0.00808173883706331253f, 0.06731388717889785767f, 0.00906938873231410980f, 0.01137466542422771454f, 0.06415139883756637573f, -0.00318758608773350716f, 0.01932398602366447449f, -0.06777722388505935669f, 0.01244150288403034210f, 0.01341695711016654968f, -0.15376335382461547852f, -0.02522067353129386902f, 0.00436883512884378433f, 0.00371225480921566486f, -0.02211988158524036407f, -0.00961760804057121277f, 0.17335581779479980469f},
  {0.13574796915054321289f, -8.19285774230957031250f, -12.29672050476074218750f, 0.57621663808822631836f, -0.93450564146041870117f, 0.37255352735519409180f, 1.11394870281219482422f, -0.84505575895309448242f, -0.50817781686782836914f, -1.40774667263031005859f, -0.53230208158493041992f, 0.09537579119205474854f, 0.56335049867630004883f, -2.62107563018798828125f, 0.73024213314056396484f, 0.15275028347969055176f, 1.38117849826812744141f, 0.71662414073944091797f, 1.52332603931427001953f, 1.36777877807617187500f, 0.68466031551361083984f, 0.68154901266098022461f, 0.36067956686019897461f, -0.55782103538513183594f, 0.68031901121139526367f, 1.00034809112548828125f, -0.29799282550811767578f, -0.44569909572601318359f, 0.13083221018314361572f, 0.53624337911605834961f, 0.18139085173606872559f, 3.27055454254150390625f, 1.59149396419525146484f, -0.98211205005645751953f, -0.57298707962036132812f, 0.96478033065795898438f, -1.58665251731872558594f, 0.18515524268150329590f, -0.12972164154052734375f, -1.03703963756561279297f, 0.47590819001197814941f, -1.20138895511627197266f, -0.97933340072631835938f, 0.69251388311386108398f, 0.49502554535865783691f, -0.77551984786987304688f, -2.02136945724487304688f, 0.06397568434476852417f, -1.47889363765716552734f, 0.25781375169754028320f, 0.73983532190322875977f, 0.22740386426448822021f, 1.04367029666900634766f, -0.92355459928512573242f, 0.48338013887405395508f, -0.97264271974563598633f, -0.41607508063316345215f, 0.30292445421218872070f, -0.94639033079147338867f, 0.55122101306915283203f, -0.03252554312348365784f, 0.38749584555625915527f, 0.16828548908233642578f, 0.35292163491249084473f, 2.29742145538330078125f, -0.34598836302757263184f, 0.22606208920478820801f, 0.72528719902038574219f, -0.19853596389293670654f, 0.82750892639160156250f, 1.96242380142211914062f, 0.88102853298187255859f, 1.46084988117218017578f, 3.25055027008056640625f, 0.36456158757209777832f, -0.19497863948345184326f, 0.69688427448272705078f, -0.06605657935142517090f, -0.33154457807540893555f, 1.70975959300994873047f, 0.14371770620346069336f, -0.41482377052307128906f, 0.05708380416035652161f, 0.46393829584121704102f, -0.82729500532150268555f, 1.15916073322296142578f, -0.80767357349395751953f, -0.88352924585342407227f, -2.29745769500732421875f, 0.59141713380813598633f, -0.67433339357376098633f, 0.51860082149505615234f, -0.55322259664535522461f, -0.39836227893829345703f, 0.76791507005691528320f, 0.30923759937286376953f, -0.68779313564300537109f, 1.45673739910125732422f, 0.54749053716659545898f, -0.78689700365066528320f, 0.70269179344177246094f, 0.06918250024318695068f, 1.21279644966125488281f, -0.81081819534301757812f},
  {0.02378996461629867554f, 0.00157275027595460415f, -0.40718570351600646973f, 0.00130873033776879311f, -0.00690919114276766777f, 0.01477919705212116241f, 0.00607831589877605438f, -0.01334825158119201660f, -0.02098614536225795746f, -0.00073898723348975182f, 0.01834649406373500824f, -0.00944159738719463348f, 0.01839199475944042206f, 0.19119596481323242188f, -0.00206604879349470139f, -0.02672720327973365784f, -0.05788609758019447327f, 0.00618393160402774811f, 0.00495385425165295601f, 0.14667819440364837646f, 0.01093983091413974762f, -0.00705794151872396469f, -0.11484081298112869263f, -0.02902789786458015442f, -0.00548088038340210915f, 0.05086604505777359009f, -0.01083668973296880722f, -0.00311043951660394669f, -0.03825357556343078613f, -0.01789768412709236145f, 0.03100071661174297333f, 0.03459577262401580811f, -0.01627457886934280396f, 0.01065426692366600037f, 0.06242365017533302307f, 0.00851828046143054962f, 0.00610608514398336411f, 0.04145273566246032715f, 0.00124768330715596676f, -0.02625860646367073059f, -0.11605270206928253174f, 0.00001314740620728116f, 0.05121516808867454529f, 0.11022013425827026367f, 0.01710893027484416962f, 0.00322678429074585438f, -0.08393429964780807495f, -0.00495424075052142143f, 0.01921698264777660370f, 0.08080424368381500244f, 0.00168191874399781227f, -0.00791902188211679459f, 0.06702172011137008667f, -0.01113200373947620392f, 0.00169571232981979847f, -0.02050044201314449310f, 0.02677826024591922760f, -0.00314529472962021828f, 0.00598418666049838066f, 0.03153303638100624084f, -0.00454801460728049278f, -0.08786822110414505005f, 0.00392198422923684120f, -0.02413328364491462708f, 0.07099225372076034546f, 0.01038004737347364426f, 0.02235510759055614471f, 0.03157274425029754639f, -0.01026669424027204514f, -0.01138890068978071213f, -0.15432822704315185547f, -0.02398188784718513489f, 0.01053191814571619034f, -0.02282437123358249664f, -0.00522721093147993088f, -0.02641934156417846680f, -0.01567155122756958008f, -0.00815075170248746872f, 0.00225487770512700081f, -0.05161726847290992737f, -0.00889043603092432022f, -0.00790239963680505753f, -0.07873049378395080566f, -0.01270177587866783142f, 0.01115925423800945282f, 0.00407363800331950188f, 0.01270730234682559967f, 0.00131237367168068886f, -0.04291367530822753906f, -0.00437988480553030968f, -0.00472702132537961006f, 0.03670671582221984863f, 0.02712611295282840729f, 0.00960614532232284546f, 0.05797968059778213501f, 0.02877027541399002075f, -0.00796304643154144287f, -0.08629394322633743286f, 0.04187238216400146484f, -0.00883596949279308319f, 0.03929927945137023926f, 0.00928173400461673737f, -0.01379570364952087402f, -0.08596134185791015625f},
  {0.63035249710083007812f, -8.65404319763183593750f, 2.34538674354553222656f, 0.13983073830604553223f, -3.27742743492126464844f, 1.90522682666778564453f, -0.31358247995376586914f, 0.00592548307031393051f, -0.08651130646467208862f, -0.51014071702957153320f, -0.34305521845817565918f, -0.06086906418204307556f, 0.01530669070780277252f, -0.10224518179893493652f, 0.03183217346668243408f, 0.01712605729699134827f, -0.09585171937942504883f, -0.02414809912443161011f, -0.05077125877141952515f, 0.29939734935760498047f, 0.02991242520511150360f, -0.10223782062530517578f, -0.03226280212402343750f, -0.03334924578666687012f, -0.04360068961977958679f, 0.50408905744552612305f, -0.01438395306468009949f, -0.09289854019880294800f, -0.26440569758415222168f, -0.04066632688045501709f, -0.10027190297842025757f, -0.07915515452623367310f, -0.00947618670761585236f, -0.02398948557674884796f, 0.36763581633567810059f, 0.01846663840115070343f, -0.01181908696889877319f, 0.28698760271072387695f, -0.05396385863423347473f, -0.05901649221777915955f, 0.07559137791395187378f, 0.01911420002579689026f, -0.06608253717422485352f, 0.23847442865371704102f, -0.00323227443732321262f, -0.05850293859839439392f, 0.08491845428943634033f, 0.02567610144615173340f, -0.10702111572027206421f, 0.37734815478324890137f, -0.10130300372838973999f, -0.03795610740780830383f, -0.07902941852807998657f, 0.06547604501247406006f, -0.04085309058427810669f, 0.04324981942772865295f, -0.01059188973158597946f, -0.05160498619079589844f, -0.29325821995735168457f, -0.00376949552446603775f, -0.06159628927707672119f, -0.22648933529853820801f, -0.05233697965741157532f, -0.03938028961420059204f, 0.08217075467109680176f, -0.04789447411894798279f, -0.07408130913972854614f, 0.17977091670036315918f, 0.03489724546670913696f, -0.09173021465539932251f, 0.22191832959651947021f, -0.03168042376637458801f, -0.10096986591815948486f, 0.14164993166923522949f, -0.05335904285311698914f, -0.06224142760038375854f, -0.06497991830110549927f, -0.00301280454732477665f, -0.14155097305774688721f, -0.17293058335781097412f, -0.03485171124339103699f, -0.06606808304786682129f, -0.13702021539211273193f, 0.01734521985054016113f, -0.09417574852705001831f, -0.16029874980449676514f, -0.04460057616233825684f, -0.16068285703659057617f, 0.20054683089256286621f, -0.01311846729367971420f, -0.05614034086465835571f, 0.33883211016654968262f, 0.01432135980576276779f, -0.16450981795787811279f, -0.07622117549180984497f, -0.06560882180929183960f, -0.18804068863391876221f, 0.11151159554719924927f, -0.09656618535518646240f, -0.27438390254974365234f, -0.07900761067867279053f, 0.23992766439914703369f, 0.79226136207580566406f, -0.26586946845054626465f},
  {0.01972245052456855774f, -0.01088816951960325241f, -0.18310502171516418457f, 0.00706743588671088219f, 0.01406949572265148163f, 0.01074879709631204605f, -0.00692252069711685181f, 0.00290207332000136375f, -0.05232024192810058594f, 0.01302695926278829575f, 0.15023633837699890137f, -0.00287861446850001812f, 0.00860503781586885452f, 0.01755173876881599426f, 0.01373396441340446472f, -0.01405117474496364594f, 0.03021727874875068665f, -0.00169473292771726847f, 0.02710990421473979950f, 0.12608629465103149414f, -0.02529364451766014099f, -0.00365084200166165829f, -0.02927095443010330200f, -0.00340837612748146057f, 0.00280614756047725677f, 0.01165389362722635269f, 0.00744299450889229774f, 0.00879656430333852768f, 0.00532029848545789719f, -0.00694759422913193703f, -0.00188818702008575201f, -0.02015171572566032410f, -0.00883459206670522690f, 0.00470617087557911873f, -0.01034504920244216919f, -0.02760556340217590332f, 0.01537727378308773041f, -0.06270995736122131348f, 0.04020452126860618591f, 0.00069928658194839954f, 0.03452198207378387451f, 0.00705514522269368172f, -0.01181527879089117050f, -0.01934830844402313232f, 0.00437923101708292961f, 0.02893876284360885620f, -0.08025314658880233765f, 0.02208899706602096558f, -0.00013877880701329559f, 0.06943564116954803467f, 0.03519741073250770569f, -0.01704167202115058899f, 0.17839345335960388184f, 0.01996569894254207611f, -0.02485520020127296448f, -0.02928755059838294983f, 0.00524166226387023926f, -0.02207223884761333466f, -0.02113879658281803131f, 0.01339503284543752670f, -0.01464449614286422729f, -0.03903045132756233215f, -0.00267218402586877346f, 0.01303557679057121277f, -0.08137291669845581055f, 0.02371969446539878845f, -0.00061359937535598874f, -0.04760010540485382080f, 0.00802070554345846176f, -0.02763872593641281128f, -0.03359140455722808838f, -0.00947849452495574951f, -0.00026771001284942031f, -0.02299805171787738800f, -0.01398742944002151489f, 0.00452595297247171402f, -0.10532041639089584351f, -0.02073866315186023712f, -0.02651255577802658081f, -0.01571939699351787567f, -0.03823902085423469543f, 0.02319142408668994904f, -0.07683563977479934692f, -0.02974015474319458008f, -0.00403596693649888039f, 0.01947720162570476532f, 0.01301547233015298843f, 0.02832275815308094025f, 0.05423824489116668701f, 0.00218024314381182194f, -0.00846728775650262833f, -0.01914845779538154602f, -0.00890894606709480286f, -0.00091047404566779733f, -0.08816356211900711060f, 0.02657103538513183594f, 0.00267818826250731945f, -0.01312858890742063522f, 0.00884853396564722061f, -0.03191042691469192505f, 0.01801989041268825531f, 0.01838451996445655823f, 0.02750285901129245758f, -0.02926143258810043335f},
  {0.01635101437568664551f, -0.00785989221185445786f, 0.09272337704896926880f, 0.00057161820586770773f, 0.00624800752848386765f, 0.00283375917933881283f, 0.00787774939090013504f, -0.01133364811539649963f, -0.03221843391656875610f, 0.01453859824687242508f, 0.03813615068793296814f, 0.02804796211421489716f, 0.03359097614884376526f, -0.03345546871423721313f, 0.01045202463865280151f, -0.01698798313736915588f, 0.02343287318944931030f, -0.00801493972539901733f, 0.00348851270973682404f, -0.12360189110040664673f, -0.00973638147115707397f, -0.00892958696931600571f, 0.20280604064464569092f, 0.01862182840704917908f, 0.01459512766450643539f, -0.08356162905693054199f, -0.00692532304674386978f, -0.00315247988328337669f, 0.00504236714914441109f, -0.00113339233212172985f, -0.00917433016002178192f, 0.08113393187522888184f, -0.02507048472762107849f, 0.00624005356803536415f, 0.04172764718532562256f, 0.01278169360011816025f, 0.01590629853308200836f, -0.05229848623275756836f, -0.01842190884053707123f, -0.00807293783873319626f, 0.07588092237710952759f, -0.01001945044845342636f, 0.00946677289903163910f, 0.06420732289552688599f, -0.00414872867986559868f, -0.00658511370420455933f, -0.02562312223017215729f, -0.01045869570225477219f, -0.01444271579384803772f, -0.02722247317433357239f, -0.00222237128764390945f, 0.00940666347742080688f, -0.05998988077044487000f, -0.01165847666561603546f, -0.01553864497691392899f, 0.08633685111999511719f, 0.01762109063565731049f, 0.00936749670654535294f, 0.05692340061068534851f, 0.01898181810975074768f, 0.01385610084980726242f, 0.01167817786335945129f, -0.00494378153234720230f, -0.00048268868704326451f, -0.02582164295017719269f, -0.00640561897307634354f, 0.00300877494737505913f, 0.08987804502248764038f, -0.01794662885367870331f, 0.00785401370376348495f, -0.09707313776016235352f, 0.00027578120352700353f, -0.00040369603084400296f, 0.04036899283528327942f, -0.00017700504395179451f, 0.00009962903277482837f, -0.04348257184028625488f, 0.00340979779139161110f, -0.00355338072404265404f, 0.15390132367610931396f, 0.01300587784498929977f, 0.01442346256226301193f, -0.21949535608291625977f, 0.01195348612964153290f, -0.02196324244141578674f, 0.03390197083353996277f, 0.01475731376558542252f, -0.02259401418268680573f, 0.06498333066701889038f, -0.00596427964046597481f, -0.01726402714848518372f, -0.14118629693984985352f, 0.02336454018950462341f, 0.03056148067116737366f, 0.04062196239829063416f, -0.00222288351505994797f, -0.00078781310003250837f, 0.04450064897537231445f, 0.03808027133345603943f, 0.00376359722577035427f, 0.01304866746068000793f, -0.00459955213591456413f, -0.02983442135155200958f, -0.00847450550645589828f},
  {0.00196714350022375584f, -0.02898333035409450531f, 0.06168166920542716980f, 0.00221460242755711079f, 0.01785940676927566528f, 0.03564707562327384949f, 0.00407942058518528938f, 0.01475701015442609787f, 0.00548992911353707314f, -0.04626114666461944580f, -0.01687155105173587799f, -0.00199657375924289227f, 0.00317806191742420197f, 0.05586807802319526672f, -0.00294074625708162785f, -0.00946181267499923706f, -0.10799688100814819336f, -0.00865052361041307449f, 0.01265292335301637650f, -0.13157160580158233643f, 0.00306833139620721340f, -0.00042820392991416156f, -0.07531787455081939697f, 0.00202034809626638889f, 0.02104022167623043060f, -0.01773514971137046814f, -0.00335496524348855019f, 0.01172980479896068573f, -0.06508678197860717773f, -0.01739966496825218201f, -0.00761491712182760239f, 0.14862881600856781006f, -0.00248011387884616852f, -0.01112454291433095932f, 0.12117042392492294312f, -0.00839813053607940674f, 0.01580905355513095856f, -0.08718674629926681519f, 0.00956898741424083710f, 0.02406731806695461273f, -0.10866335779428482056f, 0.00325979455374181271f, -0.00103312777355313301f, 0.05388356000185012817f, 0.00265925424173474312f, 0.02275709994137287140f, 0.07469841092824935913f, -0.01036426611244678497f, 0.00271139829419553280f, 0.02522674947977066040f, -0.00757389701902866364f, 0.00639758538454771042f, 0.12307960540056228638f, -0.02736612036824226379f, -0.03449383378028869629f, 0.10324815660715103149f, 0.02370328456163406372f, 0.01545760501176118851f, -0.08112763613462448120f, -0.02557649090886116028f, -0.00134914298541843891f, 0.01462764758616685867f, -0.00023194430104922503f, 0.00813485309481620789f, -0.07247058302164077759f, 0.01515812706202268600f, -0.02745157107710838318f, 0.16984131932258605957f, 0.01264222338795661926f, -0.01618848927319049835f, 0.00490507949143648148f, -0.00771366758272051811f, 0.01207927521318197250f, 0.11070596426725387573f, 0.01802601851522922516f, 0.00305002043023705482f, 0.06668835878372192383f, -0.00930303614586591721f, -0.01665629819035530090f, -0.13751684129238128662f, 0.00888342503458261490f, 0.00687969475984573364f, -0.00258761271834373474f, 0.01702613942325115204f, -0.02860030159354209900f, -0.04530669376254081726f, 0.01274560205638408661f, -0.00863811466842889786f, 0.01184819452464580536f, -0.03221553191542625427f, -0.00574552454054355621f, 0.00909474678337574005f, 0.00444762082770466805f, 0.00898043718189001083f, -0.02202630788087844849f, -0.02521702460944652557f, -0.02094336785376071930f, -0.06526931375265121460f, -0.02973548509180545807f, -0.03292416036128997803f, -0.11000333726406097412f, 0.00256093731150031090f, 0.02412895672023296356f, 0.04146871343255043030f},
  {0.01301128976047039032f, -0.00528667261824011803f, -0.25864776968955993652f, 0.00942258723080158234f, 0.00037904971395619214f, 0.00560011295601725578f, 0.00456090783700346947f, 0.00362185016274452209f, -0.02385225333273410797f, 0.02694657631218433380f, -0.08062370866537094116f, -0.03168696537613868713f, -0.02128429897129535675f, 0.13057804107666015625f, 0.01396074611693620682f, 0.01299470569938421249f, 0.07110330462455749512f, -0.02087503299117088318f, 0.00397409405559301376f, -0.00554461171850562096f, 0.01138673163950443268f, 0.02472417429089546204f, -0.14191524684429168701f, 0.02771282009780406952f, 0.00752717256546020508f, -0.05313752219080924988f, 0.00720643065869808197f, 0.00003332377673359588f, 0.03334220498800277710f, -0.00747555727139115334f, -0.00313127948902547359f, -0.02239950932562351227f, -0.00147125660441815853f, -0.00754324859008193016f, -0.00007410431862808764f, -0.01529731228947639465f, 0.02118910290300846100f, -0.01601546071469783783f, 0.00701934332028031349f, 0.02031934075057506561f, -0.03677761182188987732f, -0.00660940865054726601f, -0.01542206015437841415f, -0.13158118724822998047f, -0.01276264153420925140f, -0.01008182670921087265f, 0.07406046241521835327f, -0.00544777372851967812f, -0.02960545383393764496f, -0.13327483832836151123f, -0.00344549957662820816f, 0.00083364819874987006f, -0.02223654463887214661f, -0.00748006301000714302f, 0.00275013153441250324f, -0.01608475111424922943f, 0.02624381147325038910f, -0.00650302181020379066f, 0.04573345929384231567f, -0.00305911176837980747f, 0.00497116008773446083f, 0.15212520956993103027f, -0.01755712553858757019f, 0.00863725319504737854f, -0.03135872259736061096f, 0.00679122004657983780f, 0.00076582585461437702f, 0.01777257397770881653f, 0.01942751742899417877f, 0.01756001077592372894f, -0.02369225025177001953f, -0.01230927929282188416f, -0.00043766922317445278f, 0.00356150930747389793f, 0.00809055101126432419f, 0.00999140553176403046f, -0.01488143019378185272f, -0.01284550316631793976f, -0.03645911812782287598f, -0.17593592405319213867f, 0.01922292634844779968f, -0.02353755943477153778f, -0.09456327557563781738f, -0.01049872115254402161f, 0.00007576642383355647f, 0.00440800283104181290f, 0.00339876976795494556f, 0.02023214846849441528f, 0.11959460377693176270f, 0.02544718049466609955f, -0.01983015052974224091f, 0.07676288485527038574f, -0.03664530441164970398f, -0.00956252496689558029f, -0.11744300276041030884f, -0.01391392014920711517f, -0.01512352842837572098f, -0.02022147923707962036f, 0.01861519739031791687f, 0.02432204596698284149f, 0.02480051107704639435f, 0.02770607732236385345f, 0.01208248082548379898f, -0.01253689080476760864f},
  {-1.29155087471008300781f, -0.49936223030090332031f, -4.00076723098754882812f, 0.55906492471694946289f, -3.24411439895629882812f, -0.16811294853687286377f, -2.14740681648254394531f, 0.04647021740674972534f, -0.22109264135360717773f, -1.06378734111785888672f, -0.42749163508415222168f, 0.29597529768943786621f, 0.32182425260543823242f, 0.77848178148269653320f, 0.16467201709747314453f, 0.19497463107109069824f, 0.63587445020675659180f, 0.52923536300659179688f, -0.06622585654258728027f, -0.18853564560413360596f, -0.17968961596488952637f, 0.06923770159482955933f, -0.84021604061126708984f, -0.13294546306133270264f, -0.33536058664321899414f, 0.10103697329759597778f, 0.16571877896785736084f, 0.11254184693098068237f, 0.71871632337570190430f, -0.14128075540065765381f, 0.06463968753814697266f, 0.62319731712341308594f, -0.09542644768953323364f, -0.04617288708686828613f, 1.45931673049926757812f, -0.28786987066268920898f, -0.26678192615509033203f, 0.41901463270187377930f, 0.21836410462856292725f, 0.18850015103816986084f, 0.23000149428844451904f, -0.11600071191787719727f, 0.30096885561943054199f, 0.20565354824066162109f, -0.05816210433840751648f, 0.02069715410470962524f, 0.08701111376285552979f, -0.01934881880879402161f, 0.04659209027886390686f, 1.13556027412414550781f, 0.31576105952262878418f, -0.16167740523815155029f, -0.84723097085952758789f, -0.38964614272117614746f, -0.16646595299243927002f, 0.21575117111206054688f, -0.14643765985965728760f, 0.23197090625762939453f, -0.14655500650405883789f, 0.25526562333106994629f, -0.00002270945515192579f, 1.49962985515594482422f, -0.09028414636850357056f, -0.09747698158025741577f, -0.27113938331604003906f, -0.01058193016797304153f, -0.15876714885234832764f, 0.03497059270739555359f, -0.24725721776485443115f, -0.08487746119499206543f, 1.03814768791198730469f, 0.15174992382526397705f, -0.00468275649473071098f, 0.79024505615234375000f, 0.04595975950360298157f, 0.13088679313659667969f, -0.56761497259140014648f, -0.30190137028694152832f, 0.18147659301757812500f, 1.04839658737182617188f, -0.06568036973476409912f, 0.02374284714460372925f, 0.07918258756399154663f, -0.25586569309234619141f, 0.01957494206726551056f, 1.31238710880279541016f, 0.23903551697731018066f, 0.31953260302543640137f, 0.33832225203514099121f, -0.24673660099506378174f, -0.31088665127754211426f, -0.35045787692070007324f, -0.33953425288200378418f, -0.31806641817092895508f, 0.18767075240612030029f, -0.12733186781406402588f, -0.69893890619277954102f, 0.07277806103229522705f, 0.56429338455200195312f, -0.17340496182441711426f, -0.92959803342819213867f, -0.98914623260498046875f, 4.76935005187988281250f, -0.96354997158050537109f},
  {-0.03249607607722282410f, -0.00411737337708473206f, -0.01662015728652477264f, -0.01749170757830142975f, -0.02225838042795658112f, 0.04253594577312469482f, 0.01009755209088325500f, 0.03329649940133094788f, -0.01221623364835977554f, -0.00932353548705577850f, 0.04901823773980140686f, 0.01795265823602676392f, 0.00267935846932232380f, -0.01969680562615394592f, -0.00350746209733188152f, -0.00622691493481397629f, -0.10175506770610809326f, -0.00807832647114992142f, 0.01512885652482509613f, -0.04075084626674652100f, 0.01745281368494033813f, -0.00661755166947841644f, -0.19021564722061157227f, 0.00465644104406237602f, 0.00970815028995275497f, 0.12642258405685424805f, -0.03058176115155220032f, -0.00686491187661886215f, 0.12455053627490997314f, 0.00980764161795377731f, -0.01681554876267910004f, -0.00316936825402081013f, -0.00343125476501882076f, 0.01541732344776391983f, 0.04069807007908821106f, -0.00603002682328224182f, 0.00181834597606211901f, -0.03820358961820602417f, -0.01061486080288887024f, 0.02816401235759258270f, 0.00908582285046577454f, 0.00640757801011204720f, -0.02507498487830162048f, -0.06464380025863647461f, -0.00150670856237411499f, 0.00825012568384408951f, 0.09611925482749938965f, -0.00084924558177590370f, -0.03497729450464248657f, 0.07411181181669235229f, -0.01755006052553653717f, 0.03404012694954872131f, 0.06992462277412414551f, 0.00773162487894296646f, -0.02216864190995693207f, -0.04637701809406280518f, 0.01626703701913356781f, 0.01085015572607517242f, 0.01488280482590198517f, -0.02826537750661373138f, 0.00130607071332633495f, 0.09620963782072067261f, 0.03007517196238040924f, -0.01133861113339662552f, -0.02970697544515132904f, -0.00311210518702864647f, -0.00601277314126491547f, 0.12773181498050689697f, -0.00942850019782781601f, -0.00932054873555898666f, -0.14581198990345001221f, 0.00105119566433131695f, -0.00832148548215627670f, -0.05691453814506530762f, 0.01274983491748571396f, -0.01006178651005029678f, 0.04445797577500343323f, -0.02276659943163394928f, 0.01763718016445636749f, 0.05203205719590187073f, -0.01012512948364019394f, -0.00564059708267450333f, -0.03043018840253353119f, 0.00112989556510001421f, 0.00233897403813898563f, 0.01965366862714290619f, 0.01277009770274162292f, 0.01993978768587112427f, 0.10819910466670989990f, -0.01230046339333057404f, -0.01280539762228727341f, 0.02962325327098369598f, -0.03524084389209747314f, 0.00290453573688864708f, 0.08783765137195587158f, -0.01701704785227775574f, 0.02848304435610771179f, 0.00828533526510000229f, -0.00586199108511209488f, 0.00293714203871786594f, -0.05619223788380622864f, -0.00753182172775268555f, 0.02475736662745475769f, 0.09547053277492523193f},
  {1.94056344032287597656f, 6.02604293823242187500f, 0.43463402986526489258f, -0.76194965839385986328f, -0.91559678316116333008f, -3.19700074195861816406f, 0.65985631942749023438f, 0.00196995004080235958f, -0.18392866849899291992f, 0.43278586864471435547f, 0.70658671855926513672f, 0.23069782555103302002f, -0.01929921470582485199f, -0.36582174897193908691f, 0.32515144348144531250f, 0.16744880378246307373f, 0.46602594852447509766f, 0.05774367600679397583f, -0.12673185765743255615f, 0.15904076397418975830f, 0.13238291442394256592f, -0.05905623361468315125f, -0.11786714941263198853f, 0.00690573872998356819f, 0.03662016987800598145f, 0.01909242011606693268f, -0.07267507165670394897f, 0.03528686240315437317f, -0.23815016448497772217f, 0.09473001211881637573f, -0.01945842243731021881f, -0.33721703290939331055f, 0.07096763700246810913f, -0.08228844404220581055f, -0.04235695675015449524f, 0.02488153427839279175f, 0.02443015202879905701f, 0.05872592702507972717f, 0.01234619971364736557f, 0.13546076416969299316f, 0.07353859394788742065f, 0.09134826809167861938f, 0.00506292050704360008f, -0.48571026325225830078f, 0.03253616392612457275f, 0.05673584342002868652f, 0.24899169802665710449f, -0.06160197407007217407f, -0.04279322922229766846f, -0.21610434353351593018f, 0.04320082440972328186f, -0.03700354695320129395f, 0.42166101932525634766f, 0.16679492592811584473f, 0.13501988351345062256f, -0.04630056768655776978f, 0.18415638804435729980f, 0.09228773415088653564f, 1.17439842224121093750f, -0.05808590352535247803f, 0.12391722202301025391f, 0.34638711810111999512f, -0.01754007674753665924f, 0.13939027488231658936f, 0.41218474507331848145f, -0.05294829979538917542f, 0.18886858224868774414f, 0.45053213834762573242f, 0.01472009625285863876f, 0.11229362338781356812f, -0.26333940029144287109f, -0.03737904131412506104f, 0.04490026831626892090f, 0.27965015172958374023f, 0.00683266902342438698f, -0.01544886082410812378f, 0.40345269441604614258f, 0.07386083900928497314f, -0.09303477406501770020f, 0.06366197764873504639f, 0.10993780940771102905f, 0.12559121847152709961f, 0.38020414113998413086f, -0.04036033153533935547f, -0.00639893626794219017f, 0.38514006137847900391f, -0.04706068709492683411f, 0.22593688964843750000f, 0.25797963142395019531f, 0.00635010609403252602f, 0.12380325049161911011f, -0.38658508658409118652f, -0.12292479723691940308f, 0.06837728619575500488f, 0.47973152995109558105f, 0.00110760668758302927f, -0.01219088956713676453f, 0.40514624118804931641f, 0.06391891837120056152f, 0.45856162905693054199f, 0.24284473061561584473f, 0.10812010616064071655f, -0.33160701394081115723f, 0.06545448303222656250f},
  {8.95579242706298828125f, -0.79416096210479736328f, -1.51053977012634277344f, 0.47964712977409362793f, 1.50554621219635009766f, 3.41898179054260253906f, 0.24080951511859893799f, -0.03482992202043533325f, 0.20077274739742279053f, 0.11200534552335739136f, -0.47938495874404907227f, 0.17738492786884307861f, -0.02142083831131458282f, -0.35581743717193603516f, 0.36237734556198120117f, 0.01528521627187728882f, -0.32984676957130432129f, 0.18514621257781982422f, 0.02656877972185611725f, 0.00536090740934014320f, 0.17564037442207336426f, -0.07879953086376190186f, -0.33866649866104125977f, 0.10310481488704681396f, -0.10756547003984451294f, -0.18325483798980712891f, 0.09945440292358398438f, 0.00590898655354976654f, -0.04869248718023300171f, 0.08706645667552947998f, 0.02572575584053993225f, -0.30907917022705078125f, 0.05920112133026123047f, 0.03861291334033012390f, -0.25164136290550231934f, 0.15691655874252319336f, -0.01686228439211845398f, 0.18899220228195190430f, 0.06480398029088973999f, 0.07025102525949478149f, 0.00727073848247528076f, 0.04767369478940963745f, 0.03840823471546173096f, -0.58919334411621093750f, 0.06317582726478576660f, -0.00930387340486049652f, -0.13066780567169189453f, -0.03897579386830329895f, -0.01592132821679115295f, -0.09783849120140075684f, 0.08731815218925476074f, 0.05165127292275428772f, 0.05393842235207557678f, 0.02780311554670333862f, -0.05297635868191719055f, -0.02493456006050109863f, 0.13205558061599731445f, -0.03760068491101264954f, 0.05945303663611412048f, 0.10709537565708160400f, -0.04906477406620979309f, 0.26882272958755493164f, 0.09909937530755996704f, -0.06031134352087974548f, 0.23904626071453094482f, 0.01370584778487682343f, 0.01017047278583049774f, 0.13572086393833160400f, 0.11061310768127441406f, 0.01071663666516542435f, -0.18924437463283538818f, 0.03231640160083770752f, 0.07766987383365631104f, 0.10595437139272689819f, 0.06293142586946487427f, 0.02074424736201763153f, -0.22804689407348632812f, 0.13682486116886138916f, 0.00893163401633501053f, 0.09995549172163009644f, 0.07557716220617294312f, 0.01135951839387416840f, 0.13357073068618774414f, 0.09355900436639785767f, 0.05614717677235603333f, 0.02874219603836536407f, 0.08896911144256591797f, 0.04467075318098068237f, -0.01017412077635526657f, 0.13751843571662902832f, 0.07631111145019531250f, 0.32063996791839599609f, 0.04155821353197097778f, 0.00063677423167973757f, -0.33832445740699768066f, 0.07780656963586807251f, -0.01496355701237916946f, 0.03341994807124137878f, 0.19255462288856506348f, 0.00133594090584665537f, -0.45428848266601562500f, -0.28777396678924560547f, 0.25114539265632629395f, -0.03004049323499202728f},
  {7.97278261184692382812f, -2.29829168319702148438f, -0.29531222581863403320f, -1.06856966018676757812f, -3.35980224609375000000f, 1.81693661212921142578f, 0.81184279918670654297f, 0.04326212033629417419f, 0.61889052391052246094f, -0.15882176160812377930f, -0.14621847867965698242f, -0.20864993333816528320f, -0.03132186457514762878f, 0.36061042547225952148f, -0.14152215421199798584f, -0.05693319067358970642f, 0.22183425724506378174f, -0.03059934265911579132f, 0.02667392045259475708f, -0.21068814396858215332f, -0.01836788654327392578f, 0.04136812686920166016f, -0.09654090553522109985f, 0.08120106905698776245f, 0.05894307047128677368f, 0.20973443984985351562f, 0.05210968106985092163f, 0.02296102792024612427f, 0.13008640706539154053f, 0.00306360656395554543f, 0.00140591734088957310f, 0.17247521877288818359f, -0.04100532457232475281f, 0.00289339362643659115f, 0.34944382309913635254f, 0.02313527651131153107f, 0.03799840807914733887f, -0.42958119511604309082f, 0.05256855115294456482f, -0.10880576819181442261f, 0.28110983967781066895f, 0.02997581101953983307f, 0.00771503383293747902f, 0.24995468556880950928f, 0.08090935647487640381f, -0.06951399892568588257f, 0.27099093794822692871f, 0.03940745815634727478f, 0.02426563575863838196f, 0.29449200630187988281f, 0.02254256606101989746f, -0.00872841011732816696f, -0.01903855055570602417f, 0.10365663468837738037f, -0.03474663943052291870f, 0.38399520516395568848f, 0.03525371104478836060f, -0.05015909299254417419f, -0.07392308861017227173f, 0.04018552601337432861f, 0.03166188672184944153f, 0.20411241054534912109f, 0.00706428987905383110f, 0.02342520095407962799f, 0.18665373325347900391f, 0.09055003523826599121f, -0.00262164301238954067f, 0.20309746265411376953f, 0.03571134805679321289f, 0.00560859963297843933f, 0.41296309232711791992f, 0.06856710463762283325f, -0.05966396629810333252f, 0.20937915146350860596f, 0.14958412945270538330f, 0.04651154577732086182f, 0.60582304000854492188f, 0.12536917626857757568f, 0.05078044906258583069f, 0.13012619316577911377f, 0.03551871702075004578f, 0.01131169032305479050f, 0.29703453183174133301f, 0.07596774399280548096f, -0.05134224146604537964f, 0.13009102642536163330f, 0.11262177675962448120f, 0.01809143461287021637f, -0.24989455938339233398f, 0.13785566389560699463f, -0.03838574141263961792f, -0.27825084328651428223f, 0.08752572536468505859f, -0.01084158010780811310f, 0.20626816153526306152f, 0.14633585512638092041f, -0.01134711597114801407f, -0.24123065173625946045f, 0.39735251665115356445f, -0.01939617842435836792f, 0.26520967483520507812f, -1.87100934982299804688f, 0.32759201526641845703f, 0.23326461017131805420f},
  {-0.02548444829881191254f, 0.01729777455329895020f, 0.07898220419883728027f, 0.00175702979322522879f, -0.00720759853720664978f, 0.02981511689722537994f, -0.00401235558092594147f, 0.03864295408129692078f, 0.02745761163532733917f, -0.04132606461644172668f, 0.00069595326203852892f, 0.03686624765396118164f, 0.01860268972814083099f, 0.08618213981389999390f, 0.03080029226839542389f, 0.00409468077123165131f, -0.07864169031381607056f, 0.02008216083049774170f, 0.01491506118327379227f, -0.05786722525954246521f, -0.01279339287430047989f, -0.01393456105142831802f, 0.09223847836256027222f, -0.02378949709236621857f, -0.00572717562317848206f, -0.11230280995368957520f, 0.00799615029245615005f, 0.01482783537358045578f, 0.02392616309225559235f, -0.01176269259303808212f, 0.00797672662883996964f, -0.15072539448738098145f, -0.02437510155141353607f, -0.01587813347578048706f, 0.01393089443445205688f, 0.00989307556301355362f, -0.00753310648724436760f, -0.02600784413516521454f, -0.02439448609948158264f, 0.00587860355153679848f, 0.02236326411366462708f, -0.02416259050369262695f, 0.02774904295802116394f, -0.08656479418277740479f, -0.01913732104003429413f, -0.00008814931061351672f, -0.06548750400543212891f, -0.00387871428392827511f, -0.01980981603264808655f, -0.05742462724447250366f, -0.02276686020195484161f, -0.00567792216315865517f, 0.01358007546514272690f, -0.01998597569763660431f, -0.01183523982763290405f, 0.10108714550733566284f, 0.00194893172010779381f, -0.02126397006213665009f, 0.02538313530385494232f, 0.02641730196774005890f, -0.01205791719257831573f, -0.19048221409320831299f, -0.01544182002544403076f, -0.02580496855080127716f, 0.10450489073991775513f, -0.02799224667251110077f, -0.02187370508909225464f, -0.25018233060836791992f, 0.02751188538968563080f, 0.01224550139158964157f, -0.11710409075021743774f, 0.02342590875923633575f, 0.00184119178447872400f, -0.02285695634782314301f, 0.02560822665691375732f, 0.01898166537284851074f, 0.07411495596170425415f, 0.01122282445430755615f, 0.02832033112645149231f, 0.00059988070279359818f, 0.00809867214411497116f, 0.02254946716129779816f, 0.08421708643436431885f, 0.00103972794022411108f, -0.00788635853677988052f, -0.09757670015096664429f, 0.00863050948828458786f, -0.03251875191926956177f, -0.02515483833849430084f, -0.00489598792046308517f, 0.00714688282459974289f, -0.07412692904472351074f, -0.01917723007500171661f, 0.01436694152653217316f, -0.09012196958065032959f, -0.04980002343654632568f, 0.03267643228173255920f, -0.02737650461494922638f, -0.01616250723600387573f, -0.02061044797301292419f, -0.01587046496570110321f, 0.01911946572363376617f, 0.02887303382158279419f, 0.02904417365789413452f},
  {0.00045277559547685087f, 0.01851925440132617950f, -0.10035291314125061035f, -0.00906261801719665527f, -0.02781300805509090424f, 0.00792731344699859619f, 0.00600839778780937195f, 0.00000586173428018810f, 0.00300050782971084118f, 0.04187110066413879395f, 0.05159912258386611938f, -0.01923758909106254578f, 0.00237902696244418621f, 0.02444474212825298309f, -0.00129949732217937708f, 0.03753800690174102783f, 0.15525461733341217041f, -0.01319575496017932892f, -0.02395619265735149384f, 0.03885629400610923767f, 0.01395880524069070816f, -0.01636796072125434875f, 0.04331963136792182922f, -0.03243110328912734985f, -0.02279763855040073395f, 0.01963478885591030121f, 0.01284403819590806961f, -0.01112179830670356750f, -0.04789016395807266235f, -0.00829837843775749207f, 0.00539418822154402733f, 0.10421823710203170776f, -0.02727344445884227753f, 0.03150485828518867493f, 0.07307592034339904785f, 0.00920165423303842545f, -0.00931093469262123108f, -0.00821288488805294037f, -0.00867206696420907974f, -0.00898294709622859955f, 0.13917683064937591553f, -0.01315253973007202148f, -0.00099935871548950672f, 0.06749552488327026367f, 0.02401388622820377350f, -0.02045605704188346863f, -0.10698872059583663940f, 0.02299097739160060883f, -0.00256653595715761185f, 0.01453283522278070450f, 0.00592444837093353271f, -0.00869870372116565704f, 0.00922034867107868195f, 0.01047571934759616852f, 0.01854057796299457550f, 0.02941029705107212067f, -0.01560346037149429321f, 0.01235629618167877197f, -0.09925454854965209961f, -0.00421583745628595352f, 0.01014323998242616653f, 0.07206780463457107544f, 0.00892804376780986786f, -0.00146532047074288130f, -0.01024447008967399597f, -0.03477331995964050293f, 0.02479276806116104126f, 0.05493805930018424988f, 0.01401152927428483963f, -0.00545734725892543793f, -0.09979134052991867065f, -0.03060496598482131958f, 0.00894515588879585266f, 0.06267155706882476807f, -0.01327233202755451202f, -0.01169252023100852966f, -0.20663481950759887695f, -0.00008390571019845083f, 0.00705936923623085022f, 0.05075266212224960327f, 0.01581661403179168701f, -0.00954913627356290817f, -0.04674528911709785461f, 0.02079872228205204010f, 0.00883744750171899796f, -0.09535101801156997681f, 0.01233097910881042480f, -0.00955876428633928299f, -0.00296594249084591866f, -0.00336135248653590679f, 0.00469208601862192154f, -0.11128849536180496216f, 0.00400635180994868279f, -0.00346008292399346828f, -0.07926353812217712402f, 0.02105019614100456238f, 0.05101424828171730042f, -0.09352572262287139893f, -0.00117655610665678978f, 0.02825022116303443909f, 0.14975017309188842773f, 0.02615514397621154785f, -0.01974415406584739685f, 0.03421028330922126770f},
  {0.19597868621349334717f, 1.77766573429107666016f, -0.75583851337432861328f, 1.93556940555572509766f, -1.03510892391204833984f, -1.00799787044525146484f, 0.44682133197784423828f, 0.03237863257527351379f, -1.78454661369323730469f, 0.40376770496368408203f, 0.88507622480392456055f, 0.87905395030975341797f, -0.44349986314773559570f, -0.44364124536514282227f, 1.13525700569152832031f, -0.00459720101207494736f, -0.88268160820007324219f, -0.07721243798732757568f, 0.19270516932010650635f, 1.08701407909393310547f, -0.07629362493753433228f, -0.26737159490585327148f, -0.68547338247299194336f, -0.19585183262825012207f, -0.23844844102859497070f, -0.45329824090003967285f, -0.04952525347471237183f, 0.11252900958061218262f, 0.27555754780769348145f, -0.33572816848754882812f, -0.01153209432959556580f, -0.00637796754017472267f, 0.01195356436073780060f, 0.06039931625127792358f, -0.30611872673034667969f, 0.20969097316265106201f, -0.15369465947151184082f, -0.52764564752578735352f, 0.06351285427808761597f, 0.43996262550354003906f, 0.78353321552276611328f, 0.09342772513628005981f, -0.11346947401762008667f, -1.56383311748504638672f, -0.00366640649735927582f, -0.00550529407337307930f, -0.70454490184783935547f, -0.36526197195053100586f, -0.10961965471506118774f, -0.32471081614494323730f, 0.07887848466634750366f, 0.23682563006877899170f, -0.00150453310925513506f, 0.13957187533378601074f, -0.05069471523165702820f, 0.78215205669403076172f, 0.20095376670360565186f, -0.29984030127525329590f, -0.11999487876892089844f, -0.08598254621028900146f, -0.27892521023750305176f, -0.14170061051845550537f, 0.10396850854158401489f, -0.02621759474277496338f, -0.31436431407928466797f, -0.36289927363395690918f, 0.35178884863853454590f, -0.35563343763351440430f, -0.08873084187507629395f, 0.09310428053140640259f, -0.37522849440574645996f, -0.42691084742546081543f, 0.21925127506256103516f, -0.41929849982261657715f, 0.05009562894701957703f, -0.23238480091094970703f, -0.63039779663085937500f, -0.00300533114932477474f, 0.02219549752771854401f, -1.24230206012725830078f, -0.16594953835010528564f, 0.07627750188112258911f, -0.69256144762039184570f, -0.19536429643630981445f, 0.14019036293029785156f, -0.54229301214218139648f, 0.03504667431116104126f, -0.11973854154348373413f, 1.08563005924224853516f, 0.13222919404506683350f, 0.30480882525444030762f, 0.99524909257888793945f, -0.35995373129844665527f, -0.17439946532249450684f, -0.34743461012840270996f, -0.18414330482482910156f, 0.22279299795627593994f, -0.30946245789527893066f, -0.04427221044898033142f, 0.16293220221996307373f, -1.04084432125091552734f, 2.08917784690856933594f, -1.67095828056335449219f, -0.11640185862779617310f},
  {0.02586671151220798492f, -0.01721193827688694000f, 0.58629393577575683594f, 0.00262361043132841587f, 0.01439548097550868988f, -0.00860663130879402161f, -0.00782817881554365158f, 0.03249015286564826965f, 0.03118703700602054596f, 0.03008044697344303131f, 0.11088611185550689697f, -0.00150761194527149200f, -0.00875000469386577606f, -0.10311691462993621826f, 0.03593471646308898926f, -0.04229801520705223083f, 0.11088737100362777710f, 0.00674879690632224083f, 0.00915024802088737488f, 0.11371298134326934814f, 0.00960130710154771805f, 0.00749299162998795509f, -0.10653034597635269165f, -0.05091672763228416443f, -0.01311483699828386307f, 0.05308222770690917969f, 0.02473763562738895416f, 0.02034449763596057892f, -0.08228475600481033325f, 0.01301908399909734726f, 0.01065181661397218704f, 0.03206638246774673462f, 0.01257540192455053329f, 0.00090634287334978580f, 0.14114992320537567139f, -0.01281564589589834213f, 0.00211723404936492443f, -0.19234776496887207031f, -0.01386258285492658615f, -0.00508290715515613556f, 0.04440397769212722778f, -0.01228133682161569595f, -0.03654593974351882935f, 0.08426712453365325928f, 0.00227106316015124321f, -0.04260873422026634216f, 0.04938653111457824707f, -0.00590682774782180786f, -0.00781015492975711823f, 0.08537516742944717407f, -0.00571867218241095543f, -0.00915497075766324997f, 0.06606256216764450073f, 0.02004020661115646362f, 0.01902260072529315948f, -0.16559334099292755127f, -0.01852217689156532288f, -0.00453611230477690697f, 0.03408591449260711670f, 0.00926764309406280518f, -0.00177284947130829096f, -0.08626879751682281494f, -0.03044971264898777008f, 0.01288181822746992111f, 0.01143126934766769409f, -0.01913974992930889130f, 0.00761446123942732811f, -0.13586762547492980957f, -0.02677509747445583344f, 0.00959173496812582016f, 0.00266907364130020142f, 0.01368414703756570816f, -0.02371480874717235565f, -0.03280911967158317566f, -0.00297486968338489532f, -0.00680332444608211517f, 0.14672411978244781494f, 0.00667457794770598412f, 0.00212517287582159042f, -0.02948583662509918213f, -0.00508859101682901382f, 0.01760770753026008606f, 0.09426607936620712280f, 0.00255837501026690006f, -0.01064230129122734070f, -0.02032927609980106354f, 0.00560360448434948921f, -0.00156814837828278542f, -0.11049188673496246338f, -0.00833205040544271469f, 0.00390466582030057907f, -0.06827608495950698853f, 0.01052163727581501007f, 0.01133243273943662643f, -0.07310013473033905029f, -0.00775666488334536552f, -0.02004737034440040588f, 0.00846946891397237778f, -0.04641317948698997498f, -0.01431941334158182144f, 0.14755484461784362793f, -0.00295391073450446129f, 0.03306644782423973083f, 0.09907434135675430298f},
  {0.02173472568392753601f, 0.01419946178793907166f, -0.40495389699935913086f, -0.00377075630240142345f, -0.01760992966592311859f, 0.01698959991335868835f, 0.00781771726906299591f, -0.02217926271259784698f, 0.03597478196024894714f, 0.01142726372927427292f, 0.02223255671560764313f, -0.04686114937067031860f, 0.00037825948675163090f, -0.08485424518585205078f, 0.02614301629364490509f, 0.01780210249125957489f, 0.07285709679126739502f, -0.00901587586849927902f, -0.01591248065233230591f, -0.11222488433122634888f, 0.00282367947511374950f, 0.00302224559709429741f, 0.01992727629840373993f, 0.00197221920825541019f, -0.04874405264854431152f, 0.03363069891929626465f, -0.00399037078022956848f, 0.01237413752824068069f, -0.02949012443423271179f, 0.01783091388642787933f, -0.01662133634090423584f, -0.03122573345899581909f, -0.03134282678365707397f, -0.02516259066760540009f, 0.04384719952940940857f, 0.00021642776846420020f, 0.05038547515869140625f, -0.01695418916642665863f, -0.02087594754993915558f, 0.02020611427724361420f, -0.10302331298589706421f, -0.00705810077488422394f, -0.01260477397590875626f, -0.07484833151102066040f, -0.01908691041171550751f, 0.00830541923642158508f, 0.03124928288161754608f, -0.02226384170353412628f, 0.00878219865262508392f, -0.01740319468080997467f, -0.00456355093047022820f, -0.00500634824857115746f, 0.07778500765562057495f, -0.01797535456717014313f, -0.01293336227536201477f, -0.06692507117986679077f, 0.00849911291152238846f, 0.03441855311393737793f, -0.14130993187427520752f, 0.00115352543070912361f, -0.00677087297663092613f, 0.07884128391742706299f, 0.01144098769873380661f, 0.04169056192040443420f, -0.04589194431900978088f, 0.01005484722554683685f, -0.00659733964130282402f, -0.01026852242648601532f, 0.00409982493147253990f, -0.02433419041335582733f, 0.00323580019176006317f, -0.02316135354340076447f, 0.01949438452720642090f, -0.00507272966206073761f, 0.02486219629645347595f, -0.02995928376913070679f, 0.02127404138445854187f, 0.02129650861024856567f, 0.02434344962239265442f, 0.00790027808398008347f, 0.01610256731510162354f, 0.00638688541948795319f, -0.01412679255008697510f, 0.04292256012558937073f, 0.04969386383891105652f, 0.02688516490161418915f, 0.01361724082380533218f, 0.01050026901066303253f, 0.08521410822868347168f, 0.01007082499563694000f, -0.00411130115389823914f, -0.03310161456465721130f, -0.00732625089585781097f, 0.01645955629646778107f, 0.00810785125941038132f, -0.01408763974905014038f, 0.00278305565007030964f, -0.09880615025758743286f, 0.01002710405737161636f, -0.03290048986673355103f, -0.06283426284790039062f, -0.00367664080113172531f, -0.03915495797991752625f, -0.09908645600080490112f},
  {-0.02106607891619205475f, 0.01597280055284500122f, 0.10112438350915908813f, 0.00587214902043342590f, 0.02119836769998073578f, -0.00591828953474760056f, -0.00483248149976134300f, 0.02441428415477275848f, 0.00486861728131771088f, -0.04067315533757209778f, 0.00750352675095200539f, -0.00156200805213302374f, 0.03244874998927116394f, -0.03867282718420028687f, 0.01786886900663375854f, 0.00378827005624771118f, 0.17038655281066894531f, 0.01952023617923259735f, -0.00085275416495278478f, -0.03013938292860984802f, -0.00573844136670231819f, -0.00445456942543387413f, 0.00216289283707737923f, 0.02186418324708938599f, 0.00163640209939330816f, -0.11502400040626525879f, 0.00238659954629838467f, -0.01211121864616870880f, -0.07344868779182434082f, 0.02010093815624713898f, 0.00256879813969135284f, -0.00898909568786621094f, -0.01017241086810827255f, 0.02027193456888198853f, 0.10026440769433975220f, 0.00128840981051325798f, -0.00559466239064931870f, -0.07312400639057159424f, -0.01710839942097663879f, -0.00257011363282799721f, 0.04685023799538612366f, 0.00291520287282764912f, 0.01628944464027881622f, -0.08480863273143768311f, 0.01964528299868106842f, -0.01910181343555450439f, 0.06342173367738723755f, -0.01431214902549982071f, -0.01331124920397996902f, 0.07325535267591476440f, 0.00914651248604059219f, -0.03158260509371757507f, -0.11770086735486984253f, -0.02794845774769783020f, -0.01678940653800964355f, -0.02601280808448791504f, 0.00248229550197720528f, 0.00671389047056436539f, -0.08541656285524368286f, -0.00229767966084182262f, 0.00237304507754743099f, 0.01252655219286680222f, -0.01475003268569707870f, -0.02921729162335395813f, -0.16334125399589538574f, 0.02744388580322265625f, 0.01596720516681671143f, -0.05062508955597877502f, 0.00180978095158934593f, 0.01237910985946655273f, 0.00097104435553774238f, 0.01678378507494926453f, -0.00951005518436431885f, -0.01423871610313653946f, 0.00706150848418474197f, 0.01171202771365642548f, 0.09053862839937210083f, 0.02187370695173740387f, 0.00274891359731554985f, -0.14706839621067047119f, 0.01088067609816789627f, 0.01698272302746772766f, 0.02545265480875968933f, -0.01749210059642791748f, 0.01493673771619796753f, 0.02691262774169445038f, -0.00316078402101993561f, 0.00634364690631628036f, 0.04234040528535842896f, 0.01578225567936897278f, -0.01595168374478816986f, -0.09320119768381118774f, -0.01373627595603466034f, -0.01915667019784450531f, -0.03907289355993270874f, -0.02214227430522441864f, -0.00579157983884215355f, 0.04214105755090713501f, -0.00695719150826334953f, 0.03589249774813652039f, -0.00877584703266620636f, -0.03341931477189064026f, -0.00806126743555068970f, 0.03287469968199729919f},
  {0.03006415441632270813f, -0.02019084244966506958f, 0.43898910284042358398f, 0.00188782683108001947f, 0.04057770594954490662f, -0.01095369365066289902f, -0.00185134413186460733f, 0.01871607080101966858f, -0.00156406441237777472f, 0.00215687905438244343f, 0.00973621942102909088f, -0.01031025778502225876f, -0.00262470310553908348f, 0.03012837655842304230f, 0.00586822861805558205f, -0.00038083139224909246f, -0.04577312991023063660f, -0.01953633129596710205f, 0.02660275995731353760f, -0.05579972639679908752f, 0.00646261963993310928f, -0.01773566380143165588f, -0.05961091443896293640f, -0.00443678442388772964f, 0.01377691701054573059f, -0.08434189110994338989f, 0.01214316487312316895f, 0.00524093070998787880f, 0.08387648314237594604f, -0.00803836155682802200f, -0.00593864778056740761f, 0.08738317340612411499f, 0.01024168916046619415f, 0.01658469624817371368f, 0.07979370653629302979f, -0.01208328362554311752f, -0.01025215815752744675f, 0.11606267839670181274f, 0.02641594223678112030f, 0.04264422506093978882f, 0.00581396417692303658f, -0.00286024808883666992f, 0.01368419826030731201f, -0.00900578685104846954f, 0.02165246941149234772f, -0.05790235474705696106f, 0.14856970310211181641f, 0.00052755011711269617f, 0.00017007849237415940f, -0.10245008021593093872f, 0.02057772502303123474f, -0.02043044194579124451f, 0.13144159317016601562f, 0.00269503658637404442f, 0.01933552324771881104f, 0.11040362715721130371f, -0.01641361042857170105f, -0.02230483293533325195f, 0.05046631395816802979f, 0.02730099298059940338f, 0.01194566860795021057f, -0.06646167486906051636f, -0.01153309829533100128f, -0.00889985542744398117f, -0.11504805833101272583f, 0.01699188910424709320f, 0.00909168459475040436f, 0.02139165997505187988f, -0.00226296321488916874f, 0.01213886309415102005f, 0.01019815076142549515f, -0.00916371494531631470f, 0.00030408348538912833f, 0.14249275624752044678f, -0.00980705488473176956f, 0.00423462130129337311f, 0.00032793061109259725f, -0.00937973894178867340f, -0.01450422964990139008f, 0.02269719727337360382f, 0.00108559022191911936f, 0.00387567398138344288f, -0.03158795461058616638f, 0.01072928588837385178f, -0.00967799872159957886f, -0.08502884954214096069f, -0.00975349918007850647f, -0.02828428149223327637f, -0.03801912069320678711f, -0.00367695768363773823f, -0.01915106922388076782f, 0.07224139571189880371f, -0.03804862499237060547f, -0.01273931283503770828f, -0.11190576106309890747f, -0.02559967525303363800f, -0.00437095854431390762f, 0.02154154703021049500f, 0.00818650983273983002f, 0.01883406564593315125f, -0.00788317807018756866f, -0.00500585930421948433f, -0.02475640922784805298f, -0.03286197781562805176f},
  {-2.07227730751037597656f, -0.52399528026580810547f, 7.87053728103637695312f, -0.01573467627167701721f, 0.61505442857742309570f, -0.98874676227569580078f, -0.01386053673923015594f, 0.03145736455917358398f, 0.20599630475044250488f, 0.02850062027573585510f, -0.51447558403015136719f, -0.02163322083652019501f, 0.01104366220533847809f, -0.07525859028100967407f, -0.02650876343250274658f, 0.02580679580569267273f, 0.09177610278129577637f, 0.02220084145665168762f, -0.15006341040134429932f, -0.15017756819725036621f, -0.01991529762744903564f, -0.01658008061349391937f, 0.16155478358268737793f, 0.04697602987289428711f, 0.05110722035169601440f, 0.02428122796118259430f, -0.00249910424463450909f, -0.08427686989307403564f, -0.09406266361474990845f, 0.02432392910122871399f, 0.00547730550169944763f, 0.19258622825145721436f, -0.10203427076339721680f, -0.02636385895311832428f, -0.06343754380941390991f, 0.06632031500339508057f, 0.00311961956322193146f, 0.28185468912124633789f, -0.00998041871935129166f, 0.07209493219852447510f, 0.03895880654454231262f, -0.01589595526456832886f, 0.06085901334881782532f, 0.07847439497709274292f, 0.07559517771005630493f, -0.00400053849443793297f, 0.10097594559192657471f, 0.05042186751961708069f, -0.02175395004451274872f, 0.22387693822383880615f, 0.03026855923235416412f, -0.07795795053243637085f, 0.40010523796081542969f, 0.02885607816278934479f, 0.01581701822578907013f, 0.07566200196743011475f, 0.07117423415184020996f, 0.08556371182203292847f, 0.19282713532447814941f, -0.04485822468996047974f, 0.04620590060949325562f, 0.40510514378547668457f, -0.03152234852313995361f, 0.09419182687997817993f, 0.37292084097862243652f, -0.02650276198983192444f, 0.05186162143945693970f, 0.41609197854995727539f, -0.00512940669432282448f, 0.11681648343801498413f, 0.05466582998633384705f, -0.15862396359443664551f, -0.00610193330794572830f, 0.19725213944911956787f, -0.04222755879163742065f, 0.03235856071114540100f, 0.24530254304409027100f, -0.12493229657411575317f, -0.00210685050114989281f, 0.38877505064010620117f, -0.03708151355385780334f, -0.01408340036869049072f, 0.18012066185474395752f, -0.04038271680474281311f, 0.06392072886228561401f, 0.56372171640396118164f, -0.10596324503421783447f, 0.01664610393345355988f, 0.51103246212005615234f, -0.06894029676914215088f, 0.02867421321570873260f, 0.63038724660873413086f, -0.01925433427095413208f, 0.08731299638748168945f, 0.18100741505622863770f, -0.05271429196000099182f, -0.02518910169601440430f, -0.01584171503782272339f, 0.04582526534795761108f, -0.01709241978824138641f, 0.21838536858558654785f, -0.22918564081192016602f, -0.13010405004024505615f, -0.03753542527556419373f},
  {0.01403844170272350311f, -0.02404737845063209534f, 0.03759904950857162476f, -0.01368026714771986008f, 0.01232933998107910156f, 0.01544918864965438843f, 0.00077566324034705758f, -0.00042693378054536879f, -0.02213885262608528137f, 0.00030393831548281014f, 0.06976915150880813599f, -0.01264054048806428909f, 0.00957105029374361038f, 0.08715038746595382690f, 0.03188904747366905212f, 0.00072101043770089746f, -0.14886122941970825195f, -0.05495013669133186340f, -0.01983218081295490265f, -0.03599049896001815796f, -0.01129678916186094284f, -0.00924487505108118057f, 0.06586962193250656128f, -0.02242075465619564056f, 0.00087791564874351025f, 0.20464475452899932861f, -0.00131154619157314301f, -0.01138488203287124634f, 0.06962486356496810913f, 0.01249250490218400955f, -0.00467674387618899345f, 0.02952374145388603210f, -0.01083350926637649536f, -0.01457566022872924805f, -0.03029223158955574036f, -0.00199365383014082909f, 0.02591662481427192688f, -0.03289712592959403992f, -0.01373494882136583328f, -0.00369038106873631477f, 0.02661864273250102997f, 0.03503159433603286743f, 0.02151560038328170776f, 0.20174707472324371338f, -0.00444166781380772591f, 0.02672441676259040833f, -0.06836820393800735474f, 0.02210596576333045959f, 0.00516855996102094650f, -0.10028223693370819092f, 0.01272116415202617645f, -0.01749081164598464966f, 0.12683062255382537842f, 0.00942010991275310516f, 0.01164438854902982712f, 0.02966213598847389221f, -0.02288370393216609955f, 0.01001271791756153107f, -0.10658319294452667236f, 0.01564226672053337097f, 0.00044308116775937378f, 0.18031588196754455566f, -0.00552584091201424599f, 0.00792633648961782455f, 0.01298102643340826035f, 0.00668776268139481544f, 0.00175812980160117149f, -0.09649269282817840576f, -0.03094114735722541809f, 0.00635208701714873314f, 0.00240528932772576809f, -0.04171526059508323669f, -0.02483990974724292755f, -0.04381280019879341125f, -0.02623087912797927856f, 0.00548285339027643204f, -0.11844629049301147461f, 0.00672776019200682640f, 0.01438171230256557465f, 0.03199597448110580444f, 0.01161983516067266464f, 0.01447425689548254013f, -0.00507670640945434570f, -0.01761210151016712189f, 0.00327443866990506649f, 0.04340396821498870850f, -0.01081203389912843704f, 0.01372391823679208755f, -0.05457539856433868408f, 0.01169875171035528183f, -0.03909765183925628662f, -0.15212130546569824219f, -0.00056587590370327234f, -0.00756552396342158318f, 0.11664038896560668945f, 0.00593769783154129982f, 0.00786407385021448135f, 0.00564091466367244720f, 0.03131668269634246826f, 0.00786302704364061356f, -0.12657549977302551270f, 0.03021972812712192535f, -0.03264538198709487915f, -0.10242691636085510254f},
  {-3.25865626335144042969f, 2.41175580024719238281f, -3.30315184593200683594f, -0.52897280454635620117f, 3.74259138107299804688f, -0.09119889140129089355f, -0.71778631210327148438f, 0.00216669356450438499f, -0.88398754596710205078f, -0.08347088098526000977f, 0.44352665543556213379f, 0.03558687865734100342f, 0.09032449126243591309f, 0.42250773310661315918f, 0.25983986258506774902f, -0.08205345273017883301f, 0.62919747829437255859f, 0.02017011679708957672f, -0.03728582337498664856f, 0.92298859357833862305f, -0.09363438934087753296f, -0.04213038831949234009f, 0.27743071317672729492f, -0.12416352331638336182f, -0.10863704979419708252f, 0.05870532244443893433f, -0.17846302688121795654f, -0.04600666835904121399f, -0.05755179375410079956f, -0.12125637382268905640f, 0.02868448570370674133f, -0.31277117133140563965f, -0.07246319949626922607f, 0.10357349365949630737f, -0.14311251044273376465f, -0.04401524364948272705f, 0.09042129665613174438f, 0.03879695013165473938f, 0.01679116487503051758f, 0.12677313387393951416f, -0.48387953639030456543f, -0.05939709022641181946f, 0.03728056699037551880f, -0.18183618783950805664f, 0.02505482546985149384f, 0.08752254396677017212f, -0.41943857073783874512f, -0.15127514302730560303f, -0.08506532758474349976f, -0.38191306591033935547f, 0.02236101590096950531f, 0.07955373078584671021f, 0.75682550668716430664f, -0.16747422516345977783f, -0.01593494042754173279f, -0.48064050078392028809f, -0.02455591037869453430f, -0.01650094985961914062f, 0.27116945385932922363f, 0.09579038619995117188f, -0.05914505198597908020f, -0.35621654987335205078f, -0.12679003179073333740f, -0.00875981431454420090f, -0.09120345860719680786f, -0.05929712951183319092f, 0.11789762228727340698f, -0.34717902541160583496f, -0.01760240085422992706f, -0.05726594105362892151f, -0.57011908292770385742f, -0.05477026849985122681f, 0.16509753465652465820f, -0.15750762820243835449f, -0.14764162898063659668f, -0.09621101617813110352f, -0.60747665166854858398f, -0.09174785763025283813f, -0.04358374699950218201f, -0.04153925180435180664f, -0.05645991116762161255f, 0.01274812500923871994f, 0.39758366346359252930f, 0.00963229034096002579f, 0.04498171806335449219f, -0.14504934847354888916f, 0.03639594465494155884f, -0.14230187237262725830f, 0.75845855474472045898f, -0.06032846495509147644f, -0.03193704038858413696f, 0.28975203633308410645f, -0.14214761555194854736f, -0.24918682873249053955f, 0.43055632710456848145f, -0.07652837783098220825f, -0.10285502672195434570f, 0.15526784956455230713f, -0.16402311623096466064f, 0.07552208751440048218f, -0.23911595344543457031f, 0.95968598127365112305f, -0.90790820121765136719f, 0.98399800062179565430f},
