// This file is computer-generated by onnx2c 
// (TODO: add creating command line here)
// (TODO: print creation date here )

// ONNX model:
// produced by pytorch, version 2.7.0
// ONNX IR version: 11
// Model documentation: 
/*

*/

#include <float.h>
#include <math.h>
#include <stdbool.h>
#include <stdint.h>
#include <string.h>

#define MAX(X,Y) ( X > Y ? X : Y)
#define MIN(X,Y) ( X < Y ? X : Y)
#define CLIP(X,L) ( MAX(MIN(X,L), -L) )

#if __STDC_VERSION__ < 199901L
#define FUNC_PREFIX
#else
#define FUNC_PREFIX static inline
#endif

static const float tensor_actor_0_weight[64][104] = 
{
  {0.47160831093788146973f, -0.10637162625789642334f, 2.64976477622985839844f, 0.18725475668907165527f, 1.05908191204071044922f, -0.48723804950714111328f, 0.56194502115249633789f, -0.15192537009716033936f, -0.10528829693794250488f, -0.08785849064588546753f, 0.01679027825593948364f, -0.03091525658965110779f, -0.02259164489805698395f, -0.50707089900970458984f, 0.05587126687169075012f, 0.04518746957182884216f, -0.08654858171939849854f, -0.03116846829652786255f, 0.08010212332010269165f, -0.08012223243713378906f, -0.00619317404925823212f, -0.04627736657857894897f, -0.17415745556354522705f, 0.04269079118967056274f, -0.07366981357336044312f, -0.40248289704322814941f, -0.03727709129452705383f, -0.11454406380653381348f, 0.24608033895492553711f, -0.05117275938391685486f, 0.28511792421340942383f, -0.07758950442075729370f, 0.17556679248809814453f, 0.13580396771430969238f, -0.28258046507835388184f, 0.03522474318742752075f, 0.11577010899782180786f, -0.41996937990188598633f, 0.06406486034393310547f, 0.03858262673020362854f, 0.01278880424797534943f, 0.01903588697314262390f, 0.08675441890954971313f, -0.36848753690719604492f, 0.05850191041827201843f, 0.19740200042724609375f, -0.52170658111572265625f, -0.03417272865772247314f, 0.05910075828433036804f, 0.17307938635349273682f, -0.01020452287048101425f, 0.09265798330307006836f, -0.30786842107772827148f, 0.11258906871080398560f, 0.02466790005564689636f, -0.02783234044909477234f, 0.09789788722991943359f, 0.01132093183696269989f, -0.56737643480300903320f, 0.08353313803672790527f, 0.07200913876295089722f, -0.43317309021949768066f, 0.10134055465459823608f, -0.07326173782348632812f, -0.79260832071304321289f, 0.04759369045495986938f, -0.02872459776699542999f, -0.34009021520614624023f, 0.03645884990692138672f, -0.11845170706510543823f, 0.17025455832481384277f, 0.05689929798245429993f, 0.03689373284578323364f, -0.19634011387825012207f, -0.06052902713418006897f, -0.05373439937829971313f, 0.27265724539756774902f, 0.00030030871857888997f, -0.05067668482661247253f, 0.13297209143638610840f, -0.02781259827315807343f, -0.03198014572262763977f, -0.09828416258096694946f, -0.07671613991260528564f, 0.27362394332885742188f, -0.08881060779094696045f, -0.11306729167699813843f, -0.00368535518646240234f, -0.01138142310082912445f, -0.15076419711112976074f, 0.08819907903671264648f, -0.25116449594497680664f, -0.03600807487964630127f, 0.02268587984144687653f, -0.25115516781806945801f, -0.04441341012716293335f, 0.11182359606027603149f, -0.38315027952194213867f, -0.19239468872547149658f, 0.16508579254150390625f, -0.63553148508071899414f, 0.06789273768663406372f, 0.32287561893463134766f, -0.97395867109298706055f},
  {0.10718674957752227783f, -0.22228728234767913818f, -3.87682962417602539062f, -0.33044260740280151367f, -0.17729812860488891602f, -0.08635444939136505127f, -0.03288785368204116821f, 0.25336727499961853027f, -0.14316962659358978271f, 0.13508091866970062256f, 0.11161466687917709351f, -0.01809139922261238098f, 0.17117081582546234131f, 0.18362660706043243408f, -0.17846527695655822754f, -0.01532968133687973022f, -0.36703473329544067383f, -0.13678646087646484375f, 0.18346928060054779053f, 0.15333823859691619873f, -0.08183880895376205444f, 0.04675683006644248962f, -0.20174901187419891357f, -0.02272514812648296356f, 0.22422018647193908691f, -0.01241160929203033447f, 0.13902767002582550049f, 0.04555897787213325500f, -0.48706102371215820312f, 0.17413106560707092285f, -0.07589495182037353516f, -0.53752446174621582031f, -0.08719800412654876709f, 0.02504052221775054932f, 0.02887642942368984222f, 0.07970881462097167969f, -0.03209728747606277466f, -0.34379994869232177734f, 0.09462467581033706665f, -0.02065651677548885345f, -0.76578158140182495117f, 0.20275093615055084229f, -0.16214151680469512939f, -0.46721336245536804199f, 0.09348097443580627441f, -0.22949047386646270752f, -0.42445808649063110352f, -0.04425870254635810852f, -0.02116701006889343262f, -0.56558054685592651367f, 0.29890710115432739258f, -0.19243945181369781494f, -0.29078844189643859863f, -0.05175038427114486694f, -0.20428600907325744629f, -1.26539850234985351562f, 0.03513969853520393372f, -0.04910242184996604919f, -0.46078380942344665527f, -0.06402293592691421509f, -0.16855460405349731445f, -0.71370226144790649414f, -0.02322514541447162628f, 0.11018601059913635254f, -0.72616171836853027344f, 0.06679880619049072266f, -0.06265355646610260010f, -0.23706603050231933594f, 0.19370125234127044678f, 0.03881797194480895996f, -0.94848394393920898438f, 0.00928185228258371353f, -0.29542946815490722656f, -0.45251992344856262207f, 0.12492284923791885376f, -0.16475620865821838379f, -0.70707142353057861328f, 0.21394230425357818604f, 0.02818926982581615448f, -0.83910101652145385742f, 0.01348559185862541199f, 0.19931352138519287109f, -0.11516471952199935913f, -0.02147201448678970337f, -0.20227037370204925537f, 0.10056897997856140137f, 0.03568188473582267761f, 0.17117524147033691406f, -0.14135473966598510742f, 0.03970101475715637207f, 0.26780533790588378906f, 0.65797746181488037109f, -0.02547880634665489197f, 0.22806677222251892090f, 0.65457701683044433594f, -0.02631851099431514740f, -0.00246008974500000477f, 1.26291954517364501953f, 0.26279929280281066895f, 0.13397136330604553223f, 1.52247190475463867188f, -0.20359183847904205322f, 0.07451523840427398682f, 1.91575300693511962891f},
  {0.01124537736177444458f, 0.62728273868560791016f, 1.48736071586608886719f, -0.18214854598045349121f, -0.49940714240074157715f, 0.35696005821228027344f, -0.44705703854560852051f, -0.00567663460969924927f, -0.14595487713813781738f, -0.05750634521245956421f, -0.01440466847270727158f, -0.02542357891798019409f, -0.12870858609676361084f, 0.36628365516662597656f, -0.09323554486036300659f, -0.06983759254217147827f, 0.37270399928092956543f, 0.10008390247821807861f, -0.10685764998197555542f, 0.30881586670875549316f, 0.00386939663439989090f, -0.07007043063640594482f, 0.10413361340761184692f, 0.03325223177671432495f, -0.16862446069717407227f, 0.07072779536247253418f, 0.07323545217514038086f, -0.07993174344301223755f, 0.50049436092376708984f, 0.16455376148223876953f, 0.02692479640245437622f, 0.21168439090251922607f, 0.16910833120346069336f, -0.04704386368393898010f, 0.23340120911598205566f, 0.12051616609096527100f, 0.03423727676272392273f, -0.10673184692859649658f, 0.20865742862224578857f, 0.03470267355442047119f, 0.42643842101097106934f, 0.12121623754501342773f, 0.09498912096023559570f, -0.26838064193725585938f, 0.25024154782295227051f, 0.10197858512401580811f, -0.07895035296678543091f, 0.13430373370647430420f, 0.11338254064321517944f, 0.32357087731361389160f, 0.09295675158500671387f, 0.10361927747726440430f, 0.17595820128917694092f, 0.11815678328275680542f, 0.14355622231960296631f, -0.01918045058846473694f, 0.16307589411735534668f, 0.09836153686046600342f, 0.14802820980548858643f, 0.17641825973987579346f, 0.16657991707324981689f, 0.04525431618094444275f, 0.21345593035221099854f, 0.07669787853956222534f, -0.26944103837013244629f, 0.15754999220371246338f, 0.14893226325511932373f, -0.30307000875473022461f, 0.15575337409973144531f, 0.12729415297508239746f, -0.04177680984139442444f, 0.07288747280836105347f, 0.25433310866355895996f, 0.07687386870384216309f, 0.09168107062578201294f, 0.23207464814186096191f, 0.00119442737195640802f, -0.00183779234066605568f, 0.03229880332946777344f, 0.18153814971446990967f, -0.01341995596885681152f, -0.03343526273965835571f, -0.06135575100779533386f, 0.02027405612170696259f, 0.09301203489303588867f, -0.59549403190612792969f, -0.03844786435365676880f, 0.07351487129926681519f, 0.19582894444465637207f, -0.08085718005895614624f, 0.05312620475888252258f, -0.10257170349359512329f, 0.04022997990250587463f, -0.09121953696012496948f, -0.17214497923851013184f, -0.00532684661448001862f, 0.10854040086269378662f, -0.28740063309669494629f, -0.13583740592002868652f, 0.16647399961948394775f, -0.11355164647102355957f, -0.12983557581901550293f, 0.23648828268051147461f, -1.04132080078125000000f},
  {0.21890410780906677246f, -0.15422695875167846680f, 0.38533407449722290039f, -0.40875539183616638184f, 0.68862944841384887695f, 1.83119952678680419922f, 0.74014794826507568359f, -0.00424687331542372704f, 0.09010522067546844482f, 0.31322309374809265137f, 0.11630192399024963379f, 0.04557887464761734009f, 0.30555632710456848145f, -0.05170603469014167786f, 0.06097329035401344299f, 0.35215458273887634277f, -0.78438794612884521484f, 0.06126975640654563904f, 0.17897754907608032227f, -0.08702279627323150635f, 0.02386311441659927368f, 0.09621094167232513428f, -0.21036162972450256348f, 0.11134175956249237061f, 0.14827696979045867920f, 0.19288846850395202637f, -0.02738231420516967773f, 0.33634653687477111816f, -0.11036612093448638916f, 0.00609117466956377029f, 0.11422893404960632324f, -0.43678459525108337402f, 0.00256645330227911472f, 0.09820555150508880615f, 0.20999352633953094482f, -0.02028132788836956024f, 0.16751688718795776367f, 0.19263534247875213623f, -0.08685359358787536621f, 0.25695770978927612305f, -0.03705357387661933899f, 0.18044468760490417480f, 0.21088610589504241943f, -0.26187300682067871094f, -0.04712773114442825317f, 0.21769055724143981934f, -0.36992415785789489746f, 0.02602484077215194702f, 0.18471276760101318359f, -0.05144671350717544556f, 0.08898037672042846680f, 0.26086986064910888672f, -0.44258892536163330078f, 0.07942639291286468506f, 0.03008174151182174683f, -0.57897168397903442383f, 0.06396739184856414795f, 0.06473916023969650269f, 0.01988399960100650787f, 0.13661040365695953369f, 0.01053401734679937363f, 0.02147063985466957092f, 0.06201176345348358154f, -0.04765550419688224792f, -0.11835306137800216675f, 0.04614549875259399414f, -0.06547247618436813354f, 0.18853254616260528564f, 0.10591851919889450073f, 0.03419600054621696472f, -0.03923546895384788513f, -0.03363545238971710205f, -0.06355811655521392822f, 0.04738588631153106689f, 0.01095769647508859634f, 0.02196477912366390228f, -0.14815738797187805176f, 0.05454369634389877319f, -0.02279615029692649841f, -0.42696020007133483887f, 0.05258614569902420044f, -0.27379253506660461426f, -0.55444121360778808594f, 0.18968620896339416504f, -0.29048171639442443848f, -0.30194982886314392090f, -0.04693290218710899353f, -0.45850786566734313965f, -0.03518353775143623352f, 0.13177707791328430176f, -0.09938062727451324463f, -0.21009573340415954590f, 0.13191317021846771240f, -0.45066398382186889648f, 0.18008674681186676025f, 0.10375823080539703369f, -0.39555305242538452148f, 0.43615356087684631348f, 0.13432654738426208496f, -0.43306136131286621094f, 0.13008682429790496826f, 0.18976768851280212402f, -0.48286816477775573730f, 0.30369967222213745117f},
  {-0.39563804864883422852f, 0.74120515584945678711f, 0.10630766302347183228f, 0.10883744060993194580f, 0.34485653042793273926f, -0.27870717644691467285f, 0.05165619030594825745f, 0.07484425604343414307f, 0.03153242543339729309f, 0.06676287949085235596f, 0.31901648640632629395f, -0.02510975673794746399f, 0.08934284001588821411f, 0.25811442732810974121f, -0.02632498927414417267f, 0.07322046905755996704f, -0.17874296009540557861f, -0.04034582152962684631f, 0.00371156493201851845f, 0.36647322773933410645f, -0.05952006578445434570f, 0.01471515744924545288f, 0.35621836781501770020f, -0.02477575466036796570f, 0.04476347938179969788f, 0.42653453350067138672f, 0.05159170553088188171f, -0.00139701238367706537f, -0.04544370993971824646f, -0.03741835057735443115f, 0.00774157140403985977f, -0.10670103132724761963f, -0.03997295349836349487f, -0.06855948269367218018f, -0.21033667027950286865f, -0.05008986592292785645f, -0.13930861651897430420f, -0.04325424879789352417f, -0.02873446606099605560f, -0.03800164908170700073f, -0.59576481580734252930f, -0.07853782922029495239f, 0.03264502808451652527f, -0.22825042903423309326f, 0.02472449280321598053f, 0.06107791513204574585f, -0.21073289215564727783f, -0.06593645364046096802f, 0.15413853526115417480f, -0.03991579264402389526f, -0.07382620126008987427f, 0.03494020178914070129f, -0.39613655209541320801f, -0.02044491842389106750f, 0.04681268706917762756f, -0.35526409745216369629f, -0.11283456534147262573f, 0.04049540683627128601f, -0.38266497850418090820f, -0.04583480581641197205f, 0.04586225375533103943f, -0.24709998071193695068f, 0.07787472009658813477f, -0.05384030565619468689f, -0.02448695898056030273f, 0.05060780420899391174f, 0.05716095119714736938f, -0.04409977793693542480f, 0.02166725322604179382f, -0.00831087864935398102f, 0.00691491644829511642f, -0.05755508318543434143f, 0.02567244693636894226f, -0.09101487696170806885f, -0.03863349556922912598f, -0.01249967422336339951f, -0.25150799751281738281f, -0.04925882071256637573f, -0.00196943921037018299f, 0.24526958167552947998f, -0.02240825071930885315f, 0.00241262745112180710f, 0.28113582730293273926f, -0.05399245396256446838f, -0.04421886056661605835f, -0.00707154301926493645f, 0.01610609889030456543f, 0.04920567944645881653f, -0.39622074365615844727f, 0.03737799450755119324f, 0.01407880894839763641f, -0.16096125543117523193f, -0.03226537257432937622f, 0.00304222456179559231f, -0.09533403813838958740f, -0.05934117361903190613f, -0.12980277836322784424f, -0.23853491246700286865f, -0.15460038185119628906f, -0.15178918838500976562f, 0.13625857234001159668f, -0.22902582585811614990f, -0.14193968474864959717f, -0.00275034434162080288f},
  {-0.79085958003997802734f, -0.68460196256637573242f, 1.05271255970001220703f, -0.51557451486587524414f, 0.00777571508660912514f, -1.65124678611755371094f, -0.90876096487045288086f, -0.04675733298063278198f, -0.01014353334903717041f, -0.04958606511354446411f, -0.48616451025009155273f, 0.00864349305629730225f, -0.00463116075843572617f, -0.32511633634567260742f, -0.02251109294593334198f, -0.02168152108788490295f, -0.46182599663734436035f, -0.02594499289989471436f, 0.06719122827053070068f, -0.22128485143184661865f, -0.07625433802604675293f, 0.02427146025002002716f, -0.19673119485378265381f, 0.01045762654393911362f, 0.01561780180782079697f, -0.01665093004703521729f, -0.04471144452691078186f, -0.02843756414949893951f, -0.45739406347274780273f, -0.07134403288364410400f, -0.10192811489105224609f, -0.45878550410270690918f, -0.01980445347726345062f, 0.07241209596395492554f, 0.15829925239086151123f, -0.07518456876277923584f, -0.05349502712488174438f, -0.34135654568672180176f, -0.02301179617643356323f, 0.02761439606547355652f, 0.23580016195774078369f, 0.08235450088977813721f, -0.09754690527915954590f, -0.45088055729866027832f, -0.07280246913433074951f, -0.02771830372512340546f, -0.11021723598241806030f, -0.05875999480485916138f, -0.04315891489386558533f, 0.31094774603843688965f, -0.05190973356366157532f, -0.07952477037906646729f, 0.20702637732028961182f, -0.10876654833555221558f, -0.03055831603705883026f, -0.36815372109413146973f, -0.02943104319274425507f, 0.07227848470211029053f, 0.18316942453384399414f, 0.09617255628108978271f, 0.01164225023239850998f, -0.53121924400329589844f, 0.01671340502798557281f, 0.07114989310503005981f, -0.40043196082115173340f, 0.01789694838225841522f, 0.10145359486341476440f, 0.36885276436805725098f, 0.00391101138666272163f, 0.11075674742460250854f, -0.77641671895980834961f, 0.10371989011764526367f, -0.07089897245168685913f, -0.43609413504600524902f, 0.06595306843519210815f, 0.00109887495636940002f, -0.43767318129539489746f, 0.05795166268944740295f, -0.02901982702314853668f, -0.48559704422950744629f, 0.03044776618480682373f, -0.03120267577469348907f, -0.43836361169815063477f, 0.06586365401744842529f, -0.01803280413150787354f, -0.33780437707901000977f, 0.09617182612419128418f, -0.05341714993119239807f, -0.54879200458526611328f, 0.04336427897214889526f, -0.06997786462306976318f, 0.61225253343582153320f, 0.03093240782618522644f, 0.01643611118197441101f, 0.18456645309925079346f, 0.04886292293667793274f, -0.04304035380482673645f, 0.01090497151017189026f, 0.14903908967971801758f, 0.14598540961742401123f, 0.10805855691432952881f, 0.09229486435651779175f, 0.36242994666099548340f, 0.40752756595611572266f},
  {0.53032422065734863281f, 0.15711906552314758301f, -1.67968666553497314453f, 0.19484555721282958984f, 0.06334376335144042969f, 0.20040808618068695068f, 0.26148918271064758301f, 0.00747373281046748161f, -0.07998382300138473511f, -0.09844259172677993774f, 0.11335506290197372437f, 0.00359833426773548126f, -0.15602183341979980469f, -0.23351916670799255371f, 0.04682547599077224731f, -0.15378782153129577637f, 0.16779716312885284424f, 0.05046728998422622681f, -0.13618808984756469727f, -0.16533084213733673096f, 0.02645670436322689056f, -0.07971604168415069580f, -0.21853302419185638428f, 0.07534263283014297485f, -0.08401957154273986816f, -0.38271069526672363281f, -0.00333180278539657593f, 0.00737594440579414368f, -0.09777007251977920532f, -0.03595830127596855164f, 0.06944258511066436768f, -0.11004006117582321167f, -0.05806230008602142334f, 0.11485505104064941406f, -0.04277296736836433411f, -0.06679292023181915283f, 0.10630916804075241089f, 0.09107282012701034546f, -0.04431125521659851074f, 0.15528760850429534912f, 0.41789221763610839844f, -0.03311914205551147461f, 0.15831501781940460205f, 0.15602028369903564453f, -0.02576820366084575653f, 0.15835945308208465576f, 0.37947264313697814941f, 0.08352158963680267334f, 0.03095672093331813812f, 0.11795216798782348633f, 0.04138394445180892944f, 0.13953074812889099121f, 0.25138154625892639160f, 0.12861430644989013672f, 0.10248734056949615479f, -0.05138589814305305481f, 0.07405027002096176147f, 0.03462559729814529419f, 0.02814432606101036072f, 0.09732513129711151123f, 0.10453554242849349976f, -0.14809584617614746094f, 0.00599860586225986481f, 0.08609077334403991699f, -0.24723891913890838623f, 0.05174706131219863892f, 0.02162718027830123901f, -0.12498623132705688477f, 0.04126561805605888367f, 0.05965521559119224548f, 0.02005892805755138397f, 0.09237413853406906128f, 0.10442446917295455933f, -0.05338068306446075439f, 0.09557123482227325439f, 0.07001707702875137329f, 0.23943677544593811035f, 0.15719673037528991699f, 0.02406735531985759735f, 0.18276517093181610107f, 0.09281489253044128418f, 0.09903064370155334473f, 0.21739539504051208496f, 0.04667550697922706604f, 0.08941464871168136597f, 0.09044945240020751953f, 0.08825141936540603638f, 0.11545074731111526489f, 0.37938815355300903320f, 0.03890207409858703613f, 0.03497576341032981873f, 0.51432704925537109375f, 0.05215694010257720947f, 0.08652422577142715454f, 0.29978749155998229980f, 0.02916962094604969025f, 0.02586184255778789520f, 0.08635127544403076172f, 0.03926754742860794067f, 0.06088395044207572937f, 0.40828767418861389160f, -0.04552563279867172241f, -0.06599705666303634644f, 0.13313634693622589111f},
  {1.15480208396911621094f, -0.49011930823326110840f, 2.48077940940856933594f, -0.49747973680496215820f, -0.51277506351470947266f, -0.51480203866958618164f, 0.09201467037200927734f, 0.05413040891289710999f, -0.04250656440854072571f, 0.38457468152046203613f, 0.61427193880081176758f, -0.03117497079074382782f, 0.26425302028656005859f, 0.32167369127273559570f, -0.14416086673736572266f, 0.17996884882450103760f, 0.84122496843338012695f, -0.12228227406740188599f, 0.07158019393682479858f, 0.44043010473251342773f, 0.00452542863786220551f, 0.11328075081110000610f, 0.18403652310371398926f, -0.02381151728332042694f, -0.05877231433987617493f, 0.02348512224853038788f, -0.00454139709472656250f, 0.06254892051219940186f, 0.12221240997314453125f, -0.03937042504549026489f, 0.11958011984825134277f, 0.06824206560850143433f, -0.11821811646223068237f, -0.07399842888116836548f, 0.00674409093335270882f, -0.09509892761707305908f, -0.04365244507789611816f, 0.11307621002197265625f, -0.03172271326184272766f, -0.18730328977108001709f, 0.07597360759973526001f, -0.10347910225391387939f, -0.09389960765838623047f, -0.19219040870666503906f, 0.09038370102643966675f, -0.09649468958377838135f, -0.55620813369750976562f, -0.06728418171405792236f, -0.28392159938812255859f, -0.16626310348510742188f, 0.09625667333602905273f, -0.27011656761169433594f, 0.16213494539260864258f, -0.01306214835494756699f, -0.18915580213069915771f, 0.38104528188705444336f, -0.09313605725765228271f, -0.22842919826507568359f, -0.30580478906631469727f, 0.16161566972732543945f, -0.12216592580080032349f, 0.34311488270759582520f, 0.05854703858494758606f, 0.05386329442262649536f, 0.16891774535179138184f, 0.10008842498064041138f, 0.10751587152481079102f, -0.31527519226074218750f, 0.14937733113765716553f, -0.08906809985637664795f, 0.55118513107299804688f, 0.11774715781211853027f, -0.04355397820472717285f, 0.52362561225891113281f, 0.11071573942899703979f, -0.08419023454189300537f, 1.04077708721160888672f, -0.02179013006389141083f, 0.06808557361364364624f, 0.43013796210289001465f, 0.00166495179291814566f, 0.02398555725812911987f, -0.25352308154106140137f, -0.08087208122014999390f, 0.15885946154594421387f, -0.01327832136303186417f, 0.02264434471726417542f, 0.03865626081824302673f, 0.37123379111289978027f, -0.16177397966384887695f, -0.14286395907402038574f, -0.10567710548639297485f, -0.06723930686712265015f, 0.03147413954138755798f, -0.12509541213512420654f, -0.09203042834997177124f, 0.02501768805086612701f, -0.63157021999359130859f, -0.22656001150608062744f, -0.01862855814397335052f, -0.17267753183841705322f, -0.29224446415901184082f, -0.12762445211410522461f, -1.00750720500946044922f},
  {0.00313387694768607616f, -0.01758792996406555176f, -3.93799829483032226562f, 0.37028050422668457031f, 0.08216635137796401978f, 0.20687550306320190430f, -0.33724680542945861816f, -0.17148797214031219482f, 0.01238720864057540894f, -0.13057875633239746094f, -0.22845821082592010498f, -0.04843726754188537598f, -0.08415212482213973999f, -0.17262418568134307861f, -0.09244942665100097656f, -0.03315346315503120422f, 0.05965298041701316833f, -0.00061303901020437479f, -0.08459836244583129883f, -0.02213908731937408447f, -0.07196872681379318237f, 0.04296813905239105225f, 0.07984190434217453003f, -0.06432524323463439941f, 0.04554775729775428772f, 0.15552587807178497314f, -0.00821678247302770615f, 0.11744932085275650024f, 0.04864756762981414795f, -0.10153664648532867432f, 0.08161954581737518311f, 0.03763255104422569275f, -0.04966528713703155518f, 0.07963157445192337036f, 0.10852315276861190796f, -0.06165738776326179504f, 0.08955381065607070923f, -0.06649880856275558472f, -0.16081017255783081055f, 0.05306513980031013489f, -0.17345647513866424561f, -0.15113355219364166260f, 0.00108605646528303623f, -0.24972656369209289551f, -0.09187935292720794678f, -0.06395696848630905151f, -0.08520983159542083740f, -0.17141912877559661865f, -0.06550968438386917114f, -0.05464626103639602661f, -0.07599347829818725586f, 0.04377621784806251526f, -0.08734896034002304077f, -0.05008485913276672363f, -0.04563299566507339478f, -0.07322973012924194336f, -0.00810288544744253159f, -0.04104343429207801819f, 0.03866687417030334473f, -0.00815097708255052567f, -0.01500456128269433975f, -0.00290481466799974442f, 0.01461042743176221848f, 0.04324246942996978760f, 0.13587498664855957031f, 0.11900928616523742676f, 0.02045701630413532257f, 0.22232799232006072998f, 0.11970377713441848755f, 0.01867093890905380249f, 0.28526124358177185059f, 0.03058261424303054810f, -0.01637644506990909576f, 0.19886244833469390869f, 0.01860444247722625732f, -0.01064404938369989395f, 0.23273569345474243164f, 0.06372638791799545288f, 0.00428827945142984390f, 0.23334941267967224121f, 0.06995783746242523193f, 0.06129826232790946960f, 0.13988856971263885498f, 0.07088290154933929443f, 0.07944407314062118530f, 0.10046366602182388306f, 0.06202920153737068176f, 0.06763241440057754517f, -0.11340589076280593872f, 0.05791746824979782104f, -0.00439969077706336975f, 0.00092168094124644995f, 0.10164517909288406372f, 0.08535115420818328857f, -0.02461577393114566803f, 0.09609471261501312256f, 0.11971475929021835327f, 0.00481643248349428177f, 0.19310508668422698975f, 0.12458609789609909058f, -0.00499953655526041985f, 0.05948921665549278259f, 0.22580678761005401611f, 0.04828760772943496704f},
  {0.16188333928585052490f, 0.70502603054046630859f, 0.27027308940887451172f, -0.40383970737457275391f, 0.95592182874679565430f, -0.33429938554763793945f, -0.94979637861251831055f, -0.00536151323467493057f, -0.00906011927872896194f, 0.01018258277326822281f, -0.19523356854915618896f, -0.04214116558432579041f, 0.01236642803996801376f, 0.16773098707199096680f, -0.04740966111421585083f, -0.04878903552889823914f, -0.15526682138442993164f, -0.03128565475344657898f, -0.11094125360250473022f, 0.09881281107664108276f, -0.06582645326852798462f, -0.09369653463363647461f, -0.01682032458484172821f, -0.07992479950189590454f, -0.09623248875141143799f, -0.11922480165958404541f, -0.11775878071784973145f, -0.06923576444387435913f, -0.48275396227836608887f, -0.11216181516647338867f, -0.10323293507099151611f, 0.06021708622574806213f, -0.04127227142453193665f, -0.05969516560435295105f, -0.08923745155334472656f, -0.09937989711761474609f, -0.13692145049571990967f, 0.11392574012279510498f, -0.02750288508832454681f, -0.09340365231037139893f, -0.30982708930969238281f, -0.13373379409313201904f, -0.03903965279459953308f, -0.20758178830146789551f, -0.02681244909763336182f, -0.11434128135442733765f, -0.33995926380157470703f, -0.10756313800811767578f, -0.11537759751081466675f, -0.06798138469457626343f, -0.03413551673293113708f, -0.10018650442361831665f, -0.30131411552429199219f, -0.05717547610402107239f, -0.09067352861166000366f, -0.53074371814727783203f, -0.01029278058558702469f, -0.06202534958720207214f, -0.09027153253555297852f, 0.02249461226165294647f, -0.06215188652276992798f, 0.00934857688844203949f, -0.01561539340764284134f, 0.02026450820267200470f, 0.13885925710201263428f, 0.03453795611858367920f, -0.11957563459873199463f, -0.02176976390182971954f, -0.09173751622438430786f, -0.03889929875731468201f, -0.15336544811725616455f, -0.04566612467169761658f, -0.03889071941375732422f, 0.06655495613813400269f, -0.00081586249871179461f, -0.05768424272537231445f, -0.12964370846748352051f, -0.05479556322097778320f, -0.06853922456502914429f, -0.23670351505279541016f, -0.00317285652272403240f, 0.05825702846050262451f, -0.08307064324617385864f, -0.05860451981425285339f, -0.00875123590230941772f, 0.05394290760159492493f, -0.04053989052772521973f, -0.05339321866631507874f, -0.16088856756687164307f, -0.02542973496019840240f, -0.13313522934913635254f, -0.22169229388236999512f, 0.00813500955700874329f, -0.05263866856694221497f, -0.30610942840576171875f, -0.01683969795703887939f, -0.03935500979423522949f, -0.18956841528415679932f, 0.02260821685194969177f, 0.05631584674119949341f, -0.07075431197881698608f, 0.01245035510510206223f, 0.03430448845028877258f, 0.21738441288471221924f},
  {1.46478176116943359375f, -0.38250294327735900879f, 2.12710547447204589844f, 0.90625494718551635742f, -0.27943485975265502930f, -0.68389052152633666992f, -0.52592217922210693359f, 0.13004137575626373291f, 0.15565279126167297363f, -0.13654030859470367432f, -0.29280325770378112793f, -0.00409396970644593239f, -0.18130330741405487061f, -0.18781295418739318848f, 0.05066211521625518799f, 0.02071790024638175964f, -0.04959651455283164978f, 0.04119044914841651917f, -0.04699594154953956604f, -0.50420457124710083008f, 0.00830869004130363464f, -0.11392591893672943115f, -0.37702843546867370605f, 0.12325106561183929443f, -0.07814189046621322632f, -0.49314513802528381348f, 0.00845458637923002243f, -0.06061406433582305908f, 0.37786743044853210449f, 0.02664679288864135742f, -0.08491287380456924438f, 0.09390275925397872925f, 0.12149091809988021851f, -0.17867273092269897461f, -0.52629953622817993164f, 0.09953931719064712524f, -0.19435261189937591553f, -0.11184168606996536255f, -0.02205596305429935455f, 0.02857919409871101379f, -0.01618585549294948578f, 0.11805347353219985962f, -0.18517410755157470703f, -0.21754394471645355225f, 0.03854205086827278137f, -0.19425120949745178223f, -0.83363056182861328125f, 0.05018424615263938904f, -0.25487455725669860840f, -0.36710476875305175781f, 0.08438615500926971436f, -0.13145339488983154297f, -0.61843615770339965820f, 0.06545846909284591675f, -0.14814558625221252441f, -0.26143768429756164551f, -0.02717954851686954498f, -0.22618307173252105713f, 0.37669315934181213379f, 0.12369544059038162231f, -0.31999534368515014648f, -0.02883623726665973663f, 0.05714571848511695862f, -0.12709055840969085693f, -0.37912625074386596680f, 0.07064830511808395386f, -0.19921275973320007324f, -0.25658062100410461426f, 0.06843531876802444458f, -0.08617152273654937744f, -0.35675963759422302246f, 0.00973103754222393036f, -0.07076709717512130737f, -0.41256365180015563965f, -0.02744024433195590973f, -0.01533282548189163208f, -0.00148797314614057541f, 0.05310380086302757263f, -0.19837021827697753906f, -0.03970659151673316956f, 0.04120772331953048706f, -0.20916080474853515625f, -0.33224886655807495117f, 0.16517068445682525635f, -0.08186016976833343506f, -0.56611120700836181641f, 0.00292432610876858234f, 0.01674772240221500397f, -0.43333649635314941406f, 0.07685971260070800781f, 0.06960511952638626099f, -0.11173614859580993652f, 0.06064224988222122192f, 0.09520365297794342041f, -0.79783368110656738281f, -0.00301658245734870434f, 0.41319558024406433105f, -0.88168060779571533203f, -0.08382094651460647583f, 0.58411604166030883789f, -1.23410212993621826172f, 0.03235259279608726501f, 0.98377829790115356445f, -0.84236645698547363281f},
  {-0.33155667781829833984f, 0.42884331941604614258f, -0.63463741540908813477f, -0.40219154953956604004f, -0.79425168037414550781f, -1.16249477863311767578f, 0.51415014266967773438f, -0.00671944487839937210f, -0.01664360053837299347f, 0.00203908537514507771f, -0.49268609285354614258f, -0.05293393507599830627f, 0.01856838166713714600f, -0.25094306468963623047f, -0.05357271060347557068f, 0.01183871086686849594f, 0.02118703536689281464f, -0.01762437820434570312f, -0.04696030914783477783f, 0.33107662200927734375f, 0.06305305659770965576f, -0.03894622623920440674f, 0.04953239485621452332f, -0.01485613547265529633f, 0.01135544013231992722f, 0.22727383673191070557f, 0.01918774470686912537f, -0.03217279538512229919f, -0.13667558133602142334f, -0.07401533424854278564f, -0.02141448110342025757f, 0.08732743561267852783f, -0.01023048441857099533f, -0.07297626882791519165f, -0.05295101553201675415f, -0.05736561119556427002f, -0.03791429102420806885f, -0.00429207645356655121f, -0.09317474812269210815f, 0.00647639529779553413f, -0.18200890719890594482f, -0.13186456263065338135f, -0.05870538577437400818f, -0.22561475634574890137f, -0.04588738456368446350f, 0.04130936414003372192f, 0.11026117950677871704f, -0.15109747648239135742f, 0.00705612963065505028f, -0.31035372614860534668f, -0.05973616242408752441f, -0.02520728483796119690f, 0.22477278113365173340f, -0.16225895285606384277f, -0.05959976464509963989f, -0.24397796392440795898f, -0.17669916152954101562f, -0.09894945472478866577f, -0.02687397040426731110f, -0.07340186834335327148f, -0.15122176706790924072f, -0.23945750296115875244f, -0.13166336715221405029f, -0.05339291319251060486f, -0.20718258619308471680f, -0.06446485966444015503f, -0.06418818235397338867f, -0.16412729024887084961f, -0.08660535514354705811f, -0.18537338078022003174f, -0.21477848291397094727f, -0.04431807994842529297f, -0.08909019082784652710f, -0.26052224636077880859f, -0.02055475674569606781f, -0.14057117700576782227f, -0.15729700028896331787f, -0.11469525098800659180f, -0.01146265212446451187f, -0.01260356605052947998f, -0.11183872818946838379f, -0.15625527501106262207f, -0.20901829004287719727f, -0.02869207225739955902f, -0.09189921617507934570f, -0.09684431552886962891f, -0.04895530268549919128f, -0.10759764909744262695f, -0.07733809947967529297f, 0.02178087458014488220f, 0.01166047621518373489f, -0.06312035769224166870f, -0.08349520713090896606f, 0.14456480741500854492f, -0.18657048046588897705f, -0.08832135051488876343f, 0.05285889655351638794f, -0.11093650013208389282f, -0.04889447987079620361f, 0.21514494717121124268f, 0.08709619939327239990f, 0.03412341699004173279f, 0.26204285025596618652f, 0.16704243421554565430f},
  {-0.43308681249618530273f, 0.54618591070175170898f, 0.73386055231094360352f, 1.52467775344848632812f, -0.85977476835250854492f, 0.75203913450241088867f, -0.91531777381896972656f, 0.04597672820091247559f, 0.04221101105213165283f, 0.02633615210652351379f, -1.30306279659271240234f, -0.01407388132065534592f, -0.03615410253405570984f, -0.63944965600967407227f, 0.04033391550183296204f, -0.05481190234422683716f, -1.21724677085876464844f, 0.05810337141156196594f, -0.17031879723072052002f, -0.28091380000114440918f, 0.04023178666830062866f, -0.12993519008159637451f, -0.49908822774887084961f, -0.01711766794323921204f, -0.09268367290496826172f, -0.07124576717615127563f, -0.04109724611043930054f, 0.02715927734971046448f, -0.12385467439889907837f, 0.00002800157926685642f, 0.01445540226995944977f, 0.21458733081817626953f, 0.05360658094286918640f, -0.15032887458801269531f, 0.22793392837047576904f, 0.06673255562782287598f, 0.07991063594818115234f, -0.13824546337127685547f, 0.07997734099626541138f, 0.21984004974365234375f, -0.70897793769836425781f, 0.14126560091972351074f, 0.18482257425785064697f, -0.57530164718627929688f, 0.08634311705827713013f, 0.14846339821815490723f, -0.28811594843864440918f, 0.04873204603791236877f, 0.12641668319702148438f, 0.08200490474700927734f, 0.08802503347396850586f, 0.21051025390625000000f, -0.73529303073883056641f, -0.03958174586296081543f, 0.06093797460198402405f, -0.51427912712097167969f, 0.10211019963026046753f, -0.00191032560542225838f, -0.73136538267135620117f, 0.23388282954692840576f, 0.01789562776684761047f, -0.97836989164352416992f, 0.11325953155755996704f, 0.04673779010772705078f, -0.34992036223411560059f, 0.04149261489510536194f, -0.08359497785568237305f, -0.33168822526931762695f, 0.19752447307109832764f, 0.05219135433435440063f, -0.49534156918525695801f, 0.09472379088401794434f, -0.19811819493770599365f, -0.08491964638233184814f, 0.18995414674282073975f, -0.02658759430050849915f, -0.46255296468734741211f, 0.01701221056282520294f, 0.01302178576588630676f, -0.41715723276138305664f, 0.08226530253887176514f, -0.21799246966838836670f, -0.31424257159233093262f, 0.21197542548179626465f, -0.23483660817146301270f, 0.04250233992934226990f, 0.02555899694561958313f, -0.14887753129005432129f, -0.55908089876174926758f, 0.21661175787448883057f, -0.04829316213726997375f, -0.95585018396377563477f, 0.02452249079942703247f, 0.00014370110875461251f, -0.12309952825307846069f, 0.07145927101373672485f, 0.07034963369369506836f, -0.16809904575347900391f, -0.01549262646585702896f, 0.27912408113479614258f, -0.76768732070922851562f, 0.19722220301628112793f, 0.61750799417495727539f, -0.45096549391746520996f},
  {-0.27781993150711059570f, 0.03958993777632713318f, 1.71687233448028564453f, -0.73130440711975097656f, 0.19569015502929687500f, 1.00430893898010253906f, 0.66295754909515380859f, -0.00151757616549730301f, 0.03525575622916221619f, 0.18098637461662292480f, 0.24285769462585449219f, -0.02772504277527332306f, 0.10552097111940383911f, 0.44806569814682006836f, -0.04721903055906295776f, 0.03747554123401641846f, 0.00377262313850224018f, 0.04833761602640151978f, -0.01368020474910736084f, 0.06730747967958450317f, -0.00269250385463237762f, -0.11036286503076553345f, -0.13454462587833404541f, 0.01566201820969581604f, 0.05867426842451095581f, -0.20075644552707672119f, 0.06098784506320953369f, -0.03198274970054626465f, -0.37059447169303894043f, -0.02072330936789512634f, -0.08062516897916793823f, 0.33870607614517211914f, -0.05243007093667984009f, -0.08936344087123870850f, 0.31814768910408020020f, 0.01801852695643901825f, -0.05866174027323722839f, 0.33377325534820556641f, -0.10187753289937973022f, -0.07609067857265472412f, -0.13189537823200225830f, -0.05760360881686210632f, -0.04382603988051414490f, -0.13890396058559417725f, -0.03579321503639221191f, -0.02930567041039466858f, -0.09098148345947265625f, -0.03810616955161094666f, -0.07335509359836578369f, 0.10208624601364135742f, -0.08154622465372085571f, -0.00663728872314095497f, 0.76380902528762817383f, -0.03797020763158798218f, -0.01728262379765510559f, 0.06912399083375930786f, -0.08746679872274398804f, 0.00427519343793392181f, 0.02661553956568241119f, 0.02471760287880897522f, -0.08748433738946914673f, 0.55686193704605102539f, -0.03837984055280685425f, -0.01245525293052196503f, 0.38789883255958557129f, -0.06854093819856643677f, -0.01610845327377319336f, -0.07513943314552307129f, -0.04624470323324203491f, -0.08046734333038330078f, -0.08546389639377593994f, -0.03564916923642158508f, -0.05324105545878410339f, -0.04658145830035209656f, -0.03869483992457389832f, 0.05069400370121002197f, -0.07725253701210021973f, -0.02213343232870101929f, 0.03083066083490848541f, -0.03408861160278320312f, -0.09141688793897628784f, 0.05723349004983901978f, -0.40978017449378967285f, -0.10862220078706741333f, 0.02985917031764984131f, 0.57471203804016113281f, -0.04457814991474151611f, 0.06739490479230880737f, -0.06466662883758544922f, -0.06962032616138458252f, 0.14257457852363586426f, 0.14805981516838073730f, -0.14095921814441680908f, 0.11324229836463928223f, -0.09590594470500946045f, -0.11481396853923797607f, 0.02962177433073520660f, 0.14055445790290832520f, -0.14670872688293457031f, 0.11197313666343688965f, 0.18758919835090637207f, -0.27360737323760986328f, 0.04693682864308357239f, 0.34493628144264221191f},
  {0.17233863472938537598f, 0.28093722462654113770f, 0.31494361162185668945f, 1.00495827198028564453f, -0.55030316114425659180f, 0.19879786670207977295f, -0.59230321645736694336f, 0.03192708268761634827f, 0.12134920060634613037f, 0.05156170204281806946f, -0.10432118177413940430f, 0.07017680257558822632f, -0.02580243349075317383f, 0.11231069266796112061f, 0.20566454529762268066f, -0.00846866890788078308f, 0.26983362436294555664f, 0.11504640430212020874f, -0.04400248825550079346f, 0.04106366261839866638f, 0.16177260875701904297f, 0.01839550584554672241f, -0.40675187110900878906f, 0.15979482233524322510f, -0.11587601900100708008f, 0.01369037106633186340f, 0.15857639908790588379f, -0.01534664910286664963f, -0.04146209359169006348f, 0.08344171196222305298f, 0.04344248399138450623f, 0.53204470872879028320f, 0.17032115161418914795f, -0.01100940536707639694f, 0.00505267875269055367f, 0.16744078695774078369f, -0.01353018172085285187f, 0.27457317709922790527f, 0.26176556944847106934f, -0.10148891806602478027f, 0.05104731023311614990f, 0.15920484066009521484f, 0.03596992045640945435f, 0.66343647241592407227f, 0.09652300924062728882f, -0.02921249344944953918f, 0.75828862190246582031f, 0.16102276742458343506f, 0.13003490865230560303f, -0.18311122059822082520f, 0.01149728428572416306f, 0.01994885317981243134f, 0.30714291334152221680f, 0.05843847244977951050f, 0.14019235968589782715f, 0.29261344671249389648f, -0.07223495095968246460f, 0.04627423360943794250f, 0.61521208286285400391f, -0.07199344038963317871f, 0.05265856161713600159f, 0.26128613948822021484f, 0.01606045663356781006f, 0.14350083470344543457f, 0.15170605480670928955f, -0.12689374387264251709f, -0.05514264479279518127f, 0.06131268665194511414f, -0.02731306664645671844f, -0.06342591345310211182f, -0.18018339574337005615f, -0.07650572061538696289f, -0.07947746664285659790f, 0.43705666065216064453f, -0.03436210379004478455f, 0.00926430430263280869f, -0.17029505968093872070f, 0.03144946321845054626f, -0.08567138761281967163f, 0.25373309850692749023f, 0.07031361758708953857f, -0.07698282599449157715f, -0.06597593426704406738f, 0.04643862321972846985f, -0.25714305043220520020f, 0.91343975067138671875f, 0.08088366687297821045f, -0.21557228267192840576f, 0.46134796738624572754f, 0.08046431094408035278f, -0.37932956218719482422f, 0.69778925180435180664f, 0.03651610761880874634f, -0.46612221002578735352f, 0.89690351486206054688f, 0.01404286455363035202f, -0.45677754282951354980f, -0.03565077111124992371f, -0.03087738528847694397f, -0.63338422775268554688f, 1.27497494220733642578f, -0.00050665950402617455f, -0.74396914243698120117f, 0.40079677104949951172f},
  {-0.12836319208145141602f, 0.12101175636053085327f, 4.53518390655517578125f, -0.11091177910566329956f, -0.26349976658821105957f, -0.10659718513488769531f, 0.21619589626789093018f, 0.01101161446422338486f, 0.05690068006515502930f, 0.15912771224975585938f, 0.27577856183052062988f, -0.05177006497979164124f, -0.01552213728427886963f, -0.03278945758938789368f, 0.07581052184104919434f, 0.08487435430288314819f, 0.49981501698493957520f, 0.11512555181980133057f, 0.05844879895448684692f, 0.02111541293561458588f, -0.01330043654888868332f, 0.00479509122669696808f, 0.48389059305191040039f, 0.04425375908613204956f, 0.08605365455150604248f, 0.00837971735745668411f, 0.01764502003788948059f, 0.14446438848972320557f, 0.56129914522171020508f, 0.02689301595091819763f, 0.18448244035243988037f, 0.27485784888267517090f, 0.11891356110572814941f, -0.02383478358387947083f, -0.14437933266162872314f, 0.00024297468189615756f, 0.03876820206642150879f, -0.06510466337203979492f, 0.03832281008362770081f, -0.06298772245645523071f, 0.27810293436050415039f, 0.00920911133289337158f, 0.07383768260478973389f, 0.27387091517448425293f, 0.01270930003374814987f, 0.13652965426445007324f, 0.01229472551494836807f, 0.07755376398563385010f, -0.00238718069158494473f, 0.30137437582015991211f, -0.04331439733505249023f, 0.01251205615699291229f, -0.04770579189062118530f, 0.03140645474195480347f, 0.09401700645685195923f, 0.86506038904190063477f, 0.04267397895455360413f, -0.08005454391241073608f, 0.37646508216857910156f, 0.03718100115656852722f, 0.07902269810438156128f, 0.60627830028533935547f, 0.12133417278528213501f, -0.01626893877983093262f, 0.55581814050674438477f, -0.06840799748897552490f, 0.05549084395170211792f, 0.09130525588989257812f, 0.05168619751930236816f, 0.05797665566205978394f, 0.73235529661178588867f, -0.02414312958717346191f, 0.08836442232131958008f, 0.48460209369659423828f, -0.16188800334930419922f, -0.01680654473602771759f, 0.93382620811462402344f, -0.06152396276593208313f, -0.09115473926067352295f, 1.05371153354644775391f, 0.06446758657693862915f, -0.06531567126512527466f, 0.52063590288162231445f, -0.01814224570989608765f, 0.06987111270427703857f, 0.14468221366405487061f, -0.01538043841719627380f, -0.07131426036357879639f, 0.59411042928695678711f, -0.08971995860338211060f, -0.10263158380985260010f, -0.56264209747314453125f, 0.03495107591152191162f, -0.21671663224697113037f, -0.49660193920135498047f, -0.08534843474626541138f, -0.00354582048021256924f, -1.31653940677642822266f, -0.05432724580168724060f, -0.08860915154218673706f, -2.20699477195739746094f, -0.00428458070382475853f, -0.03645165637135505676f, -2.35225510597229003906f},
  {-0.36732494831085205078f, -0.24215519428253173828f, -3.60995316505432128906f, 0.67997479438781738281f, -0.32279014587402343750f, -0.56399714946746826172f, 0.25126305222511291504f, 0.04447993263602256775f, 0.11156736314296722412f, 0.12436923384666442871f, 0.00079577113501727581f, 0.17487561702728271484f, 0.10906237363815307617f, -0.00944139342755079269f, 0.17532214522361755371f, 0.05766225978732109070f, -0.23082959651947021484f, 0.08617734909057617188f, 0.07283523678779602051f, 0.13159760832786560059f, 0.03495457768440246582f, 0.04235616326332092285f, -0.16530919075012207031f, 0.09417145699262619019f, -0.01709249429404735565f, 0.12075266987085342407f, 0.03641437739133834839f, 0.05948450043797492981f, -0.05238760635256767273f, 0.13623683154582977295f, -0.01689775660634040833f, -0.09741069376468658447f, 0.06952920556068420410f, 0.04298236593604087830f, -0.02779435552656650543f, 0.09440299868583679199f, 0.07748314738273620605f, 0.04974451288580894470f, 0.06720857322216033936f, 0.11094841361045837402f, -0.25284144282341003418f, 0.15095253288745880127f, 0.01011839881539344788f, -0.22995704412460327148f, 0.07749554514884948730f, 0.02914323844015598297f, 0.02895544841885566711f, 0.01441117189824581146f, -0.00216917367652058601f, -0.13573500514030456543f, 0.13079352676868438721f, 0.02820656448602676392f, 0.11625362187623977661f, 0.00865180697292089462f, -0.05509413406252861023f, -0.49836978316307067871f, 0.04023193567991256714f, 0.11977887898683547974f, 0.11621146649122238159f, 0.11348265409469604492f, 0.04429299384355545044f, 0.07394265383481979370f, 0.09313546866178512573f, 0.12301981449127197266f, 0.26699951291084289551f, -0.02151896059513092041f, 0.12525369226932525635f, 0.51115632057189941406f, 0.05772964283823966980f, 0.14583843946456909180f, -0.08626587688922882080f, 0.07303149253129959106f, 0.01377402339130640030f, 0.27870315313339233398f, 0.06425278633832931519f, 0.01399962604045867920f, 0.04646552726626396179f, 0.03410011529922485352f, -0.04465110227465629578f, -0.07899633795022964478f, 0.00114125455729663372f, 0.02095620706677436829f, 0.04558959603309631348f, -0.07139039039611816406f, -0.11394258588552474976f, -0.02876955457031726837f, 0.02566295117139816284f, 0.04097941517829895020f, -0.29332298040390014648f, -0.08376340568065643311f, -0.03119600936770439148f, -0.04155977442860603333f, -0.07331762462854385376f, -0.03959525004029273987f, 0.00353593938052654266f, -0.07808013260364532471f, -0.09264543652534484863f, 0.21691296994686126709f, -0.04626010358333587646f, 0.08082113415002822876f, 0.25275990366935729980f, -0.09223223477602005005f, 0.08857934176921844482f, 0.55100047588348388672f},
  {0.68138974905014038086f, -0.16475871205329895020f, 1.87113082408905029297f, -0.86140060424804687500f, -1.54988002777099609375f, -1.06101357936859130859f, -0.79419404268264770508f, -0.08901827782392501831f, -0.15702651441097259521f, -0.01958819106221199036f, -0.11223804950714111328f, -0.28826686739921569824f, -0.20796017348766326904f, -0.16775223612785339355f, -0.15279258787631988525f, -0.04566406831145286560f, 0.15398557484149932861f, -0.06349646300077438354f, -0.05665500462055206299f, -0.45351046323776245117f, -0.06054244190454483032f, -0.08774521946907043457f, 0.44596692919731140137f, -0.19323192536830902100f, -0.09567446261644363403f, 0.13959993422031402588f, -0.20701143145561218262f, -0.01896926015615463257f, 0.32986956834793090820f, -0.08093957602977752686f, -0.01868706569075584412f, 0.05886239930987358093f, -0.20656029880046844482f, -0.03113452717661857605f, -0.30153030157089233398f, -0.04139625653624534607f, -0.12230551242828369141f, 0.03635295853018760681f, 0.06838063895702362061f, -0.19191676378250122070f, -0.17495244741439819336f, -0.07108259201049804688f, -0.12785267829895019531f, 0.20417913794517517090f, -0.09647597372531890869f, 0.13040339946746826172f, -0.31167867779731750488f, 0.01281740330159664154f, -0.07136901468038558960f, 0.46011841297149658203f, -0.05907095596194267273f, 0.13223318755626678467f, -0.10942112654447555542f, 0.15093782544136047363f, 0.22057011723518371582f, 0.55260622501373291016f, 0.15974442660808563232f, 0.05929460749030113220f, 0.07360366731882095337f, -0.02971282601356506348f, 0.03293427452445030212f, -0.07901062816381454468f, 0.00261356611736118793f, -0.03447946161031723022f, -0.32275611162185668945f, -0.00399745069444179535f, -0.01102685369551181793f, -0.01460683904588222504f, -0.02962385676801204681f, -0.05443949997425079346f, 0.24082256853580474854f, -0.18991059064865112305f, -0.00626059947535395622f, -0.43880453705787658691f, -0.25444835424423217773f, -0.00837999861687421799f, 0.25049108266830444336f, -0.05885006859898567200f, -0.21473409235477447510f, -0.21512277424335479736f, 0.01032445859163999557f, -0.15781052410602569580f, 0.28410840034484863281f, -0.04942968487739562988f, 0.10543965548276901245f, 0.13274762034416198730f, -0.09647525101900100708f, 0.13665322959423065186f, 0.57170420885086059570f, -0.09646895527839660645f, 0.00316268927417695522f, -0.19336438179016113281f, -0.04198887944221496582f, -0.12055832147598266602f, -0.48398581147193908691f, 0.10166997462511062622f, -0.16574387252330780029f, -0.00371657591313123703f, -0.02694001235067844391f, -0.11502011120319366455f, -0.58292543888092041016f, 0.16250503063201904297f, -0.08187109977006912231f, -1.19840300083160400391f},
  {-0.09950824081897735596f, 0.59326899051666259766f, -2.79754400253295898438f, 0.22596119344234466553f, 0.34975320100784301758f, 0.49965673685073852539f, -0.02505580708384513855f, 0.00173947610892355442f, 0.11406684666872024536f, 0.10494056344032287598f, -0.31970036029815673828f, 0.14382323622703552246f, 0.12323537468910217285f, -0.28780281543731689453f, -0.02066367119550704956f, 0.07510092109441757202f, 0.02525493502616882324f, 0.03067801892757415771f, 0.13043005764484405518f, -0.06037810072302818298f, -0.03767773136496543884f, 0.06407216936349868774f, -0.02481317520141601562f, -0.03835863620042800903f, 0.11695423722267150879f, -0.24771274626255035400f, -0.02147315628826618195f, 0.04851396754384040833f, -0.07558047026395797729f, 0.01219576504081487656f, 0.11130428314208984375f, 0.21662585437297821045f, 0.00211681565269827843f, 0.10361810028553009033f, -0.15602217614650726318f, 0.01519704144448041916f, 0.02277115173637866974f, 0.00353643600828945637f, 0.02936627715826034546f, -0.05176126956939697266f, -0.22084186971187591553f, -0.04777128621935844421f, -0.03041842766106128693f, -0.23361440002918243408f, 0.01481281872838735580f, -0.08538781106472015381f, -0.19965553283691406250f, -0.06277610361576080322f, -0.07116394490003585815f, -0.26310247182846069336f, 0.05819240212440490723f, -0.02906055562198162079f, -0.23868358135223388672f, 0.00433906447142362595f, -0.05509368702769279480f, 0.06119635701179504395f, 0.01460702903568744659f, -0.02821486815810203552f, -0.14997090399265289307f, -0.01277559436857700348f, -0.06528040021657943726f, -0.01624974235892295837f, 0.01781607419252395630f, -0.07806259393692016602f, -0.14817120134830474854f, 0.04618949815630912781f, -0.00193384324666112661f, -0.23675793409347534180f, 0.04083840176463127136f, 0.00386656192131340504f, 0.09575987607240676880f, 0.02037352509796619415f, -0.06574053317308425903f, -0.02204695530235767365f, -0.01416711881756782532f, -0.05389532446861267090f, 0.04257446900010108948f, -0.00193340447731316090f, -0.07712567597627639771f, 0.23600026965141296387f, 0.02361901663243770599f, 0.00853155739605426788f, -0.02774255163967609406f, 0.05149977281689643860f, -0.04018231108784675598f, 0.13042481243610382080f, 0.02425399422645568848f, -0.00748797552660107613f, 0.26631012558937072754f, 0.04066981375217437744f, 0.00246163713745772839f, -0.26565197110176086426f, 0.01185310631990432739f, -0.03139567375183105469f, 0.03944196552038192749f, 0.00692322431132197380f, -0.02927014604210853577f, -0.31660974025726318359f, 0.01595870591700077057f, 0.00463196635246276855f, -0.25353929400444030762f, -0.09656339138746261597f, 0.11102515459060668945f, -0.31778711080551147461f},
  {0.21903562545776367188f, 0.13084517419338226318f, 2.84629487991333007812f, -0.45735493302345275879f, -0.49303716421127319336f, -0.34255951642990112305f, -0.21639239788055419922f, -0.08053985238075256348f, -0.08620351552963256836f, 0.01386403478682041168f, -0.16753907501697540283f, -0.01332154404371976852f, 0.11217750608921051025f, 0.05355532094836235046f, 0.06415393948554992676f, -0.06439542770385742188f, -0.33000129461288452148f, 0.06446454674005508423f, 0.09421779215335845947f, 0.02490682527422904968f, 0.03565861284732818604f, 0.04513273388147354126f, -0.21374782919883728027f, 0.18561671674251556396f, 0.04098544642329216003f, 0.21787585318088531494f, 0.17088529467582702637f, -0.01808503828942775726f, -0.14657567441463470459f, 0.10129100084304809570f, -0.07128433883190155029f, -0.12821243703365325928f, 0.03658229112625122070f, -0.00254018837586045265f, 0.07964186370372772217f, -0.02518449351191520691f, -0.07179141044616699219f, -0.09601120650768280029f, -0.05408535525202751160f, 0.00427947426214814186f, -0.23148524761199951172f, 0.05174896866083145142f, 0.01736861281096935272f, -0.15474238991737365723f, 0.03871276974678039551f, -0.07193763554096221924f, -0.09482299536466598511f, -0.01731331087648868561f, 0.11167830973863601685f, 0.01991429552435874939f, 0.03478788956999778748f, -0.11445710808038711548f, -0.04841499030590057373f, -0.06827493011951446533f, -0.03974157571792602539f, -0.71300566196441650391f, -0.13259442150592803955f, -0.00058067496865987778f, -0.00614657113328576088f, -0.24667581915855407715f, -0.18360237777233123779f, 0.02465120702981948853f, -0.03965358436107635498f, 0.07843082398176193237f, -0.20448793470859527588f, -0.09118816256523132324f, -0.01121305488049983978f, 0.22795788943767547607f, -0.05972154065966606140f, 0.05559808388352394104f, 0.04568412899971008301f, -0.06403084099292755127f, -0.00713634118437767029f, 0.01931754872202873230f, -0.11524134129285812378f, -0.03036125935614109039f, -0.39151993393898010254f, -0.07237858325242996216f, -0.04671802371740341187f, -0.39734944701194763184f, -0.03565685823559761047f, 0.13483174145221710205f, -0.05948530510067939758f, -0.09586928784847259521f, -0.22871284186840057373f, 0.15923468768596649170f, 0.01129397656768560410f, -0.05849253758788108826f, -0.56694328784942626953f, -0.17239060997962951660f, 0.02047795243561267853f, -0.08946399390697479248f, -0.00919448118656873703f, 0.00303562218323349953f, -0.29524669051170349121f, -0.11064599454402923584f, -0.06166376173496246338f, -0.16506493091583251953f, -0.01563785970211029053f, -0.02157741598784923553f, 0.18588285148143768311f, -0.16956537961959838867f, 0.07858512550592422485f, -0.03649116307497024536f},
  {-0.34422591328620910645f, 0.24752277135848999023f, 0.84810912609100341797f, -0.01044902391731739044f, 0.74289393424987792969f, 0.29717463254928588867f, -0.01042360253632068634f, -0.15967470407485961914f, -0.41369476914405822754f, 0.18672239780426025391f, -0.43042242527008056641f, -0.19912213087081909180f, 0.14831504225730895996f, -0.35810890793800354004f, -0.19712772965431213379f, 0.05767323449254035950f, -0.37473207712173461914f, -0.04674947261810302734f, -0.11105583608150482178f, -0.14469946920871734619f, -0.05117600783705711365f, -0.00670250458642840385f, -0.22426238656044006348f, -0.03943134099245071411f, -0.09826647490262985229f, -0.32707208395004272461f, -0.02758276835083961487f, -0.04779280722141265869f, -0.01140492595732212067f, 0.01924011111259460449f, -0.01353447232395410538f, -0.66559225320816040039f, 0.00956037081778049469f, -0.07100607454776763916f, -0.03472783043980598450f, 0.05149403586983680725f, -0.06539067625999450684f, -0.54427605867385864258f, -0.03275538608431816101f, 0.05164792016148567200f, -0.48846083879470825195f, 0.07023899257183074951f, 0.03706943616271018982f, 0.07280091941356658936f, 0.16932789981365203857f, 0.17515109479427337646f, 0.07896289974451065063f, 0.01825685612857341766f, 0.18240849673748016357f, -0.20198525488376617432f, 0.10402420908212661743f, 0.23215125501155853271f, -0.16654624044895172119f, 0.03164254501461982727f, 0.00404091877862811089f, 0.20184510946273803711f, 0.03069226257503032684f, 0.08834408223628997803f, -0.22503755986690521240f, -0.02361277490854263306f, 0.20789737999439239502f, -0.23971021175384521484f, -0.02122186124324798584f, 0.18698915839195251465f, -0.32897260785102844238f, -0.02946969307959079742f, 0.03687376901507377625f, 0.10424526035785675049f, 0.09270998090505599976f, 0.03226614743471145630f, -0.13659383356571197510f, 0.08516849577426910400f, 0.12353041768074035645f, 0.04052274674177169800f, 0.21553918719291687012f, 0.06223958730697631836f, -0.09061291068792343140f, 0.23746749758720397949f, 0.04471412673592567444f, -0.01600250601768493652f, 0.05763455852866172791f, 0.05066182836890220642f, 0.36835435032844543457f, -0.05183653905987739563f, -0.04841819778084754944f, -0.24359905719757080078f, 0.08993069827556610107f, 0.03809676319360733032f, -0.40774103999137878418f, -0.13333027064800262451f, -0.02908839657902717590f, 0.17492905259132385254f, -0.04570530727505683899f, 0.07026459276676177979f, 0.00920027028769254684f, -0.17135816812515258789f, -0.01758786290884017944f, 0.22664347290992736816f, -0.11313301324844360352f, -0.07968325167894363403f, -0.29210734367370605469f, -0.08513548970222473145f, -0.15563921630382537842f, -0.29056149721145629883f},
  {0.02983398176729679108f, 0.10065246373414993286f, 1.17657577991485595703f, -0.88581979274749755859f, 0.04927042126655578613f, -0.65037727355957031250f, 0.77571308612823486328f, -0.04120485484600067139f, 0.11481245607137680054f, 0.05086567252874374390f, 0.42920830845832824707f, -0.03980709984898567200f, 0.01509674824774265289f, -0.11617884039878845215f, 0.11713428795337677002f, -0.15595729649066925049f, 0.31073361635208129883f, -0.05328718200325965881f, 0.02983875945210456848f, -0.28061509132385253906f, -0.10877152532339096069f, 0.06999108940362930298f, 0.15848205983638763428f, -0.12407983839511871338f, 0.13593854010105133057f, -0.03913486748933792114f, 0.04738832265138626099f, -0.12381052970886230469f, -0.14917558431625366211f, -0.08824392408132553101f, 0.11144956946372985840f, -0.28793588280677795410f, -0.03784147277474403381f, 0.06971254944801330566f, -0.11888869106769561768f, -0.11288086324930191040f, 0.09850616008043289185f, 0.20034256577491760254f, -0.07288702577352523804f, 0.08995643258094787598f, 0.31495329737663269043f, -0.15197609364986419678f, 0.00619387533515691757f, -0.00291211553849279881f, 0.07569029182195663452f, 0.16449360549449920654f, -0.47331798076629638672f, -0.07354339212179183960f, -0.10563702881336212158f, 0.17739826440811157227f, -0.11753542721271514893f, -0.05095883831381797791f, -0.22326940298080444336f, -0.06898384541273117065f, -0.07951552420854568481f, 0.04432089999318122864f, -0.05710692331194877625f, -0.08132582157850265503f, -0.29761019349098205566f, -0.00768281705677509308f, 0.07012989372014999390f, -0.47354170680046081543f, -0.06800875067710876465f, -0.08660393953323364258f, -0.18717154860496520996f, 0.14472730457782745361f, -0.09694615751504898071f, -0.13356763124465942383f, -0.06014358997344970703f, -0.10288947820663452148f, -0.10784335434436798096f, 0.09799308329820632935f, 0.05359459295868873596f, -0.43092074990272521973f, -0.06778498739004135132f, -0.16450051963329315186f, -0.15910936892032623291f, 0.11738285422325134277f, -0.03163108602166175842f, -0.18647912144660949707f, 0.06039015948772430420f, -0.11955178529024124146f, -0.15978382527828216553f, 0.03733024746179580688f, 0.04917001724243164062f, -0.23390577733516693115f, 0.02518098056316375732f, 0.08717329055070877075f, -0.16804721951484680176f, 0.20406365394592285156f, 0.23742556571960449219f, 0.39293947815895080566f, 0.18822266161441802979f, 0.26753190159797668457f, 0.43197605013847351074f, 0.17336079478263854980f, 0.39152607321739196777f, 0.78769725561141967773f, 0.20197455585002899170f, 0.51511782407760620117f, 0.51236933469772338867f, 0.46066254377365112305f, 0.85117626190185546875f, 0.86823552846908569336f},
  {0.73785030841827392578f, -0.63267284631729125977f, 2.39332532882690429688f, 0.08432620018720626831f, -0.15019798278808593750f, 0.24254944920539855957f, 0.37341925501823425293f, 0.29409724473953247070f, -0.10358323901891708374f, 0.10589284449815750122f, -0.25561389327049255371f, -0.12760134041309356689f, 0.02932612970471382141f, -0.19130885601043701172f, 0.02163223922252655029f, -0.22499662637710571289f, -0.06980366259813308716f, -0.19621475040912628174f, -0.10532048344612121582f, -0.07138501107692718506f, -0.04223623126745223999f, -0.02932508103549480438f, -0.52972388267517089844f, -0.09291208535432815552f, -0.17018456757068634033f, -0.22467501461505889893f, -0.15197409689426422119f, -0.06871479004621505737f, 0.06032638996839523315f, -0.19628418982028961182f, -0.01275209058076143265f, 0.13465078175067901611f, -0.21045760810375213623f, -0.01159946247935295105f, 0.03334228694438934326f, -0.15208849310874938965f, 0.03765334188938140869f, 0.23104776442050933838f, -0.20440648496150970459f, -0.02582625113427639008f, -0.43673563003540039062f, -0.18446736037731170654f, -0.02132852748036384583f, -0.63320487737655639648f, -0.27404057979583740234f, 0.06881343573331832886f, -0.77690714597702026367f, -0.15275768935680389404f, -0.10642004013061523438f, -0.29381135106086730957f, -0.05884064361453056335f, 0.10699634253978729248f, -0.24048051238059997559f, -0.18307766318321228027f, 0.02138335444033145905f, -0.31809711456298828125f, -0.24575519561767578125f, 0.02731586806476116180f, -0.52510827779769897461f, 0.00353113212622702122f, 0.06906236708164215088f, -0.86405283212661743164f, -0.04846809059381484985f, 0.12805159389972686768f, -0.62950479984283447266f, -0.02517865039408206940f, -0.07824809104204177856f, -0.69602006673812866211f, 0.06418252736330032349f, -0.00393824977800250053f, -0.01178597286343574524f, -0.00119448965415358543f, 0.14496070146560668945f, -0.09402354061603546143f, -0.00301639176905155182f, 0.03294093161821365356f, 0.06364281475543975830f, -0.08938554674386978149f, -0.06114977970719337463f, 0.09589498490095138550f, -0.16838325560092926025f, 0.08215722441673278809f, -0.06765733659267425537f, -0.15468409657478332520f, 0.21652258932590484619f, 0.57124829292297363281f, -0.13377891480922698975f, 0.10253113508224487305f, -0.00123814807739108801f, -0.27860677242279052734f, 0.00436759833246469498f, -0.17001780867576599121f, -0.11469816416501998901f, 0.12592019140720367432f, -0.18481360375881195068f, -0.09049610048532485962f, 0.25969964265823364258f, -0.43341588973999023438f, -0.11250416189432144165f, 0.38426578044891357422f, -0.62800556421279907227f, -0.07569704204797744751f, 0.46935543417930603027f, -1.30090320110321044922f},
  {-1.29807758331298828125f, -0.20751619338989257812f, -0.34014135599136352539f, 0.10916641354560852051f, -0.72660952806472778320f, 0.87369614839553833008f, 0.14819148182868957520f, 0.02566882036626338959f, -0.04599194228649139404f, 0.01917665079236030579f, -0.62462043762207031250f, 0.02020280994474887848f, -0.00058322708355262876f, -0.18856935203075408936f, -0.08851419389247894287f, -0.03925324603915214539f, -0.63609874248504638672f, -0.10771289467811584473f, 0.05156799778342247009f, 0.08026534318923950195f, -0.10731789469718933105f, -0.04219063371419906616f, -0.14132148027420043945f, 0.00489448662847280502f, 0.09794652462005615234f, -0.06493133306503295898f, -0.03918822482228279114f, -0.06369037926197052002f, -0.02465735375881195068f, 0.04113243520259857178f, 0.02608727850019931793f, -0.02263875678181648254f, 0.04008726403117179871f, -0.00800049677491188049f, 0.26389700174331665039f, 0.02376930974423885345f, -0.05966942757368087769f, 0.24610988795757293701f, -0.05559758841991424561f, -0.07360241562128067017f, -0.26024624705314636230f, 0.04128383472561836243f, -0.04868075251579284668f, 0.21831022202968597412f, 0.02088095247745513916f, -0.08226571977138519287f, -0.07438281178474426270f, 0.01918176189064979553f, 0.03826327994465827942f, -0.36364465951919555664f, 0.08216843754053115845f, 0.00133913266472518444f, -0.05057965219020843506f, 0.03873860090970993042f, -0.03851715475320816040f, -0.34187421202659606934f, 0.08586239814758300781f, -0.04171413928270339966f, 0.11973477900028228760f, 0.07131365686655044556f, 0.06472241878509521484f, -0.17415185272693634033f, 0.02539730444550514221f, -0.00427404046058654785f, -0.36581552028656005859f, 0.05372640863060951233f, -0.03535210341215133667f, -0.05068264156579971313f, 0.01863055862486362457f, 0.03986222296953201294f, -0.23901832103729248047f, -0.00883270520716905594f, -0.08315211534500122070f, -0.20665097236633300781f, -0.07185698300600051880f, -0.12085985392332077026f, -0.36686056852340698242f, 0.00605485774576663971f, -0.06837000697851181030f, 0.15842415392398834229f, -0.00019029030227102339f, 0.00523350900039076805f, 0.05392199382185935974f, -0.07708260416984558105f, -0.08293445408344268799f, 0.10250543057918548584f, -0.03036351874470710754f, -0.20804691314697265625f, -0.25423666834831237793f, -0.11190446466207504272f, -0.08549314737319946289f, 0.18024657666683197021f, -0.04292277991771697998f, -0.09297298640012741089f, -0.02248800732195377350f, -0.03760217130184173584f, -0.14513218402862548828f, -0.34227010607719421387f, -0.01227752119302749634f, -0.09211903065443038940f, 0.17854894697666168213f, 0.00373174645937979221f, -0.19224257767200469971f, 0.78079247474670410156f},
  {-0.23065437376499176025f, 0.25544235110282897949f, 4.65335416793823242188f, -0.28471812605857849121f, 0.80608898401260375977f, -0.43116852641105651855f, -0.27957275509834289551f, -0.11819130927324295044f, 0.07281333208084106445f, -0.02523235417902469635f, -0.29997521638870239258f, 0.04204181581735610962f, -0.07015258818864822388f, -0.22679257392883300781f, -0.03809743002057075500f, 0.01143039204180240631f, 0.40927967429161071777f, 0.12316264957189559937f, -0.00050288042984902859f, -0.56060653924942016602f, -0.04103946313261985779f, 0.01927312090992927551f, 0.12747451663017272949f, -0.07430959492921829224f, 0.01842611841857433319f, -0.80495744943618774414f, -0.08593976497650146484f, -0.00863811746239662170f, 0.04730157554149627686f, 0.03914619982242584229f, 0.02907660417258739471f, -0.21471083164215087891f, 0.08735843002796173096f, 0.10262972116470336914f, -0.48444971442222595215f, -0.07760886847972869873f, 0.01923520863056182861f, -0.57014805078506469727f, 0.06480051577091217041f, -0.07183780521154403687f, -0.11670366674661636353f, -0.09036886692047119141f, 0.10577987134456634521f, -0.29134851694107055664f, 0.01097527053207159042f, 0.13464294373989105225f, -0.49978455901145935059f, 0.11688374727964401245f, 0.08977982401847839355f, -0.08364488184452056885f, -0.21244394779205322266f, 0.08376976102590560913f, -0.27186655998229980469f, 0.10147228091955184937f, 0.14621965587139129639f, 0.68754684925079345703f, 0.17351408302783966064f, 0.03338295966386795044f, -0.06384167820215225220f, -0.08509443700313568115f, 0.20074827969074249268f, 0.13394188880920410156f, 0.01590655557811260223f, 0.11363498866558074951f, 0.23051285743713378906f, -0.04469069465994834900f, 0.15336754918098449707f, -0.34628722071647644043f, -0.13999682664871215820f, 0.12227876484394073486f, 0.78809154033660888672f, 0.05910000205039978027f, 0.24213409423828125000f, 0.27747425436973571777f, -0.18433903157711029053f, 0.14309774339199066162f, 0.94756263494491577148f, -0.05972007662057876587f, 0.06930731981992721558f, 0.46872660517692565918f, -0.05381382256746292114f, -0.21169911324977874756f, 0.17558535933494567871f, -0.05631943419575691223f, 0.03609108552336692810f, -0.32590049505233764648f, -0.09932880848646163940f, -0.20580969750881195068f, 0.13244147598743438721f, 0.07763314247131347656f, -0.12072763592004776001f, -0.78017902374267578125f, 0.07037684321403503418f, -0.17738221585750579834f, -0.90480387210845947266f, -0.04769480973482131958f, 0.02054242976009845734f, -0.91216355562210083008f, -0.08649278432130813599f, 0.03601736575365066528f, -2.18516349792480468750f, 0.13897265493869781494f, 0.14264616370201110840f, -2.16300344467163085938f},
  {1.08640837669372558594f, -0.01643032021820545197f, 0.76923030614852905273f, 1.28079986572265625000f, 1.96208667755126953125f, -0.38350477814674377441f, -1.25545251369476318359f, 0.02752147987484931946f, 0.36466601490974426270f, 0.46032714843750000000f, -0.37819373607635498047f, 0.43827050924301147461f, 0.24624484777450561523f, -0.55035316944122314453f, 0.07669253647327423096f, 0.34777340292930603027f, -0.15111812949180603027f, 0.33142280578613281250f, 0.18283028900623321533f, -0.38993635773658752441f, 0.23841658234596252441f, 0.14143648743629455566f, -0.12451372295618057251f, 0.25312784314155578613f, 0.11920263618230819702f, -0.28701218962669372559f, 0.11276895552873611450f, 0.10733161121606826782f, -0.00355943222530186176f, 0.22666248679161071777f, 0.13876514136791229248f, -0.31174245476722717285f, 0.11297034472227096558f, -0.10360942780971527100f, -0.51065725088119506836f, 0.32777351140975952148f, -0.11017914861440658569f, -0.29277247190475463867f, 0.14078409969806671143f, -0.09603541344404220581f, -0.18013636767864227295f, 0.22501467168331146240f, -0.04615070670843124390f, -0.35458061099052429199f, 0.20606052875518798828f, 0.03526457026600837708f, -1.01467549800872802734f, -0.16209483146667480469f, -0.14934775233268737793f, -0.63323944807052612305f, -0.10690794140100479126f, -0.06079163029789924622f, -0.74491608142852783203f, 0.01462820265442132950f, -0.06375273317098617554f, -0.17892484366893768311f, -0.13213674724102020264f, -0.06323575973510742188f, -0.96561366319656372070f, 0.09171239286661148071f, 0.01117138471454381943f, -0.68185681104660034180f, 0.10183708369731903076f, 0.20955851674079895020f, -0.78111034631729125977f, 0.08613093942403793335f, 0.18204863369464874268f, -0.02934570237994194031f, 0.19944095611572265625f, 0.01439150236546993256f, -0.37633332610130310059f, 0.24026902019977569580f, -0.00120219250675290823f, -0.41426691412925720215f, 0.35194659233093261719f, 0.10736602544784545898f, -0.08484011143445968628f, 0.08197668194770812988f, 0.12919142842292785645f, -0.40548437833786010742f, 0.24026300013065338135f, -0.04655590280890464783f, -0.70767885446548461914f, 0.13308039307594299316f, 0.23174524307250976562f, -0.26415690779685974121f, -0.01662833243608474731f, -0.02714090794324874878f, -0.21260605752468109131f, 0.17057301104068756104f, 0.11654992401599884033f, -0.49664831161499023438f, 0.13878802955150604248f, 0.05351774021983146667f, -0.62449246644973754883f, 0.06823345273733139038f, 0.10442549735307693481f, -0.20643764734268188477f, 0.14859697222709655762f, 0.14978486299514770508f, -1.04507160186767578125f, 0.30069193243980407715f, 0.17445722222328186035f, -0.47730016708374023438f},
  {2.42719531059265136719f, 0.21098540723323822021f, 0.95199072360992431641f, 0.02248928882181644440f, -0.25839486718177795410f, -0.44305807352066040039f, 0.00215428229421377182f, 0.01619797386229038239f, 0.04892185330390930176f, -0.08869011700153350830f, -0.30605000257492065430f, -0.00073993951082229614f, -0.06453303992748260498f, 0.10519228130578994751f, 0.03763950616121292114f, -0.01243238523602485657f, -0.10491102188825607300f, 0.03610866516828536987f, 0.00756180146709084511f, 0.30222305655479431152f, 0.02154415659606456757f, -0.00933301914483308792f, -0.15597163140773773193f, 0.04018073529005050659f, 0.01046360190957784653f, -0.02125817164778709412f, 0.05832696706056594849f, -0.03042156994342803955f, -0.07940547168254852295f, 0.00917193479835987091f, -0.03561782836914062500f, 0.04503367841243743896f, 0.03244297951459884644f, -0.04439822956919670105f, 0.57190662622451782227f, 0.05383427441120147705f, -0.00963824428617954254f, 0.28105345368385314941f, 0.04005064815282821655f, -0.00414209673181176186f, -0.03190300986170768738f, -0.01277379877865314484f, -0.01715182326734066010f, -0.47669470310211181641f, 0.01085365377366542816f, 0.04698152467608451843f, -0.41719627380371093750f, 0.03528173267841339111f, 0.01090252492576837540f, -0.07518149912357330322f, 0.01139933802187442780f, 0.03002499043941497803f, 0.17221072316169738770f, -0.04074994102120399475f, -0.00303677213378250599f, -0.39668115973472595215f, -0.02142416499555110931f, 0.00606168294325470924f, -0.13476094603538513184f, -0.02388225495815277100f, 0.00616745557636022568f, 0.12788331508636474609f, -0.02555236406624317169f, 0.03378818556666374207f, 0.25333875417709350586f, -0.03337638825178146362f, -0.01212429907172918320f, -0.08458807319402694702f, -0.00395531207323074341f, 0.04820599779486656189f, -0.08795483410358428955f, -0.00219513312913477421f, 0.03019869513809680939f, -0.05264651775360107422f, 0.02296780236065387726f, 0.04887335002422332764f, -0.01422524079680442810f, -0.02699189074337482452f, 0.01022947579622268677f, -0.02884931303560733795f, 0.02987267822027206421f, -0.01568518206477165222f, -0.39976653456687927246f, 0.05679227784276008606f, -0.02635712362825870514f, 0.33651831746101379395f, 0.05970564857125282288f, -0.03421976789832115173f, -0.47400990128517150879f, 0.05968035385012626648f, -0.06495054066181182861f, 0.26964533329010009766f, 0.05818533152341842651f, -0.00969292782247066498f, -0.22203677892684936523f, 0.05235471203923225403f, 0.02405082434415817261f, 0.31129688024520874023f, 0.04443641379475593567f, -0.00877586472779512405f, 0.08157092332839965820f, 0.11510131508111953735f, 0.02954933047294616699f, -0.21110008656978607178f},
  {-0.04116074740886688232f, 0.50897276401519775391f, 4.20875167846679687500f, -0.08280742913484573364f, -0.76377218961715698242f, -0.22507338225841522217f, 0.07195917516946792603f, 0.08960202336311340332f, 0.00652253907173871994f, -0.09591902047395706177f, 0.00884841661900281906f, -0.04641925543546676636f, -0.16710229218006134033f, -0.43445166945457458496f, -0.05149258673191070557f, -0.13722477853298187256f, 0.02810479328036308289f, 0.00853246729820966721f, -0.06499211490154266357f, -0.30239120125770568848f, 0.04011743515729904175f, -0.10413488745689392090f, -0.22974959015846252441f, 0.09894879907369613647f, -0.12118370085954666138f, -0.44184783101081848145f, -0.06696775555610656738f, -0.09976631402969360352f, -0.08242341130971908569f, 0.00964140892028808594f, -0.05109044164419174194f, -0.59802347421646118164f, 0.05821943655610084534f, -0.01303123869001865387f, -0.22950452566146850586f, -0.01330108474940061569f, -0.07374270260334014893f, -0.59748882055282592773f, 0.13791088759899139404f, -0.11089148372411727905f, 0.26006788015365600586f, 0.11882808804512023926f, 0.05056281760334968567f, 0.03006992302834987640f, 0.03929496556520462036f, 0.03990351408720016479f, -0.55397832393646240234f, 0.15418182313442230225f, 0.00485027115792036057f, -0.48787158727645874023f, 0.11582580208778381348f, 0.05460776016116142273f, -0.81153321266174316406f, -0.03807375207543373108f, -0.00844183843582868576f, -0.60181307792663574219f, -0.01815759576857089996f, 0.03071743063628673553f, -0.23908706009387969971f, -0.06807884573936462402f, 0.11606886982917785645f, -0.66587573289871215820f, 0.06066642329096794128f, 0.07211011648178100586f, -0.74147307872772216797f, -0.04440221935510635376f, -0.00369286234490573406f, -0.76872009038925170898f, 0.03889930993318557739f, 0.05553282052278518677f, -0.45888847112655639648f, -0.02106373757123947144f, 0.04188079386949539185f, -0.42971920967102050781f, -0.23017653822898864746f, -0.09574454277753829956f, -0.30201408267021179199f, -0.02768150903284549713f, 0.04564674198627471924f, 0.08700619637966156006f, -0.00170440436340868473f, -0.01875928044319152832f, 0.43945416808128356934f, -0.10965364426374435425f, -0.05197973176836967468f, -0.08421166986227035522f, -0.07674385607242584229f, -0.03264155983924865723f, 0.00178883236367255449f, -0.10116014629602432251f, -0.04037830233573913574f, -0.58181017637252807617f, -0.11880857497453689575f, -0.23679086565971374512f, -1.10242927074432373047f, 0.01952813938260078430f, -0.27564659714698791504f, -0.87257754802703857422f, -0.09815264493227005005f, -0.30207630991935729980f, -1.69153416156768798828f, 0.07772472500801086426f, -0.53700137138366699219f, -1.91833353042602539062f},
  {0.56904494762420654297f, 0.25180572271347045898f, -0.62884557247161865234f, 1.32483458518981933594f, -0.03558376803994178772f, 0.57882434129714965820f, 0.33667564392089843750f, -0.07803770154714584351f, -0.11600904166698455811f, 0.00170707586221396923f, -0.63194829225540161133f, 0.01351988036185503006f, -0.03664587065577507019f, -0.07675931602716445923f, -0.01098165847361087799f, -0.14435529708862304688f, -0.22790747880935668945f, -0.06934646517038345337f, -0.15558195114135742188f, 0.61255210638046264648f, -0.04397273063659667969f, -0.16145490109920501709f, -0.39715614914894104004f, -0.08921056240797042847f, -0.24941927194595336914f, -0.10673172026872634888f, -0.08186980336904525757f, -0.11721428483724594116f, 0.16241575777530670166f, -0.02117300778627395630f, -0.21888159215450286865f, 0.34430137276649475098f, 0.01890148967504501343f, 0.01548569556325674057f, -0.57258403301239013672f, 0.04287220910191535950f, -0.15862317383289337158f, -0.25720793008804321289f, 0.01125627569854259491f, -0.14925958216190338135f, -0.28549262881278991699f, 0.01177848596125841141f, -0.29760673642158508301f, -0.28259423375129699707f, 0.01699479855597019196f, -0.14190874993801116943f, 0.33841136097908020020f, -0.06014670059084892273f, -0.12959173321723937988f, -0.19648009538650512695f, 0.03930241614580154419f, -0.06787732243537902832f, 0.25498053431510925293f, 0.02230676077306270599f, 0.00523834582418203354f, 0.08551684021949768066f, -0.07050695270299911499f, -0.01635555177927017212f, -0.13519990444183349609f, 0.01258117798715829849f, -0.18428862094879150391f, 0.17812611162662506104f, -0.05583267658948898315f, -0.01267945300787687302f, 0.37272778153419494629f, -0.03350411728024482727f, -0.03129934892058372498f, 0.78076291084289550781f, -0.05812873691320419312f, -0.06216257438063621521f, 0.07025471329689025879f, -0.01237060315907001495f, -0.09733831882476806641f, -0.14297302067279815674f, -0.04598713666200637817f, -0.03970309719443321228f, 0.00709253782406449318f, -0.03545862436294555664f, -0.05466650053858757019f, -0.24431787431240081787f, -0.14772434532642364502f, -0.00513395015150308609f, -0.26392510533332824707f, -0.15154893696308135986f, -0.00779206817969679832f, -0.05674611404538154602f, -0.15661725401878356934f, 0.06163211166858673096f, -0.26780757308006286621f, -0.12078925222158432007f, -0.01642419025301933289f, 0.10928072780370712280f, -0.09213265776634216309f, 0.06177758425474166870f, 0.20588020980358123779f, -0.06342431157827377319f, 0.01099661458283662796f, 0.17298136651515960693f, -0.01741251163184642792f, 0.13639643788337707520f, 1.01883196830749511719f, -0.09577953815460205078f, 0.08645917475223541260f, 0.69378036260604858398f},
  {0.02152770012617111206f, -0.19237573444843292236f, 3.39623188972473144531f, 0.11516585201025009155f, -0.76422256231307983398f, 0.99951845407485961914f, -0.03081788681447505951f, -0.28655084967613220215f, 0.20377762615680694580f, -0.12241461127996444702f, -0.50967365503311157227f, -0.07960278540849685669f, -0.23650459945201873779f, -0.06740113347768783569f, 0.19258750975131988525f, -0.06270945817232131958f, -0.04386821016669273376f, 0.02182426489889621735f, 0.11150922626256942749f, -0.32204559445381164551f, -0.11313479393720626831f, 0.03242404013872146606f, 0.34198650717735290527f, -0.09735369682312011719f, 0.10268734395503997803f, -0.38131284713745117188f, -0.05288999155163764954f, -0.01748025976121425629f, -0.06365666538476943970f, 0.04451839625835418701f, 0.14923970401287078857f, 0.25759217143058776855f, 0.01638944074511528015f, -0.06274595111608505249f, -0.19922465085983276367f, 0.10213818401098251343f, 0.09809529036283493042f, -0.21678175032138824463f, 0.09930853545665740967f, -0.05328730493783950806f, 0.15370623767375946045f, -0.18918502330780029297f, 0.00664047710597515106f, 0.10435939580202102661f, 0.06614638119935989380f, 0.05893967673182487488f, 0.21894180774688720703f, 0.20319482684135437012f, -0.00852882117033004761f, 0.25402539968490600586f, -0.05457463487982749939f, -0.25004041194915771484f, 0.05463248491287231445f, 0.19309012591838836670f, -0.08848268538713455200f, 0.43543165922164916992f, 0.11007972806692123413f, -0.08104922622442245483f, 0.55374342203140258789f, -0.05806232243776321411f, -0.01110003329813480377f, 0.44715610146522521973f, 0.05784687772393226624f, -0.26774719357490539551f, 0.53286069631576538086f, 0.01929786242544651031f, -0.07168971747159957886f, 0.01644577272236347198f, -0.09084775298833847046f, -0.02029044553637504578f, 0.41705137491226196289f, 0.06414883583784103394f, 0.16307985782623291016f, 0.19062779843807220459f, -0.06549412012100219727f, 0.14972089231014251709f, 0.39886975288391113281f, 0.15545637905597686768f, 0.16694857180118560791f, 0.63492596149444580078f, 0.04810376465320587158f, 0.09875435382127761841f, 0.07128810882568359375f, 0.07027669996023178101f, 0.24801480770111083984f, 0.03273345902562141418f, -0.06658802181482315063f, 0.09224288910627365112f, 0.40092751383781433105f, 0.28663191199302673340f, -0.03015174530446529388f, -0.42848113179206848145f, 0.13346236944198608398f, 0.05637184903025627136f, -0.41224005818367004395f, 0.14625984430313110352f, 0.18691498041152954102f, -1.09353506565093994141f, -0.07076513767242431641f, 0.20695820450782775879f, -1.35587430000305175781f, 0.24524991214275360107f, 0.53247773647308349609f, -1.71900486946105957031f},
  {0.49672940373420715332f, -0.70917570590972900391f, 1.78700268268585205078f, 0.60607361793518066406f, 0.40412887930870056152f, 0.17651252448558807373f, -0.08800361305475234985f, -0.02560290880501270294f, 0.14915703237056732178f, 0.17060655355453491211f, -0.05670962110161781311f, 0.06584795564413070679f, 0.14252138137817382812f, 0.88472038507461547852f, 0.01341566536575555801f, 0.06850080192089080811f, 0.12502278387546539307f, 0.09563615918159484863f, -0.07843029499053955078f, 0.39026489853858947754f, -0.03935401141643524170f, 0.01840424537658691406f, 0.40441107749938964844f, 0.04501271620392799377f, 0.03980635479092597961f, 0.71004402637481689453f, 0.09470164775848388672f, -0.22965325415134429932f, 0.17320263385772705078f, 0.02013935334980487823f, -0.16866305470466613770f, 0.57700729370117187500f, -0.05123768374323844910f, 0.00490792468190193176f, 0.28345331549644470215f, -0.08506444096565246582f, -0.31258311867713928223f, -0.01156542915850877762f, -0.02173073589801788330f, -0.21012564003467559814f, -0.15253047645092010498f, -0.19987326860427856445f, -0.12100870907306671143f, 0.41295772790908813477f, -0.08309046179056167603f, -0.27231919765472412109f, -0.06528212130069732666f, -0.07186084240674972534f, -0.02349481731653213501f, -0.20295393466949462891f, -0.13090834021568298340f, -0.09969165921211242676f, -0.25044062733650207520f, -0.12077462673187255859f, 0.01624091714620590210f, 0.04632245376706123352f, -0.08479924499988555908f, -0.00386433349922299385f, -0.32063165307044982910f, -0.10890375822782516479f, 0.00644122622907161713f, 0.24523696303367614746f, -0.01458421442657709122f, -0.06864565610885620117f, 0.28717845678329467773f, -0.04474756121635437012f, -0.11958985030651092529f, -0.15206083655357360840f, 0.04227786138653755188f, -0.11185398697853088379f, 1.10177409648895263672f, 0.02934855408966541290f, -0.00851916521787643433f, 0.36587059497833251953f, -0.01177375763654708862f, -0.09284474700689315796f, 0.45388093590736389160f, -0.00227835355326533318f, -0.06932925432920455933f, 0.76730823516845703125f, 0.06799150258302688599f, -0.12507228553295135498f, 0.38727894425392150879f, -0.11273759603500366211f, -0.00944553874433040619f, 0.39960175752639770508f, -0.01116177998483181000f, 0.08985818922519683838f, 0.13239476084709167480f, -0.10968033969402313232f, 0.07596159726381301880f, 0.10651524364948272705f, -0.05636680871248245239f, 0.22085979580879211426f, 0.06112881377339363098f, -0.10877025127410888672f, 0.01599850878119468689f, -0.04568235576152801514f, -0.01988242007791996002f, 0.14704544842243194580f, -0.71261245012283325195f, 0.05143639817833900452f, -0.05463777855038642883f, -0.85672128200531005859f},
  {-0.15854974091053009033f, -0.51545548439025878906f, -2.82235121726989746094f, -0.08929567784070968628f, 0.02853885293006896973f, 0.13998240232467651367f, -0.21158750355243682861f, -0.41441375017166137695f, 0.07136750221252441406f, -0.06988722085952758789f, -0.26884612441062927246f, 0.22494573891162872314f, -0.07542160898447036743f, -0.02227640897035598755f, 0.08714513480663299561f, -0.23520913720130920410f, -0.59360575675964355469f, 0.06519757956266403198f, -0.24051403999328613281f, 0.09295380860567092896f, 0.16768127679824829102f, 0.02785219624638557434f, -0.63779795169830322266f, 0.13718673586845397949f, -0.07470940053462982178f, -0.13875916600227355957f, 0.20656834542751312256f, -0.14903932809829711914f, -0.50573492050170898438f, 0.21145787835121154785f, -0.22343733906745910645f, -0.52958124876022338867f, 0.22269697487354278564f, -0.07217554003000259399f, -0.08421367406845092773f, 0.13280665874481201172f, -0.00146312534343451262f, 0.04082170128822326660f, 0.18478003144264221191f, 0.01349412929266691208f, -0.50343984365463256836f, 0.18413130939006805420f, -0.07845775783061981201f, -0.16809818148612976074f, 0.15296365320682525635f, 0.01638511940836906433f, -0.32536652684211730957f, 0.11249992251396179199f, 0.03170882910490036011f, -0.44761887192726135254f, 0.11457115411758422852f, -0.00600377190858125687f, -0.21802106499671936035f, 0.04332082718610763550f, 0.01270813867449760437f, -1.05888855457305908203f, -0.00936786364763975143f, 0.05187802389264106750f, -0.81619691848754882812f, 0.15518566966056823730f, 0.00929739139974117279f, -0.78642618656158447266f, 0.07860904932022094727f, 0.24029357731342315674f, -1.08229994773864746094f, 0.26660558581352233887f, 0.14533250033855438232f, -0.41376104950904846191f, 0.15567840635776519775f, 0.16392633318901062012f, -1.33052933216094970703f, 0.23166477680206298828f, -0.07390690594911575317f, -0.66057980060577392578f, 0.16384369134902954102f, -0.05311401188373565674f, -1.36486649513244628906f, 0.19109886884689331055f, 0.14472787082195281982f, -1.15396845340728759766f, 0.05422868207097053528f, 0.11123324930667877197f, -0.98340350389480590820f, 0.12652638554573059082f, -0.10809548199176788330f, -0.33584502339363098145f, 0.17815321683883666992f, 0.00960547104477882385f, -0.57872676849365234375f, 0.09184948354959487915f, -0.02312849834561347961f, 0.15696293115615844727f, 0.10046336799860000610f, 0.07839129120111465454f, 0.21256150305271148682f, 0.01902175508439540863f, 0.04548909142613410950f, 0.59725296497344970703f, 0.04657751694321632385f, -0.06201406195759773254f, 1.28931176662445068359f, -0.05626475065946578979f, 0.00471380865201354027f, 1.14989197254180908203f},
  {0.10773030668497085571f, -0.81378519535064697266f, 1.05580639839172363281f, 0.22105512022972106934f, -0.21699315309524536133f, -0.02657165937125682831f, -1.20965266227722167969f, 0.18002745509147644043f, -0.13855150341987609863f, 0.23149354755878448486f, -0.01632521115243434906f, 0.05669321119785308838f, 0.20229324698448181152f, -0.61243337392807006836f, -0.02935822308063507080f, 0.18718113005161285400f, -0.82835811376571655273f, -0.11881600320339202881f, 0.22709028422832489014f, -0.49129837751388549805f, -0.06502686440944671631f, 0.13982445001602172852f, -0.11732738465070724487f, -0.21193020045757293701f, 0.19299297034740447998f, -0.96495676040649414062f, -0.15133212506771087646f, 0.13368910551071166992f, -1.03814136981964111328f, -0.15875940024852752686f, 0.16462008655071258545f, -0.87738829851150512695f, -0.26769787073135375977f, 0.02898429147899150848f, -0.50464308261871337891f, -0.23440177738666534424f, 0.07009650766849517822f, -0.79756689071655273438f, -0.07088939100503921509f, -0.11516220122575759888f, -0.59914803504943847656f, -0.04919622093439102173f, -0.16512764990329742432f, -0.55008637905120849609f, -0.16134706139564514160f, -0.06291291862726211548f, -0.37668439745903015137f, -0.03751618042588233948f, -0.00509389443323016167f, -0.25158634781837463379f, -0.04647581651806831360f, 0.13098749518394470215f, -0.39535534381866455078f, 0.10338732600212097168f, -0.00770684331655502319f, -0.34483304619789123535f, 0.05353416129946708679f, 0.05217423290014266968f, -0.31125980615615844727f, 0.04300865530967712402f, 0.10009709000587463379f, -0.42289438843727111816f, -0.00745436362922191620f, 0.01708133332431316376f, -1.08978164196014404297f, 0.01118400786072015762f, 0.02254945412278175354f, -0.60792028903961181641f, 0.03886323794722557068f, -0.20544378459453582764f, -0.53658890724182128906f, -0.03314599022269248962f, -0.05617628246545791626f, -0.42893725633621215820f, 0.09939403086900711060f, 0.13217128813266754150f, -0.73899227380752563477f, 0.04827243834733963013f, 0.01928081177175045013f, -0.61729586124420166016f, 0.04166048020124435425f, 0.09791869670152664185f, -0.29637637734413146973f, 0.22106981277465820312f, 0.15225343406200408936f, -0.69065719842910766602f, 0.08277738839387893677f, 0.04178501293063163757f, -0.77853572368621826172f, 0.23773083090782165527f, 0.26440951228141784668f, -0.87209248542785644531f, 0.21007513999938964844f, 0.18708559870719909668f, -0.13539767265319824219f, 0.17646397650241851807f, 0.03678143769502639771f, -0.02717352844774723053f, 0.34330487251281738281f, 0.26162591576576232910f, -0.09244310110807418823f, 0.24134802818298339844f, 0.26646396517753601074f, 0.68865245580673217773f},
  {0.45303645730018615723f, 0.48833462595939636230f, 1.92773735523223876953f, 0.22332283854484558105f, -0.55177807807922363281f, 0.40079495310783386230f, 0.05369067937135696411f, 0.08572272211313247681f, -0.02348594181239604950f, 0.21371079981327056885f, 0.11960194259881973267f, -0.03229802846908569336f, 0.18238829076290130615f, -0.26183101534843444824f, 0.06870343536138534546f, 0.04106156155467033386f, 0.02711775340139865875f, 0.00255553517490625381f, 0.01592657901346683502f, -0.36109188199043273926f, 0.07366057485342025757f, -0.07956626266241073608f, -0.21018759906291961670f, 0.04325234144926071167f, -0.00978534296154975891f, 0.10949872434139251709f, 0.02299492992460727692f, -0.13160061836242675781f, -0.17252181470394134521f, 0.01224643178284168243f, -0.00987878721207380295f, 0.09973406791687011719f, 0.04804537817835807800f, -0.04207158833742141724f, 0.06400609761476516724f, 0.04656677693128585815f, -0.09110855311155319214f, 0.12835878133773803711f, 0.09352120757102966309f, -0.15198627114295959473f, -0.33439701795578002930f, 0.00732787931337952614f, -0.07446914166212081909f, -0.24254746735095977783f, 0.02074423618614673615f, -0.14991004765033721924f, 0.07166552543640136719f, -0.02921446785330772400f, -0.09019243717193603516f, -0.21646173298358917236f, -0.00369790801778435707f, -0.13892559707164764404f, -0.16525799036026000977f, -0.00174664950463920832f, -0.20030660927295684814f, -0.14670170843601226807f, -0.03392108902335166931f, -0.04948735237121582031f, -0.45434662699699401855f, -0.06974271684885025024f, -0.01243060827255249023f, 0.10718584805727005005f, 0.05200757458806037903f, 0.05905320867896080017f, -0.04549931362271308899f, 0.04489141702651977539f, 0.06654550135135650635f, 0.16523998975753784180f, -0.00244581000879406929f, 0.02021881379187107086f, 0.16605672240257263184f, 0.07770860195159912109f, 0.06213137879967689514f, 0.31866595149040222168f, 0.02178999595344066620f, 0.00873567163944244385f, 0.02506057918071746826f, 0.10145467519760131836f, 0.00041008173138834536f, 0.45306172966957092285f, -0.02877963334321975708f, 0.11119828373193740845f, 0.13479623198509216309f, -0.03237864002585411072f, 0.02285596169531345367f, -0.07434417307376861572f, -0.00755294179543852806f, -0.02784490957856178284f, -0.02685582078993320465f, -0.03774076700210571289f, -0.03733604028820991516f, 0.12526124715805053711f, -0.03151682391762733459f, -0.01084564439952373505f, 0.11171803623437881470f, 0.01701692119240760803f, 0.05323694273829460144f, 0.33656737208366394043f, -0.05736280232667922974f, 0.01366593129932880402f, -0.25206229090690612793f, 0.01344174519181251526f, 0.15848559141159057617f, 0.53108495473861694336f},
  {-0.51447302103042602539f, 1.04259216785430908203f, 3.60525417327880859375f, 0.01395300496369600296f, 0.30370453000068664551f, 0.15370616316795349121f, 0.04296245425939559937f, -0.01730599440634250641f, -0.02677234821021556854f, 0.03820446506142616272f, 0.21999351680278778076f, -0.09310278296470642090f, -0.00013245268200989813f, 0.02699359692633152008f, 0.03738522529602050781f, 0.02337882295250892639f, -0.00839359220117330551f, -0.07464390993118286133f, 0.03175576031208038330f, -0.12073715776205062866f, -0.02864764630794525146f, -0.00287144700996577740f, 0.12864892184734344482f, -0.02707404270768165588f, 0.01056878827512264252f, -0.11406912654638290405f, 0.01640596613287925720f, -0.01720149442553520203f, 0.39537614583969116211f, -0.00453931465744972229f, 0.05482625588774681091f, -0.06950306892395019531f, -0.00365348672494292259f, 0.02435328438878059387f, -0.06330049782991409302f, -0.00626598624512553215f, 0.18280403316020965576f, -0.42771911621093750000f, 0.01642265729606151581f, 0.08370844274759292603f, 0.22925502061843872070f, 0.02113438583910465240f, 0.05995462089776992798f, 0.54258924722671508789f, -0.02624814957380294800f, 0.11716033518314361572f, 0.07311835885047912598f, 0.07540830969810485840f, 0.00783231202512979507f, 0.10869710147380828857f, -0.03383627906441688538f, 0.04079709202051162720f, -0.01591478660702705383f, 0.08615447580814361572f, 0.08502103388309478760f, 0.28625115752220153809f, 0.06773540377616882324f, -0.01809095218777656555f, 0.12498911470174789429f, 0.03624376654624938965f, -0.04796388000249862671f, 0.11357435584068298340f, -0.01652964949607849121f, -0.07182934135198593140f, 0.00786508340388536453f, -0.03654962778091430664f, -0.06934757530689239502f, -0.42140653729438781738f, -0.04329661652445793152f, -0.06851974874734878540f, 0.27444550395011901855f, -0.00100077153183519840f, -0.01270536053925752640f, -0.24460728466510772705f, -0.04005827382206916809f, 0.07573514431715011597f, 0.26667827367782592773f, -0.05549805238842964172f, -0.00197581923566758633f, -0.12624198198318481445f, -0.03389865532517433167f, 0.01001250836998224258f, -0.15073892474174499512f, -0.00958336610347032547f, 0.17062500119209289551f, -0.04166152328252792358f, -0.04286735877394676208f, 0.08067136257886886597f, 0.63267910480499267578f, -0.03058325126767158508f, 0.05287235602736473083f, 0.23976996541023254395f, 0.01507171243429183960f, 0.02336152270436286926f, 0.20130699872970581055f, 0.04416953027248382568f, 0.09073960781097412109f, 0.35704559087753295898f, -0.03891845792531967163f, 0.05328187718987464905f, -0.19045297801494598389f, 0.09574498981237411499f, 0.12045808881521224976f, -0.19378495216369628906f},
  {1.02685010433197021484f, 0.49829846620559692383f, -1.60634028911590576172f, -0.06505803763866424561f, 0.44723662734031677246f, 0.91661447286605834961f, -0.38199126720428466797f, 0.02594627067446708679f, 0.08109197020530700684f, -0.20704062283039093018f, 0.40384083986282348633f, 0.13614784181118011475f, -0.32392239570617675781f, 0.30089518427848815918f, -0.04102984070777893066f, -0.17071963846683502197f, 0.02970653958618640900f, 0.03452821820974349976f, -0.08968523144721984863f, -0.10715856403112411499f, -0.01003804802894592285f, -0.05639208853244781494f, 0.02153923921287059784f, -0.02504223026335239410f, -0.08738861978054046631f, -0.14933200180530548096f, -0.05574737861752510071f, -0.05501401796936988831f, 0.23091195523738861084f, 0.00630539003759622574f, -0.01246222853660583496f, -0.15457199513912200928f, 0.15606269240379333496f, -0.06041857227683067322f, -0.12478645890951156616f, 0.03460707142949104309f, -0.02153877727687358856f, -0.37419527769088745117f, 0.00041850266279652715f, -0.02888287045061588287f, -0.06765232235193252563f, 0.11533489078283309937f, 0.03567046672105789185f, -0.25352451205253601074f, -0.02392607368528842926f, 0.07590901851654052734f, -0.35626584291458129883f, -0.00781996548175811768f, 0.05797921866178512573f, -0.22228400409221649170f, 0.11333596706390380859f, 0.14065569639205932617f, -0.14859615266323089600f, 0.02654312737286090851f, -0.06756059080362319946f, 0.05143894255161285400f, -0.01995403319597244263f, 0.06560087949037551880f, -0.05551318451762199402f, 0.12476794421672821045f, 0.00952481105923652649f, 0.05089810490608215332f, 0.05358341708779335022f, -0.04635871574282646179f, 0.04754461720585823059f, 0.09785682708024978638f, -0.00298243225552141666f, -0.14732447266578674316f, 0.04953060299158096313f, 0.01956701651215553284f, -0.07283117622137069702f, 0.10891102999448776245f, 0.05207020416855812073f, -0.49547046422958374023f, 0.01074155513197183609f, -0.00484330859035253525f, -0.05187376216053962708f, 0.02257271856069564819f, 0.02010227367281913757f, -0.10966932773590087891f, 0.10925301164388656616f, 0.06456800550222396851f, -0.19550444185733795166f, -0.05623935163021087646f, 0.12160159647464752197f, -0.52812778949737548828f, 0.01673892326653003693f, 0.01787100732326507568f, -0.07106124609708786011f, -0.05675708875060081482f, 0.16594375669956207275f, -0.24879385530948638916f, 0.03900141641497612000f, 0.03241758421063423157f, 0.14757353067398071289f, 0.01718036644160747528f, -0.00121934700291603804f, -0.02218702621757984161f, 0.09925685822963714600f, 0.11707130074501037598f, -0.32228600978851318359f, 0.08424775302410125732f, -0.05983688682317733765f, -0.35805499553680419922f},
  {0.32835915684700012207f, 0.06785812228918075562f, -0.10221761465072631836f, 0.66484838724136352539f, 0.45448979735374450684f, -0.31225851178169250488f, 0.05662569403648376465f, -0.00410427898168563843f, 0.08692456781864166260f, -0.15013615787029266357f, -0.00335953058674931526f, 0.06834707409143447876f, -0.06452292203903198242f, -0.26482719182968139648f, -0.02839531004428863525f, -0.10787103325128555298f, -0.13850277662277221680f, -0.05902402102947235107f, -0.08102862536907196045f, -0.19176937639713287354f, -0.02301752939820289612f, -0.00805048830807209015f, 0.13314269483089447021f, -0.00688202818855643272f, -0.06316439062356948853f, 0.08418508619070053101f, -0.01872029714286327362f, -0.11392084509134292603f, -0.01076808944344520569f, 0.01802759990096092224f, -0.21554985642433166504f, 0.05488305538892745972f, -0.11732967197895050049f, -0.11428915709257125854f, -0.20544843375682830811f, -0.01159352716058492661f, -0.12930873036384582520f, 0.06634543836116790771f, -0.09659600257873535156f, -0.15708050131797790527f, -0.05913406983017921448f, -0.05421465635299682617f, -0.19359083473682403564f, -0.53363901376724243164f, -0.15106381475925445557f, -0.12293258309364318848f, -0.49772170186042785645f, -0.05267390608787536621f, -0.07399344444274902344f, -0.42064440250396728516f, -0.10276430100202560425f, -0.04033201932907104492f, -0.58876526355743408203f, -0.18261331319808959961f, 0.00541093619540333748f, -0.49448508024215698242f, -0.10758718848228454590f, -0.18376748263835906982f, -0.26548269391059875488f, -0.19518586993217468262f, -0.06951463222503662109f, -0.37327393889427185059f, -0.13747704029083251953f, -0.18716695904731750488f, -0.28979933261871337891f, -0.12279401719570159912f, -0.08122541755437850952f, -0.24350257217884063721f, -0.14487944543361663818f, 0.04274262115359306335f, -0.32458689808845520020f, -0.16608317196369171143f, -0.12889674305915832520f, -0.21428543329238891602f, -0.12960599362850189209f, -0.06958200782537460327f, -0.44748595356941223145f, -0.10938314348459243774f, -0.04127268120646476746f, -0.30473363399505615234f, -0.01324730459600687027f, -0.02743128873407840729f, 0.05492642521858215332f, 0.09513635188341140747f, -0.08163651078939437866f, 0.04130450263619422913f, 0.20187526941299438477f, -0.00677528418600559235f, 0.05863138288259506226f, 0.13309441506862640381f, 0.07781885564327239990f, -0.06861713528633117676f, 0.23798476159572601318f, 0.00125962367746978998f, -0.03903434053063392639f, 0.11064194887876510620f, -0.15517944097518920898f, -0.18325063586235046387f, 0.12639255821704864502f, -0.07563095539808273315f, -0.38397392630577087402f, 0.16424323618412017822f, -0.20321801304817199707f, -0.42413538694381713867f},
