// This file is computer-generated by onnx2c 
// (TODO: add creating command line here)
// (TODO: print creation date here )

// ONNX model:
// produced by pytorch, version 2.7.0
// ONNX IR version: 11
// Model documentation: 
/*

*/

#include <float.h>
#include <math.h>
#include <stdbool.h>
#include <stdint.h>
#include <string.h>

#define MAX(X,Y) ( X > Y ? X : Y)
#define MIN(X,Y) ( X < Y ? X : Y)
#define CLIP(X,L) ( MAX(MIN(X,L), -L) )

#if __STDC_VERSION__ < 199901L
#define FUNC_PREFIX
#else
#define FUNC_PREFIX static inline
#endif

static const float tensor_actor_0_weight[64][104] = 
{
  {0.29536756873130798340f, -2.88339972496032714844f, -1.05685770511627197266f, -1.18065989017486572266f, -5.67954254150390625000f, 0.02674181945621967316f, -2.37909913063049316406f, 0.09762752056121826172f, 0.02882641740143299103f, -0.50131684541702270508f, -0.52333575487136840820f, -0.14379687607288360596f, 0.00534250913187861443f, 0.35268434882164001465f, -0.08011904358863830566f, 0.01381330098956823349f, -0.27142295241355895996f, 0.05176718905568122864f, -0.07561735808849334717f, 1.41169488430023193359f, 0.17583341896533966064f, -0.10587530583143234253f, 1.05031251907348632812f, -0.02372008748352527618f, 0.24872784316539764404f, 0.06264454126358032227f, -0.04719911515712738037f, -0.05025676265358924866f, 0.00627791043370962143f, -0.12851032614707946777f, 0.22042766213417053223f, -0.26778665184974670410f, 0.01878247968852519989f, 0.09912971407175064087f, -0.19092346727848052979f, 0.02589038759469985962f, 0.24714025855064392090f, -0.47043067216873168945f, 0.16613093018531799316f, -0.04046243056654930115f, 0.67471635341644287109f, 0.10597942769527435303f, 0.09738108515739440918f, -0.68753170967102050781f, -0.06092296913266181946f, -0.01817110367119312286f, -0.23427149653434753418f, -0.02756383828818798065f, 0.17282804846763610840f, -0.36903536319732666016f, -0.01050850003957748413f, -0.13230828940868377686f, 0.72556692361831665039f, -0.01203512959182262421f, 0.11681253463029861450f, -0.11281279474496841431f, 0.01387385092675685883f, -0.06584914773702621460f, 0.27278196811676025391f, 0.06576675921678543091f, 0.11065533012151718140f, 0.42381727695465087891f, 0.00970747601240873337f, 0.05288998037576675415f, -0.14912445843219757080f, -0.05599386245012283325f, 0.00683886045590043068f, -0.91616231203079223633f, 0.21878521144390106201f, 0.00028846747591160238f, 0.40387549996376037598f, 0.13479880988597869873f, -0.12741318345069885254f, -1.04038786888122558594f, -0.04805577173829078674f, -0.12360134720802307129f, -0.24493198096752166748f, 0.09563440084457397461f, -0.31639209389686584473f, 0.46251192688941955566f, -0.02661352418363094330f, 0.20988254249095916748f, -0.50588059425354003906f, -0.09942947328090667725f, -0.30344095826148986816f, 0.01974314637482166290f, -0.05506211519241333008f, 0.05252868309617042542f, 0.51637876033782958984f, -0.05263868346810340881f, 0.17960415780544281006f, 0.23959808051586151123f, 0.06756755709648132324f, -0.05928198248147964478f, 0.87246918678283691406f, 0.30876737833023071289f, -0.06262785941362380981f, 0.86185288429260253906f, 0.26855063438415527344f, 0.59552466869354248047f, 0.85804992914199829102f, 0.31636238098144531250f, 0.93768060207366943359f, 0.37753620743751525879f},
  {0.30104237794876098633f, -0.32317936420440673828f, -8.05540847778320312500f, -0.06851755082607269287f, -0.00113725906703621149f, -0.45391961932182312012f, 0.01310010254383087158f, -0.01411183830350637436f, -0.04019549489021301270f, -0.03220074996352195740f, -0.58315032720565795898f, -0.01839283108711242676f, -0.01654815115034580231f, -0.30750462412834167480f, -0.04198629036545753479f, -0.01197933591902256012f, -0.13772368431091308594f, -0.04423906654119491577f, 0.01063558459281921387f, -0.07699019461870193481f, -0.01678498461842536926f, -0.00045026096631772816f, -0.09386974573135375977f, -0.03350551798939704895f, 0.02719532139599323273f, -0.22993659973144531250f, -0.03064051643013954163f, -0.00326044019311666489f, -0.07695968449115753174f, -0.02001056447625160217f, 0.01715305820107460022f, -0.11088523268699645996f, -0.01014827843755483627f, 0.03537898883223533630f, -0.06333988159894943237f, -0.01005213521420955658f, 0.00699962908402085304f, -0.18123076856136322021f, -0.01234791427850723267f, 0.04255792871117591858f, 0.09761849790811538696f, 0.00306434906087815762f, 0.00033719229395501316f, -0.08053224533796310425f, 0.00240379152819514275f, -0.01612130552530288696f, -0.16038526594638824463f, -0.02415021695196628571f, -0.00693600531667470932f, -0.17033340036869049072f, -0.01402092818170785904f, -0.02460666745901107788f, -0.13914345204830169678f, 0.00370677001774311066f, -0.01906853914260864258f, -0.06736949831247329712f, 0.03985342010855674744f, -0.03800572454929351807f, -0.26460024714469909668f, 0.02617028914391994476f, -0.02873537689447402954f, -0.01270165294408798218f, 0.01109950803220272064f, -0.03203484043478965759f, 0.07621238380670547485f, 0.00014113612996879965f, -0.03710296750068664551f, -0.09411244839429855347f, -0.04238991811871528625f, 0.02617086283862590790f, -0.05667199566960334778f, 0.00506703136488795280f, -0.05924216285347938538f, 0.02082621119916439056f, -0.01035624463111162186f, 0.01741902716457843781f, 0.01240476407110691071f, -0.02206575870513916016f, -0.06605660915374755859f, -0.05311252549290657043f, 0.00498285098001360893f, -0.01594602130353450775f, 0.07535278052091598511f, -0.04896716773509979248f, -0.03493786975741386414f, 0.03725316375494003296f, -0.02953281812369823456f, -0.01536254771053791046f, 0.04137032851576805115f, -0.01387306302785873413f, -0.00287728267721831799f, 0.13808527588844299316f, -0.02048809826374053955f, 0.01730073802173137665f, 0.28228449821472167969f, 0.01877794787287712097f, 0.06148878484964370728f, 0.41759714484214782715f, -0.09418208152055740356f, 0.08085297048091888428f, 0.68918842077255249023f, -0.16382683813571929932f, 0.16292256116867065430f, 1.33015072345733642578f},
  {-1.55277514457702636719f, -4.16974115371704101562f, -1.33785820007324218750f, 1.56095433235168457031f, -2.34856033325195312500f, -4.35890626907348632812f, -0.00547293107956647873f, -0.05822225660085678101f, -0.45750206708908081055f, -0.66785538196563720703f, 0.81486159563064575195f, -0.27287384867668151855f, -0.05840820446610450745f, 0.57361525297164916992f, 0.04499477148056030273f, 0.25013151764869689941f, -0.52404952049255371094f, -0.04112150147557258606f, 0.16989494860172271729f, 0.59377574920654296875f, 0.10839917510747909546f, 0.12082466483116149902f, -0.15017656981945037842f, 0.07969637215137481689f, -0.05953498184680938721f, 0.25060176849365234375f, 0.04588638991117477417f, 0.00366387632675468922f, 0.02034964598715305328f, 0.05889639258384704590f, 0.09298495948314666748f, -0.05082390084862709045f, -0.05044845119118690491f, -0.08780089765787124634f, -0.15912401676177978516f, -0.04183511808514595032f, -0.02662160061299800873f, 0.05725497007369995117f, -0.02823066897690296173f, 0.01820181310176849365f, 0.59981477260589599609f, 0.01710986346006393433f, 0.07214574515819549561f, -0.14351929724216461182f, -0.14256179332733154297f, -0.15084350109100341797f, -0.06557949632406234741f, -0.02766546048223972321f, -0.08046094328165054321f, -0.04498618468642234802f, -0.00475887116044759750f, -0.04063979163765907288f, 0.12094062566757202148f, -0.07212027162313461304f, 0.06179094687104225159f, 0.20237837731838226318f, -0.05606615915894508362f, -0.08586047589778900146f, -0.04514461383223533630f, -0.04649012908339500427f, -0.05888129398226737976f, 0.41587582230567932129f, 0.04702059179544448853f, -0.02524057589471340179f, 0.08482424914836883545f, -0.01134076528251171112f, -0.04214132204651832581f, -0.47677281498908996582f, 0.01109779439866542816f, -0.23488882184028625488f, -0.20202273130416870117f, -0.11144963651895523071f, 0.06576820462942123413f, 0.28837749361991882324f, -0.16100935637950897217f, -0.20230685174465179443f, -0.09504584968090057373f, -0.03417719900608062744f, -0.10877783596515655518f, -0.00497719319537281990f, -0.12477845698595046997f, -0.00902676954865455627f, -0.06789362430572509766f, 0.01719753257930278778f, -0.10285781323909759521f, -0.18273364007472991943f, -0.21387764811515808105f, -0.10821120440959930420f, 0.11928381770849227905f, 0.15472956001758575439f, -0.18989455699920654297f, 0.29766917228698730469f, 0.11349293589591979980f, -0.17091420292854309082f, 0.33959701657295227051f, 0.09109228849411010742f, -0.06368718296289443970f, 0.15416771173477172852f, 0.12723009288311004639f, 0.56557506322860717773f, -0.20358347892761230469f, 0.32436946034431457520f, 1.82085001468658447266f, -0.63780140876770019531f},
  {-11.63474273681640625000f, -2.18147087097167968750f, 1.48558115959167480469f, 0.41189935803413391113f, -2.57808923721313476562f, -0.07665537297725677490f, 0.20743797719478607178f, 0.03396761417388916016f, 0.22800475358963012695f, -0.27920955419540405273f, 0.28949868679046630859f, -0.08976158499717712402f, -0.09760069847106933594f, 0.10850775241851806641f, -0.13757984340190887451f, -0.08797542750835418701f, -0.06642025709152221680f, -0.16260801255702972412f, 0.06873701512813568115f, -0.14489126205444335938f, -0.15418621897697448730f, -0.03420824930071830750f, -0.15789432823657989502f, -0.15190075337886810303f, 0.00127521692775189877f, -0.03900997340679168701f, -0.11530149728059768677f, -0.01901326142251491547f, 0.23686835169792175293f, -0.04242188110947608948f, -0.08903867006301879883f, -0.13951461017131805420f, -0.02411677315831184387f, -0.00503289839252829552f, 0.00361861521378159523f, -0.08347216993570327759f, -0.00813689641654491425f, -0.13935261964797973633f, -0.08547260612249374390f, -0.00028318518889136612f, 0.11634948104619979858f, -0.07382362335920333862f, -0.02914585731923580170f, -0.12279094010591506958f, 0.01023433078080415726f, 0.03364760801196098328f, 0.13756805658340454102f, -0.12847898900508880615f, -0.03859756514430046082f, -0.03726034611463546753f, -0.10350216180086135864f, -0.06593339145183563232f, 0.22685578465461730957f, -0.12532246112823486328f, -0.07825467735528945923f, -0.15650629997253417969f, -0.14336420595645904541f, -0.05285492166876792908f, -0.36475887894630432129f, -0.08433102816343307495f, -0.03324773907661437988f, -0.27448931336402893066f, -0.12007518857717514038f, -0.05447370558977127075f, 0.21568883955478668213f, -0.06258954107761383057f, -0.06225833296775817871f, 0.08515994250774383545f, -0.11561170965433120728f, -0.01746165007352828979f, 0.11773938685655593872f, -0.06392405927181243896f, -0.07613351941108703613f, 0.10981937497854232788f, -0.02850773930549621582f, -0.04676279425621032715f, 0.12643209099769592285f, -0.05342125520110130310f, 0.02156355790793895721f, 0.32335951924324035645f, -0.08110942691564559937f, 0.03415226936340332031f, -0.11482256650924682617f, -0.11218843609094619751f, -0.14458827674388885498f, -0.40288054943084716797f, -0.10255403816699981689f, 0.02623350918292999268f, -0.15666557848453521729f, -0.22550132870674133301f, -0.00276005174964666367f, -0.32490232586860656738f, -0.16919408738613128662f, -0.00991263333708047867f, -0.04480802640318870544f, -0.21295467019081115723f, -0.03668190538883209229f, 0.01876559294760227203f, -0.31357586383819580078f, 0.04129060357809066772f, 0.22151830792427062988f, -0.79870396852493286133f, 0.20256944000720977783f, -0.10116353631019592285f},
  {-0.03023681975901126862f, 0.00104537222068756819f, 0.02301638387143611908f, 0.00599617883563041687f, 0.02393865212798118591f, -0.02261527441442012787f, 0.01501603983342647552f, 0.00549865653738379478f, -0.02989552915096282959f, 0.01385042350739240646f, 0.08773087710142135620f, 0.01923039183020591736f, 0.00541031034663319588f, -0.05431041866540908813f, 0.00600568205118179321f, 0.01407229993492364883f, -0.08966897428035736084f, 0.00289240712299942970f, 0.04078098759055137634f, -0.06395014375448226929f, 0.01461361441761255264f, -0.00694161979481577873f, -0.00202448549680411816f, 0.05825404822826385498f, -0.02147442288696765900f, -0.00289346114732325077f, -0.00340799824334681034f, -0.01119755022227764130f, 0.01973047293722629547f, -0.00315428059548139572f, 0.00565683981403708458f, -0.01644930802285671234f, -0.01368774194270372391f, 0.00459039723500609398f, 0.18009369075298309326f, -0.00354094337671995163f, -0.02442535199224948883f, -0.06449186056852340698f, -0.00490527739748358727f, -0.02463306859135627747f, -0.01236061379313468933f, -0.01155343558639287949f, 0.00235654716379940510f, -0.02921604178845882416f, 0.00161287351511418819f, -0.00731808878481388092f, -0.00078406289685517550f, 0.00440775416791439056f, -0.03826060146093368530f, 0.05654476210474967957f, 0.02355923317372798920f, 0.00904526747763156891f, -0.12617596983909606934f, -0.00288249016739428043f, -0.02583786100149154663f, 0.04496825486421585083f, -0.00469250092282891273f, -0.03451279550790786743f, 0.04121324419975280762f, -0.00922195054590702057f, 0.01599215157330036163f, -0.12240392714738845825f, -0.01018537394702434540f, 0.03060682676732540131f, -0.12238770723342895508f, -0.01032145414501428604f, 0.03035649657249450684f, -0.02193064428865909576f, -0.00063842337112873793f, 0.03564308583736419678f, 0.07271828502416610718f, -0.04047041386365890503f, -0.00718720210716128349f, -0.17899750173091888428f, -0.03654087707400321960f, -0.01109212264418601990f, -0.01538808178156614304f, -0.00123058655299246311f, -0.02596324682235717773f, -0.07234525680541992188f, 0.02392836846411228180f, 0.02058689668774604797f, -0.01221157331019639969f, 0.00647026672959327698f, 0.00946828350424766541f, -0.00537637341767549515f, 0.00487738708034157753f, -0.01313527859747409821f, 0.10999785363674163818f, 0.00760720670223236084f, -0.00289496593177318573f, -0.10396627336740493774f, 0.01462391205132007599f, 0.02354268543422222137f, 0.05754857510328292847f, 0.03102867491543292999f, 0.00599986687302589417f, 0.04103580489754676819f, 0.01864494197070598602f, -0.01473825424909591675f, 0.09392153471708297729f, -0.01011269353330135345f, -0.00156492111273109913f, 0.10293770581483840942f},
  {-0.13691282272338867188f, -0.06239273026585578918f, 0.06935024261474609375f, 0.01063010841608047485f, -0.02740427479147911072f, 0.00481769302859902382f, 0.02718091569840908051f, -0.01489299256354570389f, 0.05894574150443077087f, 0.02520905248820781708f, -0.13851422071456909180f, 0.00006693059549434111f, 0.03531532734632492065f, -0.09203860908746719360f, -0.02274848893284797668f, 0.01866269297897815704f, -0.02548393793404102325f, -0.04932946339249610901f, 0.01331187319010496140f, -0.04078878462314605713f, -0.02227205596864223480f, 0.00263691274449229240f, -0.09153217077255249023f, -0.01774177700281143188f, 0.01164610870182514191f, 0.11211069673299789429f, -0.01125036645680665970f, 0.00863085780292749405f, 0.00801281351596117020f, 0.01360416039824485779f, 0.02364167012274265289f, -0.13864113390445709229f, 0.01772391051054000854f, -0.01893744803965091705f, -0.00534171750769019127f, 0.02872652187943458557f, -0.03267337381839752197f, 0.05066946893930435181f, 0.01807802915573120117f, -0.01690679602324962616f, -0.04245587438344955444f, 0.01613339781761169434f, -0.00065251428168267012f, 0.11217018216848373413f, 0.03263559192419052124f, 0.00585677335038781166f, 0.05309396982192993164f, -0.00178262789268046618f, -0.00112279481254518032f, 0.13158072531223297119f, -0.01893539726734161377f, -0.00622519664466381073f, 0.07236063480377197266f, 0.00295527256093919277f, 0.02378692850470542908f, 0.04013988003134727478f, -0.01987508311867713928f, 0.02719074860215187073f, -0.11900471150875091553f, -0.03667699545621871948f, 0.02190075814723968506f, -0.01520179864019155502f, -0.02176729775965213776f, 0.03154848515987396240f, 0.00012230491847731173f, -0.01527613960206508636f, 0.02084606885910034180f, -0.07428888231515884399f, -0.00346026313491165638f, 0.03129684552550315857f, 0.08122962713241577148f, -0.00793283339589834213f, -0.00659116310998797417f, 0.18089306354522705078f, -0.00825550500303506851f, 0.01203106623142957687f, -0.15100322663784027100f, -0.03670425713062286377f, -0.02272127941250801086f, 0.01213952247053384781f, -0.00809068512171506882f, -0.01147384662181138992f, 0.11740588396787643433f, 0.00642792787402868271f, -0.03110535070300102234f, -0.00612521078437566757f, 0.01347142644226551056f, -0.03510968014597892761f, -0.20945149660110473633f, -0.00695902248844504356f, -0.01705360040068626404f, 0.13847303390502929688f, -0.00556483119726181030f, -0.03053096681833267212f, 0.20311705768108367920f, 0.01349902525544166565f, -0.00531793851405382156f, 0.01083659939467906952f, 0.00463165529072284698f, 0.01800787262618541718f, -0.12890359759330749512f, 0.01103909872472286224f, 0.06940080225467681885f, -0.24203693866729736328f},
  {-0.01447057258337736130f, -0.03299180045723915100f, -0.07763585448265075684f, 0.00205272133462131023f, 0.01122012548148632050f, 0.00111244863364845514f, 0.00148669560439884663f, -0.00631454214453697205f, 0.00146840943489223719f, -0.00837983097881078720f, 0.07834313809871673584f, -0.01621765084564685822f, -0.01506138872355222702f, -0.10139672458171844482f, 0.02651613578200340271f, 0.01142531912773847580f, 0.10400459915399551392f, -0.01838721334934234619f, -0.00349206128157675266f, 0.07798689603805541992f, -0.00105399510357528925f, 0.01824384927749633789f, 0.06234552711248397827f, -0.01408548466861248016f, 0.04255305603146553040f, -0.04733442142605781555f, 0.02405692078173160553f, 0.00314755132421851158f, 0.02062247693538665771f, -0.01055107358843088150f, -0.03190587460994720459f, -0.13464483618736267090f, -0.00028766968171112239f, 0.01303862966597080231f, -0.06638376414775848389f, 0.00825744215399026871f, 0.02106797136366367340f, 0.03449790924787521362f, -0.01420314423739910126f, -0.01761258579790592194f, -0.03794679418206214905f, 0.00373549992218613625f, -0.01448582205921411514f, 0.05811607092618942261f, -0.00025368810747750103f, 0.00992454588413238525f, 0.03335178270936012268f, 0.00815552100539207458f, 0.00103245000354945660f, -0.06413654237985610962f, -0.00927644316107034683f, -0.00711387069895863533f, 0.05842199921607971191f, -0.01972769945859909058f, -0.00667960522696375847f, -0.01180719956755638123f, 0.02662468887865543365f, -0.01249614264816045761f, 0.01199451927095651627f, -0.00345886358991265297f, -0.02089468017220497131f, -0.07024823129177093506f, 0.02158614993095397949f, 0.00408452749252319336f, 0.03597057983279228210f, 0.03439505025744438171f, 0.00204583886079490185f, -0.08701374381780624390f, 0.00744406739249825478f, 0.00606625946238636971f, 0.13395771384239196777f, -0.02217892929911613464f, -0.01860829442739486694f, 0.11748802661895751953f, -0.04434347152709960938f, 0.00737386848777532578f, -0.12150889635086059570f, -0.02084990404546260834f, 0.00088481354760006070f, -0.09811080247163772583f, 0.01378850545734167099f, -0.00645137764513492584f, 0.07813678681850433350f, 0.01139299105852842331f, -0.00890717748552560806f, -0.00439291121438145638f, 0.01114210393279790878f, 0.00899431854486465454f, 0.15236778557300567627f, 0.00485006207600235939f, 0.03090784139931201935f, -0.06458291411399841309f, 0.01521870121359825134f, 0.01071072649210691452f, -0.02916181273758411407f, 0.01903704926371574402f, 0.00092177384067326784f, -0.00283609330654144287f, -0.02613329514861106873f, -0.01679080165922641754f, -0.05888323113322257996f, -0.00680117914453148842f, -0.03712983429431915283f, -0.17733590304851531982f},
  {-0.07919782400131225586f, -0.08460003882646560669f, -0.26838091015815734863f, -0.00896863266825675964f, -0.02512547373771667480f, -0.02527677454054355621f, -0.00413599330931901932f, -0.03581977263092994690f, 0.00845027528703212738f, -0.01743840053677558899f, -0.22439104318618774414f, 0.00878510624170303345f, 0.03075155429542064667f, -0.09254437685012817383f, 0.01343895401805639267f, 0.00057380716316401958f, -0.01099252421408891678f, 0.03010858222842216492f, -0.04620261490345001221f, -0.05836279690265655518f, 0.01298702321946620941f, -0.05507776141166687012f, 0.04033416137099266052f, 0.00936803780496120453f, -0.02872753515839576721f, 0.22963722050189971924f, 0.03827366232872009277f, -0.00296226190403103828f, -0.00007264612941071391f, -0.01369990129023790359f, 0.03557972609996795654f, 0.05188540369272232056f, 0.00105622003320604563f, 0.00792350992560386658f, -0.02612321265041828156f, -0.02661379426717758179f, 0.00648789200931787491f, -0.20864598453044891357f, 0.02462443709373474121f, 0.02267755381762981415f, 0.04275587946176528931f, -0.02139444649219512939f, 0.05258686468005180359f, 0.02189151383936405182f, 0.02684382721781730652f, -0.00042211738764308393f, -0.07991103827953338623f, 0.00791955739259719849f, 0.00411612540483474731f, 0.02458527125418186188f, 0.02403287030756473541f, -0.00230169110000133514f, -0.05721829086542129517f, -0.01873980462551116943f, 0.00331270345486700535f, -0.03348385170102119446f, -0.02915677428245544434f, 0.02808794006705284119f, 0.12399071455001831055f, -0.03896218165755271912f, 0.01057061553001403809f, 0.01484102383255958557f, -0.02797500975430011749f, -0.00238625588826835155f, -0.14341789484024047852f, -0.00523263635113835335f, 0.03461029380559921265f, 0.12134799361228942871f, 0.01969788037240505219f, 0.03102639131247997284f, -0.06753580272197723389f, 0.04514530673623085022f, -0.03500359132885932922f, -0.03460910916328430176f, -0.00737482495605945587f, -0.00051619898295029998f, 0.04429392516613006592f, -0.00314305280335247517f, -0.00949676614254713058f, 0.05845693871378898621f, -0.03160199150443077087f, 0.01246455870568752289f, -0.12130293995141983032f, -0.01428190246224403381f, -0.07286651432514190674f, -0.00378079968504607677f, -0.02486976608633995056f, -0.03136395290493965149f, -0.12273523956537246704f, 0.01219839043915271759f, 0.01236542221158742905f, 0.11469097435474395752f, -0.02201583795249462128f, 0.00015108808293007314f, 0.04364003241062164307f, -0.00253822212107479572f, -0.02650708146393299103f, 0.04728919267654418945f, -0.00357446516864001751f, -0.00135163590312004089f, 0.02224489860236644745f, 0.03859760239720344543f, -0.01415937673300504684f, 0.02652193233370780945f},
  {1.02034294605255126953f, 2.33509802818298339844f, -8.45098972320556640625f, 0.24379184842109680176f, 0.28831210732460021973f, 0.28150320053100585938f, -0.13512410223484039307f, 0.04159557819366455078f, 0.12955656647682189941f, 0.36191773414611816406f, -0.39810082316398620605f, 0.03816119581460952759f, 0.12015738338232040405f, -0.29063144326210021973f, 0.10056795924901962280f, -0.00277042808011174202f, 0.20066681504249572754f, 0.04983152821660041809f, 0.05360262840986251831f, 0.21755720674991607666f, 0.01450158376246690750f, 0.00620567332953214645f, 0.00113451573997735977f, 0.02710992656648159027f, -0.12894412875175476074f, 0.28172829747200012207f, -0.00785383023321628571f, -0.05097373202443122864f, 0.10618900507688522339f, 0.03581720218062400818f, -0.07591857761144638062f, 0.08130465447902679443f, 0.13526241481304168701f, 0.08864948898553848267f, -0.00402081292122602463f, 0.03198069706559181213f, 0.04872932657599449158f, 0.06246000528335571289f, -0.01686528883874416351f, -0.02610643394291400909f, -0.09950352460145950317f, 0.01522441394627094269f, -0.02884024940431118011f, 0.20021784305572509766f, -0.02162901125848293304f, 0.06660364568233489990f, 0.02275432273745536804f, 0.04894432798027992249f, 0.03223564475774765015f, -0.28384295105934143066f, 0.05108350515365600586f, 0.00170291936956346035f, -0.10694336891174316406f, -0.03832423314452171326f, 0.05263483524322509766f, -0.29133549332618713379f, -0.03826995939016342163f, 0.00842797197401523590f, -0.07255279272794723511f, -0.01611842215061187744f, 0.00681751966476440430f, -0.09057014435529708862f, -0.01079052034765481949f, 0.04141796380281448364f, 0.10946985334157943726f, -0.03275060281157493591f, 0.10810635983943939209f, -0.37397488951683044434f, -0.05911828577518463135f, 0.01604283414781093597f, -0.03770944848656654358f, -0.02526296488940715790f, 0.06180191412568092346f, -0.33930498361587524414f, 0.00070262840017676353f, -0.02096023783087730408f, -0.22666898369789123535f, 0.01259901095181703568f, 0.04993203654885292053f, 0.15678735077381134033f, -0.04504599422216415405f, 0.02789937146008014679f, -0.20084081590175628662f, 0.05751676112413406372f, -0.05364824831485748291f, -0.07154824584722518921f, 0.03181490302085876465f, 0.06870082020759582520f, -0.29246339201927185059f, 0.01409854367375373840f, -0.08359232544898986816f, -0.47545087337493896484f, 0.05792432650923728943f, -0.13731691241264343262f, -0.17992629110813140869f, 0.04095220565795898438f, -0.21998594701290130615f, -0.35095611214637756348f, 0.01183545775711536407f, -0.22495843470096588135f, 0.33841091394424438477f, -0.00113531481474637985f, -0.39323705434799194336f, 1.34711802005767822266f},
  {-0.05438877642154693604f, -0.03805617243051528931f, 0.05202113837003707886f, -0.01117301639169454575f, 0.00437197368592023849f, 0.05346879363059997559f, -0.00855626631528139114f, 0.04373317956924438477f, 0.02146906964480876923f, -0.01343884319067001343f, -0.20353016257286071777f, 0.00249453401193022728f, 0.06053095310926437378f, 0.13353189826011657715f, -0.00556509429588913918f, 0.05204486846923828125f, 0.04572785273194313049f, 0.01979936845600605011f, 0.01341909449547529221f, -0.00154232361819595098f, -0.00343428854830563068f, 0.00879083480685949326f, -0.03301112726330757141f, -0.00458965171128511429f, -0.00605417042970657349f, 0.01445289980620145798f, 0.00534025067463517189f, 0.00150693161413073540f, 0.12089685350656509399f, -0.02581629343330860138f, 0.02604521438479423523f, -0.02935941889882087708f, -0.03743613883852958679f, -0.04213649034500122070f, 0.03633690997958183289f, 0.00210013799369335175f, -0.02081419527530670166f, 0.04525391012430191040f, -0.01524915173649787903f, -0.00623943749815225601f, 0.08242879807949066162f, -0.01767960749566555023f, -0.05163882300257682800f, 0.03212300688028335571f, -0.01779027655720710754f, -0.01190739683806896210f, 0.02177570573985576630f, 0.01271880697458982468f, 0.00403316132724285126f, 0.06822293251752853394f, 0.02174408361315727234f, 0.01250751130282878876f, 0.16853770613670349121f, -0.01655389554798603058f, 0.01426165737211704254f, -0.05543864145874977112f, 0.00197847140952944756f, 0.00353905581869184971f, 0.22553025186061859131f, 0.00692720338702201843f, 0.00858472939580678940f, 0.02430062741041183472f, -0.02460261248052120209f, 0.00752274319529533386f, 0.10231179744005203247f, 0.00470199668779969215f, 0.01642437465488910675f, 0.05530060082674026489f, -0.00158150203060358763f, 0.00490861479192972183f, -0.11709949374198913574f, -0.02818496525287628174f, -0.01817553117871284485f, 0.11315890401601791382f, -0.03426741808652877808f, -0.02691294252872467041f, -0.19126433134078979492f, -0.02171352691948413849f, -0.01677775010466575623f, -0.05899760127067565918f, 0.00485757272690534592f, -0.02747078239917755127f, -0.11007153242826461792f, -0.01530332397669553757f, -0.01391284260898828506f, 0.05240879207849502563f, 0.02582237869501113892f, -0.03076524846255779266f, -0.15159960091114044189f, -0.01137100439518690109f, -0.03157468885183334351f, -0.07473922520875930786f, -0.02393583394587039948f, -0.01359037216752767563f, -0.11619709432125091553f, -0.03232839331030845642f, 0.02770339697599411011f, -0.13008433580398559570f, 0.02698361128568649292f, 0.01807538233697414398f, 0.02089110389351844788f, 0.03246225044131278992f, -0.01326668076217174530f, -0.00610380154103040695f},
  {-0.05173133313655853271f, -0.01103401277214288712f, 0.01763647608458995819f, 0.00489983242005109787f, -0.03667538240551948547f, -0.01762568764388561249f, 0.00420913239941000938f, -0.00286375079303979874f, 0.01273733377456665039f, 0.03236908838152885437f, 0.07833288609981536865f, 0.04862933233380317688f, 0.02953518368303775787f, -0.10418361425399780273f, -0.01302948966622352600f, 0.00184589601121842861f, 0.01264350395649671555f, -0.00998551212251186371f, -0.01691746525466442108f, -0.11737327277660369873f, -0.02196459099650382996f, -0.00862930808216333389f, -0.08921609073877334595f, 0.01029329840093851089f, 0.00870100129395723343f, -0.05964532122015953064f, 0.00848661921918392181f, -0.02603637427091598511f, 0.02589637413620948792f, 0.00268333218991756439f, -0.01663330383598804474f, 0.03861147537827491760f, -0.00595661066472530365f, 0.05710195377469062805f, -0.01727714948356151581f, 0.00264725531451404095f, 0.02967349812388420105f, 0.07817621529102325439f, 0.00081916683120653033f, 0.01003707386553287506f, -0.04816186055541038513f, -0.02386840991675853729f, 0.01028909813612699509f, -0.06569402664899826050f, -0.00349148339591920376f, -0.00302790175192058086f, -0.06039977073669433594f, 0.00555592263117432594f, 0.00355016370303928852f, 0.01641061715781688690f, -0.00889644306153059006f, 0.00230492139235138893f, -0.05683222413063049316f, -0.04267194122076034546f, -0.00167624687310308218f, 0.08614631742238998413f, 0.02558160200715065002f, -0.00163750513456761837f, -0.08466138690710067749f, 0.04019918665289878845f, 0.01093122642487287521f, -0.04913040995597839355f, 0.03449982032179832458f, -0.03529518842697143555f, -0.05478343740105628967f, 0.05151294171810150146f, 0.00293351174332201481f, -0.02971014566719532013f, 0.01519708521664142609f, -0.01843104511499404907f, 0.10721052438020706177f, 0.01883179321885108948f, 0.01334289833903312683f, 0.11897677183151245117f, -0.00581743847578763962f, 0.00263427849858999252f, 0.18062800168991088867f, 0.02060263417661190033f, 0.02016622945666313171f, -0.00967107526957988739f, 0.01142384391278028488f, -0.01987062208354473114f, -0.05250615626573562622f, -0.03088377974927425385f, 0.01264447625726461411f, 0.14737841486930847168f, -0.03586983680725097656f, -0.01027203537523746490f, 0.10335032641887664795f, 0.03729393705725669861f, -0.01123762875795364380f, -0.12168183922767639160f, 0.00336275296285748482f, -0.01601415686309337616f, -0.00076946581248193979f, -0.00622072210535407066f, 0.01334584038704633713f, 0.01819147169589996338f, -0.02902851812541484833f, -0.03303508833050727844f, 0.16518096625804901123f, -0.06480768322944641113f, 0.01902939192950725555f, -0.02409238554537296295f},
  {0.36289864778518676758f, -9.28417015075683593750f, -0.47712951898574829102f, -0.03766638785600662231f, 3.25989151000976562500f, 0.85146731138229370117f, 0.41131287813186645508f, -0.05976771935820579529f, 0.12581463158130645752f, 0.60708212852478027344f, -0.79711043834686279297f, 0.04180359467864036560f, 0.07477482408285140991f, -0.56992810964584350586f, -0.00586542673408985138f, -0.11817343533039093018f, -0.05592796951532363892f, -0.00039660095353610814f, -0.12790907919406890869f, -0.23140923678874969482f, 0.03733317926526069641f, -0.07199965417385101318f, -0.01348328031599521637f, -0.07247755676507949829f, -0.04163653403520584106f, -0.39705264568328857422f, -0.01769706420600414276f, -0.14340429008007049561f, -0.56774783134460449219f, -0.01951513625681400299f, -0.13912075757980346680f, -0.01660064980387687683f, 0.03794334083795547485f, -0.05625557154417037964f, -0.14124312996864318848f, 0.02790584042668342590f, -0.10510320961475372314f, -0.01873161643743515015f, -0.01629628054797649384f, -0.12782359123229980469f, -0.42881083488464355469f, 0.06192353367805480957f, -0.05829054117202758789f, -0.40911754965782165527f, -0.00296409521251916885f, -0.06285083293914794922f, 0.02647462114691734314f, 0.04199643433094024658f, -0.02897755056619644165f, -0.22457487881183624268f, 0.02258561551570892334f, -0.01689463667571544647f, -0.08172631263732910156f, 0.00495246658101677895f, -0.06574986875057220459f, -0.06152871251106262207f, 0.04537804797291755676f, 0.03673730790615081787f, -0.19340956211090087891f, -0.03784483298659324646f, -0.04871334880590438843f, -0.17842622101306915283f, -0.05283714458346366882f, -0.06318999826908111572f, -0.66620880365371704102f, -0.04042356461286544800f, 0.03596571087837219238f, -0.06278516352176666260f, 0.09734123945236206055f, -0.04786034300923347473f, -0.00202683010138571262f, 0.02713165804743766785f, -0.05852194875478744507f, -0.38143438100814819336f, 0.03393478319048881531f, -0.02963123284280300140f, -0.03410021215677261353f, -0.01356642507016658783f, -0.05784381926059722900f, -0.03310148790478706360f, 0.03581300005316734314f, -0.01154352724552154541f, -0.33989891409873962402f, 0.06612334400415420532f, -0.01390654128044843674f, -0.24491102993488311768f, 0.12661407887935638428f, -0.04140694439411163330f, -0.37148007750511169434f, 0.00526212714612483978f, 0.00036279289633966982f, -0.29338598251342773438f, 0.06373608857393264771f, -0.02314983308315277100f, -0.33634820580482482910f, 0.07706714421510696411f, -0.10532490909099578857f, -0.28221583366394042969f, 0.08122734725475311279f, -0.47209319472312927246f, -0.33048605918884277344f, 0.06191053614020347595f, -1.08863365650177001953f, 0.20683586597442626953f},
  {-0.05852781236171722412f, -0.02435156330466270447f, 0.04867601394653320312f, 0.01376766245812177658f, -0.01298824418336153030f, -0.02661796845495700836f, 0.00408175308257341385f, 0.03512265533208847046f, -0.01294661313295364380f, -0.06438389420509338379f, 0.09476954489946365356f, 0.00531591475009918213f, -0.03468034416437149048f, 0.03594695776700973511f, 0.00219679973088204861f, -0.01029305718839168549f, -0.16415828466415405273f, -0.01964399777352809906f, 0.01389367692172527313f, 0.03495146334171295166f, -0.04474193230271339417f, -0.00602872297167778015f, 0.02631605789065361023f, -0.00761244073510169983f, 0.01118386816233396530f, -0.22067013382911682129f, -0.01771206967532634735f, 0.01474621705710887909f, 0.08702923357486724854f, 0.02643156051635742188f, 0.01504379510879516602f, -0.04354927688837051392f, -0.01236159168183803558f, -0.01640308275818824768f, 0.14108552038669586182f, -0.01299921050667762756f, 0.01664177142083644867f, -0.00993020460009574890f, -0.00589687796309590340f, -0.00324811739847064018f, 0.06940466165542602539f, 0.02419111505150794983f, -0.00251142308115959167f, 0.04455490037798881531f, 0.00598189374431967735f, 0.00240405998192727566f, -0.03002462908625602722f, 0.02576252445578575134f, -0.01654522866010665894f, 0.04295757040381431580f, 0.01577623374760150909f, -0.00133412925060838461f, -0.02371781691908836365f, 0.01761223375797271729f, 0.01152346469461917877f, 0.06400877237319946289f, -0.02154337428510189056f, -0.00036416421062313020f, 0.11011444777250289917f, -0.00321706850081682205f, -0.01483278628438711166f, -0.14671677350997924805f, 0.00434192037209868431f, 0.02351244911551475525f, 0.08673942834138870239f, -0.00680856686085462570f, -0.02784254401922225952f, -0.03174042701721191406f, -0.01268298551440238953f, -0.00421754643321037292f, -0.11810496449470520020f, 0.01990719512104988098f, -0.00090192566858604550f, -0.11286716163158416748f, -0.00091491115745157003f, 0.02148208580911159515f, 0.17106820642948150635f, -0.00312675489112734795f, 0.05050220340490341187f, 0.11292562633752822876f, 0.01095851603895425797f, 0.05429509654641151428f, -0.09125895053148269653f, 0.03230917826294898987f, 0.00815005321055650711f, -0.03927499428391456604f, 0.00158678484149277210f, 0.01446207053959369659f, 0.06014361977577209473f, -0.04951205477118492126f, -0.02210757881402969360f, -0.01246318500488996506f, -0.02174271456897258759f, -0.01674501784145832062f, -0.03522665798664093018f, 0.00419170968234539032f, -0.02754987031221389771f, -0.04266485944390296936f, 0.04315182194113731384f, 0.00006915809353813529f, 0.04556438699364662170f, 0.00786710809916257858f, 0.01091872807592153549f, 0.08906149119138717651f},
  {8.68375873565673828125f, -7.76326513290405273438f, -0.78771692514419555664f, 1.28847491741180419922f, 1.09366428852081298828f, -2.94448709487915039062f, -1.40388429164886474609f, 0.13747069239616394043f, 0.40738669037818908691f, -0.56367719173431396484f, 0.02115670591592788696f, 0.26676037907600402832f, -0.15022665262222290039f, 0.15681077539920806885f, 0.15296222269535064697f, -0.19075572490692138672f, 0.15203095972537994385f, 0.20414531230926513672f, 0.01492196414619684219f, 0.01338743418455123901f, 0.00251856469549238682f, -0.05768226832151412964f, 0.04277646914124488831f, -0.03555082529783248901f, -0.13698884844779968262f, -0.21772342920303344727f, 0.06444841623306274414f, -0.16323508322238922119f, 0.30854508280754089355f, 0.10680077970027923584f, -0.09913850575685501099f, -0.52693277597427368164f, -0.01976375468075275421f, -0.14841127395629882812f, 0.08308984339237213135f, -0.03505098074674606323f, -0.10929258167743682861f, -0.43559613823890686035f, 0.09622577577829360962f, -0.01819357834756374359f, 0.12518215179443359375f, -0.03163204342126846313f, -0.14926259219646453857f, -0.56922441720962524414f, 0.15639896690845489502f, 0.01149751245975494385f, -0.76303106546401977539f, 0.08325262367725372314f, -0.03704674541950225830f, 0.41773110628128051758f, 0.02604016661643981934f, -0.15729913115501403809f, -0.11244048178195953369f, 0.14316022396087646484f, -0.16804236173629760742f, 0.07428185641765594482f, -0.03032588586211204529f, -0.14633305370807647705f, -0.44717556238174438477f, 0.15932998061180114746f, -0.10533711314201354980f, -0.40977042913436889648f, -0.01146140974014997482f, -0.20569926500320434570f, -0.11747031658887863159f, 0.19603182375431060791f, -0.18690039217472076416f, -0.00535942194983363152f, 0.05569771677255630493f, -0.11049985140562057495f, -0.56996870040893554688f, 0.11092713475227355957f, -0.21125677227973937988f, 0.08142486214637756348f, 0.07460538297891616821f, -0.04871438443660736084f, 0.00400982471182942390f, 0.14398929476737976074f, -0.11009152978658676147f, -0.72567641735076904297f, 0.16550816595554351807f, 0.03558196499943733215f, -0.02968578226864337921f, 0.13774836063385009766f, -0.09140478074550628662f, -0.41294890642166137695f, 0.07139969617128372192f, 0.04727942496538162231f, 0.63168191909790039062f, 0.00564302178099751472f, -0.02730085328221321106f, -0.24050514400005340576f, 0.02939443476498126984f, -0.12739893794059753418f, -0.08283703029155731201f, 0.07872322201728820801f, -0.08856382220983505249f, -0.64483290910720825195f, 0.06836437433958053589f, -0.13433843851089477539f, 0.03465967252850532532f, 0.02832888066768646240f, -0.13490830361843109131f, -1.60561931133270263672f},
  {0.34676992893218994141f, -1.48053669929504394531f, 7.78815841674804687500f, -0.00935407821089029312f, 0.01820916496217250824f, -0.58096182346343994141f, -0.03606644272804260254f, 0.06679090857505798340f, -0.01685592345893383026f, -0.01169957313686609268f, 2.18137073516845703125f, -0.00059397582663223147f, 0.00321169523522257805f, 0.81827127933502197266f, -0.06882327049970626831f, 0.06460455805063247681f, 0.21406540274620056152f, -0.00035175794619135559f, 0.00925457570701837540f, 0.03629206493496894836f, -0.00484133977442979813f, -0.09045430272817611694f, 0.17649649083614349365f, 0.07468899339437484741f, -0.01675867848098278046f, 0.05001644417643547058f, 0.02141177281737327576f, 0.02890089340507984161f, 0.13617844879627227783f, 0.01116596255451440811f, 0.06478902697563171387f, 0.20640704035758972168f, 0.09576318413019180298f, -0.00244725029915571213f, 0.15034656226634979248f, 0.01579152606427669525f, -0.00645324075594544411f, -0.02384556084871292114f, 0.08459854871034622192f, -0.01022077538073062897f, 0.25085976719856262207f, -0.07398700714111328125f, -0.04782965779304504395f, 0.55809003114700317383f, 0.03695921227335929871f, 0.06643095612525939941f, 0.12343257665634155273f, 0.00423502875491976738f, -0.08075260370969772339f, 0.01445832476019859314f, -0.03703356906771659851f, 0.06227631494402885437f, -0.09896314144134521484f, 0.09112682193517684937f, 0.13751633465290069580f, 0.12899842858314514160f, -0.00982303265482187271f, -0.03224284946918487549f, -0.02746286801993846893f, 0.00919360015541315079f, -0.02308209054172039032f, 0.40804228186607360840f, 0.03917450830340385437f, 0.14804349839687347412f, 0.12791886925697326660f, 0.06188439205288887024f, 0.00959148164838552475f, -0.17756518721580505371f, 0.09815707057714462280f, 0.05655261129140853882f, 0.07546421140432357788f, -0.04475170373916625977f, -0.02529574744403362274f, 0.42818829417228698730f, -0.04497859999537467957f, 0.02626024000346660614f, 0.02211835794150829315f, -0.09108119457960128784f, 0.10343084484338760376f, -0.06783453375101089478f, -0.01990189962089061737f, -0.12051067501306533813f, 0.00044001330388709903f, -0.04428966343402862549f, 0.05432146415114402771f, 0.05483433976769447327f, 0.01862503401935100555f, 0.03349184989929199219f, -0.36426141858100891113f, -0.01883139833807945251f, -0.07260790467262268066f, -0.31642311811447143555f, 0.06781022250652313232f, -0.07107564061880111694f, -0.79820483922958374023f, 0.00898496992886066437f, -0.05135608091950416565f, -1.78253233432769775391f, 0.15387055277824401855f, -0.02551263943314552307f, -2.58834600448608398438f, 0.30783480405807495117f, -0.13075597584247589111f, -4.10450220108032226562f},
  {-0.04915042966604232788f, -0.08840201050043106079f, 0.07440739870071411133f, 0.01654583774507045746f, -0.09740455448627471924f, -0.04257165640592575073f, -0.03933905437588691711f, -0.01318617910146713257f, 0.01318783778697252274f, 0.05340716242790222168f, 0.11779752373695373535f, 0.00037219576188363135f, 0.01914361864328384399f, -0.06623180210590362549f, 0.00204287585802376270f, 0.00809945259243249893f, 0.03169537335634231567f, 0.02380502410233020782f, 0.01856037974357604980f, 0.00620191451162099838f, 0.00546877318993210793f, 0.02138005383312702179f, -0.13106960058212280273f, -0.03364172205328941345f, 0.00629832735285162926f, -0.05367960035800933838f, 0.01233352348208427429f, 0.03033943846821784973f, -0.03665267676115036011f, 0.00475542899221181870f, 0.02375437133014202118f, 0.11564647406339645386f, 0.00992511492222547531f, -0.01977503672242164612f, 0.03630827367305755615f, 0.00519252335652709007f, -0.02135550230741500854f, 0.05043404549360275269f, -0.00258894870057702065f, -0.02089954353868961334f, 0.07661969214677810669f, -0.00993463769555091858f, 0.03179262951016426086f, 0.00649101193994283676f, -0.00532499933615326881f, 0.00900887511670589447f, 0.11766727268695831299f, 0.01070147939026355743f, 0.05730743333697319031f, -0.03137572482228279114f, -0.02130150794982910156f, 0.01203364133834838867f, 0.09290044009685516357f, 0.01942536048591136932f, 0.00419071968644857407f, -0.02733330056071281433f, 0.02451452799141407013f, -0.00491550192236900330f, 0.05362686514854431152f, 0.00671073002740740776f, 0.03303015604615211487f, 0.24527880549430847168f, -0.00070724025135859847f, -0.01299058366566896439f, 0.06788800656795501709f, 0.00655582686886191368f, -0.00917040277272462845f, 0.05603245273232460022f, -0.00703629944473505020f, -0.03298027068376541138f, 0.04299128428101539612f, -0.00724682584404945374f, -0.04218204319477081299f, 0.04045288264751434326f, -0.01313448511064052582f, -0.01219158526510000229f, 0.04484827071428298950f, -0.02777840569615364075f, 0.03608573228120803833f, -0.02305154129862785339f, -0.03131894394755363464f, 0.00447407504543662071f, 0.00077544961823150516f, -0.00904819276183843613f, 0.02037002891302108765f, -0.01456667575985193253f, -0.03011888824403285980f, -0.00379894557408988476f, 0.01866663992404937744f, 0.03616302832961082458f, -0.03165713697671890259f, 0.08723697066307067871f, 0.04420214146375656128f, -0.01264138985425233841f, -0.07724596560001373291f, 0.02713591791689395905f, 0.00408330466598272324f, 0.12567198276519775391f, 0.00722704501822590828f, 0.00620856368914246559f, -0.03753942623734474182f, -0.01246756408363580704f, 0.01875863596796989441f, 0.14991852641105651855f},
  {-0.01616286113858222961f, -0.07228172570466995239f, -0.02885913103818893433f, 0.00807158742100000381f, -0.01047488115727901459f, -0.01871945895254611969f, -0.01327502075582742691f, 0.03275284916162490845f, 0.03816542774438858032f, 0.03507732227444648743f, -0.09483420103788375854f, 0.02759734168648719788f, 0.02055467665195465088f, -0.05946645513176918030f, 0.02885387279093265533f, 0.02729717455804347992f, -0.11226524412631988525f, 0.02259028516709804535f, 0.01581162959337234497f, 0.06455275416374206543f, -0.00590177020058035851f, -0.00098936608992516994f, -0.01865613460540771484f, 0.00645261816680431366f, -0.03760394081473350525f, -0.08141347765922546387f, 0.01537550427019596100f, 0.00569315161556005478f, 0.16538248956203460693f, -0.03381641581654548645f, 0.01412821561098098755f, 0.06716967374086380005f, 0.01115059759467840195f, -0.00582571420818567276f, -0.10983689874410629272f, -0.01405917759984731674f, 0.01922736689448356628f, 0.00337319099344313145f, 0.00690241111442446709f, 0.00570414448156952858f, -0.00258310325443744659f, -0.02232632786035537720f, -0.03121182136237621307f, 0.02452454343438148499f, 0.00676525011658668518f, -0.04622269049286842346f, 0.07574903219938278198f, -0.00498623028397560120f, -0.00806247349828481674f, 0.00262555060908198357f, 0.00728093460202217102f, 0.01180247310549020767f, 0.01919044926762580872f, -0.04885694757103919983f, -0.00703716697171330452f, 0.08209439367055892944f, -0.00852924305945634842f, -0.01066676154732704163f, -0.01012734137475490570f, -0.00653449725359678268f, 0.02131644822657108307f, 0.19128814339637756348f, 0.00105942541267722845f, 0.00614502746611833572f, 0.05823919922113418579f, -0.00781190162524580956f, 0.00217646011151373386f, 0.06654138118028640747f, 0.02783089689910411835f, 0.04283671081066131592f, -0.03425292670726776123f, 0.02982545271515846252f, -0.00375745818018913269f, -0.11643557250499725342f, 0.02511928044259548187f, -0.04675103724002838135f, 0.02723237872123718262f, 0.01437262538820505142f, -0.00572633137926459312f, 0.01293077599257230759f, -0.01166756078600883484f, -0.00664569158107042313f, 0.06416958570480346680f, -0.01986799016594886780f, -0.02422043308615684509f, 0.04363903403282165527f, -0.02624768577516078949f, -0.03765084594488143921f, 0.01378171797841787338f, -0.02327990718185901642f, -0.00522618787363171577f, -0.01224921829998493195f, -0.00319455075077712536f, -0.00729259150102734566f, -0.04398971050977706909f, 0.00405819108709692955f, 0.00283817248418927193f, 0.04324770718812942505f, -0.00341627513989806175f, 0.01754296384751796722f, -0.00296501955017447472f, 0.03663314878940582275f, 0.05225475504994392395f, 0.09295184910297393799f},
  {3.60171723365783691406f, -0.62136119604110717773f, -1.59509003162384033203f, -0.19764667749404907227f, -1.72430300712585449219f, 4.77567815780639648438f, 1.07042682170867919922f, -0.22296467423439025879f, 0.71120321750640869141f, 0.08912248909473419189f, -0.71016591787338256836f, 0.18139757215976715088f, 0.16663995385169982910f, 0.06538835912942886353f, 0.05428238958120346069f, -0.14990662038326263428f, -0.13912032544612884521f, -0.02890160121023654938f, 0.14689952135086059570f, 0.23349301517009735107f, -0.03838206827640533447f, 0.10369998216629028320f, -0.29563978314399719238f, 0.02766542695462703705f, 0.03127667680382728577f, -0.50369226932525634766f, 0.03314711898565292358f, -0.18837270140647888184f, 0.47138404846191406250f, 0.10681734234094619751f, -0.05232937261462211609f, -0.22676014900207519531f, -0.01987280882894992828f, -0.04951959848403930664f, -0.46480289101600646973f, 0.09162563830614089966f, -0.01116042770445346832f, -0.11461377143859863281f, 0.04898209497332572937f, -0.02670160867273807526f, 0.19360329210758209229f, 0.18674057722091674805f, 0.05169483274221420288f, -0.24668124318122863770f, 0.04025359824299812317f, 0.11524120718240737915f, 0.20363651216030120850f, -0.12534913420677185059f, -0.10447543859481811523f, -0.82593071460723876953f, 0.02456737682223320007f, -0.04201896488666534424f, -0.14438186585903167725f, 0.01135671883821487427f, 0.04409072175621986389f, 0.35948696732521057129f, 0.02319539710879325867f, -0.12921811640262603760f, -0.06821615993976593018f, -0.04401493072509765625f, -0.06708025187253952026f, 0.10137705504894256592f, 0.04417588561773300171f, 0.03873328119516372681f, -0.18700595200061798096f, 0.11407218873500823975f, -0.11510728299617767334f, -0.58930957317352294922f, 0.12164514511823654175f, -0.14184005558490753174f, 0.38742956519126892090f, 0.11413178592920303345f, -0.04249758273363113403f, -0.18927037715911865234f, -0.06832256168127059937f, 0.02155609056353569031f, -0.47024306654930114746f, 0.10973311960697174072f, -0.01904997229576110840f, -0.31673330068588256836f, 0.06446644663810729980f, 0.12475194782018661499f, 0.37632438540458679199f, 0.18093171715736389160f, -0.03358867764472961426f, -0.37054860591888427734f, 0.00737356813624501228f, 0.05162349715828895569f, 0.02549839764833450317f, -0.10293811559677124023f, -0.01253036502748727798f, 0.13147324323654174805f, -0.10487209260463714600f, -0.04053419828414916992f, -0.28183180093765258789f, -0.17011971771717071533f, -0.16199430823326110840f, -1.06021881103515625000f, -0.37077400088310241699f, -0.25347861647605895996f, -0.34278276562690734863f, -1.04193222522735595703f, -0.14578479528427124023f, 0.01370191108435392380f},
  {-0.28167414665222167969f, -1.75872397422790527344f, -4.20159053802490234375f, 0.05758079513907432556f, -0.15265575051307678223f, -0.38516685366630554199f, -0.00182786851655691862f, 0.21148970723152160645f, -0.23896111547946929932f, -0.07232429832220077515f, 0.13790421187877655029f, -0.09158604592084884644f, 0.01271202880889177322f, 0.48057615756988525391f, 0.04792026802897453308f, -0.00161019735969603062f, 0.22579741477966308594f, 0.09946634620428085327f, -0.02841169573366641998f, 0.11447489261627197266f, -0.00533236050978302956f, -0.02356557920575141907f, 0.28053712844848632812f, -0.02004436589777469635f, 0.03579956293106079102f, -0.01991896331310272217f, 0.06824057549238204956f, -0.01094921678304672241f, -0.11965892463922500610f, -0.07787968963384628296f, 0.11339336633682250977f, -0.24874666333198547363f, -0.07448166608810424805f, -0.12352474033832550049f, -0.14867576956748962402f, -0.03840341418981552124f, -0.04246967658400535583f, -0.46493175625801086426f, 0.00120365165639668703f, 0.08646584302186965942f, 0.01853421516716480255f, -0.08531747013330459595f, 0.05127841606736183167f, -0.08010291308164596558f, 0.03017500415444374084f, 0.06165607646107673645f, -0.82839679718017578125f, 0.07380004227161407471f, 0.07510532438755035400f, 0.14713898301124572754f, -0.00547744240611791611f, -0.10776758193969726562f, 0.01555619854480028152f, 0.06733259558677673340f, -0.21832193434238433838f, -0.39857032895088195801f, 0.07394522428512573242f, -0.07723610848188400269f, 0.40367683768272399902f, 0.15352569520473480225f, 0.04130462184548377991f, 0.20521885156631469727f, 0.07915422320365905762f, -0.19656065106391906738f, 0.47135260701179504395f, -0.00029316928703337908f, -0.00236647762358188629f, 0.10972696542739868164f, 0.02785735577344894409f, -0.09019057452678680420f, 0.25357636809349060059f, 0.13722331821918487549f, -0.07889998704195022583f, 0.38936659693717956543f, 0.02646541409194469452f, 0.00100358703639358282f, 0.34027284383773803711f, 0.09653532505035400391f, 0.04415265098214149475f, 0.21837228536605834961f, -0.05417568609118461609f, 0.06995616853237152100f, -0.19750060141086578369f, 0.07642175257205963135f, 0.06723847240209579468f, -0.23769965767860412598f, -0.02721183188259601593f, -0.01644179038703441620f, -0.05171287059783935547f, 0.13991273939609527588f, -0.09537822753190994263f, 0.27065655589103698730f, -0.02194375731050968170f, -0.04563155770301818848f, -0.08016880601644515991f, -0.03656417503952980042f, -0.10913499444723129272f, -0.26136332750320434570f, -0.07366226613521575928f, -0.13739261031150817871f, -0.83375906944274902344f, -0.17362904548645019531f, -0.14053747057914733887f, -0.43103685975074768066f},
  {-0.05421898141503334045f, -0.07160368561744689941f, -0.05561695247888565063f, 0.00365917570888996124f, -0.02337037771940231323f, -0.00880183652043342590f, 0.00327790318988263607f, 0.01499770954251289368f, 0.03459276631474494934f, 0.06793352216482162476f, 0.10334707051515579224f, -0.01828092709183692932f, -0.01356387883424758911f, -0.05691418051719665527f, -0.00779784470796585083f, 0.00261402432806789875f, 0.02949938178062438965f, 0.04229430854320526123f, -0.03339888155460357666f, 0.07209273427724838257f, -0.00979397166520357132f, 0.01699365861713886261f, 0.21068656444549560547f, 0.02744229882955551147f, 0.00935255642980337143f, -0.10820735245943069458f, 0.00602905452251434326f, -0.00563499238342046738f, 0.02415943332016468048f, -0.04299129918217658997f, -0.00847581587731838226f, 0.24862287938594818115f, -0.04781197011470794678f, -0.02342742681503295898f, 0.02913558110594749451f, 0.01934199221432209015f, -0.03852711990475654602f, -0.05308423563838005066f, -0.00053571094758808613f, -0.00215643225237727165f, -0.14638315141201019287f, -0.03105838596820831299f, 0.02305505238473415375f, 0.03460495918989181519f, 0.01783981733024120331f, -0.01003820914775133133f, -0.04086717963218688965f, -0.00350440666079521179f, -0.00344428094103932381f, -0.08604941517114639282f, -0.03052758425474166870f, -0.02395248785614967346f, -0.07224264740943908691f, -0.03483942151069641113f, 0.00359462248161435127f, 0.00609649205580353737f, -0.04175204411149024963f, 0.02687071636319160461f, 0.07080405205488204956f, 0.00924758426845073700f, -0.02240745350718498230f, 0.11292421072721481323f, 0.03675489127635955811f, -0.00373440445400774479f, 0.03709150850772857666f, 0.00474333111196756363f, 0.01366946101188659668f, 0.07571606338024139404f, 0.00015529237862210721f, -0.04101968929171562195f, 0.00692831538617610931f, 0.03048546053469181061f, -0.01520214695483446121f, -0.05266724899411201477f, -0.01202221121639013290f, -0.02653214149177074432f, 0.07803147286176681519f, -0.00552412634715437889f, -0.04460663720965385437f, 0.02873421274125576019f, 0.00333477533422410488f, 0.01069326139986515045f, 0.10448508709669113159f, 0.03712787851691246033f, 0.01212509721517562866f, 0.01415529195219278336f, 0.00157222244888544083f, -0.01694286055862903595f, -0.09920895844697952271f, 0.01938077993690967560f, -0.00253395806066691875f, -0.06029773876070976257f, -0.02271620929241180420f, 0.02894601598381996155f, -0.00507230870425701141f, -0.03290999308228492737f, -0.02024881914258003235f, -0.03954947367310523987f, -0.00662808725610375404f, 0.02876235917210578918f, -0.07752832770347595215f, -0.00129195593763142824f, 0.01821219734847545624f, 0.02001272328197956085f},
  {-0.03720136731863021851f, -0.05052985996007919312f, 0.13662709295749664307f, -0.00658800639212131500f, 0.04028128832578659058f, -0.00293794623576104641f, 0.03353506699204444885f, -0.00362224667333066463f, -0.00138628575950860977f, -0.01613564603030681610f, -0.06919226050376892090f, -0.01609988324344158173f, -0.00511956168338656425f, -0.10573367774486541748f, -0.03747388720512390137f, 0.00707010552287101746f, -0.12989571690559387207f, -0.00444612000137567520f, 0.02621648088097572327f, 0.01355333067476749420f, -0.00052635325118899345f, 0.00209778593853116035f, -0.02928081527352333069f, -0.03316329047083854675f, 0.03618508577346801758f, 0.08619522303342819214f, -0.00628902669996023178f, 0.03323021531105041504f, 0.12124227732419967651f, -0.00372457504272460938f, -0.01819773204624652863f, -0.30572691559791564941f, 0.00031499183387495577f, 0.03105247952044010162f, 0.11811559647321701050f, -0.01048399042338132858f, -0.01333354692906141281f, 0.09430634975433349609f, 0.01079581584781408310f, 0.02949675172567367554f, -0.01239566970616579056f, 0.01272096019238233566f, -0.01031300704926252365f, -0.13426497578620910645f, 0.01951869018375873566f, 0.02466282248497009277f, 0.00384447444230318069f, 0.01798794977366924286f, -0.05308676138520240784f, 0.02721077017486095428f, -0.00456229271367192268f, -0.05239394307136535645f, 0.03862207382917404175f, 0.02551595121622085571f, -0.00424974365159869194f, -0.05288393795490264893f, 0.00834252033382654190f, 0.00175033311825245619f, -0.03003855422139167786f, -0.00481337541714310646f, 0.03925735503435134888f, -0.04566936194896697998f, 0.01856267638504505157f, 0.02709275484085083008f, 0.08705385774374008179f, 0.01207589358091354370f, -0.00111941888462752104f, 0.05902270972728729248f, -0.03731740266084671021f, 0.01512901857495307922f, 0.01221599336713552475f, 0.00783288106322288513f, -0.00795206893235445023f, -0.18173776566982269287f, -0.02577788941562175751f, 0.03975122794508934021f, -0.05349964275956153870f, 0.01908149570226669312f, 0.00452208798378705978f, -0.00880496483296155930f, 0.02978715486824512482f, 0.03957881778478622437f, 0.02328089252114295959f, 0.02798876166343688965f, 0.01356517709791660309f, -0.12208578735589981079f, -0.01295244414359331131f, 0.01992766931653022766f, 0.09096515178680419922f, -0.03430888429284095764f, -0.02912709489464759827f, -0.05365952476859092712f, 0.03118736296892166138f, 0.01980266347527503967f, 0.03212404623627662659f, 0.03095242753624916077f, 0.00174762133974581957f, 0.08841060101985931396f, -0.02362156845629215240f, -0.02216147631406784058f, 0.00042700429912656546f, -0.03287139907479286194f, -0.01640143245458602905f, -0.00139826803933829069f},
  {-0.09875796735286712646f, -0.03547073900699615479f, 0.01118146628141403198f, 0.01859211549162864685f, -0.00419728131964802742f, -0.03421493619680404663f, 0.02524396963417530060f, -0.04519870877265930176f, -0.00504616647958755493f, -0.05678125843405723572f, -0.07494970411062240601f, -0.00864968448877334595f, -0.04363618418574333191f, 0.12674932181835174561f, 0.00424952199682593346f, 0.00461545260623097420f, 0.18091715872287750244f, -0.02763484790921211243f, 0.00659342342987656593f, -0.06172461062669754028f, -0.00019000723841600120f, -0.01638030260801315308f, -0.05717713385820388794f, 0.00072003889363259077f, -0.00375491334125399590f, -0.14577384293079376221f, 0.00639337766915559769f, -0.00607136683538556099f, 0.01327854022383689880f, 0.00150638318154960871f, -0.01858522556722164154f, -0.14767426252365112305f, -0.02515237033367156982f, 0.01856004074215888977f, 0.01259676460176706314f, -0.00525338528677821159f, 0.00838619936257600784f, -0.11695905774831771851f, 0.01232304051518440247f, -0.02675386331975460052f, 0.02935477904975414276f, -0.01883891224861145020f, -0.01077542919665575027f, 0.03656090795993804932f, 0.01915471628308296204f, 0.00711028790101408958f, -0.06786925345659255981f, 0.00584143213927745819f, 0.02510170079767704010f, 0.12848466634750366211f, 0.01058306545019149780f, 0.04851701855659484863f, 0.14108105003833770752f, -0.00900652259588241577f, -0.00276817125268280506f, -0.01454386673867702484f, 0.01283643674105405807f, -0.04339289665222167969f, 0.18732856214046478271f, 0.02679452113807201385f, -0.00104131700936704874f, -0.09995766729116439819f, -0.01320005767047405243f, 0.01052783057093620300f, 0.12081531435251235962f, 0.00031118752667680383f, 0.01917684078216552734f, -0.02315144240856170654f, -0.00278693437576293945f, -0.02389276213943958282f, 0.06867334991693496704f, 0.01286288537085056305f, 0.00549588864669203758f, -0.28954705595970153809f, -0.00545440427958965302f, -0.01275320816785097122f, -0.01300519797950983047f, -0.00687455525621771812f, 0.00085251935524865985f, 0.00999798532575368881f, 0.01241324190050363541f, 0.03167992085218429565f, -0.00976722966879606247f, 0.01933116279542446136f, 0.01990709826350212097f, -0.01965390890836715698f, 0.01585271395742893219f, 0.03282547742128372192f, -0.12714196741580963135f, 0.00103738054167479277f, 0.02256017178297042847f, -0.08100586384534835815f, 0.02158991992473602295f, -0.00825984496623277664f, -0.04691262170672416687f, 0.00503549631685018539f, 0.00966009031981229782f, 0.06428556144237518311f, -0.00380900828167796135f, -0.03953573480248451233f, 0.21199825406074523926f, -0.05868070945143699646f, -0.00969128683209419250f, 0.02346658892929553986f},
  {-0.00480945035815238953f, -0.03996574878692626953f, 0.05110329017043113708f, -0.00829887017607688904f, 0.00800858438014984131f, 0.01933091320097446442f, 0.01184244174510240555f, -0.01933614350855350494f, -0.05181863531470298767f, 0.01407007873058319092f, -0.15216825902462005615f, -0.00559003558009862900f, -0.00361989950761198997f, -0.09693226218223571777f, 0.04188866168260574341f, 0.03383369743824005127f, 0.10739009827375411987f, 0.00469648512080311775f, -0.00704404059797525406f, -0.11226093769073486328f, 0.03032730519771575928f, -0.00813394039869308472f, -0.01544414181262254715f, 0.02130222506821155548f, -0.02250868082046508789f, 0.11778673529624938965f, 0.00433879205957055092f, 0.03748130053281784058f, -0.00319704413414001465f, -0.02354332059621810913f, -0.01528779510408639908f, -0.02779642678797245026f, -0.00783266033977270126f, 0.01364316977560520172f, 0.02585738338530063629f, -0.00966608338057994843f, 0.04968487843871116638f, 0.04464267939329147339f, -0.01160623226314783096f, 0.04582597315311431885f, 0.02498837001621723175f, 0.01349621918052434921f, 0.00570208951830863953f, -0.02557669579982757568f, -0.01210658997297286987f, 0.00057203468168154359f, 0.08164390921592712402f, 0.03167097643017768860f, 0.04041127488017082214f, -0.03880523145198822021f, -0.00040818800334818661f, 0.03025682084262371063f, 0.05048985034227371216f, -0.02563326805830001831f, 0.03190277516841888428f, 0.02119686082005500793f, 0.01944061368703842163f, 0.00409788219258189201f, -0.08924695849418640137f, 0.00797833688557147980f, 0.06239010766148567200f, -0.19598135352134704590f, 0.01101190131157636642f, 0.01083210576325654984f, 0.08265940845012664795f, 0.02156060934066772461f, -0.00414389790967106819f, 0.13426245748996734619f, 0.00717123178765177727f, 0.02427964843809604645f, 0.00174376671202480793f, -0.01872465759515762329f, 0.01389612257480621338f, 0.11519446223974227905f, -0.01122447755187749863f, -0.00866565294563770294f, 0.16939452290534973145f, -0.00130457279738038778f, 0.00689490325748920441f, 0.00790511537343263626f, 0.02912240475416183472f, -0.08287630975246429443f, 0.02594206295907497406f, 0.00496646342799067497f, 0.01068907324224710464f, 0.04403788223862648010f, 0.01526077650487422943f, 0.02694223076105117798f, -0.15206766128540039062f, 0.00269332737661898136f, 0.04475849494338035583f, 0.06974361091852188110f, 0.00838626828044652939f, 0.01295497920364141464f, -0.12017474323511123657f, 0.01270300522446632385f, 0.01033609267324209213f, 0.01739162579178810120f, -0.02051366493105888367f, 0.01337199471890926361f, 0.10617007315158843994f, -0.02971901558339595795f, 0.00245823990553617477f, -0.03426125645637512207f},
  {-6.74574804306030273438f, 0.42624658346176147461f, -2.18925356864929199219f, 1.19563126564025878906f, -3.48478484153747558594f, 1.82086527347564697266f, -0.32825359702110290527f, 0.12886162102222442627f, -0.53383034467697143555f, 0.11341822147369384766f, 0.16230201721191406250f, 0.23672497272491455078f, -0.07609096914529800415f, 0.06955575197935104370f, 0.08826518058776855469f, -0.09391024708747863770f, 0.70210689306259155273f, 0.29979974031448364258f, 0.00191817583981901407f, 0.21244692802429199219f, 0.03879244998097419739f, 0.08548425137996673584f, 0.91038846969604492188f, 0.07423909753561019897f, 0.00756969163194298744f, 0.25149941444396972656f, 0.08410325646400451660f, 0.04400985687971115112f, -0.27700299024581909180f, -0.15359370410442352295f, 0.06974226236343383789f, -0.43534409999847412109f, 0.07642764598131179810f, -0.03785375505685806274f, -0.03056839667260646820f, -0.10065615177154541016f, 0.04851553961634635925f, 0.33621874451637268066f, -0.04767983779311180115f, 0.01758748665452003479f, -0.31289184093475341797f, -0.15606793761253356934f, -0.00045141798909753561f, 0.29782101511955261230f, -0.01539606973528862000f, 0.09096446633338928223f, -0.39598670601844787598f, -0.03580196946859359741f, 0.05568023025989532471f, 0.31968322396278381348f, -0.08914287388324737549f, 0.01797986030578613281f, -0.23709377646446228027f, 0.03125859051942825317f, 0.03188737109303474426f, 0.04619766399264335632f, -0.05332101881504058838f, -0.00956681184470653534f, -0.19372512400150299072f, 0.09541346132755279541f, 0.05236083269119262695f, -0.04693600535392761230f, -0.07698784023523330688f, -0.02807518839836120605f, -0.23307512700557708740f, -0.11341793090105056763f, 0.04664123803377151489f, 0.41785025596618652344f, -0.05124155431985855103f, 0.06269702315330505371f, -0.21808822453022003174f, -0.03196676075458526611f, 0.06633455306291580200f, 0.01206128858029842377f, -0.04144711047410964966f, 0.13437786698341369629f, 0.50818359851837158203f, -0.20884086191654205322f, -0.00237863673828542233f, -0.30643755197525024414f, -0.08773305267095565796f, 0.01772442087531089783f, -0.21674513816833496094f, -0.19838714599609375000f, 0.24459776282310485840f, 0.26285180449485778809f, -0.14606869220733642578f, 0.14674475789070129395f, -0.06668828427791595459f, -0.15081040561199188232f, 0.19099436700344085693f, -0.45213133096694946289f, -0.13284209370613098145f, 0.05518083274364471436f, 0.26936227083206176758f, 0.11334130913019180298f, 0.14237667620182037354f, 0.06546474993228912354f, 0.58664357662200927734f, -0.28229951858520507812f, 1.75637686252593994141f, 1.64172315597534179688f, -0.97948324680328369141f, 0.24711290001869201660f},
  {-0.04646114632487297058f, -0.02929880283772945404f, 0.16014519333839416504f, 0.01549748517572879791f, 0.00686379382386803627f, -0.01155142579227685928f, 0.01850174367427825928f, -0.05605375766754150391f, -0.02753922343254089355f, -0.02255251631140708923f, -0.19451761245727539062f, -0.01833761855959892273f, -0.04636394232511520386f, 0.07827971875667572021f, -0.01581048406660556793f, 0.01968600042164325714f, -0.09414532035589218140f, -0.02141907624900341034f, -0.00381293753162026405f, 0.09604528546333312988f, 0.01848621852695941925f, 0.01021791715174913406f, 0.04567218944430351257f, -0.00834211613982915878f, -0.02185186557471752167f, -0.11033090949058532715f, 0.01842212677001953125f, 0.00499216327443718910f, 0.02088118344545364380f, 0.03208854794502258301f, 0.02447332255542278290f, 0.10081350058317184448f, 0.00161118514370173216f, 0.03396388143301010132f, 0.12368408590555191040f, -0.00709919072687625885f, 0.00744107645004987717f, 0.00510892923921346664f, -0.01923607848584651947f, 0.01545905228704214096f, 0.02046581730246543884f, -0.00287322723306715488f, -0.00846023019403219223f, 0.01274809706956148148f, 0.01985059306025505066f, 0.01098896563053131104f, 0.00274035567417740822f, -0.01574800908565521240f, 0.02473645657300949097f, 0.08372327685356140137f, -0.02190424688160419464f, 0.00762906810268759727f, 0.04175867140293121338f, -0.01574607752263545990f, -0.00239370996132493019f, -0.05164337903261184692f, -0.01398761197924613953f, -0.02978462912142276764f, 0.00457231746986508369f, 0.02183379232883453369f, -0.02098969183862209320f, -0.08559099584817886353f, -0.00036640925100073218f, -0.05460770428180694580f, 0.07154945284128189087f, -0.02067669108510017395f, -0.01422096788883209229f, 0.05732373148202896118f, 0.00385816697962582111f, -0.00342351454310119152f, 0.00619171140715479851f, -0.00022274607908912003f, 0.01007777731865644455f, 0.12356153875589370728f, -0.02118751779198646545f, -0.00085613172268494964f, -0.04833445698022842407f, -0.01598639972507953644f, 0.00035916708293370903f, -0.07147106528282165527f, -0.01932761631906032562f, -0.04608181491494178772f, -0.07236466556787490845f, -0.02642360329627990723f, -0.01260690391063690186f, -0.15549471974372863770f, -0.00540343439206480980f, -0.01123538240790367126f, 0.00211565452627837658f, -0.01057188678532838821f, 0.00350062828510999680f, -0.00307508395053446293f, 0.00623948872089385986f, 0.05252623185515403748f, 0.09480065852403640747f, 0.01075899880379438400f, 0.02162482030689716339f, -0.09793885797262191772f, 0.03382716327905654907f, 0.00427813874557614326f, -0.06052443012595176697f, 0.02210129983723163605f, 0.02722377702593803406f, -0.03627537935972213745f},
  {-0.00428965128958225250f, -0.04271298646926879883f, -0.01690710335969924927f, 0.01654928736388683319f, -0.03546668589115142822f, 0.00538199208676815033f, -0.01154866628348827362f, -0.01201262138783931732f, 0.01848648674786090851f, -0.00201970944181084633f, 0.13529320061206817627f, 0.00423232605680823326f, 0.00571158388629555702f, -0.20689728856086730957f, -0.02302646264433860779f, -0.03080607019364833832f, 0.04443844035267829895f, -0.00743415486067533493f, 0.00485866190865635872f, -0.04721267148852348328f, -0.01221303269267082214f, 0.02869616821408271790f, 0.12000241875648498535f, 0.01531977206468582153f, 0.00188788794912397861f, 0.09820184111595153809f, 0.00621095439419150352f, 0.01933616586029529572f, 0.00527900643646717072f, -0.01264227461069822311f, -0.02833649329841136932f, 0.18871971964836120605f, 0.00979243125766515732f, -0.03418523445725440979f, -0.08219747245311737061f, 0.00138385291211307049f, -0.01934914104640483856f, 0.08929043263196945190f, 0.01701678149402141571f, 0.01141007430851459503f, 0.10996774584054946899f, 0.00260791811160743237f, 0.01318081654608249664f, 0.09853447228670120239f, -0.02548567950725555420f, -0.04305637255311012268f, -0.02178652770817279816f, -0.00628143129870295525f, -0.02108888514339923859f, -0.01395344641059637070f, -0.01498131733387708664f, 0.00449087982997298241f, -0.00705775618553161621f, -0.02525508031249046326f, 0.01910601556301116943f, 0.01835642382502555847f, -0.02611066028475761414f, -0.00216112821362912655f, 0.07704163342714309692f, 0.01257342007011175156f, 0.02030526846647262573f, -0.19203585386276245117f, 0.00240359618328511715f, 0.00651330454275012016f, -0.06188619136810302734f, 0.00083658291259780526f, 0.00949148181825876236f, -0.10626368224620819092f, 0.00283531052991747856f, 0.01928977109491825104f, 0.08903531730175018311f, -0.00160584878176450729f, 0.00562372850254178047f, -0.07011122256517410278f, -0.00796406902372837067f, -0.02050701342523097992f, 0.12010502815246582031f, 0.03040896542370319366f, -0.00189381407108157873f, 0.05772293359041213989f, 0.00970243848860263824f, -0.00121511681936681271f, 0.00232827966101467609f, 0.01189331058412790298f, 0.02249756641685962677f, -0.13747434318065643311f, -0.01635813899338245392f, 0.02316719107329845428f, 0.06207698956131935120f, 0.02362942881882190704f, -0.03529253602027893066f, 0.01692934520542621613f, 0.01340193394571542740f, -0.03333295136690139771f, 0.09721530228853225708f, -0.00368412816897034645f, -0.01104017719626426697f, -0.21979179978370666504f, -0.03151021525263786316f, 0.00589306326583027840f, -0.22637447714805603027f, -0.05170179158449172974f, 0.01132960245013237000f, -0.01046415232121944427f},
  {-0.02430936507880687714f, -0.06771817058324813843f, 0.05737794190645217896f, 0.01077046990394592285f, -0.01905146054923534393f, -0.02897808328270912170f, 0.00776219321414828300f, 0.00021439768897835165f, -0.06200049445033073425f, -0.04405086115002632141f, -0.18198809027671813965f, -0.01056188251823186874f, -0.02994377352297306061f, -0.13185258209705352783f, -0.03008431941270828247f, -0.03611309081315994263f, -0.07101023197174072266f, 0.02960610389709472656f, -0.02993539161980152130f, -0.13161854445934295654f, 0.05246757343411445618f, 0.00439211027696728706f, 0.06254220008850097656f, 0.00234785070642828941f, -0.00713823549449443817f, 0.23234073817729949951f, 0.02423208206892013550f, 0.02249064296483993530f, 0.10485459864139556885f, -0.01607852801680564880f, 0.01602616906166076660f, 0.08942002058029174805f, -0.02133468165993690491f, 0.01976805552840232849f, 0.02929553948342800140f, -0.02726761996746063232f, 0.00550921820104122162f, -0.08900026232004165649f, 0.00182699027936905622f, -0.00219765957444906235f, 0.00375083228573203087f, 0.02226273529231548309f, 0.01920621283352375031f, 0.07331530749797821045f, 0.00107041129376739264f, -0.00400984194129705429f, -0.06717830151319503784f, 0.00728805037215352058f, 0.03854687884449958801f, 0.14335526525974273682f, 0.01544179208576679230f, -0.01532188244163990021f, -0.04374361410737037659f, -0.00803455803543329239f, 0.00106325827073305845f, -0.00919319782406091690f, 0.02065136097371578217f, 0.04313701391220092773f, 0.16363081336021423340f, 0.02753113582730293274f, -0.01464758161455392838f, -0.03036151640117168427f, 0.01603561267256736755f, 0.03277721628546714783f, 0.04483648017048835754f, 0.00532921263948082924f, 0.02777153626084327698f, -0.05992024764418601990f, -0.00379269802942872047f, 0.00386072439141571522f, 0.16054069995880126953f, 0.00722326245158910751f, 0.00968194846063852310f, 0.06628473103046417236f, 0.00265809125266969204f, -0.05570064857602119446f, -0.02254365943372249603f, -0.04989868402481079102f, -0.02520530857145786285f, -0.00781049998477101326f, -0.03595714643597602844f, 0.00022765142784919590f, -0.00922627188265323639f, -0.01489435136318206787f, -0.04668581858277320862f, -0.12783826887607574463f, -0.02188570424914360046f, -0.01932193711400032043f, 0.08944067358970642090f, 0.00186341744847595692f, -0.03137483075261116028f, 0.00179512274917215109f, -0.00140115281101316214f, -0.00494837528094649315f, -0.02681916765868663788f, 0.02780508808791637421f, 0.02149118669331073761f, 0.04049485921859741211f, 0.04386671632528305054f, 0.00891611818224191666f, 0.10789532959461212158f, -0.00363544630818068981f, 0.06007431447505950928f, 0.11894261091947555542f},
  {-0.16221924126148223877f, -0.05302346125245094299f, 0.02897441945970058441f, 0.02021689154207706451f, -0.00278917583636939526f, 0.03708845004439353943f, 0.02365971356630325317f, -0.05702134221792221069f, 0.00404318841174244881f, 0.02094405330717563629f, -0.00581674324348568916f, -0.02103100158274173737f, 0.00712146796286106110f, -0.01433936972171068192f, -0.03082126937806606293f, -0.08018299192190170288f, -0.05765136331319808960f, -0.00073141092434525490f, -0.01645442284643650055f, 0.10274207592010498047f, -0.06162490323185920715f, -0.01304750144481658936f, 0.15361070632934570312f, 0.00161387422122061253f, -0.03239704668521881104f, -0.15917178988456726074f, -0.01955341361463069916f, 0.00111483142245560884f, 0.05041592940688133240f, -0.00742963841184973717f, 0.02804804779589176178f, 0.03193166851997375488f, 0.00660556135699152946f, 0.03142950683832168579f, -0.10699868202209472656f, 0.02580349892377853394f, 0.01243597455322742462f, -0.00658186059445142746f, 0.00098496500868350267f, 0.00648659747093915939f, 0.03128714114427566528f, 0.00321766058914363384f, -0.00752022862434387207f, 0.14702893793582916260f, 0.01005997508764266968f, -0.01795749738812446594f, 0.03730284795165061951f, 0.00318476883694529533f, -0.00836656615138053894f, 0.03516409173607826233f, -0.03837451338768005371f, -0.00049352989299222827f, 0.00854416191577911377f, 0.00308545003645122051f, 0.02732933871448040009f, -0.05511699616909027100f, 0.02517116256058216095f, 0.02576495893299579620f, 0.02992325089871883392f, 0.01467497646808624268f, -0.00171950040385127068f, 0.04213541746139526367f, -0.00505659729242324829f, 0.00613051047548651695f, -0.10416837781667709351f, 0.01727443374693393707f, 0.01542318798601627350f, 0.05405211448669433594f, 0.01146702561527490616f, 0.00511737167835235596f, -0.13444542884826660156f, -0.00090993224876001477f, -0.04480819031596183777f, 0.14494839310646057129f, -0.03091829083859920502f, 0.00782350171357393265f, 0.09492766112089157104f, -0.03174239397048950195f, 0.00827906187623739243f, 0.09012748301029205322f, -0.02645792998373508453f, 0.01258546952158212662f, 0.02869820222258567810f, -0.00586594035848975182f, 0.01091691572219133377f, 0.00163270288612693548f, -0.01520491577684879303f, 0.04374442622065544128f, -0.12472306936979293823f, -0.03258344531059265137f, -0.01295423414558172226f, -0.02701580524444580078f, 0.01603088155388832092f, -0.02121269889175891876f, -0.11551441997289657593f, -0.01856961287558078766f, 0.01368049159646034241f, -0.05250041559338569641f, 0.06257015466690063477f, 0.00789719074964523315f, -0.20848226547241210938f, 0.01534565351903438568f, -0.01985458470880985260f, 0.00147699308581650257f},
  {-0.08781368285417556763f, 0.01751714013516902924f, -0.24915356934070587158f, -0.00345386611297726631f, -0.04391144961118698120f, 0.02754743024706840515f, -0.00522582326084375381f, -0.01231043506413698196f, -0.04219598695635795593f, 0.00966273620724678040f, 0.12018203735351562500f, -0.00468399142846465111f, -0.02667969837784767151f, -0.06445090472698211670f, -0.01675189100205898285f, -0.00692495005205273628f, 0.09451349824666976929f, -0.00206788582727313042f, 0.00382210919633507729f, 0.03420818969607353210f, -0.03317322209477424622f, 0.02313672192394733429f, 0.05484470725059509277f, -0.00755400303751230240f, -0.00079047575127333403f, 0.04910557717084884644f, 0.00827961973845958710f, 0.01273503713309764862f, -0.22000555694103240967f, -0.00699512707069516182f, -0.00924483034759759903f, 0.15612275898456573486f, 0.00054941757116466761f, -0.03769745677709579468f, -0.18031284213066101074f, -0.00036433112109079957f, -0.03523216024041175842f, 0.01534208841621875763f, 0.01032641995698213577f, -0.01625050976872444153f, -0.09956581890583038330f, 0.03639145195484161377f, -0.02603601478040218353f, 0.09239236265420913696f, -0.04044254496693611145f, 0.01222301274538040161f, 0.03571541234850883484f, -0.00002978242628159933f, 0.03432593867182731628f, -0.01154879014939069748f, 0.00966462213546037674f, -0.01983405835926532745f, -0.03336543589830398560f, 0.01546850334852933884f, -0.00434496579691767693f, -0.07453198730945587158f, 0.03494032099843025208f, 0.02992149814963340759f, -0.28866791725158691406f, 0.00224623852409422398f, -0.01365888677537441254f, 0.00196731626056134701f, 0.01878540217876434326f, 0.00210355734452605247f, -0.19877213239669799805f, 0.01852742210030555725f, -0.01368300430476665497f, 0.05149853974580764771f, 0.00703800655901432037f, 0.00256636249832808971f, -0.08757316321134567261f, 0.00229649571701884270f, 0.01255175564438104630f, -0.05756184086203575134f, 0.01374549139291048050f, -0.00865831505507230759f, -0.05062044039368629456f, -0.01890704035758972168f, 0.00502280378714203835f, 0.08429139107465744019f, -0.02658068016171455383f, 0.00559886125847697258f, 0.09286606311798095703f, -0.00474139116704463959f, 0.02291006781160831451f, 0.02163441479206085205f, 0.03504889830946922302f, 0.00935646146535873413f, 0.11691576242446899414f, 0.01664169505238533020f, 0.01771381869912147522f, 0.03919817507266998291f, -0.04338185861706733704f, 0.02485387027263641357f, -0.07935025542974472046f, -0.02240915410220623016f, -0.02369009330868721008f, -0.04473617300391197205f, -0.01529110781848430634f, -0.01619618386030197144f, -0.05676213279366493225f, -0.01568285375833511353f, -0.03974838927388191223f, -0.15408994257450103760f},
  {-0.31628051400184631348f, 7.74664306640625000000f, 1.84260761737823486328f, 0.33612036705017089844f, 1.73582017421722412109f, 2.37958526611328125000f, -0.29916834831237792969f, -0.00762150762602686882f, 0.19182473421096801758f, 0.23613485693931579590f, -0.24731251597404479980f, -0.03937136754393577576f, 0.19742594659328460693f, -0.24774423241615295410f, -0.02110832557082176208f, 0.10129337012767791748f, -0.43370905518531799316f, -0.08787704259157180786f, 0.13398313522338867188f, -0.05251820385456085205f, -0.02928169630467891693f, 0.03808795660734176636f, -0.53248763084411621094f, -0.06327503174543380737f, 0.02217621728777885437f, -0.16897489130496978760f, 0.00026084561250172555f, 0.00865591783076524734f, -0.12884333729743957520f, -0.00988364685326814651f, 0.07821349054574966431f, 0.21266952157020568848f, -0.06487626582384109497f, 0.08178637176752090454f, -0.07000470906496047974f, -0.01401286572217941284f, 0.06246731057763099670f, 0.23292914032936096191f, -0.02201995067298412323f, 0.02858094871044158936f, 0.22781462967395782471f, -0.00554455211386084557f, 0.04902395978569984436f, -0.18818327784538269043f, -0.05106665939092636108f, 0.05204170569777488708f, 0.25038665533065795898f, -0.00805419217795133591f, 0.12752541899681091309f, 0.15075476467609405518f, 0.01049503125250339508f, 0.11577892303466796875f, 0.31686037778854370117f, 0.04155646637082099915f, 0.09323819726705551147f, 0.38849416375160217285f, -0.05096608400344848633f, 0.07375735789537429810f, -0.12341824918985366821f, -0.04893495887517929077f, 0.04462498798966407776f, 0.18779169023036956787f, -0.06013588234782218933f, 0.10700230300426483154f, -0.03300270810723304749f, 0.07262322306632995605f, 0.11046375334262847900f, -0.02707094885408878326f, 0.05403614044189453125f, -0.01382038928568363190f, 0.28812414407730102539f, -0.08305823057889938354f, 0.12478464841842651367f, 0.12344629317522048950f, -0.14168080687522888184f, 0.07758431881666183472f, 0.05208712816238403320f, -0.04623693600296974182f, 0.14830990135669708252f, -0.02889828011393547058f, 0.00041400257032364607f, 0.21046979725360870361f, -0.00724425818771123886f, 0.02184018678963184357f, 0.15941549837589263916f, 0.01666926406323909760f, -0.02390502952039241791f, 0.09427696466445922852f, 0.20308493077754974365f, -0.03436353430151939392f, 0.04866249114274978638f, 0.24146243929862976074f, -0.01930138841271400452f, 0.01948502287268638611f, -0.09218747168779373169f, -0.03253205493092536926f, -0.06329738348722457886f, -0.08196146786212921143f, -0.14707092940807342529f, 0.04991406947374343872f, -0.33470341563224792480f, -0.21135888993740081787f, 0.19849778711795806885f, -0.56296116113662719727f},
  {-0.07690282166004180908f, -0.03586836159229278564f, 0.04876891896128654480f, -0.00770242977887392044f, 0.00789990555495023727f, 0.01275238487869501114f, 0.00727930339053273201f, -0.02034761197865009308f, -0.00925527606159448624f, -0.00140246085356920958f, 0.00372592569328844547f, 0.05202125757932662964f, -0.00717861438170075417f, 0.14218659698963165283f, 0.01082268171012401581f, -0.05372669920325279236f, -0.03183353319764137268f, 0.00303401122801005840f, -0.02104253508150577545f, -0.03815652802586555481f, 0.01104145124554634094f, -0.01691867411136627197f, 0.10697206109762191772f, -0.00799105409532785416f, -0.03419553488492965698f, 0.02045309729874134064f, -0.00801213085651397705f, -0.00633379351347684860f, 0.11293356865644454956f, -0.00709439581260085106f, 0.00016918324399739504f, -0.23529818654060363770f, -0.02233987301588058472f, -0.01230962760746479034f, 0.02104000560939311981f, -0.00385000370442867279f, 0.03253488615155220032f, 0.05526023730635643005f, -0.02561384066939353943f, 0.02484718151390552521f, 0.02824058569967746735f, -0.02271202392876148224f, 0.01607564464211463928f, -0.03485454246401786804f, -0.02377379313111305237f, 0.00240006693638861179f, 0.02406934648752212524f, 0.02264848910272121429f, 0.02189224399626255035f, -0.03322085365653038025f, 0.03703159093856811523f, 0.03449105843901634216f, -0.06151576712727546692f, 0.00705201737582683563f, 0.05017453804612159729f, 0.05568948015570640564f, 0.01874611340463161469f, -0.00299987895414233208f, 0.03034478239715099335f, -0.00958036258816719055f, 0.00940060988068580627f, -0.07124601304531097412f, 0.02242055162787437439f, -0.01388219930231571198f, 0.03457662090659141541f, 0.00412947591394186020f, -0.00421935459598898888f, 0.00875814165920019150f, -0.04560660943388938904f, -0.01490920316427946091f, 0.00634666113182902336f, 0.02202437072992324829f, -0.01273450162261724472f, 0.08270964026451110840f, -0.00008476485527353361f, -0.01161972340196371078f, -0.04580267146229743958f, 0.00671896804124116898f, 0.01821796409785747528f, 0.08340329676866531372f, -0.03454320132732391357f, -0.00123205222189426422f, 0.10794156044721603394f, -0.00519759440794587135f, 0.00669561233371496201f, 0.02319909445941448212f, -0.02340429089963436127f, -0.01400791667401790619f, -0.10353699326515197754f, -0.03267978876829147339f, 0.02461024746298789978f, -0.02521578408777713776f, -0.00032782470225356519f, 0.00841756444424390793f, 0.00723454589024186134f, 0.02416658401489257812f, -0.02379176951944828033f, 0.19476689398288726807f, -0.01052044704556465149f, -0.02466845698654651642f, -0.06568998843431472778f, 0.02398785948753356934f, -0.00548536516726016998f, -0.00284125586040318012f},
  {-0.14998188614845275879f, 0.00976660475134849548f, -0.03110703639686107635f, 0.00439434358850121498f, -0.04706863686442375183f, -0.01217689737677574158f, 0.00728056579828262329f, -0.00546218827366828918f, -0.01121761836111545563f, -0.00281051453202962875f, 0.07530365884304046631f, -0.03029567375779151917f, -0.01559023838490247726f, -0.00725251808762550354f, 0.04341214522719383240f, -0.01708575524389743805f, 0.10282321274280548096f, -0.01209032349288463593f, 0.01825561374425888062f, -0.09081655740737915039f, -0.00020717247389256954f, -0.01719970069825649261f, -0.16793447732925415039f, -0.01249732915312051773f, 0.02332964353263378143f, -0.10820565372705459595f, -0.00758455879986286163f, -0.00445026764646172523f, -0.12804785370826721191f, 0.02324229851365089417f, -0.00927937496453523636f, -0.11328505724668502808f, 0.02362555265426635742f, -0.01501188799738883972f, -0.05326231196522712708f, -0.00278307474218308926f, -0.01288788858801126480f, 0.00315537117421627045f, -0.00371707556769251823f, 0.00295980926603078842f, 0.03670800477266311646f, 0.02273826673626899719f, -0.00105219159740954638f, 0.09246514737606048584f, -0.03336799889802932739f, -0.00002197163667005952f, -0.10998605936765670776f, -0.00113520887680351734f, 0.00392099702730774879f, -0.03981615230441093445f, 0.01213001087307929993f, 0.00541241606697440147f, 0.06703189015388488770f, 0.03711463510990142822f, -0.02195158228278160095f, -0.00549372751265764236f, 0.00911791995167732239f, 0.00362576451152563095f, 0.02344523929059505463f, -0.02900325320661067963f, 0.00135746644809842110f, 0.09986051917076110840f, -0.03507312759757041931f, 0.01247477158904075623f, -0.08452653884887695312f, 0.02318215183913707733f, 0.03671167790889739990f, -0.07528513669967651367f, -0.01106158643960952759f, 0.01159583777189254761f, 0.21080747246742248535f, -0.02023871056735515594f, 0.07171745598316192627f, 0.09154202789068222046f, -0.02810771949589252472f, 0.02465976402163505554f, -0.03738727420568466187f, 0.01575677283108234406f, 0.00514788832515478134f, -0.12555918097496032715f, 0.01910710334777832031f, 0.00569832883775234222f, -0.04319754987955093384f, 0.00723487976938486099f, 0.02019304968416690826f, 0.04242437332868576050f, 0.01379911322146654129f, 0.00639242306351661682f, -0.03336200490593910217f, -0.00798353366553783417f, -0.01079117320477962494f, 0.07194629311561584473f, -0.02023457176983356476f, 0.00593089312314987183f, -0.22051233053207397461f, 0.00914082117378711700f, -0.01437585800886154175f, -0.00968707166612148285f, -0.02717636711895465851f, -0.00057967234170064330f, 0.06285113841295242310f, -0.03621574863791465759f, -0.02403975278139114380f, 0.07384242862462997437f},
  {0.02199747599661350250f, -0.03586227446794509888f, 0.00491084204986691475f, -0.00042685706284828484f, 0.03397150337696075439f, 0.01189656741917133331f, 0.00139837968163192272f, -0.00006116487202234566f, -0.00074756547110155225f, 0.00748195266351103783f, -0.00411966163665056229f, -0.01497913245111703873f, 0.00015486899064853787f, 0.09585650265216827393f, -0.00170617678668349981f, 0.00778291653841733932f, 0.13266000151634216309f, -0.00036493141669780016f, 0.00563170900568366051f, 0.01116383727639913559f, -0.00327025819569826126f, 0.02790218964219093323f, -0.05049290880560874939f, -0.00845774263143539429f, -0.03451710939407348633f, 0.05134640261530876160f, 0.01005756389349699020f, 0.00280106952413916588f, -0.06628153473138809204f, 0.00424031168222427368f, 0.03930159285664558411f, 0.10214663296937942505f, 0.04527447000145912170f, -0.02481152862310409546f, -0.01061963941901922226f, -0.00340236071497201920f, 0.02371721342206001282f, -0.02696630731225013733f, 0.01324632018804550171f, 0.00886859558522701263f, 0.05382718145847320557f, -0.01470142416656017303f, 0.05041675269603729248f, 0.08209464699029922485f, -0.01809414848685264587f, -0.01392016652971506119f, 0.05369883403182029724f, -0.01427180133759975433f, -0.02052850835025310516f, 0.02374142035841941833f, 0.00259714433923363686f, 0.02962776087224483490f, 0.00036526678013615310f, -0.00680847419425845146f, -0.01468401867896318436f, -0.14137323200702667236f, -0.01608555577695369720f, 0.01970056816935539246f, 0.21868018805980682373f, -0.00347555452026426792f, -0.00823845155537128448f, -0.00272587407380342484f, -0.01416580565273761749f, -0.02833863906562328339f, 0.04174709320068359375f, -0.00020298031449783593f, 0.00049044674960896373f, 0.04575335606932640076f, 0.02933518402278423309f, 0.01543765887618064880f, -0.18001088500022888184f, 0.02062012068927288055f, -0.00591006828472018242f, -0.03819825127720832825f, 0.02329558134078979492f, 0.00054557382827624679f, 0.07214058935642242432f, -0.01122073736041784286f, -0.02596394717693328857f, -0.07582185417413711548f, -0.02978949621319770813f, -0.00126825959887355566f, 0.19358512759208679199f, 0.00146211124956607819f, 0.03618007898330688477f, 0.14657120406627655029f, -0.00675322767347097397f, 0.01853642985224723816f, -0.22282034158706665039f, -0.00060643785400316119f, 0.00971362087875604630f, 0.02320842817425727844f, 0.01486188173294067383f, -0.02351310476660728455f, -0.07556354999542236328f, -0.03471929579973220825f, 0.00366080761887133121f, -0.11244565248489379883f, 0.01574550755321979523f, 0.00698391534388065338f, 0.02594987116754055023f, 0.03214380517601966858f, -0.01331870257854461670f, 0.24046100676059722900f},
  {-0.02033477649092674255f, -0.01412287447601556778f, 0.05603815615177154541f, -0.01117324084043502808f, -0.05741142109036445618f, -0.03829975798726081848f, -0.03163621574640274048f, -0.02408512495458126068f, -0.01772598363459110260f, -0.01367894280701875687f, -0.04860293120145797729f, -0.00132964458316564560f, 0.00171104818582534790f, 0.04333295673131942749f, -0.01712338812649250031f, 0.03077559173107147217f, 0.00781905092298984528f, -0.00854829978197813034f, -0.00245606806129217148f, -0.02849777974188327789f, -0.00172574562020599842f, 0.00656515359878540039f, -0.13710348308086395264f, -0.00281212222762405872f, 0.01034213602542877197f, 0.11223892867565155029f, 0.02793888375163078308f, 0.01617346517741680145f, 0.00302851921878755093f, 0.02687838301062583923f, 0.00229445658624172211f, -0.17355026304721832275f, -0.00294523290358483791f, 0.02098095044493675232f, 0.13457624614238739014f, 0.00613092631101608276f, -0.02570308744907379150f, -0.08243800699710845947f, 0.00379715277813374996f, -0.00574671849608421326f, -0.14726883172988891602f, -0.01183409802615642548f, -0.01067642867565155029f, 0.16260601580142974854f, -0.00544804008677601814f, -0.02687480673193931580f, -0.12579177320003509521f, -0.00765223708003759384f, -0.01705278642475605011f, 0.01491708494722843170f, -0.03800772875547409058f, 0.00622864067554473877f, 0.01769678480923175812f, -0.01617235317826271057f, -0.00715622864663600922f, 0.09514513611793518066f, 0.00313083035871386528f, -0.01065171416848897934f, -0.00123398459982126951f, -0.01188614778220653534f, -0.01324749831110239029f, -0.03973409160971641541f, 0.01260027475655078888f, 0.00401284452527761459f, -0.01239080447703599930f, -0.03390441834926605225f, 0.01784753985702991486f, 0.07976651191711425781f, 0.01714411191642284393f, 0.00196819985285401344f, 0.01153741963207721710f, 0.04212094470858573914f, -0.00768930511549115181f, -0.03045717254281044006f, 0.02280008234083652496f, -0.01007937919348478317f, 0.08042717725038528442f, 0.04111264646053314209f, 0.00265844212844967842f, 0.01991884037852287292f, 0.00607898691669106483f, -0.00945606734603643417f, -0.09733037650585174561f, 0.03690893948078155518f, 0.00721662491559982300f, 0.15749599039554595947f, 0.03682868182659149170f, -0.02184973843395709991f, 0.00736695574596524239f, 0.02743877284228801727f, 0.01166911702603101730f, 0.00660463189706206322f, -0.02400622889399528503f, 0.01947137340903282166f, 0.01860810443758964539f, -0.04313047602772712708f, -0.01170630380511283875f, -0.03862903267145156860f, -0.07413303107023239136f, -0.02317174337804317474f, -0.02913751080632209778f, -0.05845773965120315552f, -0.04137353226542472839f, -0.33601510524749755859f},
  {-0.80492842197418212891f, -1.08413982391357421875f, 6.79874181747436523438f, 0.02230702526867389679f, 0.14907786250114440918f, -0.11434505134820938110f, -0.02665795572102069855f, -0.06125747784972190857f, -0.01887125335633754730f, 0.11721194535493850708f, -2.85230255126953125000f, 0.00959440227597951889f, 0.10181889683008193970f, -1.54060161113739013672f, 0.00111850886605679989f, -0.17615848779678344727f, -0.22795958817005157471f, -0.03222221881151199341f, -0.15392224490642547607f, -0.13377180695533752441f, -0.13407738506793975830f, 0.09085723012685775757f, 0.15609164535999298096f, -0.10244326293468475342f, 0.01040260866284370422f, -0.06265839934349060059f, -0.04272001609206199646f, -0.08905365318059921265f, -0.04579509794712066650f, -0.08540723472833633423f, -0.04441003501415252686f, -0.10113140940666198730f, -0.02025561779737472534f, -0.02539927884936332703f, -0.04048496484756469727f, 0.01980917528271675110f, -0.02440268918871879578f, -0.08657784014940261841f, -0.07066376507282257080f, 0.00752990553155541420f, 0.18608847260475158691f, -0.01740684919059276581f, -0.03359506651759147644f, 0.01185261178761720657f, -0.06707344949245452881f, -0.00633181305602192879f, -0.24321074783802032471f, -0.02158295549452304840f, 0.02118160016834735870f, 0.14395828545093536377f, 0.05658032372593879700f, -0.02699810639023780823f, 0.02684107236564159393f, -0.11155706644058227539f, -0.14662040770053863525f, 0.31231310963630676270f, 0.05823433771729469299f, -0.13229918479919433594f, 0.04478967934846878052f, -0.03520309180021286011f, -0.09395926445722579956f, 0.11074516922235488892f, -0.00808967929333448410f, -0.22597008943557739258f, 0.49940568208694458008f, -0.00909839477390050888f, -0.10808900743722915649f, 0.37229028344154357910f, -0.16420748829841613770f, -0.01914027519524097443f, 0.27374809980392456055f, -0.05061494186520576477f, -0.14422832429409027100f, -0.00413330784067511559f, 0.01342389732599258423f, -0.12033842504024505615f, 0.73040258884429931641f, 0.01153935678303241730f, -0.22444675862789154053f, 1.07210803031921386719f, -0.02065959013998508453f, -0.00766188604757189751f, 1.07213449478149414062f, -0.05032394826412200928f, -0.10233879089355468750f, 1.23958921432495117188f, -0.02723803371191024780f, -0.10356202721595764160f, 1.43329930305480957031f, 0.01578332670032978058f, 0.06228873133659362793f, 1.54756891727447509766f, -0.14796221256256103516f, -0.06116242334246635437f, 2.03259992599487304688f, -0.04195751249790191650f, -0.01514687854796648026f, 2.89863038063049316406f, -0.22614173591136932373f, -0.03858525305986404419f, 3.55815005302429199219f, -0.46060228347778320312f, -0.00952669512480497360f, 6.81170225143432617188f},
  {-0.04680380970239639282f, -0.08195696026086807251f, 0.01390665583312511444f, 0.00637374306097626686f, -0.02476729266345500946f, -0.00848511233925819397f, 0.01207213662564754486f, -0.00582608627155423164f, -0.02088410779833793640f, 0.03599524870514869690f, -0.15242040157318115234f, -0.01658924110233783722f, 0.00218048831447958946f, -0.12237468361854553223f, -0.03875910490751266479f, 0.01940751448273658752f, -0.04971359670162200928f, -0.01333580166101455688f, 0.00831041391938924789f, 0.01188290026038885117f, 0.00482021644711494446f, 0.03847583383321762085f, -0.04176479205489158630f, -0.01426894776523113251f, 0.01490057352930307388f, 0.06326806545257568359f, 0.00020924466662108898f, -0.04448230937123298645f, 0.01802728325128555298f, 0.02028904482722282410f, -0.00935005862265825272f, -0.00517815351486206055f, 0.02592495642602443695f, 0.01827748119831085205f, -0.14950464665889739990f, 0.03161548450589179993f, -0.00750859035179018974f, 0.08940805494785308838f, 0.03986640647053718567f, -0.01550437510013580322f, -0.06333493441343307495f, -0.03416597843170166016f, -0.01221839711070060730f, 0.05562794208526611328f, -0.02973709255456924438f, 0.00576845649629831314f, 0.02477288991212844849f, 0.00960439071059226990f, -0.00253246002830564976f, 0.05554823577404022217f, 0.01017615851014852524f, 0.03413885459303855896f, 0.10687723010778427124f, 0.00868306588381528854f, -0.00168034457601606846f, -0.12787747383117675781f, 0.02298898808658123016f, 0.00058089790400117636f, 0.18656948208808898926f, 0.00141305662691593170f, 0.00932940840721130371f, 0.19858677685260772705f, 0.01052753627300262451f, -0.02190931700170040131f, -0.01034984271973371506f, -0.00962663721293210983f, 0.04479434713721275330f, 0.01019040588289499283f, 0.00445089815184473991f, 0.01995956525206565857f, 0.01275911927223205566f, -0.03475166857242584229f, 0.00461700232699513435f, -0.10578121244907379150f, -0.03295022249221801758f, 0.00093959440710023046f, -0.07904093712568283081f, 0.01000683568418025970f, 0.01078760251402854919f, 0.02132503502070903778f, -0.02249521389603614807f, 0.00192371616140007973f, 0.04365607723593711853f, 0.00391617417335510254f, -0.00135160016361624002f, -0.00365235703065991402f, 0.01536388043314218521f, -0.04348441585898399353f, 0.07085440307855606079f, -0.00671030720695853233f, 0.00159197219181805849f, 0.00677214888855814934f, -0.00124224997125566006f, 0.02894293330609798431f, 0.03608830645680427551f, 0.00482840090990066528f, -0.00453741848468780518f, -0.03174174949526786804f, 0.02008933760225772858f, 0.00536385178565979004f, -0.11966125667095184326f, 0.04192352667450904846f, -0.02100069448351860046f, -0.00323615968227386475f},
  {-0.08563766628503799438f, -0.03719574585556983948f, 0.05722708255052566528f, -0.00341605907306075096f, -0.03501699119806289673f, 0.02206667326390743256f, -0.01597783900797367096f, 0.00982056651264429092f, -0.01053378637880086899f, 0.04154938459396362305f, -0.01678825728595256805f, -0.01136971171945333481f, -0.00163209065794944763f, 0.03010490164160728455f, 0.00006344928988255560f, -0.00366528634913265705f, 0.12686897814273834229f, 0.00068084802478551865f, 0.00493147922679781914f, 0.01760271936655044556f, 0.01648861169815063477f, 0.00855300389230251312f, -0.00231075542978942394f, -0.01557574421167373657f, -0.03705714270472526550f, 0.08073513209819793701f, 0.01015099044889211655f, -0.01225130353122949600f, 0.07769604027271270752f, 0.02354843541979789734f, -0.00642466451972723007f, -0.02003738470375537872f, 0.02171486057341098785f, 0.00808624550700187683f, -0.02747060731053352356f, -0.00870894081890583038f, 0.00420414889231324196f, 0.23847369849681854248f, -0.05643243342638015747f, 0.02474850788712501526f, 0.05671785771846771240f, 0.02038951404392719269f, 0.02475745603442192078f, -0.02215632982552051544f, -0.01208720635622739792f, -0.00195659161545336246f, -0.15765140950679779053f, 0.00692199170589447021f, 0.04465660452842712402f, 0.12566809356212615967f, -0.01136067882180213928f, 0.02999787963926792145f, -0.05509895831346511841f, -0.01287046726793050766f, -0.01805878244340419769f, 0.04316697642207145691f, -0.00286678760312497616f, 0.01377370767295360565f, -0.02315240167081356049f, -0.01386202406138181686f, 0.00475763436406850815f, 0.08635585755109786987f, 0.03468842431902885437f, -0.02782378345727920532f, -0.11603422462940216064f, -0.00944189913570880890f, 0.01401275303214788437f, -0.03786951676011085510f, 0.02179906331002712250f, -0.04340440407395362854f, -0.07708778232336044312f, 0.02045400068163871765f, -0.00245149619877338409f, -0.08738809823989868164f, -0.01587863825261592865f, -0.02713371068239212036f, -0.05611792206764221191f, 0.01947628520429134369f, 0.01170810405164957047f, -0.00559757975861430168f, -0.03390067070722579956f, 0.01383686903864145279f, -0.00820868276059627533f, 0.00180394703056663275f, -0.00952376611530780792f, 0.00107794778887182474f, -0.03807050362229347229f, 0.01547798980027437210f, 0.02958733588457107544f, -0.02315106056630611420f, -0.02542554028332233429f, 0.18148382008075714111f, -0.02693683281540870667f, -0.00037217186763882637f, 0.03477410227060317993f, -0.00286101759411394596f, -0.00237277033738791943f, -0.16401940584182739258f, -0.00483990181237459183f, -0.02754457294940948486f, 0.03456256166100502014f, -0.00401332834735512733f, -0.00641699275001883507f, -0.07024987041950225830f},
