// This file is computer-generated by onnx2c 
// (TODO: add creating command line here)
// (TODO: print creation date here )

// ONNX model:
// produced by pytorch, version 2.7.0
// ONNX IR version: 11
// Model documentation: 
/*

*/

#include <float.h>
#include <math.h>
#include <stdbool.h>
#include <stdint.h>
#include <string.h>

#define MAX(X,Y) ( X > Y ? X : Y)
#define MIN(X,Y) ( X < Y ? X : Y)
#define CLIP(X,L) ( MAX(MIN(X,L), -L) )

#if __STDC_VERSION__ < 199901L
#define FUNC_PREFIX
#else
#define FUNC_PREFIX static inline
#endif

static const float tensor_actor_0_weight[64][104] = 
{
  {1.78260874748229980469f, -2.07354331016540527344f, 0.71286839246749877930f, -1.47231280803680419922f, -3.84917640686035156250f, 3.16440963745117187500f, -0.17803511023521423340f, -0.00003138407555525191f, 0.03928786143660545349f, 0.06085004284977912903f, 0.52109104394912719727f, 0.02754004858434200287f, 0.03277397528290748596f, 0.97997415065765380859f, -0.03087692707777023315f, -0.05393629148602485657f, 0.49834302067756652832f, 0.10268513858318328857f, -0.10472352057695388794f, -0.16009154915809631348f, 0.01177705172449350357f, -0.09982322156429290771f, 0.02935503609478473663f, 0.01892582140862941742f, -0.01976520381867885590f, -0.02535066939890384674f, 0.07294889539480209351f, -0.08582759648561477661f, 0.12353247404098510742f, 0.10692641139030456543f, 0.01983080431818962097f, 0.10988839715719223022f, 0.01956444047391414642f, 0.05771756172180175781f, 0.33307510614395141602f, -0.04042398184537887573f, -0.00303004193119704723f, 0.14705179631710052490f, -0.02218485809862613678f, 0.06448683142662048340f, 0.19511009752750396729f, 0.01174728386104106903f, 0.01196978520601987839f, 0.47114801406860351562f, 0.00050917727639898658f, -0.01788053661584854126f, 0.35584786534309387207f, 0.04856453835964202881f, 0.00415348587557673454f, -0.22634418308734893799f, 0.03851159289479255676f, -0.05495487526059150696f, -0.65709674358367919922f, 0.01470173522830009460f, -0.01639207638800144196f, -0.46431156992912292480f, 0.04563223570585250854f, -0.04367876797914505005f, -0.24245078861713409424f, 0.05314222723245620728f, -0.07553933560848236084f, -0.40440595149993896484f, 0.08448670059442520142f, -0.08876962214708328247f, -0.59855300188064575195f, 0.03348907828330993652f, -0.00722105475142598152f, -0.52922648191452026367f, 0.05544177442789077759f, 0.02668122574687004089f, -0.33903679251670837402f, 0.02977886795997619629f, 0.02097124792635440826f, -0.60009175539016723633f, -0.01248662825673818588f, 0.05870546028017997742f, -0.96528279781341552734f, 0.06198314577341079712f, -0.01628165133297443390f, -0.30312874913215637207f, 0.05413971096277236938f, 0.04665007814764976501f, -0.89628493785858154297f, 0.07169146090745925903f, 0.05092793703079223633f, -0.61550104618072509766f, 0.03097254969179630280f, 0.01977847144007682800f, -2.19918513298034667969f, 0.02063994854688644409f, -0.00390820810571312904f, -1.93522965908050537109f, 0.03547398746013641357f, -0.04229074716567993164f, -0.74068790674209594727f, 0.06679166108369827271f, -0.00941190961748361588f, -1.37247860431671142578f, 0.01314400881528854370f, -0.01811867021024227142f, 0.57530885934829711914f, -0.05105135589838027954f, 0.00562477530911564827f, -0.80301111936569213867f},
  {-0.71986538171768188477f, -0.76188594102859497070f, -5.35033845901489257812f, -0.95903342962265014648f, 0.89842146635055541992f, 2.50148725509643554688f, -1.22579014301300048828f, 0.00772952754050493240f, -0.02650308236479759216f, 0.11849085986614227295f, -0.84648782014846801758f, 0.03233471512794494629f, 0.08592078834772109985f, -1.08241355419158935547f, 0.00776898907497525215f, -0.00234867841936647892f, -0.36540618538856506348f, 0.02003402635455131531f, 0.01554449647665023804f, 0.12864765524864196777f, 0.08699989318847656250f, 0.03838985785841941833f, -0.41797846555709838867f, -0.01410539820790290833f, -0.02745212800800800323f, -0.37509030103683471680f, 0.06485757976770401001f, 0.01303191762417554855f, -0.23713758587837219238f, 0.03162680193781852722f, -0.01927591487765312195f, 0.11457281559705734253f, 0.01197819784283638000f, 0.02531843073666095734f, 0.16403013467788696289f, 0.03934941813349723816f, -0.03813909366726875305f, 0.01408370491117238998f, -0.06424497812986373901f, 0.02257393486797809601f, 0.06948419660329818726f, 0.04046830162405967712f, 0.02884589508175849915f, 0.40180289745330810547f, -0.02280648984014987946f, 0.00845195259898900986f, 0.28440499305725097656f, -0.01839480921626091003f, 0.04551904276013374329f, -0.14313220977783203125f, -0.00948872044682502747f, -0.03208132833242416382f, -0.50931978225708007812f, 0.03076990321278572083f, 0.02812144160270690918f, 0.16577318310737609863f, 0.01172920409590005875f, 0.01400111895054578781f, 0.31133943796157836914f, 0.01441338565200567245f, -0.00356091069988906384f, 0.61786681413650512695f, 0.01803911291062831879f, 0.01125293690711259842f, 0.13783504068851470947f, -0.04099074751138687134f, 0.00759195024147629738f, 0.47003132104873657227f, -0.00997308827936649323f, 0.03592187911272048950f, -0.17634660005569458008f, 0.02638042159378528595f, 0.00745672965422272682f, 0.88787245750427246094f, -0.01428826060146093369f, 0.05326425656676292419f, 0.03615806251764297485f, -0.00702150491997599602f, 0.01843700371682643890f, -0.33536246418952941895f, 0.01389764901250600815f, 0.03295097500085830688f, 0.18503351509571075439f, -0.02298057451844215393f, 0.01453176792711019516f, -0.00780730973929166794f, 0.05687365680932998657f, 0.03252049908041954041f, 0.59155905246734619141f, 0.02445556782186031342f, 0.02955433726310729980f, -0.85123646259307861328f, 0.00252971495501697063f, 0.03047059848904609680f, 0.03392517566680908203f, 0.01783517375588417053f, 0.00193706667050719261f, -0.45085844397544860840f, 0.03047249838709831238f, -0.01820923760533332825f, -0.15730071067810058594f, 0.12136230617761611938f, -0.02074913121759891510f, 3.11024975776672363281f},
  {0.01242067292332649231f, 0.01600788533687591553f, 0.15082447230815887451f, 0.00079601031029596925f, 0.00655063102021813393f, -0.02151354961097240448f, -0.00033547120983712375f, 0.00046855924301780760f, -0.01773166283965110779f, 0.01377996522933244705f, 0.05699949339032173157f, -0.01042278576642274857f, -0.00927416328340768814f, 0.05916874483227729797f, -0.00098340527620166540f, 0.01144769974052906036f, -0.03182995691895484924f, -0.00113357207737863064f, -0.00793670862913131714f, 0.01228173822164535522f, -0.00277954805642366409f, -0.00903048552572727203f, 0.01684506237506866455f, 0.01540113147348165512f, 0.00094862183323130012f, 0.04781169444322586060f, 0.00345412339083850384f, 0.00535818934440612793f, -0.01644646748900413513f, -0.00258706416934728622f, -0.00431038392707705498f, -0.02978700958192348480f, -0.00440799724310636520f, 0.00073277077171951532f, 0.00677010510116815567f, -0.00735482107847929001f, 0.00725799705833196640f, 0.02968903817236423492f, 0.01137208193540573120f, -0.00179067708086222410f, 0.05052936077117919922f, -0.00164647330529987812f, -0.00383818428963422775f, 0.05472908914089202881f, 0.02509264834225177765f, 0.01208239514380693436f, -0.05780773982405662537f, 0.00752162188291549683f, -0.00703109847381711006f, -0.01954523287713527679f, -0.00917856115847826004f, -0.00748869124799966812f, -0.04348168894648551941f, 0.00476016011089086533f, 0.01275587640702724457f, 0.06129943206906318665f, 0.00808013230562210083f, -0.00910938717424869537f, 0.00511200912296772003f, 0.00100967322941869497f, 0.00378837226890027523f, 0.06711117178201675415f, -0.01539094187319278717f, 0.00494574056938290596f, 0.07740741968154907227f, -0.00014075006765779108f, 0.00131983764003962278f, -0.00893483497202396393f, -0.00258403434418141842f, 0.00528725655749440193f, 0.12095764279365539551f, -0.00954121444374322891f, 0.00722217932343482971f, 0.06267950683832168579f, 0.03006133437156677246f, -0.00118281051982194185f, -0.12756814062595367432f, 0.01670611090958118439f, 0.00174191663973033428f, -0.03072456270456314087f, -0.00263551180250942707f, 0.00245314114727079868f, 0.01125328801572322845f, -0.00240022526122629642f, -0.00285859429277479649f, -0.12799142301082611084f, -0.01470294315367937088f, -0.01268073823302984238f, 0.03172526136040687561f, -0.00811802595853805542f, -0.01346644666045904160f, 0.10387296229600906372f, 0.00031739607220515609f, -0.00952354352921247482f, 0.03932085260748863220f, 0.00407098792493343353f, 0.00380397029221057892f, 0.24783155322074890137f, 0.01725756935775279999f, -0.00198350078426301479f, 0.06906712800264358521f, 0.00254806107841432095f, -0.00948191620409488678f, -0.21337758004665374756f},
  {-0.06106187775731086731f, -1.50361442565917968750f, 1.18442654609680175781f, 0.18804399669170379639f, -3.14207911491394042969f, 0.06376619637012481689f, -0.66792148351669311523f, 0.01713380776345729828f, -0.04416492581367492676f, 0.21825802326202392578f, -1.85524046421051025391f, -0.09799715131521224976f, 0.23090501129627227783f, -1.53751182556152343750f, -0.09801965206861495972f, 0.11862947046756744385f, -1.58008515834808349609f, -0.07133471220731735229f, 0.05916067957878112793f, -1.14760923385620117188f, -0.05528397858142852783f, 0.04042804986238479614f, -0.86327880620956420898f, -0.04614991322159767151f, -0.01850289851427078247f, -0.78294634819030761719f, -0.08185596764087677002f, -0.11099349707365036011f, -1.10898852348327636719f, -0.02861599437892436981f, -0.12221267819404602051f, -0.97968494892120361328f, 0.02397304400801658630f, -0.11251965910196304321f, -1.20644354820251464844f, -0.02478627488017082214f, -0.18560840189456939697f, -2.09782481193542480469f, 0.00876540411263704300f, -0.16235157847404479980f, -1.48764777183532714844f, 0.01369340624660253525f, -0.15478476881980895996f, -1.05905461311340332031f, -0.00715411175042390823f, -0.13484172523021697998f, -1.58701610565185546875f, -0.01332121901214122772f, -0.10394611954689025879f, -2.11707830429077148438f, -0.01390583720058202744f, -0.12788996100425720215f, -2.10045790672302246094f, -0.01412770431488752365f, -0.07332885265350341797f, -1.93406307697296142578f, -0.03507404774427413940f, -0.10024128854274749756f, -1.35813963413238525391f, -0.01752080954611301422f, -0.11206819117069244385f, -1.35084927082061767578f, 0.01021384540945291519f, -0.13209931552410125732f, -1.76886439323425292969f, -0.00551994983106851578f, -0.16693612933158874512f, -1.37519407272338867188f, -0.00584729667752981186f, -0.18071249127388000488f, -0.99241542816162109375f, 0.00351591059006750584f, -0.09976166486740112305f, -1.44870591163635253906f, -0.02515938878059387207f, -0.06730671972036361694f, -1.02709209918975830078f, -0.02150959707796573639f, -0.11217265576124191284f, -0.60593628883361816406f, -0.00441066222265362740f, -0.05696059018373489380f, -0.28480014204978942871f, -0.00833042524755001068f, -0.01592438854277133942f, -0.54244494438171386719f, -0.06815245747566223145f, 0.00802475493401288986f, -1.00210690498352050781f, -0.03989185392856597900f, -0.03529646247625350952f, -0.67255413532257080078f, -0.02984608523547649384f, -0.01983507350087165833f, 0.89378529787063598633f, -0.05508249253034591675f, -0.05358093976974487305f, 0.20221973955631256104f, -0.01947163231670856476f, -0.11284389346837997437f, 1.36852502822875976562f, -0.04068943858146667480f, -0.10175367444753646851f, 1.98475909233093261719f},
  {-0.01340109296143054962f, -0.00768545316532254219f, 0.89219284057617187500f, -0.00220456463284790516f, 0.00483965966850519180f, -0.00395502243191003799f, -0.00028111162828281522f, -0.00021151632245164365f, 0.01444346550852060318f, 0.00059034029254689813f, -0.01805657893419265747f, 0.00272823707200586796f, 0.00547806220129132271f, 0.05538477748632431030f, -0.00951898284256458282f, -0.00339501281268894672f, 0.03159124031662940979f, -0.01857040263712406158f, -0.00714777037501335144f, -0.06313298642635345459f, -0.00200569583103060722f, 0.00180690910201519728f, -0.03385679423809051514f, 0.01154229231178760529f, 0.00241249939426779747f, 0.08531720936298370361f, 0.00143398030195385218f, 0.01106310728937387466f, 0.00188312167301774025f, -0.00727103045210242271f, -0.00688061863183975220f, -0.07868113368749618530f, -0.01299476157873868942f, -0.00696732103824615479f, 0.02393647283315658569f, 0.00278717721812427044f, 0.00774390390142798424f, 0.05443814769387245178f, 0.00181588961277157068f, 0.00383778917603194714f, 0.14592756330966949463f, 0.00420269276946783066f, -0.01134124863892793655f, -0.00745513383299112320f, -0.00771521637216210365f, 0.01801410131156444550f, -0.06766498833894729614f, -0.02000489644706249237f, 0.00259812595322728157f, 0.07828407734632492065f, 0.01578794047236442566f, 0.00273504527285695076f, 0.05557452887296676636f, 0.00506075145676732063f, -0.00647240038961172104f, 0.00748245138674974442f, 0.01264287158846855164f, -0.00482260389253497124f, -0.02932383678853511810f, -0.00360844843089580536f, -0.01371068041771650314f, -0.00736313406378030777f, -0.00390134821645915508f, -0.00497635407373309135f, 0.08938231319189071655f, 0.00121644826140254736f, -0.00350798666477203369f, 0.04853099584579467773f, 0.00976207479834556580f, -0.00658711185678839684f, 0.06068043038249015808f, -0.00814158655703067780f, 0.01358018629252910614f, -0.02849645167589187622f, -0.00467835646122694016f, 0.01360147260129451752f, -0.06238999217748641968f, -0.00749239977449178696f, -0.00333376764319837093f, -0.03021049313247203827f, -0.01994636096060276031f, -0.00645654927939176559f, -0.18151509761810302734f, 0.00662039220333099365f, -0.00082734640454873443f, 0.04311967268586158752f, -0.00664622290059924126f, -0.00385663378983736038f, 0.02410938404500484467f, 0.00793493539094924927f, 0.00103992386721074581f, 0.23345848917961120605f, -0.01353466603904962540f, 0.00906185247004032135f, -0.11214629560708999634f, 0.00317287794314324856f, 0.00931461621075868607f, 0.05260934680700302124f, 0.00802074745297431946f, 0.00486624240875244141f, 0.18097807466983795166f, 0.01016713306307792664f, 0.00597109179943799973f, 0.23102276027202606201f},
  {-0.00917623098939657211f, 0.00935861840844154358f, -0.27079451084136962891f, -0.00104300922248512506f, 0.00932794250547885895f, 0.00088664476061239839f, 0.00035243658930994570f, 0.00093136087525635958f, 0.01035869959741830826f, -0.00910047348588705063f, 0.03110397420823574066f, -0.00461515877395868301f, -0.00135411566589027643f, 0.04192690923810005188f, -0.00467080622911453247f, 0.00325198774226009846f, -0.00842877477407455444f, 0.00314144627191126347f, 0.01634830795228481293f, 0.05494072660803794861f, 0.00583932548761367798f, -0.00048005004646256566f, -0.04281721636652946472f, -0.00018871104111894965f, 0.00519662164151668549f, 0.03153185173869132996f, -0.00725324172526597977f, 0.00517117371782660484f, -0.02876933105289936066f, -0.00159733812324702740f, 0.00508897705003619194f, -0.14091539382934570312f, 0.00819027144461870193f, -0.00231008720584213734f, -0.01824827305972576141f, -0.00086401979206129909f, -0.01310008391737937927f, -0.04359199851751327515f, 0.00069247453939169645f, 0.00114280486013740301f, -0.04216398298740386963f, -0.00744248274713754654f, 0.00243222620338201523f, -0.00074612366734072566f, -0.00992637313902378082f, -0.00602684030309319496f, 0.05078714340925216675f, 0.01813665777444839478f, -0.00375845772214233875f, -0.00274698575958609581f, -0.00058822240680456161f, -0.00517552252858877182f, 0.05485090613365173340f, -0.00702443020418286324f, -0.00157410220708698034f, 0.00181855575647205114f, -0.00242783990688621998f, -0.00889977440237998962f, -0.05426150932908058167f, 0.00191245833411812782f, 0.00162249407730996609f, 0.01252781972289085388f, 0.00232278159819543362f, 0.00503683090209960938f, -0.05039680376648902893f, 0.00622243573889136314f, 0.00639525335282087326f, -0.07388116419315338135f, 0.00676829973235726357f, -0.00498008215799927711f, -0.04939671605825424194f, 0.00777778681367635727f, 0.00224250019527971745f, -0.06607618927955627441f, -0.00250158202834427357f, 0.00047166692093014717f, 0.03515627235174179077f, 0.00355399423278868198f, -0.00829822570085525513f, -0.05517327785491943359f, -0.00478446763008832932f, -0.00054038612870499492f, 0.17106141149997711182f, -0.00139644090086221695f, 0.00040872680256143212f, 0.00429853610694408417f, 0.00059735123068094254f, 0.00693499902263283730f, 0.06074787676334381104f, 0.00190215010661631823f, 0.00864155031740665436f, -0.04535580798983573914f, 0.00371735333465039730f, -0.00118061993271112442f, 0.05521262809634208679f, -0.00479864655062556267f, -0.00019464980869088322f, -0.03777176141738891602f, -0.00176460808143019676f, 0.00171242817305028439f, -0.02474968321621417999f, -0.01157431676983833313f, 0.00559748755767941475f, -0.17404074966907501221f},
  {-12.23298168182373046875f, -5.60832357406616210938f, -0.96001243591308593750f, 0.01675567217171192169f, -1.47626829147338867188f, -6.15465593338012695312f, -0.18728969991207122803f, -0.01592641696333885193f, 0.38585618138313293457f, 0.26230776309967041016f, 0.37441936135292053223f, -0.16539417207241058350f, -0.08993365615606307983f, -0.98516160249710083008f, -0.28487953543663024902f, -0.05846533551812171936f, 1.20350229740142822266f, -0.03947279974818229675f, -0.05472776293754577637f, 1.33822798728942871094f, -0.09031898528337478638f, -0.16264924407005310059f, 0.88531088829040527344f, -0.18344846367835998535f, 0.09470586478710174561f, 1.81907534599304199219f, -0.18183150887489318848f, 0.05740765109658241272f, 0.72550469636917114258f, 0.24293786287307739258f, -0.09289236366748809814f, 1.69024395942687988281f, -0.11587282270193099976f, -0.06861120462417602539f, 0.46641930937767028809f, -0.28112778067588806152f, -0.10310962051153182983f, 0.42548224329948425293f, -0.19410160183906555176f, -0.19173189997673034668f, 0.44924038648605346680f, -0.06919270008802413940f, -0.04553272575139999390f, -1.35888767242431640625f, 0.00567773031070828438f, -0.13942521810531616211f, -0.91395437717437744141f, -0.00141132390126585960f, 0.09071139991283416748f, 0.21953719854354858398f, -0.11918360739946365356f, -0.05642488598823547363f, -0.48377197980880737305f, -0.09577633440494537354f, -0.18873670697212219238f, -0.13670589029788970947f, -0.08204236626625061035f, -0.04706483706831932068f, 0.17159870266914367676f, -0.10363972932100296021f, 0.01353647280484437943f, 0.88501030206680297852f, -0.03544073179364204407f, 0.09375776350498199463f, 0.84780949354171752930f, -0.05580928176641464233f, -0.08655890822410583496f, 0.00560570508241653442f, -0.05540354922413825989f, 0.03203095868229866028f, 0.78361219167709350586f, -0.16891475021839141846f, -0.02856822311878204346f, -0.60634714365005493164f, 0.08456351608037948608f, 0.14542517066001892090f, 0.93691653013229370117f, -0.12381158769130706787f, -0.22662457823753356934f, -0.06978008151054382324f, -0.09371928870677947998f, -0.13150975108146667480f, -0.11763270944356918335f, -0.21486435830593109131f, 0.10384770482778549194f, 0.70225834846496582031f, -0.14181032776832580566f, -0.02895395644009113312f, 0.15578751266002655029f, -0.05013953894376754761f, -0.01977264694869518280f, -0.36174172163009643555f, -0.08834887295961380005f, -0.11633446812629699707f, 1.40841877460479736328f, -0.08102619647979736328f, -0.08702354878187179565f, 0.35864299535751342773f, -0.20590147376060485840f, 0.01660066843032836914f, 0.19851347804069519043f, -0.69574481248855590820f, -0.13494317233562469482f, 1.61102116107940673828f},
  {0.00555395660921931267f, -0.01257597561925649643f, 0.11543942242860794067f, 0.00056361214956268668f, -0.00826256535947322845f, -0.00771112134680151939f, 0.00146624119952321053f, 0.00001697026891633868f, -0.02448164671659469604f, -0.00633357651531696320f, -0.09351356327533721924f, 0.00282310741022229195f, -0.01091025862842798233f, -0.06581640243530273438f, 0.00588933005928993225f, -0.00081330077955499291f, -0.01703656092286109924f, 0.00509992009028792381f, 0.00208450295031070709f, -0.04351740330457687378f, -0.00243114889599382877f, -0.00848674774169921875f, -0.00769912078976631165f, -0.00219303090125322342f, 0.00217267218977212906f, 0.14393608272075653076f, 0.00108070403803139925f, 0.00678161485120654106f, -0.00292681297287344933f, 0.00647776992991566658f, -0.00174751330632716417f, -0.06936143338680267334f, 0.01740140654146671295f, 0.00244225817732512951f, -0.13749299943447113037f, 0.00226187566295266151f, 0.00342442910186946392f, -0.00292366347275674343f, 0.01031650509685277939f, 0.00215440825559198856f, -0.02156067639589309692f, -0.00533004105091094971f, -0.00032601330894976854f, -0.00885676313191652298f, 0.01642671227455139160f, -0.00171199475880712271f, -0.00397588033229112625f, 0.00616167951375246048f, -0.01101233717054128647f, 0.00805253721773624420f, -0.00815326254814863205f, 0.00122660549823194742f, 0.02871141210198402405f, -0.00279541569761931896f, 0.00486568175256252289f, 0.05646292865276336670f, -0.00950899813324213028f, -0.00004092921517440118f, 0.04312109202146530151f, 0.01208066474646329880f, 0.00306809972971677780f, -0.03926502540707588196f, -0.00375386164523661137f, 0.01116842869669198990f, -0.05753053724765777588f, -0.00481226341798901558f, 0.00349347898736596107f, -0.04446754232048988342f, -0.01101703010499477386f, 0.00978148449212312698f, -0.06436242908239364624f, -0.01399565860629081726f, -0.00363345677033066750f, -0.03890715166926383972f, -0.00105971086304634809f, 0.00046623349771834910f, -0.12336155772209167480f, -0.00382484355941414833f, -0.00061437947442755103f, 0.04293613508343696594f, 0.00991491600871086121f, -0.00061159534379839897f, 0.01660414040088653564f, 0.00403980072587728500f, 0.00629599392414093018f, 0.09046652913093566895f, 0.00318269338458776474f, -0.00686547672376036644f, 0.03845097869634628296f, 0.00205976492725312710f, 0.00673145381733775139f, -0.16224972903728485107f, 0.00454685557633638382f, -0.00746258907020092010f, 0.00035889455466531217f, -0.00778551725670695305f, 0.00141204462852329016f, -0.10275179892778396606f, -0.00529510527849197388f, -0.00958963949233293533f, -0.02489528059959411621f, 0.00447115441784262657f, -0.01180430594831705093f, -0.12621273100376129150f},
  {-4.28217697143554687500f, -1.48645102977752685547f, -4.33980131149291992188f, -0.26143872737884521484f, 2.16263198852539062500f, -1.39955055713653564453f, -0.41674271225929260254f, 0.00156079651787877083f, 0.02100972458720207214f, 0.25335174798965454102f, -0.67324334383010864258f, 0.10363524407148361206f, 0.19820229709148406982f, 0.31666538119316101074f, 0.04591174796223640442f, -0.06186366826295852661f, 0.62945568561553955078f, 0.09732850641012191772f, -0.15096542239189147949f, 0.07670368254184722900f, -0.03038330189883708954f, -0.07337506115436553955f, -0.06673965603113174438f, -0.07185851037502288818f, -0.20516254007816314697f, 0.02504367753863334656f, 0.00596896698698401451f, -0.16056041419506072998f, 0.38741675019264221191f, 0.04652703180909156799f, -0.09428501129150390625f, -0.36757671833038330078f, -0.04149682447314262390f, 0.04210667684674263000f, -0.16528514027595520020f, -0.02883879467844963074f, -0.01743152178823947906f, -0.65690600872039794922f, -0.11806463450193405151f, 0.17864188551902770996f, -0.49935868382453918457f, 0.07034838199615478516f, 0.25507232546806335449f, -1.16100955009460449219f, -0.05960755795240402222f, 0.14155963063240051270f, -0.23854613304138183594f, 0.01841139979660511017f, 0.24070921540260314941f, -0.11307003349065780640f, 0.02342364750802516937f, 0.11499953269958496094f, -0.46564495563507080078f, -0.02131397835910320282f, 0.20340500771999359131f, -0.17390576004981994629f, -0.06894725561141967773f, 0.06077877059578895569f, -0.64925003051757812500f, -0.09286379814147949219f, 0.07682090252637863159f, -0.63881415128707885742f, 0.01195365097373723984f, 0.07933661341667175293f, -0.02431547455489635468f, -0.04721771553158760071f, 0.01964091137051582336f, -0.57984972000122070312f, -0.01314597763121128082f, 0.03360011428594589233f, -1.33262646198272705078f, 0.00594406295567750931f, -0.09807798266410827637f, -0.44092580676078796387f, -0.04190364852547645569f, -0.03115910291671752930f, -0.18547217547893524170f, -0.04855707660317420959f, -0.20480856299400329590f, -0.36384969949722290039f, 0.08002741634845733643f, -0.10162058472633361816f, -0.43394330143928527832f, -0.02787229791283607483f, -0.08206326514482498169f, 0.31632572412490844727f, -0.04267053306102752686f, 0.02320085465908050537f, 0.12374424189329147339f, -0.09784985333681106567f, -0.06936946511268615723f, 0.32851508259773254395f, -0.12298634648323059082f, -0.03214157745242118835f, 1.19315612316131591797f, -0.09090875089168548584f, -0.03977699950337409973f, 1.47604227066040039062f, -0.14665728807449340820f, -0.16258662939071655273f, 2.29891681671142578125f, -0.13475373387336730957f, -0.23471190035343170166f, 6.72351694107055664062f},
  {0.01257843151688575745f, -0.01993194967508316040f, 0.81078296899795532227f, -0.00050086842384189367f, -0.00276658846996724606f, 0.01198708359152078629f, 0.00174637453164905310f, -0.00095822237199172378f, 0.00844578817486763000f, -0.00014670126256532967f, -0.09600285440683364868f, 0.00918822456151247025f, -0.00185118720401078463f, -0.13621173799037933350f, 0.00555527862161397934f, -0.00941705331206321716f, 0.03520600497722625732f, -0.00929011031985282898f, -0.00757181551307439804f, 0.03965925797820091248f, -0.00037160582724027336f, 0.00152229843661189079f, -0.01766644045710563660f, -0.01199615653604269028f, -0.00469787651672959328f, -0.04336110875010490417f, 0.01041236799210309982f, 0.00205224170349538326f, -0.05463441461324691772f, 0.00781269930303096771f, 0.00026380905183032155f, -0.01804415695369243622f, 0.00355070154182612896f, 0.00010056940664071590f, -0.02594162151217460632f, -0.00240500876680016518f, -0.00355461332947015762f, -0.00570473074913024902f, 0.00457601761445403099f, 0.00662905583158135414f, 0.07119617611169815063f, -0.00747540313750505447f, 0.00496629206463694572f, -0.01968299224972724915f, -0.01438915543258190155f, -0.00904703978449106216f, -0.01208514440804719925f, -0.00662276009097695351f, -0.00099485786631703377f, -0.04097311571240425110f, 0.00504334643483161926f, 0.00526007730513811111f, -0.05467721074819564819f, 0.00438250927254557610f, 0.00470727402716875076f, 0.05845598131418228149f, -0.01110647711902856827f, -0.00072132633067667484f, -0.01440976094454526901f, 0.00506874080747365952f, -0.00337100750766694546f, -0.03953430056571960449f, 0.00130567280575633049f, -0.00442167511209845543f, 0.03567895293235778809f, -0.00221618078649044037f, 0.00091744447126984596f, 0.01621059328317642212f, -0.01291970908641815186f, 0.00098690320737659931f, 0.06836511939764022827f, -0.00952805485576391220f, -0.00176090782042592764f, 0.07068549841642379761f, -0.00508450344204902649f, -0.00032905759871937335f, -0.11162842810153961182f, -0.00072842621011659503f, -0.00372810615226626396f, 0.03931865468621253967f, -0.00537958322092890739f, 0.00399359082803130150f, 0.01225654128938913345f, 0.00575915351510047913f, 0.00283960718661546707f, -0.08367321640253067017f, 0.00092423160094767809f, 0.00370537629351019859f, -0.03939493373036384583f, 0.00362289161421358585f, -0.00227548275142908096f, 0.05115136131644248962f, -0.00068978377385064960f, -0.00202907389029860497f, 0.03070946410298347473f, 0.00146483536809682846f, 0.00563713442534208298f, 0.18743011355400085449f, 0.00373472436331212521f, -0.00418404117226600647f, 0.04722635820508003235f, 0.00879579968750476837f, 0.00240169069729745388f, -0.15117146074771881104f},
  {-0.00547065818682312965f, -0.03214975073933601379f, 1.37527740001678466797f, -0.00080221507232636213f, 0.00223800772801041603f, 0.01265627518296241760f, 0.00149676715955138206f, -0.00441143848001956940f, 0.01724790036678314209f, -0.00204428774304687977f, 0.04659904167056083679f, 0.00740666454657912254f, -0.01166426856070756912f, -0.03858390077948570251f, -0.00546016637235879898f, -0.00998164713382720947f, -0.00377918663434684277f, -0.00834971293807029724f, -0.01187960524111986160f, -0.04249091446399688721f, 0.00697814347222447395f, 0.02135337516665458679f, 0.02994484268128871918f, -0.01197031605988740921f, -0.00432556867599487305f, 0.00742198945954442024f, 0.00293452176265418530f, -0.01065928395837545395f, 0.00224351999349892139f, 0.01141682080924510956f, 0.00190237478818744421f, -0.06623446941375732422f, -0.00378771126270294189f, 0.00054447300499305129f, -0.05229369923472404480f, -0.00562704401090741158f, 0.00339614576660096645f, -0.06496444344520568848f, -0.00904745981097221375f, 0.00243921950459480286f, 0.05911730974912643433f, 0.00264498172327876091f, 0.01040311343967914581f, 0.10708373039960861206f, -0.01423580292612314224f, -0.00025506605743430555f, -0.07510764151811599731f, -0.00405954010784626007f, 0.00153544812928885221f, -0.08939339220523834229f, 0.00038349765236489475f, 0.00225824303925037384f, -0.02846661396324634552f, 0.00214732228778302670f, -0.00014585269673261791f, 0.08991503715515136719f, -0.00760256359353661537f, -0.00956441555172204971f, -0.02597265876829624176f, -0.00492990249767899513f, 0.00092164421221241355f, -0.07209037989377975464f, 0.00069996330421417952f, -0.00198660138994455338f, -0.03467491641640663147f, -0.00921524874866008759f, -0.00904233660548925400f, 0.01431888714432716370f, -0.00274242321029305458f, 0.00670711090788245201f, 0.15170250833034515381f, 0.00313787022605538368f, -0.00856139324605464935f, 0.15451011061668395996f, 0.00076243304647505283f, 0.00559512432664632797f, 0.01827299781143665314f, 0.00183039519470185041f, -0.00074169255094602704f, 0.09974278509616851807f, 0.00698900595307350159f, 0.00526521634310483932f, 0.00491786049678921700f, 0.00429973751306533813f, 0.00079042086144909263f, -0.09645821899175643921f, -0.00625931611284613609f, -0.00852272752672433853f, -0.17106190323829650879f, -0.00113814766518771648f, -0.00139905686955899000f, 0.05137197300791740417f, -0.00573872961103916168f, -0.00170988077297806740f, -0.16294650733470916748f, 0.00546982977539300919f, 0.00978097226470708847f, 0.10916714370250701904f, 0.00959591381251811981f, 0.00577746285125613213f, 0.26990270614624023438f, 0.00579184992238879204f, 0.00532532343640923500f, 0.24234698712825775146f},
  {0.01196768041700124741f, 0.03771322965621948242f, -2.18957972526550292969f, -0.00226092990487813950f, 0.00602410081773996353f, -0.00108767580240964890f, -0.00081809295807033777f, 0.00436855340376496315f, -0.00207415339536964893f, -0.01844243519008159637f, 0.21917496621608734131f, -0.00326622044667601585f, 0.00317571219056844711f, 0.05476003140211105347f, -0.00105171627365052700f, -0.00219434034079313278f, -0.13310639560222625732f, -0.00008892393816495314f, 0.00227490765973925591f, -0.17527236044406890869f, 0.00249722739681601524f, -0.00728380819782614708f, -0.15923385322093963623f, -0.00617142533883452415f, -0.00143717590253800154f, -0.01690658368170261383f, 0.00419253529980778694f, -0.00009979689639294520f, 0.00693252822384238243f, -0.00241554714739322662f, -0.00310454913415014744f, 0.03711788356304168701f, 0.00286209839396178722f, 0.00841444730758666992f, 0.10382209718227386475f, -0.00349952280521392822f, 0.00085858156671747565f, -0.04067958518862724304f, 0.00878637377172708511f, 0.00159424496814608574f, -0.02132089808583259583f, -0.00189524784218519926f, -0.00180027587339282036f, -0.01265421789139509201f, -0.00371151906438171864f, -0.00150667200796306133f, 0.00595881976187229156f, -0.00251199700869619846f, 0.00266686431132256985f, 0.07056015729904174805f, -0.00061873072991147637f, -0.00277830567210912704f, 0.01292710658162832260f, -0.00874713715165853500f, -0.00154058518819510937f, -0.16007079184055328369f, -0.00436260271817445755f, -0.00563222635537385941f, -0.06808229535818099976f, 0.00962430052459239960f, 0.00281625264324247837f, -0.07400216907262802124f, -0.00287392036989331245f, -0.00190781836863607168f, -0.06765338778495788574f, 0.00125061918515712023f, 0.00298415496945381165f, -0.03628956153988838196f, -0.00574398972094058990f, -0.00115970626939088106f, -0.10017634183168411255f, 0.00187675608322024345f, -0.00681331660598516464f, 0.05788701027631759644f, 0.00153744942508637905f, 0.00101025286130607128f, 0.14079944789409637451f, 0.00030232555582188070f, 0.00152602465823292732f, 0.00099430570844560862f, -0.00433790357783436775f, -0.00923044886440038681f, 0.17748513817787170410f, -0.00280046719126403332f, 0.00157519639469683170f, -0.13542649149894714355f, -0.00263026938773691654f, 0.00220037531107664108f, 0.39374500513076782227f, 0.00798568967729806900f, 0.00669947173446416855f, -0.05851019173860549927f, 0.00068415689747780561f, -0.00056902936194092035f, -0.08800340443849563599f, -0.00533937290310859680f, 0.00216290960088372231f, -0.18470172584056854248f, -0.00021611331612803042f, -0.00237517757341265678f, -0.40970996022224426270f, -0.00072362105129286647f, 0.00468116393312811852f, -0.27300640940666198730f},
  {-0.01449285820126533508f, -0.02438661456108093262f, 1.45183312892913818359f, -0.00038749942905269563f, -0.00454336684197187424f, 0.00486720399931073189f, 0.00031339656561613083f, -0.00284960819408297539f, 0.00479415152221918106f, 0.01367975398898124695f, -0.06229599937796592712f, 0.00211592740379273891f, 0.00040152092697098851f, -0.04484368860721588135f, 0.00001088291628548177f, -0.00383217516355216503f, 0.00947300717234611511f, -0.00091321184299886227f, 0.00618254533037543297f, 0.01761892251670360565f, 0.00050178531091660261f, -0.00263348291628062725f, 0.03664088994264602661f, -0.00871356390416622162f, -0.00489879166707396507f, 0.14991258084774017334f, 0.00781695358455181122f, -0.00913764629513025284f, 0.09878087043762207031f, 0.00058643962256610394f, -0.00200102711096405983f, -0.02123409323394298553f, -0.00660057784989476204f, 0.00895710010081529617f, 0.03702988848090171814f, -0.00017290074902120978f, -0.01310904882848262787f, -0.00019931014685425907f, -0.00527181988582015038f, 0.00414461921900510788f, 0.06629156321287155151f, 0.00563603173941373825f, -0.00286138150840997696f, 0.03097762912511825562f, -0.00442621856927871704f, 0.00473012914881110191f, -0.09125080704689025879f, -0.01052918937057256699f, 0.00698751118034124374f, -0.04254948347806930542f, -0.00278851413168013096f, -0.00253184023313224316f, -0.06492962688207626343f, 0.00526660401374101639f, 0.00650569517165422440f, -0.00427337363362312317f, 0.00269385823048651218f, 0.00136170024052262306f, 0.00247213384136557579f, -0.00152633909601718187f, 0.00035387781099416316f, -0.01098484639078378677f, -0.00937635172158479691f, 0.00085579382721334696f, 0.03337893262505531311f, -0.00409095454961061478f, 0.00032298159203492105f, 0.11418228596448898315f, 0.00233822874724864960f, 0.00310562923550605774f, 0.14454557001590728760f, -0.00458693876862525940f, 0.00205702055245637894f, 0.14564843475818634033f, 0.01064297929406166077f, 0.00177453423384577036f, -0.02778136171400547028f, 0.00604566186666488647f, 0.00342242280021309853f, -0.10978394001722335815f, -0.00389806693419814110f, 0.00363720930181443691f, 0.01725349389016628265f, -0.00380014441907405853f, -0.00219982978887856007f, -0.16250608861446380615f, -0.00418452685698866844f, -0.00697716744616627693f, 0.00391764752566814423f, -0.00507125165313482285f, -0.01267237868160009384f, 0.14115230739116668701f, 0.00020690682868007571f, -0.00479014404118061066f, 0.00699631078168749809f, 0.00725282495841383934f, 0.00005667974983225577f, 0.14942181110382080078f, 0.00732344621792435646f, -0.00067633634898811579f, 0.16480426490306854248f, 0.00255756895057857037f, 0.00200103945098817348f, 0.13584092259407043457f},
  {-0.14280681312084197998f, -0.09244161099195480347f, 2.30278348922729492188f, -0.03451062366366386414f, -0.03867055848240852356f, 0.05204751715064048767f, -0.05331433936953544617f, -0.02057601138949394226f, -0.00286252750083804131f, 0.03617844358086585999f, -0.06205381453037261963f, 0.04251730442047119141f, 0.01125235203653573990f, 0.18394756317138671875f, 0.03946781903505325317f, 0.04693344235420227051f, 0.48268559575080871582f, 0.03981694206595420837f, -0.02678171917796134949f, 0.37547376751899719238f, 0.01209249161183834076f, -0.02857915125787258148f, 0.41199699044227600098f, 0.03601947426795959473f, -0.00090928788995370269f, 0.36850115656852722168f, 0.05014155805110931396f, -0.01833420619368553162f, 0.13995496928691864014f, 0.06827892363071441650f, 0.00815661624073982239f, 0.02237667888402938843f, 0.04930460825562477112f, 0.00491168582811951637f, 0.07448112964630126953f, 0.09724216908216476440f, 0.01811430975794792175f, -0.12541911005973815918f, 0.01505228783935308456f, -0.04636620730161666870f, 0.08880204707384109497f, 0.00595957553014159203f, -0.02991748042404651642f, 0.10118034482002258301f, 0.08028483390808105469f, 0.03677851706743240356f, 0.00427127629518508911f, 0.02380233630537986755f, 0.04353377223014831543f, 0.03768378123641014099f, -0.04273461923003196716f, 0.04400240629911422729f, -0.06628876924514770508f, 0.01107455603778362274f, 0.04155695065855979919f, 0.23820313811302185059f, 0.01418288145214319229f, -0.00811824947595596313f, 0.11395809054374694824f, 0.00371649418957531452f, 0.01315474230796098709f, 0.18727672100067138672f, -0.03020622022449970245f, 0.02514196559786796570f, 0.03950663655996322632f, 0.00099969108123332262f, 0.01112298015505075455f, -0.09249210357666015625f, -0.04386216402053833008f, 0.02409254945814609528f, -0.05274080857634544373f, -0.06266885250806808472f, -0.02564267814159393311f, -0.30877020955085754395f, -0.04994440823793411255f, 0.02301206439733505249f, -0.20433834195137023926f, -0.08173617720603942871f, 0.00511118723079562187f, 0.15158246457576751709f, -0.02824601903557777405f, -0.01147866435348987579f, -0.06987883895635604858f, -0.01889994926750659943f, -0.07100519537925720215f, 0.17866946756839752197f, -0.02653025090694427490f, 0.00612268969416618347f, -0.33982208371162414551f, -0.04318828135728836060f, -0.00812538433820009232f, -0.13959111273288726807f, -0.03033802285790443420f, -0.00698171881958842278f, 0.27226692438125610352f, -0.03639702871441841125f, 0.00797107536345720291f, 0.36319962143898010254f, -0.00546335102990269661f, -0.03781761601567268372f, 0.92211860418319702148f, 0.00495524145662784576f, 0.03770650923252105713f, 1.17432248592376708984f},
  {1.38348877429962158203f, -1.82519412040710449219f, 4.84317874908447265625f, 0.04584707319736480713f, -0.58646130561828613281f, 0.87350732088088989258f, -0.06870533525943756104f, -0.00473296642303466797f, 0.00810391083359718323f, -0.06863357126712799072f, 0.83126288652420043945f, -0.03066395409405231476f, -0.02818471565842628479f, 0.13176545500755310059f, 0.02673752978444099426f, 0.00374471745453774929f, -0.29212543368339538574f, 0.00004332546086516231f, 0.00381678622215986252f, -0.15023028850555419922f, -0.01644449494779109955f, -0.03927694633603096008f, -0.12606754899024963379f, 0.03700732439756393433f, 0.00544795347377657890f, 0.16554430127143859863f, -0.01208405941724777222f, 0.02661611884832382202f, -0.25998055934906005859f, -0.06091732531785964966f, 0.01788736134767532349f, 0.18697954714298248291f, -0.03449627384543418884f, -0.01484081242233514786f, 0.23811356723308563232f, -0.01200918760150671005f, 0.05112980678677558899f, 0.35496550798416137695f, 0.00993147678673267365f, 0.01374819781631231308f, -0.04699631035327911377f, -0.04854820296168327332f, 0.02210194803774356842f, -0.03210892528295516968f, 0.03849795088171958923f, 0.05890850722789764404f, 0.24135169386863708496f, -0.00956414733082056046f, 0.01598711311817169189f, 0.20755317807197570801f, -0.03235656023025512695f, 0.03961676359176635742f, 0.10544279962778091431f, -0.01440830808132886887f, -0.00743559282273054123f, -0.03274680674076080322f, 0.00000347798231814522f, 0.00888275448232889175f, 0.47699835896492004395f, -0.02298113331198692322f, 0.06713192164897918701f, 0.15279626846313476562f, -0.05393460020422935486f, 0.03621920570731163025f, -0.02590388618409633636f, 0.02001316659152507782f, 0.06162456423044204712f, 0.25648245215415954590f, -0.01158350240439176559f, 0.02331210672855377197f, 0.19781172275543212891f, -0.04859784245491027832f, 0.06107338890433311462f, -0.19222396612167358398f, 0.02172464318573474884f, 0.02079668454825878143f, 0.24499703943729400635f, -0.01817880570888519287f, 0.07052783668041229248f, -0.00327682169154286385f, -0.02828288637101650238f, 0.02299479581415653229f, 0.40605744719505310059f, 0.01202546898275613785f, 0.03201493620872497559f, 0.21680125594139099121f, -0.02005046419799327850f, 0.01543784793466329575f, 0.68731558322906494141f, 0.01123064197599887848f, 0.06843753904104232788f, 0.77654635906219482422f, 0.04709969460964202881f, 0.06733822822570800781f, 0.26201525330543518066f, 0.02301249466836452484f, 0.08134619891643524170f, 0.33909100294113159180f, 0.02271269448101520538f, 0.08549191802740097046f, -0.89109683036804199219f, 0.02712905965745449066f, 0.00464155105873942375f, -3.89287137985229492188f},
  {0.00019897572929039598f, -0.02490701712667942047f, 0.85412693023681640625f, -0.00093945459229871631f, 0.00585866346955299377f, 0.01546052005141973495f, 0.00082055531674996018f, -0.00220061000436544418f, 0.01926438324153423309f, 0.00004062161315232515f, -0.00004297620398574509f, 0.00686507998034358025f, 0.00404178211465477943f, 0.00395595096051692963f, -0.00014336981985252351f, 0.00164823804516345263f, 0.04780859127640724182f, -0.00986154843121767044f, -0.00320140644907951355f, -0.05359600111842155457f, -0.00507745426148176193f, -0.00065327697666361928f, -0.05643098801374435425f, -0.00074413750553503633f, -0.00312051665969192982f, -0.07039090245962142944f, 0.00159960717428475618f, -0.00169784820172935724f, 0.00366942980326712132f, 0.00549823045730590820f, 0.01709826663136482239f, -0.06635368615388870239f, -0.00635798135772347450f, -0.00119583751074969769f, 0.06118800863623619080f, 0.00256096245720982552f, -0.00115727458614856005f, 0.02786203846335411072f, -0.01391059812158346176f, -0.00362604320980608463f, -0.04021567106246948242f, 0.00231812428683042526f, 0.01133600529283285141f, -0.03930821642279624939f, -0.01165441051125526428f, -0.00261624716222286224f, -0.02622999064624309540f, -0.00392876379191875458f, -0.00017566310998518020f, -0.05163986608386039734f, 0.00525472173467278481f, 0.00407298887148499489f, -0.03459603339433670044f, -0.00227738334797322750f, -0.00560255208984017372f, -0.08735545724630355835f, 0.00004231327329762280f, -0.00682051246985793114f, -0.05177796632051467896f, -0.00743765523657202721f, -0.01194381061941385269f, 0.03870032355189323425f, 0.00701705971732735634f, 0.01094662304967641830f, 0.04594866931438446045f, -0.00103030982427299023f, -0.00129082659259438515f, -0.04576449468731880188f, -0.00035807632957585156f, -0.00105965277180075645f, 0.10491280257701873779f, 0.00183433340862393379f, -0.00328961899504065514f, 0.05122221261262893677f, -0.01380952913314104080f, 0.00263029756024479866f, -0.00452041020616889000f, -0.00531379319727420807f, -0.00852344091981649399f, 0.06314263492822647095f, 0.00017473596381023526f, 0.00225181994028389454f, -0.08435985445976257324f, 0.01225916016846895218f, 0.00237826025113463402f, 0.01551926508545875549f, 0.00475869933143258095f, -0.00234498246572911739f, -0.10014896094799041748f, -0.00265592057257890701f, 0.00498378742486238480f, 0.10469387471675872803f, -0.00342085794545710087f, 0.00130703905597329140f, -0.03108575381338596344f, 0.00242158980108797550f, -0.00621321657672524452f, 0.25190737843513488770f, -0.00141985295340418816f, 0.00361729972064495087f, 0.06186253949999809265f, -0.00359897734597325325f, 0.01852783374488353729f, -0.16281728446483612061f},
  {0.00849222391843795776f, 0.03677113726735115051f, -1.45892405509948730469f, 0.00059226516168564558f, 0.00532612064853310585f, -0.01357435435056686401f, -0.00038899166975170374f, 0.00481336191296577454f, -0.01288728043437004089f, -0.00532464729622006416f, 0.13246624171733856201f, -0.00475396960973739624f, -0.00864079315215349197f, 0.08913723379373550415f, -0.00096316967392340302f, -0.00233418098650872707f, 0.02406837977468967438f, -0.00092862168094143271f, 0.00212999223731458187f, -0.10235732048749923706f, -0.00211811554618179798f, 0.00039064031443558633f, -0.06162495911121368408f, 0.00031544850207865238f, 0.00546358898282051086f, -0.00734307616949081421f, 0.00003278386429883540f, -0.00468572601675987244f, 0.00861348491162061691f, 0.00292809749953448772f, 0.00498572364449501038f, 0.00214489153586328030f, 0.00912608765065670013f, 0.00191003363579511642f, 0.03447972983121871948f, -0.00643013743683695793f, 0.00272307009436190128f, -0.03025446832180023193f, 0.02210496552288532257f, -0.00689516961574554443f, -0.00211589247919619083f, 0.00196777703240513802f, -0.01160571258515119553f, 0.00532898632809519768f, 0.01764010637998580933f, 0.00499892188236117363f, -0.01216016709804534912f, 0.00061853264924138784f, -0.00521343760192394257f, -0.03847112134099006653f, -0.00665569631382822990f, 0.00286443671211600304f, 0.09601412713527679443f, 0.00139848561957478523f, -0.01220077835023403168f, 0.04778387770056724548f, -0.00514207826927304268f, 0.00332177523523569107f, 0.03992205858230590820f, 0.01530243922024965286f, 0.00839432701468467712f, 0.06754110753536224365f, -0.00581652484834194183f, 0.00414268439635634422f, -0.04560696333646774292f, 0.00753103476017713547f, 0.00313917826861143112f, -0.08595324307680130005f, -0.00650989636778831482f, -0.00087883538799360394f, -0.08539345115423202515f, -0.00887593161314725876f, 0.00576147809624671936f, -0.13939255475997924805f, 0.00710590276867151260f, -0.00499510252848267555f, -0.10989069193601608276f, 0.00196626503020524979f, 0.00688192946836352348f, -0.05142600089311599731f, -0.00712045747786760330f, -0.00466749491170048714f, 0.08857081830501556396f, 0.00291006383486092091f, 0.00412643281742930412f, 0.05781555548310279846f, -0.00379096856340765953f, -0.01580775156617164612f, 0.17550294101238250732f, 0.00580262253060936928f, -0.00307567231357097626f, 0.14658735692501068115f, 0.00377226597629487514f, -0.00445106299594044685f, 0.11791975051164627075f, -0.00887270923703908920f, -0.00236280099488794804f, -0.05902953073382377625f, 0.00634242268279194832f, -0.00280578690581023693f, -0.36692249774932861328f, -0.00398615607991814613f, -0.00738685345277190208f, -0.37701147794723510742f},
  {1.04538393020629882812f, -4.28316926956176757812f, 0.26841396093368530273f, -1.40223932266235351562f, 3.54141688346862792969f, 1.85476005077362060547f, 1.14063680171966552734f, 0.00702703977003693581f, -0.01597693376243114471f, -0.14699846506118774414f, -0.26192164421081542969f, -0.01438568066805601120f, -0.11228720843791961670f, -0.38797980546951293945f, 0.00750927859917283058f, -0.07994575053453445435f, -0.31116449832916259766f, -0.06213600188493728638f, -0.03344479203224182129f, 0.14110212028026580811f, -0.00045178568689152598f, -0.04653297737240791321f, -0.16173326969146728516f, 0.00600265711545944214f, -0.04821815714240074158f, -0.44579130411148071289f, 0.00036570997326634824f, -0.04410628974437713623f, -0.19260860979557037354f, -0.03401948511600494385f, -0.07149845361709594727f, -0.04685807600617408752f, 0.02179165743291378021f, -0.08870492130517959595f, -0.31095841526985168457f, -0.00019535121100489050f, -0.04942503198981285095f, -0.55380004644393920898f, 0.01624403893947601318f, -0.04225933551788330078f, -0.49236306548118591309f, 0.00141010631341487169f, -0.04773969203233718872f, -0.16586098074913024902f, 0.01750268042087554932f, -0.01902492903172969818f, 0.02585229277610778809f, 0.00538350222632288933f, -0.02765410952270030975f, -0.28984990715980529785f, 0.00485313450917601585f, -0.01156251039355993271f, -0.18532770872116088867f, 0.02558054588735103607f, -0.00737554626539349556f, -0.37597841024398803711f, -0.00052859977586194873f, -0.02156207896769046783f, -0.16907612979412078857f, 0.02224748395383358002f, -0.01102352235466241837f, -0.50936311483383178711f, 0.00401998730376362801f, -0.04155055433511734009f, -0.56645190715789794922f, 0.01080667879432439804f, -0.03698375448584556580f, -0.55467951297760009766f, 0.00915819406509399414f, -0.07940956950187683105f, -0.24358816444873809814f, 0.00151130883023142815f, -0.05280297249555587769f, -0.34500017762184143066f, 0.01789651066064834595f, -0.08031280338764190674f, -0.23476943373680114746f, 0.00955187249928712845f, -0.04932436347007751465f, -0.65518587827682495117f, -0.00064006284810602665f, -0.06683703511953353882f, 0.23918144404888153076f, 0.01774445176124572754f, -0.06362443417310714722f, -0.37036669254302978516f, 0.02045667730271816254f, -0.05339079722762107849f, -0.14262768626213073730f, 0.02046339213848114014f, -0.04156246781349182129f, -0.59237384796142578125f, 0.03738538175821304321f, -0.03781739622354507446f, 0.23338147997856140137f, 0.04086837917566299438f, -0.08019784092903137207f, -0.50034135580062866211f, 0.05904558300971984863f, -0.07229093462228775024f, -1.05284214019775390625f, 0.06212104111909866333f, -0.09713074564933776855f, -1.69137108325958251953f},
  {0.24836201965808868408f, -0.14471566677093505859f, -2.68447923660278320312f, -0.01582448370754718781f, 0.80728739500045776367f, 0.27621269226074218750f, -0.13798047602176666260f, 0.01279672794044017792f, 0.08264640718698501587f, -0.45967960357666015625f, -0.65056312084197998047f, 0.04237272217869758606f, -0.41582506895065307617f, -0.43700996041297912598f, 0.07708802074193954468f, -0.39171698689460754395f, -0.54870647192001342773f, 0.05188049376010894775f, -0.35553696751594543457f, -0.56264597177505493164f, 0.04987406358122825623f, -0.37148648500442504883f, -0.07347343116998672485f, 0.08291605114936828613f, -0.30143594741821289062f, -0.07655121386051177979f, 0.02353474311530590057f, -0.26898756623268127441f, 0.04924326762557029724f, 0.02075688727200031281f, -0.20152722299098968506f, 0.40085071325302124023f, 0.00495053129270672798f, -0.18499535322189331055f, -0.02831715717911720276f, 0.01537950988858938217f, -0.09489350020885467529f, 0.23799015581607818604f, 0.03517591580748558044f, -0.09432321041822433472f, 0.11134818196296691895f, -0.04265116155147552490f, -0.06718131899833679199f, 0.05460920184850692749f, 0.04731331020593643188f, -0.03900703042745590210f, -0.21071614325046539307f, 0.00456719659268856049f, -0.07122176885604858398f, 0.06137320771813392639f, 0.01241020765155553818f, -0.04716453328728675842f, 0.08715120702981948853f, 0.00386698450893163681f, -0.07456447184085845947f, -0.27164211869239807129f, 0.01149503886699676514f, -0.08349638432264328003f, -0.30868822336196899414f, 0.00556422909721732140f, -0.10035980492830276489f, -0.49741813540458679199f, -0.02969220466911792755f, -0.12689499557018280029f, -0.77887070178985595703f, 0.02785700745880603790f, -0.14738807082176208496f, -0.82408642768859863281f, -0.01214093808084726334f, -0.15279519557952880859f, -0.45498171448707580566f, -0.03341200202703475952f, -0.11002742499113082886f, -1.02181017398834228516f, 0.01106803491711616516f, -0.11030594259500503540f, -0.76385837793350219727f, 0.00663430429995059967f, -0.01952149905264377594f, -1.06915342807769775391f, -0.01404637563973665237f, -0.02206001244485378265f, -0.70421791076660156250f, 0.02254322730004787445f, 0.01701652072370052338f, -1.17919218540191650391f, -0.00580517854541540146f, 0.03876388445496559143f, -1.09867811203002929688f, 0.01143260579556226730f, 0.12113052606582641602f, -0.25094628334045410156f, 0.02388294413685798645f, 0.12304892390966415405f, -0.83475226163864135742f, -0.01324603334069252014f, 0.16907899081707000732f, -0.65282040834426879883f, -0.02449766360223293304f, 0.22945584356784820557f, -1.30626070499420166016f, -0.09114202857017517090f, 0.35410571098327636719f, -2.08494973182678222656f},
  {0.00918396003544330597f, 0.01002738345414400101f, -0.07453925907611846924f, 0.00060412957100197673f, -0.00409786216914653778f, -0.00501209590584039688f, -0.00108608405571430922f, -0.00091461843112483621f, -0.01209172140806913376f, -0.00497356662526726723f, -0.02991451881825923920f, 0.00159364414867013693f, -0.01039330475032329559f, 0.02240977063775062561f, 0.01557231694459915161f, 0.00083377619739621878f, 0.01891834102571010590f, 0.00645056925714015961f, -0.00279322802089154720f, 0.11602812260389328003f, -0.00546192890033125877f, -0.00347077101469039917f, 0.11814560741186141968f, 0.00134639383759349585f, 0.00977145414799451828f, 0.00435230694711208344f, -0.00483544869348406792f, 0.00334933423437178135f, -0.01378160901367664337f, -0.00606425991281867027f, 0.01045687403529882431f, -0.05218464881181716919f, 0.00031481057521887124f, -0.00961059611290693283f, 0.00100949266925454140f, 0.00119790853932499886f, 0.00001917709232657216f, -0.07739199697971343994f, 0.00120216549839824438f, 0.01124430820345878601f, -0.05912325531244277954f, -0.00622352538630366325f, -0.00130447396077215672f, 0.01650040037930011749f, 0.01715492084622383118f, 0.00574626820161938667f, 0.08422997593879699707f, -0.01208081562072038651f, 0.01757654547691345215f, 0.05274927616119384766f, -0.00190065149217844009f, -0.00405231257900595665f, 0.13196794688701629639f, 0.00022528093541041017f, -0.00484826136380434036f, 0.03828182816505432129f, -0.00094769458519294858f, 0.00313246669247746468f, 0.03606369346380233765f, -0.00207151612266898155f, -0.00246677058748900890f, -0.00412279460579156876f, -0.00770157668739557266f, -0.00541388243436813354f, -0.10451011359691619873f, -0.00960983522236347198f, -0.00675188237801194191f, -0.09201034903526306152f, -0.00262400996871292591f, 0.00084235769463703036f, 0.02362868003547191620f, -0.00932118296623229980f, -0.00292611960321664810f, 0.00246005575172603130f, 0.00457882229238748550f, 0.00067475653486326337f, 0.07276151329278945923f, 0.00860531628131866455f, -0.01658948138356208801f, -0.00908161047846078873f, 0.00207128375768661499f, 0.00640337122604250908f, 0.03123723343014717102f, -0.00114270171616226435f, 0.01284538488835096359f, 0.06052885577082633972f, 0.00530259218066930771f, -0.00103762384969741106f, -0.00637725833803415298f, -0.00580023787915706635f, -0.00201297434978187084f, -0.09553790092468261719f, -0.00862596556544303894f, 0.00768086919561028481f, 0.02058586850762367249f, 0.01049758214503526688f, 0.00847350433468818665f, 0.08145072311162948608f, 0.00445204833522439003f, -0.00931278429925441742f, 0.03933754935860633850f, 0.00550477625802159309f, -0.00771063985303044319f, -0.01947728544473648071f},
  {-7.48979425430297851562f, -1.74472796916961669922f, 3.40630698204040527344f, 0.13801893591880798340f, 1.04727160930633544922f, -1.37635016441345214844f, 0.34824892878532409668f, -0.00469604972749948502f, 0.00031540443887934089f, 0.11586429178714752197f, 0.30428472161293029785f, -0.02036639489233493805f, 0.11928737908601760864f, -0.37690672278404235840f, -0.00387684116140007973f, 0.07885616272687911987f, -0.57529687881469726562f, -0.02308532781898975372f, 0.05361094698309898376f, -0.40312385559082031250f, -0.01059713959693908691f, 0.00397444888949394226f, -0.36455422639846801758f, -0.00197649584151804447f, 0.01491501834243535995f, -0.31713166832923889160f, -0.00672643305733799934f, 0.02478470094501972198f, -0.81758713722229003906f, -0.04839099571108818054f, -0.01273449324071407318f, -0.22337779402732849121f, -0.04461983963847160339f, 0.02854459360241889954f, -0.09747692942619323730f, -0.01066023483872413635f, 0.05159390345215797424f, 0.01924069970846176147f, -0.04798686504364013672f, 0.01868236437439918518f, -0.87887632846832275391f, -0.08264275640249252319f, 0.00172024953644722700f, -0.92596489191055297852f, -0.01936113461852073669f, 0.00680917967110872269f, -0.59524011611938476562f, -0.03337763249874114990f, -0.00801698490977287292f, -0.25720539689064025879f, -0.07357303798198699951f, 0.00766213564202189445f, -0.15904723107814788818f, -0.04288714379072189331f, -0.01916097290813922882f, -0.36081066727638244629f, -0.02430732734501361847f, 0.01383737195283174515f, -0.42482802271842956543f, -0.05985989794135093689f, 0.05422623455524444580f, 0.02027827128767967224f, -0.04670661315321922302f, 0.04250250756740570068f, -0.39153176546096801758f, 0.00105244934093207121f, 0.01647461205720901489f, -0.56642460823059082031f, -0.06634758412837982178f, 0.01660618185997009277f, -0.97940033674240112305f, -0.05277660116553306580f, 0.01534035056829452515f, -0.76807296276092529297f, -0.02418639138340950012f, 0.00117844587657600641f, -0.64271533489227294922f, -0.07342647016048431396f, 0.03450297936797142029f, -0.60503351688385009766f, -0.05750026181340217590f, -0.03911149501800537109f, -0.46305373311042785645f, -0.07088952511548995972f, -0.01587338373064994812f, -0.29311883449554443359f, -0.06965044885873794556f, -0.01124627236276865005f, 1.41903114318847656250f, -0.06487153470516204834f, 0.02524063922464847565f, 0.27015820145606994629f, -0.05571773648262023926f, 0.02964963018894195557f, 0.77889662981033325195f, -0.09699999541044235229f, 0.09305941313505172729f, 0.45240491628646850586f, -0.14449682831764221191f, 0.13738216459751129150f, -2.30480456352233886719f, -0.18043734133243560791f, 0.12453678250312805176f, -2.06453323364257812500f},
  {0.00722272228449583054f, 0.01197641342878341675f, -0.80836981534957885742f, 0.00052674440667033195f, -0.00074526591924950480f, -0.01433501671999692917f, -0.00117384130135178566f, 0.00265503954142332077f, -0.01670363545417785645f, 0.00030595296993851662f, 0.07399565726518630981f, 0.00401970464736223221f, -0.00102784379851073027f, 0.00481730792671442032f, 0.00151236343663185835f, 0.00510995136573910713f, -0.01694070547819137573f, 0.00623553385958075523f, 0.00065861205803230405f, -0.03170835226774215698f, -0.01044997945427894592f, 0.00081286719068884850f, -0.04001599922776222229f, 0.00221895868889987469f, 0.00740543939173221588f, -0.00843239668756723404f, 0.00212346739135682583f, -0.00281245773658156395f, 0.01285510044544935226f, -0.00296568125486373901f, -0.00063274969579651952f, -0.02012994512915611267f, 0.00163626286666840315f, -0.00493138190358877182f, -0.06165656819939613342f, -0.00485150003805756569f, -0.00705431448295712471f, -0.00382930692285299301f, 0.01026494801044464111f, -0.00490928627550601959f, -0.03513313829898834229f, -0.00001656513268244453f, -0.00908463913947343826f, 0.05287226662039756775f, 0.00699295988306403160f, 0.00443366914987564087f, 0.07981277257204055786f, 0.00123510707635432482f, 0.00463448883965611458f, 0.08693554252386093140f, -0.00003895900954375975f, 0.01168678607791662216f, 0.11772643774747848511f, -0.00049007532652467489f, -0.00771873490884900093f, -0.00727965217083692551f, 0.00290224561467766762f, 0.00489452760666608810f, -0.06117603182792663574f, 0.00407656608149409294f, 0.00571499718353152275f, -0.04889270663261413574f, 0.00471269013360142708f, 0.00064512796234339476f, -0.05345936864614486694f, 0.00806737877428531647f, 0.00303753372281789780f, 0.01042841002345085144f, 0.00131435808725655079f, 0.00144689495209604502f, -0.02971539087593555450f, -0.00469289021566510201f, 0.00315400073304772377f, -0.01673787832260131836f, -0.00204710382968187332f, -0.00265851174481213093f, 0.05123626440763473511f, -0.00024248014960903674f, -0.00196341518312692642f, 0.13373181223869323730f, 0.00078119180398061872f, 0.00117926148232072592f, 0.04153886809945106506f, 0.00249543599784374237f, 0.00620996952056884766f, 0.06410691142082214355f, -0.00045474732178263366f, -0.00008996430551633239f, -0.08727204054594039917f, -0.00488803163170814514f, -0.00603892421349883080f, -0.00570267532020807266f, 0.00076309876749292016f, -0.00132288038730621338f, -0.11079406738281250000f, -0.00400293525308370590f, -0.00047610758338123560f, -0.13975431025028228760f, 0.00048530209460295737f, -0.00934019684791564941f, -0.02920080162584781647f, -0.00217738933861255646f, -0.01167759113013744354f, 0.10703793913125991821f},
  {-0.00329127977602183819f, -0.00050535099580883980f, 0.00310464762151241302f, -0.00250653084367513657f, -0.01149359624832868576f, 0.03089919686317443848f, 0.00016691797645762563f, -0.00194349570665508509f, 0.01321461889892816544f, -0.00137206178624182940f, 0.00359890935942530632f, 0.00299851736053824425f, -0.00664292927831411362f, -0.00822673738002777100f, -0.00533713819459080696f, -0.00048700452316552401f, 0.02319331280887126923f, -0.00120219646487385035f, -0.00171930878423154354f, -0.04392990097403526306f, 0.01818260736763477325f, 0.00410062586888670921f, 0.02675428800284862518f, 0.00372541882097721100f, -0.00327001139521598816f, -0.00121589377522468567f, 0.00497904233634471893f, -0.01455755438655614853f, 0.02697892300784587860f, 0.01111861318349838257f, -0.00990745238959789276f, 0.00068091077264398336f, -0.00617046235129237175f, -0.00357215153053402901f, 0.08265578001737594604f, -0.00958289485424757004f, -0.01014345884323120117f, 0.08315555006265640259f, -0.02426356077194213867f, -0.00195143732707947493f, 0.06329155713319778442f, -0.00263363914564251900f, 0.00180482293944805861f, 0.03790470212697982788f, -0.02469038218259811401f, -0.01151601225137710571f, -0.04584863036870956421f, -0.00858106091618537903f, 0.01461247447878122330f, -0.04925752058625221252f, 0.00929815135896205902f, 0.00823763292282819748f, -0.05418362468481063843f, 0.00620471732690930367f, 0.00976496376097202301f, 0.00578945875167846680f, 0.00728048617020249367f, 0.00096660829149186611f, -0.02096876315772533417f, -0.01051483768969774246f, -0.00606450391933321953f, 0.03199899196624755859f, 0.00775663182139396667f, -0.01817373745143413544f, 0.00421419553458690643f, -0.00880624447017908096f, -0.00325147341936826706f, 0.01256270054727792740f, 0.00126631732564419508f, 0.00471775233745574951f, 0.09609691053628921509f, 0.00442536221817135811f, -0.00141955865547060966f, 0.03828050941228866577f, -0.00793755892664194107f, 0.00465206149965524673f, 0.02510433830320835114f, -0.00168720644433051348f, -0.00879817269742488861f, -0.02433658577501773834f, -0.00512807350605726242f, 0.00447615655139088631f, -0.10122917592525482178f, 0.00002476866211509332f, -0.00008055504440562800f, -0.07232854515314102173f, 0.00913551822304725647f, 0.00789061468094587326f, -0.03417671099305152893f, -0.00777091272175312042f, 0.00760596105828881264f, -0.05614678561687469482f, -0.00059084658278152347f, 0.00546575430780649185f, -0.13758920133113861084f, 0.02299790270626544952f, -0.00176193937659263611f, 0.07873782515525817871f, -0.01398501824587583542f, 0.00341074354946613312f, 0.01446189731359481812f, 0.00899597257375717163f, 0.01567350700497627258f, 0.27521049976348876953f},
  {0.00578604871407151222f, 0.03718297556042671204f, -1.37475097179412841797f, 0.00092383287847042084f, 0.00648498861119151115f, -0.00604277290403842926f, -0.00007775238191243261f, 0.00432168599218130112f, -0.00028113881126046181f, -0.01050922833383083344f, 0.11305832862854003906f, 0.00766967888921499252f, -0.00197768490761518478f, 0.04003836214542388916f, 0.00985927879810333252f, 0.00185206800233572721f, -0.03770553693175315857f, 0.00040975600131787360f, 0.01499043777585029602f, -0.08416094630956649780f, -0.00720153981819748878f, -0.00111611606553196907f, -0.08197611570358276367f, -0.00307993264868855476f, -0.00353787583298981190f, 0.03567248582839965820f, -0.00775491120293736458f, -0.00091620866442099214f, -0.00848750397562980652f, -0.01364729460328817368f, -0.00709267612546682358f, -0.01799050904810428619f, -0.00080885342322289944f, -0.00723036099225282669f, 0.00847331713885068893f, 0.00160139473155140877f, -0.00176934374030679464f, -0.06809648126363754272f, 0.02059216424822807312f, 0.00114388775546103716f, -0.00720763904973864555f, -0.00230482150800526142f, 0.00014127357280813158f, 0.05350526794791221619f, 0.01044543180614709854f, -0.00285904901102185249f, 0.03175075352191925049f, 0.00837195012718439102f, -0.00396906444802880287f, -0.02092684432864189148f, 0.00637567229568958282f, -0.00531085999682545662f, -0.01264070346951484680f, -0.00491526257246732712f, -0.00032785936491563916f, -0.07456141710281372070f, -0.01065300684422254562f, 0.00583936460316181183f, -0.02324355393648147583f, 0.00579761201515793800f, -0.00023159966804087162f, 0.03568401932716369629f, 0.00961792934685945511f, 0.00050012941937893629f, 0.01482382789254188538f, 0.01142215356230735779f, 0.00441711023449897766f, -0.05110212787985801697f, -0.01041613053530454636f, -0.00084714806871488690f, -0.01499468367546796799f, -0.00051806750707328320f, -0.01331943925470113754f, 0.01509973499923944473f, -0.00441554421558976173f, -0.00793700572103261948f, -0.15225879848003387451f, -0.00833601504564285278f, 0.00172984716482460499f, 0.04745319858193397522f, -0.00118805549573153257f, -0.00134902237914502621f, -0.12794418632984161377f, 0.00179441447835415602f, 0.00711446534842252731f, -0.04255622997879981995f, -0.01057261507958173752f, 0.00599730154499411583f, 0.15340772271156311035f, 0.01117222011089324951f, 0.00672450056299567223f, -0.06513019651174545288f, 0.01093057077378034592f, 0.00219613825902342796f, -0.05598704889416694641f, -0.01245427038520574570f, 0.00397735135629773140f, -0.03800348564982414246f, -0.00096713384846225381f, -0.00098013621754944324f, -0.10712036490440368652f, 0.00729946326464414597f, -0.02051959931850433350f, -0.17893214523792266846f},
  {2.94735741615295410156f, 2.74778676033020019531f, 2.51247644424438476562f, -0.12900675833225250244f, 0.44824823737144470215f, -2.68786787986755371094f, 0.24856269359588623047f, -0.00202632043510675430f, 0.02291141822934150696f, 0.06001336127519607544f, 0.84847587347030639648f, 0.04798414185643196106f, 0.05235213786363601685f, 0.43246597051620483398f, 0.03647372871637344360f, 0.03064469061791896820f, 0.18038043379783630371f, 0.03627422079443931580f, 0.03781070560216903687f, -0.08811559528112411499f, 0.04089887440204620361f, 0.01714105345308780670f, -0.22196088731288909912f, 0.04189650714397430420f, 0.01739520393311977386f, -0.14525914192199707031f, 0.03777999803423881531f, 0.00536673283204436302f, 0.03386407718062400818f, 0.04325198009610176086f, 0.01015423145145177841f, -0.01412860210984945297f, 0.04984832182526588440f, -0.02387827262282371521f, -0.19814813137054443359f, 0.02445215173065662384f, 0.02805949747562408447f, 0.20891112089157104492f, 0.04229502007365226746f, 0.01964840106666088104f, -0.21637579798698425293f, 0.02408710308372974396f, 0.00862088892608880997f, -0.17690244317054748535f, 0.02673096582293510437f, 0.02339624986052513123f, -0.08848265558481216431f, 0.03620328381657600403f, 0.00457354309037327766f, -0.39385360479354858398f, 0.04145877063274383545f, 0.04460653662681579590f, -0.17387942969799041748f, 0.03056509234011173248f, 0.03653329983353614807f, -0.17325624823570251465f, 0.03562453389167785645f, 0.05525087192654609680f, -0.26407763361930847168f, 0.04737884551286697388f, 0.05006771534681320190f, -0.46481472253799438477f, 0.02839617058634757996f, 0.03905675932765007019f, 0.17927102744579315186f, 0.03333549946546554565f, 0.03515179827809333801f, -0.24455028772354125977f, 0.03175339475274085999f, 0.03526621684432029724f, -0.24536240100860595703f, 0.03096624463796615601f, 0.05346566811203956604f, -0.13941915333271026611f, 0.03557990118861198425f, 0.03530097380280494690f, -0.26378193497657775879f, 0.03671699389815330505f, 0.04394177719950675964f, 0.39111483097076416016f, 0.02360051497817039490f, 0.00640279613435268402f, 0.33628565073013305664f, 0.03754851222038269043f, 0.03120540641248226166f, 0.08369702100753784180f, 0.05884586274623870850f, 0.02637700736522674561f, 0.02229569293558597565f, 0.05145340040326118469f, 0.03017470240592956543f, 0.61673074960708618164f, 0.05925924703478813171f, 0.02216880768537521362f, 0.25953060388565063477f, 0.07668392360210418701f, 0.04018318653106689453f, 0.10454871505498886108f, 0.08977457880973815918f, 0.09236462414264678955f, 0.66737335920333862305f, 0.07840981334447860718f, 0.10346975922584533691f, -0.58211445808410644531f},
  {-1.07245302200317382812f, 0.32748630642890930176f, -2.45197606086730957031f, -1.52159070968627929688f, 4.19784545898437500000f, -2.75283360481262207031f, 1.37058699131011962891f, 0.00075221311999484897f, -0.07109803706407546997f, 0.09463194012641906738f, -0.43502673506736755371f, -0.02870583906769752502f, 0.14620344340801239014f, 0.19562509655952453613f, 0.02818456292152404785f, 0.09780998528003692627f, 0.37576448917388916016f, 0.01545301731675863266f, 0.05163788795471191406f, 0.37885650992393493652f, 0.02545482665300369263f, 0.01109730172902345657f, 0.02926686592400074005f, 0.01122081186622381210f, 0.03759068250656127930f, -0.36168944835662841797f, 0.03698423504829406738f, 0.02030029892921447754f, 0.05651102960109710693f, 0.00628793146461248398f, -0.01461467053741216660f, 0.16301417350769042969f, -0.00889767240732908249f, 0.02658542990684509277f, 0.14017273485660552979f, -0.01254211831837892532f, 0.00112579797860234976f, -0.17174126207828521729f, -0.02699776552617549896f, 0.00531233241781592369f, -0.29593354463577270508f, 0.00689941737800836563f, 0.01971312984824180603f, -0.15378287434577941895f, 0.00652022380381822586f, -0.00045126132317818701f, 0.26191562414169311523f, 0.02125646919012069702f, 0.01072289515286684036f, -0.01645784452557563782f, -0.00705031817778944969f, -0.02942136488854885101f, -0.32973685860633850098f, -0.01344549469649791718f, 0.02232784591615200043f, -0.10134539008140563965f, -0.01005313917994499207f, -0.00517393089830875397f, 0.21254518628120422363f, -0.00464393431320786476f, 0.05856743082404136658f, 0.47556743025779724121f, 0.03964236006140708923f, 0.01524736452847719193f, 0.32705765962600708008f, -0.01247881911695003510f, 0.04033051058650016785f, 0.11497208476066589355f, 0.00799729209393262863f, 0.05182952433824539185f, -0.10984725505113601685f, 0.00698882713913917542f, 0.01518919784575700760f, 0.15378817915916442871f, 0.00330278999172151089f, 0.01128006726503372192f, -0.08618590980768203735f, -0.00061901775188744068f, -0.00458685588091611862f, -0.49305707216262817383f, 0.01619876734912395477f, -0.00104619597550481558f, -0.12405373156070709229f, 0.01878777146339416504f, -0.01659199967980384827f, 0.12062086910009384155f, 0.03320557996630668640f, 0.01366880629211664200f, 1.53268337249755859375f, 0.02353421598672866821f, -0.02285037562251091003f, -0.02039847709238529205f, 0.02749880030751228333f, -0.05017982050776481628f, 0.85181915760040283203f, 0.04768031463027000427f, -0.04742096364498138428f, 0.41010248661041259766f, 0.04861592873930931091f, -0.07805323600769042969f, -0.51854079961776733398f, 0.01659088768064975739f, -0.08272601664066314697f, 0.62467730045318603516f},
  {0.00482029980048537254f, -0.03578811883926391602f, 1.26138162612915039062f, -0.00035051206941716373f, 0.00111919536720961332f, 0.00965609028935432434f, 0.00112467189319431782f, -0.00130155729129910469f, 0.00268623465672135353f, -0.00271475035697221756f, -0.01293466612696647644f, 0.00942065101116895676f, -0.01245618145912885666f, 0.00680490396916866302f, 0.01414807140827178955f, 0.00358527409844100475f, 0.05925026535987854004f, -0.00327669479884207249f, -0.00204123579896986485f, 0.02940977364778518677f, 0.00501224258914589882f, 0.00800740066915750504f, -0.04839506000280380249f, -0.01513654459267854691f, -0.00542318355292081833f, 0.04385279864072799683f, 0.00201644422486424446f, 0.01086774189025163651f, 0.08726787567138671875f, 0.01371117588132619858f, -0.00009696798224467784f, -0.04023415967822074890f, 0.00500025926157832146f, 0.00130581343546509743f, -0.07198718935251235962f, -0.00551895005628466606f, 0.01072572823613882065f, -0.03776203840970993042f, 0.00084295496344566345f, -0.00677564227953553200f, -0.06556778401136398315f, -0.00002896515434258617f, 0.00168388674501329660f, 0.03535204008221626282f, -0.01374736241996288300f, 0.00546758575364947319f, 0.07554022222757339478f, -0.01880284771323204041f, -0.01222642976790666580f, -0.00572100700810551643f, -0.01986545138061046600f, -0.00180727522820234299f, 0.01650824770331382751f, 0.01569167710840702057f, -0.00190370308700948954f, -0.00022543928935192525f, 0.00341954082250595093f, 0.00163121731020510197f, -0.02493670023977756500f, -0.00424858368933200836f, -0.00748118665069341660f, -0.00169176724739372730f, 0.01047335565090179443f, -0.00422473764047026634f, 0.05163794383406639099f, 0.00402995198965072632f, -0.00983687955886125565f, 0.02751657925546169281f, -0.00098737806547433138f, 0.00281513901427388191f, 0.00262107886373996735f, 0.00441976124420762062f, -0.00500383274629712105f, -0.00132575491443276405f, -0.01031247153878211975f, 0.00157578336074948311f, -0.04326094686985015869f, -0.00358045776374638081f, 0.00132001773454248905f, 0.05532891303300857544f, -0.00475767161697149277f, -0.00455727614462375641f, 0.06421140581369400024f, 0.01196481194347143173f, 0.01709600538015365601f, -0.04771562665700912476f, 0.01548901014029979706f, 0.00331227527931332588f, -0.13526432216167449951f, -0.00760136917233467102f, -0.00575420027598738670f, -0.04756172373890876770f, 0.00213117431849241257f, -0.00509658548980951309f, -0.07497755438089370728f, 0.00571597646921873093f, 0.00957425590604543686f, 0.21055451035499572754f, 0.00399382458999752998f, 0.00940601807087659836f, 0.16570484638214111328f, 0.00400504143908619881f, -0.00071838061558082700f, 0.40918758511543273926f},
  {-3.95199799537658691406f, -1.46110558509826660156f, -0.76539903879165649414f, 1.18128180503845214844f, -1.22734498977661132812f, -5.67378282546997070312f, 1.05472838878631591797f, 0.00588960247114300728f, -0.08327007293701171875f, -0.12730000913143157959f, -0.68424361944198608398f, -0.07188618928194046021f, -0.07761728018522262573f, -0.45367497205734252930f, -0.03389819711446762085f, -0.00814874190837144852f, 0.06897697597742080688f, -0.07158325612545013428f, 0.01626320928335189819f, 0.56980353593826293945f, -0.01691591553390026093f, -0.01548681687563657761f, 0.24772797524929046631f, -0.00732397520914673805f, -0.00195103476289659739f, -0.52261877059936523438f, 0.00353709026239812374f, 0.02216854877769947052f, -0.17403550446033477783f, -0.05263946577906608582f, -0.02796999178826808929f, -0.18893574178218841553f, -0.01351951342076063156f, 0.00266126915812492371f, -0.03572366014122962952f, -0.01026455499231815338f, -0.02978527918457984924f, -0.43466696143150329590f, -0.04254049435257911682f, -0.01716396026313304901f, -0.45444089174270629883f, -0.01277959626168012619f, -0.02547979354858398438f, -0.61489915847778320312f, -0.01064680982381105423f, -0.03252863883972167969f, 0.26424846053123474121f, -0.01965893991291522980f, -0.01917106658220291138f, 0.19627493619918823242f, -0.02952608279883861542f, -0.03604334220290184021f, 0.02291213721036911011f, -0.01798827759921550751f, -0.01763045974075794220f, -0.05121143534779548645f, -0.01769188977777957916f, -0.02234243042767047882f, -0.20318342745304107666f, -0.04048260301351547241f, 0.00189451919868588448f, -0.29505127668380737305f, -0.01896322332322597504f, -0.02236129902303218842f, 0.03472670912742614746f, -0.02387825585901737213f, 0.00399609189480543137f, 0.00448950566351413727f, -0.02324118465185165405f, -0.00225254590623080730f, -0.30935266613960266113f, -0.02581493556499481201f, -0.00880118925124406815f, 0.24590520560741424561f, -0.02493238449096679688f, -0.00413226196542382240f, -0.34445592761039733887f, -0.05028411000967025757f, -0.01041952706873416901f, -0.84966903924942016602f, -0.04083367437124252319f, 0.00157051580026745796f, -0.44434350728988647461f, -0.04415801540017127991f, -0.03661743551492691040f, -0.18990436196327209473f, -0.03664705902338027954f, -0.02057851478457450867f, 0.95597958564758300781f, -0.04983076825737953186f, -0.01293262653052806854f, -0.46032306551933288574f, -0.04035381972789764404f, 0.00119529350195080042f, 0.61743497848510742188f, -0.04147644340991973877f, 0.00890621449798345566f, 0.29631513357162475586f, -0.01842991262674331665f, -0.01443284191191196442f, -1.46964251995086669922f, -0.05704446136951446533f, -0.03015925921499729156f, -0.49015972018241882324f},
  {-0.01669049821794033051f, 0.01306373067200183868f, -1.69275772571563720703f, 0.00074279750697314739f, 0.00470442511141300201f, 0.00027293388848192990f, -0.00118734920397400856f, 0.00132683676201850176f, 0.00203279475681483746f, -0.01472737081348896027f, 0.04548700526356697083f, 0.00155063346028327942f, -0.00636655976995825768f, 0.07047587633132934570f, 0.00049717066576704383f, 0.00508018350228667259f, -0.02225229330360889435f, -0.00201826705597341061f, 0.00192738149780780077f, -0.09662959724664688110f, 0.00053751742234453559f, -0.00733521208167076111f, -0.08455681800842285156f, 0.00495713343843817711f, -0.00039820390520617366f, -0.08165473490953445435f, 0.00544467940926551819f, -0.00702386489138007164f, 0.01753400266170501709f, 0.00111114059109240770f, 0.00378237199038267136f, 0.03752106428146362305f, -0.00146323803346604109f, -0.00163324107415974140f, -0.02575306966900825500f, -0.00846405513584613800f, 0.00589284114539623260f, -0.06500246375799179077f, 0.00043370379717089236f, -0.00078449345892295241f, -0.03436989337205886841f, -0.00943812634795904160f, 0.00116590899415314198f, 0.02200039662420749664f, 0.00624300586059689522f, -0.00277158874087035656f, 0.04089307039976119995f, 0.00763131771236658096f, 0.00262514501810073853f, 0.01693787425756454468f, -0.00124031514860689640f, -0.00276771257631480694f, 0.00478422921150922775f, 0.00074155279435217381f, -0.00622662110254168510f, -0.05870039761066436768f, -0.00439635105431079865f, -0.00336296227760612965f, -0.03845641389489173889f, 0.00330963521264493465f, -0.00259673199616372585f, -0.04160210117697715759f, -0.00069118064129725099f, 0.00360278319567441940f, -0.04829776287078857422f, 0.00247362209483981133f, 0.00005246259024715982f, -0.04209597036242485046f, 0.00319768046028912067f, -0.00127453368622809649f, -0.02847309969365596771f, 0.00140845915302634239f, -0.00631869444623589516f, -0.01407088711857795715f, -0.00304139545187354088f, 0.00008485351281706244f, 0.17836351692676544189f, 0.00112400040961802006f, 0.00300335302017629147f, 0.05930970609188079834f, -0.00525898067280650139f, 0.00087176274973899126f, 0.02767445892095565796f, -0.00326898251660168171f, 0.00015143622294999659f, -0.03072705306112766266f, 0.00085032812785357237f, -0.00189671257976442575f, -0.02700067497789859772f, -0.00496904458850622177f, 0.00552339665591716766f, -0.02053752355277538300f, -0.00140822201501578093f, 0.00550200371071696281f, -0.08968570083379745483f, 0.00071710487827658653f, 0.00793412234634160995f, -0.02778690308332443237f, 0.00330172665417194366f, 0.00335930287837982178f, -0.05572775378823280334f, 0.00247670779936015606f, -0.01168297417461872101f, -0.27979096770286560059f},
  {-3.33475351333618164062f, -6.06690311431884765625f, 0.67501407861709594727f, -0.95369619131088256836f, -1.26920902729034423828f, 1.18471777439117431641f, -1.09509825706481933594f, 0.00117465236689895391f, 0.00839328859001398087f, -0.09692915529012680054f, -0.21899753808975219727f, 0.00669574644416570663f, -0.06692614406347274780f, 0.03896714001893997192f, 0.01460598967969417572f, -0.04386088252067565918f, -0.01832630857825279236f, -0.02946680784225463867f, -0.06911569088697433472f, 0.07380439341068267822f, -0.02127840183675289154f, -0.10258028656244277954f, 0.33121192455291748047f, -0.01507477741688489914f, -0.06010470166802406311f, -0.06903794407844543457f, -0.00985055509954690933f, -0.05395010486245155334f, -0.04124630242586135864f, -0.04419691488146781921f, -0.06517136096954345703f, 0.08301917463541030884f, -0.01277881115674972534f, -0.02828790806233882904f, -0.02357087470591068268f, -0.01010409370064735413f, -0.02282522991299629211f, -0.13918042182922363281f, -0.02297427318990230560f, -0.01426874101161956787f, -0.40768805146217346191f, -0.03080057539045810699f, -0.02323570661246776581f, -0.70777750015258789062f, -0.00216283253394067287f, -0.03308245539665222168f, -0.13693615794181823730f, -0.00421198364347219467f, -0.02893600799143314362f, 0.33250024914741516113f, -0.02369156852364540100f, -0.01948313787579536438f, 0.55143719911575317383f, -0.02653370238840579987f, -0.02851725742220878601f, -0.09180731326341629028f, -0.02288619987666606903f, -0.03188697993755340576f, -0.11953323334455490112f, -0.04016722738742828369f, 0.00758622167631983757f, -0.23006820678710937500f, -0.02379792928695678711f, -0.03026620484888553619f, -0.24589335918426513672f, 0.00711381668224930763f, -0.03303411602973937988f, -0.26702556014060974121f, -0.02981983870267868042f, -0.04644870385527610779f, -0.31165662407875061035f, -0.02695110999047756195f, -0.05796911567449569702f, -0.55141872167587280273f, -0.00009450785000808537f, -0.08627545088529586792f, 0.13972371816635131836f, -0.04034247994422912598f, -0.06169968470931053162f, -0.14576926827430725098f, -0.03393850103020668030f, -0.06382048130035400391f, -0.19606220722198486328f, -0.02480619214475154877f, -0.07108037918806076050f, -0.09862077981233596802f, -0.05447411909699440002f, -0.05341162532567977905f, 0.87985193729400634766f, -0.05270805582404136658f, -0.06188750639557838440f, -0.08431027084589004517f, -0.03764622658491134644f, -0.05627489089965820312f, 1.05074608325958251953f, -0.03187154978513717651f, -0.04960384964942932129f, 0.38129708170890808105f, -0.06050684303045272827f, -0.05732547491788864136f, -1.37405347824096679688f, -0.12679958343505859375f, -0.07183707505464553833f, -1.32715809345245361328f},
  {-0.00799276493489742279f, -0.01568746753036975861f, 0.61875295639038085938f, -0.00184514513239264488f, 0.00369710428640246391f, 0.00577304651960730553f, 0.00098000129219144583f, -0.00097047002054750919f, 0.00031517047318629920f, 0.00205029593780636787f, 0.03717605024576187134f, -0.00496733374893665314f, -0.00953272450715303421f, 0.10407818853855133057f, -0.01247533783316612244f, 0.00080077262828126550f, -0.02140106074512004852f, -0.00511253485456109047f, 0.00714679947122931480f, 0.11421972513198852539f, 0.00585940852761268616f, 0.00055190030252560973f, -0.06067571789026260376f, 0.00650530308485031128f, -0.01113043911755084991f, -0.01913765445351600647f, 0.00157075561583042145f, -0.00172476528678089380f, 0.00007553878822363913f, 0.00996658112853765488f, -0.00636696256697177887f, -0.03393739834427833557f, 0.00297621148638427258f, -0.00135360297281295061f, 0.02127801068127155304f, -0.00304634915664792061f, -0.00494060944765806198f, 0.04171512648463249207f, -0.00275542167946696281f, 0.00709830690175294876f, 0.05016340687870979309f, 0.00052230810979381204f, 0.00521712843328714371f, -0.03750339150428771973f, -0.01711711287498474121f, -0.00473202858120203018f, -0.00572999520227313042f, 0.00438790628686547279f, 0.00604852661490440369f, 0.06421942263841629028f, 0.01127391494810581207f, -0.01613655127584934235f, -0.10664173960685729980f, -0.00286017591133713722f, 0.00738653773441910744f, -0.00721651688218116760f, -0.00171248207334429026f, -0.00887792091816663742f, -0.03451674431562423706f, -0.00759721081703901291f, 0.00368199683725833893f, 0.02517199143767356873f, -0.00330220581963658333f, 0.00226860772818326950f, 0.05149340629577636719f, -0.00848982296884059906f, -0.00501913344487547874f, 0.10605484247207641602f, 0.00067760422825813293f, 0.01007397752255201340f, -0.03732841089367866516f, 0.00205354602076113224f, 0.00166623143013566732f, -0.03353684395551681519f, 0.00428412482142448425f, 0.00732257449999451637f, 0.03669765591621398926f, 0.01206664275377988815f, 0.01038586907088756561f, -0.03496536612510681152f, -0.00265077967196702957f, 0.00425871182233095169f, -0.08355028182268142700f, -0.00541793275624513626f, -0.00821841973811388016f, -0.05951437726616859436f, -0.00053655111696571112f, -0.00656261807307600975f, -0.05458260327577590942f, 0.00250552524812519550f, -0.00295919599011540413f, -0.02855286002159118652f, 0.00015113226254470646f, 0.00140662444755434990f, 0.10977219045162200928f, 0.00103456457145512104f, 0.00483458349481225014f, 0.03356802091002464294f, -0.00780247384682297707f, 0.00739281717687845230f, 0.02140429615974426270f, -0.00156630040146410465f, 0.00240479200147092342f, 0.05095930397510528564f},
  {0.00030638591852039099f, 0.02276466041803359985f, -1.69626367092132568359f, 0.00011214229743927717f, 0.00335774640552699566f, -0.00443517742678523064f, -0.00131366821005940437f, 0.00526592368260025978f, -0.00881305430084466934f, -0.00169907533563673496f, -0.01274551451206207275f, -0.00636807642877101898f, -0.00804139301180839539f, 0.04921875521540641785f, 0.00208479538559913635f, -0.00530909933149814606f, 0.05030442774295806885f, 0.00703075295314192772f, 0.00147814175579696894f, 0.01407679915428161621f, -0.00668102921918034554f, 0.00306206312961876392f, -0.12026127427816390991f, 0.00156914209946990013f, 0.00351737160235643387f, -0.12342621386051177979f, -0.00115286407526582479f, 0.00912565924227237701f, -0.12584337592124938965f, -0.00550673389807343483f, 0.00618940778076648712f, 0.01098678447306156158f, 0.00881233438849449158f, -0.00439604930579662323f, 0.07689295709133148193f, -0.00183535541873425245f, 0.00839096028357744217f, 0.02498664148151874542f, 0.01340242754667997360f, -0.00125388137530535460f, -0.02337586320936679840f, 0.00464136619120836258f, -0.00171390618197619915f, -0.00567678501829504967f, 0.00884375255554914474f, -0.01053727697581052780f, 0.01085705775767564774f, 0.01518418081104755402f, -0.01202157232910394669f, 0.03467256203293800354f, 0.00418085511773824692f, 0.00078096688957884908f, 0.02441494353115558624f, -0.00536305503919720650f, -0.00100451987236738205f, -0.00878954492509365082f, -0.00284653692506253719f, 0.00023283774498850107f, -0.11620492488145828247f, 0.00536129483953118324f, 0.00170588959008455276f, -0.05840736255049705505f, -0.00501100625842809677f, -0.00072848261334002018f, 0.00292127788998186588f, 0.00345189869403839111f, -0.00089979072799906135f, -0.09766361862421035767f, 0.00199810205958783627f, -0.00079500564606860280f, 0.02209190651774406433f, -0.00303484057076275349f, 0.00570080336183309555f, 0.08436616510152816772f, 0.00410641077905893326f, -0.00792014598846435547f, -0.03270568326115608215f, 0.01320107281208038330f, 0.00208867085166275501f, 0.11943392455577850342f, -0.00588157819584012032f, -0.00260041281580924988f, 0.10073944926261901855f, -0.00762027222663164139f, 0.00358898495323956013f, -0.14062331616878509521f, 0.00133824767544865608f, -0.00882636010646820068f, 0.09776192158460617065f, 0.00317629403434693813f, -0.00201560510322451591f, -0.02727102488279342651f, 0.00352818728424608707f, 0.00672737183049321175f, -0.04004321992397308350f, -0.00518180849030613899f, -0.00221797870472073555f, 0.04823845624923706055f, -0.00102100567892193794f, -0.00425706384703516960f, -0.09127297252416610718f, -0.00581871950998902321f, 0.00052649824647232890f, -0.63477617502212524414f},
  {-5.00648975372314453125f, 0.45540109276771545410f, -1.02210998535156250000f, -0.93553286790847778320f, 0.27400529384613037109f, 4.59418249130249023438f, 1.50431478023529052734f, -0.00580954505130648613f, 0.07953657209873199463f, 0.26088845729827880859f, -0.78093308210372924805f, 0.06433117389678955078f, 0.25601300597190856934f, 0.01673603430390357971f, 0.09931721538305282593f, 0.18180781602859497070f, -0.41972824931144714355f, 0.08027987927198410034f, 0.05691824480891227722f, -0.63276612758636474609f, -0.01646328158676624298f, 0.06240675598382949829f, -0.07703595608472824097f, 0.02122963964939117432f, 0.03937743231654167175f, -0.81298345327377319336f, 0.00888048857450485229f, -0.01118512265384197235f, -0.78970813751220703125f, -0.00426581734791398048f, -0.04472862556576728821f, -0.46106138825416564941f, -0.04199730604887008667f, 0.01151474099606275558f, -0.81775385141372680664f, -0.03538461402058601379f, -0.00922107603400945663f, -0.74532306194305419922f, -0.08518411219120025635f, -0.02245048992335796356f, -0.93202704191207885742f, -0.04547409713268280029f, 0.01144454721361398697f, -1.10434675216674804688f, 0.00688622659072279930f, 0.02850396558642387390f, -0.99589854478836059570f, -0.00199378142133355141f, 0.01339875906705856323f, -0.20266436040401458740f, -0.03250568360090255737f, -0.03477634489536285400f, -0.95161414146423339844f, -0.01182372309267520905f, -0.02713643759489059448f, -1.07943058013916015625f, -0.04525913670659065247f, -0.01143792830407619476f, -0.74775129556655883789f, -0.04168483987450599670f, 0.02511746436357498169f, -0.56450194120407104492f, 0.01730252988636493683f, 0.01126906555145978928f, -0.88051891326904296875f, -0.02768529020249843597f, -0.05755230411887168884f, -0.36944046616554260254f, -0.01764556206762790680f, 0.02665460295975208282f, -0.63551926612854003906f, 0.01254088524729013443f, -0.04712152481079101562f, -0.02006093040108680725f, -0.02029156684875488281f, -0.00379706919193267822f, 1.23777818679809570312f, -0.02359911240637302399f, -0.00407929206266999245f, 0.20500162243843078613f, -0.00729732913896441460f, -0.00305801094509661198f, -0.32296442985534667969f, -0.01073826383799314499f, 0.00724123604595661163f, -0.07163267582654953003f, -0.03099299222230911255f, 0.07544863224029541016f, -0.48229539394378662109f, -0.04835835471749305725f, 0.00922476220875978470f, 0.56550955772399902344f, -0.07602891325950622559f, 0.02863951586186885834f, 1.51573646068572998047f, -0.10000690072774887085f, 0.08546307682991027832f, 1.43242597579956054688f, -0.11611417680978775024f, 0.08451349288225173950f, 0.10527773946523666382f, -0.17051458358764648438f, 0.04657074809074401855f, 1.53339767456054687500f},
  {0.00276367808692157269f, -0.03903399780392646790f, 1.35536217689514160156f, -0.00065884878858923912f, -0.00140916381496936083f, -0.00467386562377214432f, -0.00049122417112812400f, -0.00102847442030906677f, -0.00043810912757180631f, 0.01165735535323619843f, -0.07746922224760055542f, 0.00140566413756459951f, -0.00180159590672701597f, -0.06776439398527145386f, 0.00172624771948903799f, -0.00711885420605540276f, 0.07825514674186706543f, 0.00629822397604584694f, -0.00837035011500120163f, 0.09517068415880203247f, -0.00502491509541869164f, 0.00321051548235118389f, 0.15202984213829040527f, -0.00822106655687093735f, 0.00063121150014922023f, 0.01107967365533113480f, 0.00177170848473906517f, -0.00091807328863069415f, 0.08859383314847946167f, 0.00533319357782602310f, 0.00649251509457826614f, 0.05848542228341102600f, -0.00048558914568275213f, 0.00009607899846741930f, -0.07667780667543411255f, -0.00869579892605543137f, 0.00459420355036854744f, -0.00491217290982604027f, -0.00169512338470667601f, 0.00963637512177228928f, -0.03904895484447479248f, 0.00498178647831082344f, -0.01089956611394882202f, -0.04218350350856781006f, -0.00363082112744450569f, 0.01212948467582464218f, -0.09496800601482391357f, -0.00618918053805828094f, 0.00462326826527714729f, -0.05421683937311172485f, -0.00383902993053197861f, 0.00682595558464527130f, 0.02180524542927742004f, 0.00300492881797254086f, -0.00015020610589999706f, 0.06531928479671478271f, 0.00965858530253171921f, -0.00204374804161489010f, -0.01774596795439720154f, 0.00454919878393411636f, -0.01195808406919240952f, 0.03344271332025527954f, -0.00218581990338861942f, -0.00134999200236052275f, -0.00752754043787717819f, -0.00557400658726692200f, 0.00343944435007870197f, 0.00497708562761545181f, 0.00218135910108685493f, -0.00212639407254755497f, 0.07308188080787658691f, -0.00221254932694137096f, 0.00261944509111344814f, 0.01870721206068992615f, 0.00142129021696746349f, -0.00565956858918070793f, -0.05879853293299674988f, 0.00196467712521553040f, 0.00154785416088998318f, 0.11488330364227294922f, 0.00321593531407415867f, 0.00044533025356940925f, -0.01692376099526882172f, 0.00835478864610195160f, 0.01137746591120958328f, -0.06325928866863250732f, -0.00230870931409299374f, -0.00741308042779564857f, -0.01202122773975133896f, -0.00925176776945590973f, -0.00581989949569106102f, -0.02938564307987689972f, -0.00110085483174771070f, -0.00642125681042671204f, -0.03430430591106414795f, 0.00060607952764257789f, 0.00251801358535885811f, -0.02790506184101104736f, 0.00724804541096091270f, -0.00559905450791120529f, 0.16940823197364807129f, 0.00280840229243040085f, -0.00545955915004014969f, 0.10061680525541305542f},
  {-0.84313231706619262695f, -0.04811916872859001160f, 5.26961231231689453125f, 0.04862682148814201355f, 0.27064949274063110352f, 0.23578430712223052979f, -0.02966278605163097382f, 0.00418271124362945557f, -0.02869448252022266388f, -0.10465961694717407227f, 0.86049866676330566406f, -0.07080157101154327393f, -0.02112793922424316406f, 0.38261750340461730957f, 0.02980550006031990051f, 0.02970763109624385834f, -0.29412144422531127930f, 0.00061221205396577716f, 0.01455638092011213303f, -0.15906623005867004395f, -0.01353397499769926071f, -0.12872953712940216064f, 0.10086702555418014526f, 0.10770367085933685303f, 0.01669414713978767395f, -0.06673425436019897461f, -0.01426640246063470840f, -0.00748896505683660507f, -0.14034238457679748535f, -0.07956544309854507446f, 0.02907857857644557953f, 0.45302221179008483887f, -0.00112688657827675343f, -0.09813396632671356201f, -0.09255880862474441528f, -0.01717084273695945740f, 0.11528384685516357422f, 0.45947256684303283691f, 0.07169597595930099487f, -0.04753674939274787903f, -0.09224615991115570068f, -0.12862733006477355957f, -0.05505005270242691040f, 0.62677133083343505859f, 0.12854816019535064697f, 0.04084824398159980774f, 0.32804927229881286621f, -0.02128272131085395813f, -0.07499539107084274292f, 0.03002067282795906067f, -0.04813760146498680115f, 0.05081945285201072693f, 0.41500732302665710449f, -0.01624064147472381592f, -0.06050987169146537781f, 0.07049067318439483643f, 0.05990983173251152039f, 0.00526884710416197777f, -0.04667790234088897705f, -0.00852332357317209244f, -0.01828449219465255737f, -0.52257019281387329102f, -0.06052334979176521301f, -0.03660982474684715271f, -0.14249688386917114258f, 0.08620511740446090698f, -0.03416618704795837402f, 0.10804032534360885620f, -0.04502927511930465698f, -0.11432857066392898560f, 0.54993617534637451172f, -0.04292049258947372437f, 0.02652729675173759460f, 0.11450562626123428345f, 0.03517505154013633728f, -0.09302913397550582886f, -0.34511214494705200195f, 0.00177789560984820127f, 0.06023147329688072205f, 0.14584887027740478516f, -0.07201942801475524902f, -0.03481189906597137451f, 0.50335341691970825195f, 0.04036109521985054016f, 0.04908492416143417358f, 0.11218554526567459106f, -0.02978613413870334625f, -0.01757136173546314240f, 0.42725056409835815430f, 0.01502526178956031799f, 0.08544499427080154419f, 0.60192745923995971680f, 0.03683217614889144897f, 0.02052485942840576172f, -0.63433104753494262695f, -0.02599591203033924103f, 0.01573562063276767731f, -0.36632150411605834961f, -0.01341135799884796143f, 0.01558728422969579697f, -1.88999605178833007812f, -0.05321348458528518677f, -0.04690276458859443665f, -5.50701856613159179688f},
  {0.00110836874227970839f, 0.01177147310227155685f, -0.43242466449737548828f, -0.00220662658102810383f, 0.00885147694498300552f, 0.00145632203202694654f, 0.00032740726601332426f, 0.00096097175264731050f, 0.00687954341992735863f, -0.00005804620013805106f, 0.02694145776331424713f, -0.00248934840783476830f, 0.00056898058392107487f, -0.03452227637171745300f, -0.01550918910652399063f, 0.01338959392160177231f, -0.01045829150825738907f, -0.01491030771285295486f, -0.00472799781709909439f, -0.05026115104556083679f, 0.00498707313090562820f, -0.00492869829759001732f, -0.04477559402585029602f, 0.00535383820533752441f, -0.00179159501567482948f, -0.02143944613635540009f, 0.00087313965195789933f, -0.00001643595714995172f, -0.07343163341283798218f, 0.00494181085377931595f, -0.00365268788300454617f, -0.00499166920781135559f, -0.00129901757463812828f, 0.00598657689988613129f, 0.00649928208440542221f, 0.00477682519704103470f, 0.00488563440740108490f, -0.03539808839559555054f, 0.00466768955811858177f, -0.00719437235966324806f, -0.02258941344916820526f, -0.00063557049725204706f, 0.00552383717149496078f, -0.01381584908813238144f, -0.00429053511470556259f, -0.01270226109772920609f, 0.01119426544755697250f, 0.00595541065558791161f, 0.00118076184298843145f, -0.07410567998886108398f, 0.01049121841788291931f, -0.01444716937839984894f, -0.02203924767673015594f, -0.00651678768917918205f, -0.00616565393283963203f, 0.05373405292630195618f, -0.00665952218696475029f, 0.00370098510757088661f, 0.06209775805473327637f, -0.00278273085132241249f, -0.00286513473838567734f, -0.03168656677007675171f, -0.00202616839669644833f, -0.00075193319935351610f, 0.04886452108621597290f, 0.00680423295125365257f, 0.00437550107017159462f, 0.00721612479537725449f, 0.00282639311626553535f, 0.00821511726826429367f, -0.00973929651081562042f, -0.00199528154917061329f, -0.00380870932713150978f, 0.01367268245667219162f, -0.00539055047556757927f, 0.00667459238320589066f, -0.07449208199977874756f, -0.00015228253323584795f, 0.00438419589772820473f, -0.04735241085290908813f, -0.00268553826026618481f, -0.00639486405998468399f, -0.02076838538050651550f, -0.00697123119607567787f, 0.00840972736477851868f, -0.08157633244991302490f, -0.00419317791238427162f, 0.00591986253857612610f, -0.07062593847513198853f, 0.01000916957855224609f, 0.00530621595680713654f, 0.06703121215105056763f, 0.00155395246110856533f, -0.01286406628787517548f, 0.09156723320484161377f, -0.00355480541475117207f, 0.00619303714483976364f, 0.14071194827556610107f, -0.00496779894456267357f, 0.01014617457985877991f, 0.03852890059351921082f, 0.00001285233611270087f, 0.00035988868330605328f, -0.10127173364162445068f},
  {0.00095737044466659427f, 0.00731487851589918137f, -1.14894294738769531250f, 0.00064071256201714277f, 0.02074294164776802063f, -0.02140937373042106628f, -0.00065835856366902590f, 0.00694660563021898270f, -0.00132440880406647921f, -0.00177986291237175465f, -0.03703452274203300476f, -0.00506409909576177597f, 0.00386109505780041218f, -0.07071356475353240967f, -0.02003392949700355530f, -0.01063369307667016983f, 0.05339585989713668823f, 0.00131563248578459024f, -0.00306671275757253170f, 0.03062228672206401825f, -0.00984269659966230392f, 0.00651394203305244446f, 0.03479710221290588379f, 0.01282731909304857254f, 0.00603576283901929855f, 0.03668149560689926147f, -0.01385560818016529083f, -0.00566573906689882278f, -0.01232637744396924973f, 0.00783015787601470947f, 0.01005571614950895309f, 0.01267769001424312592f, 0.00353843718767166138f, -0.00011916176299564540f, -0.03888194262981414795f, -0.00320408935658633709f, 0.01906152255833148956f, -0.08826988190412521362f, 0.02731787413358688354f, 0.00355587806552648544f, -0.03215388581156730652f, 0.00258713657967746258f, 0.00215778802521526814f, 0.05435437336564064026f, 0.00344750517979264259f, -0.00618159491568803787f, -0.00451163481920957565f, 0.00088059058180078864f, -0.01255122292786836624f, -0.08720578998327255249f, -0.00192826520651578903f, -0.00253542978316545486f, 0.03156381100416183472f, -0.01062327064573764801f, -0.01222985144704580307f, 0.01796696335077285767f, -0.00091931835049763322f, -0.00175829068757593632f, 0.05977265164256095886f, 0.01372818835079669952f, -0.00311825983226299286f, -0.02550724707543849945f, 0.00242643570527434349f, 0.00473322486504912376f, -0.01364622078835964203f, 0.00300877029076218605f, 0.01075134612619876862f, -0.00559132639318704605f, -0.00131763936951756477f, 0.00489378534257411957f, -0.00829093251377344131f, -0.00775608094409108162f, -0.00260717584751546383f, -0.02937852218747138977f, 0.01498689968138933182f, -0.00209159730002284050f, -0.03465975075960159302f, 0.00251022330485284328f, -0.00106036802753806114f, 0.12106793373823165894f, -0.00014918540546204895f, 0.01067501772195100784f, 0.00489010522142052650f, 0.00205924571491777897f, 0.00604983605444431305f, 0.03849798813462257385f, -0.00200448581017553806f, -0.00040857351268641651f, -0.09613992273807525635f, 0.00726783927530050278f, -0.00337458495050668716f, 0.08027444034814834595f, 0.00914600770920515060f, -0.00629680370911955833f, 0.11058478802442550659f, -0.01401627250015735626f, -0.00044473839807324111f, -0.07951828092336654663f, -0.00221340497955679893f, -0.01513459160923957825f, 0.03084848262369632721f, -0.00675282534211874008f, -0.01391442772001028061f, -0.38423722982406616211f},
