// This file is computer-generated by onnx2c 
// (TODO: add creating command line here)
// (TODO: print creation date here )

// ONNX model:
// produced by pytorch, version 2.5.1
// ONNX IR version: 11
// Model documentation: 
/*

*/

#include <float.h>
#include <math.h>
#include <stdbool.h>
#include <stdint.h>
#include <string.h>

#define MAX(X,Y) ( X > Y ? X : Y)
#define MIN(X,Y) ( X < Y ? X : Y)
#define CLIP(X,L) ( MAX(MIN(X,L), -L) )

#if __STDC_VERSION__ < 199901L
#define FUNC_PREFIX
#else
#define FUNC_PREFIX static inline
#endif

static const float tensor_actor_0_weight[64][7] = 
{
  {0.02140295132994651794f, -0.04651069641113281250f, -1.16294574737548828125f, -0.12350286543369293213f, -0.08657243847846984863f, 0.14379118382930755615f, -0.02787060104310512543f},
  {-0.03270578756928443909f, -0.19455777108669281006f, -0.33179476857185363770f, -0.25038909912109375000f, 0.15723483264446258545f, 0.62925851345062255859f, -0.14145563542842864990f},
  {0.02624530903995037079f, -0.08610412478446960449f, 2.82523465156555175781f, 0.15960393846035003662f, 0.08255880326032638550f, -0.13625872135162353516f, -0.06933246552944183350f},
  {-0.06200399622321128845f, 0.01910958252847194672f, 0.01476329565048217773f, 0.01249372307211160660f, -0.02630425803363323212f, 0.00005827585118822753f, 0.00236428668722510338f},
  {0.13148288428783416748f, 0.01032720599323511124f, -1.96738755702972412109f, -0.16829028725624084473f, -0.20828701555728912354f, 0.32855698466300964355f, 0.02489669620990753174f},
  {0.01720741949975490570f, -0.00643452163785696030f, 0.00613348372280597687f, 0.00293183675967156887f, 0.00378049374558031559f, 0.00583488633856177330f, 0.00463523389771580696f},
  {0.00764220906421542168f, -0.00255875615403056145f, -0.00062007957603782415f, 0.00211388221941888332f, 0.00268473406322300434f, 0.00372987566515803337f, 0.00228231167420744896f},
  {-0.01112265419214963913f, 0.00457939505577087402f, -0.00302997953258454800f, -0.00406903726980090141f, -0.00299184350296854973f, -0.00659166695550084114f, -0.00434937700629234314f},
  {0.15212218463420867920f, 0.18244321644306182861f, -1.49229443073272705078f, 0.33594149351119995117f, -0.12541209161281585693f, 0.64649325609207153320f, -0.17526195943355560303f},
  {0.14047585427761077881f, 0.17881372570991516113f, 2.12445640563964843750f, 0.70578557252883911133f, 0.22955337166786193848f, -0.58944505453109741211f, 0.17854732275009155273f},
  {0.09931017458438873291f, -0.10221614688634872437f, 2.39299464225769042969f, 0.21501384675502777100f, 0.10003159195184707642f, -0.29765328764915466309f, -0.07443021982908248901f},
  {0.05100364238023757935f, -0.10367668420076370239f, 2.09687995910644531250f, 0.11228739470243453979f, 0.16280564665794372559f, -0.24204628169536590576f, -0.02492571063339710236f},
  {0.06680505722761154175f, 0.02928179875016212463f, -1.94651186466217041016f, -0.10606412589550018311f, -0.05904722213745117188f, 0.33462086319923400879f, 0.06440635770559310913f},
  {-0.02601862326264381409f, 0.02318042702972888947f, 2.82252287864685058594f, 0.20317608118057250977f, 0.02018939331173896790f, -0.41397368907928466797f, -0.02574074454605579376f},
  {0.36594700813293457031f, 0.47192203998565673828f, -1.44352018833160400391f, 0.45196425914764404297f, 0.37363174557685852051f, -0.24586997926235198975f, 0.35702326893806457520f},
  {-0.05186116322875022888f, 0.05205751210451126099f, 3.77387428283691406250f, 0.13994011282920837402f, 0.11795417964458465576f, -0.28090840578079223633f, -0.09061211347579956055f},
  {-0.24447511136531829834f, -0.34791421890258789062f, -0.98490136861801147461f, -0.04826501756906509399f, 0.17744988203048706055f, 1.48505353927612304688f, -0.64367520809173583984f},
  {-0.03385043889284133911f, 0.01102432515472173691f, -0.00526215648278594017f, 0.00085789879085496068f, -0.00566105358302593231f, -0.00537385977804660797f, -0.00512165157124400139f},
  {-0.04095194488763809204f, 0.01278436649590730667f, -0.02315490506589412689f, 0.00191024015657603741f, -0.00684767635539174080f, -0.00341782765462994576f, -0.00399218499660491943f},
  {0.03557053580880165100f, -0.01130539737641811371f, 0.00827809888869524002f, -0.00185947143472731113f, 0.00591351184993982315f, 0.00491720624268054962f, 0.00497470330446958542f},
  {-0.02063863910734653473f, 0.00970613583922386169f, -0.00691396649926900864f, -0.00432236725464463234f, -0.00621679425239562988f, -0.00053720362484455109f, -0.00521601783111691475f},
  {0.07095002382993698120f, 0.07390592247247695923f, 2.07428264617919921875f, 0.14508362114429473877f, 0.08707357943058013916f, -0.29041495919227600098f, 0.04151821509003639221f},
  {0.01474005170166492462f, -0.18316873908042907715f, 2.70308327674865722656f, 0.02640131488442420959f, 0.27819755673408508301f, -0.29480952024459838867f, -0.19587837159633636475f},
  {0.08916258811950683594f, 0.12372412532567977905f, -1.54550623893737792969f, -1.22031080722808837891f, -0.43048962950706481934f, 0.92571151256561279297f, -0.64340531826019287109f},
  {0.08549844473600387573f, 0.09224440157413482666f, 4.28671836853027343750f, 0.01700639538466930389f, -0.29499101638793945312f, 0.11489948630332946777f, -0.07887176424264907837f},
  {0.03074772842228412628f, 0.09224524348974227905f, -0.28535717725753784180f, -0.32792255282402038574f, 0.15247403085231781006f, 0.16484704613685607910f, 0.69619786739349365234f},
  {0.13910010457038879395f, 0.07441244274377822876f, 2.52383542060852050781f, 0.16008029878139495850f, -0.02302381582558155060f, -0.20524552464485168457f, -0.02999327704310417175f},
  {-0.18393431603908538818f, 0.19099541008472442627f, -0.94053703546524047852f, 0.03495972231030464172f, -1.14929056167602539062f, 0.24109399318695068359f, 0.14312429726123809814f},
  {-0.31916490197181701660f, 0.58719468116760253906f, 1.07581818103790283203f, -0.83275139331817626953f, 0.42882192134857177734f, -0.54868179559707641602f, 0.21223862469196319580f},
  {0.19205754995346069336f, 0.07015750557184219360f, -2.57568478584289550781f, -0.15178827941417694092f, -0.01416827552020549774f, 0.03756492212414741516f, 0.12113783508539199829f},
  {-0.32222604751586914062f, -0.05067258700728416443f, 0.67982977628707885742f, 0.07423461973667144775f, 0.01099727582186460495f, -0.16770815849304199219f, 0.02404524385929107666f},
  {-0.05201706662774085999f, 0.12124729156494140625f, -0.38854101300239562988f, -0.02553628012537956238f, 0.14166638255119323730f, 0.07930801808834075928f, -0.03174978867173194885f},
  {-0.03490462526679039001f, 0.01160343177616596222f, -0.01531025953590869904f, 0.00070589833194389939f, -0.00658868253231048584f, -0.00403679069131612778f, -0.00496374163776636124f},
  {0.02258941903710365295f, -0.00797959510236978531f, -0.00458325259387493134f, 0.00187022949103266001f, 0.00359801994636654854f, 0.00806242786347866058f, 0.00562898302450776100f},
  {0.03469796478748321533f, -0.01116736140102148056f, 0.01137394830584526062f, -0.00107144808862358332f, 0.00513490568846464157f, 0.00508281355723738670f, 0.00527360849082469940f},
  {-0.14479076862335205078f, -0.01754830218851566315f, -0.23646125197410583496f, -0.06464225798845291138f, 0.08128800988197326660f, -0.04039780423045158386f, -0.04802580922842025757f},
  {0.03190026059746742249f, -0.01115810032933950424f, 0.01421397272497415543f, 0.00036530074430629611f, 0.00537716923281550407f, 0.00431950483471155167f, 0.00565593922510743141f},
  {0.47221136093139648438f, 0.17257252335548400879f, -1.47976171970367431641f, -0.70925170183181762695f, 0.18706783652305603027f, 0.45415866374969482422f, -0.81462001800537109375f},
  {-0.03890581056475639343f, 0.01304980274289846420f, -0.00923666357994079590f, 0.00231533101759850979f, -0.00811537541449069977f, -0.00286096544004976749f, -0.00298987003043293953f},
  {0.36861234903335571289f, -0.32330071926116943359f, -0.98365575075149536133f, -0.04368638247251510620f, 1.89136886596679687500f, -0.47382289171218872070f, -0.61498749256134033203f},
  {-0.36452406644821166992f, -0.02054607309401035309f, 0.15063527226448059082f, 0.00651664705947041512f, 0.18061460554599761963f, -0.09248337894678115845f, 0.00508242845535278320f},
  {-0.49481770396232604980f, 0.17794364690780639648f, -0.01446108799427747726f, 0.05995405092835426331f, 0.45394963026046752930f, 0.40656894445419311523f, -0.94150543212890625000f},
  {-0.09199666976928710938f, 0.10574172437191009521f, 3.10823059082031250000f, 0.17564190924167633057f, 0.07586007565259933472f, -0.45655331015586853027f, 0.01529247313737869263f},
  {0.10078588873147964478f, 0.35385736823081970215f, -0.72837018966674804688f, -0.14786054193973541260f, -0.68560111522674560547f, 0.09983325004577636719f, 0.03603802621364593506f},
  {-0.02556202746927738190f, 0.00978465005755424500f, -0.00394122535362839699f, -0.00192885694559663534f, -0.00553117226809263229f, -0.00469172606244683266f, -0.00560426851734519005f},
  {0.28157675266265869141f, -0.01535211130976676941f, -0.70458525419235229492f, -0.32572266459465026855f, 1.38966166973114013672f, 0.74063587188720703125f, 0.25379246473312377930f},
  {0.02533323690295219421f, -0.08172938227653503418f, -0.76695460081100463867f, -0.18267525732517242432f, 0.03239949047565460205f, 0.68771523237228393555f, 0.19096933305263519287f},
  {0.77639198303222656250f, -0.37011882662773132324f, 0.46018153429031372070f, 0.86575937271118164062f, -0.07811688631772994995f, 0.43943291902542114258f, -0.96396678686141967773f},
  {-0.25434175133705139160f, 0.02729056961834430695f, 1.15187561511993408203f, 0.07802950590848922729f, 0.16036951541900634766f, -0.22820906341075897217f, 0.01219124812632799149f},
  {0.22304007411003112793f, -0.08382881432771682739f, 2.45824956893920898438f, 0.23083047568798065186f, 0.17596626281738281250f, 0.77055579423904418945f, -0.66801738739013671875f},
  {-0.01338880602270364761f, 0.00678127724677324295f, -0.00393996713683009148f, -0.00411360664293169975f, -0.00529702519997954369f, -0.00359843275509774685f, -0.00496408995240926743f},
  {0.04113857075572013855f, -0.01336366776376962662f, 0.01820242591202259064f, -0.00286491052247583866f, 0.00681099109351634979f, 0.00322982948273420334f, 0.00301440060138702393f},
  {-0.03825742378830909729f, 0.01206577476114034653f, -0.01277141459286212921f, 0.00210891827009618282f, -0.00740420492365956306f, -0.00408168649300932884f, -0.00349101400934159756f},
  {-0.33469673991203308105f, 0.52254736423492431641f, 0.36765736341476440430f, 0.40863737463951110840f, -0.12883640825748443604f, -0.93177610635757446289f, -0.89039206504821777344f},
  {-0.34641578793525695801f, 0.16668975353240966797f, 0.07382471859455108643f, -0.13485008478164672852f, 0.46146023273468017578f, -2.00728225708007812500f, 0.74849146604537963867f},
  {-0.30458018183708190918f, 0.30520096421241760254f, -1.38985753059387207031f, 0.34575003385543823242f, -0.31480389833450317383f, -0.49157950282096862793f, -1.19823622703552246094f},
  {-0.20130345225334167480f, 0.26971429586410522461f, -0.96390295028686523438f, -0.30650097131729125977f, -0.21017101407051086426f, 0.12090912461280822754f, -0.52092248201370239258f},
  {-0.01622960902750492096f, 0.19365485012531280518f, -0.49388736486434936523f, -0.19932501018047332764f, -1.13728880882263183594f, -0.66504305601119995117f, -0.52681481838226318359f},
  {0.12894432246685028076f, 0.26763862371444702148f, -0.78904241323471069336f, 0.43809852004051208496f, 1.11874163150787353516f, 0.85614925622940063477f, 0.26100930571556091309f},
  {-0.24589042365550994873f, 0.39531019330024719238f, -0.04978862404823303223f, 0.10512991249561309814f, 0.41522550582885742188f, 0.57440882921218872070f, 0.49262991547584533691f},
  {-0.08175324648618698120f, 0.06692015379667282104f, 1.80551981925964355469f, 0.13491876423358917236f, 0.08960054069757461548f, -0.32111099362373352051f, 0.02987132780253887177f},
  {0.03065086714923381805f, -0.00969927012920379639f, 0.00675375945866107941f, -0.00082845299039036036f, 0.00427007721737027168f, 0.00709527265280485153f, 0.00581993209198117256f},
  {-0.55151802301406860352f, 0.37025296688079833984f, 0.04970088601112365723f, 0.94559973478317260742f, -0.02394173666834831238f, 0.22838336229324340820f, 0.06049566715955734253f},
  {0.02350234612822532654f, -0.00943657942116260529f, 0.00694321747869253159f, 0.00314644793979823589f, 0.00513929780572652817f, 0.00406028889119625092f, 0.00565116619691252708f}
};
static const float tensor_actor_0_bias[64] = 
{-0.11197666078805923462f, -0.86181139945983886719f, -0.31985118985176086426f, -0.01272906828671693802f, 0.20783685147762298584f, 0.00567008461803197861f, 0.00498358998447656631f, -0.00353934057056903839f, 0.27977031469345092773f, -0.31689628958702087402f, -0.25978589057922363281f, -0.34083086252212524414f, 0.19346222281455993652f, -0.02429345622658729553f, -0.11089102923870086670f, 0.07287875562906265259f, -0.87757986783981323242f, -0.00939979683607816696f, -0.01158652920275926590f, 0.01207600068300962448f, 0.00128332583699375391f, 0.30015635490417480469f, -0.53157907724380493164f, -0.35894039273262023926f, 0.09058790653944015503f, -0.24899619817733764648f, 0.26920863986015319824f, -0.33706071972846984863f, -0.64650648832321166992f, 0.42920279502868652344f, -0.51461905241012573242f, 0.45939141511917114258f, -0.00896636489778757095f, 0.00671816430985927582f, 0.01105304155498743057f, -0.23547072708606719971f, 0.00834152754396200180f, 0.54039508104324340820f, -0.00834871642291545868f, -0.86847138404846191406f, -0.44818416237831115723f, -0.78816390037536621094f, 0.16502569615840911865f, -0.12851631641387939453f, -0.00492705591022968292f, -0.14915487170219421387f, -0.43062508106231689453f, -0.32134434580802917480f, -0.24148669838905334473f, -0.40235733985900878906f, -0.00045131053775548935f, 0.01078103668987751007f, -0.01082589477300643921f, 0.04254486411809921265f, -0.79484963417053222656f, -0.38916599750518798828f, -0.22949257493019104004f, -0.32818403840065002441f, 0.18710200488567352295f, 0.33540427684783935547f, 0.10474838316440582275f, 0.01166630629450082779f, -0.73907738924026489258f, 0.00415726145729422569f};
static const float tensor_actor_2_weight[64][64] = 
{
  {0.00240986864082515240f, 0.02642229571938514709f, 0.04297155886888504028f, 0.02495433017611503601f, -0.05270810052752494812f, -0.00434360699728131294f, -0.00645279418677091599f, 0.00789987575262784958f, 0.00343615771271288395f, -0.09021833539009094238f, 0.02215334028005599976f, -0.00380368507467210293f, -0.06710169464349746704f, -0.02959568798542022705f, 0.03834066912531852722f, 0.08616869896650314331f, 0.01606186479330062866f, 0.01909984275698661804f, 0.03082415461540222168f, -0.00721040740609169006f, 0.02562277950346469879f, 0.00642062537372112274f, -0.09332983940839767456f, 0.02949737384915351868f, -0.06957764923572540283f, -0.00039972324157133698f, 0.02374913170933723450f, -0.02530652470886707306f, 0.00079068902414292097f, 0.00249110953882336617f, 0.02324833907186985016f, 0.08471979945898056030f, -0.00932053197175264359f, -0.03455082327127456665f, -0.01766071654856204987f, -0.06295045465230941772f, -0.02531969919800758362f, -0.05085053667426109314f, 0.02805914543569087982f, 0.00563356280326843262f, 0.00106782664079219103f, -0.02849328145384788513f, -0.04870174080133438110f, -0.07053272426128387451f, 0.04064528644084930420f, -0.00731037231162190437f, -0.03361124917864799500f, -0.02448081597685813904f, 0.00733131542801856995f, 0.01808143593370914459f, 0.04095492511987686157f, -0.02462757192552089691f, 0.00998390465974807739f, -0.01166255027055740356f, -0.00494977226480841637f, -0.00469251070171594620f, 0.02402834035456180573f, 0.03359806910157203674f, -0.02934124693274497986f, 0.00046631274744868279f, 0.04104559496045112610f, -0.01849501021206378937f, 0.02732752449810504913f, -0.02829862758517265320f},
  {0.13248802721500396729f, 0.25513017177581787109f, 0.16290883719921112061f, 0.02453897334635257721f, 0.05474776402115821838f, -0.00022568227723240852f, 0.00011715842992998660f, 0.00022080792405176908f, 0.11608935892581939697f, 0.30685329437255859375f, 0.01960065588355064392f, -0.06711420416831970215f, -0.05732580646872520447f, -0.06126981228590011597f, 0.14942339062690734863f, -0.67092192173004150391f, 0.02863947115838527679f, -0.00041584562859497964f, 0.00248780637048184872f, -0.00031150100403465331f, 0.00041712916572578251f, -0.19064201414585113525f, -0.13957695662975311279f, -0.07542055845260620117f, -0.33523389697074890137f, 0.14049078524112701416f, -0.17178018391132354736f, 0.29150021076202392578f, -0.37865227460861206055f, -0.06198321282863616943f, 0.06018368154764175415f, -0.29249444603919982910f, -0.00005454853089759126f, 0.00052447628695517778f, 0.00001166822858067462f, 0.10439280420541763306f, 0.00040024079498834908f, -0.14650620520114898682f, 0.00170622055884450674f, -0.37742602825164794922f, -0.06735256314277648926f, 0.17308974266052246094f, -0.18849319219589233398f, 0.59571331739425659180f, -0.00034922669874504209f, 0.17611022293567657471f, 0.17661105096340179443f, -0.20350430905818939209f, -0.09802147001028060913f, -0.19636568427085876465f, 0.00028750178171321750f, -0.00259906309656798840f, 0.00143580033909529448f, -0.16530799865722656250f, -0.61033570766448974609f, 0.01679493486881256104f, -0.37355265021324157715f, 0.43993052840232849121f, -0.13906358182430267334f, -0.16637431085109710693f, -0.12795130908489227295f, 0.00057749077677726746f, -0.09135706722736358643f, 0.00003490821836749092f},
  {0.02699364535510540009f, -0.07293122261762619019f, 0.04630036652088165283f, -0.00043662308598868549f, 0.04684578254818916321f, 0.01482668332755565643f, 0.00462214974686503410f, -0.01551881991326808929f, 0.02303812466561794281f, 0.00505761941894888878f, -0.05007052421569824219f, 0.00666520604863762856f, -0.02068426646292209625f, -0.02169840037822723389f, -0.01833838783204555511f, 0.03456687927246093750f, 0.02941869385540485382f, 0.00634311884641647339f, -0.00572106568142771721f, 0.01480456814169883728f, 0.01375172752887010574f, -0.06813798099756240845f, 0.04461764916777610779f, 0.01665639877319335938f, -0.03758913651108741760f, -0.00961623061448335648f, 0.15515010058879852295f, -0.00748560018837451935f, 0.00504169054329395294f, 0.02782565355300903320f, -0.03714718669652938843f, -0.02126351743936538696f, -0.00181686156429350376f, -0.00600898219272494316f, 0.00831296015530824661f, 0.05406489595770835876f, -0.00912066921591758728f, 0.00107827130705118179f, -0.00778077030554413795f, -0.00736325467005372047f, 0.03808208182454109192f, -0.01368311420083045959f, -0.03005650825798511505f, 0.01862960122525691986f, 0.00428570993244647980f, -0.02127588167786598206f, -0.07506959885358810425f, -0.03584210947155952454f, 0.03382155299186706543f, 0.01963373646140098572f, 0.00704663153737783432f, -0.01408930495381355286f, 0.02897325716912746429f, 0.04076450690627098083f, -0.00893794000148773193f, -0.00336766964755952358f, -0.12141692638397216797f, -0.01743855886161327362f, 0.01035885978490114212f, 0.02867222949862480164f, -0.06842959672212600708f, 0.01468882337212562561f, -0.03643788769841194153f, -0.00104655290488153696f},
  {-0.01983850821852684021f, -0.04230584576725959778f, -0.00193547946400940418f, -0.02607290260493755341f, 0.00156407745089381933f, 0.00290481280535459518f, 0.00002648990630405024f, -0.02391660027205944061f, -0.01740829646587371826f, -0.02906950563192367554f, 0.02696989104151725769f, 0.04376019164919853210f, -0.05458566546440124512f, -0.02205970138311386108f, -0.00254457746632397175f, -0.04231101274490356445f, 0.01124989427626132965f, -0.00231743417680263519f, -0.02070225775241851807f, 0.01288717798888683319f, -0.00769761577248573303f, -0.04966209828853607178f, 0.01094729173928499222f, 0.00511347642168402672f, 0.01054492220282554626f, 0.00866706948727369308f, 0.10692129284143447876f, 0.01252614706754684448f, -0.00871191825717687607f, 0.06931755691766738892f, 0.02041547745466232300f, 0.02371604181826114655f, -0.01435151789337396622f, 0.02217444032430648804f, 0.00760850077494978905f, -0.04866198822855949402f, 0.01010065618902444839f, -0.01114405691623687744f, -0.00113171630073338747f, -0.00013160557136870921f, 0.02428887411952018738f, 0.00723155122250318527f, -0.02401904202997684479f, -0.00624838983640074730f, -0.02783708460628986359f, 0.01461778022348880768f, 0.04274922981858253479f, 0.02237661741673946381f, -0.00134906428866088390f, -0.02301863022148609161f, -0.02266293205320835114f, 0.01912683062255382538f, -0.02989482879638671875f, 0.01428866013884544373f, 0.00270998314954340458f, -0.01558361202478408813f, 0.02148634567856788635f, -0.00500435801222920418f, -0.00171962229069322348f, 0.00540775060653686523f, -0.04755403101444244385f, 0.00304260966368019581f, 0.01333815790712833405f, 0.02855662815272808075f},
  {0.01494363136589527130f, 0.02288609743118286133f, 0.03936709836125373840f, -0.02768100239336490631f, 0.06961032748222351074f, 0.01920939050614833832f, 0.01406787242740392685f, -0.01143264211714267731f, 0.03130633383989334106f, 0.00729732494801282883f, 0.00428873253986239433f, 0.03625065833330154419f, -0.03420398011803627014f, 0.06904536485671997070f, -0.02354279719293117523f, -0.05226393043994903564f, 0.00794394407421350479f, -0.00897051487118005753f, -0.01890491694211959839f, 0.02698163129389286041f, -0.02368257381021976471f, 0.04770333692431449890f, -0.08382155746221542358f, 0.01412651594728231430f, 0.02458649501204490662f, 0.04659894108772277832f, -0.08054713159799575806f, -0.05602826178073883057f, -0.00676719006150960922f, 0.01540712919086217880f, 0.04343863949179649353f, -0.00585292186588048935f, -0.01720167323946952820f, 0.00422732159495353699f, 0.01231269631534814835f, -0.01948910206556320190f, 0.00398981058970093727f, -0.09065981209278106689f, -0.01219482906162738800f, 0.01662573032081127167f, -0.01869010180234909058f, 0.00002059837606793735f, -0.02541029825806617737f, -0.06253509223461151123f, 0.00012999965110793710f, 0.03432906791567802429f, -0.02006324008107185364f, 0.02153966948390007019f, 0.00874249543994665146f, 0.01102788839489221573f, -0.01486534159630537033f, 0.00519614573568105698f, -0.01067933999001979828f, 0.03713208436965942383f, -0.01127289142459630966f, -0.06442460417747497559f, 0.03689116612076759338f, 0.05775381997227668762f, -0.04322624206542968750f, -0.00158893421757966280f, -0.02322625368833541870f, 0.01728097535669803619f, -0.00792508292943239212f, 0.00462137581780552864f},
  {-0.00984737463295459747f, 0.01790329068899154663f, 0.24448558688163757324f, -0.00701014138758182526f, -0.00623103696852922440f, -0.00966236460953950882f, 0.00300536165013909340f, 0.01383157260715961456f, 0.00639742938801646233f, 0.09969727694988250732f, -0.08714872598648071289f, -0.08158898353576660156f, -0.05568746477365493774f, 0.00613895244896411896f, -0.06491245329380035400f, 0.15460172295570373535f, 0.00564742973074316978f, -0.02586995065212249756f, 0.00640388019382953644f, 0.00344507372938096523f, -0.00557886250317096710f, -0.06042145937681198120f, -0.09601385146379470825f, -0.02815234288573265076f, -0.01651127077639102936f, 0.02476582862436771393f, -0.01252415031194686890f, -0.01384972129017114639f, -0.00983598642051219940f, -0.04645043611526489258f, 0.00010546912380959839f, 0.03910006210207939148f, -0.00156557338777929544f, -0.00404731184244155884f, -0.00128814484924077988f, -0.03641660138964653015f, -0.00844162609428167343f, 0.07510300725698471069f, -0.01119626034051179886f, 0.00522113870829343796f, 0.03039536066353321075f, 0.03068726509809494019f, -0.07022091746330261230f, 0.08426766842603683472f, -0.00311675528064370155f, -0.01616221107542514801f, -0.01764045469462871552f, 0.01421624887734651566f, -0.03503326326608657837f, -0.09613370150327682495f, -0.00028013344854116440f, 0.00362443854101002216f, -0.00761336227878928185f, -0.01580976136028766632f, 0.03573079779744148254f, -0.00182893895544111729f, 0.00785530265420675278f, 0.00779442861676216125f, 0.02262819558382034302f, -0.01730109192430973053f, -0.13553805649280548096f, 0.00522982375696301460f, -0.00950053054839372635f, -0.00397600699216127396f},
  {0.00411645974963903427f, 0.01864684931933879852f, -0.00142633973155170679f, -0.00842272676527500153f, 0.02908935397863388062f, -0.00148729444481432438f, -0.00615131715312600136f, -0.03268354013562202454f, -0.02841625176370143890f, 0.00355368503369390965f, 0.00965308304876089096f, 0.01624894700944423676f, 0.04466739669442176819f, 0.02117851004004478455f, -0.02469670586287975311f, -0.03206792101263999939f, 0.00242582708597183228f, 0.02221110090613365173f, -0.00217280280776321888f, -0.01390599273145198822f, 0.00622545694932341576f, 0.02046045288443565369f, -0.00114813039544969797f, -0.02452950179576873779f, 0.06523080170154571533f, -0.02260610088706016541f, 0.01773957349359989166f, -0.04749738052487373352f, -0.02429284155368804932f, 0.00863878708332777023f, -0.01193587575107812881f, -0.00693542091175913811f, 0.01268041506409645081f, -0.01600408926606178284f, -0.01881911791861057281f, -0.00885107740759849548f, -0.01460137125104665756f, -0.04121994599699974060f, 0.01036035083234310150f, -0.00096816878067329526f, 0.00572240492329001427f, 0.00833043549209833145f, -0.06449769437313079834f, 0.01834170520305633545f, 0.00263647455722093582f, 0.04280497506260871887f, 0.03443176299333572388f, 0.04126846417784690857f, 0.01649866066873073578f, -0.05968248844146728516f, 0.00537213962525129318f, -0.00336162932217121124f, 0.00794253963977098465f, -0.01457707583904266357f, 0.01623792573809623718f, -0.02763243392109870911f, 0.09080290049314498901f, 0.01977590844035148621f, -0.03846378624439239502f, 0.00471291271969676018f, -0.00776817183941602707f, -0.01382834743708372116f, 0.03820130974054336548f, 0.00354217737913131714f},
  {0.01019984763115644455f, -0.04728752374649047852f, 0.17387603223323822021f, -0.00526414159685373306f, 0.02952216006815433502f, 0.02749962918460369110f, 0.01201150845736265182f, -0.00069416931364685297f, -0.03516519069671630859f, -0.06069518998265266418f, -0.11455138772726058960f, 0.01819313690066337585f, -0.05766750499606132507f, 0.00033905310556292534f, 0.02680058218538761139f, -0.04131119698286056519f, -0.04419342800974845886f, -0.02239542454481124878f, -0.01022705715149641037f, 0.01350144483149051666f, -0.04541086405515670776f, 0.06651954352855682373f, 0.07633211463689804077f, 0.04816906154155731201f, -0.02311309613287448883f, -0.01698851585388183594f, -0.06981577724218368530f, 0.04395499825477600098f, -0.02117364853620529175f, 0.04906764626502990723f, -0.11435377597808837891f, -0.10345174372196197510f, -0.02268462255597114563f, 0.02580303698778152466f, 0.00924528297036886215f, 0.07346345484256744385f, 0.02637338079512119293f, -0.06885669380426406860f, -0.02932415343821048737f, 0.00462896749377250671f, -0.10343775153160095215f, 0.09595257788896560669f, -0.09391260147094726562f, -0.04213229939341545105f, -0.02378863096237182617f, -0.00360015686601400375f, 0.08870329707860946655f, 0.02772772684693336487f, -0.02738644555211067200f, 0.00696359574794769287f, -0.01607579365372657776f, 0.02082083933055400848f, -0.00768230389803647995f, 0.08999301493167877197f, 0.00615383451804518700f, -0.04438483715057373047f, -0.13993050158023834229f, -0.00442305346950888634f, 0.01534080877900123596f, 0.02767098322510719299f, 0.01555535756051540375f, 0.00635205581784248352f, 0.00679610483348369598f, 0.02835334092378616333f},
  {-0.01145742367953062057f, 0.01469865627586841583f, -0.10825296491384506226f, 0.01548383384943008423f, -0.02468379586935043335f, 0.00123279169201850891f, 0.00069532718043774366f, -0.03846891224384307861f, 0.02262050285935401917f, 0.09421999752521514893f, -0.01479460019618272781f, 0.09008219838142395020f, 0.11096462607383728027f, -0.06286611407995223999f, -0.07420784980058670044f, 0.04640138521790504456f, 0.02956248261034488678f, 0.00276187271811068058f, -0.01084184926003217697f, 0.00370977120473980904f, -0.01151250023394823074f, -0.00516882073134183884f, 0.00517977122217416763f, -0.03969551250338554382f, 0.07864861935377120972f, 0.06425226479768753052f, -0.09017721563577651978f, -0.01230411976575851440f, 0.00080543721560388803f, -0.00291832233779132366f, 0.03953862190246582031f, -0.12942643463611602783f, -0.01211001258343458176f, 0.01058031246066093445f, 0.01292576175183057785f, -0.03042996861040592194f, 0.00494272820651531219f, 0.04908616840839385986f, 0.01479373313486576080f, 0.00796996522694826126f, -0.07264190912246704102f, -0.00916877388954162598f, 0.00746659422293305397f, 0.03755718842148780823f, -0.00928007159382104874f, -0.01369615737348794937f, -0.11901561915874481201f, -0.00362399243749678135f, 0.00447325501590967178f, -0.00475375493988394737f, -0.00866171345114707947f, 0.01839667931199073792f, -0.02783608622848987579f, 0.05892713740468025208f, -0.00907049607485532761f, -0.03535366430878639221f, 0.02076173759996891022f, -0.00891631934791803360f, 0.02810267545282840729f, -0.00028472125995904207f, -0.00742673501372337341f, 0.01762824319303035736f, -0.02477956935763359070f, 0.01871025003492832184f},
  {-0.02247728593647480011f, -0.07940127700567245483f, 0.09589395672082901001f, -0.01708738505840301514f, 0.04647390171885490417f, -0.00212016538716852665f, -0.00705148885026574135f, 0.00255392212420701981f, -0.06758216768503189087f, -0.03613029047846794128f, 0.03062048554420471191f, -0.02468349970877170563f, 0.05308454483747482300f, -0.02545472607016563416f, 0.00470133451744914055f, -0.05839642509818077087f, 0.02310045436024665833f, 0.00806210190057754517f, 0.00154788512736558914f, -0.00479884026572108269f, -0.01067943125963211060f, 0.02256382629275321960f, -0.01032983697950839996f, 0.00758555717766284943f, -0.03219068050384521484f, -0.01754819415509700775f, 0.07983129471540451050f, -0.05525783076882362366f, -0.00180155492853373289f, -0.05988675728440284729f, -0.04561969637870788574f, 0.01071364898234605789f, 0.01507638208568096161f, 0.00223849643953144550f, -0.00286043900996446609f, 0.04137331247329711914f, 0.00047920687939040363f, -0.07977861166000366211f, -0.00172354828100651503f, 0.00028487364761531353f, 0.01613347604870796204f, -0.04933856055140495300f, -0.01712300255894660950f, 0.03756923973560333252f, -0.00766837643459439278f, 0.03222293779253959656f, 0.01913997158408164978f, 0.00281206332147121429f, 0.00896910112351179123f, 0.02128089964389801025f, -0.01796838641166687012f, -0.01242270134389400482f, 0.00221841689199209213f, 0.00907581765204668045f, 0.00528294267132878304f, -0.01705396920442581177f, 0.12137117981910705566f, 0.00042357895290479064f, -0.02680233307182788849f, -0.00862066447734832764f, -0.05256521329283714294f, -0.01840347237884998322f, 0.03158536925911903381f, -0.00330765638500452042f},
  {-0.00229126517660915852f, -0.07124421745538711548f, -0.03373628482222557068f, 0.01050374004989862442f, 0.01439711079001426697f, -0.00563845410943031311f, -0.01337257213890552521f, 0.00590895256027579308f, 0.03727425262331962585f, -0.03691338747739791870f, 0.08068393915891647339f, -0.02220786549150943756f, 0.01812811382114887238f, 0.00865313131362199783f, 0.05977553501725196838f, 0.00370649108663201332f, 0.00705926492810249329f, 0.02151175215840339661f, -0.00360423978418111801f, -0.00391947943717241287f, 0.01193495374172925949f, -0.04930854216217994690f, -0.01077852305024862289f, 0.03960592299699783325f, -0.01100463792681694031f, 0.01237871591001749039f, -0.05342477560043334961f, -0.03075371496379375458f, 0.00791828054934740067f, -0.05765399709343910217f, 0.00161571765784174204f, 0.02530146948993206024f, 0.01462690625339746475f, -0.00639815162867307663f, -0.01913574896752834320f, 0.01807689666748046875f, -0.01049734093248844147f, -0.05620155483484268188f, 0.01127565372735261917f, 0.00816649757325649261f, 0.00103652395773679018f, 0.02900141477584838867f, 0.07739485800266265869f, -0.07813975214958190918f, 0.01940859667956829071f, 0.01870281249284744263f, 0.06006312742829322815f, -0.01582547649741172791f, 0.00413882918655872345f, 0.01083061844110488892f, 0.02120394818484783173f, -0.00702043902128934860f, 0.02403940632939338684f, -0.03386496007442474365f, 0.00011000937229255214f, 0.00939329806715250015f, -0.06862114369869232178f, 0.06991630792617797852f, -0.04078954085707664490f, -0.00623991992324590683f, 0.01661565527319908142f, -0.01129488274455070496f, 0.00720071885734796524f, 0.01130504999309778214f},
  {0.01740491949021816254f, 0.26628953218460083008f, 0.03664218261837959290f, 0.05619193986058235168f, -0.07962995767593383789f, -0.01595317944884300232f, -0.00849028117954730988f, 0.00912104733288288116f, -0.08122032880783081055f, 0.41109603643417358398f, -0.08038923144340515137f, -0.04404075816273689270f, -0.09688326716423034668f, 0.00453965552151203156f, 0.26143005490303039551f, -0.01940687559545040131f, 0.31569474935531616211f, 0.03421927616000175476f, 0.04722595959901809692f, -0.03868800029158592224f, 0.00665243435651063919f, -0.05389346182346343994f, -0.00493956357240676880f, 0.68115377426147460938f, 0.09307780861854553223f, 0.02246511727571487427f, -0.06728149950504302979f, -0.39210432767868041992f, 0.02369608543813228607f, -0.15554088354110717773f, 0.10057742148637771606f, 0.02933511137962341309f, 0.03624980151653289795f, -0.02120684273540973663f, -0.03793215379118919373f, 0.15197595953941345215f, -0.03144101798534393311f, -0.19229710102081298828f, 0.03895309567451477051f, -0.61332476139068603516f, 0.20488074421882629395f, 0.45996603369712829590f, 0.02195926010608673096f, -0.57857310771942138672f, 0.02086799219250679016f, -0.46011349558830261230f, 0.15775026381015777588f, -0.03907250612974166870f, 0.19082166254520416260f, 0.18714211881160736084f, 0.00421231659129261971f, -0.04750719666481018066f, 0.04334988445043563843f, 0.13577224314212799072f, 0.15039467811584472656f, 0.22411541640758514404f, 0.27637979388236999512f, -0.42609786987304687500f, -0.21645459532737731934f, -0.43288832902908325195f, 0.03039598278701305389f, -0.03234306722879409790f, 0.51712262630462646484f, -0.01823780871927738190f},
  {-0.01196997892111539841f, 0.04535229876637458801f, 0.01026031188666820526f, 0.01122037507593631744f, 0.00609201472252607346f, -0.01270829979330301285f, -0.00741855427622795105f, 0.01301315240561962128f, 0.02609629556536674500f, -0.04350689053535461426f, 0.08581737428903579712f, -0.01591900363564491272f, -0.01668206229805946350f, -0.01211789995431900024f, 0.06001217290759086609f, 0.08360414206981658936f, -0.07031950354576110840f, -0.01035481039434671402f, -0.00031165304244495928f, 0.00317166233435273170f, 0.01045584771782159805f, -0.03363627195358276367f, -0.09150121361017227173f, 0.02253649383783340454f, -0.06271493434906005859f, -0.10247453302145004272f, -0.09687040746212005615f, -0.06540200859308242798f, 0.02359708398580551147f, 0.02549786493182182312f, 0.04011826217174530029f, -0.02958052419126033783f, 0.00241548893973231316f, -0.01956919953227043152f, 0.01599297299981117249f, -0.01596751995384693146f, 0.00614063581451773643f, -0.07095977663993835449f, 0.00756444595754146576f, -0.00067237031180411577f, 0.05144888907670974731f, -0.00137360836379230022f, 0.08557073026895523071f, 0.00550736533477902412f, 0.00642569363117218018f, 0.02504013665020465851f, 0.09955836832523345947f, -0.01207742374390363693f, -0.00073686067480593920f, 0.07699234783649444580f, 0.00326676829718053341f, -0.00758674787357449532f, 0.00182805187068879604f, -0.05263195559382438660f, -0.01232278719544410706f, 0.01856057159602642059f, -0.01020551100373268127f, 0.05146760493516921997f, -0.06992631405591964722f, 0.03339511901140213013f, -0.02353695780038833618f, -0.01526102237403392792f, -0.00920216925442218781f, -0.00756468577310442924f},
  {-0.00428846757858991623f, 0.01223081070929765701f, 0.10214348882436752319f, -0.02120922878384590149f, -0.01056228205561637878f, 0.01514341868460178375f, 0.02322229184210300446f, 0.00492932740598917007f, -0.01791648380458354950f, 0.00555626349523663521f, -0.01847414858639240265f, -0.01387028861790895462f, 0.01333471946418285370f, -0.06742131710052490234f, -0.03255822509527206421f, -0.00205034739337861538f, -0.01875457726418972015f, -0.04770993441343307495f, -0.03703850135207176208f, 0.01655106246471405029f, -0.03642495349049568176f, 0.00008938112296164036f, 0.01439544558525085449f, 0.00693850312381982803f, -0.03347796574234962463f, -0.00701539358124136925f, 0.04152845218777656555f, 0.01272882055491209030f, -0.02051170729100704193f, 0.01620668545365333557f, 0.00186989456415176392f, 0.01000271830707788467f, -0.02071814239025115967f, 0.02567883022129535675f, 0.04213118925690650940f, -0.01002197153866291046f, 0.03432043269276618958f, -0.02246467024087905884f, -0.04895438253879547119f, -0.00084172555943951011f, 0.01137286983430385590f, 0.00115868216380476952f, -0.01076701097190380096f, 0.05407078564167022705f, -0.02161045931279659271f, 0.00654400791972875595f, 0.02914512716233730316f, 0.03530577197670936584f, -0.06717775762081146240f, -0.01812818087637424469f, -0.01052064634859561920f, 0.04410990327596664429f, -0.02204132452607154846f, 0.02694221585988998413f, 0.00933090504258871078f, -0.02481567300856113434f, 0.06147772073745727539f, -0.01793938688933849335f, 0.01173643860965967178f, 0.01154465228319168091f, 0.00341072957962751389f, 0.02198717556893825531f, -0.01419170666486024857f, 0.02115577459335327148f},
  {-0.01784473471343517303f, 0.06750322878360748291f, 0.07276435196399688721f, -0.00160127005074173212f, -0.11158936470746994019f, 0.00053180026588961482f, -0.00332499621435999870f, -0.00031681879772804677f, -0.03553046286106109619f, -0.18208821117877960205f, -0.06439046561717987061f, 0.06032129004597663879f, 0.01374124642461538315f, 0.05139293521642684937f, 0.10146363079547882080f, 0.04300617054104804993f, 0.01232792437076568604f, -0.00509628374129533768f, -0.00669624330475926399f, 0.00659472122788429260f, -0.00698274094611406326f, -0.00237532937899231911f, -0.01999050751328468323f, -0.00716474512591958046f, -0.11070550233125686646f, 0.05828518792986869812f, 0.07834276556968688965f, 0.11884386837482452393f, -0.01928959786891937256f, -0.04273638129234313965f, -0.04760368913412094116f, 0.03724807873368263245f, -0.00703300582244992256f, 0.00401329807937145233f, 0.00424246815964579582f, -0.06722904741764068604f, 0.00497487559914588928f, 0.10961873084306716919f, -0.00567263737320899963f, 0.02105836383998394012f, 0.05179452151060104370f, -0.05767950415611267090f, 0.07651160657405853271f, 0.04099687933921813965f, -0.00475140707567334175f, -0.02948705665767192841f, 0.14196752011775970459f, 0.13967134058475494385f, -0.02483126893639564514f, -0.13220404088497161865f, -0.00412526959553360939f, 0.00605817884206771851f, -0.00972587987780570984f, 0.04430032894015312195f, 0.03532471135258674622f, -0.03728575259447097778f, -0.02424218878149986267f, -0.08063419163227081299f, 0.04901722818613052368f, -0.04248572513461112976f, -0.04850925132632255554f, 0.00196589622646570206f, 0.03606669232249259949f, 0.00646949373185634613f},
  {0.01383978966623544693f, -0.09536590427160263062f, 0.05046286806464195251f, 0.03093416616320610046f, -0.01554651930928230286f, -0.02027847245335578918f, -0.01483422238379716873f, 0.02587781287729740143f, -0.06696825474500656128f, -0.00678561255335807800f, -0.04095879942178726196f, -0.02962590567767620087f, 0.05826958641409873962f, -0.03975960239768028259f, 0.01320628356188535690f, 0.08611355721950531006f, 0.00116507313214242458f, 0.01528459973633289337f, 0.03930320218205451965f, -0.01032713428139686584f, 0.02717626467347145081f, 0.05755373463034629822f, 0.02932297252118587494f, -0.00688482960686087608f, -0.04511924460530281067f, -0.04289252683520317078f, -0.06070366501808166504f, -0.02269851043820381165f, -0.01328889746218919754f, -0.03662944212555885315f, -0.02089163102209568024f, 0.08440003544092178345f, 0.00535792997106909752f, -0.02119251713156700134f, -0.01282702945172786713f, -0.00384158524684607983f, -0.01910259760916233063f, -0.03012637607753276825f, 0.02715622819960117340f, -0.01013553794473409653f, 0.05934171006083488464f, -0.02932448126375675201f, 0.01062667556107044220f, 0.04004185646772384644f, 0.02668524533510208130f, 0.01767892763018608093f, 0.09306310117244720459f, 0.01088473945856094360f, -0.02179121784865856171f, 0.01632001809775829315f, 0.00870899204164743423f, -0.01998440362513065338f, 0.03078175894916057587f, -0.03767805546522140503f, 0.00913903675973415375f, -0.00137830979656428099f, 0.11365765333175659180f, 0.00885909795761108398f, -0.02958621457219123840f, -0.02216587588191032410f, -0.04902862757444381714f, -0.03114016540348529816f, 0.04646238312125205994f, -0.01629148982465267181f},
  {-0.00552309071645140648f, -0.01720416732132434845f, -0.03619980439543724060f, -0.02359902299940586090f, -0.01919836178421974182f, 0.01325320918112993240f, 0.01864239387214183807f, -0.00919052027165889740f, 0.02562745101749897003f, 0.02278789505362510681f, -0.00144924013875424862f, 0.04132638499140739441f, 0.01826540566980838776f, -0.01742798276245594025f, -0.03928485885262489319f, -0.01956452243030071259f, 0.00989634450525045395f, -0.03812802955508232117f, -0.01632696576416492462f, 0.03036486543715000153f, -0.02288639917969703674f, 0.02025813050568103790f, 0.04541745781898498535f, 0.01071851048618555069f, -0.00359831284731626511f, 0.07659449428319931030f, 0.02360059134662151337f, 0.04717913269996643066f, -0.00187483639456331730f, 0.05486842244863510132f, -0.00882886908948421478f, -0.14999084174633026123f, -0.03676836565136909485f, 0.00405671261250972748f, 0.02752681635320186615f, 0.00818369630724191666f, 0.02888121083378791809f, 0.02351076528429985046f, -0.02514314092695713043f, 0.01363559626042842865f, 0.01055504288524389267f, 0.01696220785379409790f, 0.03243685513734817505f, -0.02887085452675819397f, -0.02251578681170940399f, -0.02242039144039154053f, -0.03993533551692962646f, 0.00724821258336305618f, -0.07238040119409561157f, 0.00937927421182394028f, -0.01229994185268878937f, 0.02396226488053798676f, -0.02824891172349452972f, 0.06872852146625518799f, -0.00886796321719884872f, -0.03246096149086952209f, -0.00305806356482207775f, -0.01356782577931880951f, 0.03762780129909515381f, 0.02283126674592494965f, -0.03778022900223731995f, 0.00940291211009025574f, -0.01210718229413032532f, 0.03722646832466125488f},
  {-0.13650801777839660645f, 0.03452000394463539124f, -0.12866728007793426514f, 0.13513818383216857910f, -0.10744732618331909180f, -0.00749590806663036346f, 0.00347606977447867393f, -0.00390683487057685852f, 0.15872153639793395996f, -0.39239433407783508301f, -0.10011812299489974976f, -0.02511553652584552765f, -0.00745733315125107765f, 0.18186104297637939453f, 0.29036113619804382324f, -0.31442603468894958496f, 0.29394912719726562500f, 0.03870670497417449951f, 0.05461129918694496155f, -0.03915145248174667358f, 0.02657801285386085510f, 0.15273463726043701172f, -0.21476753056049346924f, -0.36467835307121276855f, -0.60247308015823364258f, 0.17371772229671478271f, -0.04119976237416267395f, 0.40008425712585449219f, -0.15981255471706390381f, -0.05879171192646026611f, 0.22437804937362670898f, -0.00859526731073856354f, 0.04048867896199226379f, -0.01952483877539634705f, -0.03826519474387168884f, -0.12343381345272064209f, -0.03492776304483413696f, 0.10123174637556076050f, 0.06085636839270591736f, 0.15134610235691070557f, -0.01126522198319435120f, 0.26586043834686279297f, 0.22292111814022064209f, 0.38199436664581298828f, 0.03081998787820339203f, 0.05853199213743209839f, 0.21182152628898620605f, -0.25225123763084411621f, 0.04311931133270263672f, -0.46847632527351379395f, 0.00838747248053550720f, -0.06576953083276748657f, 0.05080166459083557129f, -0.21504577994346618652f, -0.19503448903560638428f, 0.07220349460840225220f, 0.04566146060824394226f, 0.30511945486068725586f, -0.02188219875097274780f, 0.15490119159221649170f, 0.20072609186172485352f, -0.02995333075523376465f, -0.10672046989202499390f, -0.02268511988222599030f},
  {0.00040068104863166809f, -0.07540301233530044556f, -0.05606048926711082458f, 0.01440675929188728333f, 0.03211798891425132751f, -0.00479462789371609688f, 0.01341912522912025452f, 0.01390336174517869949f, 0.00093315204139798880f, -0.08874752372503280640f, -0.01878363266587257385f, -0.02546668983995914459f, 0.03824673220515251160f, -0.03565315157175064087f, 0.06888995319604873657f, -0.01614938303828239441f, 0.02447124384343624115f, 0.01290697883814573288f, 0.02110446058213710785f, -0.01434702612459659576f, 0.00975639466196298599f, -0.00535616837441921234f, -0.04121580719947814941f, -0.01307271514087915421f, -0.03056642040610313416f, -0.09340157359838485718f, 0.10612853616476058960f, -0.05262654647231101990f, -0.00549198267981410027f, -0.11324771493673324585f, 0.04076695442199707031f, -0.02636667340993881226f, 0.01010147016495466232f, -0.01084443181753158569f, -0.01941003464162349701f, -0.00101872312370687723f, -0.01579289883375167847f, 0.03982658311724662781f, 0.00924811325967311859f, -0.00992918666452169418f, 0.01057289168238639832f, -0.07921697944402694702f, 0.00111578567884862423f, 0.06365326792001724243f, 0.00480700517073273659f, 0.00806686002761125565f, -0.07416087388992309570f, -0.04216641187667846680f, 0.05390461161732673645f, 0.04706786200404167175f, -0.00772140687331557274f, -0.01313907466828823090f, 0.03596223518252372742f, -0.00273616495542228222f, -0.01129480358213186264f, 0.00827038288116455078f, 0.01063732802867889404f, -0.06751456111669540405f, -0.02221947163343429565f, 0.02571096643805503845f, 0.04907649755477905273f, -0.01574245840311050415f, -0.01064973790198564529f, 0.00405802996829152107f},
  {0.01096067111939191818f, -0.05985369160771369934f, -0.03323440626263618469f, 0.00823157187551259995f, -0.07757610827684402466f, 0.01363854017108678818f, 0.00561825325712561607f, 0.00710825994610786438f, -0.00610797060653567314f, -0.01719851978123188019f, -0.09531891345977783203f, 0.01040087267756462097f, -0.12621837854385375977f, 0.01072690170258283615f, 0.03246250003576278687f, -0.16649110615253448486f, 0.00435932958498597145f, -0.00980975013226270676f, -0.00501789664849638939f, 0.00862512551248073578f, -0.01244986895471811295f, 0.02530211769044399261f, 0.01184285990893840790f, -0.02944460511207580566f, 0.07105231285095214844f, 0.02976729162037372589f, -0.02697582170367240906f, -0.01113017089664936066f, 0.00192838243674486876f, 0.03644891083240509033f, 0.05561316013336181641f, -0.07793967425823211670f, -0.01835197582840919495f, 0.00110368302557617426f, -0.00565735157579183578f, 0.00058732798788696527f, 0.00254219374619424343f, 0.05826989188790321350f, -0.00223673810251057148f, 0.01566926203668117523f, -0.07335288822650909424f, -0.02001671679317951202f, 0.07003884017467498779f, 0.00822166260331869125f, -0.00524687254801392555f, -0.00224057631567120552f, 0.05092231556773185730f, -0.00382409454323351383f, 0.00522419949993491173f, 0.04106361046433448792f, -0.00393035355955362320f, -0.01130255870521068573f, 0.02722555585205554962f, -0.02305765822529792786f, -0.01971999928355216980f, 0.02351795136928558350f, 0.02913589961826801300f, -0.00694303028285503387f, 0.01811597868800163269f, -0.02320032939314842224f, 0.06122208386659622192f, 0.00619873125106096268f, 0.02689039148390293121f, -0.01001327577978372574f},
  {0.05617942661046981812f, -0.03293092548847198486f, -0.00151884334627538919f, 0.00625599827617406845f, -0.05392418801784515381f, 0.01766459643840789795f, 0.02162581123411655426f, -0.01187181659042835236f, 0.03521274402737617493f, -0.05740754678845405579f, 0.00887564383447170258f, -0.04196620732545852661f, 0.05518401414155960083f, 0.04725525528192520142f, 0.01888713985681533813f, -0.02905570529401302338f, 0.02410615049302577972f, -0.03148398175835609436f, -0.02317518927156925201f, 0.03296138718724250793f, -0.01533790491521358490f, -0.09340151399374008179f, 0.02962487936019897461f, 0.01058276370167732239f, -0.01170230563730001450f, 0.01344119943678379059f, 0.19578090310096740723f, 0.00979829020798206329f, 0.00970945972949266434f, -0.01949234493076801300f, 0.00559445144608616829f, -0.09334040433168411255f, -0.01892939954996109009f, 0.01198756415396928787f, 0.03944728896021842957f, -0.07395692169666290283f, 0.02022364735603332520f, 0.00535731110721826553f, -0.01751225627958774567f, 0.00071014143759384751f, -0.05635479465126991272f, 0.07181324809789657593f, -0.04556021094322204590f, 0.04287024214863777161f, -0.02105608396232128143f, 0.01021486427634954453f, -0.04491639882326126099f, 0.00594142638146877289f, -0.06754861772060394287f, -0.07398320734500885010f, -0.01548430696129798889f, 0.02338805980980396271f, -0.03731497004628181458f, 0.09082184731960296631f, 0.00848009716719388962f, -0.04632002487778663635f, -0.10211551934480667114f, -0.04411231353878974915f, 0.04142173752188682556f, -0.00562017690390348434f, -0.07524956762790679932f, 0.03157508745789527893f, -0.04213151335716247559f, 0.02529778517782688141f},
  {0.01067953556776046753f, -0.01406403910368680954f, -0.07893289625644683838f, -0.01012878865003585815f, 0.08925710618495941162f, 0.00248698820360004902f, 0.00278357509523630142f, 0.00349925481714308262f, 0.03099915944039821625f, 0.12912194430828094482f, -0.11394086480140686035f, 0.05578998476266860962f, -0.09820978343486785889f, -0.05562926456332206726f, -0.08050375431776046753f, -0.00869641546159982681f, 0.04189153015613555908f, -0.01161727681756019592f, -0.02005654014647006989f, 0.00184361496940255165f, 0.00551624456420540810f, 0.01019037049263715744f, 0.09748108685016632080f, -0.03831830248236656189f, 0.10353096574544906616f, 0.00610745232552289963f, -0.01484779641032218933f, -0.00154009426478296518f, -0.00565827079117298126f, 0.06161159649491310120f, -0.02284228615462779999f, -0.05230828374624252319f, -0.00933979917317628860f, 0.00724994763731956482f, 0.01353711076080799103f, -0.01561528909951448441f, 0.02684314362704753876f, 0.00274072471074759960f, -0.00332065508700907230f, -0.00688114017248153687f, -0.03019584901630878448f, 0.01548947673290967941f, -0.00475664343684911728f, -0.03677142411470413208f, -0.00052640360081568360f, 0.01480856351554393768f, -0.02341451495885848999f, -0.00285236956551671028f, 0.04006489738821983337f, -0.05633303150534629822f, -0.00457758968695998192f, 0.01833914965391159058f, -0.00494157802313566208f, -0.02935524098575115204f, 0.00150405662134289742f, 0.02396629378199577332f, 0.01715779677033424377f, -0.00225416640751063824f, 0.00449972366914153099f, -0.00961669068783521652f, 0.04283466190099716187f, 0.00385312852449715137f, -0.01696275360882282257f, -0.00520842988044023514f},
  {0.00004353226177045144f, -0.41848590970039367676f, -0.17267496883869171143f, -0.10971640050411224365f, -0.03389337658882141113f, 0.03029734641313552856f, 0.01223236694931983948f, -0.01793685741722583771f, 0.57337671518325805664f, 0.14770244061946868896f, -0.03974289819598197937f, -0.06973300874233245850f, 0.13972890377044677734f, 0.00776061508804559708f, 0.16011795401573181152f, 0.03601926937699317932f, -0.53655469417572021484f, -0.05389901250600814819f, -0.06641764193773269653f, 0.05763512104749679565f, -0.04534934088587760925f, 0.06026214733719825745f, -0.45301103591918945312f, -0.06814789772033691406f, 0.49241411685943603516f, 0.16464704275131225586f, 0.31000089645385742188f, 0.24572312831878662109f, -0.68162745237350463867f, 0.40152043104171752930f, -0.28063845634460449219f, 0.26416826248168945312f, -0.05713595077395439148f, 0.03499035164713859558f, 0.05346947163343429565f, 0.03026218339800834656f, 0.05100141093134880066f, 0.11728613823652267456f, -0.06793274730443954468f, 0.42767089605331420898f, -0.09360165148973464966f, -0.32673403620719909668f, 0.12753318250179290771f, 0.49158185720443725586f, -0.04610282555222511292f, 0.53675931692123413086f, -0.03624146059155464172f, -0.28318643569946289062f, -0.00745182298123836517f, -0.18344341218471527100f, -0.03328210860490798950f, 0.06772267818450927734f, -0.06600039452314376831f, 0.35649439692497253418f, -0.37280246615409851074f, 0.12329940497875213623f, -0.04141602292656898499f, 0.47646832466125488281f, 0.50860828161239624023f, 0.44905871152877807617f, 0.02695876546204090118f, 0.04292533919215202332f, -0.73630219697952270508f, 0.04314007237553596497f},
  {0.03296361491084098816f, -0.11841602623462677002f, -0.14882887899875640869f, 0.01351520139724016190f, -0.03739971294999122620f, -0.01340661291033029556f, 0.00476061552762985229f, 0.01502459961920976639f, 0.00106605049222707748f, 0.09776008874177932739f, -0.05149509757757186890f, 0.03697371482849121094f, -0.05706394091248512268f, -0.07333779335021972656f, -0.02059966325759887695f, 0.09709282964468002319f, 0.01698758080601692200f, 0.03450672701001167297f, 0.04179280251264572144f, -0.03521092236042022705f, 0.03441646695137023926f, 0.00112067488953471184f, 0.08567065000534057617f, -0.00214141467586159706f, 0.05632190033793449402f, 0.04079538211226463318f, -0.16662117838859558105f, 0.00348973902873694897f, -0.00134874705690890551f, 0.05254152417182922363f, 0.01349711604416370392f, -0.04193078354001045227f, 0.03101068735122680664f, -0.03284882009029388428f, -0.04490461573004722595f, -0.03428640589118003845f, -0.03364222869277000427f, 0.00482284091413021088f, 0.04118597507476806641f, -0.00583090446889400482f, 0.02804640308022499084f, -0.01507783774286508560f, -0.03047940135002136230f, -0.07372029870748519897f, 0.03515985608100891113f, 0.01477204356342554092f, -0.03382675349712371826f, -0.02022522315382957458f, 0.09125705063343048096f, 0.07578141242265701294f, 0.02191776037216186523f, -0.04458968713879585266f, 0.03657655045390129089f, -0.00239048083312809467f, -0.02652776800096035004f, -0.02639715000987052917f, -0.00795777887105941772f, 0.03860550373792648315f, -0.05170721560716629028f, 0.01547867711633443832f, -0.00444678263738751411f, -0.02831730060279369354f, 0.02504145167768001556f, -0.04463384300470352173f},
  {0.00309159024618566036f, 0.04080910608172416687f, 0.04121409356594085693f, -0.01365004573017358780f, 0.09144731611013412476f, 0.02735648863017559052f, 0.01750055514276027679f, -0.00327553693205118179f, -0.02407184988260269165f, 0.04027761146426200867f, -0.01822411641478538513f, -0.08645702153444290161f, 0.01917411014437675476f, 0.01662579178810119629f, -0.02529056742787361145f, -0.10432972759008407593f, 0.02170246466994285583f, -0.04279802739620208740f, -0.00509583624079823494f, 0.01719663664698600769f, -0.00853548292070627213f, 0.08551390469074249268f, 0.04452663287520408630f, -0.04654816538095474243f, 0.07512206584215164185f, 0.06034302338957786560f, -0.04372394829988479614f, -0.02400453202426433563f, 0.00066542823333293200f, 0.05146389082074165344f, -0.01312619261443614960f, -0.01298125926405191422f, -0.01314839720726013184f, 0.03305337205529212952f, 0.01239642035216093063f, -0.02569240704178810120f, 0.02330866642296314240f, -0.04747032746672630310f, -0.00820569414645433426f, 0.01246243063360452652f, 0.02022529207170009613f, -0.05008620768785476685f, -0.00582315912470221519f, -0.04337270185351371765f, -0.00628961296752095222f, 0.01372321601957082748f, -0.02956947125494480133f, -0.00115819950588047504f, 0.01077352836728096008f, 0.03264774382114410400f, -0.02175595238804817200f, 0.01027015317231416702f, -0.02338670380413532257f, 0.00038266397314146161f, -0.01851114444434642792f, 0.00071307923644781113f, 0.11196397244930267334f, 0.01061636582016944885f, 0.01096116472035646439f, -0.05214414000511169434f, 0.04872344434261322021f, 0.02684759721159934998f, 0.01723448373377323151f, 0.02777562290430068970f},
  {-0.02111516706645488739f, 0.04037796705961227417f, 0.00185706850606948137f, 0.01103068422526121140f, 0.01834108307957649231f, -0.03081477992236614227f, -0.00420895824208855629f, 0.01024612504988908768f, 0.00722662964835762978f, 0.01646586135029792786f, 0.08516865223646163940f, -0.00120123394299298525f, 0.07894463837146759033f, -0.01990534365177154541f, -0.01109407469630241394f, 0.02799528650939464569f, 0.00017125834710896015f, 0.02998486161231994629f, 0.03878712654113769531f, -0.04641412571072578430f, 0.00239227502606809139f, -0.03248222544789314270f, -0.04902149364352226257f, 0.00760208955034613609f, 0.00178474630229175091f, 0.00248460122384130955f, -0.03475572541356086731f, -0.01744762808084487915f, 0.01570616103708744049f, -0.02674371562898159027f, 0.00532163074240088463f, 0.03757806867361068726f, 0.03404645249247550964f, -0.02627860382199287415f, -0.03476897999644279480f, 0.02473719045519828796f, -0.03959089145064353943f, -0.03156737238168716431f, 0.03488104045391082764f, 0.00118321040645241737f, -0.01311454735696315765f, 0.01187473908066749573f, 0.03148684650659561157f, -0.06397360563278198242f, 0.02636267617344856262f, 0.00666460627689957619f, -0.02712171897292137146f, -0.01489984896034002304f, 0.01984153315424919128f, -0.00364890880882740021f, 0.00765484105795621872f, -0.01861467026174068451f, 0.03136682137846946716f, -0.01935265585780143738f, 0.00204879045486450195f, -0.00483206892386078835f, -0.00008539404370822012f, 0.03599883988499641418f, -0.02741331420838832855f, -0.00687863072380423546f, 0.01227338239550590515f, -0.01766593568027019501f, 0.00930499751120805740f, -0.04256935790181159973f},
  {-0.02166062034666538239f, 0.11067199707031250000f, -0.15139426290988922119f, 0.01322949305176734924f, -0.07415428012609481812f, -0.01622572168707847595f, -0.00909609999507665634f, 0.00750829558819532394f, 0.08113639056682586670f, -0.04567061364650726318f, -0.03275580704212188721f, -0.03944055363535881042f, 0.00786243751645088196f, 0.10554329305887222290f, 0.02076676860451698303f, 0.16631790995597839355f, -0.03543407842516899109f, 0.02164201810956001282f, 0.01374174095690250397f, -0.01892656646668910980f, 0.02135834284126758575f, -0.00276810722425580025f, -0.19398085772991180420f, 0.01877135969698429108f, -0.03279579430818557739f, -0.08126395195722579956f, -0.07228629291057586670f, -0.07265378534793853760f, -0.02521317265927791595f, 0.10551652312278747559f, 0.11143650859594345093f, -0.12585991621017456055f, 0.01672854088246822357f, -0.03039512224495410919f, -0.02334453538060188293f, 0.04187438637018203735f, -0.01889982074499130249f, -0.00403346167877316475f, 0.02140525169670581818f, -0.02722175605595111847f, 0.11482612043619155884f, -0.01680235937237739563f, 0.12282120436429977417f, 0.00180739618372172117f, 0.02195549383759498596f, 0.01693884469568729401f, -0.12705825269222259521f, -0.01565574854612350464f, 0.06433241814374923706f, 0.06457309424877166748f, 0.00943988934159278870f, -0.01544242817908525467f, 0.01633732207119464874f, 0.01389386504888534546f, -0.04970197007060050964f, -0.06008499860763549805f, 0.00667341612279415131f, -0.01133747491985559464f, -0.01265691500157117844f, -0.00667943665757775307f, -0.04298063367605209351f, -0.01955074630677700043f, -0.09923672676086425781f, -0.02390386164188385010f},
  {0.02164863422513008118f, 0.03524925932288169861f, -0.10810483247041702271f, 0.03585835546255111694f, -0.08688722550868988037f, -0.02745584212243556976f, -0.02652182243764400482f, 0.02133487164974212646f, 0.01430085394531488419f, -0.13248965144157409668f, 0.11804857105016708374f, -0.02926113829016685486f, 0.03763952478766441345f, 0.01225037313997745514f, 0.07686392217874526978f, 0.06062418222427368164f, -0.00100145000033080578f, 0.02024008519947528839f, 0.00851662736386060715f, -0.04070601239800453186f, 0.00051568786147981882f, 0.02713577076792716980f, -0.11884402483701705933f, 0.03639480099081993103f, -0.03280731290578842163f, -0.03468897566199302673f, 0.02039477415382862091f, -0.03774883225560188293f, -0.01498555764555931091f, -0.11038847267627716064f, 0.00666141416877508163f, 0.03153070062398910522f, 0.03212862089276313782f, -0.01013009343296289444f, -0.02700983546674251556f, 0.05774099007248878479f, -0.01275430433452129364f, -0.02874204143881797791f, 0.01944874040782451630f, -0.00318672833964228630f, -0.02846246957778930664f, 0.00210621790029108524f, -0.01703877560794353485f, -0.02883067354559898376f, 0.00876932684332132339f, 0.00983182433992624283f, -0.03263415396213531494f, -0.00219939695671200752f, 0.04495655745267868042f, -0.01390484906733036041f, 0.00829295720905065536f, -0.01553640235215425491f, 0.01287438441067934036f, 0.00720862532034516335f, 0.00750576378777623177f, -0.03110661543905735016f, -0.03748182207345962524f, 0.02084828540682792664f, -0.03497565537691116333f, 0.01311760116368532181f, 0.00931202620267868042f, -0.01982005685567855835f, 0.01416564639657735825f, -0.02161076478660106659f},
  {0.01639982312917709351f, -0.03696398809552192688f, 0.02787851355969905853f, 0.00302297715097665787f, 0.01520517561584711075f, -0.00266713672317564487f, 0.01407607365399599075f, 0.00430379295721650124f, -0.02852808870375156403f, -0.07278178632259368896f, -0.03927282243967056274f, 0.08852084726095199585f, 0.05301107093691825867f, -0.00441771466284990311f, 0.02045658230781555176f, -0.01479927171021699905f, 0.01983988471329212189f, -0.00995845347642898560f, 0.00279163615778088570f, 0.00914521608501672745f, 0.00946094933897256851f, 0.06307554990053176880f, -0.02709357067942619324f, 0.04152756556868553162f, -0.06682690232992172241f, -0.02178592793643474579f, 0.04678076878190040588f, -0.01251666713505983353f, 0.00539495330303907394f, -0.01519443932920694351f, 0.05182467773556709290f, 0.08738584816455841064f, 0.00380672561004757881f, -0.02789501473307609558f, 0.00344567745923995972f, 0.01167195849120616913f, -0.00055382179562002420f, -0.07660510390996932983f, -0.00938605703413486481f, 0.00240331818349659443f, -0.05810686573386192322f, -0.01573609560728073120f, 0.01426353305578231812f, -0.04129767790436744690f, 0.00866566505283117294f, 0.00825303420424461365f, 0.03454634174704551697f, -0.01333038415759801865f, 0.03617051243782043457f, 0.02633807249367237091f, 0.00776049308478832245f, -0.00438081892207264900f, 0.01224509254097938538f, -0.01863114722073078156f, -0.00094493833603337407f, 0.02016508579254150391f, -0.00257602776400744915f, 0.02314132452011108398f, -0.02012141421437263489f, -0.01058080978691577911f, 0.01078855060040950775f, 0.00234107929281890392f, 0.02360848337411880493f, -0.01602231338620185852f},
  {-0.01022279541939496994f, -0.10129565000534057617f, 0.04074803739786148071f, 0.04075559228658676147f, -0.04710502922534942627f, -0.02558991126716136932f, -0.01240372192114591599f, 0.01352632604539394379f, -0.02709081023931503296f, -0.02363077551126480103f, 0.00927397515624761581f, -0.05646723136305809021f, -0.04545208066701889038f, -0.03019654192030429840f, 0.03124285116791725159f, 0.01341569889336824417f, 0.02090068906545639038f, 0.02669184282422065735f, 0.03279809281229972839f, -0.03781236708164215088f, 0.01089527271687984467f, 0.07036402076482772827f, -0.00701223826035857201f, 0.01017321832478046417f, -0.02068760246038436890f, -0.06892090290784835815f, -0.10560748726129531860f, -0.04286313056945800781f, 0.00834775064140558243f, -0.06020967289805412292f, -0.02742038108408451080f, 0.10297706723213195801f, 0.05056424438953399658f, -0.04147011786699295044f, -0.01042360998690128326f, -0.00192006095312535763f, -0.02339050360023975372f, -0.01713577844202518463f, 0.04126199334859848022f, -0.01350939366966485977f, 0.04757149517536163330f, -0.02314137481153011322f, 0.01814837940037250519f, 0.04747042804956436157f, 0.02257135137915611267f, 0.02026100456714630127f, 0.08699417114257812500f, -0.02458583191037178040f, -0.03806288912892341614f, 0.01574108563363552094f, 0.01307490747421979904f, -0.01871267706155776978f, 0.00533758709207177162f, -0.06545360386371612549f, 0.00515134679153561592f, 0.04422142356634140015f, -0.03322967514395713806f, 0.02334365993738174438f, -0.04223505780100822449f, -0.01298164110630750656f, 0.01599667035043239594f, -0.02725122123956680298f, 0.01934224180877208710f, -0.01808865927159786224f},
  {0.01095135882496833801f, -0.00891164876520633698f, -0.09474688023328781128f, -0.00867752730846405029f, 0.04957112297415733337f, 0.01453433558344841003f, 0.00444667041301727295f, -0.02315001934766769409f, 0.09121842682361602783f, 0.23625552654266357422f, 0.05349294841289520264f, 0.03679041191935539246f, 0.00707112485542893410f, -0.18704825639724731445f, -0.08161441981792449951f, 0.02448652684688568115f, -0.02128088474273681641f, -0.01900054700672626495f, -0.00929243490099906921f, 0.01423019357025623322f, -0.02546808309853076935f, -0.05091087147593498230f, -0.03704464435577392578f, -0.06436374783515930176f, 0.17545907199382781982f, 0.00731447851285338402f, 0.02259008958935737610f, -0.07334441691637039185f, 0.08634996414184570312f, -0.08258142322301864624f, 0.05540902912616729736f, -0.05162909999489784241f, -0.02185609564185142517f, 0.02132024243474006653f, 0.01447255723178386688f, 0.01302581466734409332f, 0.01958558149635791779f, -0.03996019810438156128f, -0.01460784394294023514f, 0.00595206161960959435f, -0.01598399877548217773f, 0.09470489621162414551f, -0.18720847368240356445f, -0.06271421909332275391f, -0.02728531695902347565f, 0.01578273251652717590f, -0.02532505430281162262f, -0.05337871983647346497f, 0.03610994666814804077f, 0.01328411232680082321f, -0.01271237619221210480f, 0.01456190738826990128f, -0.02420085668563842773f, -0.03132556751370429993f, -0.00530443107709288597f, -0.00316292699426412582f, -0.09415275603532791138f, 0.07790300995111465454f, -0.00877165794372558594f, -0.05090218782424926758f, -0.08523318171501159668f, 0.02132598124444484711f, -0.08226109296083450317f, 0.03013635613024234772f},
  {0.00124277337454259396f, 0.38507181406021118164f, -0.07167419791221618652f, -0.01519151218235492706f, 0.02312214300036430359f, 0.00263407453894615173f, 0.00330988294444978237f, -0.00211159395985305309f, 0.87392795085906982422f, 1.20059406757354736328f, -0.12716221809387207031f, -0.23262345790863037109f, 0.18434147536754608154f, 0.00736896647140383720f, 1.05946028232574462891f, 0.08471433818340301514f, 0.45732367038726806641f, -0.00288837705738842487f, -0.01352412160485982895f, 0.00584069173783063889f, 0.00616209488362073898f, -0.00436601648107171059f, -0.64959740638732910156f, -0.03656131401658058167f, 0.17487441003322601318f, 0.25999158620834350586f, 0.67342555522918701172f, -0.27790141105651855469f, 0.10799349099397659302f, 0.18820942938327789307f, -0.05685036629438400269f, 0.13335977494716644287f, -0.00361648714169859886f, -0.00346421869471669197f, 0.00489230966195464134f, 0.03665565326809883118f, 0.00120740442071110010f, -0.33179467916488647461f, -0.00817037373781204224f, -0.75555670261383056641f, -0.02509002946317195892f, 0.86528980731964111328f, 0.21000030636787414551f, 0.21190027892589569092f, 0.00358783197589218616f, -0.12243825942277908325f, 0.27772185206413269043f, 0.10100525617599487305f, 0.07039983570575714111f, 0.38649854063987731934f, -0.00113732216414064169f, 0.01301657035946846008f, -0.01013541873544454575f, 1.02146565914154052734f, -0.53985947370529174805f, 0.79972851276397705078f, 0.14243093132972717285f, 0.24922169744968414307f, 0.76297312974929809570f, 0.13399909436702728271f, 0.03577649220824241638f, 0.00116652739234268665f, 0.54493379592895507812f, -0.00360376550815999508f},
  {0.01653541624546051025f, 0.06162542477250099182f, -0.11849138140678405762f, -0.00784308649599552155f, 0.04161014407873153687f, 0.00872552487999200821f, -0.00381657248362898827f, 0.00627179490402340889f, 0.03302557021379470825f, 0.02754249796271324158f, -0.00370358000509440899f, -0.01735648512840270996f, -0.03618937730789184570f, -0.02782758139073848724f, 0.04854581132531166077f, 0.06192628294229507446f, -0.05219694599509239197f, 0.00379739492200314999f, -0.01064598746597766876f, 0.00430602114647626877f, 0.00763439387083053589f, 0.03036390803754329681f, -0.04425381124019622803f, -0.04104715213179588318f, 0.06446957588195800781f, -0.02741608023643493652f, -0.05813425406813621521f, -0.03373354300856590271f, -0.01719308830797672272f, -0.14441305398941040039f, 0.04681096225976943970f, -0.01693074218928813934f, 0.00718430289998650551f, -0.00347910099662840366f, 0.01418297085911035538f, -0.01353977061808109283f, 0.00855737086385488510f, 0.08438847213983535767f, 0.00360792409628629684f, 0.00153948913794010878f, 0.00070552603574469686f, 0.02984005957841873169f, -0.06463384628295898438f, 0.08011551201343536377f, 0.00706762354820966721f, -0.00683807348832488060f, -0.05139609053730964661f, 0.00464690662920475006f, -0.02992059662938117981f, -0.00306100677698850632f, -0.00112143123988062143f, 0.00201126816682517529f, 0.00429947208613157272f, 0.00577586935833096504f, 0.00433434871956706047f, -0.01451893709599971771f, -0.07279296964406967163f, -0.01043509878218173981f, -0.00007846957305446267f, 0.01097878627479076385f, 0.01077594514936208725f, -0.01472467277199029922f, -0.02891608141362667084f, 0.01912381686270236969f},
  {0.03906423225998878479f, 0.05439904704689979553f, 0.08871842920780181885f, 0.02084527164697647095f, 0.03080324083566665649f, -0.00554148945957422256f, -0.00106845505069941282f, 0.02106818184256553650f, 0.18320116400718688965f, 0.00785946659743785858f, -0.09586137533187866211f, -0.03246039524674415588f, 0.11502125859260559082f, 0.07568239420652389526f, -0.03237262740731239319f, 0.13676084578037261963f, 0.03348012268543243408f, 0.02706151641905307770f, 0.03055320680141448975f, -0.01380315609276294708f, 0.02546188794076442719f, 0.05911464989185333252f, 0.03411073237657546997f, -0.01293056830763816833f, -0.09857526421546936035f, 0.10575605183839797974f, 0.07657431811094284058f, 0.02172151766717433929f, 0.01229262817651033401f, -0.09996218234300613403f, 0.00020925929129589349f, -0.07083678245544433594f, 0.02744336053729057312f, -0.01661643572151660919f, -0.02695353329181671143f, -0.01707258634269237518f, -0.02328604646027088165f, 0.14041593670845031738f, 0.02362320199608802795f, 0.05868379399180412292f, 0.00185779249295592308f, -0.01052228733897209167f, 0.00534359086304903030f, -0.08708986639976501465f, 0.02455265074968338013f, -0.12680129706859588623f, -0.07802289724349975586f, -0.00255459011532366276f, -0.03793806955218315125f, -0.10440482199192047119f, 0.02152387052774429321f, -0.02552843466401100159f, 0.02942018024623394012f, 0.03777723386883735657f, 0.00770818768069148064f, -0.04380289837718009949f, -0.00021126620413269848f, 0.02164277248084545135f, 0.02765689045190811157f, 0.08393713831901550293f, -0.03787574917078018188f, -0.02044875547289848328f, -0.03431562334299087524f, -0.02959815785288810730f},
  {-0.00499897822737693787f, 0.01107244100421667099f, -0.00970958638936281204f, -0.04876226559281349182f, -0.00555517571046948433f, 0.01992594078183174133f, 0.01455835718661546707f, -0.01925202831625938416f, 0.02464210614562034607f, 0.02918389439582824707f, 0.07619734108448028564f, 0.11218447238206863403f, 0.08148784935474395752f, -0.00343536562286317348f, -0.03636974096298217773f, -0.04467299208045005798f, 0.01329105254262685776f, -0.01258481387048959732f, -0.02360877208411693573f, 0.02189945057034492493f, -0.00160917802713811398f, 0.05851740390062332153f, -0.03022458404302597046f, 0.00900783855468034744f, 0.07245134562253952026f, 0.01527179684489965439f, -0.07917052507400512695f, -0.00233122683130204678f, 0.01715777069330215454f, 0.04462615400552749634f, -0.00596505729481577873f, -0.01316631305962800980f, -0.04085489735007286072f, 0.01580838114023208618f, 0.00856015458703041077f, -0.03019415400922298431f, 0.00412962120026350021f, -0.02923806942999362946f, -0.02123703435063362122f, -0.00024838338140398264f, -0.00715286936610937119f, 0.04171320050954818726f, -0.07045169919729232788f, -0.02697338908910751343f, -0.01914513483643531799f, 0.02101236395537853241f, 0.01737274788320064545f, 0.01523974072188138962f, 0.01588200591504573822f, -0.04047618061304092407f, -0.00503842718899250031f, 0.03113629668951034546f, -0.01087704673409461975f, 0.00933431461453437805f, 0.00346102565526962280f, 0.00885396264493465424f, -0.09848923236131668091f, 0.04158504307270050049f, -0.01021703146398067474f, -0.00100685621146112680f, 0.01436824817210435867f, 0.01401222031563520432f, -0.02514334022998809814f, 0.01985711604356765747f},
  {-0.00528828287497162819f, 0.04095233604311943054f, 0.16156423091888427734f, -0.01937782205641269684f, -0.01629115082323551178f, 0.01366435177624225616f, -0.02011084929108619690f, -0.01753258332610130310f, 0.04595791921019554138f, -0.06283836811780929565f, 0.07730185985565185547f, -0.05052431300282478333f, 0.01632704958319664001f, -0.06188667565584182739f, 0.00983498152345418930f, -0.00107921962626278400f, 0.01694295927882194519f, -0.01720379665493965149f, -0.04249880835413932800f, 0.01829677633941173553f, -0.01032382063567638397f, -0.02823237143456935883f, -0.09599921852350234985f, 0.03187431767582893372f, -0.00434157764539122581f, 0.02634177915751934052f, -0.00495834182947874069f, 0.02288400009274482727f, -0.02196244895458221436f, -0.07947660982608795166f, -0.04489600658416748047f, -0.06102593615651130676f, -0.01387274637818336487f, 0.02553905174136161804f, 0.02024091593921184540f, 0.00968601088970899582f, 0.04973649606108665466f, 0.04011595994234085083f, -0.02132583595812320709f, 0.00427381601184606552f, -0.06653974205255508423f, 0.03266469389200210571f, 0.05036050081253051758f, 0.02435919083654880524f, -0.01846938766539096832f, -0.00454616872593760490f, -0.13509492576122283936f, 0.00648152781650424004f, -0.01428709644824266434f, -0.09187530726194381714f, 0.00065271393395960331f, 0.01430744770914316177f, -0.02291114628314971924f, 0.05029897764325141907f, 0.02607136778533458710f, -0.00637852773070335388f, -0.09734827280044555664f, -0.03939642757177352905f, 0.03576993942260742188f, 0.01968772150576114655f, -0.03672676533460617065f, 0.00881317164748907089f, -0.03055995143949985504f, 0.00158688938245177269f},
  {0.00034122975193895400f, -0.01378879975527524948f, -0.04247954860329627991f, 0.02926190011203289032f, 0.03518578037619590759f, 0.00030219636391848326f, -0.00129630055744200945f, 0.00584643194451928139f, -0.08261652290821075439f, -0.04083745181560516357f, -0.08419836312532424927f, 0.07650313526391983032f, -0.08587425947189331055f, 0.06855925917625427246f, 0.05527177825570106506f, -0.03428186103701591492f, -0.05072209984064102173f, -0.00481174746528267860f, 0.00890559796243906021f, 0.00606029946357011795f, 0.01931696012616157532f, 0.00972768012434244156f, 0.00931182689964771271f, 0.00965609215199947357f, -0.10191448032855987549f, -0.08354524523019790649f, 0.07433017343282699585f, 0.02483309619128704071f, -0.00119625951629132032f, -0.10982283204793930054f, -0.09520307928323745728f, 0.09111579507589340210f, -0.00379689247347414494f, 0.00554654467850923538f, -0.01909735985100269318f, -0.05964117869734764099f, -0.00707708904519677162f, 0.00854595843702554703f, 0.00630925362929701805f, -0.01154958829283714294f, 0.04619374126195907593f, -0.02456639893352985382f, -0.02164227329194545746f, 0.07002056390047073364f, -0.00010080028005177155f, -0.01217103097587823868f, 0.11140454560518264771f, 0.00853809062391519547f, 0.02930326946079730988f, 0.04794508963823318481f, 0.00985530856996774673f, 0.00773691060021519661f, -0.00282831885851919651f, -0.03765873983502388000f, 0.00798192806541919708f, 0.03618604689836502075f, 0.07044018805027008057f, -0.04931275174021720886f, 0.00752675626426935196f, -0.00196289294399321079f, -0.00360148074105381966f, -0.00100967346224933863f, 0.01206100918352603912f, -0.00136759644374251366f},
  {0.00118576886598020792f, 0.30736643075942993164f, 0.35441073775291442871f, -0.00184508238453418016f, -0.20924444496631622314f, 0.00012087089999113232f, 0.00009612813300918788f, 0.00035409897100180387f, -0.17480854690074920654f, 0.03494260832667350769f, 0.07910507172346115112f, 0.14489337801933288574f, -0.25896212458610534668f, 0.16600555181503295898f, -0.18056517839431762695f, 0.60160332918167114258f, -0.09026638418436050415f, -0.00065424927743151784f, -0.00184378912672400475f, 0.00171788665466010571f, 0.00224356702528893948f, 0.00014652381651103497f, 0.05285770818591117859f, -0.10101301223039627075f, 0.72900480031967163086f, 0.14331953227519989014f, -0.04094387218356132507f, 0.15795156359672546387f, 0.46852475404739379883f, -0.40144190192222595215f, 0.33399873971939086914f, -0.06177831441164016724f, -0.00092458992730826139f, -0.00025170415756292641f, 0.00169435970019549131f, 0.09672362357378005981f, 0.00086410745279863477f, -0.57134807109832763672f, -0.00010548295540502295f, -0.23080337047576904297f, 0.37398070096969604492f, 0.11004113405942916870f, 0.22746527194976806641f, 0.21813036501407623291f, 0.00033255544258281589f, 0.04163192957639694214f, 0.46093603968620300293f, -0.38624492287635803223f, 0.25330001115798950195f, -0.28288477659225463867f, 0.00158088223543018103f, 0.00179437350016087294f, -0.00042640703031793237f, 0.39160335063934326172f, -0.27713173627853393555f, -0.15793976187705993652f, 0.20408508181571960449f, 0.22022359073162078857f, 0.29635876417160034180f, 0.10504055768251419067f, 0.10211388021707534790f, 0.00280021014623343945f, -0.06260897964239120483f, -0.00116035074461251497f},
  {-0.02605402283370494843f, 0.01592282392084598541f, -0.02129655517637729645f, 0.01137542724609375000f, 0.01300506573170423508f, -0.00806745886802673340f, 0.00221217353828251362f, 0.00401661358773708344f, 0.01254593674093484879f, -0.03644777089357376099f, 0.01061693858355283737f, -0.03700246661901473999f, -0.06241504102945327759f, 0.00716918660327792168f, 0.01762592419981956482f, 0.07425495237112045288f, 0.00230564642697572708f, -0.02691350132226943970f, -0.01843565516173839569f, 0.02534576505422592163f, -0.01954223029315471649f, -0.01476923376321792603f, 0.04285825788974761963f, 0.01202046591788530350f, -0.02631531283259391785f, 0.00760129699483513832f, -0.01753094978630542755f, 0.05059910938143730164f, -0.04134385287761688232f, -0.02460326440632343292f, -0.05188075080513954163f, 0.07543325424194335938f, -0.01465627644211053848f, 0.01111584436148405075f, 0.01553255040198564529f, 0.01878384128212928772f, 0.00160780875012278557f, 0.02991265617311000824f, -0.01094786543399095535f, -0.01026560366153717041f, -0.01892795227468013763f, 0.01729612052440643311f, 0.01686962135136127472f, 0.01959754154086112976f, -0.03043796867132186890f, -0.01949449814856052399f, 0.00411630142480134964f, 0.02749446406960487366f, -0.01655199378728866577f, -0.06927347928285598755f, -0.02412177622318267822f, 0.02349521592259407043f, -0.02002621069550514221f, 0.01735489256680011749f, 0.02002526074647903442f, -0.00560404499992728233f, -0.03541043028235435486f, -0.03181727975606918335f, 0.03247602656483650208f, 0.00342448032461106777f, -0.02472602203488349915f, 0.00087246362818405032f, -0.01527063548564910889f, 0.02520260773599147797f},
  {-0.00886361300945281982f, -0.00335490563884377480f, 0.04686754569411277771f, -0.02204883843660354614f, 0.00189962878357619047f, -0.00694201514124870300f, -0.02862071245908737183f, -0.01981630176305770874f, -0.01049662008881568909f, 0.04117640480399131775f, 0.07068252563476562500f, -0.01562053430825471878f, -0.03276199474930763245f, -0.01536784134805202484f, -0.00032675708644092083f, -0.00121575396042317152f, -0.01823813840746879578f, 0.03646237030625343323f, -0.00090731272939592600f, -0.00457519153133034706f, -0.00524037936702370644f, -0.07214166224002838135f, -0.03609175235033035278f, -0.01016188971698284149f, 0.01723230443894863129f, 0.01071240194141864777f, -0.11970712989568710327f, -0.00568807451054453850f, 0.00961722061038017273f, -0.03321241959929466248f, -0.05003465339541435242f, 0.00404723733663558960f, 0.00245336419902741909f, 0.01580576226115226746f, 0.00867047905921936035f, -0.07074185460805892944f, 0.00636959262192249298f, -0.01516832504421472549f, 0.00698211463168263435f, 0.00328938686288893223f, 0.03060255944728851318f, 0.01737512834370136261f, 0.00037180903018452227f, 0.02762991935014724731f, -0.01375508960336446762f, 0.02352761849761009216f, 0.07029374688863754272f, 0.01909164339303970337f, -0.02603767812252044678f, -0.00548208132386207581f, -0.02466124296188354492f, 0.00721404375508427620f, -0.01451025716960430145f, -0.02204954251646995544f, 0.00875334255397319794f, -0.00320912525057792664f, 0.05248658359050750732f, 0.02274871431291103363f, -0.01078546885401010513f, -0.01243315823376178741f, 0.02057991176843643188f, -0.01070089079439640045f, 0.00548355840146541595f, 0.00832263100892305374f},
  {-0.03617689013481140137f, -0.03280374407768249512f, -0.03699278831481933594f, 0.00880711805075407028f, 0.05991928651928901672f, -0.00747253466397523880f, -0.01208694092929363251f, 0.00121171737555414438f, -0.04007654637098312378f, -0.00199202494695782661f, -0.07180666178464889526f, -0.01924722082912921906f, -0.10695758461952209473f, -0.05147658661007881165f, 0.02367874421179294586f, 0.07917416095733642578f, -0.04468891397118568420f, 0.00968264602124691010f, 0.00363520323298871517f, -0.01392856147140264511f, 0.00177505938336253166f, -0.03518262505531311035f, 0.09536372125148773193f, -0.02669562958180904388f, -0.01127577945590019226f, 0.01053533330559730530f, -0.02873448282480239868f, 0.00407135579735040665f, -0.03835061192512512207f, 0.02008579671382904053f, 0.04314019158482551575f, -0.00261524226516485214f, 0.00593140022829174995f, -0.00659660762175917625f, -0.01184432860463857651f, 0.03430503979325294495f, -0.00555405719205737114f, 0.02682016789913177490f, 0.01170813478529453278f, 0.01326642092317342758f, -0.07129839062690734863f, 0.00178833701647818089f, -0.00435730628669261932f, 0.01944365352392196655f, 0.01574255898594856262f, -0.01965206861495971680f, 0.13966324925422668457f, 0.04408240318298339844f, 0.00130510434973984957f, 0.00085064920131117105f, 0.01600668765604496002f, -0.00249930098652839661f, 0.00396526372060179710f, -0.02733614481985569000f, 0.00937961507588624954f, -0.01366809289902448654f, 0.13384878635406494141f, 0.01183422841131687164f, 0.00455288123339414597f, 0.01396432518959045410f, 0.06065749004483222961f, 0.01015532016754150391f, 0.05824423953890800476f, -0.01815302111208438873f},
  {-0.00767746148630976677f, -0.05629727244377136230f, 0.11855763942003250122f, -0.03214550018310546875f, 0.00195234105922281742f, 0.02249762043356895447f, 0.01530354563146829605f, -0.00983565952628850937f, -0.01084404997527599335f, 0.12126142531633377075f, -0.06791974604129791260f, -0.04049171134829521179f, -0.13043887913227081299f, -0.03319731727242469788f, -0.04650757461786270142f, 0.11720028519630432129f, 0.02857814915478229523f, -0.00129027117509394884f, -0.02978317998349666595f, 0.00585421686992049217f, -0.01315438095480203629f, -0.15427653491497039795f, -0.07497742772102355957f, -0.05049935728311538696f, -0.03889136016368865967f, -0.00934801809489727020f, 0.01576684229075908661f, -0.02529546804726123810f, 0.02511401288211345673f, 0.02641818113625049591f, -0.01548509020358324051f, -0.05159014090895652771f, 0.00144765607547014952f, 0.01991497166454792023f, 0.00552263949066400528f, -0.00011969843035330996f, 0.01447364781051874161f, 0.07553663104772567749f, -0.01041710842400789261f, 0.00026721137692220509f, -0.06159891560673713684f, -0.01309848017990589142f, -0.01880113035440444946f, 0.06990956515073776245f, 0.00230790837667882442f, -0.00587713858112692833f, 0.04627109318971633911f, -0.00801826082170009613f, -0.00573377776890993118f, -0.01646239124238491058f, -0.00140071520581841469f, 0.01576020941138267517f, 0.00074999273056164384f, 0.01375812571495771408f, -0.00651765102520585060f, -0.01601144112646579742f, 0.01823929324746131897f, -0.02102998085319995880f, 0.00163409078959375620f, -0.00824732892215251923f, -0.02256944589316844940f, -0.00306780450046062469f, -0.02857464924454689026f, 0.01472073420882225037f},
  {0.02233394421637058258f, 0.03981917351484298706f, 0.04719721153378486633f, 0.02888520807027816772f, 0.08481997251510620117f, -0.01406100951135158539f, -0.01031924784183502197f, 0.01840187050402164459f, 0.03338317200541496277f, 0.10465768724679946899f, -0.01501180324703454971f, 0.07188664376735687256f, 0.05511553213000297546f, -0.08700608462095260620f, -0.04823097586631774902f, -0.02267095074057579041f, -0.01278520189225673676f, 0.03520200029015541077f, 0.01820750907063484192f, -0.01457861997187137604f, 0.02057755924761295319f, -0.04626452922821044922f, -0.01712564565241336823f, -0.01496763713657855988f, -0.00545409414917230606f, -0.03989792987704277039f, -0.02712248452007770538f, -0.05321981012821197510f, 0.04265794530510902405f, -0.03564403951168060303f, 0.02114642597734928131f, 0.06719835847616195679f, 0.01852070353925228119f, -0.00996789522469043732f, -0.03092321008443832397f, -0.01417959760874509811f, -0.02571942284703254700f, -0.03956067934632301331f, 0.01238643284887075424f, -0.00651588989421725273f, 0.06224808841943740845f, -0.03066570870578289032f, 0.07005043327808380127f, 0.01353399083018302917f, 0.00550138577818870544f, -0.00033854175126180053f, -0.10639642179012298584f, -0.06603255867958068848f, -0.00389702199026942253f, 0.09005847573280334473f, 0.01521902531385421753f, -0.02240372449159622192f, 0.02407494932413101196f, -0.02601518854498863220f, -0.02131535671651363373f, 0.01931031420826911926f, -0.00939876958727836609f, 0.02266914024949073792f, -0.04288472980260848999f, 0.01261391118168830872f, 0.00454743672162294388f, -0.01948503963649272919f, -0.03554941713809967041f, -0.02246318571269512177f},
  {-0.00656762579455971718f, -0.02115542441606521606f, -0.00932063255459070206f, 0.01406357809901237488f, 0.03838969022035598755f, -0.00454906793311238289f, -0.02653967589139938354f, -0.00224144198000431061f, -0.00254096230491995811f, 0.01556918397545814514f, 0.02900309301912784576f, 0.03512370958924293518f, -0.12833817303180694580f, -0.00724398205056786537f, -0.02681198343634605408f, 0.02643997967243194580f, 0.02724294178187847137f, 0.01797511428594589233f, -0.00653426675125956535f, -0.00612353999167680740f, 0.01283558737486600876f, -0.00915632210671901703f, -0.00817074626684188843f, 0.00309806899167597294f, -0.02792874351143836975f, 0.02524864487349987030f, 0.00060601066797971725f, 0.00912665668874979019f, 0.02276839502155780792f, 0.09680639207363128662f, -0.01601034030318260193f, 0.02043198980391025543f, 0.00997460354119539261f, -0.00191585766151547432f, -0.01169888954609632492f, 0.01004884485155344009f, 0.00942489039152860641f, -0.03972754627466201782f, 0.01368781551718711853f, 0.00092167116235941648f, 0.00500198919326066971f, -0.04729712754487991333f, -0.06556673347949981689f, -0.03913367539644241333f, 0.01678237132728099823f, -0.00965335406363010406f, -0.03304607048630714417f, -0.03646904975175857544f, 0.05920909717679023743f, 0.06251173466444015503f, -0.00687021948397159576f, -0.00855690054595470428f, 0.00265172566287219524f, -0.01058149151504039764f, -0.02169592678546905518f, 0.01717405579984188080f, 0.06518396735191345215f, -0.00253810477443039417f, -0.00274858390912413597f, 0.00011065080616390333f, 0.00606612628325819969f, -0.00812840647995471954f, 0.00871397089213132858f, -0.01085264421999454498f},
  {0.04429208487272262573f, 0.00916452240198850632f, -0.05935513600707054138f, -0.00143249263055622578f, -0.08512654900550842285f, 0.01263831462711095810f, -0.01396084763109683990f, -0.00715656625106930733f, 0.05099179968237876892f, -0.01129107363522052765f, 0.03537583351135253906f, 0.06569537520408630371f, 0.14352700114250183105f, 0.13028241693973541260f, -0.01482480019330978394f, -0.05412440374493598938f, 0.03861187398433685303f, 0.02580928057432174683f, 0.01384627167135477066f, -0.00625144736841320992f, 0.01481951866298913956f, -0.07933280616998672485f, -0.05210823565721511841f, 0.02702054567635059357f, 0.04697647318243980408f, 0.03601143881678581238f, 0.02825107611715793610f, -0.05231929570436477661f, 0.01669416390359401703f, -0.03468962013721466064f, -0.04066365957260131836f, 0.00566751649603247643f, -0.01533860620111227036f, -0.00022019509924575686f, 0.00050685636233538389f, 0.02993844449520111084f, -0.00316743901930749416f, -0.08051320165395736694f, 0.01218996290117502213f, 0.00462349085137248039f, 0.00649155117571353912f, 0.01958823390305042267f, -0.02986532263457775116f, -0.07652712613344192505f, 0.02545985206961631775f, 0.01639280281960964203f, -0.08148070424795150757f, -0.02572209574282169342f, 0.01057605259120464325f, -0.00621306896209716797f, -0.01280417200177907944f, 0.00569556793197989464f, -0.00309962453320622444f, 0.02127908729016780853f, -0.00582247553393244743f, -0.02145236544311046600f, -0.08729466050863265991f, 0.06668649613857269287f, -0.03842062503099441528f, 0.00266565079800784588f, 0.03047542087733745575f, 0.00056382681941613555f, -0.01604047417640686035f, -0.01394102815538644791f},
  {0.05678170174360275269f, -0.10326237231492996216f, 0.25936698913574218750f, -0.00073071505175903440f, -0.07154815644025802612f, -0.00242844340391457081f, -0.00152253266423940659f, 0.00192621303722262383f, 0.11007344722747802734f, 0.65965598821640014648f, 0.22948646545410156250f, 0.11771170049905776978f, 0.01832473650574684143f, 0.11390674114227294922f, -0.01236136816442012787f, 0.30074095726013183594f, -0.46362903714179992676f, 0.00506735639646649361f, 0.00530940992757678032f, -0.00443028984591364861f, 0.00545960944145917892f, -0.08348830789327621460f, 0.05608176067471504211f, -0.11071836948394775391f, 0.50486493110656738281f, -0.14438472688198089600f, 0.25171464681625366211f, -0.20827406644821166992f, 0.10027921944856643677f, -0.05035160481929779053f, 0.19568596780300140381f, -0.31195116043090820312f, 0.00498606543987989426f, -0.00417433772236108780f, -0.00437516579404473305f, -0.00088862725533545017f, -0.00526830460876226425f, -0.01972501538693904877f, 0.00510925380513072014f, 0.19652885198593139648f, -0.02982789650559425354f, -0.34935608506202697754f, 0.02362056262791156769f, 0.01399535965174436569f, 0.00561576848849654198f, -0.58102989196777343750f, -0.24952073395252227783f, 0.49782991409301757812f, -0.04175729677081108093f, 0.47239381074905395508f, 0.00340056675486266613f, -0.00443148193880915642f, 0.00571133662015199661f, 0.12586279213428497314f, 0.41262435913085937500f, 0.14806534349918365479f, -0.10979803651571273804f, -0.26096689701080322266f, -0.37137457728385925293f, 0.13686476647853851318f, -0.07564853876829147339f, -0.00341745768673717976f, 0.07649540156126022339f, -0.00553108099848031998f},
  {-0.01460376568138599396f, -0.05184825137257575989f, 0.02294444292783737183f, 0.03190927952527999878f, -0.12558408081531524658f, -0.02740917541086673737f, -0.01855715923011302948f, 0.01545615680515766144f, -0.09486845135688781738f, -0.00060272443806752563f, -0.06873375922441482544f, 0.00184228050056844950f, -0.03290587291121482849f, 0.06803701072931289673f, -0.06474292278289794922f, -0.01342096738517284393f, 0.02335591055452823639f, 0.03749078512191772461f, 0.02612542547285556793f, -0.03254670277237892151f, 0.02365646883845329285f, 0.02122742310166358948f, -0.05331749096512794495f, -0.00821811519563198090f, -0.01459375489503145218f, 0.06619098037481307983f, -0.05467129126191139221f, 0.02118186652660369873f, -0.01814549975097179413f, 0.01818697527050971985f, 0.01701387017965316772f, 0.11525515466928482056f, 0.04074474051594734192f, -0.01051974575966596603f, -0.01271958462893962860f, 0.01837560907006263733f, -0.02153891324996948242f, 0.03043896891176700592f, 0.02821600809693336487f, -0.00335920485667884350f, -0.04218683391809463501f, -0.07035177201032638550f, -0.15874160826206207275f, 0.00629192497581243515f, 0.01590845175087451935f, -0.01086177397519350052f, -0.01124780252575874329f, 0.02502084337174892426f, 0.09652241319417953491f, 0.03683037683367729187f, 0.02709109894931316376f, -0.03098579868674278259f, 0.03184286877512931824f, 0.02440162189304828644f, -0.01063332241028547287f, -0.05999242141842842102f, 0.20022121071815490723f, -0.02155239507555961609f, 0.01304523926228284836f, -0.05009766668081283569f, 0.14696601033210754395f, -0.02255139686167240143f, 0.05351849645376205444f, -0.01300307549536228180f},
  {-0.00955549348145723343f, 0.03635882958769798279f, 0.14509342610836029053f, -0.01511867996305227280f, -0.00579540338367223740f, -0.00904569774866104126f, -0.00348537229001522064f, 0.00875531695783138275f, -0.01915575750172138214f, -0.02968268096446990967f, -0.12529557943344116211f, -0.04342139139771461487f, -0.04396630823612213135f, -0.00165116018615663052f, -0.01164748240262269974f, 0.04708638414740562439f, 0.02232489362359046936f, 0.01371556986123323441f, 0.00607407838106155396f, 0.00186364480759948492f, 0.02143885754048824310f, 0.07679212093353271484f, -0.01986015774309635162f, 0.01077359635382890701f, -0.03911246359348297119f, -0.05170026794075965881f, -0.09992306679487228394f, -0.02198354527354240417f, -0.02645760774612426758f, 0.01866910234093666077f, -0.06790547072887420654f, 0.06454511731863021851f, -0.00746455835178494453f, -0.00681766029447317123f, -0.00876566767692565918f, 0.00947383511811494827f, -0.02513406239449977875f, -0.06580021232366561890f, 0.01881955191493034363f, -0.01148899830877780914f, -0.03072248026728630066f, -0.04864495620131492615f, 0.06993975490331649780f, -0.02527106739580631256f, 0.01990209519863128662f, 0.01084927655756473541f, -0.02458756230771541595f, 0.00082455953815951943f, 0.07363128662109375000f, -0.02065630257129669189f, 0.02989979460835456848f, -0.01237657945603132248f, 0.00865113455802202225f, -0.03837265074253082275f, 0.00666384771466255188f, 0.01947135105729103088f, 0.08918175101280212402f, -0.00373473879881203175f, -0.01737882196903228760f, -0.01034509297460317612f, -0.01984739862382411957f, -0.00591184105724096298f, 0.01152986474335193634f, 0.00071757310070097446f},
  {-0.00138426967896521091f, 0.23472577333450317383f, -0.11137624830007553101f, -0.02305608429014682770f, 0.26917898654937744141f, 0.00956751499325037003f, 0.00333897559903562069f, -0.00467233033850789070f, 0.22630415856838226318f, 0.06751029193401336670f, -0.15983060002326965332f, 0.00873083155602216721f, 0.15380485355854034424f, -0.22424907982349395752f, 0.29930043220520019531f, -0.41652798652648925781f, -0.21081393957138061523f, -0.01783818565309047699f, -0.02404072508215904236f, 0.01984032988548278809f, -0.00513356691226363182f, 0.00907542649656534195f, -0.07903052121400833130f, 0.46746936440467834473f, -0.03761552646756172180f, 0.25292828679084777832f, 0.01876963861286640167f, -0.50864672660827636719f, -0.45878177881240844727f, 0.37937486171722412109f, -0.31662172079086303711f, -0.18805541098117828369f, -0.01865077205002307892f, 0.01205096859484910965f, 0.01956023462116718292f, -0.16628785431385040283f, 0.01671797968447208405f, 0.13967394828796386719f, -0.01733035035431385040f, -0.40019527077674865723f, -0.38016021251678466797f, -0.35278770327568054199f, -0.16069567203521728516f, 0.06871315091848373413f, -0.01244722865521907806f, 0.29718396067619323730f, 0.32871797680854797363f, -0.25282928347587585449f, -0.24066480994224548340f, -0.42317640781402587891f, -0.00212382758036255836f, 0.02342927083373069763f, -0.02025350928306579590f, 0.43580982089042663574f, -0.52829515933990478516f, 0.33597028255462646484f, -0.05656915903091430664f, -0.07613640278577804565f, -0.26958870887756347656f, -0.07361578941345214844f, -0.04979448765516281128f, 0.01987686567008495331f, -0.51555562019348144531f, 0.01071390043944120407f},
  {-0.02566498704254627228f, 0.00373089825734496117f, -0.10577721893787384033f, 0.01963197626173496246f, 0.00787525344640016556f, -0.04047089070081710815f, -0.02193119376897811890f, -0.00500995712354779243f, -0.00927174743264913559f, 0.03409326449036598206f, -0.01521222107112407684f, -0.00739781977608799934f, -0.07285640388727188110f, -0.01675902865827083588f, -0.00092034059343859553f, -0.00146213558036834002f, 0.00901288911700248718f, 0.02281486801803112030f, 0.02139678969979286194f, -0.01921912841498851776f, -0.00083184259710833430f, 0.04280084744095802307f, 0.03238074481487274170f, -0.01938381604850292206f, 0.04272114858031272888f, -0.03543973341584205627f, -0.08945687115192413330f, 0.01650788262486457825f, 0.00161659333389252424f, 0.03738710284233093262f, -0.04153626039624214172f, -0.00132551509886980057f, 0.04534337297081947327f, -0.03061025217175483704f, -0.00821334216743707657f, 0.04779239743947982788f, -0.03165364265441894531f, -0.00619169557467103004f, 0.02024606615304946899f, -0.01211803965270519257f, -0.00346205104142427444f, -0.00003865056714857928f, 0.09054794162511825562f, -0.06991052627563476562f, 0.01042630430310964584f, 0.01959496922791004181f, 0.05854281038045883179f, -0.00235302816145122051f, 0.03174064308404922485f, -0.01191863976418972015f, -0.00105840049218386412f, -0.03514602780342102051f, 0.01105410046875476837f, -0.07075063884258270264f, 0.00055197754409164190f, 0.04250581562519073486f, 0.04387141019105911255f, 0.00187863106839358807f, -0.02392159216105937958f, -0.02006648667156696320f, 0.01151242386549711227f, -0.01120109297335147858f, 0.02656131610274314880f, -0.02105078846216201782f},
  {-0.01285185106098651886f, 0.00395705876871943474f, 0.06515588611364364624f, -0.00075574003858491778f, -0.04705302789807319641f, 0.01521384343504905701f, 0.00249811797402799129f, -0.00956666097044944763f, 0.03042270243167877197f, -0.00944444164633750916f, -0.06855332851409912109f, 0.05695971474051475525f, 0.02980257570743560791f, -0.02601545490324497223f, 0.02052968554198741913f, -0.06814307719469070435f, -0.01830802299082279205f, -0.01944945193827152252f, -0.00729236565530300140f, 0.02070820331573486328f, -0.02627536468207836151f, -0.00071718328399583697f, 0.04771839454770088196f, 0.01121782138943672180f, -0.00259268982335925102f, -0.02031958475708961487f, 0.03442892059683799744f, 0.01991348899900913239f, 0.00435067340731620789f, 0.03268266841769218445f, 0.00790411047637462616f, 0.01095014438033103943f, -0.02799744717776775360f, 0.01886540278792381287f, 0.03848066926002502441f, -0.03479050472378730774f, 0.02143951505422592163f, 0.00992173701524734497f, -0.00726206554099917412f, -0.00661260727792978287f, -0.00681690825149416924f, -0.00533315632492303848f, -0.03414732962846755981f, 0.01211598608642816544f, 0.00194778630975633860f, -0.01425360329449176788f, -0.04098664596676826477f, -0.01010492909699678421f, 0.03465284779667854309f, 0.02506525069475173950f, -0.00234597246162593365f, 0.02720482647418975830f, -0.03645535930991172791f, 0.01539825834333896637f, -0.01305751968175172806f, 0.00948794279247522354f, -0.05804629996418952942f, -0.02049779146909713745f, 0.00365098845213651657f, 0.02646632678806781769f, 0.04706234112381935120f, 0.03715306892991065979f, -0.04359807446599006653f, 0.00334430555813014507f},
  {-0.03474668040871620178f, -0.05232357233762741089f, 0.02008433267474174500f, 0.00328764389269053936f, -0.05979244038462638855f, 0.01190255489200353622f, 0.00429773004725575447f, 0.02019442804157733917f, -0.00218533002771437168f, 0.04342664033174514771f, -0.01819207891821861267f, 0.03254171088337898254f, 0.01816423609852790833f, -0.03076162375509738922f, -0.05423167720437049866f, -0.04349623993039131165f, 0.03712952136993408203f, 0.00145600258838385344f, 0.01700989156961441040f, 0.00619823206216096878f, -0.01223016716539859772f, -0.02069490030407905579f, 0.01874490641057491302f, -0.00594062730669975281f, 0.01793454401195049286f, 0.04669295996427536011f, -0.02079801261425018311f, -0.00836973451077938080f, 0.00736599415540695190f, 0.08246254920959472656f, 0.07717048376798629761f, 0.08515004068613052368f, -0.00725012924522161484f, -0.01471726968884468079f, -0.01900426484644412994f, -0.03778050094842910767f, -0.01091073919087648392f, -0.01918245479464530945f, 0.00660216435790061951f, -0.00199078908190131187f, 0.04322060942649841309f, -0.03594787046313285828f, -0.00582112930715084076f, -0.03093663789331912994f, 0.01373328734189271927f, 0.00709914276376366615f, -0.04331687837839126587f, -0.00674081733450293541f, -0.06029174849390983582f, 0.03284467011690139771f, 0.01245626900345087051f, -0.00282772514037787914f, 0.00132365722674876451f, 0.02224773168563842773f, -0.02152983844280242920f, -0.04400959983468055725f, 0.08624812215566635132f, 0.01924481429159641266f, -0.02224982902407646179f, -0.01224151905626058578f, 0.03948362171649932861f, -0.00347822229377925396f, 0.00742207095026969910f, -0.01169953960925340652f},
