// This file is computer-generated by onnx2c 
// (TODO: add creating command line here)
// (TODO: print creation date here )

// ONNX model:
// produced by pytorch, version 2.7.0
// ONNX IR version: 11
// Model documentation: 
/*

*/

#include <float.h>
#include <math.h>
#include <stdbool.h>
#include <stdint.h>
#include <string.h>

#define MAX(X,Y) ( X > Y ? X : Y)
#define MIN(X,Y) ( X < Y ? X : Y)
#define CLIP(X,L) ( MAX(MIN(X,L), -L) )

#if __STDC_VERSION__ < 199901L
#define FUNC_PREFIX
#else
#define FUNC_PREFIX static inline
#endif

static const float tensor_actor_0_weight[64][8] = 
{
  {0.02880548685789108276f, 0.05763326585292816162f, 0.81343376636505126953f, -0.07571850717067718506f, 0.02347265556454658508f, -0.09345158189535140991f, 0.18632777035236358643f, -0.08861527591943740845f},
  {-0.01461138576269149780f, -0.13225890696048736572f, 0.07011605799198150635f, -0.16219340264797210693f, 0.65228688716888427734f, -0.35470592975616455078f, -0.16585041582584381104f, -0.06932190805673599243f},
  {-0.28184637427330017090f, -0.06148169189691543579f, -0.36750176548957824707f, -0.11588821560144424438f, -0.22674098610877990723f, -0.44643267989158630371f, 0.10502302646636962891f, 0.11882288753986358643f},
  {0.06359875947237014771f, -0.26302069425582885742f, -0.27752026915550231934f, 0.32072588801383972168f, 0.04598417505621910095f, 0.02371908724308013916f, 0.53341186046600341797f, 0.12926590442657470703f},
  {-0.43577185273170471191f, -0.09808063507080078125f, 0.53285247087478637695f, -0.04001023247838020325f, -0.18207457661628723145f, -0.38901606202125549316f, 0.13261358439922332764f, 0.08017084747552871704f},
  {0.00500238174572587013f, 0.28623765707015991211f, -0.53589630126953125000f, 0.24844947457313537598f, 0.02571676112711429596f, -0.25830206274986267090f, 0.34446367621421813965f, 0.14378589391708374023f},
  {0.16214451193809509277f, 0.00663553550839424133f, -0.81788712739944458008f, 0.07074992358684539795f, -0.15151901543140411377f, 0.12984989583492279053f, -0.18735103309154510498f, -0.01423239149153232574f},
  {0.45987769961357116699f, 0.20820163190364837646f, 0.12914355099201202393f, 0.16640262305736541748f, -0.18647147715091705322f, -0.68716228008270263672f, -0.41106954216957092285f, -0.08682602643966674805f},
  {-0.03873172774910926819f, 0.28146576881408691406f, 0.52753931283950805664f, -0.00322849536314606667f, -0.09943218529224395752f, -0.18025013804435729980f, 0.04783158004283905029f, -0.03202157840132713318f},
  {0.22420129179954528809f, -0.11261805891990661621f, 0.41872391104698181152f, -0.14342932403087615967f, -0.36388716101646423340f, 0.02117689698934555054f, -0.24435411393642425537f, -0.07163796573877334595f},
  {0.23146733641624450684f, -0.18668010830879211426f, -0.35211384296417236328f, 0.13166375458240509033f, 0.34755536913871765137f, 0.70727360248565673828f, -0.35724148154258728027f, -0.13518278300762176514f},
  {-0.11833281815052032471f, -0.05687923356890678406f, -0.53257876634597778320f, -0.14351198077201843262f, 0.40283307433128356934f, 0.10469365119934082031f, 0.20633010566234588623f, -0.02484321035444736481f},
  {0.26521542668342590332f, 0.09327495843172073364f, -0.38517120480537414551f, -0.07057255506515502930f, 0.11899457871913909912f, 0.25128370523452758789f, -0.12027853727340698242f, -0.09173329919576644897f},
  {-0.21604105830192565918f, 0.02820107527077198029f, 0.26989653706550598145f, -0.27522832155227661133f, 0.18819826841354370117f, 0.27819174528121948242f, 0.15888191759586334229f, 0.01180334016680717468f},
  {0.11360443383455276489f, -0.05090666189789772034f, 0.35799083113670349121f, -0.07776786386966705322f, 0.20956134796142578125f, 0.08623895794153213501f, -0.05894973501563072205f, -0.11501555889844894409f},
  {-0.19362926483154296875f, 0.33129966259002685547f, -0.05224502459168434143f, 0.50770360231399536133f, 0.20572410523891448975f, 0.62292605638504028320f, 0.15703614056110382080f, -0.18629656732082366943f},
  {0.06180058792233467102f, 0.05105261504650115967f, 1.17651057243347167969f, 0.16014729440212249756f, -0.04428888484835624695f, 0.01009593252092599869f, 0.12027213722467422485f, -0.00254923943430185318f},
  {0.15126708149909973145f, -0.06817369163036346436f, 0.43371698260307312012f, -0.15708209574222564697f, 0.07264152169227600098f, -0.03599407523870468140f, -0.18260772526264190674f, 0.11377035081386566162f},
  {-0.17187762260437011719f, -0.10512678325176239014f, -0.65151268243789672852f, 0.04169995337724685669f, -0.01421161368489265442f, 0.29674124717712402344f, -0.00450152205303311348f, -0.15012279152870178223f},
  {-0.49040091037750244141f, -0.15531097352504730225f, 0.17955066263675689697f, 0.11068405956029891968f, -0.56575012207031250000f, -0.11689367890357971191f, 0.09426943212747573853f, -0.07942854613065719604f},
  {-0.05970331653952598572f, 0.17429511249065399170f, 0.83980947732925415039f, 0.10867395251989364624f, 0.09588197618722915649f, 0.08716119080781936646f, 0.13451525568962097168f, 0.05002620443701744080f},
  {-0.06148280575871467590f, 0.11407519876956939697f, 1.14774966239929199219f, -0.03372888639569282532f, -0.04949336498975753784f, -0.01835809834301471710f, -0.06585883349180221558f, 0.02270081825554370880f},
  {-0.14663037657737731934f, -0.09594889730215072632f, -0.58214467763900756836f, -0.21604636311531066895f, -0.32502961158752441406f, -0.02992220968008041382f, -0.13738304376602172852f, -0.16966557502746582031f},
  {-0.11429865658283233643f, -0.22474764287471771240f, 0.36724165081977844238f, -0.14201971888542175293f, -0.36448162794113159180f, -0.13509759306907653809f, -0.02774571627378463745f, -0.06475589424371719360f},
  {0.17283388972282409668f, 0.29677942395210266113f, -0.48122537136077880859f, 0.11146154254674911499f, -0.18652102351188659668f, 0.18050731718540191650f, 0.19854584336280822754f, 0.05811236426234245300f},
  {-0.24494922161102294922f, 0.18630357086658477783f, 0.00974128209054470062f, 0.39192232489585876465f, -0.21535035967826843262f, 0.64689892530441284180f, -0.08712031692266464233f, -0.06513836234807968140f},
  {-0.27000775933265686035f, 0.30102920532226562500f, 0.22213821113109588623f, -0.10904012620449066162f, 0.17807206511497497559f, -0.29346805810928344727f, 0.06193860247731208801f, -0.21711251139640808105f},
  {0.01393014471977949142f, 0.22928519546985626221f, 0.74420875310897827148f, -0.02967107482254505157f, -0.18011189997196197510f, 0.11462856829166412354f, 0.12313784658908843994f, 0.03762832656502723694f},
  {-0.31407025456428527832f, 0.27024218440055847168f, -0.06455893069505691528f, 0.70737308263778686523f, 0.85042160749435424805f, 0.20332865417003631592f, -0.36760330200195312500f, -0.10357066243886947632f},
  {0.02916123345494270325f, -0.09712246060371398926f, -0.55251449346542358398f, 0.34684056043624877930f, 0.41881117224693298340f, -0.41657197475433349609f, -0.10253260284662246704f, -0.08475653827190399170f},
  {0.20438966155052185059f, 0.26884880661964416504f, -0.64320039749145507812f, -0.16702257096767425537f, -0.19627913832664489746f, -0.29084450006484985352f, -0.46567836403846740723f, -0.17362317442893981934f},
  {-0.32238587737083435059f, 0.10232245922088623047f, -0.51941925287246704102f, 0.13248796761035919189f, -0.31302341818809509277f, 0.21397291123867034912f, -0.22829426825046539307f, -0.03917111456394195557f},
  {0.19223210215568542480f, -0.04365287721157073975f, -0.51633661985397338867f, 0.15286013484001159668f, -0.10698868334293365479f, -0.17951031029224395752f, 0.16016669571399688721f, -0.06642539054155349731f},
  {0.18125376105308532715f, 0.05281040072441101074f, 0.37447616457939147949f, 0.13000123202800750732f, 0.20133928954601287842f, 0.02556935511529445648f, 0.06805420666933059692f, -0.02212547883391380310f},
  {-0.12478321045637130737f, 0.06921564787626266479f, -0.51219844818115234375f, -0.19724427163600921631f, -0.18615765869617462158f, -0.05667724832892417908f, 0.03117332793772220612f, -0.16337983310222625732f},
  {0.27663496136665344238f, 0.18106748163700103760f, 0.43584302067756652832f, -0.13518634438514709473f, -0.36464846134185791016f, -0.28554350137710571289f, 0.19396941363811492920f, -0.08020761609077453613f},
  {0.12420554459095001221f, 0.10391862690448760986f, 0.98426133394241333008f, 0.07546621561050415039f, -0.13976059854030609131f, 0.00519047304987907410f, 0.12524834275245666504f, 0.06208500638604164124f},
  {-0.13657876849174499512f, -0.30752879381179809570f, 0.42131778597831726074f, -0.11545306444168090820f, -0.01110321376472711563f, 0.18574789166450500488f, -0.21673184633255004883f, -0.12832406163215637207f},
  {-0.11869997531175613403f, 0.04893478378653526306f, 0.77498346567153930664f, -0.07207407802343368530f, 0.17678271234035491943f, 0.23247873783111572266f, 0.27844059467315673828f, -0.21249504387378692627f},
  {0.11320582777261734009f, 0.20801226794719696045f, -0.21321760118007659912f, -0.27605310082435607910f, 0.60965085029602050781f, -0.49989601969718933105f, -0.47489854693412780762f, 0.00051228038500994444f},
  {0.03752250596880912781f, 0.18416969478130340576f, -0.28066483139991760254f, -0.05785144865512847900f, -0.40781340003013610840f, 0.21745499968528747559f, 0.27635946869850158691f, -0.00434544263407588005f},
  {0.08228629082441329956f, -0.03943716362118721008f, 0.64744693040847778320f, -0.02915584295988082886f, 0.06622799485921859741f, -0.21154423058032989502f, -0.09655508399009704590f, -0.14324124157428741455f},
  {-0.02424704656004905701f, 0.25477471947669982910f, -0.81624752283096313477f, 0.16726244986057281494f, 0.13607907295227050781f, 0.17106804251670837402f, 0.29062965512275695801f, -0.10174369812011718750f},
  {0.18653109669685363770f, 0.06015182659029960632f, 0.45089253783226013184f, 0.19516047835350036621f, 0.13205339014530181885f, 0.07991036772727966309f, -0.07349454611539840698f, 0.14943732321262359619f},
  {-0.09981600195169448853f, 0.04101963713765144348f, -0.54280763864517211914f, -0.15163959562778472900f, 0.04589627310633659363f, 0.32713034749031066895f, 0.11210725456476211548f, -0.19094385206699371338f},
  {0.07330380380153656006f, 0.02213674411177635193f, -0.78244316577911376953f, 0.03364918380975723267f, 0.01066411752253770828f, -0.02695163898169994354f, 0.07619586586952209473f, -0.00593294482678174973f},
  {0.18097776174545288086f, 0.00949392095208168030f, -0.62785798311233520508f, -0.27612665295600891113f, -0.27151858806610107422f, -0.14879773557186126709f, 0.33975425362586975098f, -0.07286617159843444824f},
  {0.18416322767734527588f, -0.06546804308891296387f, 0.39607891440391540527f, 0.32204574346542358398f, -0.33908528089523315430f, 0.28163012862205505371f, -0.25250834226608276367f, -0.14701746404170989990f},
  {0.01344654895365238190f, -0.20895154774188995361f, 0.23959469795227050781f, 0.00266251456923782825f, 0.08346328139305114746f, 0.30524083971977233887f, 0.10013530403375625610f, -0.03764794021844863892f},
  {0.05094942823052406311f, 0.29355761408805847168f, -0.72065538167953491211f, 0.15997047722339630127f, 0.09042558819055557251f, -0.02007226645946502686f, 0.01316658779978752136f, 0.11717811226844787598f},
  {0.22392092645168304443f, -0.04137593135237693787f, 0.63780736923217773438f, 0.05733916163444519043f, 0.09200362116098403931f, -0.16888152062892913818f, 0.30734422802925109863f, 0.18467333912849426270f},
  {0.03989665582776069641f, 0.18227958679199218750f, 0.27185890078544616699f, -0.15580680966377258301f, 0.13770206272602081299f, -0.10981860011816024780f, 0.01766083016991615295f, -0.10741625726222991943f},
  {-0.24384063482284545898f, -0.36339989304542541504f, -0.05706600844860076904f, 0.12951225042343139648f, -0.32482981681823730469f, -0.88935601711273193359f, -0.04822313785552978516f, -0.09864266216754913330f},
  {0.28905305266380310059f, -0.03329346328973770142f, -0.47335812449455261230f, -0.01954550296068191528f, -0.24416996538639068604f, -0.03679048642516136169f, 0.20180298388004302979f, 0.14486497640609741211f},
  {-0.22357881069183349609f, 0.03832412138581275940f, 0.90606939792633056641f, -0.09357860684394836426f, 0.06957864016294479370f, -0.07473091781139373779f, -0.07456330955028533936f, -0.12102469801902770996f},
  {0.09276296198368072510f, 0.18622632324695587158f, -0.49029943346977233887f, 0.05087237432599067688f, 0.08879102021455764771f, -0.45325672626495361328f, 0.24552084505558013916f, -0.02685073949396610260f},
  {0.30865058302879333496f, -0.11874783039093017578f, -0.55806142091751098633f, -0.15217770636081695557f, 0.33421587944030761719f, 0.09497991949319839478f, -0.18893168866634368896f, -0.19630038738250732422f},
  {0.17178776860237121582f, -0.18272584676742553711f, 0.75181430578231811523f, 0.14600487053394317627f, 0.19709414243698120117f, -0.02898034267127513885f, 0.19293633103370666504f, -0.03570584207773208618f},
  {-0.11239902675151824951f, 0.41809231042861938477f, -0.50316941738128662109f, -0.33147791028022766113f, 0.44395229220390319824f, 0.07858083397150039673f, 0.23554764688014984131f, -0.06481682509183883667f},
  {-0.03882646933197975159f, 0.13773049414157867432f, -0.47522613406181335449f, 0.16137927770614624023f, -0.11315623670816421509f, 0.17691895365715026855f, 0.12791146337985992432f, 0.12975919246673583984f},
  {0.06871056556701660156f, -0.16488917171955108643f, 0.05489895120263099670f, 0.10134731233119964600f, -0.36758628487586975098f, -0.19701074063777923584f, -0.13360086083412170410f, 0.24702522158622741699f},
  {0.10422118753194808960f, -0.15285681188106536865f, -0.13645122945308685303f, -0.20947283506393432617f, -0.37854215502738952637f, 0.38042712211608886719f, 0.13534866273403167725f, -0.11807005107402801514f},
  {-0.14427386224269866943f, 0.59578973054885864258f, -0.07634250819683074951f, 0.32086342573165893555f, 0.42212158441543579102f, -0.21186016499996185303f, -0.59240955114364624023f, -0.13957770168781280518f},
  {0.15581548213958740234f, 0.11479406803846359253f, -0.17410826683044433594f, -0.24988618493080139160f, -0.32461819052696228027f, 0.35601598024368286133f, 0.09095276147127151489f, 0.09120526909828186035f}
};
static const float tensor_actor_0_bias[64] = 
{-0.02294829860329627991f, -0.03045291267335414886f, 0.21477311849594116211f, 0.15616950392723083496f, -0.43444100022315979004f, 0.25285294651985168457f, 0.19868203997611999512f, -0.38291403651237487793f, -0.10333299636840820312f, -0.40967389941215515137f, -0.45172905921936035156f, 0.03470394387841224670f, -0.20247910916805267334f, -0.28015896677970886230f, -0.23272238671779632568f, -0.22222808003425598145f, -0.33322089910507202148f, -0.31138533353805541992f, 0.01542954985052347183f, 0.06500703096389770508f, -0.38010174036026000977f, -0.21155644953250885010f, -0.04845192655920982361f, -0.28356719017028808594f, -0.05438601598143577576f, -0.38735285401344299316f, -0.01561420969665050507f, -0.41502442955970764160f, -0.36562207341194152832f, -0.11210676282644271851f, -0.24398966133594512939f, -0.01153428200632333755f, 0.03243766725063323975f, -0.26267427206039428711f, 0.10374691337347030640f, -0.14207999408245086670f, -0.41810655593872070312f, -0.35245117545127868652f, -0.23331713676452636719f, -0.16321763396263122559f, -0.11905466765165328979f, -0.30270555615425109863f, 0.15656910836696624756f, -0.44287961721420288086f, 0.24638278782367706299f, 0.19408152997493743896f, -0.12038435786962509155f, -0.16029943525791168213f, -0.15080404281616210938f, 0.10840839892625808716f, -0.34844616055488586426f, -0.26770961284637451172f, 0.08880031853914260864f, 0.15065902471542358398f, -0.00193953595589846373f, 0.01880504935979843140f, -0.19923773407936096191f, -0.41949802637100219727f, -0.12885019183158874512f, -0.03544801473617553711f, -0.08451490104198455811f, -0.01068555098026990891f, -0.18841475248336791992f, -0.02702195197343826294f};
static const float tensor_actor_2_weight[64][64] = 
{
  {-0.05782499536871910095f, -0.12602622807025909424f, 0.18115577101707458496f, -0.26338374614715576172f, 0.27410471439361572266f, 0.07427650690078735352f, 0.10672895610332489014f, 0.03672733902931213379f, 0.19657753407955169678f, 0.08895826339721679688f, 0.14030376076698303223f, -0.00182070583105087280f, 0.09940034151077270508f, 0.08888977020978927612f, 0.13256156444549560547f, 0.00396861368790268898f, -0.10422062873840332031f, -0.15124550461769104004f, 0.06398544460535049438f, 0.11163266003131866455f, 0.03851658478379249573f, -0.27077928185462951660f, 0.01792631857097148895f, 0.20176039636135101318f, 0.00081431318540126085f, -0.07578061521053314209f, 0.12851136922836303711f, 0.04891806095838546753f, -0.10652140527963638306f, 0.18952505290508270264f, -0.20309893786907196045f, 0.16117106378078460693f, 0.02809339947998523712f, 0.08742555230855941772f, -0.03090578876435756683f, -0.07109414041042327881f, -0.06617298722267150879f, -0.03326355293393135071f, 0.02302625589072704315f, -0.27310484647750854492f, 0.01825740188360214233f, 0.04016860947012901306f, -0.04761382937431335449f, 0.02019716240465641022f, -0.07331698387861251831f, -0.06487055867910385132f, -0.28018119931221008301f, 0.09243654459714889526f, -0.12496484071016311646f, -0.00458862446248531342f, 0.03950303792953491211f, -0.12754034996032714844f, 0.19009102880954742432f, -0.09719873964786529541f, -0.15907873213291168213f, 0.26187625527381896973f, 0.11523705720901489258f, 0.09349580109119415283f, -0.10155306011438369751f, 0.07141482084989547729f, 0.17409355938434600830f, -0.02499072626233100891f, -0.22926393151283264160f, -0.19898246228694915771f},
  {-0.00216389959678053856f, -0.17026075720787048340f, 0.14969152212142944336f, -0.11796256154775619507f, 0.13072486221790313721f, 0.13028496503829956055f, 0.18018154799938201904f, 0.00783485546708106995f, -0.07591918110847473145f, 0.03002902120351791382f, 0.06002772971987724304f, 0.12937496602535247803f, 0.00152650708332657814f, 0.15940828621387481689f, 0.03568419441580772400f, -0.14515265822410583496f, 0.02924699336290359497f, 0.01065817475318908691f, 0.10960031300783157349f, -0.05054535716772079468f, 0.10948264598846435547f, -0.09528407454490661621f, -0.01767448894679546356f, 0.03060140833258628845f, -0.02629035525023937225f, -0.07763539999723434448f, 0.03014804422855377197f, -0.13207525014877319336f, -0.27976161241531372070f, 0.04120267927646636963f, -0.22062462568283081055f, 0.25414103269577026367f, -0.02574455551803112030f, -0.09691610187292098999f, -0.02625366859138011932f, -0.14737387001514434814f, -0.11818296462297439575f, 0.03317090123891830444f, -0.08590298146009445190f, -0.27942633628845214844f, -0.04508215561509132385f, -0.08747261017560958862f, 0.05378065630793571472f, 0.05733731389045715332f, 0.11196050047874450684f, -0.12705554068088531494f, -0.36968749761581420898f, 0.21369266510009765625f, -0.03438371419906616211f, -0.13442303240299224854f, -0.01688976027071475983f, 0.06523900479078292847f, 0.18192245066165924072f, -0.13306944072246551514f, -0.09047256410121917725f, 0.20621815323829650879f, 0.23962226510047912598f, 0.15459726750850677490f, 0.22766387462615966797f, -0.06415688246488571167f, 0.08525230735540390015f, -0.08320108056068420410f, -0.06141003593802452087f, -0.09744206070899963379f},
  {0.03210905939340591431f, 0.13084024190902709961f, 0.17022667825222015381f, -0.05005158856511116028f, 0.32174634933471679688f, 0.00219130399636924267f, -0.23481881618499755859f, -0.21773162484169006348f, 0.45200568437576293945f, 0.00555764045566320419f, -0.05943483114242553711f, -0.10981390625238418579f, 0.11511930078268051147f, -0.31180879473686218262f, 0.00970292370766401291f, -0.24449637532234191895f, -0.05839428678154945374f, -0.02341645210981369019f, -0.15515920519828796387f, -0.05394728481769561768f, -0.06631158292293548584f, 0.04110452532768249512f, 0.06346863508224487305f, 0.10248518735170364380f, 0.06270245462656021118f, 0.19328527152538299561f, 0.17318846285343170166f, 0.05447004362940788269f, -0.36845511198043823242f, -0.18511860072612762451f, -0.19301599264144897461f, -0.15713368356227874756f, 0.05372525379061698914f, -0.20106570422649383545f, 0.19808232784271240234f, 0.64329826831817626953f, 0.30543884634971618652f, -0.11577607691287994385f, -0.26243188977241516113f, 0.10057888180017471313f, 0.36774164438247680664f, 0.15430603921413421631f, 0.00761311315000057220f, -0.16766260564327239990f, -0.12808373570442199707f, 0.16971223056316375732f, 0.20858521759510040283f, -0.20761820673942565918f, -0.35243853926658630371f, 0.12245551496744155884f, 0.05666740238666534424f, 0.16763769090175628662f, 0.05294578149914741516f, 0.29330149292945861816f, 0.15597772598266601562f, 0.31355193257331848145f, 0.16050809621810913086f, 0.05055747553706169128f, -0.00325365550816059113f, -0.05537916719913482666f, -0.17699746787548065186f, -0.06072499230504035950f, -0.21524697542190551758f, -0.08834816515445709229f},
  {-0.12769491970539093018f, -0.07758684456348419189f, 0.01430355478078126907f, -0.11578108370304107666f, 0.16804066300392150879f, 0.01585518009960651398f, 0.10606676340103149414f, -0.07719849050045013428f, 0.07815144211053848267f, -0.02441615797579288483f, 0.14902439713478088379f, 0.26282224059104919434f, 0.10242548584938049316f, 0.17449063062667846680f, -0.00377353443764150143f, -0.18043740093708038330f, 0.04339244216680526733f, 0.02107404917478561401f, 0.09649047255516052246f, 0.11741215735673904419f, 0.15213318169116973877f, -0.02111250348389148712f, 0.05783141404390335083f, -0.14130154252052307129f, 0.03015359863638877869f, -0.06581259518861770630f, 0.12274432182312011719f, 0.08796747773885726929f, -0.30423814058303833008f, 0.18612675368785858154f, 0.04039226472377777100f, 0.09705316275358200073f, 0.00201994273811578751f, 0.14471375942230224609f, -0.12612800300121307373f, -0.14180168509483337402f, -0.00421746121719479561f, -0.18550099432468414307f, -0.06726587563753128052f, -0.28462713956832885742f, -0.20143532752990722656f, -0.14743007719516754150f, -0.12455396354198455811f, 0.03977124020457267761f, 0.07853839546442031860f, -0.06759869307279586792f, -0.32404243946075439453f, 0.23615385591983795166f, -0.03966628015041351318f, -0.03292289003729820251f, -0.01473594829440116882f, -0.05743635445833206177f, 0.18038959801197052002f, -0.08627291768789291382f, 0.05086715891957283020f, 0.06179904192686080933f, 0.04897317662835121155f, 0.04106914997100830078f, 0.11108815670013427734f, 0.00457280222326517105f, -0.14393867552280426025f, -0.07533478736877441406f, -0.07122566550970077515f, 0.07769565284252166748f},
  {0.05367524176836013794f, -0.07988840341567993164f, -0.12880967557430267334f, 0.03055685944855213165f, -0.28065344691276550293f, -0.08257122337818145752f, -0.07038789242506027222f, -0.01666648313403129578f, -0.10592116415500640869f, -0.03071602247655391693f, -0.23767045140266418457f, -0.07181993126869201660f, -0.07989011704921722412f, 0.09951627999544143677f, 0.08173733949661254883f, -0.00507048238068819046f, -0.00657041557133197784f, -0.01589999534189701080f, 0.28331077098846435547f, -0.15553635358810424805f, -0.08968118578195571899f, 0.09776505082845687866f, 0.23050048947334289551f, 0.30826091766357421875f, 0.08278764784336090088f, -0.04436751455068588257f, -0.17810049653053283691f, 0.19616192579269409180f, -0.03882579132914543152f, 0.22558237612247467041f, 0.04876974597573280334f, -0.26175105571746826172f, 0.11216548830270767212f, 0.07777240872383117676f, 0.09310954809188842773f, 0.06087685376405715942f, 0.16402220726013183594f, -0.04332608357071876526f, 0.07469967752695083618f, -0.14039929211139678955f, 0.13958667218685150146f, -0.02802262268960475922f, -0.01109355036169290543f, 0.13549795746803283691f, 0.11633758246898651123f, 0.10551498830318450928f, 0.19184379279613494873f, -0.32172521948814392090f, 0.04562256485223770142f, 0.00244540441781282425f, -0.06040760502219200134f, 0.02973761223256587982f, -0.15671452879905700684f, 0.23511752486228942871f, -0.07054590433835983276f, -0.28575110435485839844f, -0.03561249747872352600f, 0.00040932084084488451f, -0.19453328847885131836f, 0.20935492217540740967f, -0.15473957359790802002f, 0.18916067481040954590f, -0.02914007566869258881f, 0.22499865293502807617f},
  {-0.09486430138349533081f, -0.15275126695632934570f, 0.19500622153282165527f, 0.05964258685708045959f, 0.43146878480911254883f, 0.04011956229805946350f, 0.24407315254211425781f, -0.11971464753150939941f, 0.23253387212753295898f, 0.07165246456861495972f, 0.01954729668796062469f, 0.09014490246772766113f, 0.19553175568580627441f, 0.16988106071949005127f, -0.00757222902029752731f, 0.02523870579898357391f, -0.02136139012873172760f, -0.10295500606298446655f, -0.13114646077156066895f, 0.16052050888538360596f, 0.14966487884521484375f, 0.07279361784458160400f, -0.08050060272216796875f, -0.16533975303173065186f, -0.08290077745914459229f, -0.00926250126212835312f, 0.16023097932338714600f, -0.08133596181869506836f, -0.20775654911994934082f, -0.04795486479997634888f, -0.22733221948146820068f, 0.34744775295257568359f, -0.02455924823880195618f, -0.05622165277600288391f, 0.09725407510995864868f, -0.15487632155418395996f, 0.03157279640436172485f, -0.12291418015956878662f, 0.06672405451536178589f, 0.05064314976334571838f, -0.17598615586757659912f, -0.14161984622478485107f, 0.05056379735469818115f, 0.02732807956635951996f, 0.00613829586654901505f, -0.03186783567070960999f, -0.13033680617809295654f, 0.22300268709659576416f, -0.04713868349790573120f, -0.05553524941205978394f, -0.05305963754653930664f, 0.15891078114509582520f, 0.02695720642805099487f, -0.15039277076721191406f, -0.03675986081361770630f, 0.24515385925769805908f, 0.04968219622969627380f, -0.03928230702877044678f, 0.25154188275337219238f, -0.00130081956740468740f, -0.02159202098846435547f, -0.20890453457832336426f, -0.07951967418193817139f, -0.18271587789058685303f},
  {-0.08899934589862823486f, -0.01449845451861619949f, 0.27458047866821289062f, -0.09785864502191543579f, 0.19777294993400573730f, 0.02827691473066806793f, 0.05633996054530143738f, 0.00351684051565825939f, 0.12027099728584289551f, 0.01973461918532848358f, 0.14405259490013122559f, 0.21715384721755981445f, 0.11866310983896255493f, 0.14048326015472412109f, 0.03705744817852973938f, -0.01496703270822763443f, 0.10667585581541061401f, -0.03477287665009498596f, 0.09773579239845275879f, 0.12569078803062438965f, -0.03698495030403137207f, -0.16063164174556732178f, 0.03066360950469970703f, -0.06204329058527946472f, -0.04976433515548706055f, 0.05695157870650291443f, 0.19185523688793182373f, -0.11715807765722274780f, -0.16882209479808807373f, -0.22205717861652374268f, -0.15095730125904083252f, 0.20195583999156951904f, -0.01795642450451850891f, -0.00617282418534159660f, -0.17341451346874237061f, -0.18544656038284301758f, 0.01192385796457529068f, 0.00190873036626726389f, -0.11024674028158187866f, -0.04061913117766380310f, -0.02155873365700244904f, -0.10209759324789047241f, 0.04119656980037689209f, -0.08787101507186889648f, -0.10722396522760391235f, -0.08399760723114013672f, -0.20617061853408813477f, 0.31078603863716125488f, -0.06793592125177383423f, -0.14714266359806060791f, 0.03188166022300720215f, 0.08245304226875305176f, 0.10437924414873123169f, -0.25298169255256652832f, -0.16594895720481872559f, 0.23519422113895416260f, -0.01125831156969070435f, 0.00423555867746472359f, 0.27631434798240661621f, 0.14479781687259674072f, -0.01473298482596874237f, -0.07423159480094909668f, -0.13370931148529052734f, -0.16593165695667266846f},
  {0.05294100940227508545f, -0.11594164371490478516f, -0.07435891032218933105f, -0.11421116441488265991f, 0.19509121775627136230f, -0.09167983382940292358f, -0.32001921534538269043f, 0.14560328423976898193f, 0.02744692191481590271f, 0.19747799634933471680f, -0.00918039400130510330f, -0.12729647755622863770f, 0.11080248653888702393f, 0.02816513366997241974f, 0.09548670798540115356f, 0.04851750656962394714f, 0.79624694585800170898f, 0.16751146316528320312f, -0.07540180534124374390f, -0.12916937470436096191f, 0.44189324975013732910f, 0.68787068128585815430f, -0.18454180657863616943f, 0.15845963358879089355f, -0.07207497954368591309f, 0.01630503498017787933f, -0.11245624721050262451f, 0.34017550945281982422f, 0.10431066900491714478f, -0.09311993420124053955f, -0.10973064601421356201f, -0.03705210238695144653f, -0.16842134296894073486f, 0.09327318519353866577f, -0.13065481185913085938f, 0.06875430792570114136f, 0.56382459402084350586f, 0.15681302547454833984f, 0.14417549967765808105f, 0.03565578907728195190f, -0.07467946410179138184f, 0.28097540140151977539f, -0.43473273515701293945f, 0.11648889631032943726f, -0.26251718401908874512f, -0.37072134017944335938f, -0.17708621919155120850f, 0.04695150256156921387f, -0.02955633401870727539f, -0.25191524624824523926f, 0.20882110297679901123f, 0.00426169112324714661f, 0.01823071390390396118f, -0.18546433746814727783f, 0.19105140864849090576f, -0.15892410278320312500f, -0.03991186246275901794f, 0.47485539317131042480f, 0.05359944328665733337f, 0.03683011978864669800f, 0.04787524789571762085f, -0.06043489649891853333f, 0.00122918409761041403f, 0.02694660797715187073f},
  {-0.15736924111843109131f, 0.05088472738862037659f, 0.15659466385841369629f, -0.07203964889049530029f, 0.37970033288002014160f, 0.15698631107807159424f, -0.08647526800632476807f, 0.07746586203575134277f, -0.06210958212614059448f, -0.07406101375818252563f, 0.13342000544071197510f, 0.09200492501258850098f, 0.04824269190430641174f, 0.05417093262076377869f, 0.07177016139030456543f, 0.02753355912864208221f, -0.15917846560478210449f, -0.18655256927013397217f, 0.07832247018814086914f, -0.04327402263879776001f, 0.07659431546926498413f, -0.43033903837203979492f, 0.01059969328343868256f, 0.04140704497694969177f, -0.23278096318244934082f, -0.17632691562175750732f, -0.06263659894466400146f, -0.23510454595088958740f, -0.05845216289162635803f, 0.34850180149078369141f, -0.23560017347335815430f, -0.07756832242012023926f, -0.04681812599301338196f, 0.15791229903697967529f, -0.07156907767057418823f, -0.29896959662437438965f, -0.19308348000049591064f, -0.09823255985975265503f, -0.02890398725867271423f, -0.27003276348114013672f, -0.15573711693286895752f, 0.10363084077835083008f, -0.16610668599605560303f, 0.04988040402531623840f, -0.05440128222107887268f, 0.09685351699590682983f, -0.24824230372905731201f, -0.12153783440589904785f, 0.06450292468070983887f, -0.01700977608561515808f, 0.19506043195724487305f, 0.08430442214012145996f, 0.34757187962532043457f, -0.08633067458868026733f, -0.12892735004425048828f, 0.21298214793205261230f, 0.19087865948677062988f, 0.17326174676418304443f, 0.03066528588533401489f, -0.00640388578176498413f, 0.00790548790246248245f, -0.24355895817279815674f, -0.32358327507972717285f, -0.13644528388977050781f},
  {-0.10887522250413894653f, -0.01154495961964130402f, 0.05414029955863952637f, -0.09422788769006729126f, -0.10157249122858047485f, 0.01623882353305816650f, -0.07034587860107421875f, 0.03235766664147377014f, -0.11456707119941711426f, 0.10738008469343185425f, -0.20063184201717376709f, 0.02362961694598197937f, -0.08635709434747695923f, 0.18920309841632843018f, 0.08711813390254974365f, 0.00903568137437105179f, 0.09516905993223190308f, -0.02608055435121059418f, -0.00855317246168851852f, -0.10085017979145050049f, -0.01565817557275295258f, -0.07393886148929595947f, 0.15856157243251800537f, -0.02583631686866283417f, -0.01225123554468154907f, -0.07899896055459976196f, -0.02204336784780025482f, 0.09726359695196151733f, -0.04990635812282562256f, 0.12715977430343627930f, -0.05952087417244911194f, 0.01726210676133632660f, 0.08064833283424377441f, -0.00932207889854907990f, -0.04952110722661018372f, -0.09489879757165908813f, 0.05195414274930953979f, -0.07565182447433471680f, -0.03417515382170677185f, 0.03826468810439109802f, 0.03422603756189346313f, -0.08255544304847717285f, 0.06965579092502593994f, -0.01144847460091114044f, 0.07258163392543792725f, -0.04854387044906616211f, -0.13666723668575286865f, 0.04652141779661178589f, 0.03526116162538528442f, -0.22559978067874908447f, -0.12218039482831954956f, -0.15320986509323120117f, 0.07329066842794418335f, 0.03826138004660606384f, -0.10436980426311492920f, -0.04705488309264183044f, -0.00912091135978698730f, 0.17872096598148345947f, -0.00114333792589604855f, 0.07300095260143280029f, -0.06853374838829040527f, -0.00645237229764461517f, 0.04358504712581634521f, -0.01408762671053409576f},
  {-0.17484810948371887207f, -0.13877537846565246582f, 0.08881199359893798828f, 0.01954702101647853851f, 0.08298867940902709961f, 0.16432383656501770020f, -0.02062932588160037994f, 0.24233362078666687012f, -0.05144864320755004883f, 0.03497997671365737915f, -0.00600588368251919746f, 0.08087777346372604370f, -0.03730302304029464722f, 0.12882849574089050293f, -0.02648271061480045319f, -0.04014715924859046936f, -0.03394704312086105347f, -0.03171894699335098267f, -0.02149998955428600311f, 0.05011755600571632385f, -0.01033597532659769058f, -0.22273096442222595215f, 0.20665971934795379639f, 0.04730580002069473267f, -0.15216645598411560059f, -0.29553973674774169922f, 0.02051579765975475311f, -0.00792041327804327011f, -0.17159582674503326416f, 0.21319977939128875732f, 0.04019450396299362183f, -0.08282232284545898438f, 0.05324617773294448853f, 0.25912553071975708008f, -0.02067603729665279388f, -0.35654422640800476074f, -0.13995626568794250488f, -0.10530870407819747925f, 0.10398501902818679810f, -0.22819593548774719238f, -0.14607283473014831543f, 0.19085857272148132324f, 0.09485460072755813599f, 0.02324312925338745117f, -0.15486311912536621094f, 0.17937417328357696533f, -0.27881285548210144043f, 0.09083937853574752808f, -0.00181318190880119801f, -0.09608743339776992798f, 0.19254417717456817627f, -0.12128876894712448120f, 0.36850687861442565918f, -0.14344196021556854248f, -0.24431002140045166016f, 0.02828674949705600739f, -0.02627920918166637421f, 0.28620722889900207520f, 0.05980287492275238037f, -0.17591023445129394531f, 0.03912755846977233887f, -0.04277463257312774658f, 0.02354303747415542603f, 0.04805235192179679871f},
  {-0.15316824615001678467f, -0.29126599431037902832f, 0.13132870197296142578f, -0.07741431146860122681f, 0.21160534024238586426f, 0.20216929912567138672f, 0.17389813065528869629f, -0.10165588557720184326f, 0.15739502012729644775f, 0.02558806538581848145f, 0.31243899464607238770f, -0.16420873999595642090f, -0.00119862565770745277f, -0.20831985771656036377f, 0.04871206358075141907f, 0.04445625096559524536f, 0.07861123234033584595f, -0.08481384068727493286f, 0.17966966331005096436f, 0.19490900635719299316f, -0.03067080117762088776f, -0.22952876985073089600f, -0.04995092377066612244f, 0.19752652943134307861f, 0.10230931639671325684f, 0.34083837270736694336f, 0.11305244266986846924f, 0.06920588761568069458f, -0.13911695778369903564f, -0.00083259353414177895f, -0.01643211394548416138f, 0.17608878016471862793f, 0.17942278087139129639f, 0.24114902317523956299f, 0.07234968245029449463f, -0.03339282423257827759f, 0.08870584517717361450f, -0.05431357398629188538f, -0.10264188796281814575f, -0.08485683798789978027f, -0.01939080096781253815f, 0.07476083934307098389f, -0.11784154921770095825f, 0.12697875499725341797f, -0.13338543474674224854f, 0.13712573051452636719f, -0.18335112929344177246f, 0.22213760018348693848f, 0.00912320613861083984f, -0.12450190633535385132f, -0.07424774020910263062f, 0.14100123941898345947f, 0.25915902853012084961f, -0.14873240888118743896f, -0.17164869606494903564f, 0.10892299562692642212f, 0.17051109671592712402f, -0.10562482476234436035f, 0.04348125308752059937f, 0.22451393306255340576f, 0.22697238624095916748f, -0.14234738051891326904f, -0.16595879197120666504f, -0.12477789074182510376f},
  {-0.24715475738048553467f, -0.49728748202323913574f, 0.28698742389678955078f, -0.14420594274997711182f, 0.46276009082794189453f, 0.12056334316730499268f, 0.27860227227210998535f, -0.26440164446830749512f, -0.05142864584922790527f, -0.13436095416545867920f, 0.27170971035957336426f, -0.39426234364509582520f, -0.09031596034765243530f, -0.33454588055610656738f, -0.14490948617458343506f, 0.03261756896972656250f, 0.07825548201799392700f, -0.22180263698101043701f, 0.36535766720771789551f, 0.43278685212135314941f, 0.05285529792308807373f, -0.15477927029132843018f, 0.07307863235473632812f, 0.21345524489879608154f, 0.18729919195175170898f, 0.46457046270370483398f, -0.06541924178600311279f, 0.12458566576242446899f, -0.07933222502470016479f, -0.05093449354171752930f, -0.28150406479835510254f, 0.67661219835281372070f, 0.38880211114883422852f, -0.10878985375165939331f, 0.00364786828868091106f, 0.05351335555315017700f, 0.27750694751739501953f, 0.10969618707895278931f, -0.22732275724411010742f, -0.20361022651195526123f, 0.15963639318943023682f, -0.16154156625270843506f, -0.02338784746825695038f, -0.06132422015070915222f, -0.27443864941596984863f, 0.14015701413154602051f, -0.25652399659156799316f, 0.27963027358055114746f, 0.01909290254116058350f, -0.23976820707321166992f, -0.00199563615024089813f, -0.13966730237007141113f, 0.45044785737991333008f, -0.00749877560883760452f, -0.18677072227001190186f, 0.19504439830780029297f, 0.12754595279693603516f, 0.08755852282047271729f, -0.20562364161014556885f, 0.42197525501251220703f, 0.31302291154861450195f, -0.21893823146820068359f, -0.19290670752525329590f, -0.25048664212226867676f},
  {0.05317928269505500793f, -0.16548605263233184814f, 0.07649159431457519531f, 0.14923168718814849854f, 0.22280661761760711670f, 0.03612044081091880798f, -0.07185745239257812500f, -0.23676748573780059814f, 0.16316567361354827881f, -0.12640975415706634521f, 0.18292526900768280029f, -0.31901612877845764160f, -0.05507053434848785400f, -0.12201238423585891724f, -0.03381486237049102783f, 0.14104130864143371582f, 0.08833418041467666626f, -0.04173322767019271851f, 0.30521774291992187500f, 0.26920419931411743164f, 0.10135807842016220093f, -0.07968122512102127075f, -0.05343131348490715027f, -0.12123831361532211304f, 0.20867146551609039307f, 0.52656871080398559570f, -0.00349129503592848778f, 0.20842090249061584473f, 0.04162317514419555664f, -0.16758051514625549316f, -0.21074369549751281738f, 0.23038545250892639160f, 0.07790339738130569458f, -0.14745603501796722412f, 0.17515993118286132812f, 0.35690203309059143066f, 0.16273975372314453125f, -0.09099876135587692261f, -0.10594461113214492798f, 0.02639047056436538696f, 0.23877105116844177246f, -0.14235579967498779297f, 0.03443639352917671204f, 0.08460935950279235840f, 0.05096593871712684631f, 0.07198176532983779907f, 0.17991437017917633057f, 0.16683331131935119629f, 0.08756992220878601074f, -0.02618023380637168884f, -0.07757105678319931030f, 0.16666387021541595459f, -0.07466655224561691284f, 0.07839827239513397217f, -0.06327550858259201050f, -0.07375027239322662354f, 0.00856274738907814026f, -0.17790915071964263916f, -0.13564144074916839600f, 0.31172809004783630371f, 0.05854275822639465332f, 0.00530365481972694397f, 0.12956838309764862061f, -0.06518150866031646729f},
  {-0.01016933750361204147f, -0.07544690370559692383f, -0.18371531367301940918f, 0.08121813833713531494f, -0.13702429831027984619f, -0.10861075669527053833f, -0.08076660335063934326f, 0.07794273644685745239f, -0.07364456355571746826f, 0.35383188724517822266f, -0.23482637107372283936f, -0.04795818030834197998f, -0.03852184861898422241f, 0.15334026515483856201f, 0.04726505652070045471f, 0.01364839542657136917f, -0.05359138175845146179f, 0.25178378820419311523f, -0.05817874148488044739f, 0.06797061115503311157f, 0.03851631283760070801f, -0.13502399623394012451f, -0.09640434384346008301f, 0.26272630691528320312f, 0.05303384363651275635f, -0.25771021842956542969f, -0.12825606763362884521f, 0.10036863386631011963f, -0.01111543364822864532f, -0.17345698177814483643f, 0.35081246495246887207f, -0.22281096875667572021f, -0.00664779217913746834f, -0.21975071728229522705f, 0.13270278275012969971f, 0.13436196744441986084f, -0.06228296831250190735f, 0.16907057166099548340f, 0.08552199602127075195f, 0.18047505617141723633f, 0.13225768506526947021f, 0.16638560593128204346f, 0.00391455320641398430f, 0.01258504670113325119f, -0.01941047422587871552f, 0.03790080919861793518f, 0.10643870383501052856f, 0.00340916961431503296f, 0.01311213616281747818f, -0.08919586241245269775f, 0.05311508104205131531f, 0.02390392310917377472f, -0.07875007390975952148f, 0.24231719970703125000f, -0.00197072210721671581f, -0.13657864928245544434f, -0.13961903750896453857f, -0.11759630590677261353f, -0.04340400919318199158f, -0.07383227348327636719f, 0.16799238324165344238f, -0.12704469263553619385f, 0.08770906925201416016f, 0.11238395422697067261f},
  {-0.02709345147013664246f, -0.13045381009578704834f, -0.03209386765956878662f, -0.08546300232410430908f, -0.08430878072977066040f, 0.06251670420169830322f, -0.05351902544498443604f, 0.19478905200958251953f, -0.03918172791600227356f, 0.12359486520290374756f, -0.11993304640054702759f, 0.12840388715267181396f, -0.07755164802074432373f, 0.22005297243595123291f, 0.00695848325267434120f, 0.03448179364204406738f, -0.21716691553592681885f, -0.13043135404586791992f, 0.10403071343898773193f, -0.00255238427780568600f, -0.10013697296380996704f, -0.34091991186141967773f, 0.16772972047328948975f, 0.15479515492916107178f, -0.01028170902281999588f, -0.16841988265514373779f, -0.14805054664611816406f, -0.13252229988574981689f, -0.03138953819870948792f, 0.18120071291923522949f, 0.03463141992688179016f, -0.23071309924125671387f, -0.06726021319627761841f, 0.28869226574897766113f, 0.06550268828868865967f, -0.16259965300559997559f, 0.00900438707321882248f, 0.08822517096996307373f, 0.04963880032300949097f, -0.12652817368507385254f, -0.04288076236844062805f, -0.02032643370330333710f, 0.00053712597582489252f, 0.11398918926715850830f, 0.04433811828494071960f, 0.07015939056873321533f, -0.23680467903614044189f, -0.00848108716309070587f, 0.07637660205364227295f, 0.13309454917907714844f, -0.00877143908292055130f, -0.03414834663271903992f, 0.07297249883413314819f, -0.13561432063579559326f, -0.14974305033683776855f, -0.06816148012876510620f, -0.19773343205451965332f, 0.09148447215557098389f, 0.05941568687558174133f, -0.09953625500202178955f, 0.01252459269016981125f, 0.04352498427033424377f, -0.02722484245896339417f, 0.13755242526531219482f},
  {0.06342116743326187134f, 0.03810579702258110046f, -0.08157533407211303711f, 0.02257143892347812653f, 0.22885178029537200928f, 0.15591558814048767090f, 0.26578727364540100098f, 0.00013505003880709410f, 0.11719709634780883789f, 0.05253012105822563171f, 0.09746717661619186401f, 0.06666953116655349731f, 0.11090743541717529297f, 0.02681752294301986694f, -0.00472276937216520309f, -0.12496506422758102417f, 0.02251845039427280426f, -0.06868919730186462402f, -0.05375229567289352417f, 0.02298727445304393768f, 0.06946999579668045044f, -0.13563549518585205078f, -0.05173011124134063721f, -0.03820317238569259644f, -0.10317247360944747925f, -0.04344070330262184143f, 0.10996160656213760376f, 0.06132994592189788818f, -0.19392369687557220459f, -0.13173106312751770020f, -0.12814848124980926514f, 0.13628493249416351318f, 0.02765773795545101166f, -0.11449085175991058350f, -0.09949269890785217285f, -0.11651220917701721191f, -0.03820509836077690125f, -0.01603249832987785339f, -0.02509609609842300415f, -0.13004876673221588135f, -0.16745631396770477295f, -0.05312986671924591064f, -0.11464446038007736206f, -0.09117918461561203003f, 0.07020644843578338623f, -0.00234111887402832508f, -0.27881550788879394531f, 0.30101203918457031250f, 0.04877522960305213928f, -0.02563005313277244568f, 0.02067443914711475372f, -0.08384283632040023804f, 0.01856477186083793640f, -0.17278470098972320557f, -0.05490758642554283142f, 0.19446034729480743408f, 0.11792602390050888062f, -0.16494122147560119629f, 0.27709817886352539062f, 0.07965278625488281250f, 0.00986994337290525436f, -0.02678026445209980011f, -0.13282275199890136719f, -0.14748086035251617432f},
  {0.13725465536117553711f, -0.10798040777444839478f, -0.02232631295919418335f, 0.27504655718803405762f, -0.17726176977157592773f, -0.05850400775671005249f, -0.01266733650118112564f, 0.07793816924095153809f, 0.06456984579563140869f, 0.02296366915106773376f, 0.04178872704505920410f, 0.09516924619674682617f, -0.12206660956144332886f, 0.02085516601800918579f, -0.08009941130876541138f, 0.24242931604385375977f, 0.24889893829822540283f, -0.13230064511299133301f, 0.08851083368062973022f, 0.08499167114496231079f, 0.19190783798694610596f, 0.30939963459968566895f, -0.14775218069553375244f, -0.11090625822544097900f, 0.02899160981178283691f, 0.22356909513473510742f, 0.07480362057685852051f, 0.12459530681371688843f, 0.15760102868080139160f, 0.03124244883656501770f, 0.13262659311294555664f, 0.05156911537051200867f, 0.00870101246982812881f, -0.06889371573925018311f, -0.16972267627716064453f, 0.03040814399719238281f, 0.24403113126754760742f, -0.10530492663383483887f, 0.05287876352667808533f, -0.03882384300231933594f, 0.15536187589168548584f, -0.10888582468032836914f, 0.13324128091335296631f, 0.05607911944389343262f, 0.07660808414220809937f, 0.09236594289541244507f, 0.10377762466669082642f, -0.02998465858399868011f, 0.08477652817964553833f, 0.14302669465541839600f, 0.03194969892501831055f, -0.04212486743927001953f, -0.03794081136584281921f, 0.17071940004825592041f, 0.01675861701369285583f, -0.12113960087299346924f, -0.13110633194446563721f, 0.10111515223979949951f, 0.08605724573135375977f, 0.03525525704026222229f, -0.10957410931587219238f, 0.00143528694752603769f, 0.22605915367603302002f, -0.03858305141329765320f},
  {0.03447119519114494324f, 0.13203862309455871582f, -0.16439919173717498779f, -0.37359395623207092285f, -0.08539825677871704102f, -0.09555250406265258789f, -0.19591268897056579590f, -0.00168699095956981182f, 0.16157254576683044434f, -0.14666885137557983398f, -0.05832794308662414551f, -0.10978445410728454590f, -0.02610022388398647308f, -0.08222207427024841309f, 0.09734419733285903931f, -0.06153985857963562012f, -0.14375716447830200195f, 0.25800776481628417969f, -0.03966135531663894653f, -0.11765356361865997314f, -0.12156585603952407837f, 0.00311229052022099495f, 0.02749008126556873322f, 0.16185884177684783936f, -0.02983362972736358643f, 0.07334227859973907471f, -0.06778151541948318481f, -0.04584198445081710815f, 0.16855505108833312988f, 0.03957620635628700256f, -0.08794336020946502686f, 0.02277313172817230225f, 0.03631348162889480591f, 0.13156917691230773926f, 0.00813620910048484802f, 0.29328632354736328125f, -0.04280134290456771851f, 0.12906181812286376953f, -0.13436301052570343018f, 0.15911929309368133545f, 0.07256650924682617188f, 0.19186881184577941895f, -0.03302901983261108398f, 0.00078687240602448583f, -0.10256014764308929443f, 0.08514183014631271362f, 0.20174483954906463623f, -0.24005256593227386475f, -0.13863636553287506104f, 0.11564351618289947510f, -0.06456667184829711914f, 0.05804830417037010193f, 0.04997709393501281738f, 0.04980371147394180298f, -0.04373308271169662476f, -0.02351102791726589203f, 0.08537200838327407837f, -0.14918155968189239502f, -0.14914821088314056396f, -0.07030601799488067627f, -0.05823859944939613342f, -0.08313614875078201294f, 0.07434915006160736084f, -0.18848194181919097900f},
  {-0.07849190384149551392f, 0.00069981766864657402f, -0.06939235329627990723f, 0.04599758610129356384f, -0.10029117017984390259f, 0.01677490025758743286f, -0.03402580320835113525f, 0.12778238952159881592f, -0.12866871058940887451f, 0.05591991916298866272f, -0.12176816910505294800f, -0.02287788316607475281f, -0.09310909360647201538f, 0.03486033156514167786f, -0.07161531597375869751f, 0.07307843863964080811f, -0.02697020396590232849f, 0.02443469315767288208f, 0.01605316251516342163f, -0.04179872199892997742f, -0.04023015871644020081f, 0.04614632576704025269f, 0.08200395107269287109f, 0.05913528800010681152f, 0.08602596819400787354f, -0.12321728467941284180f, 0.00948597211390733719f, 0.03629258647561073303f, 0.06297583878040313721f, 0.06548770517110824585f, 0.03241541981697082520f, -0.05022768303751945496f, -0.18018661439418792725f, 0.01781718246638774872f, 0.07244871556758880615f, -0.03808774799108505249f, 0.00813877861946821213f, -0.07374549657106399536f, 0.07322201132774353027f, 0.16810613870620727539f, 0.16720707714557647705f, -0.08298913389444351196f, 0.09432852268218994141f, -0.10042746365070343018f, 0.01892974413931369781f, 0.00081043998943641782f, 0.10299568623304367065f, -0.14346180856227874756f, 0.04360006377100944519f, 0.07450772076845169067f, -0.01926964148879051208f, -0.11444104462862014771f, -0.06972507387399673462f, 0.14625510573387145996f, 0.10411845892667770386f, -0.02539467066526412964f, -0.02494606189429759979f, 0.05967437848448753357f, -0.25284391641616821289f, -0.11775175482034683228f, 0.10137148201465606689f, 0.17506931722164154053f, 0.12306936830282211304f, -0.07009547948837280273f},
  {0.07049620151519775391f, -0.00369733222760260105f, -0.47921168804168701172f, -0.04906249046325683594f, -0.35467037558555603027f, 0.13413134217262268066f, 0.10120458900928497314f, 0.43871787190437316895f, 0.16114860773086547852f, 0.12966094911098480225f, -0.35661014914512634277f, 0.20862112939357757568f, -0.05417724326252937317f, -0.03457152098417282104f, -0.19081011414527893066f, -0.08369442820549011230f, 0.16106759011745452881f, -0.00334940454922616482f, -0.22421592473983764648f, -0.24145321547985076904f, 0.10561922937631607056f, -0.13127875328063964844f, -0.07881485670804977417f, -0.17702160775661468506f, -0.04434686526656150818f, -0.45637333393096923828f, 0.00759414490312337875f, -0.09734830260276794434f, 0.02482068724930286407f, 0.80506324768066406250f, 0.19219768047332763672f, -0.29349657893180847168f, 0.15337800979614257812f, 0.67752379179000854492f, -0.38528311252593994141f, -0.12489546835422515869f, -0.04034496843814849854f, -0.10493605583906173706f, 0.07659209519624710083f, -0.00217592599801719189f, -0.04618627578020095825f, 0.29617434740066528320f, 0.06687365472316741943f, 0.20958858728408813477f, 0.06918531656265258789f, 0.21204531192779541016f, -0.09505709260702133179f, -0.23876985907554626465f, -0.05134662240743637085f, 0.18781898915767669678f, 0.23321108520030975342f, -0.25190073251724243164f, 0.20194467902183532715f, 0.10269165784120559692f, -0.19278299808502197266f, 0.08472562581300735474f, -0.31091320514678955078f, 0.26065662503242492676f, 0.04675184562802314758f, -0.04411299899220466614f, 0.06233830377459526062f, -0.12768793106079101562f, 0.23106481134891510010f, -0.17689506709575653076f},
  {-0.05075174570083618164f, -0.05684540420770645142f, 0.27971968054771423340f, -0.05406426265835762024f, 0.27916395664215087891f, 0.04811197519302368164f, -0.03538171201944351196f, -0.19527339935302734375f, 0.15679349005222320557f, -0.11850599199533462524f, 0.22077010571956634521f, 0.03279273211956024170f, -0.02148386836051940918f, -0.00158313207793980837f, 0.06151685491204261780f, -0.01406270544975996017f, -0.10530460625886917114f, -0.07692061364650726318f, 0.06902553141117095947f, 0.22009284794330596924f, -0.01526324264705181122f, -0.09617540240287780762f, -0.06749854981899261475f, -0.09727831929922103882f, -0.04324778541922569275f, 0.37761944532394409180f, 0.06835795193910598755f, 0.02192572131752967834f, -0.03194572404026985168f, -0.09620690345764160156f, -0.23270747065544128418f, 0.33105245232582092285f, 0.08029507845640182495f, 0.04078055918216705322f, -0.00263775535859167576f, 0.18098096549510955811f, 0.10106609761714935303f, 0.05888972803950309753f, -0.08756037056446075439f, 0.06935800611972808838f, 0.10887124389410018921f, -0.12532889842987060547f, 0.07474476844072341919f, -0.06258793175220489502f, -0.25559425354003906250f, -0.06539361923933029175f, 0.07336296886205673218f, 0.20395573973655700684f, -0.09218689799308776855f, 0.02724451012909412384f, -0.09472863376140594482f, 0.17234805226325988770f, 0.06267067044973373413f, -0.05847661569714546204f, -0.03416175022721290588f, 0.23064641654491424561f, 0.15012253820896148682f, 0.05717131495475769043f, -0.03563924878835678101f, 0.03614669293165206909f, -0.09704598039388656616f, -0.16838407516479492188f, -0.12355160713195800781f, -0.14145147800445556641f},
  {0.09457486867904663086f, 0.01559154968708753586f, -0.33042874932289123535f, 0.01832815818488597870f, -0.37436720728874206543f, 0.01568216830492019653f, -0.00038747870712541044f, 0.26327797770500183105f, -0.11971934884786605835f, 0.10227995365858078003f, -0.27177500724792480469f, 0.14052776992321014404f, -0.14765912294387817383f, 0.26774114370346069336f, -0.08216633647680282593f, -0.07949887216091156006f, -0.00715029658749699593f, -0.01091013476252555847f, 0.02541947364807128906f, 0.03712826967239379883f, 0.04511990025639533997f, -0.12964387238025665283f, 0.10494164377450942993f, -0.00925844814628362656f, 0.06860131770372390747f, -0.44203418493270874023f, -0.12657874822616577148f, 0.08675444871187210083f, 0.18374417722225189209f, 0.40147650241851806641f, 0.24347670376300811768f, -0.36003774404525756836f, -0.17060068249702453613f, 0.00188385287765413523f, -0.07436633110046386719f, -0.20655417442321777344f, 0.03636667132377624512f, 0.11060676723718643188f, 0.22111886739730834961f, -0.16093349456787109375f, 0.00285714631900191307f, 0.02360192500054836273f, 0.03792334720492362976f, 0.19522440433502197266f, 0.29617106914520263672f, -0.05691203102469444275f, -0.00660487217828631401f, -0.06350878626108169556f, 0.06552989780902862549f, 0.06557554006576538086f, 0.13287088274955749512f, -0.01595893129706382751f, 0.04241709783673286438f, -0.09197919070720672607f, -0.15176159143447875977f, -0.31928247213363647461f, -0.22709377110004425049f, 0.13509629666805267334f, -0.11788896471261978149f, 0.00426105828955769539f, 0.09165693819522857666f, 0.25169920921325683594f, 0.02096191421151161194f, 0.16911865770816802979f},
  {-0.06613089144229888916f, -0.00665625976398587227f, -0.02129072509706020355f, -0.08328282088041305542f, 0.15593262016773223877f, 0.11028195917606353760f, -0.03012307919561862946f, 0.17661873996257781982f, -0.20397961139678955078f, 0.12841857969760894775f, -0.01549159176647663116f, 0.34532818198204040527f, -0.04929099604487419128f, 0.04241742566227912903f, 0.02723238430917263031f, -0.13209237158298492432f, 0.13948291540145874023f, -0.14690478146076202393f, -0.08556621521711349487f, 0.03788575902581214905f, 0.00561796035617589951f, -0.35401868820190429688f, 0.09533246606588363647f, 0.11687364429235458374f, -0.12961852550506591797f, -0.22098359465599060059f, 0.00532580725848674774f, -0.14906966686248779297f, -0.12526431679725646973f, 0.35990664362907409668f, 0.02900389395654201508f, -0.15449383854866027832f, 0.00314316526055335999f, 0.21160304546356201172f, -0.07702557742595672607f, -0.28762713074684143066f, -0.00222776457667350769f, -0.11599963158369064331f, 0.00846566166728734970f, -0.27642410993576049805f, -0.12163850665092468262f, 0.10074420273303985596f, 0.11333708465099334717f, 0.12461584061384201050f, 0.01011327467858791351f, 0.01348223350942134857f, -0.29158657789230346680f, -0.12945416569709777832f, 0.12307149916887283325f, -0.05958957970142364502f, 0.05684264376759529114f, -0.12483112514019012451f, 0.33488300442695617676f, -0.07562334835529327393f, -0.17605419456958770752f, 0.05074751749634742737f, -0.03605964779853820801f, 0.33120116591453552246f, 0.05453010648488998413f, -0.08753572404384613037f, 0.16362832486629486084f, -0.04958292096853256226f, -0.00497125275433063507f, -0.07607205212116241455f},
  {-0.08831529319286346436f, 0.08608666807413101196f, -0.03565892577171325684f, 0.04229137301445007324f, 0.12423508614301681519f, -0.07765258103609085083f, 0.27980566024780273438f, -0.11196180433034896851f, -0.04843880236148834229f, 0.03040225058794021606f, 0.29883310198783874512f, -0.04848217591643333435f, -0.00739480694755911827f, -0.04239651188254356384f, 0.01509849634021520615f, -0.04864524677395820618f, -0.04474541172385215759f, 0.13254551589488983154f, 0.05894423648715019226f, -0.12529677152633666992f, -0.07847654074430465698f, -0.22326351702213287354f, -0.09083868563175201416f, -0.00612375186756253242f, 0.06300638616085052490f, 0.29757687449455261230f, 0.01915777474641799927f, 0.01907520741224288940f, -0.15653157234191894531f, -0.00014731923874933273f, -0.08800733089447021484f, 0.20989187061786651611f, 0.01779604144394397736f, 0.03486875444650650024f, 0.04579584673047065735f, -0.05946686863899230957f, 0.00307539640925824642f, 0.22661276161670684814f, -0.05438342317938804626f, -0.04253221675753593445f, -0.00899888947606086731f, -0.10951586812734603882f, -0.15864695608615875244f, 0.13773091137409210205f, -0.14735582470893859863f, -0.06642495840787887573f, -0.15133740007877349854f, 0.20106600224971771240f, 0.09338803589344024658f, -0.03991432115435600281f, -0.14078855514526367188f, 0.06346678733825683594f, -0.13813999295234680176f, -0.00626142136752605438f, -0.10661489516496658325f, 0.01352292671799659729f, 0.21968780457973480225f, 0.04791114851832389832f, -0.00688224611803889275f, 0.00095019536092877388f, 0.12912841141223907471f, -0.14815741777420043945f, -0.05432626977562904358f, 0.01074607949703931808f},
  {-0.09838257730007171631f, -0.05776646360754966736f, 0.04973798990249633789f, -0.02713767997920513153f, 0.19199095666408538818f, -0.01594584994018077850f, 0.14334104955196380615f, 0.13067260384559631348f, -0.08827875554561614990f, 0.02553554438054561615f, 0.00114127725828438997f, 0.21274672448635101318f, 0.16855564713478088379f, 0.23787650465965270996f, 0.02317238785326480865f, -0.10095030069351196289f, -0.02788454107940196991f, -0.07047048211097717285f, 0.10571546852588653564f, 0.08659525960683822632f, -0.01739808730781078339f, -0.12485882639884948730f, -0.05416119471192359924f, -0.02310277335345745087f, -0.02834749780595302582f, -0.28236302733421325684f, 0.01247011311352252960f, 0.03644844144582748413f, -0.32805982232093811035f, 0.26771447062492370605f, -0.10263630747795104980f, 0.14732839167118072510f, -0.06833538413047790527f, -0.01885527558624744415f, -0.12330403178930282593f, -0.23873487114906311035f, -0.19275073707103729248f, -0.15292230248451232910f, 0.05355687439441680908f, -0.33566039800643920898f, -0.07588239759206771851f, 0.00911209639161825180f, -0.06604132056236267090f, 0.06317638605833053589f, 0.13872590661048889160f, 0.01764345914125442505f, -0.44126540422439575195f, 0.23901323974132537842f, 0.02465192228555679321f, -0.10295999050140380859f, -0.07460645586252212524f, -0.08960501104593276978f, 0.23221480846405029297f, -0.14584182202816009521f, -0.11540601402521133423f, 0.13607066869735717773f, 0.08631749451160430908f, -0.04552121460437774658f, 0.22155310213565826416f, 0.05506915971636772156f, -0.01237690169364213943f, -0.11292020231485366821f, -0.09967350214719772339f, 0.03710503503680229187f},
  {0.08567654341459274292f, -0.06763461977243423462f, -0.13082556426525115967f, 0.02599298208951950073f, -0.25925758481025695801f, -0.06831235438585281372f, -0.22841422259807586670f, 0.17038650810718536377f, -0.15597292780876159668f, -0.05141090601682662964f, -0.06817430257797241211f, -0.03601801022887229919f, 0.01537189073860645294f, 0.05849345773458480835f, -0.04992847889661788940f, 0.01764943264424800873f, 0.09107632935047149658f, 0.05604898929595947266f, 0.02499458007514476776f, 0.00251606805250048637f, 0.00957198161631822586f, -0.02989851869642734528f, 0.19335503876209259033f, 0.14667977392673492432f, -0.01728771254420280457f, -0.27196767926216125488f, -0.14056883752346038818f, 0.07461814582347869873f, 0.05659025162458419800f, 0.30751687288284301758f, 0.16532848775386810303f, -0.28145939111709594727f, -0.14343535900115966797f, 0.08367805927991867065f, 0.02289671637117862701f, -0.21273201704025268555f, 0.06699983775615692139f, -0.10503298789262771606f, 0.05607295781373977661f, -0.06750987470149993896f, 0.14466682076454162598f, -0.00174610107205808163f, -0.02973881922662258148f, -0.02406812459230422974f, 0.13429008424282073975f, 0.09648847579956054688f, 0.12272668629884719849f, -0.25084203481674194336f, 0.10731379687786102295f, -0.01905900985002517700f, 0.10724864155054092407f, -0.04089782014489173889f, -0.06620791554450988770f, 0.04901236295700073242f, -0.07607972621917724609f, -0.27724283933639526367f, -0.22274683415889739990f, 0.08216860145330429077f, -0.22149915993213653564f, -0.16237546503543853760f, 0.11772789061069488525f, 0.19612656533718109131f, 0.26064971089363098145f, 0.02592999301850795746f},
  {0.06556812673807144165f, 0.13491696119308471680f, 0.07490395754575729370f, -0.17947614192962646484f, 0.23059235513210296631f, -0.06584924459457397461f, 0.06759351491928100586f, -0.24523770809173583984f, 0.11888642609119415283f, -0.14736716449260711670f, 0.14077934622764587402f, 0.44859448075294494629f, 0.04168222099542617798f, 0.14661602675914764404f, 0.02624798566102981567f, -0.11674577742815017700f, -0.17561201751232147217f, 0.02353402785956859589f, -0.16057842969894409180f, -0.17449334263801574707f, 0.21484905481338500977f, -0.12282387167215347290f, -0.11088714003562927246f, -0.18722622096538543701f, 0.07328755408525466919f, 0.04085085913538932800f, 0.11760126799345016479f, -0.21834230422973632812f, -0.26989975571632385254f, -0.00367731298319995403f, -0.08123459666967391968f, 0.11110460758209228516f, -0.17510843276977539062f, 0.16707372665405273438f, -0.07251750677824020386f, -0.34279856085777282715f, -0.24132858216762542725f, -0.04051465913653373718f, 0.03877240419387817383f, -0.03527282550930976868f, -0.19990132749080657959f, 0.03986035659909248352f, 0.09501787275075912476f, 0.06335884332656860352f, -0.03929342702031135559f, 0.06135185435414314270f, -0.00077112909639254212f, -0.09958344697952270508f, 0.01428073365241289139f, 0.03092939779162406921f, 0.10237736999988555908f, 0.20145502686500549316f, -0.00644498458132147789f, -0.28289961814880371094f, 0.06049327924847602844f, 0.22188410162925720215f, 0.31620272994041442871f, -0.02323661372065544128f, 0.57743608951568603516f, 0.05173533037304878235f, -0.13776670396327972412f, -0.39126527309417724609f, -0.32832786440849304199f, -0.05425693094730377197f},
  {0.42925450205802917480f, 0.11578144133090972900f, -0.17746092379093170166f, -0.08307621628046035767f, 0.32298952341079711914f, -0.50202029943466186523f, -0.50837326049804687500f, -0.04030059278011322021f, 0.29212912917137145996f, 0.21285013854503631592f, -0.02572718076407909393f, -0.28970387578010559082f, -0.15817023813724517822f, 0.17826589941978454590f, 0.09170922636985778809f, -0.02332182601094245911f, 1.14056038856506347656f, 0.15534989535808563232f, -0.31784546375274658203f, 0.08947288244962692261f, 0.69055521488189697266f, 1.15811347961425781250f, -0.36197766661643981934f, 0.15335354208946228027f, -0.06254204362630844116f, 0.04880518838763237000f, 0.07725225389003753662f, 0.40711566805839538574f, -0.04544182494282722473f, -0.28857305645942687988f, -0.28991943597793579102f, -0.18152348697185516357f, -0.14185233414173126221f, 0.04221936687827110291f, -0.25500532984733581543f, 0.11988825350999832153f, 0.80478155612945556641f, 0.26340144872665405273f, 0.50408357381820678711f, 0.01190805528312921524f, -0.03349395468831062317f, 0.43810325860977172852f, -0.54977118968963623047f, 0.33248203992843627930f, -0.26716899871826171875f, -0.71663945913314819336f, -0.34976845979690551758f, 0.18332383036613464355f, 0.03831994161009788513f, -0.56215637922286987305f, 0.29043877124786376953f, 0.14862833917140960693f, -0.05186191201210021973f, -0.27149978280067443848f, 0.52630269527435302734f, -0.16742357611656188965f, -0.19522637128829956055f, 0.54320830106735229492f, -0.18691112101078033447f, -0.29520437121391296387f, 0.05769075080752372742f, 0.02091176249086856842f, 0.02135159447789192200f, -0.05120272934436798096f},
  {0.01720594428479671478f, -0.14018806815147399902f, -0.57791191339492797852f, 0.10845670849084854126f, -0.51146215200424194336f, 0.01510480698198080063f, -0.18536557257175445557f, 0.04296204820275306702f, -0.21693441271781921387f, -0.16158720850944519043f, 0.05370331555604934692f, -0.17395147681236267090f, -0.01090333517640829086f, -0.07076161354780197144f, 0.06463346630334854126f, 0.31872522830963134766f, 0.05375496298074722290f, -0.15497399866580963135f, 0.41684973239898681641f, -0.14064463973045349121f, 0.21051859855651855469f, -0.26312002539634704590f, -0.18500137329101562500f, -0.16936533153057098389f, 0.33496794104576110840f, 0.49331954121589660645f, -0.40251713991165161133f, 0.07615812122821807861f, 0.15414394438266754150f, -0.04389884322881698608f, -0.10612639784812927246f, -0.18229195475578308105f, -0.05441931635141372681f, 0.43803045153617858887f, -0.12460348010063171387f, 0.00083173939492553473f, 0.20697125792503356934f, 0.00529848178848624229f, 0.04101682081818580627f, -0.01012346241623163223f, 0.24926611781120300293f, -0.01633497886359691620f, 0.27268651127815246582f, 0.32407969236373901367f, 0.29465973377227783203f, 0.05271969363093376160f, 0.15498414635658264160f, 0.03742977231740951538f, 0.22870236635208129883f, 0.42819893360137939453f, 0.09138203412294387817f, 0.03577242791652679443f, -0.54232013225555419922f, 0.29360646009445190430f, -0.04351409152150154114f, -0.34562787413597106934f, -0.03002110123634338379f, 0.04947804287075996399f, -0.34046298265457153320f, 0.28481751680374145508f, -0.04561173170804977417f, 0.14098298549652099609f, 0.23672176897525787354f, 0.12435672432184219360f},
  {-0.13371448218822479248f, -0.02742081880569458008f, -0.01015309896320104599f, -0.13316160440444946289f, -0.00654234969988465309f, -0.19937458634376525879f, -0.06611151993274688721f, 0.14391046762466430664f, 0.01886817812919616699f, -0.08259919285774230957f, 0.38635611534118652344f, 0.15724778175354003906f, 0.36350885033607482910f, -0.02015985362231731415f, 0.10439310222864151001f, -0.30070447921752929688f, 0.02638747729361057281f, 0.13468380272388458252f, 0.04868204146623611450f, -0.33062499761581420898f, -0.11150727421045303345f, 0.06691375374794006348f, 0.00331067969091236591f, -0.00000023099630652723f, 0.15314479172229766846f, -0.07443413138389587402f, -0.07758914679288864136f, 0.02704288065433502197f, -0.25173768401145935059f, 0.16227842867374420166f, -0.05295785143971443176f, 0.11165487766265869141f, 0.10923936963081359863f, 0.07042045891284942627f, 0.02550125122070312500f, -0.12191005051136016846f, -0.01739519834518432617f, 0.06707239151000976562f, -0.14711205661296844482f, 0.03265533968806266785f, 0.09274218231439590454f, 0.19226568937301635742f, 0.02255936525762081146f, 0.24424432218074798584f, 0.02139779925346374512f, 0.00253963191062211990f, 0.14567714929580688477f, -0.02759585343301296234f, -0.03172877058386802673f, -0.05175682902336120605f, 0.03390939906239509583f, 0.14920258522033691406f, -0.11075595766305923462f, 0.02265392802655696869f, -0.02840901538729667664f, 0.08426917344331741333f, 0.31701335310935974121f, 0.14609171450138092041f, 0.20478671789169311523f, 0.12196713685989379883f, -0.09690259397029876709f, -0.00549079943448305130f, -0.16479751467704772949f, 0.02116144448518753052f},
  {0.05035257339477539062f, 0.04735527187585830688f, -0.63067328929901123047f, 0.23852248489856719971f, -0.37688288092613220215f, -0.02749108895659446716f, -0.09670373797416687012f, 0.13465037941932678223f, 0.07200857996940612793f, -0.09232378005981445312f, -0.00409317761659622192f, 0.11556078493595123291f, -0.06807511299848556519f, -0.11105668544769287109f, 0.09534337371587753296f, 0.30763822793960571289f, -0.00829216465353965759f, 0.03335756808519363403f, 0.11511520296335220337f, -0.21489188075065612793f, 0.12308868765830993652f, -0.04729028046131134033f, -0.37369632720947265625f, -0.52671378850936889648f, 0.16000349819660186768f, 0.32956624031066894531f, -0.19798587262630462646f, -0.00505627878010272980f, 0.13815750181674957275f, 0.12549568712711334229f, 0.04405973851680755615f, -0.29200825095176696777f, -0.05390517413616180420f, 0.74431192874908447266f, -0.23148468136787414551f, -0.20385961234569549561f, 0.10625485330820083618f, -0.19614927470684051514f, 0.00704550649970769882f, -0.04857090860605239868f, 0.14823186397552490234f, -0.07995563000440597534f, 0.22633500397205352783f, 0.29101711511611938477f, -0.05609621852636337280f, 0.08627471327781677246f, 0.07430659979581832886f, -0.03459160029888153076f, 0.08015612512826919556f, 0.54134321212768554688f, -0.02126664109528064728f, 0.08194845169782638550f, -0.48904702067375183105f, -0.01697549968957901001f, -0.16349013149738311768f, 0.06677103042602539062f, -0.05115129798650741577f, 0.01174026820808649063f, -0.03299097716808319092f, 0.16531710326671600342f, -0.14088818430900573730f, -0.22549621760845184326f, 0.41287574172019958496f, 0.01026686374098062515f},
  {0.11836373805999755859f, 0.13676033914089202881f, -0.11242415755987167358f, -0.07208102196455001831f, -0.07490168511867523193f, 0.00475029693916440010f, -0.07173793762922286987f, -0.21662494540214538574f, 0.13758496940135955811f, 0.01444663293659687042f, -0.08283997327089309692f, -0.23553082346916198730f, -0.17099162936210632324f, -0.10564544051885604858f, 0.06180569529533386230f, 0.05956719443202018738f, 0.01636825688183307648f, 0.10512014478445053101f, -0.01469689328223466873f, -0.00850427988916635513f, -0.02837003581225872040f, 0.23936042189598083496f, -0.05079283565282821655f, 0.15267971158027648926f, 0.10013844817876815796f, 0.28124743700027465820f, -0.04756778478622436523f, 0.03426191955804824829f, -0.00042874782229773700f, -0.22744406759738922119f, -0.00290596741251647472f, -0.16773352026939392090f, -0.05114116519689559937f, -0.13991191983222961426f, 0.16307334601879119873f, 0.48010745644569396973f, 0.26462829113006591797f, -0.02486071921885013580f, -0.00697735277935862541f, 0.13711920380592346191f, 0.32912036776542663574f, 0.15384499728679656982f, 0.15237104892730712891f, 0.04790000617504119873f, 0.01309444941580295563f, 0.15190672874450683594f, 0.38646209239959716797f, -0.20882582664489746094f, -0.01998290978372097015f, 0.02948413044214248657f, 0.09361210465431213379f, -0.03860154747962951660f, -0.11479123681783676147f, 0.19445045292377471924f, -0.01434545312076807022f, 0.06858596950769424438f, 0.09894093126058578491f, -0.11797833442687988281f, -0.25552222132682800293f, 0.06012989208102226257f, 0.03511650860309600830f, 0.13568440079689025879f, 0.11265078186988830566f, 0.04424964264035224915f},
  {0.08247645944356918335f, -0.24015042185783386230f, -0.12350116670131683350f, 0.08179307729005813599f, -0.00953548774123191833f, 0.14328485727310180664f, -0.07743469625711441040f, -0.15379460155963897705f, 0.33656573295593261719f, -0.22542588412761688232f, 0.01473805587738752365f, -0.26168739795684814453f, 0.01686268486082553864f, -0.23207437992095947266f, -0.11150682717561721802f, 0.14057305455207824707f, 0.19212147593498229980f, 0.00200321222655475140f, 0.13798618316650390625f, 0.22734233736991882324f, 0.03338568285107612610f, 0.03492584452033042908f, -0.22402143478393554688f, 0.06776808202266693115f, 0.28655183315277099609f, 0.39092311263084411621f, 0.09690173715353012085f, 0.22110894322395324707f, 0.04184904694557189941f, -0.54908812046051025391f, 0.00937690585851669312f, 0.13120810687541961670f, 0.06766734272241592407f, -0.07921307533979415894f, 0.27961248159408569336f, 0.57417398691177368164f, 0.42307063937187194824f, 0.02448270469903945923f, 0.01197633426636457443f, 0.09536927193403244019f, 0.49917748570442199707f, -0.23804977536201477051f, 0.13904407620429992676f, -0.04711910337209701538f, -0.00281122396700084209f, 0.29340001940727233887f, 0.44385969638824462891f, 0.08428346365690231323f, -0.05132885649800300598f, -0.03487576171755790710f, -0.07057916373014450073f, 0.27093279361724853516f, -0.32821214199066162109f, 0.25353005528450012207f, -0.00706296786665916443f, 0.18711912631988525391f, -0.07957509905099868774f, -0.11827550828456878662f, -0.01260329503566026688f, 0.18120206892490386963f, -0.07362322509288787842f, 0.12149629741907119751f, -0.14176885783672332764f, 0.13547566533088684082f},
  {-0.05613893270492553711f, 0.15944112837314605713f, 0.31922915577888488770f, 0.01009805779904127121f, 0.15860687196254730225f, 0.02584443427622318268f, 0.05497575923800468445f, -0.31656154990196228027f, 0.32247671484947204590f, -0.20979419350624084473f, 0.07154704630374908447f, -0.09044861793518066406f, 0.12398353219032287598f, -0.20752413570880889893f, 0.15433648228645324707f, -0.04762056842446327209f, 0.00304889073595404625f, 0.11589296162128448486f, -0.21636383235454559326f, 0.11707209795713424683f, 0.03279545903205871582f, 0.14652977883815765381f, 0.01122260466217994690f, -0.03330896794795989990f, 0.08621840178966522217f, 0.12775668501853942871f, 0.33892899751663208008f, 0.10327540338039398193f, -0.15499986708164215088f, -0.13761506974697113037f, -0.11128687113523483276f, 0.04467596486210823059f, 0.20161530375480651855f, -0.16526140272617340088f, -0.09301501512527465820f, 0.33523878455162048340f, 0.17103725671768188477f, 0.00271609029732644558f, -0.02826194837689399719f, 0.10702180862426757812f, 0.12636321783065795898f, 0.08985645323991775513f, -0.03916399925947189331f, -0.20749822258949279785f, -0.16717694699764251709f, 0.07530824840068817139f, -0.01368466764688491821f, 0.10026931017637252808f, -0.13002488017082214355f, -0.05859059467911720276f, -0.03026183135807514191f, 0.10882775485515594482f, 0.07573915272951126099f, -0.05122338980436325073f, -0.05191825702786445618f, 0.30087623000144958496f, 0.19652765989303588867f, -0.22394764423370361328f, 0.23803164064884185791f, 0.03094334155321121216f, -0.11120315641164779663f, -0.30994594097137451172f, -0.04838836938142776489f, -0.08507925271987915039f},
  {-0.17814810574054718018f, -0.03650826588273048401f, -0.28387942910194396973f, 0.08505208045244216919f, -0.17090837657451629639f, 0.07315902411937713623f, -0.04888929054141044617f, 0.24125519394874572754f, -0.06989663094282150269f, 0.07780533283948898315f, -0.09181258082389831543f, 0.07516206055879592896f, -0.04488650336861610413f, 0.28273972868919372559f, -0.09177348017692565918f, 0.02093117125332355499f, -0.00262129469774663448f, -0.06144100800156593323f, -0.06958723068237304688f, -0.15279039740562438965f, -0.09563340991735458374f, -0.13661971688270568848f, 0.12798872590065002441f, -0.02223384007811546326f, -0.02446248941123485565f, -0.30480203032493591309f, -0.20599746704101562500f, -0.03198992088437080383f, -0.03419461101293563843f, 0.32803201675415039062f, 0.19024860858917236328f, -0.17882883548736572266f, -0.05842690169811248779f, 0.15169134736061096191f, -0.02565776370465755463f, -0.29435297846794128418f, -0.06760733574628829956f, -0.03320850059390068054f, 0.16827741265296936035f, -0.15620750188827514648f, 0.04395818710327148438f, -0.02857217937707901001f, -0.07217234373092651367f, -0.03496081382036209106f, 0.07530938833951950073f, 0.06950183957815170288f, -0.10904800146818161011f, 0.00596238300204277039f, 0.18958839774131774902f, -0.09241046011447906494f, 0.12922507524490356445f, -0.10029479116201400757f, 0.06743920594453811646f, -0.03713221475481987000f, -0.08996742963790893555f, -0.02933132462203502655f, -0.22368958592414855957f, 0.07094293087720870972f, 0.02702202647924423218f, -0.18898330628871917725f, -0.00451951706781983376f, 0.16135905683040618896f, -0.00765029201284050941f, 0.11097829788923263550f},
  {-0.09725558012723922729f, 0.05313114076852798462f, -0.35836407542228698730f, 0.00158424198161810637f, -0.20848219096660614014f, -0.00226959050633013248f, -0.10940550267696380615f, 0.28591060638427734375f, -0.22454980015754699707f, 0.18105395138263702393f, -0.23275233805179595947f, 0.03685047104954719543f, -0.09461560845375061035f, 0.18676553666591644287f, -0.09473459422588348389f, 0.01902118697762489319f, -0.10900755971670150757f, 0.01606348529458045959f, 0.11923154443502426147f, -0.12016330659389495850f, 0.05311289057135581970f, -0.05192602798342704773f, 0.06348870694637298584f, 0.15975826978683471680f, -0.11710057407617568970f, -0.40038824081420898438f, -0.07785150408744812012f, 0.05612246692180633545f, -0.04511884972453117371f, 0.40612143278121948242f, 0.06233294308185577393f, -0.24865317344665527344f, -0.05886840075254440308f, 0.17789717018604278564f, 0.04642323032021522522f, -0.23778721690177917480f, -0.05913780629634857178f, -0.13980413973331451416f, 0.19287636876106262207f, -0.14087457954883575439f, 0.07313589006662368774f, 0.07047682255506515503f, 0.06196381524205207825f, 0.14536862075328826904f, 0.05666537955403327942f, 0.11187604814767837524f, -0.15372829139232635498f, -0.23603436350822448730f, 0.14755474030971527100f, 0.05468297749757766724f, 0.02451556175947189331f, -0.06333944201469421387f, 0.05241093412041664124f, -0.02156284265220165253f, -0.09841099381446838379f, -0.28441917896270751953f, -0.18687097728252410889f, 0.25028562545776367188f, -0.28899049758911132812f, -0.22234462201595306396f, 0.06082926318049430847f, 0.22087258100509643555f, 0.09447879344224929810f, 0.21209715306758880615f},
  {-0.10810667276382446289f, -0.06691471487283706665f, -0.03351866081357002258f, -0.01755305938422679901f, 0.11077883094549179077f, 0.07625962048768997192f, 0.29390728473663330078f, 0.02658192813396453857f, 0.04037952050566673279f, 0.11241977661848068237f, 0.05001904070377349854f, 0.35990011692047119141f, -0.04916925728321075439f, 0.04801011458039283752f, 0.13446931540966033936f, -0.15366406738758087158f, -0.02692424878478050232f, -0.09098260849714279175f, 0.04308513924479484558f, 0.08778093010187149048f, 0.01074819173663854599f, -0.19314461946487426758f, 0.09713238477706909180f, -0.11363283544778823853f, -0.03232160210609436035f, 0.04242930188775062561f, 0.15552288293838500977f, -0.10657462477684020996f, -0.26654767990112304688f, -0.10550745576620101929f, -0.15907803177833557129f, 0.15170298516750335693f, -0.01206604763865470886f, 0.08900431543588638306f, -0.02466523647308349609f, -0.27002811431884765625f, -0.17490242421627044678f, -0.13314855098724365234f, -0.05419838055968284607f, -0.19070596992969512939f, -0.25329744815826416016f, 0.02077170833945274353f, -0.06597963720560073853f, 0.00914046727120876312f, 0.09158212691545486450f, -0.01162715628743171692f, -0.29768636822700500488f, 0.28720417618751525879f, -0.09524991363286972046f, -0.04733500257134437561f, 0.07372494786977767944f, 0.11654733121395111084f, 0.07745521515607833862f, -0.08988431096076965332f, 0.05439008399844169617f, 0.10986574739217758179f, -0.00862712319940328598f, 0.07627452164888381958f, 0.23494499921798706055f, 0.09039154648780822754f, 0.06833951175212860107f, -0.06940180063247680664f, -0.14936135709285736084f, -0.04952513054013252258f},
  {-0.16637556254863739014f, -0.18995863199234008789f, -0.57637119293212890625f, 0.22389742732048034668f, -0.50956833362579345703f, 0.04308876395225524902f, 0.01826984062790870667f, -0.11659320443868637085f, -0.27270844578742980957f, -0.22843733429908752441f, 0.20019471645355224609f, -0.10993616282939910889f, 0.09080086648464202881f, -0.08273028582334518433f, -0.10329313576221466064f, 0.40258598327636718750f, 0.01147161517292261124f, 0.07182876765727996826f, 0.17479236423969268799f, -0.14527711272239685059f, 0.22903749346733093262f, 0.07477618008852005005f, -0.46845892071723937988f, -0.46064931154251098633f, 0.41403546929359436035f, 0.67986720800399780273f, -0.25153926014900207520f, 0.20446434617042541504f, 0.44730570912361145020f, -0.07816799730062484741f, 0.17308509349822998047f, 0.07891087979078292847f, -0.17560160160064697266f, 0.54679173231124877930f, -0.31614980101585388184f, -0.22175331413745880127f, 0.19145569205284118652f, -0.05127237737178802490f, 0.16894778609275817871f, -0.00743103818967938423f, 0.00072988792089745402f, -0.34329453110694885254f, 0.27551957964897155762f, 0.43423867225646972656f, -0.18394105136394500732f, 0.01470024045556783676f, -0.00297367060557007790f, 0.06560870260000228882f, 0.13097271323204040527f, 0.52965670824050903320f, -0.09521953016519546509f, -0.08815944939851760864f, -0.74822449684143066406f, 0.01540596596896648407f, -0.09210962057113647461f, -0.15330535173416137695f, -0.15255634486675262451f, -0.00373428734019398689f, 0.02294218540191650391f, 0.11868055164813995361f, -0.25543516874313354492f, -0.21039290726184844971f, 0.43098285794258117676f, -0.02956788614392280579f},
  {-0.03574033826589584351f, -0.14813308417797088623f, -0.21109503507614135742f, 0.07586430758237838745f, -0.16258500516414642334f, 0.14942348003387451172f, -0.05037158355116844177f, 0.24429954588413238525f, -0.12770329415798187256f, 0.21393869817256927490f, -0.19608393311500549316f, 0.21182949841022491455f, 0.09256996959447860718f, 0.17121288180351257324f, 0.01672659069299697876f, 0.05712898448109626770f, -0.00134109484497457743f, 0.06533347815275192261f, -0.00259604211896657944f, -0.01950867474079132080f, 0.04402248561382293701f, -0.27002543210983276367f, 0.13622285425662994385f, 0.10033460706472396851f, 0.04135717079043388367f, -0.30176442861557006836f, -0.15496030449867248535f, -0.12945264577865600586f, 0.01695243269205093384f, 0.34117430448532104492f, 0.09496087580919265747f, -0.17744982242584228516f, -0.03334665670990943909f, 0.26463434100151062012f, -0.14140529930591583252f, -0.28612667322158813477f, 0.08012240380048751831f, -0.03723142296075820923f, 0.17461125552654266357f, -0.10411459207534790039f, -0.08765161037445068359f, 0.09831777960062026978f, -0.04833468049764633179f, 0.08028992265462875366f, 0.17953990399837493896f, 0.07715593278408050537f, -0.15027104318141937256f, -0.14223206043243408203f, 0.22230334579944610596f, 0.06200520321726799011f, 0.02218579687178134918f, 0.05604072660207748413f, 0.01688355207443237305f, 0.00031894253334030509f, -0.01613348722457885742f, -0.13102948665618896484f, -0.23446857929229736328f, 0.13464128971099853516f, -0.00140118109993636608f, -0.19594456255435943604f, 0.00444674631580710411f, 0.11024891585111618042f, 0.05009558796882629395f, 0.15792255103588104248f},
  {-0.01592029258608818054f, -0.16238425672054290771f, -0.06322446465492248535f, 0.12984579801559448242f, -0.11371307820081710815f, 0.06651482731103897095f, 0.01491523347795009613f, -0.07304561883211135864f, 0.02667300961911678314f, -0.04512849822640419006f, -0.02138982154428958893f, 0.23234485089778900146f, 0.09695412218570709229f, 0.03748539090156555176f, 0.07503002136945724487f, -0.00563339889049530029f, 0.16333393752574920654f, 0.11200558394193649292f, 0.14293169975280761719f, 0.12179873138666152954f, 0.11391213536262512207f, 0.12788626551628112793f, 0.15465652942657470703f, 0.01811087131500244141f, 0.06147450208663940430f, -0.06809079647064208984f, 0.00591117562726140022f, -0.07135239243507385254f, -0.05224917829036712646f, -0.10097199678421020508f, 0.20651873946189880371f, -0.07221920788288116455f, 0.13718537986278533936f, -0.02202275395393371582f, 0.14552326500415802002f, 0.10029558092355728149f, 0.05297752842307090759f, -0.04121448099613189697f, 0.08433794230222702026f, 0.08853024244308471680f, 0.10945682227611541748f, -0.02065272070467472076f, 0.01639050990343093872f, -0.06730691343545913696f, 0.24165730178356170654f, -0.04015896096825599670f, 0.24294638633728027344f, -0.12894058227539062500f, 0.03351850062608718872f, -0.06860799342393875122f, 0.06803328543901443481f, -0.00111964414827525616f, -0.19344469904899597168f, 0.13547408580780029297f, -0.01576619409024715424f, 0.00419250177219510078f, 0.03706447407603263855f, 0.08992564678192138672f, 0.14134308695793151855f, 0.00008262459596153349f, -0.01384690217673778534f, 0.12779371440410614014f, -0.00196246104314923286f, -0.03384565934538841248f},
  {0.04034369438886642456f, 0.19079710543155670166f, 0.32307940721511840820f, -0.12704768776893615723f, 0.34034645557403564453f, 0.00650464463979005814f, -0.22351935505867004395f, -0.16611665487289428711f, 0.21138189733028411865f, -0.22781594097614288330f, 0.22944909334182739258f, 0.50546443462371826172f, 0.18219733238220214844f, 0.35738503932952880859f, 0.17844472825527191162f, -0.10777042806148529053f, -0.04025384038686752319f, -0.03647108003497123718f, 0.04113582521677017212f, -0.20198638737201690674f, 0.17410629987716674805f, 0.00247922656126320362f, -0.03585738316178321838f, -0.23324780166149139404f, -0.07016962021589279175f, -0.05937743559479713440f, 0.29399344325065612793f, 0.15011733770370483398f, -0.08957582712173461914f, -0.03865629434585571289f, -0.20266318321228027344f, 0.10806914418935775757f, -0.09691999107599258423f, 0.01178146339952945709f, 0.07043638825416564941f, -0.07279632240533828735f, -0.08529084175825119019f, -0.17321623861789703369f, -0.09987561404705047607f, 0.03881967067718505859f, -0.01575738005340099335f, 0.04931129887700080872f, 0.02920405939221382141f, -0.10237048566341400146f, -0.17126528918743133545f, 0.09368196129798889160f, -0.01323330961167812347f, -0.21215993165969848633f, -0.01714156009256839752f, -0.00629240553826093674f, 0.06328748166561126709f, 0.30950275063514709473f, 0.08878701180219650269f, -0.38276284933090209961f, -0.01792375929653644562f, 0.37385499477386474609f, 0.36636614799499511719f, 0.00717583624646067619f, 0.51345700025558471680f, -0.03720494359731674194f, -0.39014080166816711426f, -0.44660699367523193359f, -0.23466160893440246582f, 0.00475947558879852295f},
  {-0.11616860330104827881f, 0.03046968579292297363f, -0.12952254712581634521f, -0.02068158797919750214f, 0.02837757579982280731f, 0.15258668363094329834f, -0.02425774186849594116f, 0.31576535105705261230f, -0.18993507325649261475f, 0.22903458774089813232f, -0.08206722140312194824f, 0.23999626934528350830f, -0.05486194416880607605f, 0.05435685440897941589f, -0.09269980341196060181f, -0.14215256273746490479f, -0.07224261760711669922f, -0.11725531518459320068f, 0.01686985604465007782f, -0.02184100821614265442f, 0.03528185933828353882f, -0.11289829760789871216f, -0.03707655519247055054f, 0.11139058321714401245f, -0.03738119825720787048f, -0.41038691997528076172f, 0.00183581467717885971f, -0.09590085595846176147f, -0.07553859055042266846f, 0.42387014627456665039f, 0.05469398573040962219f, -0.02931760065257549286f, 0.14266511797904968262f, 0.21662816405296325684f, -0.10597641766071319580f, -0.33285000920295715332f, -0.17503489553928375244f, -0.00011986551544396207f, 0.12106986343860626221f, -0.23024658858776092529f, -0.01246611215174198151f, 0.02038595639169216156f, -0.08412162959575653076f, 0.10005560517311096191f, 0.20447252690792083740f, 0.05391182377934455872f, -0.34654733538627624512f, -0.06819204986095428467f, 0.18909293413162231445f, 0.04874212667346000671f, 0.17914551496505737305f, -0.03900263831019401550f, 0.23791080713272094727f, -0.08754219859838485718f, -0.18915201723575592041f, 0.04787098988890647888f, -0.10511007905006408691f, 0.19861380755901336670f, -0.07469797134399414062f, -0.20018203556537628174f, -0.01218457240611314774f, 0.04442803561687469482f, -0.06284437328577041626f, 0.17214244604110717773f},
  {0.03373884037137031555f, -0.08883832395076751709f, 0.01099187787622213364f, 0.06543166935443878174f, 0.23535548150539398193f, 0.08599900454282760620f, 0.06151238456368446350f, -0.14700731635093688965f, -0.03738861158490180969f, 0.13382112979888916016f, 0.06471055001020431519f, 0.06879119575023651123f, -0.00341877737082540989f, 0.05292675644159317017f, 0.12628081440925598145f, -0.15846309065818786621f, 0.11180633306503295898f, -0.13483400642871856689f, -0.14491112530231475830f, 0.10487470030784606934f, 0.09675493836402893066f, -0.03545990213751792908f, -0.06508667021989822388f, -0.08288393914699554443f, -0.12343563884496688843f, 0.11221687495708465576f, 0.09688132256269454956f, -0.02024897374212741852f, -0.09524133801460266113f, -0.12300574034452438354f, 0.01275520678609609604f, 0.28283795714378356934f, 0.01477519795298576355f, -0.01967238262295722961f, -0.06547801941633224487f, -0.12445887923240661621f, -0.09425733983516693115f, 0.08933717012405395508f, -0.02347613684833049774f, -0.09334187954664230347f, -0.18181973695755004883f, 0.05515633523464202881f, 0.01928245648741722107f, -0.06698563694953918457f, 0.01243583112955093384f, -0.13687416911125183105f, -0.09312111139297485352f, 0.15418675541877746582f, -0.07707434892654418945f, -0.08308200538158416748f, -0.07570359855890274048f, 0.12636967003345489502f, 0.05606607347726821899f, -0.09408330172300338745f, -0.03902870416641235352f, 0.14984832704067230225f, 0.11375403404235839844f, 0.09964689612388610840f, 0.27323934435844421387f, 0.14517012238502502441f, 0.10854116827249526978f, -0.15815646946430206299f, -0.04879864305257797241f, 0.01079913135617971420f},
  {-0.02220937795937061310f, -0.00119416008237749338f, 0.23053164780139923096f, -0.02788199856877326965f, 0.38264325261116027832f, 0.06650855392217636108f, 0.07663173228502273560f, -0.03698579594492912292f, 0.07760868221521377563f, 0.12174074351787567139f, -0.05176420882344245911f, 0.08556653559207916260f, 0.16477687656879425049f, 0.10294365882873535156f, -0.00877147447317838669f, -0.05000791698694229126f, 0.29033204913139343262f, 0.00648916792124509811f, -0.08364566415548324585f, 0.14211833477020263672f, 0.12430308014154434204f, 0.25258928537368774414f, -0.02821119874715805054f, -0.05873517319560050964f, 0.04029534757137298584f, 0.11348704993724822998f, 0.05816107243299484253f, 0.12612085044384002686f, -0.02645161561667919159f, 0.10812918841838836670f, -0.11558778584003448486f, 0.33242973685264587402f, -0.03619749844074249268f, 0.00034860279993154109f, 0.01108337659388780594f, -0.13756623864173889160f, 0.22332900762557983398f, -0.02542230114340782166f, 0.12786054611206054688f, -0.09052942693233489990f, -0.02969820052385330200f, 0.09762932360172271729f, -0.23717460036277770996f, 0.01090154610574245453f, -0.13862764835357666016f, -0.01031224522739648819f, -0.20386753976345062256f, 0.20479516685009002686f, 0.05550519749522209167f, -0.28034687042236328125f, 0.17451012134552001953f, -0.04900481551885604858f, 0.18591804802417755127f, -0.24132558703422546387f, 0.10857686400413513184f, 0.24700120091438293457f, 0.05506255105137825012f, 0.08221194893121719360f, 0.00942205172032117844f, -0.04132694005966186523f, -0.06652460992336273193f, -0.11356747150421142578f, -0.17339688539505004883f, -0.14719235897064208984f},
  {0.06709029525518417358f, 0.08863530308008193970f, 0.23288267850875854492f, -0.01454117242246866226f, 0.33945009112358093262f, -0.09712744504213333130f, 0.00771561777219176292f, -0.32037371397018432617f, 0.33975252509117126465f, -0.11647936701774597168f, 0.16969850659370422363f, -0.20490531623363494873f, -0.01047176029533147812f, -0.28374978899955749512f, 0.01709823310375213623f, -0.07206314057111740112f, -0.08265307545661926270f, 0.01191489398479461670f, -0.09080708771944046021f, 0.06137581542134284973f, -0.08001352846622467041f, -0.14540785551071166992f, 0.06616865098476409912f, 0.03974321484565734863f, 0.22984462976455688477f, 0.07322451472282409668f, 0.23411171138286590576f, 0.00056229124311357737f, -0.26217326521873474121f, -0.31044828891754150391f, -0.07360421866178512573f, -0.05778941512107849121f, 0.36599069833755493164f, -0.12045143544673919678f, 0.10004101693630218506f, 0.29292696714401245117f, 0.30794382095336914062f, -0.11736845225095748901f, -0.20325687527656555176f, 0.12112414836883544922f, 0.18456897139549255371f, 0.12808971107006072998f, 0.04035425931215286255f, -0.20349021255970001221f, -0.09976662695407867432f, 0.18199662864208221436f, 0.10476049780845642090f, -0.18520089983940124512f, -0.31768611073493957520f, -0.09039919078350067139f, -0.07886084169149398804f, 0.27133810520172119141f, 0.10783222317695617676f, 0.10026083141565322876f, 0.01906691677868366241f, 0.39040443301200866699f, 0.18091556429862976074f, -0.09885483980178833008f, -0.02389867417514324188f, 0.08424866944551467896f, -0.31412139534950256348f, -0.05565041676163673401f, -0.22428445518016815186f, -0.12620270252227783203f},
  {-0.03645319491624832153f, 0.18034408986568450928f, 0.15712442994117736816f, 0.00170319410972297192f, 0.12009522318840026855f, 0.08646213263273239136f, -0.08060186356306076050f, -0.27510747313499450684f, 0.03185309469699859619f, -0.11026349663734436035f, 0.28789448738098144531f, -0.02782513014972209930f, 0.14153954386711120605f, -0.20988023281097412109f, 0.16540348529815673828f, -0.09725393354892730713f, 0.03510135412216186523f, 0.02629882283508777618f, -0.04870823025703430176f, -0.08818521350622177124f, 0.10516659170389175415f, 0.14387479424476623535f, -0.00349200051277875900f, -0.02114349976181983948f, 0.09691367298364639282f, 0.16109843552112579346f, 0.06123145297169685364f, 0.05606088787317276001f, 0.05940378457307815552f, -0.17305196821689605713f, -0.08793774247169494629f, 0.23306727409362792969f, 0.09803953766822814941f, -0.15248765051364898682f, -0.12140197306871414185f, 0.14235399663448333740f, 0.05375631153583526611f, 0.08023671805858612061f, 0.03159682080149650574f, 0.13401500880718231201f, 0.03068459033966064453f, -0.06831546127796173096f, 0.01359981298446655273f, -0.13045716285705566406f, -0.13304701447486877441f, -0.12873090803623199463f, -0.02407178469002246857f, -0.01219987589865922928f, -0.12099760770797729492f, 0.06378030031919479370f, 0.09168038517236709595f, 0.10456777364015579224f, 0.13065135478973388672f, -0.11763425916433334351f, 0.14221374690532684326f, 0.13090069591999053955f, 0.14726872742176055908f, -0.06691046059131622314f, -0.10348419845104217529f, 0.05836978182196617126f, 0.00403739372268319130f, -0.07351376116275787354f, -0.17284125089645385742f, -0.02823538146913051605f},
  {-0.03971209377050399780f, -0.24973425269126892090f, 0.02852995134890079498f, -0.01662167347967624664f, 0.06046115607023239136f, 0.03109571896493434906f, 0.16383260488510131836f, 0.44173830747604370117f, 0.08289742469787597656f, 0.25098401308059692383f, -0.11727190017700195312f, -0.06051021069288253784f, -0.06560645252466201782f, -0.07552000880241394043f, -0.04154258966445922852f, -0.19263827800750732422f, -0.03773020207881927490f, -0.05423492193222045898f, -0.15862336754798889160f, -0.09249342232942581177f, 0.10489379614591598511f, -0.27214708924293518066f, 0.16263271868228912354f, 0.06358373165130615234f, -0.14508733153343200684f, -0.28083267807960510254f, -0.02182443812489509583f, -0.10248536616563796997f, -0.12358020246028900146f, 0.53958028554916381836f, 0.01642688736319541931f, 0.03991458937525749207f, 0.22066363692283630371f, 0.42085853219032287598f, -0.05321573466062545776f, -0.24937978386878967285f, 0.10465889424085617065f, -0.01776308007538318634f, -0.14103496074676513672f, -0.28228360414505004883f, 0.03158861771225929260f, 0.19890435039997100830f, 0.02176684327423572540f, 0.03993882983922958374f, -0.14575174450874328613f, 0.16207292675971984863f, -0.36337065696716308594f, -0.01349010504782199860f, -0.23094986379146575928f, -0.06520265340805053711f, 0.02390890382230281830f, -0.04919800907373428345f, 0.50820749998092651367f, 0.01069301459938287735f, -0.26896896958351135254f, 0.26264986395835876465f, 0.10452230274677276611f, 0.24995861947536468506f, -0.10812963545322418213f, -0.08842557668685913086f, 0.32120490074157714844f, -0.05826740711927413940f, -0.12915857136249542236f, -0.01471989601850509644f},
  {-0.39611953496932983398f, 0.36385279893875122070f, -0.60868072509765625000f, 0.02176330611109733582f, -0.03823748230934143066f, -0.10784098505973815918f, -0.10847263038158416748f, 0.20113551616668701172f, -0.07651415467262268066f, 0.48867195844650268555f, 0.39960995316505432129f, 0.07915192842483520508f, 0.47029811143875122070f, 0.14658139646053314209f, 0.49118918180465698242f, -0.01316394004970788956f, -0.16094070672988891602f, 0.58113503456115722656f, 0.10299904644489288330f, -0.85615223646163940430f, 0.11194250732660293579f, -0.19758944213390350342f, 0.19222542643547058105f, 0.11672288179397583008f, 0.02962991595268249512f, 0.16392786800861358643f, -0.07366470992565155029f, 0.09505108743906021118f, 0.05947132781147956848f, 0.00977263692766427994f, 0.78423404693603515625f, 0.00110871740616858006f, -0.44281017780303955078f, 0.13448984920978546143f, 0.06645859032869338989f, -0.00879264157265424728f, -0.07475135475397109985f, 0.13482332229614257812f, -0.01574948616325855255f, 0.59868401288986206055f, -0.06232114881277084351f, 0.06822882592678070068f, -0.09959802031517028809f, 0.41069135069847106934f, -0.11486069113016128540f, -0.18088206648826599121f, 0.02465594932436943054f, -0.09383260458707809448f, -0.03387695550918579102f, 0.26938882470130920410f, -0.00613069022074341774f, 0.24278986454010009766f, -0.72633135318756103516f, -0.25512143969535827637f, -0.04768204316496849060f, 0.05851752310991287231f, 0.59861105680465698242f, 0.07794895768165588379f, 0.11267624795436859131f, -0.05080941691994667053f, -0.09320524334907531738f, -0.31585702300071716309f, 0.30349007248878479004f, 0.03561528399586677551f},
  {-0.00130709016229957342f, -0.07772209495306015015f, -0.22809737920761108398f, 0.02849699743092060089f, -0.29653659462928771973f, 0.00925762113183736801f, 0.06992211937904357910f, 0.39783897995948791504f, -0.13447289168834686279f, 0.16065558791160583496f, -0.27898320555686950684f, 0.13913969695568084717f, -0.13866868615150451660f, 0.28925675153732299805f, -0.05937298759818077087f, 0.02170571684837341309f, 0.13175623118877410889f, 0.03886960446834564209f, -0.00884545780718326569f, -0.06905604153871536255f, 0.08035294711589813232f, 0.11476351320743560791f, 0.21422575414180755615f, 0.09425529837608337402f, -0.08823576569557189941f, -0.32390722632408142090f, -0.10302460193634033203f, -0.00308988220058381557f, -0.06542512774467468262f, 0.37545630335807800293f, 0.13005147874355316162f, -0.11685433238744735718f, -0.12876813113689422607f, 0.11229356378316879272f, 0.07438847422599792480f, -0.23534540832042694092f, 0.02128974534571170807f, -0.14266033470630645752f, 0.07587696611881256104f, -0.20376077294349670410f, 0.04700185731053352356f, 0.01273763086646795273f, 0.08761036396026611328f, 0.06163183599710464478f, 0.23125375807285308838f, -0.04740342870354652405f, -0.23308953642845153809f, -0.02023387327790260315f, 0.16126909852027893066f, -0.02246969938278198242f, 0.10675676912069320679f, -0.13704441487789154053f, -0.06553121656179428101f, 0.04477077350020408630f, -0.09197662025690078735f, -0.23900829255580902100f, -0.08191969990730285645f, 0.10787282139062881470f, 0.09103199839591979980f, -0.06970151513814926147f, 0.05837405472993850708f, 0.17367675900459289551f, 0.06469741463661193848f, 0.07164949923753738403f},
  {0.05919224768877029419f, -0.04499870538711547852f, -0.24334920942783355713f, -0.03885012865066528320f, -0.33105656504631042480f, 0.07334002107381820679f, -0.14034888148307800293f, 0.20728966593742370605f, -0.02536131069064140320f, 0.06326802819967269897f, -0.24961327016353607178f, 0.10467268526554107666f, -0.02864316105842590332f, 0.23491787910461425781f, 0.10619765520095825195f, 0.02826709486544132233f, -0.15018391609191894531f, 0.03632402792572975159f, 0.16404034197330474854f, -0.15924094617366790771f, 0.04219612851738929749f, -0.23055599629878997803f, 0.14574730396270751953f, 0.20390000939369201660f, -0.10616401582956314087f, -0.34401705861091613770f, -0.05989370867609977722f, 0.02019787020981311798f, 0.09448816627264022827f, 0.29983347654342651367f, 0.10317070037126541138f, -0.29172554612159729004f, -0.01985533349215984344f, 0.21213828027248382568f, 0.02180791087448596954f, -0.14009243249893188477f, -0.08955201506614685059f, 0.06510228663682937622f, 0.01630186103284358978f, -0.20244991779327392578f, 0.08604899793863296509f, 0.06213098019361495972f, 0.06357701122760772705f, 0.22666873037815093994f, 0.06884600967168807983f, 0.00693382462486624718f, -0.08686523884534835815f, -0.11745684593915939331f, 0.16023688018321990967f, 0.02359398826956748962f, 0.10148662328720092773f, -0.10426278412342071533f, -0.09111068397760391235f, 0.14291268587112426758f, -0.09027492254972457886f, -0.22957880795001983643f, -0.28044164180755615234f, 0.06008143723011016846f, -0.19457483291625976562f, -0.04386987164616584778f, -0.00172052520792931318f, 0.16383224725723266602f, 0.01874731853604316711f, 0.05013509839773178101f},
