// This file is computer-generated by onnx2c 
// (TODO: add creating command line here)
// (TODO: print creation date here )

// ONNX model:
// produced by pytorch, version 2.5.1
// ONNX IR version: 11
// Model documentation: 
/*

*/

#include <float.h>
#include <math.h>
#include <stdbool.h>
#include <stdint.h>
#include <string.h>

#define MAX(X,Y) ( X > Y ? X : Y)
#define MIN(X,Y) ( X < Y ? X : Y)
#define CLIP(X,L) ( MAX(MIN(X,L), -L) )

#if __STDC_VERSION__ < 199901L
#define FUNC_PREFIX
#else
#define FUNC_PREFIX static inline
#endif

static const float tensor_actor_0_weight[64][7] = 
{
  {-0.00199319748207926750f, -0.00243218592368066311f, 0.00125481921713799238f, -0.00068130379077047110f, 0.00145626161247491837f, 0.00139419222250580788f, 0.00158479006495326757f},
  {0.00008071306365309283f, -0.00067145674256607890f, 0.00054761231876909733f, 0.00186000112444162369f, 0.00232234480790793896f, 0.00011079265823354945f, -0.00145318475551903248f},
  {-1.08146393299102783203f, 0.76362115144729614258f, -0.13511173427104949951f, 0.02025251276791095734f, -1.13184642791748046875f, -0.83109360933303833008f, 0.78114426136016845703f},
  {0.05923648551106452942f, 0.02430962584912776947f, 0.48960047960281372070f, 0.45038467645645141602f, 0.28962221741676330566f, -0.14588232338428497314f, 0.93163472414016723633f},
  {0.00288817379623651505f, 0.00247022276744246483f, -0.00202726875431835651f, -0.00022722799621988088f, -0.00312148290686309338f, -0.00067493523238226771f, 0.00177345587871968746f},
  {0.06032007932662963867f, 1.52853000164031982422f, 0.50703942775726318359f, -0.84521877765655517578f, 0.06087337434291839600f, 0.02216086164116859436f, 1.48328101634979248047f},
  {-1.20633602142333984375f, -0.42807048559188842773f, -0.16951213777065277100f, -0.24016973376274108887f, 0.63875854015350341797f, -0.51655119657516479492f, 0.14614009857177734375f},
  {0.00188305985648185015f, -0.00615415023639798164f, 0.00404095929116010666f, -0.00155084650032222271f, 0.00279682781547307968f, 0.00331821292638778687f, -0.00813352689146995544f},
  {1.15724623203277587891f, 0.14295360445976257324f, -0.30851307511329650879f, -0.12911503016948699951f, -0.01100070215761661530f, 0.20025590062141418457f, 0.06379428505897521973f},
  {-0.10901959985494613647f, 1.51570272445678710938f, -0.15128967165946960449f, 0.10929334908723831177f, -0.22598929703235626221f, 0.16539727151393890381f, 0.37677621841430664062f},
  {0.37712720036506652832f, 0.24847678840160369873f, 0.91842067241668701172f, 1.95206391811370849609f, -0.01679073087871074677f, -0.04549499228596687317f, 0.70245432853698730469f},
  {-0.36124613881111145020f, 1.63449525833129882812f, -0.21906992793083190918f, 0.32943144440650939941f, 0.98326671123504638672f, 0.45447689294815063477f, -0.86963301897048950195f},
  {-0.00032302210456691682f, 0.00090837955940514803f, -0.00119819003157317638f, -0.00064832525094971061f, -0.00026350162806920707f, -0.00066760793561115861f, -0.00015025603352114558f},
  {1.83692514896392822266f, -1.36213827133178710938f, -0.56191772222518920898f, 0.47289240360260009766f, 2.05128216743469238281f, -0.35244083404541015625f, 0.67651861906051635742f},
  {1.04286849498748779297f, 0.47874087095260620117f, -0.64843219518661499023f, 0.51912611722946166992f, 0.53198087215423583984f, -0.34551396965980529785f, -0.08319415897130966187f},
  {-0.00157611514441668987f, -0.00158386700786650181f, 0.00094549695495516062f, -0.00090529094450175762f, -0.00051136134425178170f, 0.00032232722151093185f, -0.00421213265508413315f},
  {-0.97985583543777465820f, 0.96659761667251586914f, -0.02650474198162555695f, -0.09664782881736755371f, 0.02928505279123783112f, 0.16176116466522216797f, -0.00101609854027628899f},
  {-0.07628681510686874390f, -0.06933306157588958740f, 0.15074113011360168457f, -0.11527023464441299438f, -0.14573496580123901367f, -0.16650551557540893555f, 0.16578404605388641357f},
  {-1.58841919898986816406f, 0.59842634201049804688f, 0.81966638565063476562f, 1.72762084007263183594f, -0.25951090455055236816f, -0.20880696177482604980f, -0.94626998901367187500f},
  {0.00728791719302535057f, -0.00092933059204369783f, 0.00129461893811821938f, 0.00277068652212619781f, -0.00133984512649476528f, -0.00074940256308764219f, 0.00125247694086283445f},
  {-0.00438016653060913086f, 0.00110167486127465963f, 0.00042039892286993563f, -0.00069155555684119463f, 0.00166780967265367508f, -0.00099509337451308966f, -0.00372266280464828014f},
  {0.87998700141906738281f, 1.56742787361145019531f, -0.17824845016002655029f, 0.06824555248022079468f, 0.20987769961357116699f, 0.07537232339382171631f, 0.04335041344165802002f},
  {-1.18178141117095947266f, -0.81655013561248779297f, -0.41471955180168151855f, -0.25878256559371948242f, 2.25789570808410644531f, -1.02512228488922119141f, 0.04502521455287933350f},
  {0.41566973924636840820f, 1.31308734416961669922f, 0.57875907421112060547f, -0.73818480968475341797f, -0.17020960152149200439f, 0.24081954360008239746f, -1.24085271358489990234f},
  {0.36381152272224426270f, -1.38947486877441406250f, -0.15412004292011260986f, 0.24291768670082092285f, -1.87953042984008789062f, -0.15619818866252899170f, -0.92436885833740234375f},
  {0.34357720613479614258f, 1.31449866294860839844f, -0.56989204883575439453f, 0.21546030044555664062f, -1.07943916320800781250f, 0.81720423698425292969f, 1.02966725826263427734f},
  {1.23129677772521972656f, 1.53522241115570068359f, -0.17673048377037048340f, 0.06095506250858306885f, 0.10529422760009765625f, 0.04679135978221893311f, 0.03620421513915061951f},
  {-0.00639250641688704491f, 0.00058992649428546429f, -0.00055254733888432384f, -0.00275080231949687004f, 0.00338558084331452847f, -0.00132082635536789894f, 0.00337792723439633846f},
  {-1.27994477748870849609f, 1.11166059970855712891f, -0.37129256129264831543f, -0.44182887673377990723f, 1.18259322643280029297f, -0.01244029402732849121f, -0.42823487520217895508f},
  {0.30229094624519348145f, 0.67770117521286010742f, -0.40149185061454772949f, -0.01089312136173248291f, 0.06614191085100173950f, 0.05743518099188804626f, -0.02461191639304161072f},
  {-0.11536478996276855469f, -0.02858096919953823090f, 0.01098947040736675262f, -0.00331922224722802639f, -0.00520434416830539703f, 0.00594386411830782890f, 0.00209159846417605877f},
  {0.91412913799285888672f, 0.37462675571441650391f, -0.74844610691070556641f, 0.07780224084854125977f, -0.02279674075543880463f, 0.81015551090240478516f, 0.05025574564933776855f},
  {1.55239260196685791016f, 1.23489224910736083984f, -0.37988099455833435059f, -0.80247169733047485352f, -1.40398037433624267578f, -0.41624319553375244141f, -0.07169048488140106201f},
  {-1.34639894962310791016f, 1.43799793720245361328f, -0.43100070953369140625f, 0.05539538338780403137f, -0.91215312480926513672f, -0.65991353988647460938f, 0.52211183309555053711f},
  {0.01267677824944257736f, -0.00196766527369618416f, 0.00255324412137269974f, 0.00299095548689365387f, -0.00183461175765842199f, -0.00054403411922976375f, 0.00068592629395425320f},
  {-1.33017456531524658203f, 1.44997251033782958984f, -0.62654215097427368164f, 0.18334871530532836914f, -0.57695847749710083008f, -0.17850336432456970215f, 0.41966024041175842285f},
  {0.00108086445834487677f, -0.00041991012403741479f, 0.00031132018193602562f, 0.00061040651053190231f, -0.00018629722762852907f, -0.00062691402854397893f, -0.00061350944451987743f},
  {1.17083597183227539062f, -1.17793035507202148438f, -0.13487677276134490967f, 0.04288962110877037048f, -0.00476325489580631256f, -0.07252219319343566895f, -0.03173305839300155640f},
  {0.00110761856194585562f, 0.00013743661111220717f, -0.00200873729772865772f, 0.00257013342343270779f, -0.00139056239277124405f, -0.00006353844219120219f, 0.00503519689664244652f},
  {-0.56534802913665771484f, -1.27245175838470458984f, -0.41703310608863830566f, -0.97028911113739013672f, 1.69796788692474365234f, 1.28559374809265136719f, -0.16401846706867218018f},
  {-0.00355505640618503094f, 0.00033283481025137007f, -0.00122322118841111660f, -0.00125205784570425749f, -0.00050507526611909270f, -0.00023751104890834540f, -0.00031921634217724204f},
  {0.00471996981650590897f, -0.00063367513939738274f, -0.00048789783613756299f, 0.00055444147437810898f, -0.00141543871723115444f, 0.00151542469393461943f, 0.00348227331414818764f},
  {1.84031760692596435547f, 1.76921904087066650391f, -0.24324458837509155273f, 0.34974125027656555176f, 0.80171984434127807617f, -1.05680215358734130859f, -0.65327924489974975586f},
  {-1.07122981548309326172f, -0.73389548063278198242f, -0.62552666664123535156f, 0.52149242162704467773f, -1.09233534336090087891f, -0.11671208590269088745f, -0.37795457243919372559f},
  {0.87219178676605224609f, -2.43017673492431640625f, -0.51174354553222656250f, 0.08426147699356079102f, -0.95527768135070800781f, -1.44736456871032714844f, -0.11158141493797302246f},
  {1.15539181232452392578f, -0.90339636802673339844f, -0.50186634063720703125f, -0.89454168081283569336f, 0.63994908332824707031f, 1.23001348972320556641f, 0.79616945981979370117f},
  {-0.85017299652099609375f, -2.71524024009704589844f, -0.52122306823730468750f, -0.02233158238232135773f, -1.04778492450714111328f, 2.13302588462829589844f, -0.05977471917867660522f},
  {-0.53965741395950317383f, -1.62984955310821533203f, -0.34347337484359741211f, 0.33601891994476318359f, -0.17927548289299011230f, -1.91726863384246826172f, 0.98780667781829833984f},
  {1.05771136283874511719f, 1.23866271972656250000f, -0.13148596882820129395f, -0.84672588109970092773f, -0.26333373785018920898f, -0.66458082199096679688f, 1.00082981586456298828f},
  {-0.64238828420639038086f, 1.64293646812438964844f, -0.13863897323608398438f, 0.93954169750213623047f, -0.06474323570728302002f, 1.48096477985382080078f, -0.80279856920242309570f},
  {-1.49595654010772705078f, 1.01795673370361328125f, -0.62988203763961791992f, -0.30261704325675964355f, 0.01066062133759260178f, -0.66047334671020507812f, 0.09490430355072021484f},
  {0.49812674522399902344f, -2.60938596725463867188f, -0.22435545921325683594f, 0.02502465434372425079f, -0.32201725244522094727f, -0.58619672060012817383f, -0.04311371967196464539f},
  {2.09667015075683593750f, 0.55554401874542236328f, -0.12888467311859130859f, 0.60186553001403808594f, 0.42498427629470825195f, -0.52877020835876464844f, -0.31018394231796264648f},
  {-0.13667118549346923828f, 0.99983030557632446289f, -0.22790059447288513184f, 0.07274059951305389404f, 0.10781475901603698730f, 0.21533796191215515137f, -0.03470872342586517334f},
  {-0.34735617041587829590f, 2.01259088516235351562f, -0.55633276700973510742f, -0.56182527542114257812f, 0.35230895876884460449f, -0.59022343158721923828f, -0.32715156674385070801f},
  {-0.00519880233332514763f, 0.00320010841824114323f, -0.00270399707369506359f, 0.00009152467100648209f, -0.00135557132307440042f, -0.00225669797509908676f, 0.00135683477856218815f},
  {0.43492501974105834961f, 0.98126125335693359375f, 0.44879075884819030762f, -1.22047984600067138672f, 0.15232951939105987549f, 0.30168765783309936523f, -0.26321056485176086426f},
  {1.82912695407867431641f, 0.34849473834037780762f, -0.41275414824485778809f, 0.01913768798112869263f, -0.25868433713912963867f, -1.28914260864257812500f, -1.05399966239929199219f},
  {1.60812032222747802734f, 0.51017749309539794922f, -0.27749279141426086426f, 0.26373711228370666504f, 0.43641164898872375488f, 1.16057991981506347656f, 0.92941892147064208984f},
  {1.73370850086212158203f, -1.49704265594482421875f, -0.36435291171073913574f, -0.36406365036964416504f, -0.78035748004913330078f, 0.07655607163906097412f, -0.15779790282249450684f},
  {0.00254658074118196964f, 0.00063014042098075151f, -0.00014461857790593058f, 0.00091763143427670002f, -0.00016015714209061116f, 0.00182075321208685637f, 0.00111138913780450821f},
  {0.00398068455979228020f, 0.00127064390107989311f, -0.00098410237114876509f, 0.00066147639881819487f, -0.00139952183235436678f, 0.00008425856503890827f, -0.00031122131622396410f},
  {0.00321175064891576767f, -0.00080697477096691728f, 0.00121105660218745470f, -0.00074002303881570697f, -0.00051453500054776669f, 0.00195691478438675404f, 0.00056426599621772766f},
  {0.10236603766679763794f, -2.19390749931335449219f, -0.06123154610395431519f, -0.03350876271724700928f, -0.07182474434375762939f, -0.17344561219215393066f, 0.05445694923400878906f}
};
static const float tensor_actor_0_bias[64] = 
{-0.00181114359293133020f, -0.00094174890546128154f, -0.69111788272857666016f, -1.09918403625488281250f, 0.00215583224780857563f, -0.82721525430679321289f, -0.66757982969284057617f, -0.00322640477679669857f, -0.15473917126655578613f, -0.40624549984931945801f, -0.18568424880504608154f, -0.49087807536125183105f, 0.00253744330257177353f, 0.07445156574249267578f, -0.64208972454071044922f, -0.00079289107816293836f, -0.15188862383365631104f, -0.01844005100429058075f, -0.50318890810012817383f, -0.00056613201741129160f, -0.00188932300079613924f, 0.53736758232116699219f, 0.08478061109781265259f, -1.22347068786621093750f, -0.60274243354797363281f, -0.46058511734008789062f, 0.58845704793930053711f, 0.00336779071949422359f, -0.80532532930374145508f, -0.48182344436645507812f, -0.03735873848199844360f, -0.42473179101943969727f, 0.12487722933292388916f, -0.42245396971702575684f, -0.00216405023820698261f, -0.57619744539260864258f, -0.00145617965608835220f, 0.17363771796226501465f, 0.00070383946876972914f, -0.72494167089462280273f, 0.00168456509709358215f, 0.00130451912991702557f, 0.26799198985099792480f, -0.75257927179336547852f, 0.28639873862266540527f, -0.65762442350387573242f, -0.00735099567100405693f, -0.86674082279205322266f, -1.07338809967041015625f, -0.78163522481918334961f, -0.73389732837677001953f, -0.14931313693523406982f, 0.02725547552108764648f, 0.19667758047580718994f, -0.43145766854286193848f, 0.00245375535450875759f, -0.74367767572402954102f, -0.24150070548057556152f, -0.29652041196823120117f, -0.00906926579773426056f, 0.00086839363211765885f, 0.00277299946174025536f, -0.00247830757871270180f, -0.32319319248199462891f};
static const float tensor_actor_2_weight[64][64] = 
{
  {-0.01100447587668895721f, -0.00105526379775255919f, 0.50466251373291015625f, -0.19594997167587280273f, 0.00307068275287747383f, 0.55598300695419311523f, 0.45621091127395629883f, -0.00361965992487967014f, 1.05195546150207519531f, 0.38788205385208129883f, -1.70503735542297363281f, 0.17900685966014862061f, 0.01142728701233863831f, 0.04872411116957664490f, 0.67051959037780761719f, -0.00103549973573535681f, -0.00338237429969012737f, -0.31461691856384277344f, -0.11501602083444595337f, -0.02345059998333454132f, -0.00347121525555849075f, 0.09592651575803756714f, -0.20942261815071105957f, 0.17021232843399047852f, 0.08170314878225326538f, 0.99375516176223754883f, 0.24245263636112213135f, 0.00211307569406926632f, 0.40030682086944580078f, 0.63774067163467407227f, -0.06603051722049713135f, 1.30820846557617187500f, -0.37186741828918457031f, 0.38275858759880065918f, -0.01811092160642147064f, 0.33483779430389404297f, -0.01122016645967960358f, -0.43246331810951232910f, -0.00072243291651830077f, -0.60239255428314208984f, 0.01529785525053739548f, 0.00807634927332401276f, 0.20448693633079528809f, -0.04085827991366386414f, -0.74619799852371215820f, 0.37557998299598693848f, -0.33594310283660888672f, -0.09262699633836746216f, 0.65489560365676879883f, 0.07487241923809051514f, 0.50269103050231933594f, -0.46185711026191711426f, -0.21328087151050567627f, -0.12686210870742797852f, 0.13206602632999420166f, 0.00341424555517733097f, -0.14228413999080657959f, -0.03008361347019672394f, 0.67346733808517456055f, 0.21334251761436462402f, 0.00380562688224017620f, 0.00200980156660079956f, 0.00466194329783320427f, -0.58323097229003906250f},
  {0.02623645961284637451f, -0.03922002762556076050f, 0.17113265395164489746f, -0.01621553115546703339f, 0.02208825387060642242f, -0.05346840992569923401f, 0.18727378547191619873f, -0.01712252385914325714f, 0.10551118850708007812f, 0.18326823413372039795f, 0.03771261498332023621f, 0.01379462052136659622f, -0.05953216925263404846f, 0.03698908165097236633f, -0.12944902479648590088f, -0.04002425819635391235f, 0.01873069256544113159f, -0.06124582514166831970f, -0.03038737922906875610f, 0.08175481855869293213f, 0.00316424574702978134f, -0.11326955258846282959f, -0.03101203776895999908f, -0.00261669489555060863f, -0.01138092391192913055f, -0.04103048145771026611f, 0.03261184692382812500f, 0.03676212579011917114f, 0.03718288242816925049f, -0.01830017566680908203f, 0.06205175444483757019f, 0.19823567569255828857f, -0.04549904540181159973f, -0.02047549188137054443f, 0.12294723093509674072f, -0.08830687403678894043f, 0.06326492130756378174f, -0.05996989086270332336f, 0.02270639874041080475f, -0.05659710988402366638f, -0.07282134890556335449f, -0.00550220813602209091f, -0.03022907860577106476f, 0.06297937035560607910f, -0.13266581296920776367f, 0.05650482699275016785f, 0.03158340603113174438f, -0.05960125848650932312f, 0.07581503689289093018f, -0.03463888913393020630f, -0.09885845333337783813f, 0.37178850173950195312f, 0.10662449151277542114f, 0.04335348680615425110f, -0.03409468755125999451f, 0.03027149476110935211f, 0.07269337773323059082f, 0.07465302199125289917f, -0.04144868627190589905f, -0.08858566731214523315f, -0.03811082988977432251f, -0.03828392922878265381f, -0.00180101208388805389f, -0.27854999899864196777f},
  {0.00127990916371345520f, 0.00019876868464052677f, -0.58279156684875488281f, -0.47453412413597106934f, 0.00130780797917395830f, -0.43125206232070922852f, -0.01665560342371463776f, -0.00134496041573584080f, 0.14492031931877136230f, -0.03781722858548164368f, -0.61644470691680908203f, 0.51246076822280883789f, 0.00266356975771486759f, -0.77307742834091186523f, 0.62997120618820190430f, -0.00440046750009059906f, -0.13440802693367004395f, -0.40031734108924865723f, -0.42703545093536376953f, 0.00209613051265478134f, -0.00451400782912969589f, -0.13668785989284515381f, -0.11038850992918014526f, 0.64466178417205810547f, -0.63765370845794677734f, 0.23469476401805877686f, -0.01366922911256551743f, -0.00149588030762970448f, 0.40662923455238342285f, 0.46671944856643676758f, 0.01504016388207674026f, -0.10131788253784179688f, 0.11374395340681076050f, -0.26083478331565856934f, 0.00563986366614699364f, 0.05193517357110977173f, -0.00364550459198653698f, 0.02776649035513401031f, 0.00456585129722952843f, -1.74522304534912109375f, 0.00117669021710753441f, 0.00410299049690365791f, 0.39012491703033447266f, 0.13249161839485168457f, 0.12027207762002944946f, -0.49300613999366760254f, -2.41069602966308593750f, -0.83059352636337280273f, -0.23011057078838348389f, -0.34383553266525268555f, 0.72592699527740478516f, 0.17425426840782165527f, 0.02767585776746273041f, 0.04143225029110908508f, 0.62477576732635498047f, -0.00200883881188929081f, 0.33864578604698181152f, 0.34686094522476196289f, 0.29329016804695129395f, -0.27500596642494201660f, 0.00370625127106904984f, 0.00347092119045555592f, 0.00416974211111664772f, 0.00859602633863687515f},
  {-0.00151890830602496862f, 0.00115023355465382338f, 0.02037304453551769257f, -0.04427761211991310120f, 0.00565721234306693077f, -0.01081317011266946793f, -0.02085884660482406616f, -0.00026528415037319064f, -0.04249496012926101685f, -0.04270441457629203796f, 0.00620960770174860954f, -0.01142867188900709152f, -0.03201869875192642212f, -0.05775362253189086914f, 0.10692047327756881714f, -0.02659247256815433502f, 0.06442254036664962769f, 0.11527790129184722900f, -0.00807992741465568542f, 0.01488582883030176163f, 0.02258722484111785889f, -0.04396923631429672241f, 0.05471622198820114136f, 0.02379333414137363434f, 0.03496171534061431885f, -0.01328192465007305145f, 0.00522068049758672714f, -0.04190098494291305542f, 0.05675074085593223572f, 0.14851100742816925049f, -0.01673197373747825623f, -0.01589566096663475037f, 0.02917069569230079651f, 0.06603932380676269531f, 0.01724420674145221710f, -0.07610627263784408569f, -0.03569843620061874390f, 0.19427712261676788330f, -0.02605710364878177643f, -0.01865461282432079315f, -0.00612716004252433777f, -0.02338630333542823792f, -0.08037437498569488525f, -0.06405848264694213867f, -0.07592191547155380249f, 0.03995661064982414246f, 0.01541078928858041763f, 0.02067060954868793488f, 0.00086605903925374150f, -0.02690453827381134033f, -0.17719517648220062256f, 0.11805110424757003784f, 0.13536764681339263916f, 0.15978874266147613525f, 0.10579433292150497437f, -0.04876139387488365173f, -0.02734105102717876434f, 0.00521267065778374672f, 0.04316787421703338623f, -0.13596770167350769043f, 0.00353916548192501068f, -0.01744430139660835266f, 0.00561316916719079018f, -0.11767640709877014160f},
  {-0.04679296165704727173f, 0.04364610090851783752f, -0.09660464525222778320f, 0.01117702852934598923f, -0.04680367186665534973f, 0.05305887758731842041f, 0.08824431896209716797f, 0.06118980795145034790f, -0.04296169057488441467f, 0.01850299723446369171f, -0.02580835297703742981f, 0.02037938311696052551f, 0.05870356783270835876f, 0.05138782039284706116f, -0.14910428225994110107f, 0.01636786945164203644f, -0.22303861379623413086f, 0.13761934638023376465f, 0.04442167654633522034f, -0.05034214630722999573f, 0.00571892969310283661f, 0.16861152648925781250f, -0.05123686045408248901f, -0.01902026124298572540f, -0.05735608562827110291f, 0.01554139796644449234f, -0.16817863285541534424f, -0.08509340882301330566f, 0.00513805961236357689f, -0.10721121728420257568f, 0.03497731313109397888f, 0.08188015967607498169f, 0.00356152234598994255f, 0.10365827381610870361f, -0.07251773774623870850f, 0.00898732990026473999f, -0.11059331148862838745f, -0.06507180631160736084f, 0.02585613355040550232f, -0.01035332679748535156f, 0.12297730147838592529f, -0.01045302767306566238f, -0.09997656941413879395f, 0.05600713193416595459f, -0.00579210976138710976f, -0.03136730939149856567f, -0.00698145944625139236f, 0.00046263003605417907f, -0.03820795565843582153f, 0.00874354969710111618f, -0.05525524169206619263f, -0.06841424852609634399f, 0.12301566451787948608f, 0.08677600324153900146f, 0.10060534626245498657f, 0.03037577867507934570f, 0.00152972596697509289f, 0.03280502557754516602f, 0.01309596095234155655f, 0.10563036799430847168f, 0.05107459425926208496f, 0.06171468272805213928f, -0.04188271984457969666f, -0.02339055202901363373f},
  {-0.01034666225314140320f, -0.01933399401605129242f, 0.28470107913017272949f, -0.11599770933389663696f, 0.01308977790176868439f, 0.03017805144190788269f, 0.12330704182386398315f, 0.01020102109760046005f, 0.07537074387073516846f, 0.13867467641830444336f, 0.02352775819599628448f, -0.06804902851581573486f, 0.01499505247920751572f, 0.11853572726249694824f, 0.11486968398094177246f, 0.02920522168278694153f, 0.11411425471305847168f, -0.08744068443775177002f, 0.07412073761224746704f, 0.01726941764354705811f, 0.03693803027272224426f, 0.18727995455265045166f, -0.06372872740030288696f, -0.05453144386410713196f, -0.09231021255254745483f, 0.01502031460404396057f, -0.00966156367212533951f, -0.02524876967072486877f, 0.15757305920124053955f, -0.04240276664495468140f, -0.17986467480659484863f, 0.02525363117456436157f, -0.06654821336269378662f, -0.19534946978092193604f, -0.01358158234506845474f, -0.20198057591915130615f, 0.01534915808588266373f, 0.04066740348935127258f, -0.01844972744584083557f, -0.05989808589220046997f, -0.01756863109767436981f, -0.05620864778757095337f, -0.17065888643264770508f, -0.00262548448517918587f, -0.08586766570806503296f, 0.02559680677950382233f, 0.05046057328581809998f, -0.00870695151388645172f, 0.02162246219813823700f, -0.02258620411157608032f, -0.08407438546419143677f, 0.13755249977111816406f, -0.06713525950908660889f, 0.03940089792013168335f, -0.02364019677042961121f, 0.04622910171747207642f, 0.05564610660076141357f, 0.23157931864261627197f, -0.08785035461187362671f, 0.06063412502408027649f, -0.05076663196086883545f, -0.01243971753865480423f, -0.02120291255414485931f, -0.17305436730384826660f},
  {0.00692097609862685204f, -0.01632641628384590149f, 0.22017025947570800781f, -0.08965033292770385742f, 0.01968974433839321136f, -0.04266802221536636353f, 0.11305808275938034058f, 0.00994427036494016647f, -0.10654393583536148071f, -0.17488387227058410645f, -0.01908069103956222534f, 0.06221637502312660217f, -0.06331128627061843872f, 0.09870725125074386597f, 0.34186050295829772949f, 0.03878853842616081238f, 0.03708070144057273865f, 0.13727314770221710205f, 0.08543013781309127808f, 0.05929873511195182800f, 0.00239833537489175797f, -0.04008407145738601685f, -0.05554482713341712952f, -0.15023618936538696289f, 0.09188193082809448242f, 0.15988869965076446533f, 0.36268249154090881348f, -0.04415813088417053223f, -0.27125427126884460449f, 0.03335118293762207031f, 0.22325775027275085449f, 0.23455892503261566162f, -0.18916107714176177979f, -0.15226265788078308105f, 0.04970860108733177185f, -0.20619285106658935547f, 0.06835554540157318115f, -0.14464862644672393799f, -0.01894238032400608063f, 0.10908630490303039551f, -0.09081060439348220825f, -0.00613304879516363144f, -0.04929104074835777283f, -0.18736782670021057129f, -0.11852675676345825195f, -0.04510755091905593872f, -0.04991111159324645996f, 0.07397300004959106445f, 0.00362983671948313713f, -0.05485411360859870911f, -0.23396983742713928223f, 0.06648779660463333130f, -0.26049304008483886719f, 0.11180035024881362915f, 0.27965450286865234375f, -0.02770083211362361908f, 0.10077012330293655396f, 0.10021580010652542114f, -0.09091372042894363403f, 0.19899077713489532471f, -0.05713545903563499451f, -0.03995412215590476990f, -0.00345143862068653107f, -0.02655218355357646942f},
  {0.02879505418241024017f, 0.04013639315962791443f, 0.19463051855564117432f, -0.03889417648315429688f, -0.00175773457158356905f, -0.07254782319068908691f, -0.27553004026412963867f, 0.02657639794051647186f, -0.22415599226951599121f, 0.10090785473585128784f, -0.03196829557418823242f, -0.18802462518215179443f, -0.02862916700541973114f, 0.00782178435474634171f, 0.08659863471984863281f, 0.02386075630784034729f, 0.21028530597686767578f, 0.04814390093088150024f, -0.03436223044991493225f, 0.04042991250753402710f, 0.01308415178209543228f, 0.15811757743358612061f, 0.05538823455572128296f, 0.06550057977437973022f, -0.12409443408250808716f, -0.05593024566769599915f, -0.00265762186609208584f, -0.02601638250052928925f, 0.24060222506523132324f, -0.22926348447799682617f, 0.10452276468276977539f, -0.06336788088083267212f, -0.01859802193939685822f, -0.15525834262371063232f, 0.05316001176834106445f, -0.18696203827857971191f, 0.01124236360192298889f, -0.18839010596275329590f, 0.00475125806406140327f, -0.04768002033233642578f, -0.03135785087943077087f, -0.00497674802318215370f, -0.15409716963768005371f, 0.17733220756053924561f, -0.07306861877441406250f, 0.08963406831026077271f, -0.03146515041589736938f, 0.00289402436465024948f, 0.05179609730839729309f, 0.07326902449131011963f, 0.17662119865417480469f, -0.00163319811690598726f, 0.20302818715572357178f, -0.18325616419315338135f, -0.13738764822483062744f, -0.02151429653167724609f, -0.13872365653514862061f, 0.07528552412986755371f, 0.04014535620808601379f, 0.19537892937660217285f, 0.00865289755165576935f, -0.00725140329450368881f, 0.02133743837475776672f, 0.09892027080059051514f},
  {-0.03235726431012153625f, -0.00157823937479406595f, -0.15118697285652160645f, -0.00258389720693230629f, 0.03611769899725914001f, 0.01279958710074424744f, 0.13292853534221649170f, 0.06556123495101928711f, -0.03104971535503864288f, 0.16055431962013244629f, 0.02699556015431880951f, 0.08269791305065155029f, 0.00123724900186061859f, 0.06486898660659790039f, -0.25970795750617980957f, 0.06023484840989112854f, -0.02784100547432899475f, -0.10369002074003219604f, -0.00479332264512777328f, 0.00814673118293285370f, -0.01083216350525617599f, 0.07515907287597656250f, -0.08247113227844238281f, -0.03277925029397010803f, 0.00497509259730577469f, -0.00224763946607708931f, -0.16630123555660247803f, -0.00252794800326228142f, -0.10297255963087081909f, -0.04443819448351860046f, -0.00896923989057540894f, 0.17694874107837677002f, -0.02362227439880371094f, 0.07913509756326675415f, -0.04481387510895729065f, 0.04126476123929023743f, 0.03037547878921031952f, -0.14419864118099212646f, -0.00561362691223621368f, -0.00127602659631520510f, -0.03479218482971191406f, 0.02534146234393119812f, 0.00279039866290986538f, 0.10109827667474746704f, 0.00540395220741629601f, 0.00595333846285939217f, -0.02996504493057727814f, 0.02175272814929485321f, 0.04347100108861923218f, -0.02736549638211727142f, -0.02913306839764118195f, -0.03570284321904182434f, 0.01880018040537834167f, -0.16173100471496582031f, 0.01813795976340770721f, 0.00104556477162986994f, 0.04924587532877922058f, -0.00110388966277241707f, -0.03340748324990272522f, 0.09943957626819610596f, -0.00889246724545955658f, -0.03347626328468322754f, -0.01353601086884737015f, -0.01097191311419010162f},
  {0.04624284058809280396f, 0.01635606773197650909f, 0.14170996844768524170f, 0.04990702867507934570f, 0.01272399351000785828f, -0.01499575376510620117f, 0.09570408612489700317f, -0.04740992933511734009f, 0.02282356843352317810f, -0.07796683162450790405f, 0.03853047639131546021f, 0.03036103956401348114f, -0.01478976942598819733f, -0.02804188244044780731f, 0.04962798580527305603f, -0.01845173537731170654f, -0.12683968245983123779f, 0.09363379329442977905f, -0.08196254819631576538f, 0.04410668835043907166f, -0.03800432756543159485f, 0.02523663267493247986f, 0.06183383241295814514f, 0.09457860141992568970f, -0.09588845074176788330f, 0.02743486873805522919f, 0.01015920285135507584f, 0.03101279586553573608f, -0.10552153736352920532f, -0.07765781879425048828f, -0.14817740023136138916f, -0.21246209740638732910f, 0.01230578217655420303f, 0.05606479942798614502f, 0.04685132578015327454f, -0.19227503240108489990f, -0.00978385377675294876f, 0.00349320378154516220f, 0.03839361667633056641f, -0.03863215819001197815f, -0.00730515131726861000f, 0.03186056762933731079f, -0.09367724508047103882f, 0.15630045533180236816f, -0.12237748503684997559f, 0.07984752207994461060f, 0.00727341743186116219f, -0.11461099237203598022f, -0.05665241554379463196f, 0.07704663276672363281f, 0.24355825781822204590f, 0.23325704038143157959f, 0.05195139721035957336f, 0.04462395608425140381f, -0.09935044497251510620f, 0.03076468966901302338f, -0.06417638808488845825f, 0.06604137271642684937f, -0.06054008007049560547f, -0.05158032476902008057f, 0.01952808350324630737f, 0.00934037286788225174f, -0.02099678106606006622f, -0.23035830259323120117f},
  {0.00319075677543878555f, -0.00057729566469788551f, -0.19901283085346221924f, 0.46093249320983886719f, -0.00049676233902573586f, -0.50627326965332031250f, 0.48361262679100036621f, -0.00206575682386755943f, 0.09396148473024368286f, 0.05888053029775619507f, 0.55224263668060302734f, -0.69631028175354003906f, -0.00063509610481560230f, -0.00706316251307725906f, 0.77042514085769653320f, -0.00239014066755771637f, -0.11652092635631561279f, -0.17529942095279693604f, 0.30400666594505310059f, 0.00030110229272395372f, -0.00201675319112837315f, -0.62419635057449340820f, 0.00297225615940988064f, 0.00508778402581810951f, 0.74899947643280029297f, -0.38989087939262390137f, -0.70133918523788452148f, 0.00222260295413434505f, 0.12391860038042068481f, 0.38525319099426269531f, 0.00367505289614200592f, -0.01999386399984359741f, 0.12210965156555175781f, -0.18166796863079071045f, 0.00192940840497612953f, -0.21171623468399047852f, -0.00117868103552609682f, -0.35972604155540466309f, 0.00110160256735980511f, -0.65547502040863037109f, -0.00027017682441510260f, 0.00181971199344843626f, 0.28283685445785522461f, 0.12032853811979293823f, 0.18609565496444702148f, 0.57099586725234985352f, -1.31220328807830810547f, 0.47328197956085205078f, -0.26079455018043518066f, -0.97870898246765136719f, 0.75059258937835693359f, -0.27186849713325500488f, 0.17047616839408874512f, -0.32388389110565185547f, 0.45987594127655029297f, -0.00167316105216741562f, -0.69733291864395141602f, 0.31104126572608947754f, 0.25254145264625549316f, -0.06160216033458709717f, 0.00062588864238932729f, -0.00093487079720944166f, 0.00161580194253474474f, 0.06714966893196105957f},
  {-0.00152856949716806412f, 0.00177927524782717228f, 0.08422852307558059692f, -0.56890088319778442383f, -0.00237751402892172337f, -1.04703104496002197266f, -0.09443631023168563843f, 0.00658623548224568367f, 0.20308427512645721436f, 0.12621888518333435059f, -0.01274009887129068375f, 0.49228295683860778809f, -0.00059954862808808684f, -0.19305160641670227051f, 0.04348682239651679993f, 0.00380124757066369057f, 0.00684609776362776756f, -0.28430935740470886230f, 0.33512160181999206543f, 0.00002209642843808979f, 0.00057427922729402781f, 0.11904752999544143677f, 0.09666000306606292725f, 0.71061396598815917969f, -0.31320554018020629883f, 0.22273127734661102295f, 0.14358834922313690186f, -0.00375545676797628403f, 0.50696825981140136719f, 0.25130739808082580566f, -0.00588923366740345955f, 0.59379595518112182617f, -0.63113331794738769531f, 0.72321540117263793945f, -0.00043711822945624590f, 0.80445104837417602539f, 0.00117254548240453005f, -0.06292394548654556274f, -0.00209063407965004444f, 0.25344619154930114746f, -0.00038465476245619357f, -0.00040414027171209455f, -0.66974228620529174805f, 0.16368655860424041748f, -0.87512707710266113281f, 0.00729600153863430023f, -0.03557793796062469482f, -0.50186610221862792969f, -0.26787719130516052246f, 0.79916077852249145508f, 0.58971351385116577148f, -0.51344102621078491211f, -0.58369731903076171875f, 0.17632061243057250977f, 0.43916851282119750977f, -0.00234970380552113056f, 0.36909419298171997070f, -0.34270805120468139648f, 0.55351895093917846680f, -0.51225632429122924805f, -0.00062169897137209773f, -0.00035313793341629207f, 0.00020396969921421260f, -0.35291400551795959473f},
  {0.00494131352752447128f, -0.00302773411385715008f, 0.10252300649881362915f, 0.05440942198038101196f, 0.04444876685738563538f, 0.01986651867628097534f, -0.09303351491689682007f, -0.07857885956764221191f, 0.03292921930551528931f, -0.11322903633117675781f, 0.00554355978965759277f, -0.07894629240036010742f, -0.00107651471626013517f, -0.00907026045024394989f, 0.12848746776580810547f, -0.00034401071025058627f, -0.08280366659164428711f, -0.25258514285087585449f, -0.00105431792326271534f, 0.01544913835823535919f, -0.00444848183542490005f, -0.02015298418700695038f, 0.03135789558291435242f, 0.02382674254477024078f, -0.05150075629353523254f, 0.01604299061000347137f, 0.06052657216787338257f, -0.01447952259331941605f, 0.02229715883731842041f, 0.13054876029491424561f, 0.12844125926494598389f, -0.10104253888130187988f, 0.05199907720088958740f, 0.00631511490792036057f, -0.01699423976242542267f, 0.06515297293663024902f, -0.01442850567400455475f, -0.02064758539199829102f, 0.01976165547966957092f, 0.00818578246980905533f, 0.01251632999628782272f, -0.00626546610146760941f, 0.08782596141099929810f, -0.05932775512337684631f, -0.07485605776309967041f, 0.02301262877881526947f, -0.01412804611027240753f, -0.03182838857173919678f, -0.04593163728713989258f, 0.06656894832849502563f, -0.00770910317078232765f, 0.34427842497825622559f, -0.14977625012397766113f, -0.21353423595428466797f, -0.04830432310700416565f, 0.02008168585598468781f, -0.03394032269716262817f, -0.05573215708136558533f, -0.00242004846222698689f, -0.00878788810223340988f, -0.01024365331977605820f, 0.01014335826039314270f, -0.00946612749248743057f, -0.33541813492774963379f},
  {-0.04583208262920379639f, -0.01625860668718814850f, -0.02510577440261840820f, -0.01299117598682641983f, 0.05175324901938438416f, 0.02370300516486167908f, -0.07476194947957992554f, -0.01493688300251960754f, 0.05757443234324455261f, 0.27299526333808898926f, -0.02753870747983455658f, -0.03701699152588844299f, 0.03883998095989227295f, 0.02400759235024452209f, 0.08974432945251464844f, -0.03429348766803741455f, -0.42869910597801208496f, 0.17241032421588897705f, 0.03929378464818000793f, -0.03288256749510765076f, -0.06487462669610977173f, -0.06789749115705490112f, -0.01084730774164199829f, 0.03973379731178283691f, -0.08869354426860809326f, -0.04529144987463951111f, -0.09442520886659622192f, 0.00169597228523343801f, 0.11846215277910232544f, 0.01058477349579334259f, -0.10114554315805435181f, -0.13923247158527374268f, 0.02966444566845893860f, -0.00242369691841304302f, -0.05811212956905364990f, -0.04913545772433280945f, -0.03715104609727859497f, 0.08236082643270492554f, 0.02592710033059120178f, -0.00791362207382917404f, 0.05792270973324775696f, 0.07738845795392990112f, 0.03985403105616569519f, 0.00979305617511272430f, 0.05904925987124443054f, 0.03031566366553306580f, 0.01723591051995754242f, 0.02225390262901782990f, -0.05566234886646270752f, 0.02590744011104106903f, -0.00378289236687123775f, -0.12397205084562301636f, -0.12859062850475311279f, 0.19519920647144317627f, -0.00699715502560138702f, 0.04701499268412590027f, -0.05513536557555198669f, -0.00648651085793972015f, -0.02603722363710403442f, 0.04512056335806846619f, 0.03158554434776306152f, 0.07586562633514404297f, -0.01089271437376737595f, -0.06429793685674667358f},
  {-0.00187699636444449425f, -0.00601828610524535179f, -1.25162827968597412109f, 0.58768230676651000977f, 0.00658311787992715836f, 0.39827048778533935547f, -0.11319259554147720337f, -0.00848255213350057602f, 0.70650631189346313477f, -0.08236084133386611938f, -0.60715794563293457031f, -0.90761041641235351562f, -0.00206264527514576912f, -0.41643214225769042969f, 0.43590402603149414062f, -0.00464293127879500389f, -0.41037976741790771484f, -0.56762081384658813477f, -0.87882083654403686523f, -0.00205293088220059872f, -0.00662612542510032654f, -0.48758482933044433594f, -0.78903323411941528320f, -0.51668620109558105469f, -0.14418470859527587891f, -0.94666892290115356445f, -0.38363441824913024902f, -0.00001078358036465943f, -0.60483890771865844727f, 0.89744216203689575195f, -0.02539260312914848328f, 0.76892668008804321289f, -1.66227972507476806641f, -1.41958081722259521484f, -0.00197851588018238544f, -0.71034151315689086914f, 0.00086992990691214800f, 0.44931742548942565918f, 0.00736533151939511299f, -0.11023110151290893555f, -0.00003116599327768199f, 0.00677654519677162170f, -0.62057042121887207031f, -0.07707659900188446045f, -0.35538977384567260742f, 0.90814048051834106445f, -1.42171180248260498047f, 0.52332115173339843750f, -0.41548836231231689453f, -0.55324321985244750977f, 0.03606033697724342346f, 0.54464197158813476562f, -0.24025219678878784180f, 0.29061031341552734375f, -0.03025444410741329193f, 0.00212658685632050037f, -0.60497802495956420898f, -0.42985635995864868164f, 0.36085209250450134277f, -0.06906796246767044067f, 0.00086538231698796153f, -0.00091811188030987978f, 0.00051866233116015792f, 0.19285388290882110596f},
  {-0.02474158257246017456f, 0.02336084097623825073f, 0.00263612694106996059f, 0.05297757312655448914f, -0.00524655450135469437f, -0.05093761533498764038f, -0.12995594739913940430f, 0.00879462342709302902f, -0.08777904510498046875f, -0.19831490516662597656f, -0.04060057923197746277f, -0.02715437673032283783f, 0.03794298321008682251f, -0.00613589398562908173f, 0.02182422019541263580f, -0.01243587397038936615f, 0.09979007393121719360f, 0.05644258111715316772f, 0.01775073073804378510f, -0.04529134184122085571f, 0.02047451213002204895f, 0.19643363356590270996f, 0.04348564147949218750f, -0.05740125104784965515f, -0.04373436421155929565f, 0.01246721949428319931f, 0.04543223604559898376f, 0.00177872390486299992f, 0.03821726888418197632f, 0.15474078059196472168f, -0.00453795492649078369f, -0.08052640408277511597f, 0.02124120481312274933f, 0.10215648263692855835f, -0.02936235815286636353f, -0.05610160529613494873f, -0.04955511167645454407f, 0.00616336986422538757f, 0.00668589537963271141f, -0.02710246481001377106f, 0.05300727114081382751f, -0.01577161252498626709f, -0.07893066853284835815f, -0.02100883610546588898f, -0.04113877192139625549f, 0.00040273548802360892f, 0.02920219488441944122f, 0.01226281560957431793f, -0.03299770876765251160f, 0.02476838044822216034f, -0.01409085094928741455f, -0.00376012292690575123f, -0.00600913399830460548f, -0.14584638178348541260f, -0.06738302111625671387f, 0.02678770758211612701f, 0.00477440422400832176f, 0.04706827178597450256f, -0.00528415106236934662f, 0.03800055384635925293f, 0.04450538754463195801f, 0.03698496520519256592f, -0.01761632785201072693f, 0.03219043090939521790f},
  {0.08012519776821136475f, -0.01231422368437051773f, -0.10577903687953948975f, -0.02417526580393314362f, -0.01603305712342262268f, 0.04426115378737449646f, -0.11741176247596740723f, -0.05845018103718757629f, -0.01309870183467864990f, -0.13744354248046875000f, -0.00578814698383212090f, -0.09359778463840484619f, -0.01098595187067985535f, -0.01311786845326423645f, -0.04541928321123123169f, -0.00199998100288212299f, -0.09159289300441741943f, 0.00264283129945397377f, 0.00087503110989928246f, 0.02994546853005886078f, -0.02486658096313476562f, 0.06233075633645057678f, 0.01188518758863210678f, 0.01970341615378856659f, -0.05685176327824592590f, 0.00983106438070535660f, -0.16104570031166076660f, 0.07194507122039794922f, 0.04185814037919044495f, 0.15298797190189361572f, -0.11693037301301956177f, -0.11020807921886444092f, 0.03181702271103858948f, 0.16795916855335235596f, 0.06337691098451614380f, 0.09051310271024703979f, 0.02794695459306240082f, -0.15913774073123931885f, 0.01101528014987707138f, 0.05299307778477668762f, -0.01606930419802665710f, 0.00562849873676896095f, 0.08406522870063781738f, 0.02268116176128387451f, -0.06514084339141845703f, -0.06180143356323242188f, -0.04704598337411880493f, 0.03464910760521888733f, -0.03007941879332065582f, 0.06045969948172569275f, -0.11605121195316314697f, 0.11353474110364913940f, 0.00938346888870000839f, 0.04784249886870384216f, -0.00867060106247663498f, -0.02555498294532299042f, -0.03843740001320838928f, -0.02164603769779205322f, 0.10070987045764923096f, 0.15159681439399719238f, 0.00958188995718955994f, -0.05536135658621788025f, 0.03711232915520668030f, 0.00024092900275718421f},
  {0.01072587259113788605f, 0.00234671472571790218f, -0.08900903165340423584f, 0.43890985846519470215f, -0.00948018208146095276f, -0.28754723072052001953f, 0.37026023864746093750f, 0.01402454264461994171f, 0.39180037379264831543f, -0.40647494792938232422f, 0.42513269186019897461f, -0.23134347796440124512f, -0.00782517157495021820f, -0.26505738496780395508f, 0.16013827919960021973f, 0.00591917149722576141f, 0.33113583922386169434f, -0.47421342134475708008f, -0.38863739371299743652f, 0.00463372375816106796f, 0.01041518058627843857f, -0.11557805538177490234f, -0.29404294490814208984f, -0.62885361909866333008f, 0.05860183387994766235f, -0.74037599563598632812f, -0.35638746619224548340f, 0.00630820309743285179f, 0.28717878460884094238f, 0.54673349857330322266f, 0.08688215911388397217f, 0.36511123180389404297f, -0.35783696174621582031f, -0.17033994197845458984f, 0.00461631407961249352f, -0.18873520195484161377f, 0.00915194954723119736f, -0.95470380783081054688f, -0.01082623284310102463f, -0.25148746371269226074f, -0.00830430630594491959f, -0.00882519129663705826f, -0.76983147859573364258f, 0.56646835803985595703f, 0.57309895753860473633f, 0.50145530700683593750f, -0.58603739738464355469f, 0.69246923923492431641f, -0.59874737262725830078f, -0.18084734678268432617f, 0.45717412233352661133f, -0.21536934375762939453f, -0.49809813499450683594f, 0.59583073854446411133f, -0.05664985254406929016f, -0.00568644842132925987f, -0.14033605158329010010f, 0.36309778690338134766f, 0.33522561192512512207f, -0.03405754640698432922f, -0.00946277007460594177f, -0.01086943689733743668f, 0.00381261645816266537f, -1.15620529651641845703f},
  {0.01708596013486385345f, 0.08087855577468872070f, 0.02093011327087879181f, -0.03353445604443550110f, -0.01217331085354089737f, 0.04038280621170997620f, 0.13405998051166534424f, 0.01245683617889881134f, 0.02857405878603458405f, -0.01230298727750778198f, -0.03527405485510826111f, 0.03738100081682205200f, 0.04576554894447326660f, 0.03623060137033462524f, -0.11430955678224563599f, 0.01474565733224153519f, 0.03722642734646797180f, 0.00945741776376962662f, 0.03776331618428230286f, -0.05828831717371940613f, 0.02300808019936084747f, 0.01863799430429935455f, -0.03215203434228897095f, -0.04649769514799118042f, -0.01303377933800220490f, -0.00134366191923618317f, 0.11821539700031280518f, 0.00565054547041654587f, -0.06642466783523559570f, -0.07140918076038360596f, -0.09538353234529495239f, 0.06505531817674636841f, -0.02593135461211204529f, -0.08963853865861892700f, -0.00281778932549059391f, 0.11966887861490249634f, -0.01140801887959241867f, -0.09956751763820648193f, 0.02386527322232723236f, 0.01611483469605445862f, 0.02188981883227825165f, -0.03005057387053966522f, -0.04524757340550422668f, 0.01496975123882293701f, 0.07696206867694854736f, -0.07817038148641586304f, 0.00881102308630943298f, -0.01950176805257797241f, -0.05976088717579841614f, -0.00512360036373138428f, -0.02851849608123302460f, -0.12153697013854980469f, 0.03869040310382843018f, -0.17690034210681915283f, 0.08424159139394760132f, 0.02139159850776195526f, 0.01745341159403324127f, 0.00626159273087978363f, 0.03721579909324645996f, 0.05445907637476921082f, 0.04168977960944175720f, 0.05287031829357147217f, -0.00825996138155460358f, 0.11408086121082305908f},
  {0.02934826351702213287f, 0.01612732559442520142f, -0.22009962797164916992f, -0.02790426462888717651f, -0.03307224810123443604f, -0.00487593747675418854f, 0.03546406701207160950f, 0.00949110370129346848f, 0.14343191683292388916f, -0.03854148089885711670f, -0.00909554027020931244f, -0.02001721225678920746f, -0.06850405037403106689f, -0.02288977615535259247f, -0.14301677048206329346f, -0.02584291063249111176f, 0.18823777139186859131f, -0.15912058949470520020f, -0.03887352719902992249f, 0.10143458098173141479f, -0.00879129301756620407f, -0.01560582965612411499f, -0.06365108489990234375f, -0.02945069223642349243f, 0.06011612713336944580f, 0.00499008269980549812f, -0.06080185249447822571f, -0.01134804636240005493f, -0.05216785892844200134f, 0.06211539357900619507f, 0.09184510260820388794f, -0.12957920134067535400f, 0.03118833154439926147f, 0.12689103186130523682f, 0.08168108016252517700f, 0.04209731146693229675f, 0.01490735448896884918f, -0.03954045102000236511f, 0.02484932728111743927f, 0.09357067942619323730f, -0.05774267762899398804f, 0.00621746340766549110f, 0.29485285282135009766f, 0.04209708422422409058f, 0.10623056441545486450f, -0.15751247107982635498f, -0.07156676799058914185f, 0.01604252122342586517f, -0.00350399361923336983f, 0.03474661335349082947f, 0.21754296123981475830f, -0.20335857570171356201f, -0.09288992732763290405f, -0.18122787773609161377f, -0.16876500844955444336f, -0.00285789021290838718f, 0.00356204132549464703f, -0.15492643415927886963f, 0.16847775876522064209f, 0.05674656853079795837f, -0.03638826310634613037f, -0.04122193902730941772f, -0.00205286731943488121f, 0.31270864605903625488f},
  {0.04994053766131401062f, 0.01076462678611278534f, -0.05365813523530960083f, 0.00023248494835570455f, -0.02337693609297275543f, 0.03879629448056221008f, -0.01442542858421802521f, -0.03550012782216072083f, -0.02868200652301311493f, 0.03601815178990364075f, -0.02324572578072547913f, -0.00384973455220460892f, -0.00084420747589319944f, 0.04332782328128814697f, -0.12040799111127853394f, -0.00770748266950249672f, -0.07313685864210128784f, -0.00861314591020345688f, 0.02845212444663047791f, 0.03543815761804580688f, -0.03656035661697387695f, 0.01862053386867046356f, -0.02018461376428604126f, -0.01655220240354537964f, -0.04098590835928916931f, 0.01714930683374404907f, 0.02026268467307090759f, 0.01356788258999586105f, -0.01677264273166656494f, 0.07377769798040390015f, 0.02289053425192832947f, -0.02424091845750808716f, -0.02226232737302780151f, 0.03705020248889923096f, 0.02386723458766937256f, -0.00904324557632207870f, -0.06810761243104934692f, -0.22417953610420227051f, 0.03769826516509056091f, -0.01241109985858201981f, 0.01409154664725065231f, 0.02302702888846397400f, -0.10393971949815750122f, 0.05596584826707839966f, 0.05769191309809684753f, 0.00501247448846697807f, -0.00806196592748165131f, 0.00204106955789029598f, -0.00623888196423649788f, 0.01468833722174167633f, -0.04892113059759140015f, -0.10152845829725265503f, 0.12326122820377349854f, -0.05369063839316368103f, 0.07957933098077774048f, -0.03997826203703880310f, -0.02353680878877639771f, -0.00407379353418946266f, 0.02094986289739608765f, 0.12716311216354370117f, -0.00654870085418224335f, -0.03039966523647308350f, 0.03184794634580612183f, 0.11224374175071716309f},
  {-0.04423996433615684509f, -0.00766756059601902962f, -0.23855094611644744873f, 0.08191784471273422241f, 0.00290409382432699203f, -0.09318589419126510620f, -0.07339822500944137573f, 0.00920227263122797012f, 0.22208985686302185059f, -0.06396334618330001831f, -0.06519346684217453003f, 0.09041745960712432861f, 0.04923764243721961975f, -0.13378188014030456543f, 0.02765724994242191315f, 0.01612962223589420319f, 0.22364483773708343506f, 0.30290135741233825684f, 0.00175768672488629818f, -0.04134809225797653198f, 0.04080637171864509583f, -0.12396248430013656616f, 0.09564185142517089844f, -0.06447174400091171265f, 0.15076236426830291748f, -0.01504795812070369720f, -0.09743849933147430420f, 0.01066523604094982147f, -0.14494809508323669434f, -0.07270868122577667236f, -0.11570817977190017700f, -0.04213299602270126343f, 0.05210965126752853394f, 0.13985247910022735596f, -0.01354277320206165314f, 0.15704835951328277588f, -0.06641793251037597656f, 0.13876131176948547363f, -0.02853748574852943420f, 0.05300518870353698730f, 0.07592096924781799316f, -0.05068366229534149170f, -0.00423577940091490746f, -0.08666300028562545776f, -0.02720480225980281830f, -0.10180039703845977783f, 0.00093202380230650306f, 0.05705070868134498596f, 0.09722500294446945190f, -0.08057972788810729980f, -0.23209217190742492676f, 0.01850477606058120728f, 0.18440181016921997070f, 0.16053369641304016113f, 0.16705863177776336670f, 0.04370519891381263733f, 0.00301774218678474426f, -0.10207352042198181152f, 0.17988801002502441406f, -0.13081218302249908447f, 0.00622215587645769119f, 0.03844741359353065491f, -0.01550114620476961136f, -0.02766889892518520355f},
  {-0.06575425714254379272f, 0.04353032261133193970f, -0.03989255055785179138f, 0.03934606164693832397f, -0.02528399601578712463f, -0.02548225969076156616f, 0.01401008386164903641f, 0.01999332569539546967f, -0.01941069401800632477f, -0.11721219122409820557f, 0.00751538667827844620f, 0.08462548255920410156f, 0.03043917939066886902f, 0.00545022776350378990f, 0.04402931034564971924f, 0.03114394843578338623f, 0.07837670296430587769f, 0.03933706879615783691f, -0.00600309949368238449f, -0.00685117952525615692f, -0.00844880379736423492f, -0.01631841436028480530f, -0.00901411566883325577f, -0.03711276501417160034f, 0.09808491915464401245f, 0.02898082509636878967f, -0.00489741843193769455f, -0.00615890882909297943f, -0.09927155077457427979f, -0.05800365656614303589f, 0.09710493683815002441f, 0.11828278750181198120f, -0.06714372336864471436f, -0.00429937802255153656f, -0.03417862951755523682f, 0.09662234038114547729f, -0.00675931386649608612f, -0.11893054842948913574f, -0.03160902857780456543f, 0.00262079876847565174f, 0.03896100446581840515f, 0.00714451214298605919f, -0.09732018411159515381f, -0.09746038168668746948f, 0.01734854094684123993f, 0.00441821757704019547f, -0.02917441353201866150f, 0.00599091732874512672f, 0.05931783095002174377f, -0.02079146355390548706f, -0.06937064975500106812f, -0.18762445449829101562f, 0.09204472601413726807f, 0.03424312174320220947f, 0.14761155843734741211f, -0.01264458335936069489f, 0.06287261843681335449f, 0.04998077824711799622f, -0.02942289784550666809f, 0.03160168603062629700f, 0.01424991898238658905f, 0.04310563951730728149f, -0.01506212074309587479f, 0.22849817574024200439f},
  {0.00024140266759786755f, -0.00063381891231983900f, 0.29223129153251647949f, 0.80286073684692382812f, -0.00098879111465066671f, 0.07831235975027084351f, 0.23586712777614593506f, 0.00012093975237803534f, 0.28445145487785339355f, 0.36193436384201049805f, 0.42657408118247985840f, -0.15046915411949157715f, -0.00053663761354982853f, -1.73153531551361083984f, 0.04302633553743362427f, 0.00186988804489374161f, -0.08836952596902847290f, -0.09913819283246994019f, -0.04442430287599563599f, 0.00028516311431303620f, 0.00148811715189367533f, -0.36293274164199829102f, -0.77145427465438842773f, -0.62693500518798828125f, -0.04807428643107414246f, 0.55841869115829467773f, -0.38240903615951538086f, -0.00098816026002168655f, 0.28194397687911987305f, 0.39574021100997924805f, -0.00653580436483025551f, 0.37421184778213500977f, 0.11970355361700057983f, 0.29387032985687255859f, 0.00209355750121176243f, 0.46918433904647827148f, -0.00004098258432350121f, -0.17144009470939636230f, -0.00197187671437859535f, -0.83398675918579101562f, -0.00008907962183002383f, -0.00117639009840786457f, -0.66050153970718383789f, 0.50652033090591430664f, -0.08924797922372817993f, -0.45302972197532653809f, 0.01220010779798030853f, 0.47978517413139343262f, 0.53384441137313842773f, 0.84580349922180175781f, 0.67034435272216796875f, -0.40445089340209960938f, -0.38017407059669494629f, -0.08031599968671798706f, 0.21886059641838073730f, -0.00031661739922128618f, -0.74879848957061767578f, -0.68517613410949707031f, -0.60603177547454833984f, 0.33262348175048828125f, -0.00163418427109718323f, -0.00154916080646216869f, -0.00020645379845518619f, -0.01408446114510297775f},
  {-0.00706959376111626625f, -0.05096971243619918823f, 0.07194260507822036743f, -0.06927299499511718750f, 0.02138852328062057495f, 0.02700429409742355347f, -0.04859768971800804138f, 0.01844313181936740875f, 0.18200927972793579102f, 0.05624887347221374512f, 0.01716720499098300934f, 0.00098414800595492125f, 0.02838578261435031891f, 0.00001228978635481326f, -0.00496909627690911293f, -0.03461360931396484375f, -0.14243307709693908691f, -0.21892371773719787598f, -0.02503184229135513306f, -0.03554586321115493774f, 0.00192975660320371389f, 0.00931333750486373901f, 0.04524919018149375916f, -0.02563822083175182343f, 0.04510794952511787415f, -0.08600350469350814819f, 0.03449117019772529602f, 0.02318401262164115906f, 0.00787073280662298203f, -0.01142668910324573517f, -0.03134412318468093872f, 0.03274525701999664307f, 0.02522753365337848663f, 0.01850614883005619049f, -0.02476217597723007202f, 0.07397353649139404297f, 0.01281913928687572479f, 0.10237912088632583618f, -0.02345051616430282593f, -0.07342816144227981567f, 0.02384863048791885376f, -0.00406532175838947296f, 0.08771028369665145874f, -0.16507795453071594238f, 0.13529458642005920410f, 0.04957226291298866272f, 0.05043041706085205078f, -0.05505467578768730164f, -0.12465792894363403320f, 0.01418537925928831100f, 0.00383770163170993328f, -0.13721518218517303467f, -0.14855532348155975342f, -0.09928059577941894531f, -0.05249407142400741577f, 0.02501714043319225311f, 0.01439823117107152939f, -0.03757100179791450500f, -0.09228765964508056641f, -0.20254845917224884033f, 0.00973299145698547363f, 0.03081904165446758270f, 0.01189074199646711349f, 0.06579422950744628906f},
  {-0.05375628918409347534f, 0.12042337656021118164f, 0.00654970388859510422f, 0.04404916986823081970f, -0.02727017551660537720f, 0.00176859018392860889f, 0.00207399041391909122f, 0.06730861216783523560f, -0.10932381451129913330f, -0.10018788278102874756f, -0.00590402819216251373f, -0.01920789852738380432f, 0.11585997045040130615f, -0.03495328873395919800f, -0.11640219390392303467f, 0.07943768054246902466f, -0.06967160105705261230f, -0.05778234452009201050f, -0.01119681913405656815f, -0.11551345139741897583f, -0.02634075284004211426f, -0.04992149025201797485f, 0.00557885970920324326f, 0.01416173018515110016f, 0.01135814655572175980f, -0.01473775133490562439f, -0.06254016607999801636f, -0.08416884392499923706f, 0.07487383484840393066f, -0.02416214533150196075f, 0.03308029472827911377f, -0.04349492117762565613f, 0.03519706800580024719f, -0.01993962936103343964f, -0.05841323360800743103f, 0.13048110902309417725f, -0.08277728408575057983f, 0.01692885905504226685f, 0.06000851839780807495f, -0.03479023650288581848f, 0.07735462486743927002f, -0.00093627272872254252f, -0.03258203715085983276f, 0.00715671107172966003f, -0.01030875835567712784f, 0.02603360265493392944f, -0.01436608750373125076f, -0.00096304621547460556f, 0.01691011153161525726f, 0.01342825777828693390f, -0.02456937357783317566f, -0.09747941046953201294f, 0.14452777802944183350f, 0.23833642899990081787f, 0.00734965316951274872f, -0.01804077811539173126f, 0.01769943721592426300f, 0.01470887102186679840f, 0.03970475494861602783f, -0.00763371819630265236f, 0.05723059549927711487f, 0.08884879201650619507f, 0.02713085524737834930f, 0.14957562088966369629f},
  {-0.05580241233110427856f, -0.00013864973152521998f, -0.11121442914009094238f, 0.05668687820434570312f, 0.00916274823248386383f, -0.04723215475678443909f, -0.37567955255508422852f, 0.00650461530312895775f, 0.05052116140723228455f, -0.14585289359092712402f, -0.04178064689040184021f, -0.00328912818804383278f, 0.06333010643720626831f, -0.03138285502791404724f, -0.27950736880302429199f, 0.00191637512762099504f, 0.47366076707839965820f, -0.01096253842115402222f, -0.04442216083407402039f, -0.10098661482334136963f, -0.00037411454832181334f, -0.14504334330558776855f, 0.02719824761152267456f, -0.12793356180191040039f, 0.08072017878293991089f, -0.03607591614127159119f, -0.31311798095703125000f, -0.03390805423259735107f, -0.03274041786789894104f, 0.08546207845211029053f, 0.19411471486091613770f, -0.01606591232120990753f, 0.16200073063373565674f, 0.06935672461986541748f, -0.08231610804796218872f, 0.09168933331966400146f, -0.03369056060910224915f, 0.23647795617580413818f, -0.01601238735020160675f, -0.02333456836640834808f, 0.05828117579221725464f, 0.00713715143501758575f, 0.07886407524347305298f, 0.04922259226441383362f, -0.24883957207202911377f, 0.02082548476755619049f, -0.09479857236146926880f, 0.11323926597833633423f, -0.08169364929199218750f, 0.01593800075352191925f, 0.03467986360192298889f, 0.24441021680831909180f, 0.30856832861900329590f, 0.04452747106552124023f, 0.16745792329311370850f, -0.01294890139251947403f, 0.05509310960769653320f, -0.11519625782966613770f, 0.10908009856939315796f, -0.17360311746597290039f, 0.01381461322307586670f, 0.03529807180166244507f, -0.01149175409227609634f, -0.05601991340517997742f},
  {-0.01335047744214534760f, 0.00822988618165254593f, -0.06003525108098983765f, 0.09397057443857192993f, -0.04760707542300224304f, 0.02301968820393085480f, 0.15124957263469696045f, 0.09865806996822357178f, -0.13063299655914306641f, -0.09568848460912704468f, -0.01346121169626712799f, 0.04640252515673637390f, -0.03672351315617561340f, 0.01160063408315181732f, 0.14194767177104949951f, 0.01055992115288972855f, -0.05999103561043739319f, 0.00819859281182289124f, 0.02348194271326065063f, 0.05385352298617362976f, -0.00594731234014034271f, 0.06110875308513641357f, -0.04440887272357940674f, 0.00665451167151331902f, -0.02554550208151340485f, 0.07634015381336212158f, 0.09782196581363677979f, -0.07274844497442245483f, -0.01475996617227792740f, -0.11712465435266494751f, -0.02893407084047794342f, -0.06942015141248703003f, -0.00716641824692487717f, 0.07073862105607986450f, 0.09682804346084594727f, -0.03600800782442092896f, 0.04769882559776306152f, 0.05712622776627540588f, 0.00777020258828997612f, -0.00600407877936959267f, -0.06844568997621536255f, -0.00134892924688756466f, -0.09916394203901290894f, -0.02899448387324810028f, 0.01957438327372074127f, 0.03455098718404769897f, 0.00545718846842646599f, -0.00350979086942970753f, -0.00878456514328718185f, 0.01192396227270364761f, -0.08923440426588058472f, 0.00588992098346352577f, -0.04483839124441146851f, 0.03305786475539207458f, 0.07114943116903305054f, -0.06535259634256362915f, -0.01974198780953884125f, 0.01603979431092739105f, -0.07026341557502746582f, 0.05123830959200859070f, -0.04263767227530479431f, -0.03449122235178947449f, 0.03276505693793296814f, -0.12326951324939727783f},
  {0.05671398714184761047f, 0.01272665336728096008f, 0.07768648862838745117f, -0.00369603373110294342f, -0.04308766126632690430f, -0.03095758520066738129f, 0.17765647172927856445f, -0.01245271414518356323f, 0.00212851352989673615f, 0.23729093372821807861f, -0.14423814415931701660f, -0.10073550045490264893f, -0.05379213765263557434f, 0.09705938398838043213f, -0.10539415478706359863f, -0.00869423709809780121f, 0.30896541476249694824f, 0.10114855319261550903f, 0.07607741653919219971f, 0.00853772833943367004f, -0.02136475592851638794f, 0.04562602937221527100f, -0.11848741024732589722f, 0.03531527146697044373f, -0.18021079897880554199f, -0.08424703031778335571f, 0.07308157533407211304f, -0.01239420194178819656f, -0.02292831428349018097f, -0.09144561737775802612f, -0.06067712604999542236f, -0.37830665707588195801f, 0.04532798752188682556f, -0.13605593144893646240f, 0.00770765915513038635f, -0.19285984337329864502f, -0.00005213654731051065f, -0.00400106469169259071f, 0.02694976516067981720f, 0.06352894753217697144f, -0.02561495825648307800f, 0.02769135683774948120f, 0.03380033746361732483f, 0.20120446383953094482f, 0.12460582703351974487f, -0.11046939343214035034f, 0.06828135251998901367f, -0.08580789715051651001f, -0.07033897936344146729f, -0.05515470728278160095f, 0.01497523859143257141f, 0.09495182335376739502f, 0.12991303205490112305f, -0.13562600314617156982f, 0.11832825094461441040f, -0.07931552827358245850f, -0.18937698006629943848f, -0.13361109793186187744f, 0.19278918206691741943f, 0.05177738890051841736f, 0.00345884356647729874f, -0.05494517087936401367f, 0.04614628106355667114f, -0.13995903730392456055f},
  {-0.00609465641900897026f, 0.00387224671430885792f, 0.34929952025413513184f, -0.24442152678966522217f, 0.00062082597287371755f, -0.67333680391311645508f, -0.11721962690353393555f, 0.00023036210041027516f, 0.23052771389484405518f, 0.04692882299423217773f, -0.26232501864433288574f, -0.01176309119910001755f, 0.01331619825214147568f, -1.19081830978393554688f, -0.13251928985118865967f, -0.00501537322998046875f, -0.07031074166297912598f, -0.49278804659843444824f, -0.15020465850830078125f, -0.01613293774425983429f, -0.00146335526369512081f, -0.87475055456161499023f, -0.57490211725234985352f, -0.23317772150039672852f, -0.44652920961380004883f, -0.48577290773391723633f, -1.10355830192565917969f, 0.00054114509839564562f, 0.37964949011802673340f, 0.41147431731224060059f, 0.05099521949887275696f, -0.09170234948396682739f, -1.23530757427215576172f, 0.41746962070465087891f, -0.01610983908176422119f, 0.62388175725936889648f, -0.01134588103741407394f, 0.27131745219230651855f, -0.00015507622447330505f, 0.69331181049346923828f, 0.01494732126593589783f, 0.00155009014997631311f, -1.22436296939849853516f, 0.41405928134918212891f, -0.77462738752365112305f, -0.65967053174972534180f, -0.68901836872100830078f, 0.32554051280021667480f, -0.32083782553672790527f, 0.14172890782356262207f, 0.38313704729080200195f, 0.00655213790014386177f, -0.58738303184509277344f, 0.11619964987039566040f, 0.33728882670402526855f, -0.00111862388439476490f, -0.53088831901550292969f, -0.73676538467407226562f, -0.96633636951446533203f, -0.89849132299423217773f, 0.00881649274379014969f, 0.01308520231395959854f, 0.00323149817995727062f, 0.21691839396953582764f},
  {-0.00028725981246680021f, 0.00222996878437697887f, -0.02047481760382652283f, 0.39993017911911010742f, -0.00280849076807498932f, 0.21444855630397796631f, -0.50154376029968261719f, 0.00270329625345766544f, 0.28208795189857482910f, -0.10174374282360076904f, 0.03311788290739059448f, -0.38863617181777954102f, 0.00415556970983743668f, -1.74102926254272460938f, -0.03619928658008575439f, 0.00046530598774552345f, -0.15213002264499664307f, -0.24568210542201995850f, -1.03516399860382080078f, -0.00473577482625842094f, 0.00146898394450545311f, -0.44974982738494873047f, -1.45639908313751220703f, -0.90191751718521118164f, -0.61662787199020385742f, 0.09872680157423019409f, -0.45230755209922790527f, -0.00118625129107385874f, 0.02519869059324264526f, 0.34441450238227844238f, 0.03312136232852935791f, 0.45830574631690979004f, -0.03496658802032470703f, -0.13803716003894805908f, -0.00300603406503796577f, -0.14908114075660705566f, -0.00556142069399356842f, 0.01876135729253292084f, -0.00075520324753597379f, -1.16106998920440673828f, 0.00424769986420869827f, -0.00060761533677577972f, 0.27911934256553649902f, -0.11426330357789993286f, -0.12724581360816955566f, -0.10076384246349334717f, -0.08206166326999664307f, -1.64944732189178466797f, 1.01411747932434082031f, -0.57524496316909790039f, 0.27239012718200683594f, 0.14028212428092956543f, -0.13064163923263549805f, -0.15837614238262176514f, 0.68457740545272827148f, -0.00055390316992998123f, -0.08349224179983139038f, -0.29422426223754882812f, 0.20594686269760131836f, 0.30209147930145263672f, 0.00380682526156306267f, 0.00173749576788395643f, 0.00112331216223537922f, -0.02529842033982276917f},
  {-0.00012091468670405447f, 0.00039338084752671421f, -0.67856085300445556641f, 0.31624031066894531250f, -0.00011700511095114052f, -1.07049095630645751953f, 0.22718590497970581055f, -0.00135367782786488533f, 0.09531704336404800415f, 0.48971807956695556641f, 0.23558305203914642334f, 0.41368851065635681152f, 0.00213768961839377880f, 0.24498786032199859619f, 0.85554426908493041992f, -0.00048168355715461075f, -0.31897529959678649902f, -0.34513294696807861328f, 0.20986400544643402100f, -0.00189299427438527346f, 0.00214305380359292030f, -0.55756783485412597656f, -0.11168438196182250977f, -0.00424429355189204216f, -0.97000855207443237305f, 0.91178143024444580078f, -0.61496150493621826172f, 0.00184124324005097151f, 0.26385730504989624023f, 0.36467000842094421387f, 0.01367801893502473831f, 0.01756213791668415070f, -0.05474496632814407349f, -0.11713205277919769287f, -0.00310478406026959419f, 0.25845399498939514160f, -0.00194581062532961369f, 0.20721659064292907715f, -0.00029392330907285213f, -0.08838818967342376709f, 0.00210086186416447163f, -0.00277197547256946564f, 0.64252364635467529297f, -0.75585114955902099609f, -0.86504495143890380859f, -0.18457831442356109619f, -0.55940949916839599609f, -0.81670892238616943359f, -0.22081221640110015869f, 0.45777258276939392090f, 0.09277587383985519409f, -0.70025092363357543945f, 0.32753920555114746094f, -0.21345812082290649414f, 0.26299825310707092285f, 0.00300858216360211372f, -0.76043814420700073242f, 0.41039437055587768555f, 0.53354352712631225586f, -0.75138044357299804688f, 0.00068105879472568631f, 0.00127372855786234140f, -0.00134210567921400070f, 0.23813015222549438477f},
  {0.00101212016306817532f, 0.04900947213172912598f, -0.08703055232763290405f, 0.10290548950433731079f, -0.03292445093393325806f, -0.04022744297981262207f, -0.09059448540210723877f, 0.04524563997983932495f, 0.03719362989068031311f, -0.03964079171419143677f, -0.02981342561542987823f, 0.06072170287370681763f, 0.01662413403391838074f, -0.06996805220842361450f, 0.14725135266780853271f, 0.03530026972293853760f, -0.04233144968748092651f, 0.01771850138902664185f, -0.01267425995320081711f, 0.06754291057586669922f, -0.04087166115641593933f, -0.04446234181523323059f, 0.04610257595777511597f, -0.01744133420288562775f, 0.04225826263427734375f, 0.06503935903310775757f, 0.00510450918227434158f, -0.05280936509370803833f, -0.05905395001173019409f, -0.18805150687694549561f, 0.13321597874164581299f, -0.00683050695806741714f, 0.05174256488680839539f, 0.05013230443000793457f, 0.06180388852953910828f, 0.04743670299649238586f, -0.02547798492014408112f, 0.04357854276895523071f, -0.00337489345110952854f, 0.02109831757843494415f, -0.01703278161585330963f, -0.00667989999055862427f, -0.02922613173723220825f, -0.03807305917143821716f, -0.04043746367096900940f, 0.00145606719888746738f, -0.01512403134256601334f, 0.01527262665331363678f, 0.00009658939234213904f, 0.00384989497251808643f, 0.06811615824699401855f, 0.06608466804027557373f, 0.02325756102800369263f, -0.14395710825920104980f, 0.08942413330078125000f, -0.04139447212219238281f, 0.00365905486978590488f, -0.01595102064311504364f, -0.00547194713726639748f, -0.09941448271274566650f, -0.01315199490636587143f, 0.00495385844260454178f, 0.00224390090443193913f, -0.09748286008834838867f},
  {-0.02992272190749645233f, -0.03943824395537376404f, -0.54249793291091918945f, -0.41061970591545104980f, 0.05113682895898818970f, -0.75827145576477050781f, -0.21575227379798889160f, -0.01448044646531343460f, 0.14580908417701721191f, 0.19014148414134979248f, -1.12433028221130371094f, -0.16747748851776123047f, 0.01907715015113353729f, 0.55299681425094604492f, 0.46427032351493835449f, -0.00807973463088274002f, -0.48162883520126342773f, -0.93733119964599609375f, -0.61248481273651123047f, -0.03683201968669891357f, -0.00003776318044401705f, -0.19702576100826263428f, -0.20141032338142395020f, 0.13405476510524749756f, -0.17000779509544372559f, 0.34538760781288146973f, -0.55232334136962890625f, -0.00294343708083033562f, -0.08622097969055175781f, 0.20114432275295257568f, -0.00071164109976962209f, 1.00204277038574218750f, -0.27716693282127380371f, -0.26309382915496826172f, -0.05431973561644554138f, 0.22416697442531585693f, 0.01621852815151214600f, 0.31213822960853576660f, -0.01601454243063926697f, 0.11419025063514709473f, 0.02484029158949851990f, -0.00492146098986268044f, -1.05269908905029296875f, 0.17311397194862365723f, -0.89729648828506469727f, -0.55533999204635620117f, 0.02280551940202713013f, 0.04121062159538269043f, -0.02466162294149398804f, -0.23289953172206878662f, -0.81876713037490844727f, -0.08811340481042861938f, -0.42819669842720031738f, 0.99797224998474121094f, -0.57092458009719848633f, 0.04596789553761482239f, -0.40752461552619934082f, -0.64826786518096923828f, -0.50832921266555786133f, -0.14959661662578582764f, -0.00799196306616067886f, 0.03111171722412109375f, -0.02763444557785987854f, 0.07482827454805374146f},
  {0.04839656502008438110f, -0.05256289988756179810f, -0.10496756434440612793f, -0.01679056696593761444f, 0.04848063364624977112f, -0.00829603057354688644f, 0.00681887241080403328f, -0.06640861183404922485f, -0.17062810063362121582f, 0.09936606138944625854f, 0.07502514868974685669f, 0.05642521381378173828f, -0.03666334599256515503f, 0.01904213428497314453f, 0.06160356476902961731f, 0.02640604414045810699f, -0.00803465303033590317f, 0.11789391934871673584f, -0.03330229595303535461f, 0.05193262919783592224f, -0.01524115912616252899f, -0.03009647503495216370f, -0.04773309081792831421f, 0.03842187300324440002f, -0.03052918426692485809f, 0.03089045733213424683f, 0.00218660244718194008f, 0.06097901985049247742f, 0.02324621938169002533f, 0.03793343156576156616f, 0.06385674327611923218f, 0.05977183952927589417f, 0.02108829095959663391f, 0.01800989173352718353f, 0.04864199832081794739f, -0.06858771294355392456f, 0.03289527446031570435f, 0.19934566318988800049f, 0.02723677828907966614f, 0.01275900285691022873f, -0.06181004643440246582f, -0.02012679725885391235f, 0.06511698663234710693f, 0.07487087696790695190f, -0.04838561639189720154f, 0.06263857334852218628f, 0.00505438353866338730f, 0.01762161031365394592f, 0.04955365136265754700f, -0.02779051288962364197f, 0.21966183185577392578f, 0.06830309331417083740f, -0.19077444076538085938f, -0.14965967833995819092f, -0.16763372719287872314f, -0.01057200506329536438f, -0.02220170944929122925f, 0.04264812543988227844f, -0.10957586765289306641f, -0.01760337688028812408f, -0.03375219553709030151f, -0.02967460267245769501f, 0.00655396003276109695f, -0.24274601042270660400f},
  {0.08262915164232254028f, -0.07291903346776962280f, -0.00825401861220598221f, 0.02283580228686332703f, 0.04304097965359687805f, -0.05364581197500228882f, -0.05321827158331871033f, -0.03844521939754486084f, 0.14171223342418670654f, -0.05220638960599899292f, 0.03271685540676116943f, 0.03432851284742355347f, -0.06276533752679824829f, -0.05279862880706787109f, 0.14997485280036926270f, -0.03113806620240211487f, -0.00183575879782438278f, 0.02559852786362171173f, -0.04795246943831443787f, 0.04334823414683341980f, 0.00574864167720079422f, -0.11513879150152206421f, 0.00128998537547886372f, 0.06210922449827194214f, 0.05042298138141632080f, 0.02126990631222724915f, -0.11810125410556793213f, 0.04655534774065017700f, -0.10460219532251358032f, -0.12250441312789916992f, 0.01003965456038713455f, -0.02737903594970703125f, 0.01566595584154129028f, -0.07878822088241577148f, 0.04335317760705947876f, 0.09798237681388854980f, 0.02774220891296863556f, -0.14442542195320129395f, -0.02164869196712970734f, 0.05117757990956306458f, -0.04302885383367538452f, -0.02061888389289379120f, 0.05204326659440994263f, 0.04007613658905029297f, -0.06105289608240127563f, 0.04129282385110855103f, -0.05812942981719970703f, 0.03630439192056655884f, 0.06517197936773300171f, -0.00959825981408357620f, -0.00112137349788099527f, 0.00008377427730010822f, 0.01217818073928356171f, 0.03422696515917778015f, 0.08421668410301208496f, -0.01811538822948932648f, -0.03487356379628181458f, -0.04004481807351112366f, 0.00816735625267028809f, 0.00346625433303415775f, -0.07104942947626113892f, -0.06886775791645050049f, 0.00632903585210442543f, 0.08684778958559036255f},
  {-0.00745715433731675148f, -0.04012860357761383057f, -0.08705459535121917725f, 0.15209725499153137207f, 0.02984520047903060913f, -0.07126182317733764648f, -0.13332761824131011963f, -0.04968263953924179077f, -0.07848253846168518066f, 0.24124725162982940674f, -0.07126937061548233032f, -0.02694123238325119019f, 0.00181306444574147463f, 0.07897815108299255371f, -0.12473938614130020142f, -0.00409745704382658005f, -0.08048851042985916138f, 0.04449973627924919128f, 0.04585929960012435913f, 0.01204408984631299973f, -0.01009639538824558258f, -0.00767646264284849167f, -0.03163297101855278015f, -0.03317343071103096008f, -0.07944682985544204712f, 0.02891693636775016785f, -0.01314192637801170349f, 0.04281315580010414124f, 0.02720162644982337952f, -0.14551348984241485596f, -0.10533881932497024536f, 0.04284764826297760010f, -0.03999565541744232178f, 0.06797965615987777710f, 0.01710706017911434174f, -0.14482125639915466309f, -0.01455021649599075317f, -0.31122139096260070801f, -0.02461459673941135406f, 0.01253004278987646103f, -0.00970296747982501984f, 0.00158170377835631371f, -0.06911165267229080200f, 0.08891928941011428833f, -0.03202835842967033386f, -0.00848180241882801056f, -0.02056349441409111023f, -0.02842986397445201874f, 0.08414585888385772705f, 0.01638183742761611938f, 0.17355178296566009521f, 0.17097310721874237061f, 0.11430342495441436768f, -0.13335570693016052246f, -0.02512269839644432068f, 0.05038904026150703430f, 0.01684685982763767242f, -0.01730558089911937714f, 0.00528734968975186348f, 0.17221526801586151123f, -0.03496230021119117737f, 0.00765617284923791885f, -0.02623796835541725159f, -0.19153106212615966797f},
  {0.00181789591442793608f, -0.00198525353334844112f, 0.30197569727897644043f, 0.49863949418067932129f, 0.00300857308320701122f, 0.15275661647319793701f, -0.35417324304580688477f, -0.00371761480346322060f, 0.38712000846862792969f, 0.75854980945587158203f, 0.41290453076362609863f, -0.14999717473983764648f, -0.00224444014020264149f, -0.56190735101699829102f, 0.01080619823187589645f, -0.00289082829840481281f, -0.12892347574234008789f, -0.21687649190425872803f, -0.37382850050926208496f, 0.00332225696183741093f, -0.00374840316362679005f, -0.38871455192565917969f, -1.78705167770385742188f, -0.94339716434478759766f, -0.67120981216430664062f, 0.99313390254974365234f, -0.31787008047103881836f, 0.00022550689755007625f, -0.13676948845386505127f, 0.43118879199028015137f, -0.01990052685141563416f, 0.77895498275756835938f, -0.38687437772750854492f, 0.13551238179206848145f, 0.00355062726885080338f, 0.48667374253273010254f, -0.00067016086541116238f, 0.05911345034837722778f, 0.00328497402369976044f, -0.53874135017395019531f, -0.00157768267672508955f, 0.00301960064098238945f, 0.52345734834671020508f, 0.21838858723640441895f, -1.37936055660247802734f, 0.18885073065757751465f, 0.15544439852237701416f, -1.40635180473327636719f, 0.69224178791046142578f, 0.02387324906885623932f, 0.08677946776151657104f, -0.65270763635635375977f, 0.13298539817333221436f, 0.13642115890979766846f, 0.61496090888977050781f, 0.00009734198829391971f, -0.87945663928985595703f, 0.07127576321363449097f, 0.79253727197647094727f, -0.09844839572906494141f, 0.00046247668797150254f, -0.00036517830449156463f, -0.00058275705669075251f, 0.07946161180734634399f},
  {-0.02910244278609752655f, 0.00318998494185507298f, 0.05262219160795211792f, -0.13120265305042266846f, 0.01124644186347723007f, 0.06588732451200485229f, -0.14011281728744506836f, 0.00233793002553284168f, -0.06878133118152618408f, -0.23849661648273468018f, 0.04448355734348297119f, -0.04729903489351272583f, 0.05638738721609115601f, -0.00034701492404565215f, -0.00492188986390829086f, -0.01175062637776136398f, 0.17092198133468627930f, -0.09873788058757781982f, -0.03160591423511505127f, -0.01199455279856920242f, -0.02520786412060260773f, 0.01054893340915441513f, 0.05993447080254554749f, 0.03875074908137321472f, -0.00903036072850227356f, 0.00480725662782788277f, 0.09285614639520645142f, 0.05430506169795989990f, -0.04085902869701385498f, 0.08232095837593078613f, 0.09582204371690750122f, 0.18297882378101348877f, -0.02594569139182567596f, 0.07143269479274749756f, -0.04952793568372726440f, -0.06939123570919036865f, -0.02711434103548526764f, -0.04799895361065864563f, 0.01709426194429397583f, -0.00299112289212644100f, 0.04688217490911483765f, 0.00859507545828819275f, -0.00424553593620657921f, -0.00274955783970654011f, -0.01504490152001380920f, 0.02328236214816570282f, -0.01873358525335788727f, 0.01307148393243551254f, -0.05487621575593948364f, -0.00734205311164259911f, -0.11055456101894378662f, -0.01882419921457767487f, -0.03201850876212120056f, -0.15007354319095611572f, 0.03699953481554985046f, 0.00277123809792101383f, -0.07974531501531600952f, -0.00758906593546271324f, -0.04530088603496551514f, 0.01622248254716396332f, 0.03888196870684623718f, 0.05606800690293312073f, 0.03220787644386291504f, 0.05847428739070892334f},
  {-0.02940442599356174469f, -0.00993001461029052734f, 0.04041813686490058899f, -0.10346253961324691772f, 0.00238177995197474957f, 0.01980656757950782776f, 0.19261895120143890381f, 0.00174432480707764626f, 0.13787806034088134766f, 0.03873437270522117615f, 0.05609737709164619446f, 0.07773438096046447754f, 0.01522407215088605881f, 0.02941172942519187927f, 0.09040218591690063477f, -0.04806765168905258179f, 0.14784646034240722656f, -0.20758287608623504639f, -0.02611345797777175903f, -0.05006131902337074280f, -0.02493264712393283844f, -0.02109009586274623871f, -0.02173003368079662323f, -0.03063615038990974426f, 0.07901234179735183716f, -0.00852527189999818802f, -0.00030600337777286768f, 0.02831109985709190369f, -0.14121492207050323486f, 0.03196320310235023499f, 0.00834512710571289062f, -0.05375523865222930908f, -0.05892831087112426758f, 0.04891488701105117798f, -0.04827928915619850159f, -0.08689949661493301392f, -0.02444910258054733276f, 0.03374164178967475891f, -0.02574318647384643555f, -0.04742617160081863403f, 0.04380575194954872131f, 0.00837144907563924789f, -0.03326804563403129578f, -0.05545366182923316956f, 0.01745558157563209534f, 0.08205011487007141113f, -0.00594004523009061813f, 0.00230060331523418427f, 0.00826003029942512512f, -0.03006284125149250031f, -0.25442507863044738770f, -0.03990161791443824768f, -0.05931372568011283875f, -0.02777550742030143738f, 0.16498714685440063477f, 0.00804099533706903458f, 0.01339034643024206161f, 0.01014408655464649200f, -0.04127591848373413086f, -0.02588630653917789459f, 0.02924723923206329346f, 0.04524895548820495605f, 0.00646631699055433273f, -0.01171315833926200867f},
  {0.00242521334439516068f, 0.00026938455994240940f, -0.47432261705398559570f, -0.09540404379367828369f, -0.00132436084095388651f, -1.18040931224822998047f, 0.41678988933563232422f, 0.00007544509571744129f, 0.49409905076026916504f, 0.48091396689414978027f, -0.24794916808605194092f, -0.17827910184860229492f, -0.00237673078663647175f, -0.35882517695426940918f, 0.05099105834960937500f, -0.00071170780574902892f, -0.70412003993988037109f, -0.44946995377540588379f, -0.02373928949236869812f, 0.00416693231090903282f, -0.00038156786467880011f, -0.81681001186370849609f, -0.40424564480781555176f, 0.54037922620773315430f, 0.40873703360557556152f, -0.25311088562011718750f, -0.61914807558059692383f, -0.00227193790487945080f, 0.37407559156417846680f, 0.41441163420677185059f, 0.00129155616741627455f, 0.04023800790309906006f, -0.78772890567779541016f, -0.31473845243453979492f, 0.00846300646662712097f, 0.31655716896057128906f, -0.00001835066905186977f, 0.79695028066635131836f, 0.00066257023718208075f, -0.19182267785072326660f, -0.00318993418477475643f, 0.00025784916942939162f, -2.12826919555664062500f, 0.37531769275665283203f, -1.19931769371032714844f, -0.42744076251983642578f, -0.30808094143867492676f, 0.58772289752960205078f, -0.27047568559646606445f, 0.07285628467798233032f, -0.02821034938097000122f, 0.67249381542205810547f, -0.52410733699798583984f, -0.43780279159545898438f, -0.31746304035186767578f, -0.00181382906157523394f, 0.09459855407476425171f, -0.98117458820343017578f, -1.14607822895050048828f, 0.06124461814761161804f, -0.00012798693205695599f, -0.00189726077951490879f, 0.00266561540775001049f, 1.05008125305175781250f},
  {0.06881987303495407104f, 0.04973022639751434326f, 0.05558481439948081970f, 0.02506411261856555939f, -0.02313543297350406647f, -0.05922367051243782043f, 0.02970666810870170593f, -0.00340336235240101814f, -0.11995981633663177490f, 0.18893678486347198486f, -0.00624911766499280930f, 0.02868887595832347870f, -0.04315840825438499451f, 0.01890469156205654144f, -0.01526549924165010452f, 0.03524029999971389771f, -0.03324316442012786865f, -0.04970231279730796814f, -0.00432456051930785179f, 0.03775293752551078796f, 0.03195421397686004639f, -0.08617959171533584595f, -0.01037087384611368179f, -0.01180751156061887741f, 0.01499827858060598373f, -0.05586118996143341064f, 0.06031677126884460449f, -0.06701583415269851685f, -0.02093335241079330444f, 0.11640619486570358276f, 0.02618909813463687897f, -0.03390493243932723999f, -0.02097964286804199219f, -0.11252266168594360352f, 0.06996732950210571289f, 0.00279464339837431908f, -0.01949540525674819946f, 0.08274035155773162842f, -0.02299477718770503998f, -0.01352306548506021500f, -0.01545349229127168655f, -0.05929140746593475342f, 0.02494523487985134125f, -0.04340567067265510559f, 0.08739974349737167358f, 0.00053671124624088407f, 0.02944123558700084686f, -0.02005977369844913483f, 0.03198458254337310791f, -0.02388146519660949707f, 0.09130108356475830078f, -0.14710068702697753906f, -0.07351782917976379395f, 0.01695113442838191986f, -0.07389026880264282227f, -0.06377439200878143311f, 0.04640148580074310303f, -0.01035745348781347275f, -0.02125555463135242462f, 0.00561313051730394363f, 0.01804682798683643341f, -0.02705283463001251221f, 0.00869014021009206772f, 0.03417643904685974121f},
  {0.00927270762622356415f, -0.03327107056975364685f, -0.30192610621452331543f, -0.36055740714073181152f, 0.01798487082123756409f, 0.13352683186531066895f, 0.42347216606140136719f, -0.04206113144755363464f, 0.26784920692443847656f, 0.35292431712150573730f, -1.03072845935821533203f, 0.09850543737411499023f, 0.00347778247669339180f, 0.01219417713582515717f, 0.54493200778961181641f, -0.00622659595683217049f, -0.04979216679930686951f, -0.37581798434257507324f, -0.28168103098869323730f, 0.00752312131226062775f, 0.01603718660771846771f, -0.51836925745010375977f, -0.08895187079906463623f, 0.05035857111215591431f, -0.91689449548721313477f, 0.19016307592391967773f, -0.57292819023132324219f, 0.02279626764357089996f, 0.04128393158316612244f, 0.43239963054656982422f, -0.09533188492059707642f, 0.43133357167243957520f, -0.65402954816818237305f, 0.01975260302424430847f, 0.00229799351654946804f, 0.14424343407154083252f, 0.00429906928911805153f, -0.05653927102684974670f, -0.01277439016848802567f, 0.04946557804942131042f, -0.00124146812595427036f, -0.01757219247519969940f, 0.02964304201304912567f, 0.32073384523391723633f, -0.09735335409641265869f, -0.25027531385421752930f, 0.16421727836132049561f, 0.06272789835929870605f, -0.38246840238571166992f, 0.51544898748397827148f, -0.72850060462951660156f, 0.37344884872436523438f, 0.03284313529729843140f, 0.64938127994537353516f, -0.38090834021568298340f, 0.01513655949383974075f, -0.02940812706947326660f, -0.50583773851394653320f, -0.53401190042495727539f, -0.23620912432670593262f, -0.01935755088925361633f, -0.01340780220925807953f, -0.01927643828094005585f, 0.37271985411643981934f},
  {-0.00178720732219517231f, -0.01003990694880485535f, -0.25858587026596069336f, -0.16513767838478088379f, 0.01057008374482393265f, 0.11081274598836898804f, 0.28435587882995605469f, -0.00808229856193065643f, 0.17568151652812957764f, -0.05374295264482498169f, -0.54575639963150024414f, 0.64106351137161254883f, -0.00417556194588541985f, -1.54774749279022216797f, 0.00475123059004545212f, -0.00140076223760843277f, -0.78352284431457519531f, -0.61474931240081787109f, -1.05380451679229736328f, -0.00142640899866819382f, 0.00112615327816456556f, -0.43199408054351806641f, -0.10465145111083984375f, -0.30340555310249328613f, -1.05810010433197021484f, 0.33577311038970947266f, -0.27818080782890319824f, 0.00589288631454110146f, 0.56913512945175170898f, 0.40934747457504272461f, -0.09908509254455566406f, -0.23662242293357849121f, 0.02571676485240459442f, -0.40955623984336853027f, -0.00952277518808841705f, -0.10401397943496704102f, 0.01220086310058832169f, -0.07479688525199890137f, 0.00026227996568195522f, -1.12390708923339843750f, -0.00262708426453173161f, -0.00165891600772738457f, -0.47024407982826232910f, 0.11760509014129638672f, -0.11728863418102264404f, -1.44832098484039306641f, -2.12405252456665039062f, -0.27799654006958007812f, 0.58653980493545532227f, 0.73306566476821899414f, 0.04613353312015533447f, 0.12858340144157409668f, -0.17497423291206359863f, 0.19451291859149932861f, 0.01599263027310371399f, 0.00978269148617982864f, -0.22813849151134490967f, -0.92018049955368041992f, -0.76928174495697021484f, -0.43464863300323486328f, -0.00740671576932072639f, -0.00423133140429854393f, -0.00306572881527245045f, 0.26949432492256164551f},
  {0.04129766300320625305f, 0.02105527371168136597f, -0.10407576709985733032f, -0.20438615977764129639f, -0.02606774307787418365f, -0.00759182265028357506f, -0.10623847693204879761f, -0.03502531722187995911f, 0.01530125550925731659f, -0.14989180862903594971f, -0.23676286637783050537f, 0.05585151910781860352f, -0.01114492304623126984f, 0.28187760710716247559f, -0.24967396259307861328f, -0.03447471559047698975f, -0.14749772846698760986f, -0.10007780045270919800f, -0.30213093757629394531f, 0.02532624639570713043f, -0.05096817016601562500f, -0.17841877043247222900f, -0.13896147906780242920f, -0.28413918614387512207f, 0.24053515493869781494f, -0.27808302640914916992f, -0.05955224484205245972f, 0.00020682872855104506f, -0.39926829934120178223f, -0.01202463079243898392f, -0.17545267939567565918f, 0.02633037604391574860f, 0.27243313193321228027f, 0.15943716466426849365f, 0.09293608367443084717f, 0.28530836105346679688f, -0.02849817648530006409f, -0.64135789871215820312f, 0.03800260648131370544f, 0.39339545369148254395f, -0.01782403141260147095f, 0.05358358845114707947f, 0.02477011829614639282f, 0.01443343143910169601f, -0.35479611158370971680f, -0.39860183000564575195f, 0.18248647451400756836f, 0.49196657538414001465f, -0.03635115548968315125f, -0.04319044202566146851f, 0.00156925234477967024f, -0.66784793138504028320f, 0.11346825957298278809f, -0.30228260159492492676f, -0.25296181440353393555f, -0.07344398647546768188f, -0.42102646827697753906f, -0.10539633035659790039f, -0.48623621463775634766f, -0.38390707969665527344f, 0.02681360393762588501f, -0.00824312027543783188f, 0.03665373474359512329f, -0.39911893010139465332f},
  {0.00448787258937954903f, -0.00356438639573752880f, 0.20655788481235504150f, 0.52298825979232788086f, 0.00251432461664080620f, 0.55434811115264892578f, 0.06230347603559494019f, -0.00841278675943613052f, -0.26920455694198608398f, 0.04918021336197853088f, -0.51383394002914428711f, 0.14410614967346191406f, 0.00225135916844010353f, -0.09448333084583282471f, 0.51757627725601196289f, -0.00604000966995954514f, -0.11300754547119140625f, -0.25049120187759399414f, -1.77128791809082031250f, -0.00192499230615794659f, -0.00495259417220950127f, -0.37539228796958923340f, -0.17260886728763580322f, -0.26719510555267333984f, -0.54074478149414062500f, -0.96809267997741699219f, -0.55064922571182250977f, 0.00775324413552880287f, 0.67788577079772949219f, 0.38524258136749267578f, 0.02143714949488639832f, -0.09454951435327529907f, -0.97555035352706909180f, -0.10276091098785400391f, -0.00174888595938682556f, -0.00102949130814522505f, -0.00182848726399242878f, -0.01162324193865060806f, 0.00585803668946027756f, 0.62742418050765991211f, 0.00153068779036402702f, 0.00524772005155682564f, -0.12403237819671630859f, 0.44141253829002380371f, -0.01444224454462528229f, -0.09103544801473617554f, -0.93511706590652465820f, 0.56993585824966430664f, 0.78763997554779052734f, 0.67581975460052490234f, 0.40821284055709838867f, -0.11551554501056671143f, -0.10007245093584060669f, -0.14255568385124206543f, 0.51651322841644287109f, 0.00173364987131208181f, -0.13710415363311767578f, -0.32968312501907348633f, -0.57322478294372558594f, -0.67168444395065307617f, -0.00016098318155854940f, -0.00190090027172118425f, 0.00447245454415678978f, 0.02503877319395542145f},
  {0.00658833049237728119f, -0.01261185854673385620f, -0.81502598524093627930f, -0.20229631662368774414f, 0.00452872551977634430f, -0.56870734691619873047f, -0.26943624019622802734f, 0.00170882313977926970f, 0.32263711094856262207f, 0.21002607047557830811f, -1.19089424610137939453f, 0.32420361042022705078f, -0.01605373062193393707f, 0.05077047646045684814f, 1.25074815750122070312f, 0.00253988453187048435f, -0.54214686155319213867f, -0.83063060045242309570f, -1.39879822731018066406f, 0.01317150890827178955f, 0.00803602207452058792f, 0.28821852803230285645f, -0.24391579627990722656f, 0.22792921960353851318f, 0.05545734986662864685f, 0.20692904293537139893f, 0.33391776680946350098f, 0.00242881011217832565f, 0.53721326589584350586f, 0.64912962913513183594f, -0.07189244031906127930f, 0.44978955388069152832f, -0.02482025511562824249f, -0.48625037074089050293f, 0.01171558815985918045f, 0.18382497131824493408f, 0.02035526745021343231f, 0.65270519256591796875f, -0.00841509457677602768f, -0.38300275802612304688f, -0.01973774097859859467f, -0.00835653115063905716f, 0.93647086620330810547f, 0.57591545581817626953f, -0.52941864728927612305f, -0.99299734830856323242f, -0.97442352771759033203f, -0.10718256980180740356f, 0.81248980760574340820f, 1.11448514461517333984f, -0.14100259542465209961f, -0.01782858185470104218f, 1.01784133911132812500f, -0.17150120437145233154f, 1.21442389488220214844f, -0.00487136840820312500f, 0.28427472710609436035f, 0.11255606263875961304f, -0.49988040328025817871f, -0.21407049894332885742f, -0.00862033478915691376f, -0.01148913800716400146f, 0.00358192808926105499f, 0.29649063944816589355f},
  {-0.02055501751601696014f, -0.00525613827630877495f, 0.08772782981395721436f, -0.02285133488476276398f, -0.01620967499911785126f, 0.06064094603061676025f, 0.02767396531999111176f, 0.04415819421410560608f, -0.04093309491872787476f, -0.15099395811557769775f, -0.03946043178439140320f, -0.05610172078013420105f, 0.03713917359709739685f, -0.03316015750169754028f, 0.12306757271289825439f, 0.02966312877833843231f, -0.01847553998231887817f, -0.01231141015887260437f, 0.04443737119436264038f, -0.01032417733222246170f, -0.00328679708763957024f, 0.09102653712034225464f, 0.01313449256122112274f, 0.01694647036492824554f, 0.01250438112765550613f, 0.03606263548135757446f, -0.12209967523813247681f, -0.03827127441763877869f, -0.11626158654689788818f, 0.10642321407794952393f, -0.09691272675991058350f, -0.05903769657015800476f, 0.04752888157963752747f, -0.11413528025150299072f, -0.02675347402691841125f, 0.03613589331507682800f, -0.06175082921981811523f, 0.24354565143585205078f, -0.00191970320884138346f, 0.06157793104648590088f, 0.03728481009602546692f, 0.00994610600173473358f, 0.07487110793590545654f, -0.06292435526847839355f, 0.06250392645597457886f, -0.04853254929184913635f, -0.03510401397943496704f, 0.02939420752227306366f, -0.07885614782571792603f, -0.00094949011690914631f, -0.17917488515377044678f, -0.11662679910659790039f, -0.12415345013141632080f, 0.16683569550514221191f, 0.14087891578674316406f, 0.00737334787845611572f, -0.07424397766590118408f, -0.11606121808290481567f, 0.05797357484698295593f, -0.00377430580556392670f, 0.01910026744008064270f, -0.02263898774981498718f, -0.01507942099124193192f, -0.03589479997754096985f},
  {0.02617518603801727295f, -0.05600511282682418823f, -0.07612390816211700439f, -0.06147202476859092712f, 0.02507877908647060394f, -0.06537381559610366821f, 0.09736618399620056152f, -0.02717086113989353180f, -0.32243877649307250977f, -0.00045264308573678136f, 0.04244324192404747009f, 0.17322452366352081299f, -0.04083931073546409607f, -0.04012348875403404236f, 0.11155404150485992432f, -0.01711143366992473602f, 0.21256950497627258301f, -0.05099041387438774109f, -0.05190499126911163330f, 0.01212838105857372284f, 0.04907445237040519714f, 0.02817709185183048248f, 0.01020551752299070358f, -0.09312012046575546265f, 0.08554331958293914795f, -0.01002018339931964874f, 0.16529962420463562012f, 0.04820328950881958008f, -0.22708767652511596680f, 0.01474417839199304581f, -0.00945462100207805634f, -0.16605596244335174561f, 0.03520847111940383911f, -0.09718348830938339233f, -0.00487950956448912621f, 0.15154136717319488525f, 0.01781083829700946808f, 0.10013658553361892700f, -0.05785579606890678406f, -0.00248961476609110832f, 0.01799238473176956177f, -0.04025383666157722473f, -0.07912642508745193481f, 0.00592478783801198006f, -0.09614422917366027832f, 0.09343647956848144531f, -0.00115705665666610003f, 0.09738101065158843994f, 0.01998982764780521393f, -0.04040990024805068970f, -0.08830917626619338989f, 0.02937096729874610901f, -0.12590675055980682373f, -0.34299314022064208984f, 0.08737856894731521606f, 0.08136442303657531738f, 0.00472271395847201347f, 0.03448837995529174805f, -0.02010146528482437134f, 0.03044559061527252197f, -0.03531091660261154175f, -0.04078174382448196411f, -0.05233102291822433472f, -0.13955147564411163330f},
  {-0.00429498590528964996f, 0.03417260944843292236f, -0.10358560830354690552f, 0.03378906473517417908f, -0.04321068152785301208f, 0.01363061275333166122f, 0.00946344062685966492f, 0.00266199093312025070f, -0.03805238381028175354f, 0.03510158136487007141f, -0.00911430455744266510f, 0.05964475870132446289f, 0.07487878948450088501f, -0.00206297379918396473f, -0.03050735965371131897f, 0.02751017361879348755f, -0.04330225288867950439f, -0.12079331278800964355f, 0.00142991694156080484f, -0.02134344726800918579f, -0.04740099236369132996f, -0.06121819093823432922f, -0.00647871475666761398f, -0.04183585569262504578f, 0.03634442016482353210f, 0.02119259908795356750f, -0.03546029701828956604f, -0.01235133595764636993f, -0.11430645734071731567f, 0.06624517589807510376f, 0.01326646003872156143f, -0.09017445147037506104f, 0.01290749758481979370f, 0.05911054089665412903f, 0.00286483136005699635f, 0.08240305632352828979f, -0.06897696107625961304f, -0.04411433637142181396f, 0.05459055677056312561f, 0.00029782362980768085f, 0.01274196058511734009f, 0.03033838607370853424f, -0.05960718914866447449f, -0.03021575324237346649f, 0.04272327572107315063f, -0.00331467553041875362f, -0.03578273206949234009f, 0.02469659224152565002f, -0.00059909839183092117f, 0.00518547464162111282f, -0.09072310477495193481f, -0.13255888223648071289f, 0.05692780390381813049f, -0.09551806002855300903f, 0.13918054103851318359f, -0.05984540283679962158f, 0.00982002168893814087f, -0.04227642714977264404f, 0.04118041321635246277f, 0.06215910613536834717f, 0.06653314083814620972f, 0.04872287064790725708f, -0.01819463260471820831f, 0.03754445537924766541f},
  {0.00646771024912595749f, -0.04735844954848289490f, 0.12947385013103485107f, -0.11743441224098205566f, 0.01244955882430076599f, -0.01781313680112361908f, -0.29335737228393554688f, -0.01397669222205877304f, 0.13172346353530883789f, 0.18009530007839202881f, 0.05844916775822639465f, -0.06093348935246467590f, 0.05142329260706901550f, -0.03615183383226394653f, 0.05494444072246551514f, 0.01687463931739330292f, 0.08728429675102233887f, 0.10214744508266448975f, -0.07028903812170028687f, -0.04078960046172142029f, -0.04157957062125205994f, -0.10950508713722229004f, 0.13759194314479827881f, 0.10071565210819244385f, 0.09056789427995681763f, -0.11800212413072586060f, -0.10354452580213546753f, 0.04412308707833290100f, 0.01574516855180263519f, -0.03636078909039497375f, -0.00590748060494661331f, 0.24970044195652008057f, -0.07839639484882354736f, -0.10897917300462722778f, -0.01917838677763938904f, -0.03647502884268760681f, -0.06176626309752464294f, -0.15018655359745025635f, 0.02898889780044555664f, -0.00416506640613079071f, 0.04938788712024688721f, 0.04803300276398658752f, 0.08423021435737609863f, -0.08139345049858093262f, 0.00220656627789139748f, -0.02212950773537158966f, -0.00399825116619467735f, -0.08307185769081115723f, 0.10139098018407821655f, -0.04472616687417030334f, 0.19561463594436645508f, 0.06030452996492385864f, 0.06153797358274459839f, 0.10726624727249145508f, -0.11707308143377304077f, 0.00092452071839943528f, -0.06299272179603576660f, -0.02721915207803249359f, 0.03225822746753692627f, -0.08326506614685058594f, -0.00496987905353307724f, -0.00575256161391735077f, -0.01271537598222494125f, 0.08998555690050125122f},
  {-0.03304514288902282715f, 0.03512784466147422791f, 0.14996193349361419678f, -0.15042799711227416992f, 0.02148797735571861267f, 0.05775991454720497131f, -0.08759062737226486206f, 0.05172939971089363098f, -0.01617370918393135071f, 0.01975750550627708435f, -0.00156503159087151289f, -0.07012349367141723633f, -0.00288165197707712650f, 0.04947552829980850220f, 0.11603320389986038208f, 0.03993265703320503235f, -0.10619399696588516235f, 0.11783340573310852051f, 0.05817718803882598877f, -0.04477744176983833313f, -0.00512934848666191101f, -0.11222555488348007202f, 0.00442412821575999260f, -0.05765354633331298828f, -0.00819669105112552643f, -0.03212191909551620483f, 0.15508183836936950684f, -0.04351960122585296631f, 0.01821140199899673462f, 0.15112474560737609863f, 0.15460135042667388916f, -0.11468402296304702759f, -0.02353231981396675110f, -0.23910492658615112305f, 0.00631017750129103661f, 0.10480914264917373657f, 0.02395223639905452728f, -0.05060293152928352356f, 0.00863168761134147644f, 0.03761328756809234619f, 0.01914899982511997223f, 0.00916393939405679703f, 0.01510750968009233475f, -0.09469468146562576294f, -0.04847008734941482544f, -0.04643930494785308838f, -0.00077877397416159511f, 0.04030792787671089172f, -0.06778744608163833618f, 0.00863745715469121933f, -0.04462186247110366821f, 0.04568993300199508667f, -0.14834816753864288330f, 0.13497270643711090088f, 0.03449369221925735474f, -0.04296950250864028931f, -0.02041934430599212646f, 0.04957928508520126343f, 0.04527569562196731567f, 0.12101156264543533325f, 0.00899462588131427765f, 0.02924809232354164124f, 0.02500512264668941498f, -0.06785695254802703857f},
