// This file is computer-generated by onnx2c 
// (TODO: add creating command line here)
// (TODO: print creation date here )

// ONNX model:
// produced by pytorch, version 2.7.0
// ONNX IR version: 11
// Model documentation: 
/*

*/

#include <float.h>
#include <math.h>
#include <stdbool.h>
#include <stdint.h>
#include <string.h>

#define MAX(X,Y) ( X > Y ? X : Y)
#define MIN(X,Y) ( X < Y ? X : Y)
#define CLIP(X,L) ( MAX(MIN(X,L), -L) )

#if __STDC_VERSION__ < 199901L
#define FUNC_PREFIX
#else
#define FUNC_PREFIX static inline
#endif

static const float tensor_actor_0_weight[64][8] = 
{
  {-0.03163261711597442627f, 0.00373711879365146160f, -0.00010959157225443050f, -0.00008677376899868250f, 0.00139163876883685589f, 0.00151587766595184803f, -0.00051418441580608487f, 0.00062193989288061857f},
  {0.10438966751098632812f, -0.87022072076797485352f, 1.07608664035797119141f, 0.38366040587425231934f, 0.62414574623107910156f, -0.82872617244720458984f, 0.11612825840711593628f, -0.01079425495117902756f},
  {0.23004299402236938477f, 0.14838731288909912109f, -0.91130566596984863281f, -0.02676122821867465973f, -0.03362352401018142700f, -0.03158985823392868042f, 0.15854075551033020020f, -0.02556455880403518677f},
  {-0.77590203285217285156f, 0.71841591596603393555f, -0.19609037041664123535f, 0.01422867737710475922f, -0.07649029791355133057f, -0.21168744564056396484f, 0.04419651255011558533f, -0.00735344318673014641f},
  {-0.04148231446743011475f, 0.00403770105913281441f, 0.00002307996510353405f, -0.00001254092785529792f, 0.00482553383335471153f, 0.00355399539694190025f, -0.00230958126485347748f, 0.00062133913161233068f},
  {-0.03119263797998428345f, -0.00270671304315328598f, -0.00088838284136727452f, 0.00009828308975556865f, 0.00173057743813842535f, 0.00093747774371877313f, -0.00099096761550754309f, 0.00095555576262995601f},
  {0.04219537228345870972f, -0.00279269460588693619f, -0.00012102398613933474f, 0.00000818172793515259f, -0.00416440144181251526f, -0.00352237303741276264f, 0.00206875661388039589f, -0.00072724651545286179f},
  {-0.08818960189819335938f, -0.47277948260307312012f, 0.01094002649188041687f, 0.00664607202634215355f, -0.00480377208441495895f, -0.02120468951761722565f, -0.01440317928791046143f, 0.00207135966047644615f},
  {-0.32354941964149475098f, 0.03625052422285079956f, 1.39564716815948486328f, -0.11415522545576095581f, 0.08479462563991546631f, -0.50830209255218505859f, 0.22270479798316955566f, 0.04393199458718299866f},
  {0.98963826894760131836f, -0.20568390190601348877f, -1.35721361637115478516f, -0.05278408527374267578f, -0.04508620128035545349f, 0.59246575832366943359f, 0.01565454341471195221f, -0.01396897435188293457f},
  {-0.00490506738424301147f, 0.00090797559823840857f, -0.00041197205428034067f, 0.00008229045488405973f, 0.00000246287117988686f, 0.00004273308150004596f, -0.00018965920025948435f, 0.00016373231483157724f},
  {0.04376064985990524292f, -0.00346374325454235077f, -0.00048158361460082233f, 0.00001587524093338288f, -0.00442357733845710754f, -0.00436206860467791557f, 0.00210774852894246578f, -0.00070369354216381907f},
  {-0.00250699487514793873f, 0.00081261765444651246f, -0.00000599054874328431f, -0.00003224698230042122f, -0.00022040535986889154f, 0.00028332127840258181f, -0.00009577124001225457f, 0.00000997732877294766f},
  {-0.12098870426416397095f, -0.04203475266695022583f, -1.70404934883117675781f, 0.02154658548533916473f, -0.07172408699989318848f, -0.06265250593423843384f, 0.03463282063603401184f, -0.03458523377776145935f},
  {-0.04622450843453407288f, 0.00583707308396697044f, 0.00055771833285689354f, -0.00000925768745219102f, 0.00616216147318482399f, 0.00594240007922053337f, -0.00300190947018563747f, 0.00069187633926048875f},
  {-0.04345558583736419678f, 0.00480493064969778061f, 0.00041153287747874856f, -0.00039447465678676963f, 0.00614996021613478661f, 0.00443655345588922501f, -0.00232472573406994343f, 0.00064051849767565727f},
  {0.57130330801010131836f, 0.16311776638031005859f, 0.92463016510009765625f, -0.03626246005296707153f, -0.13390056788921356201f, 0.36032828688621520996f, 0.00273602129891514778f, 0.01839503459632396698f},
  {-0.00517296465113759041f, 0.00109323451761156321f, -0.00036365128471516073f, 0.00009916013368638232f, -0.00017220705922227353f, 0.00019405124476179481f, -0.00018419905973132700f, 0.00013584933185484260f},
  {-0.00067560310708358884f, 0.00025364861357957125f, -0.00004047189213451929f, -0.00003263638791395351f, -0.00014665501657873392f, 0.00013065569510217756f, -0.00005508205867954530f, 0.00003698172804433852f},
  {-0.94971287250518798828f, -0.47342208027839660645f, 1.09178221225738525391f, -0.17624919116497039795f, 1.21099257469177246094f, 0.77819931507110595703f, 0.08618137240409851074f, 0.03575309365987777710f},
  {-0.00230920687317848206f, 0.00027867121389135718f, -0.00028854282572865486f, 0.00003750878386199474f, -0.00016839095042087138f, 0.00002812566708598752f, -0.00013066320389043540f, 0.00004655788507079706f},
  {-0.01312873512506484985f, 0.00194262468721717596f, -0.00080302514834329486f, 0.00005836568379891105f, 0.00028213576297275722f, 0.00016041706840042025f, -0.00011625312617979944f, 0.00035441390355117619f},
  {0.00047585988068021834f, -0.00022525589156430215f, 0.00007706276664976031f, 0.00002598394348751754f, 0.00013389110972639173f, -0.00002881788896047510f, 0.00004489734419621527f, -0.00003654724059742875f},
  {-0.00124611740466207266f, 0.00063687068177387118f, 0.00012704945402219892f, -0.00003306954386061989f, -0.00022517047182191163f, 0.00043257995275780559f, -0.00000252201812145358f, 0.00005973100633127615f},
  {-0.05752088502049446106f, 0.01239243615418672562f, 0.00609893444925546646f, -0.00241967686451971531f, 0.00143210741225630045f, 0.02574549615383148193f, 0.00072991469642147422f, 0.00263128709048032761f},
  {-0.19212839007377624512f, -0.04010187461972236633f, 0.00335642928257584572f, -0.00099070812575519085f, 0.01169947534799575806f, 0.03342191874980926514f, -0.00306548015214502811f, 0.00258381385356187820f},
  {-0.80405694246292114258f, -0.07745192945003509521f, 1.20539414882659912109f, 0.28574907779693603516f, -0.72993487119674682617f, 0.08588223904371261597f, 0.06205492466688156128f, 0.00284653343260288239f},
  {-0.01233095768839120865f, 0.00297848158515989780f, -0.00047184870345517993f, 0.00009428144403500482f, -0.00046094576828181744f, 0.00023941069957800210f, 0.00020682478498201817f, 0.00052997953025624156f},
  {0.04351425915956497192f, -0.00021421353449113667f, 0.00021465466124936938f, -0.00022064089716877788f, -0.00528112472966313362f, -0.00368222245015203953f, 0.00278895953670144081f, -0.00083930807886645198f},
  {-0.00010135414777323604f, -0.00006916057463968173f, -0.00003538140663295053f, 0.00000949451987253269f, -0.00005561568104894832f, -0.00007859395554987714f, -0.00000302187868328474f, 0.00001595674802956637f},
  {-0.03095625154674053192f, 0.00214251107536256313f, -0.00026731722755357623f, 0.00006857574044261128f, 0.00121069850865751505f, 0.00125082849990576506f, -0.00068575126351788640f, 0.00073773390613496304f},
  {-0.03244144469499588013f, 0.00381205021403729916f, -0.00015447824262082577f, -0.00033870385959744453f, 0.00222905189730226994f, 0.00185376813169568777f, -0.00069487403379753232f, 0.00044200802221894264f},
  {0.39637902379035949707f, -0.35256469249725341797f, 0.92810404300689697266f, 0.02781228534877300262f, 0.32869523763656616211f, -0.08012074232101440430f, 0.05062904208898544312f, 0.02147175744175910950f},
  {-0.02649870701134204865f, 0.09889473766088485718f, -1.26002919673919677734f, 0.01695638895034790039f, -0.19732679426670074463f, -0.17770735919475555420f, -0.00844204332679510117f, -0.02701440453529357910f},
  {0.90563416481018066406f, 0.26639264822006225586f, 0.90571725368499755859f, -0.12633219361305236816f, -0.30797964334487915039f, 0.40931934118270874023f, 0.20926655828952789307f, 0.02834133245050907135f},
  {-0.02242852747440338135f, 0.00381656619720160961f, -0.00033930552308447659f, -0.00013282474537845701f, 0.00043767364695668221f, 0.00072822661604732275f, 0.00009035761468112469f, 0.00039572230889461935f},
  {0.81601417064666748047f, -0.88089936971664428711f, 0.22833977639675140381f, 0.00537484372034668922f, -1.57774674892425537109f, -0.64762616157531738281f, -0.09481135010719299316f, -0.00676035648211836815f},
  {0.15578700602054595947f, 0.79260927438735961914f, 0.00974964164197444916f, -0.03381124138832092285f, -0.05627002567052841187f, 0.00895398110151290894f, 0.06405708193778991699f, 0.00069367379182949662f},
  {-0.04024282097816467285f, 0.00491134636104106903f, 0.00102231791242957115f, -0.00027888853219337761f, 0.00089549220865592360f, 0.00482180994004011154f, -0.00123008887749165297f, 0.00074149179272353649f},
  {-0.44107329845428466797f, 0.38669380545616149902f, 1.14984178543090820312f, -0.05230046063661575317f, -0.08048897981643676758f, 0.02076822519302368164f, -0.16435639560222625732f, 0.02979562617838382721f},
  {-0.72626596689224243164f, 1.51686561107635498047f, 0.59479510784149169922f, 0.04680344462394714355f, -0.23061472177505493164f, 0.95767003297805786133f, 0.08815509825944900513f, 0.02487250417470932007f},
  {-0.36526390910148620605f, -2.04177784919738769531f, 0.09955994039773941040f, -0.11469208449125289917f, 0.09341837465763092041f, 0.48691898584365844727f, 0.06904268264770507812f, 0.00766810355708003044f},
  {-0.11109142750501632690f, -0.07455866783857345581f, -1.21593093872070312500f, 0.04035370051860809326f, -0.05497874319553375244f, -0.19841873645782470703f, 0.01507382746785879135f, -0.03272448107600212097f},
  {-0.80740511417388916016f, -0.30136615037918090820f, 1.32966196537017822266f, -0.06670039147138595581f, -0.13960073888301849365f, 0.36220028996467590332f, 0.02113352529704570770f, 0.03511120751500129700f},
  {0.25984272360801696777f, 0.03021548688411712646f, -1.39296817779541015625f, 0.03785908967256546021f, 0.01436545234173536301f, -0.08576445281505584717f, 0.00331827485933899879f, -0.02756726555526256561f},
  {-0.07814069837331771851f, -0.29077076911926269531f, -1.35936307907104492188f, 0.02003208547830581665f, 0.18890005350112915039f, 0.19801519811153411865f, -0.04439105093479156494f, -0.03095215559005737305f},
  {-0.54748409986495971680f, -0.09143843501806259155f, 0.87671113014221191406f, -0.04290923103690147400f, 0.05135148391127586365f, -0.04487261548638343811f, 0.04588554427027702332f, 0.01621229015290737152f},
  {0.18279404938220977783f, 0.15528704226016998291f, 1.37554061412811279297f, -0.04938623681664466858f, 0.13141052424907684326f, -0.06423562020063400269f, -0.02463692612946033478f, 0.05301271751523017883f},
  {0.21085241436958312988f, 0.16464978456497192383f, -1.28058159351348876953f, 0.03361721336841583252f, -0.06185765191912651062f, -0.03105625323951244354f, -0.02103686146438121796f, -0.03562429174780845642f},
  {1.08912086486816406250f, 1.27877688407897949219f, 0.55727171897888183594f, 0.23414747416973114014f, 0.37093174457550048828f, 0.84918022155761718750f, 0.06712415069341659546f, 0.00671025039628148079f},
  {0.35045126080513000488f, 2.23300313949584960938f, 0.08771882951259613037f, -0.03019561618566513062f, 1.82787644863128662109f, -0.94219416379928588867f, 0.06526520848274230957f, 0.00155774061568081379f},
  {0.04019478335976600647f, 2.09338021278381347656f, 0.01822775416076183319f, -0.11580808460712432861f, -0.46171587705612182617f, -0.42819353938102722168f, -0.03652316704392433167f, 0.00120313640218228102f},
  {-0.16831916570663452148f, -0.01544620096683502197f, -1.28237843513488769531f, 0.01443946361541748047f, -0.01275732927024364471f, -0.21710529923439025879f, -0.01326177082955837250f, -0.01313296053558588028f},
  {-0.00011849548900499940f, 0.00000274230183094915f, -0.00013202779518906027f, 0.00002579893589427229f, -0.00005181169399293140f, -0.00018782039114739746f, -0.00003703858965309337f, 0.00001380879257339984f},
  {-0.17803537845611572266f, 0.01590968668460845947f, -1.35542798042297363281f, 0.04994682967662811279f, -0.06685572862625122070f, -0.22026935219764709473f, 0.00193414592649787664f, -0.03671554848551750183f},
  {-0.04121229052543640137f, 0.00056286813924089074f, -0.00019353424431756139f, -0.00021725258557125926f, 0.00443520303815603256f, 0.00293646100908517838f, -0.00183942273724824190f, 0.00070860888808965683f},
  {0.00050182727864012122f, -0.00032316450960934162f, -0.00007522768282797188f, 0.00002420164491923060f, 0.00016991760639939457f, -0.00044777762377634645f, 0.00005261040496407077f, 0.00006626053800573573f},
  {-0.58245891332626342773f, 0.42793902754783630371f, -0.13282620906829833984f, 0.01827101968228816986f, -0.04201829060912132263f, -0.04437804594635963440f, 0.02774465829133987427f, -0.00471167312934994698f},
  {-0.04079384729266166687f, -1.06445801258087158203f, -1.17588293552398681641f, 0.05755397677421569824f, 0.68980187177658081055f, -0.36193323135375976562f, 0.13765090703964233398f, -0.01379001699388027191f},
  {0.15922124683856964111f, -0.06220396980643272400f, -1.54839861392974853516f, 0.01561974920332431793f, -0.06068455427885055542f, 0.13642689585685729980f, 0.00977498479187488556f, -0.03088012896478176117f},
  {0.07417892664670944214f, -0.01160970143973827362f, -1.32467949390411376953f, -0.01838940568268299103f, -0.14507684111595153809f, 0.09039055556058883667f, -0.11493810266256332397f, -0.02067933417856693268f},
  {0.61531674861907958984f, 1.14358890056610107422f, -0.11045569181442260742f, 0.02057935483753681183f, -0.08900118619203567505f, 0.07242445647716522217f, -0.12371575087308883667f, 0.00375816947780549526f},
  {-0.09802051633596420288f, 0.15395921468734741211f, 0.00388534297235310078f, -0.01174935605376958847f, 0.00929236318916082382f, 0.07511892169713973999f, 0.00019013963174074888f, 0.00786503870040178299f},
  {0.27744138240814208984f, -0.12648679316043853760f, -1.33584737777709960938f, 0.02554449811577796936f, -0.05019223690032958984f, -0.03838421776890754700f, 0.00618552416563034058f, -0.04034257307648658752f}
};
static const float tensor_actor_0_bias[64] = 
{-0.02377493306994438171f, 0.53688645362854003906f, -0.65438055992126464844f, -1.01526105403900146484f, -0.02860690653324127197f, -0.02094170264899730682f, 0.02900934591889381409f, 0.13364970684051513672f, 0.05007437616586685181f, -0.04658362641930580139f, -0.00408995663747191429f, 0.03014563769102096558f, -0.00220752367749810219f, -0.84233826398849487305f, -0.03153982758522033691f, -0.03019498288631439209f, 0.86833155155181884766f, -0.00434975093230605125f, -0.00054700311738997698f, 0.05214143916964530945f, -0.00190004473552107811f, -0.01060992572456598282f, 0.00044749191147275269f, -0.00111052021384239197f, -0.04293510690331459045f, -0.12263381481170654297f, -0.33243650197982788086f, -0.01067727338522672653f, 0.02821470983326435089f, -0.00007968603313202038f, -0.02255324088037014008f, -0.02425196394324302673f, 0.87588173151016235352f, -0.77047133445739746094f, 0.72451126575469970703f, -0.01809006556868553162f, 0.84342217445373535156f, -0.27733287215232849121f, -0.02911105938255786896f, 0.41533726453781127930f, -0.72824525833129882812f, 0.21226792037487030029f, -0.78090512752532958984f, 0.19084845483303070068f, -0.59937083721160888672f, -0.65902227163314819336f, 0.06974803656339645386f, 0.83565700054168701172f, -0.61381185054779052734f, 0.54021048545837402344f, -0.51144605875015258789f, -0.70937442779541015625f, -0.80649089813232421875f, -0.00013120983203407377f, -0.82055395841598510742f, -0.02805259637534618378f, 0.00040916359284892678f, -0.69367343187332153320f, -0.54674869775772094727f, -0.64763081073760986328f, -0.57538849115371704102f, 0.13922668993473052979f, -0.12236873060464859009f, -0.56427097320556640625f};
static const float tensor_actor_2_weight[64][64] = 
{
  {-0.02960399538278579712f, 0.02634170837700366974f, 0.03922985866665840149f, -0.11502528935670852661f, -0.00707005988806486130f, 0.01325934100896120071f, -0.01227787695825099945f, 0.01338071748614311218f, -0.10821742564439773560f, 0.02942732907831668854f, -0.00114878907334059477f, 0.02884353324770927429f, -0.01139609795063734055f, -0.00741770071908831596f, -0.00643520290032029152f, -0.02939383685588836670f, -0.04608244821429252625f, -0.00539654912427067757f, 0.02408977225422859192f, -0.19696885347366333008f, 0.00271872151643037796f, 0.03091483563184738159f, 0.01744884811341762543f, 0.00719938147813081741f, 0.04312406852841377258f, 0.04355499148368835449f, -0.21288169920444488525f, 0.01411011815071105957f, -0.01446217205375432968f, 0.00670277606695890427f, 0.04280076548457145691f, -0.01623729243874549866f, 0.00503166718408465385f, 0.04396771267056465149f, 0.20932327210903167725f, -0.01258055772632360458f, 0.00190421123988926411f, -0.05807232856750488281f, -0.02904588915407657623f, 0.00789731182157993317f, -0.11530042439699172974f, -0.00943376496434211731f, -0.09866461157798767090f, 0.18658205866813659668f, 0.01848976872861385345f, -0.00914978887885808945f, -0.00431040488183498383f, -0.08425216376781463623f, -0.01760061644017696381f, 0.24455419182777404785f, 0.02109568752348423004f, 0.06517875939607620239f, -0.08624348044395446777f, -0.05134800821542739868f, -0.17338433861732482910f, -0.00346146570518612862f, -0.02352673374116420746f, -0.10833340883255004883f, 0.02012117952108383179f, 0.11279119551181793213f, 0.02422958798706531525f, -0.02935610711574554443f, 0.05128585174679756165f, -0.03113432414829730988f},
  {0.03170631080865859985f, -0.25846967101097106934f, 0.02819276228547096252f, -0.03515491634607315063f, 0.03020721860229969025f, -0.01393025275319814682f, -0.00990601629018783569f, -0.00035170468618161976f, 0.01929732970893383026f, -0.05046642571687698364f, -0.03361682966351509094f, 0.02053106948733329773f, -0.01976172253489494324f, 0.02650620229542255402f, 0.01998642645776271820f, 0.00381993083283305168f, -0.02955552004277706146f, 0.02968810871243476868f, 0.01546942908316850662f, -0.17655588686466217041f, 0.00683812005445361137f, -0.01437222305685281754f, 0.03141149878501892090f, 0.00810082163661718369f, 0.00685418210923671722f, 0.01633745618164539337f, 0.04903658106923103333f, -0.03027368523180484772f, 0.03987836465239524841f, -0.00543778249993920326f, -0.01750994101166725159f, 0.00672376248985528946f, 0.23227827250957489014f, 0.14229552447795867920f, 0.00004879591142525896f, -0.04559264332056045532f, -0.11856858432292938232f, 0.08390901982784271240f, -0.00158994144294410944f, -0.05024493858218193054f, -0.00296755949966609478f, -0.22345103323459625244f, -0.11296938359737396240f, -0.03977348655462265015f, -0.08302441984415054321f, 0.04305467754602432251f, -0.03304710611701011658f, -0.07016383856534957886f, -0.04702448844909667969f, 0.21057251095771789551f, 0.03683508560061454773f, 0.21731142699718475342f, -0.06411098688840866089f, -0.02644384279847145081f, 0.04369075223803520203f, -0.00541165424510836601f, 0.01421816833317279816f, 0.02220639772713184357f, -0.15684230625629425049f, 0.05944690853357315063f, -0.03966425359249114990f, -0.07232919335365295410f, 0.00648555019870400429f, -0.06330548971891403198f},
  {0.01581167988479137421f, 0.06877625733613967896f, 0.01039012800902128220f, 0.07791175693273544312f, 0.01185933966189622879f, -0.01474483869969844818f, -0.04324569553136825562f, 0.00713885715231299400f, 0.04793010652065277100f, 0.01342283468693494797f, 0.02309585176408290863f, 0.02806133590638637543f, -0.01465605385601520538f, -0.09135198593139648438f, -0.00350453611463308334f, 0.01768666319549083710f, -0.10358250886201858521f, 0.02199930138885974884f, 0.03611217439174652100f, 0.19236665964126586914f, 0.03462563455104827881f, -0.00016066044918261468f, 0.00082601007306948304f, -0.05198788270354270935f, 0.01798274181783199310f, -0.05036594718694686890f, 0.15384362637996673584f, -0.02552342042326927185f, -0.00122929352801293135f, 0.02146656252443790436f, 0.02934081666171550751f, -0.04517884552478790283f, -0.06678972393274307251f, -0.10140925645828247070f, -0.06356167048215866089f, -0.00696406420320272446f, 0.05601396411657333374f, -0.05189514905214309692f, 0.01649157702922821045f, 0.08251518756151199341f, 0.04617930948734283447f, 0.01168402377516031265f, 0.19116805493831634521f, -0.04810873046517372131f, 0.07258225232362747192f, 0.15021677315235137939f, -0.08118294179439544678f, 0.02624993585050106049f, -0.01179901510477066040f, -0.25177317857742309570f, -0.01611101441085338593f, -0.10893739759922027588f, 0.08284360915422439575f, 0.01821967959403991699f, 0.00831370055675506592f, -0.01070559024810791016f, -0.03200116008520126343f, 0.07064022123813629150f, 0.02672479487955570221f, -0.04447755590081214905f, -0.07169898599386215210f, 0.05833492428064346313f, -0.02576729096472263336f, -0.06693364679813385010f},
  {0.00543299503624439240f, -0.07847393304109573364f, 0.00775383319705724716f, -0.13740621507167816162f, -0.00044380978215485811f, 0.03063490241765975952f, -0.00973787158727645874f, 0.04306590184569358826f, -0.05202542617917060852f, 0.00159148848615586758f, 0.00538808759301900864f, 0.02875930070877075195f, 0.02791428193449974060f, -0.07732318341732025146f, -0.00087374151917174459f, -0.00707454467192292213f, -0.06567726284265518188f, 0.03877583146095275879f, -0.02007740549743175507f, -0.16829520463943481445f, -0.03960138186812400818f, 0.01237978879362344742f, -0.02394046820700168610f, 0.02829255908727645874f, -0.00602944055572152138f, 0.04904197901487350464f, -0.05431775376200675964f, 0.01058424822986125946f, -0.00532632274553179741f, -0.03792540729045867920f, 0.00126478937454521656f, 0.05413457378745079041f, -0.20027916133403778076f, 0.04373817145824432373f, 0.13423816859722137451f, 0.00109594466630369425f, -0.07716936618089675903f, 0.06660979241132736206f, 0.03345569223165512085f, -0.11005980521440505981f, -0.08189372718334197998f, -0.08932190388441085815f, -0.05487112328410148621f, 0.03394917026162147522f, -0.06679610162973403931f, 0.01323110517114400864f, 0.06420106440782546997f, -0.02684322185814380646f, -0.00532059744000434875f, 0.26409593224525451660f, 0.03346419706940650940f, 0.13523772358894348145f, 0.07442054897546768188f, -0.03048777580261230469f, -0.12627093493938446045f, 0.01446953974664211273f, 0.00338185951113700867f, -0.07738287001848220825f, -0.07067470252513885498f, -0.14461100101470947266f, 0.05582164227962493896f, -0.11540944874286651611f, 0.01767297089099884033f, 0.06069393083453178406f},
  {0.03135399147868156433f, 0.33278301358222961426f, -0.31371533870697021484f, 0.66207575798034667969f, 0.03047313354909420013f, 0.04287845268845558167f, -0.03131905943155288696f, 0.36934947967529296875f, 0.42870098352432250977f, -1.57382631301879882812f, 0.00309890252538025379f, -0.03261210769414901733f, 0.00309670437127351761f, 0.26209288835525512695f, 0.02629624307155609131f, 0.01295622624456882477f, -0.93540585041046142578f, 0.00371228298172354698f, 0.00092054111883044243f, 1.32566642761230468750f, -0.00596409523859620094f, 0.01098218653351068497f, 0.00120518775656819344f, 0.00842814426869153976f, 0.06423297524452209473f, 0.05617677792906761169f, 0.97515618801116943359f, 0.02336507476866245270f, -0.03821598738431930542f, 0.00006398675759555772f, 0.04406856745481491089f, 0.00681537063792347908f, -0.13545870780944824219f, 0.30627107620239257812f, -1.50598812103271484375f, 0.01441001240164041519f, -0.21304425597190856934f, -0.49238565564155578613f, 0.03255150094628334045f, 0.16081196069717407227f, 0.60966408252716064453f, -0.51712948083877563477f, 0.45769348740577697754f, 0.70405137538909912109f, 0.04308296367526054382f, 0.05355724692344665527f, -0.42399382591247558594f, 0.05632920563220977783f, -0.07857262343168258667f, -2.13710403442382812500f, 0.06384076923131942749f, -0.15898425877094268799f, 0.47327154874801635742f, -0.00711542041972279549f, 0.48863339424133300781f, 0.02262896671891212463f, -0.00302127655595541000f, -0.31541961431503295898f, 0.22676774859428405762f, -0.18033327162265777588f, 0.29251563549041748047f, -0.02484267391264438629f, 0.04484175518155097961f, 0.04222834855318069458f},
  {-0.03848129138350486755f, -0.24703589081764221191f, -0.02025898732244968414f, 0.08856920152902603149f, -0.04726500436663627625f, -0.03767348453402519226f, 0.01223840657621622086f, 0.02410554885864257812f, 0.09112004935741424561f, -0.04239085689187049866f, -0.02155889011919498444f, 0.03666750714182853699f, -0.01904807798564434052f, -0.10224509239196777344f, -0.01108013838529586792f, -0.01845270954072475433f, -0.04073441401124000549f, -0.02430835366249084473f, 0.02901870757341384888f, 0.01374868955463171005f, -0.02420292049646377563f, 0.01307506952434778214f, 0.01151166763156652451f, -0.01802057027816772461f, -0.01939611881971359253f, 0.01430941931903362274f, 0.23656651377677917480f, -0.03939935564994812012f, 0.03322186693549156189f, 0.00676956493407487869f, -0.00428045215085148811f, 0.00004440754855750129f, -0.13599048554897308350f, 0.09768775105476379395f, -0.12993989884853363037f, -0.02808107249438762665f, -0.11036974191665649414f, 0.06102247536182403564f, 0.00378747284412384033f, -0.03118755482137203217f, 0.05880821496248245239f, -0.21413053572177886963f, 0.15052749216556549072f, -0.16100178658962249756f, -0.02998923324048519135f, -0.05404417961835861206f, -0.02742564678192138672f, 0.01101350132375955582f, -0.06231277063488960266f, 0.01806180737912654877f, 0.03582694754004478455f, 0.08991543203592300415f, -0.04980631172657012939f, 0.00605119206011295319f, -0.05842578411102294922f, -0.01563559286296367645f, 0.00977615080773830414f, -0.00168235565070062876f, -0.04209063574671745300f, -0.07118508219718933105f, -0.01753134839236736298f, -0.08285591006278991699f, -0.05216263607144355774f, 0.07554058730602264404f},
  {-0.00730279367417097092f, 0.15113955736160278320f, -0.01694267801940441132f, 0.08444919437170028687f, 0.01420669723302125931f, 0.01313645020127296448f, -0.01373133342713117599f, -0.06988183408975601196f, -0.01213139947503805161f, 0.02432778291404247284f, 0.01156379096210002899f, 0.01169537752866744995f, -0.00246418500319123268f, -0.04593986645340919495f, -0.03134797513484954834f, -0.01362673100084066391f, -0.06138717010617256165f, 0.00540508376434445381f, -0.01482379622757434845f, 0.14539515972137451172f, -0.01290180254727602005f, -0.00136977294459939003f, 0.03077612817287445068f, -0.04662318527698516846f, -0.03081170283257961273f, -0.04801676422357559204f, 0.00288678612560033798f, -0.02924627810716629028f, -0.01121953036636114120f, 0.03336222469806671143f, 0.03572285175323486328f, -0.01029084343463182449f, 0.02609288133680820465f, -0.10542415082454681396f, -0.02667158842086791992f, -0.03069579415023326874f, 0.10457796603441238403f, -0.03455333784222602844f, 0.00305894948542118073f, 0.04338785260915756226f, 0.04215529933571815491f, 0.07145933061838150024f, -0.02131904475390911102f, 0.03819404169917106628f, 0.08248452097177505493f, 0.05143800377845764160f, -0.03041424043476581573f, 0.02919839695096015930f, 0.06057595834136009216f, -0.23371674120426177979f, -0.03091688640415668488f, -0.13644714653491973877f, -0.01301667280495166779f, 0.00075586070306599140f, 0.05113906413316726685f, -0.02044373936951160431f, 0.01552094612270593643f, 0.00340523733757436275f, 0.08978931605815887451f, 0.14189654588699340820f, -0.04130007326602935791f, 0.14958937466144561768f, 0.02742662467062473297f, -0.09087734669446945190f},
  {-0.00102999038062989712f, -0.19821004569530487061f, 0.04437455907464027405f, 0.13624744117259979248f, -0.01852871291339397430f, 0.00529725709930062294f, -0.01480875443667173386f, 0.05054013058543205261f, 0.09954698383808135986f, -0.07826148718595504761f, 0.00328811816871166229f, 0.03900622949004173279f, -0.00536617636680603027f, -0.03962732851505279541f, -0.00154598266817629337f, -0.03911016881465911865f, -0.21445941925048828125f, 0.00449980050325393677f, -0.00275721098296344280f, 0.05724631622433662415f, -0.03679798170924186707f, -0.02688895352184772491f, -0.01180457044392824173f, 0.01817459426820278168f, -0.01235213875770568848f, -0.04542376846075057983f, 0.25914844870567321777f, 0.00803796574473381042f, 0.01135867368429899216f, -0.04459754750132560730f, -0.03870183229446411133f, -0.01536955405026674271f, -0.12814036011695861816f, 0.04163556918501853943f, -0.09456332772970199585f, -0.01160296145826578140f, -0.08668372035026550293f, -0.00822709687054157257f, -0.03319685906171798706f, -0.06885191053152084351f, 0.05227284133434295654f, -0.19065533578395843506f, -0.03801032900810241699f, -0.12777249515056610107f, 0.03406357765197753906f, 0.00824986211955547333f, 0.01032520737498998642f, 0.08625314384698867798f, 0.00101459538564085960f, -0.01372959557920694351f, 0.02854313701391220093f, 0.07294622808694839478f, -0.05840878561139106750f, 0.01117624435573816299f, -0.09907753020524978638f, -0.02855173125863075256f, -0.01723680831491947174f, -0.02724683471024036407f, -0.10706611722707748413f, -0.08082578331232070923f, 0.03305066376924514771f, -0.03753558918833732605f, -0.09037303924560546875f, 0.16948141157627105713f},
  {0.00472798710688948631f, -0.08912295848131179810f, -0.04640963301062583923f, -0.07859734445810317993f, -0.01279820315539836884f, 0.02069305069744586945f, 0.01634461246430873871f, 0.09509173780679702759f, 0.04757722467184066772f, 0.09494116902351379395f, 0.02068389579653739929f, -0.00012251191947143525f, 0.02820159867405891418f, 0.22605778276920318604f, -0.02714081667363643646f, -0.00177149230148643255f, -0.09011696279048919678f, 0.01208778750151395798f, 0.03071952052414417267f, -0.04016169905662536621f, 0.01345912739634513855f, 0.00335273379459977150f, -0.01393513474613428116f, 0.01497262157499790192f, 0.01814715377986431122f, 0.04958322271704673767f, 0.05512765794992446899f, -0.01755414716899394989f, -0.00491725793108344078f, 0.01377382222563028336f, -0.01574213430285453796f, 0.01663952134549617767f, 0.05165046453475952148f, 0.01317011751234531403f, 0.00751306815072894096f, -0.00780693255364894867f, -0.03701088950037956238f, -0.02510209567844867706f, 0.00327338720671832561f, 0.10374698042869567871f, -0.05187770351767539978f, -0.08936117589473724365f, -0.17909653484821319580f, -0.00994257908314466476f, -0.08144571632146835327f, -0.04072460159659385681f, 0.07164345681667327881f, -0.09074568003416061401f, 0.02679529041051864624f, 0.08113128691911697388f, 0.02134953625500202179f, 0.02621441334486007690f, -0.05799585208296775818f, -0.01048749871551990509f, 0.10144498944282531738f, 0.01722855307161808014f, -0.02700988762080669403f, -0.03767082467675209045f, -0.02189563587307929993f, -0.08001497387886047363f, -0.04945771768689155579f, -0.08611111342906951904f, -0.03987679257988929749f, 0.02645546011626720428f},
  {-0.01048611290752887726f, -0.20133277773857116699f, 0.05945393815636634827f, 0.17906817793846130371f, -0.02969823963940143585f, -0.00427867937833070755f, 0.05012914910912513733f, 0.00287761166691780090f, 0.08408139646053314209f, -0.10119031369686126709f, 0.03968094661831855774f, -0.00555154401808977127f, 0.01472026668488979340f, 0.12330698966979980469f, -0.01885684952139854431f, -0.00638427771627902985f, -0.22730605304241180420f, -0.01721440255641937256f, -0.02916040457785129547f, 0.14334259927272796631f, 0.00556367123499512672f, -0.02918972447514533997f, -0.03220228478312492371f, 0.00304650608450174332f, -0.02047077938914299011f, -0.05039174854755401611f, 0.31638973951339721680f, 0.00921649578958749771f, -0.02356188371777534485f, 0.02597423642873764038f, -0.03473055735230445862f, 0.01870569214224815369f, -0.08874119073152542114f, -0.00455822935327887535f, -0.17758840322494506836f, 0.01637847907841205597f, -0.05357405543327331543f, 0.08226974308490753174f, 0.02260871976613998413f, 0.09280605614185333252f, 0.14233100414276123047f, -0.16713823378086090088f, 0.00507037434726953506f, -0.25803768634796142578f, -0.01926172524690628052f, -0.03822268173098564148f, 0.03934035822749137878f, 0.10932820290327072144f, -0.00695616332814097404f, -0.11295562237501144409f, 0.01555510796606540680f, 0.05863856524229049683f, 0.00346675817854702473f, -0.00562373222783207893f, 0.07493361830711364746f, 0.03665028885006904602f, 0.01614569500088691711f, 0.10824246704578399658f, -0.09577686339616775513f, -0.18134994804859161377f, -0.07551310956478118896f, -0.03921510651707649231f, -0.02427444607019424438f, 0.14887969195842742920f},
  {0.00892516411840915680f, 0.13149163126945495605f, 0.00331775355152785778f, 0.17746528983116149902f, -0.00765632139518857002f, -0.00436062738299369812f, -0.02203501760959625244f, -0.09067754447460174561f, 0.03425132110714912415f, -0.04608675837516784668f, 0.00476069608703255653f, -0.03897971287369728088f, 0.01804660446941852570f, -0.11080671846866607666f, 0.02204714529216289520f, 0.00097625661874189973f, -0.01155263837426900864f, 0.01205742824822664261f, -0.02975793741643428802f, 0.09977227449417114258f, -0.03905050083994865417f, -0.03160690888762474060f, -0.01837725006043910980f, 0.05839816853404045105f, -0.06429128348827362061f, -0.09139394760131835938f, -0.04211229830980300903f, 0.02071225829422473907f, 0.01773301698267459869f, -0.05772329494357109070f, 0.00464068073779344559f, 0.01981097087264060974f, 0.00139820924960076809f, -0.12793350219726562500f, -0.00683558080345392227f, 0.04349341616034507751f, 0.09765297174453735352f, -0.03170693665742874146f, 0.01488720811903476715f, 0.04986872896552085876f, 0.07809006422758102417f, 0.09330161660909652710f, -0.06324375420808792114f, -0.08426181226968765259f, 0.11236170679330825806f, 0.00867220852524042130f, -0.09019957482814788818f, 0.01769096590578556061f, 0.08400242030620574951f, -0.20485746860504150391f, -0.03051161579787731171f, -0.17898237705230712891f, -0.04099474474787712097f, -0.00476954970508813858f, -0.04588278755545616150f, 0.04453418031334877014f, -0.03363084420561790466f, 0.05294385924935340881f, 0.07637956738471984863f, 0.18783374130725860596f, 0.06363576650619506836f, 0.12304264307022094727f, 0.03149738907814025879f, -0.07588748633861541748f},
  {-0.01761194877326488495f, 0.29439944028854370117f, 0.48956865072250366211f, -0.89494633674621582031f, -0.02006942406296730042f, -0.00817121751606464386f, 0.01838191971182823181f, 0.01016055326908826828f, 0.19915610551834106445f, -0.02214319445192813873f, -0.00837912317365407944f, 0.02045014873147010803f, -0.01038185134530067444f, -0.13743832707405090332f, -0.02296597883105278015f, -0.02665682509541511536f, 0.09212607145309448242f, -0.00950904004275798798f, -0.00484071997925639153f, -0.18812778592109680176f, -0.00576401734724640846f, -0.01345405634492635727f, 0.00377019424922764301f, -0.00712759187445044518f, -0.06829858571290969849f, -0.03866148740053176880f, -0.25856697559356689453f, -0.01446678675711154938f, 0.01657842099666595459f, -0.00114911783020943403f, -0.01353175751864910126f, -0.02089140005409717560f, 0.58181548118591308594f, -0.58571922779083251953f, -0.24591594934463500977f, -0.01631104946136474609f, -0.72552108764648437500f, -0.01507230848073959351f, -0.02951373718678951263f, -0.57195866107940673828f, -2.14537334442138671875f, 0.18081668019294738770f, -0.00279346387833356857f, 0.64454531669616699219f, -0.09115292876958847046f, 0.20924776792526245117f, 0.34203156828880310059f, 0.25137889385223388672f, -0.37107339501380920410f, -1.88138103485107421875f, -3.29158020019531250000f, -3.17521619796752929688f, -0.13549186289310455322f, -0.00257384497672319412f, -0.35881766676902770996f, -0.01925022900104522705f, 0.00430043833330273628f, -0.19025833904743194580f, 1.05690574645996093750f, -0.23109456896781921387f, -0.34350404143333435059f, -0.87436342239379882812f, -0.22997747361660003662f, 0.20103597640991210938f},
  {-0.02596383914351463318f, -0.19372859597206115723f, 0.04632395505905151367f, 0.08552808314561843872f, -0.02966063469648361206f, 0.02577112056314945221f, 0.04519054666161537170f, 0.07901901751756668091f, 0.09102690964937210083f, -0.05475668609142303467f, 0.04268278926610946655f, 0.04308230057358741760f, 0.01316165924072265625f, 0.06695295870304107666f, 0.01650670170783996582f, -0.03435125946998596191f, -0.14911030232906341553f, 0.00918525177985429764f, 0.00045211488031782210f, 0.06930308043956756592f, -0.04327901825308799744f, -0.05658876895904541016f, -0.02758188918232917786f, 0.01109499484300613403f, -0.04030897468328475952f, -0.07939108461141586304f, 0.22266490757465362549f, 0.00022917437308933586f, 0.02857407554984092712f, -0.05053797364234924316f, 0.01173902116715908051f, -0.03392133861780166626f, 0.05902050063014030457f, 0.02381800487637519836f, -0.12647338211536407471f, -0.00573695451021194458f, -0.06873764842748641968f, -0.02639715932309627533f, -0.04817207157611846924f, 0.00580440275371074677f, 0.05063576623797416687f, -0.15111005306243896484f, -0.01887651346623897552f, -0.11342129111289978027f, 0.01756449043750762939f, -0.07665996253490447998f, -0.00565016642212867737f, 0.02409411035478115082f, 0.12028002738952636719f, -0.04434000328183174133f, 0.02761102467775344849f, 0.01712993904948234558f, -0.00609545502811670303f, -0.01705337502062320709f, -0.05545670539140701294f, -0.03528721258044242859f, -0.00642977515235543251f, -0.01223185285925865173f, -0.14991322159767150879f, 0.00805096980184316635f, -0.06987942010164260864f, -0.01449497416615486145f, -0.09632087498903274536f, 0.05973745882511138916f},
  {-0.00019112274458166212f, -0.19488994777202606201f, 0.02330721169710159302f, -0.00630771135911345482f, -0.00031831019441597164f, -0.00033469637855887413f, 0.00034095355658791959f, -0.00647249491885304451f, -0.23884312808513641357f, 0.43414881825447082520f, -0.00005527055327547714f, 0.00033251161221414804f, -0.00000544391878065653f, 1.42161333560943603516f, -0.00038075263728387654f, -0.00032529077725484967f, -0.34107851982116699219f, -0.00005120275091030635f, -0.00001835403236327693f, -0.38691729307174682617f, -0.00003283007026766427f, -0.00004001246634288691f, 0.00003495252531138249f, -0.00001311012147198198f, -0.00038188212784007192f, -0.00240340782329440117f, -0.32704904675483703613f, -0.00007344766345340759f, 0.00039499363629147410f, 0.00000969148004514864f, -0.00026426246040500700f, -0.00018289693980477750f, -0.27188375592231750488f, 0.26091614365577697754f, -0.51997321844100952148f, -0.00008126579632516950f, -0.18003271520137786865f, 0.01233782991766929626f, -0.00039742310764268041f, -0.09779731184244155884f, -0.08121751248836517334f, -0.03675605356693267822f, 0.39543759822845458984f, -0.46175038814544677734f, 0.35630428791046142578f, 0.43614658713340759277f, 0.00010376828140579164f, -0.86788547039031982422f, 0.18495872616767883301f, -0.20106361806392669678f, -0.07851752638816833496f, -0.00985266640782356262f, 0.48534190654754638672f, 0.00003120899054920301f, 0.84873324632644653320f, -0.00030127682839520276f, 0.00000824449398351135f, 0.00779563002288341522f, 0.40472444891929626465f, 0.99071538448333740234f, 0.02975185588002204895f, 0.00004059663842781447f, 0.00089866889175027609f, 0.16960087418556213379f},
  {0.00124262645840644836f, 0.26534408330917358398f, -0.12923675775527954102f, -0.07295354455709457397f, 0.04803678765892982483f, 0.01524233352392911911f, 0.00247860513627529144f, -0.06513358652591705322f, -0.12092279642820358276f, 0.13357621431350708008f, 0.05372889712452888489f, -0.03444032371044158936f, -0.01176982093602418900f, -0.04839131981134414673f, 0.03114325553178787231f, 0.00567914359271526337f, -0.00154588080476969481f, 0.01627882197499275208f, 0.00283235288225114346f, 0.00271925679408013821f, 0.00069315452128648758f, 0.03115047700703144073f, 0.00034689198946580291f, -0.01736619137227535248f, 0.04811573028564453125f, 0.02281942777335643768f, -0.17411978542804718018f, 0.04447739571332931519f, -0.04558102041482925415f, 0.00552872568368911743f, 0.02932382747530937195f, 0.07012589275836944580f, -0.02896587736904621124f, -0.19606095552444458008f, 0.16353088617324829102f, 0.03284904360771179199f, 0.11667939275503158569f, -0.03378143906593322754f, 0.03755592554807662964f, 0.05078256502747535706f, -0.02997189573943614960f, 0.16555671393871307373f, -0.01248753350228071213f, 0.17020234465599060059f, 0.00922587234526872635f, 0.11176040768623352051f, 0.00431584613397717476f, -0.08005235344171524048f, 0.05161175876855850220f, -0.09197781234979629517f, -0.03422727435827255249f, -0.04304318875074386597f, 0.06596411764621734619f, 0.02179191075265407562f, -0.08746536821126937866f, 0.00626950105652213097f, -0.02982088550925254822f, -0.04136746749281883240f, 0.23281632363796234131f, -0.00309852999635040760f, 0.01840677112340927124f, 0.04294322803616523743f, 0.04365457594394683838f, -0.01646145433187484741f},
  {-0.03705855831503868103f, -0.12582550942897796631f, 0.01240754686295986176f, 0.18988579511642456055f, -0.03037880361080169678f, 0.00249133771285414696f, 0.04444938153028488159f, -0.00678492942824959755f, 0.09793929755687713623f, -0.04099472984671592712f, -0.00653669424355030060f, -0.00729060918092727661f, -0.05968398973345756531f, -0.12037807703018188477f, -0.01879359409213066101f, -0.02448498271405696869f, -0.08436354249715805054f, -0.01800075545907020569f, -0.03780060634016990662f, 0.14725081622600555420f, -0.00659873895347118378f, -0.00105056108441203833f, 0.02940016798675060272f, 0.00805175956338644028f, -0.02334309741854667664f, -0.05622400715947151184f, 0.23794168233871459961f, -0.03531538322567939758f, -0.02655562572181224823f, 0.03491899743676185608f, -0.04458699002861976624f, -0.02074572443962097168f, -0.12912215292453765869f, 0.06794892996549606323f, -0.14779502153396606445f, -0.04338538646697998047f, -0.03985818848013877869f, 0.01434062607586383820f, 0.00655919825658202171f, -0.01368465833365917206f, 0.08284541964530944824f, -0.09001379460096359253f, 0.15371957421302795410f, -0.17464475333690643311f, -0.02750958316028118134f, -0.06977434456348419189f, -0.06310240179300308228f, 0.08366388082504272461f, 0.01976852677762508392f, -0.12516403198242187500f, 0.01659944094717502594f, -0.06397026032209396362f, 0.11593167483806610107f, 0.02236264012753963470f, -0.03983943536877632141f, -0.01173593662679195404f, 0.02141061425209045410f, 0.01292262412607669830f, -0.09389168024063110352f, -0.12132845073938369751f, -0.03668818622827529907f, -0.00685489084571599960f, -0.06352794915437698364f, 0.14630831778049468994f},
  {0.04347202181816101074f, 0.19176244735717773438f, -0.10659676045179367065f, -0.12801527976989746094f, 0.03012876212596893311f, 0.01056454982608556747f, -0.01608463935554027557f, -0.03723464906215667725f, -0.07323486357927322388f, 0.16741234064102172852f, 0.03100706823170185089f, -0.05688092112541198730f, 0.03882989659905433655f, 0.04089201241731643677f, 0.02500650472939014435f, 0.04700312763452529907f, 0.03749649971723556519f, 0.01145210769027471542f, -0.01568908244371414185f, -0.09595464915037155151f, -0.02566519938409328461f, -0.00688570784404873848f, -0.04890014976263046265f, 0.01668150164186954498f, 0.03564416244626045227f, 0.04211875423789024353f, -0.24466389417648315430f, 0.01895147934556007385f, -0.02041730657219886780f, -0.01974685676395893097f, 0.03750891238451004028f, 0.03952813893556594849f, 0.03737787902355194092f, -0.01906584389507770538f, 0.18832951784133911133f, 0.04141775891184806824f, 0.08339054882526397705f, -0.02153403125703334808f, 0.00843272916972637177f, 0.06430368870496749878f, -0.07590354233980178833f, 0.12979853153228759766f, -0.22259983420372009277f, 0.18748334050178527832f, -0.08262637257575988770f, 0.05515838786959648132f, 0.04834718257188796997f, -0.17531207203865051270f, 0.09439738094806671143f, 0.04253789037466049194f, -0.01204235013574361801f, -0.06811727583408355713f, 0.01412640977650880814f, -0.01125937979668378830f, 0.06355277448892593384f, 0.02974592149257659912f, -0.01366365142166614532f, 0.00402989238500595093f, 0.16362820565700531006f, -0.03351607173681259155f, -0.02897913940250873566f, 0.09031679481267929077f, 0.06927030533552169800f, -0.08221024274826049805f},
  {0.01542442943900823593f, 0.15834985673427581787f, -0.06355169415473937988f, 0.01128679513931274414f, 0.02796560898423194885f, 0.03087995946407318115f, -0.02724449522793292999f, -0.06882332265377044678f, -0.10066340118646621704f, 0.14427883923053741455f, -0.01436274219304323196f, -0.02045031078159809113f, -0.00765516282990574837f, -0.10844127833843231201f, 0.02159657888114452362f, 0.05046165362000465393f, 0.04680468887090682983f, -0.01230027340352535248f, 0.04144292324781417847f, -0.08650484681129455566f, 0.04096618294715881348f, 0.02000755630433559418f, -0.00055130181135609746f, 0.01066539529711008072f, 0.05122305080294609070f, 0.05148581787943840027f, -0.20648813247680664062f, 0.02905768714845180511f, -0.03434589132666587830f, 0.00919061712920665741f, 0.03095119632780551910f, 0.00774780334904789925f, 0.01595024578273296356f, 0.02099595591425895691f, 0.11980406194925308228f, -0.01871102117002010345f, 0.07777517288923263550f, 0.02917401120066642761f, 0.02941779233515262604f, 0.00194987130817025900f, -0.05407023429870605469f, 0.13596376776695251465f, -0.00493809115141630173f, 0.13068772852420806885f, -0.03589339554309844971f, 0.13364847004413604736f, 0.03937508165836334229f, -0.04149987921118736267f, -0.05348793789744377136f, 0.04116394370794296265f, -0.00552205694839358330f, -0.02886662259697914124f, -0.02231126464903354645f, -0.01364412624388933182f, 0.11916659772396087646f, 0.02177414484322071075f, -0.01931482553482055664f, 0.02593791484832763672f, 0.09203684329986572266f, -0.00789952464401721954f, -0.00881693884730339050f, 0.03731304407119750977f, 0.08286391943693161011f, -0.17300413548946380615f},
  {0.00613080291077494621f, -0.19471886754035949707f, 0.00187902315519750118f, -0.23518970608711242676f, 0.02904185280203819275f, -0.02106292173266410828f, -0.00774106569588184357f, 0.02270720712840557098f, 0.10744694620370864868f, -0.00662889564409852028f, 0.01488233637064695358f, 0.02258916385471820831f, 0.04355405271053314209f, 0.15833573043346405029f, -0.01583429984748363495f, -0.05535199120640754700f, 0.19194023311138153076f, -0.01092015299946069717f, -0.03444235771894454956f, -0.11995183676481246948f, 0.05240289121866226196f, -0.00102534773759543896f, 0.03547815233469009399f, -0.01960776560008525848f, 0.03657210990786552429f, 0.01675658859312534332f, 0.11518658697605133057f, 0.00597923900932073593f, 0.01203548442572355270f, 0.02350891381502151489f, 0.04239488393068313599f, -0.02227938733994960785f, -0.10285390913486480713f, 0.04772760719060897827f, -0.04342512041330337524f, 0.03418136015534400940f, -0.12902034819126129150f, 0.03620012104511260986f, 0.01722525991499423981f, 0.05821890011429786682f, -0.05493245646357536316f, -0.21993826329708099365f, -0.00400719698518514633f, -0.06002112478017807007f, -0.11996471136808395386f, 0.06355894356966018677f, 0.01845356449484825134f, -0.10949289798736572266f, 0.05982834845781326294f, 0.17809139192104339600f, 0.03990555182099342346f, 0.20156162977218627930f, 0.03130732849240303040f, 0.01254412252455949783f, 0.02296349592506885529f, -0.05496689677238464355f, 0.01503837294876575470f, 0.03046321496367454529f, -0.06544769555330276489f, 0.00762745738029479980f, -0.17224775254726409912f, -0.12349816411733627319f, -0.00936335604637861252f, -0.15091206133365631104f},
  {0.01016224175691604614f, -0.00603305222466588020f, 0.00385506590828299522f, 0.20083642005920410156f, -0.00321054388768970966f, 0.01517934538424015045f, -0.00189868186134845018f, 0.26816496253013610840f, -0.60987418889999389648f, -0.08490289747714996338f, -0.00046283676056191325f, -0.00039843007107265294f, -0.00200713938102126122f, -0.69051373004913330078f, -0.01051784213632345200f, -0.01788607239723205566f, 0.09394314140081405640f, -0.00288412882946431637f, -0.00036171110696159303f, -1.54256820678710937500f, -0.00552727980539202690f, 0.00086113211000338197f, 0.00160023663192987442f, 0.00382846617139875889f, -0.00975397787988185883f, -0.02894348837435245514f, -0.90613746643066406250f, 0.00680955499410629272f, -0.00332168606109917164f, -0.00077943672658875585f, 0.01721252128481864929f, -0.00489468732848763466f, 0.95271182060241699219f, -0.34045827388763427734f, 0.74577122926712036133f, 0.00067452871007844806f, -1.03428399562835693359f, 0.01317685935646295547f, 0.01556635182350873947f, -0.51281648874282836914f, -2.69301176071166992188f, -0.09208904951810836792f, -0.17164519429206848145f, -0.69540572166442871094f, 0.29775336384773254395f, -0.58028125762939453125f, 0.13220857083797454834f, 0.50587332248687744141f, -0.11001522839069366455f, 0.07409928739070892334f, -0.88016349077224731445f, -1.31931447982788085938f, -0.35439237952232360840f, -0.00634136609733104706f, -0.37187471985816955566f, -0.00443381583318114281f, 0.00021964989718981087f, 0.16239152848720550537f, 0.52702474594116210938f, -0.27677655220031738281f, -0.61151885986328125000f, -0.58178102970123291016f, -0.20350538194179534912f, 0.15200258791446685791f},
  {0.01130383741110563278f, -0.92617547512054443359f, 0.41360047459602355957f, 0.69453281164169311523f, 0.01144907996058464050f, 0.00467978836968541145f, -0.01064999122172594070f, -0.16570125520229339600f, 0.20191204547882080078f, 0.20704376697540283203f, 0.00114900129847228527f, -0.01248872093856334686f, 0.00438443291932344437f, -0.36863932013511657715f, 0.01189616881310939789f, 0.00799989886581897736f, -0.19597914814949035645f, 0.00154289882630109787f, 0.00162783591076731682f, -1.36643409729003906250f, -0.00072104716673493385f, 0.00252224807627499104f, -0.00103888672310858965f, 0.00153356872033327818f, 0.06112588942050933838f, -0.00773424049839377403f, 0.06991308182477951050f, 0.00552171654999256134f, -0.01032178290188312531f, 0.00006646720430580899f, 0.01149064488708972931f, 0.00770539464429020882f, -0.39297780394554138184f, 0.08750879019498825073f, 0.20364753901958465576f, 0.00685021420940756798f, -1.01622819900512695312f, 0.15780356526374816895f, 0.02102388069033622742f, 0.04152025282382965088f, 0.74784022569656372070f, -1.92768955230712890625f, 0.24274218082427978516f, -0.67982625961303710938f, 0.07708404958248138428f, -0.66006559133529663086f, 0.20234508812427520752f, 0.62405848503112792969f, -0.11481572687625885010f, 0.79585713148117065430f, 0.44304656982421875000f, 1.16251516342163085938f, -0.07908932864665985107f, -0.00099273223895579576f, -0.40433725714683532715f, 0.00677471514791250229f, -0.00162361084949225187f, 0.45959657430648803711f, -1.49548316001892089844f, 0.05504728108644485474f, 0.44158950448036193848f, -0.48455440998077392578f, 0.20663760602474212646f, 0.39833563566207885742f},
  {0.01813325658440589905f, -0.22199928760528564453f, 0.10577582567930221558f, 0.27233496308326721191f, 0.01028245314955711365f, 0.01061212178319692612f, 0.01512789539992809296f, 0.02535092085599899292f, 0.14144521951675415039f, -0.05641084536910057068f, -0.00952778663486242294f, 0.04266161099076271057f, 0.02775960601866245270f, -0.05011368915438652039f, -0.01483698841184377670f, -0.00786679890006780624f, -0.05728612840175628662f, -0.00255710259079933167f, -0.00007885758532211185f, 0.13480833172798156738f, -0.04362506791949272156f, 0.02327851578593254089f, -0.02013210207223892212f, 0.00687680905684828758f, -0.02062400989234447479f, -0.08228926360607147217f, 0.30594289302825927734f, 0.03753999620676040649f, 0.04864900186657905579f, -0.03867464885115623474f, 0.03004829958081245422f, -0.02515074051916599274f, -0.14637979865074157715f, 0.12202493101358413696f, -0.34868353605270385742f, 0.03333847224712371826f, -0.07374031096696853638f, 0.04068003594875335693f, 0.01249173376709222794f, -0.03758182376623153687f, 0.14576962590217590332f, -0.17615027725696563721f, 0.12028755992650985718f, -0.25947305560111999512f, -0.07668583840131759644f, -0.16951124370098114014f, -0.00126743910368531942f, 0.13427177071571350098f, -0.02262766472995281219f, -0.10226859152317047119f, 0.03302073851227760315f, 0.07112935185432434082f, -0.03414626792073249817f, -0.01005986984819173813f, 0.01164486072957515717f, -0.01818202063441276550f, -0.01610721088945865631f, 0.17391926050186157227f, -0.13851431012153625488f, -0.00965300202369689941f, -0.06349346786737442017f, -0.03513026982545852661f, -0.02142185345292091370f, 0.06879761070013046265f},
  {0.02972451224923133850f, 0.12697477638721466064f, -0.05733178183436393738f, 0.07784995436668395996f, 0.04394622892141342163f, 0.04591556638479232788f, -0.01268695946782827377f, -0.04224931821227073669f, -0.10486417263746261597f, 0.01399978064000606537f, -0.00002318897895747796f, -0.04987834393978118896f, -0.01430636271834373474f, 0.00601174635812640190f, 0.04592296481132507324f, 0.05254027992486953735f, 0.10682880878448486328f, -0.00135861395392566919f, 0.01112722698599100113f, -0.09853699058294296265f, 0.01741724833846092224f, 0.04473915323615074158f, 0.04883831366896629333f, 0.01266911812126636505f, 0.06932044774293899536f, 0.08106125146150588989f, -0.21151445806026458740f, -0.02362860739231109619f, -0.02300907298922538757f, 0.00331669114530086517f, 0.00867966748774051666f, 0.04925479739904403687f, 0.16108660399913787842f, -0.08433481305837631226f, 0.09754642099142074585f, -0.00154113501776009798f, 0.07787735760211944580f, -0.00141618435736745596f, 0.04404139891266822815f, -0.01406789850443601608f, -0.02974294312298297882f, 0.12291540205478668213f, -0.11775931715965270996f, 0.15487971901893615723f, 0.02575639449059963226f, 0.03110032342374324799f, 0.03999172896146774292f, -0.09755389392375946045f, -0.05690932646393775940f, 0.03309331089258193970f, -0.01236713677644729614f, -0.00977549329400062561f, -0.04389610141515731812f, -0.02612833864986896515f, -0.02859451621770858765f, 0.04084598273038864136f, -0.03443307429552078247f, -0.00303293857723474503f, 0.13836085796356201172f, 0.05223756283521652222f, 0.11775194853544235229f, 0.07511124014854431152f, 0.13227799534797668457f, 0.03157845884561538696f},
  {0.00440291920676827431f, 0.01380762271583080292f, -0.09019340574741363525f, -0.17241375148296356201f, -0.01513865869492292404f, 0.03434248641133308411f, -0.00618748134002089500f, 0.06102788075804710388f, -0.01496076304465532303f, 0.03558190539479255676f, 0.06523656845092773438f, 0.00151586893480271101f, 0.02462612651288509369f, 0.03896284848451614380f, 0.02329137735068798065f, 0.02353119291365146637f, 0.17850650846958160400f, 0.03034645132720470428f, -0.03402260690927505493f, -0.18009606003761291504f, -0.03906407952308654785f, 0.01298284810036420822f, -0.03087195008993148804f, 0.01172042917460203171f, 0.01878515072166919708f, 0.07194141298532485962f, -0.15168368816375732422f, 0.02412196993827819824f, 0.00235062674619257450f, -0.02434807084500789642f, 0.05855695530772209167f, 0.00971514917910099030f, -0.05842344462871551514f, 0.05375102534890174866f, 0.09715706110000610352f, 0.02970554865896701813f, -0.01028063334524631500f, 0.01281052641570568085f, 0.03293472528457641602f, -0.00103473861236125231f, -0.06277199089527130127f, -0.00395111646503210068f, -0.14381602406501770020f, 0.04812194779515266418f, -0.08224223554134368896f, 0.08770103007555007935f, 0.03822825849056243896f, -0.12416691333055496216f, 0.04978950321674346924f, 0.17209115624427795410f, 0.02487985789775848389f, 0.08470159769058227539f, 0.00352586852386593819f, -0.00499253394082188606f, -0.05194438621401786804f, 0.02306124754250049591f, -0.03358627855777740479f, -0.00907246582210063934f, 0.05141830444335937500f, 0.06203564256429672241f, -0.04314002394676208496f, -0.11193069815635681152f, 0.04319240152835845947f, -0.13967519998550415039f},
  {-0.02330631762742996216f, -0.05793948099017143250f, 0.01083246618509292603f, -0.18803162872791290283f, 0.00212716916576027870f, -0.02438072860240936279f, 0.00792755186557769775f, 0.06679365783929824829f, -0.04244416579604148865f, -0.04045158252120018005f, 0.01344752311706542969f, -0.02452287450432777405f, 0.02682380750775337219f, 0.04841372743248939514f, -0.02821246534585952759f, -0.01865433342754840851f, 0.06842499226331710815f, 0.04435422271490097046f, 0.02276138029992580414f, -0.15641154348850250244f, 0.00691809086129069328f, 0.00801934767514467239f, -0.00153394916560500860f, -0.00905932113528251648f, -0.00309139443561434746f, 0.05590515956282615662f, -0.10000726580619812012f, -0.00216546887531876564f, -0.02156920544803142548f, 0.00422708410769701004f, 0.02714360877871513367f, 0.00357318460009992123f, -0.06219717115163803101f, 0.08609973639249801636f, 0.15455223619937896729f, -0.00491487327963113785f, -0.06156182661652565002f, -0.06766832619905471802f, 0.01974675431847572327f, -0.03557363525032997131f, -0.08516678214073181152f, -0.10391074419021606445f, 0.02838575839996337891f, 0.10156626254320144653f, 0.01883625052869319916f, 0.10617823153734207153f, 0.02722782641649246216f, -0.10448651760816574097f, -0.09014671295881271362f, 0.22382694482803344727f, 0.03445971384644508362f, 0.11990062147378921509f, 0.11387396603822708130f, -0.00788964238017797470f, -0.11273819208145141602f, -0.03716746345162391663f, -0.02182883396744728088f, -0.07109072059392929077f, -0.11060802638530731201f, -0.03387559950351715088f, -0.11712065339088439941f, -0.06467632204294204712f, 0.02736753970384597778f, -0.06168428063392639160f},
  {0.01981965079903602600f, 0.10617624223232269287f, 0.00535179534927010536f, 0.23452529311180114746f, 0.02891050837934017181f, 0.01795652695000171661f, -0.02798622287809848785f, -0.12346896529197692871f, -0.10305701941251754761f, 0.09481181204319000244f, -0.03336635604500770569f, -0.02259508706629276276f, -0.01561686396598815918f, -0.26822599768638610840f, 0.05400845035910606384f, 0.02640688978135585785f, 0.06797414273023605347f, -0.00059013726422563195f, 0.04473776742815971375f, -0.07366380840539932251f, -0.00407763896510004997f, 0.05589286983013153076f, 0.00603648135438561440f, -0.01078848168253898621f, 0.06055813655257225037f, 0.08127141743898391724f, -0.17038072645664215088f, -0.00252796127460896969f, -0.04577408358454704285f, 0.01226625405251979828f, 0.01662006601691246033f, 0.01011620555073022842f, 0.08771415799856185913f, -0.04679936543107032776f, 0.03246919438242912292f, 0.02576634474098682404f, 0.08671315014362335205f, 0.00612324010580778122f, 0.03121463768184185028f, -0.03224840015172958374f, 0.02409404329955577850f, 0.09247696399688720703f, 0.02343073673546314240f, 0.06885039806365966797f, 0.06681426614522933960f, 0.02321221306920051575f, 0.04537699371576309204f, -0.13418930768966674805f, -0.07720622420310974121f, -0.01835215091705322266f, -0.02501106821000576019f, -0.03545266389846801758f, -0.04957085475325584412f, -0.02979400008916854858f, -0.12216518074274063110f, 0.02081623300909996033f, 0.03735107183456420898f, -0.02871073223650455475f, 0.21432615816593170166f, -0.07417612522840499878f, 0.21547475457191467285f, 0.05095668882131576538f, 0.10551430284976959229f, -0.02610005252063274384f},
  {0.01141417957842350006f, -0.25908750295639038086f, 0.25227299332618713379f, -0.02056942321360111237f, -0.04907756298780441284f, -0.04758916422724723816f, 0.03228157013654708862f, -0.09527871012687683105f, -0.05759860575199127197f, -0.02690293826162815094f, -0.02260388433933258057f, 0.02279090136289596558f, 0.01733900420367717743f, -1.41582882404327392578f, -0.04416116327047348022f, -0.00973862782120704651f, -0.43635040521621704102f, -0.00758567964658141136f, -0.00366740068420767784f, -0.26074674725532531738f, -0.05124548450112342834f, 0.03420714288949966431f, -0.00051107845501974225f, 0.07277560234069824219f, -0.00319657661020755768f, -0.13388338685035705566f, -0.10723202675580978394f, 0.01496807485818862915f, 0.03239904344081878662f, -0.00551874609664082527f, 0.00064320268575102091f, -0.06021873280405998230f, -0.23391029238700866699f, 0.48715206980705261230f, 0.31431040167808532715f, 0.01337824482470750809f, -0.17158758640289306641f, 0.07851301878690719604f, -0.00045697769382968545f, -0.57417786121368408203f, -0.26405286788940429688f, -0.15309393405914306641f, 0.21125982701778411865f, 0.30902969837188720703f, 0.24024349451065063477f, 0.13348700106143951416f, -0.07338697463274002075f, 0.04576275125145912170f, 0.38979527354240417480f, 0.65396320819854736328f, 0.02024641074240207672f, 0.29188367724418640137f, 0.29857158660888671875f, -0.00216540321707725525f, -0.30866053700447082520f, -0.05649017542600631714f, 0.00193307467270642519f, 0.28214779496192932129f, -0.31159326434135437012f, -0.50663322210311889648f, 0.30594336986541748047f, 0.02640725672245025635f, -0.01138115208595991135f, 0.06860991567373275757f},
  {-0.04054480791091918945f, -0.30727076530456542969f, 0.03271441906690597534f, 0.09733985364437103271f, -0.00493087479844689369f, 0.01413444615900516510f, -0.00683551002293825150f, 0.02603703550994396210f, 0.07678656280040740967f, -0.07987537235021591187f, 0.01332630962133407593f, 0.01645834930241107941f, -0.04685091972351074219f, -0.08265607059001922607f, 0.01538866944611072540f, -0.06110839545726776123f, -0.04535597190260887146f, -0.00001651488855713978f, 0.02819563262164592743f, -0.09122399985790252686f, 0.00288931257091462612f, -0.00955359451472759247f, 0.00446243723854422569f, -0.01220661029219627380f, 0.02668092399835586548f, -0.02186997979879379272f, 0.13848219811916351318f, -0.03701842948794364929f, 0.03443394973874092102f, 0.01925633102655410767f, -0.02289643324911594391f, -0.00332152377814054489f, 0.04547401145100593567f, 0.05850529670715332031f, -0.10820491611957550049f, -0.01262770686298608780f, -0.14077937602996826172f, 0.06795738637447357178f, -0.02736227400600910187f, -0.08289298415184020996f, 0.07827379554510116577f, -0.25090301036834716797f, 0.00758856534957885742f, -0.15187652409076690674f, -0.08198602497577667236f, -0.13314355909824371338f, 0.03618033602833747864f, 0.00633223354816436768f, 0.01150923315435647964f, 0.14873556792736053467f, 0.05013736709952354431f, 0.15353716909885406494f, 0.01952857710421085358f, -0.03171141073107719421f, 0.04959891363978385925f, 0.02295060455799102783f, -0.00394541118294000626f, 0.02954764291644096375f, -0.19793017208576202393f, -0.00418427772819995880f, 0.00908005330711603165f, -0.07392427325248718262f, -0.03210999071598052979f, 0.10140731930732727051f},
  {0.05409933626651763916f, 0.21739055216312408447f, -0.00570472376421093941f, 0.17833335697650909424f, 0.03240725398063659668f, 0.05966143310070037842f, -0.02095140516757965088f, -0.07096441090106964111f, -0.10103280842304229736f, 0.06800703704357147217f, 0.00721858302131295204f, -0.02783430553972721100f, 0.01798544824123382568f, -0.14136487245559692383f, 0.07041947543621063232f, 0.04648689553141593933f, -0.02072206698358058929f, 0.00404633674770593643f, -0.01362235657870769501f, -0.02777047082781791687f, 0.03770644962787628174f, -0.01125608198344707489f, 0.01948273368179798126f, -0.01019374467432498932f, 0.04445663467049598694f, 0.01407616212964057922f, -0.21924981474876403809f, 0.02993717603385448456f, -0.03079675696790218353f, 0.00057822075905278325f, 0.04062619432806968689f, 0.02644898928701877594f, -0.15823322534561157227f, -0.05263547226786613464f, 0.11002779752016067505f, 0.04049329087138175964f, 0.10086045414209365845f, -0.02895348146557807922f, 0.02429473400115966797f, -0.04717224463820457458f, -0.02458464354276657104f, 0.18296164274215698242f, -0.03186793997883796692f, 0.07626042515039443970f, 0.04754843190312385559f, -0.06092713028192520142f, 0.01765357144176959991f, 0.05036911740899085999f, -0.04069014266133308411f, -0.00987572316080331802f, -0.00803219061344861984f, -0.13432428240776062012f, -0.10229419171810150146f, 0.01521049812436103821f, -0.06042328476905822754f, -0.00342982821166515350f, -0.01298402622342109680f, -0.03004870563745498657f, 0.11078336834907531738f, 0.06153579056262969971f, 0.16847413778305053711f, 0.09618388116359710693f, 0.06068043410778045654f, -0.04010988771915435791f},
  {0.02545288763940334320f, 0.03174749761819839478f, -0.06226683780550956726f, 0.13567897677421569824f, 0.00440772855654358864f, -0.06445902585983276367f, -0.00915279146283864975f, -0.05495867133140563965f, 0.07120813429355621338f, -0.07722304761409759521f, 0.02704072929918766022f, -0.00893743056803941727f, 0.01473028585314750671f, -0.07797987759113311768f, -0.00445566792041063309f, 0.02525547705590724945f, -0.19346079230308532715f, -0.02266366779804229736f, -0.01748131401836872101f, 0.20730501413345336914f, -0.01069112680852413177f, 0.00289673358201980591f, 0.00000994481524685398f, -0.03559556975960731506f, -0.04550687223672866821f, -0.04403321444988250732f, 0.20180723071098327637f, -0.01426696218550205231f, 0.03419949859380722046f, -0.03251294791698455811f, 0.01756332442164421082f, -0.00071657617809250951f, -0.10554653406143188477f, -0.07453075051307678223f, -0.10526620596647262573f, 0.04625123739242553711f, 0.03413930907845497131f, -0.01484498102217912674f, 0.01408845558762550354f, -0.00407690647989511490f, 0.09508770704269409180f, 0.02847648598253726959f, -0.00622471608221530914f, -0.16963654756546020508f, 0.15477985143661499023f, 0.05136183649301528931f, -0.02248077839612960815f, 0.10125465691089630127f, 0.01795962639153003693f, -0.24752341210842132568f, -0.01380206923931837082f, -0.07048123329877853394f, 0.03237040340900421143f, -0.00150818133261054754f, -0.00922308582812547684f, 0.00296223512850701809f, 0.02183140441775321960f, 0.02767694927752017975f, -0.03710503876209259033f, 0.05917470529675483704f, -0.01730034314095973969f, 0.00145274645183235407f, -0.03649249672889709473f, 0.01078436151146888733f},
  {0.01287668570876121521f, -0.11964403837919235229f, 0.03379633650183677673f, -0.09092997014522552490f, -0.00804463308304548264f, -0.03205555677413940430f, 0.00643446063622832298f, 0.01442977413535118103f, -0.07541076093912124634f, -0.07441531866788864136f, 0.00150708155706524849f, -0.00005928131213295273f, 0.01303304731845855713f, 0.08705300837755203247f, -0.00044938133214600384f, 0.00865043420344591141f, -0.02951555885374546051f, 0.02565850131213665009f, -0.01210589334368705750f, -0.17264485359191894531f, -0.01009146403521299362f, 0.01188657619059085846f, -0.02693161368370056152f, 0.01568855904042720795f, 0.00387893104925751686f, 0.02927093952894210815f, -0.05844969302415847778f, 0.02301779948174953461f, -0.00471512600779533386f, -0.01319799199700355530f, 0.01582659035921096802f, -0.01054452266544103622f, 0.01712868362665176392f, 0.03525869920849800110f, 0.15447291731834411621f, 0.02292429655790328979f, -0.06914507597684860229f, 0.00604355661198496819f, 0.00070363312261179090f, -0.03137714788317680359f, -0.06009159982204437256f, -0.10140287131071090698f, -0.07223857194185256958f, 0.02374775707721710205f, -0.02168352156877517700f, 0.06581166386604309082f, 0.04007693007588386536f, 0.02627158723771572113f, -0.05520094558596611023f, 0.24207629263401031494f, 0.02244023047387599945f, 0.15902337431907653809f, -0.12085810303688049316f, -0.04120571911334991455f, 0.05538959801197052002f, 0.01167659834027290344f, -0.03222621232271194458f, -0.09260082244873046875f, -0.05673469975590705872f, -0.03266982361674308777f, 0.03010057285428047180f, -0.07603601366281509399f, 0.03414925932884216309f, -0.03135011345148086548f},
  {0.00268241390585899353f, -0.05035448446869850159f, 0.04743251577019691467f, -0.20930027961730957031f, -0.03164116665720939636f, 0.00023506952857133001f, -0.05250074341893196106f, 0.02812400273978710175f, -0.10876719653606414795f, -0.04579216614365577698f, 0.03446413576602935791f, 0.02538199163973331451f, 0.00789511203765869141f, 0.08753528445959091187f, -0.00932850316166877747f, -0.01491956599056720734f, 0.02689340896904468536f, -0.00534722534939646721f, 0.04040318354964256287f, -0.18087506294250488281f, -0.00166364491451531649f, -0.05846237763762474060f, -0.02308891341090202332f, 0.02398603968322277069f, -0.00883362628519535065f, 0.03752276673913002014f, -0.10926612466573715210f, 0.02391921356320381165f, 0.00818158313632011414f, -0.02984449639916419983f, -0.00566118257120251656f, -0.04078266024589538574f, -0.01921258121728897095f, 0.00283847004175186157f, 0.20367300510406494141f, 0.06348756700754165649f, -0.05030450969934463501f, -0.01470531988888978958f, -0.01189358346164226532f, -0.02981746010482311249f, -0.07134116441011428833f, -0.05776987597346305847f, -0.02029858715832233429f, 0.06795521080493927002f, -0.05815703794360160828f, 0.06287565827369689941f, 0.08034464716911315918f, -0.03311106562614440918f, 0.01669411733746528625f, 0.25964823365211486816f, 0.02485066466033458710f, 0.15346916019916534424f, 0.07675209641456604004f, 0.00291410088539123535f, -0.09898436814546585083f, 0.01060793083161115646f, -0.00698194606229662895f, -0.06991622596979141235f, -0.04218490049242973328f, -0.12379612028598785400f, 0.03167304396629333496f, -0.07743351906538009644f, 0.02486215345561504364f, -0.00367888435721397400f},
  {-0.03515988588333129883f, -0.06863101571798324585f, 0.00644231541082262993f, 0.06365110725164413452f, -0.01111321989446878433f, -0.03204871341586112976f, 0.01314861513674259186f, 0.00982523523271083832f, 0.08709033578634262085f, -0.01185592450201511383f, -0.05547309666872024536f, 0.00519946590065956116f, -0.03340572491288185120f, 0.06619805842638015747f, -0.03918624669313430786f, 0.00337423593737185001f, -0.09667715430259704590f, -0.06111787632107734680f, 0.02779207006096839905f, 0.19057342410087585449f, 0.00749890971928834915f, 0.02205418981611728668f, 0.01919197663664817810f, 0.00597631372511386871f, -0.07073842734098434448f, -0.09080366045236587524f, 0.23002023994922637939f, -0.05494198948144912720f, 0.00172747625038027763f, 0.02103021368384361267f, -0.05347620323300361633f, -0.03255990520119667053f, -0.11205337941646575928f, 0.02191726677119731903f, -0.15191431343555450439f, -0.02636566199362277985f, -0.01788420788943767548f, -0.02350706420838832855f, -0.04644490778446197510f, 0.05658524110913276672f, 0.07957325875759124756f, -0.08481886982917785645f, -0.07237112522125244141f, -0.16960716247558593750f, 0.04577728733420372009f, -0.09238969534635543823f, -0.01605823636054992676f, 0.09978639334440231323f, 0.00142975815106183290f, -0.18306630849838256836f, 0.00530235189944505692f, -0.05925609543919563293f, 0.02156033739447593689f, 0.01335236057639122009f, 0.22550356388092041016f, -0.02166336402297019958f, 0.00974327977746725082f, 0.03820678964257240295f, -0.09372531622648239136f, 0.03322532400488853455f, -0.16168172657489776611f, 0.01456673350185155869f, -0.07291176915168762207f, -0.00161805714014917612f},
  {-0.01107334997504949570f, -0.12526260316371917725f, -0.01571584679186344147f, -0.30870014429092407227f, -0.02748854830861091614f, 0.02385619841516017914f, 0.01502644363790750504f, 0.03381464630365371704f, 0.07165245711803436279f, -0.14861319959163665771f, 0.00660743564367294312f, 0.00130890565924346447f, -0.00047133371117524803f, 0.19389443099498748779f, -0.03262311965227127075f, -0.00542903970927000046f, -0.08442412316799163818f, 0.00007600467506563291f, 0.00036885982262901962f, -0.04030742123723030090f, 0.02940663322806358337f, -0.01075077988207340240f, 0.01709409616887569427f, -0.03266079351305961609f, 0.01333145517855882645f, 0.01662327721714973450f, 0.11331702023744583130f, -0.00007673833169974387f, 0.04882350191473960876f, -0.01012200675904750824f, -0.02768840640783309937f, -0.00451185274869203568f, -0.21243728697299957275f, 0.13565470278263092041f, 0.15948793292045593262f, 0.02407893538475036621f, -0.16270393133163452148f, 0.00522298598662018776f, -0.00411727605387568474f, -0.01301699131727218628f, -0.13467621803283691406f, -0.13867454230785369873f, -0.00558027019724249840f, 0.07818694412708282471f, -0.00762527575716376305f, -0.01746634766459465027f, 0.01017637178301811218f, 0.01458617951720952988f, 0.09742736071348190308f, 0.24663440883159637451f, 0.05587553605437278748f, 0.15793660283088684082f, 0.21657335758209228516f, 0.02647750079631805420f, 0.09464279562234878540f, -0.00164281902834773064f, -0.01796380989253520966f, -0.08227830380201339722f, -0.31612855195999145508f, 0.05273419991135597229f, -0.21798540651798248291f, -0.03693735599517822266f, -0.02057611942291259766f, -0.12374594062566757202f},
  {-0.01758262142539024353f, -0.02512142993509769440f, 0.04017505794763565063f, 0.04611057788133621216f, -0.05429714545607566833f, -0.01294382289052009583f, 0.03079370781779289246f, -0.00583258317783474922f, 0.05993800982832908630f, 0.04458016529679298401f, 0.00163799081929028034f, 0.05693691968917846680f, 0.00082315562758594751f, -0.10397294163703918457f, -0.03466102480888366699f, -0.06438507139682769775f, -0.02798355370759963989f, -0.01397267263382673264f, -0.03623056784272193909f, 0.09043614566326141357f, -0.06137999892234802246f, -0.04098743200302124023f, -0.01948274858295917511f, 0.03130343556404113770f, -0.07397352159023284912f, -0.13282732665538787842f, 0.08224315196275711060f, 0.00138674105983227491f, 0.03432567417621612549f, -0.03950191661715507507f, -0.02803923748433589935f, -0.04100415483117103577f, -0.10096066445112228394f, 0.10199958831071853638f, -0.08269846439361572266f, -0.02634351886808872223f, 0.00241072173230350018f, -0.01180804707109928131f, -0.02801824361085891724f, -0.01272578723728656769f, 0.05241879448294639587f, -0.02332916110754013062f, 0.03930096700787544250f, -0.10669676214456558228f, 0.08128196746110916138f, -0.00991925317794084549f, -0.00801602471619844437f, 0.08943909406661987305f, 0.09685339033603668213f, -0.10346964746713638306f, -0.00409556785598397255f, -0.09882499277591705322f, -0.06132496893405914307f, -0.01805314235389232635f, 0.03038620762526988983f, -0.04094155877828598022f, -0.04266906902194023132f, -0.02072724327445030212f, -0.04379106312990188599f, -0.01348733808845281601f, -0.09874138236045837402f, 0.07405189424753189087f, -0.07819247990846633911f, -0.07269020378589630127f},
  {0.01605651900172233582f, -0.35226136445999145508f, 0.08603715151548385620f, 0.19948673248291015625f, -0.03122030012309551239f, 0.03269043192267417908f, 0.02211833372712135315f, -0.04261200875043869019f, 0.06218664348125457764f, -0.01299068797379732132f, 0.06902612000703811646f, -0.00244676624424755573f, -0.02350916899740695953f, -0.18122379481792449951f, -0.01486742682754993439f, -0.04042660444974899292f, -0.12249498814344406128f, -0.01357081253081560135f, -0.00484278192743659019f, -0.12071236222982406616f, -0.00871381442993879318f, -0.00503100920468568802f, 0.00032159616239368916f, 0.03959950804710388184f, -0.00606908509507775307f, 0.01317242160439491272f, 0.15502282977104187012f, 0.06187103688716888428f, 0.01609505712985992432f, -0.02594237588346004486f, 0.01494575757533311844f, 0.01247089635580778122f, 0.06481765210628509521f, 0.22848144173622131348f, -0.11090186238288879395f, 0.01482999324798583984f, -0.17550477385520935059f, 0.18401299417018890381f, 0.04731977358460426331f, -0.06355940550565719604f, 0.01540837157517671585f, -0.31400108337402343750f, -0.02845003828406333923f, -0.09177459031343460083f, -0.02509818971157073975f, -0.27899670600891113281f, 0.05598971620202064514f, -0.09669607877731323242f, -0.11004831641912460327f, 0.25367990136146545410f, 0.04228513687849044800f, 0.24038657546043395996f, -0.09061806648969650269f, -0.01919842511415481567f, -0.03659613803029060364f, -0.01109827216714620590f, -0.05976705625653266907f, 0.02870765700936317444f, -0.16359668970108032227f, 0.03624601289629936218f, 0.05130480229854583740f, 0.02269195765256881714f, 0.01112655550241470337f, 0.15730470418930053711f},
  {-0.02255880273878574371f, -0.23138856887817382812f, 0.00354225654155015945f, 0.22535033524036407471f, -0.01573703810572624207f, 0.00370098929852247238f, -0.00594960385933518410f, 0.01113429386168718338f, 0.14647381007671356201f, -0.08232975006103515625f, -0.00412997044622898102f, 0.02094264701008796692f, 0.02938866987824440002f, -0.03717564791440963745f, 0.00821269676089286804f, 0.03125112503767013550f, -0.10246809571981430054f, -0.02087488025426864624f, -0.00393293378874659538f, 0.12088382244110107422f, 0.01493024453520774841f, -0.02930210717022418976f, 0.01291425060480833054f, 0.01338549703359603882f, -0.02912065759301185608f, -0.04900872707366943359f, 0.27356427907943725586f, -0.01515787281095981598f, -0.00212692213244736195f, -0.03596226498484611511f, -0.02162187919020652771f, 0.03518860414624214172f, 0.03153710439801216125f, -0.01233361754566431046f, -0.35941734910011291504f, 0.02734620124101638794f, -0.03632624819874763489f, 0.10043062269687652588f, -0.01037153229117393494f, -0.05046159029006958008f, 0.15769886970520019531f, -0.13204833865165710449f, 0.13753432035446166992f, -0.23287847638130187988f, -0.01009584497660398483f, -0.09998495876789093018f, 0.02894903905689716339f, 0.09824924916028976440f, 0.07365911453962326050f, -0.14181241393089294434f, 0.01090836059302091599f, 0.04095582664012908936f, -0.07925440371036529541f, -0.00581456022337079048f, -0.05840894952416419983f, -0.00145267974585294724f, 0.02661541663110256195f, 0.16691999137401580811f, -0.10612528026103973389f, 0.02138417586684226990f, -0.06345937401056289673f, 0.00449997745454311371f, -0.02978997863829135895f, 0.13892400264739990234f},
  {-0.01847767457365989685f, -0.20916788280010223389f, 0.03690080717206001282f, 0.17784072458744049072f, -0.03791861236095428467f, 0.03424973785877227783f, -0.00487756310030817986f, -0.00179393519647419453f, 0.10195878148078918457f, -0.03782535344362258911f, -0.01583177782595157623f, 0.02659869007766246796f, -0.00999467913061380386f, -0.05915381386876106262f, -0.02531707100570201874f, -0.03846225142478942871f, -0.20332287251949310303f, 0.02831594459712505341f, 0.00745277758687734604f, 0.11216423660516738892f, 0.00793135259300470352f, -0.01951484382152557373f, -0.01838302612304687500f, -0.03251579776406288147f, -0.01952566392719745636f, -0.05388211086392402649f, 0.26355925202369689941f, 0.00485393265262246132f, 0.03470886871218681335f, 0.00776297645643353462f, 0.02155644260346889496f, -0.01372210774570703506f, -0.13224685192108154297f, -0.01431352645158767700f, -0.19537237286567687988f, -0.02040345221757888794f, -0.05441396683454513550f, 0.04300861433148384094f, -0.03667488321661949158f, 0.04481253027915954590f, 0.14048165082931518555f, -0.13863493502140045166f, 0.18226227164268493652f, -0.21828396618366241455f, 0.09678715467453002930f, -0.10591015964746475220f, 0.00804119370877742767f, 0.06564920395612716675f, 0.04190974310040473938f, -0.08393450081348419189f, 0.02739194966852664948f, 0.00725648878142237663f, 0.08161360025405883789f, -0.00832512322813272476f, -0.04098497331142425537f, 0.01008119247853755951f, -0.03861368075013160706f, 0.04461279138922691345f, -0.13725432753562927246f, -0.21993261575698852539f, -0.10073690116405487061f, -0.05606058239936828613f, -0.05080859735608100891f, 0.12652482092380523682f},
  {-0.05723492801189422607f, -0.16655690968036651611f, 0.07667454332113265991f, 0.12535168230533599854f, -0.03830884024500846863f, -0.06197366490960121155f, 0.00600870233029127121f, 0.04852436110377311707f, 0.08287647366523742676f, -0.04977323487401008606f, -0.06984047591686248779f, 0.04091554880142211914f, -0.01957354694604873657f, -0.16019517183303833008f, 0.00953813735395669937f, 0.00054214370902627707f, 0.03295593336224555969f, -0.02115176804363727570f, -0.00609468948096036911f, 0.10789358615875244141f, -0.00680779339745640755f, 0.00756618753075599670f, 0.06676317751407623291f, -0.00607613893225789070f, -0.02838217280805110931f, -0.05143824964761734009f, 0.23040005564689636230f, -0.03024948574602603912f, 0.00995065737515687943f, 0.03290703892707824707f, -0.03823339566588401794f, -0.03081491589546203613f, -0.13771116733551025391f, 0.08574807643890380859f, -0.22038701176643371582f, -0.03119672834873199463f, -0.05585854500532150269f, 0.01749505102634429932f, -0.02097955904901027679f, -0.11031281203031539917f, 0.08753762394189834595f, -0.12195694446563720703f, 0.18302655220031738281f, -0.12362307310104370117f, 0.04749207571148872375f, -0.05883854627609252930f, 0.01410073973238468170f, 0.05640607699751853943f, -0.06818585842847824097f, -0.08949308842420578003f, 0.01231418270617723465f, 0.01047301851212978363f, 0.00582473259419202805f, 0.02931081503629684448f, -0.03942929580807685852f, -0.02349126338958740234f, 0.06208201125264167786f, 0.00579160731285810471f, -0.02130620926618576050f, -0.20297698676586151123f, 0.04636147618293762207f, 0.03256477415561676025f, -0.09479530900716781616f, 0.13602168858051300049f},
  {-0.03020102344453334808f, 1.19482004642486572266f, -0.63595879077911376953f, -1.38832879066467285156f, -0.06912346929311752319f, 0.00290925637818872929f, 0.04910993948578834534f, 0.61450469493865966797f, 0.23376825451850891113f, 1.25066077709197998047f, -0.02133089862763881683f, 0.05494980514049530029f, -0.00057734193978831172f, 0.13135012984275817871f, -0.07386669516563415527f, -0.04513609409332275391f, 0.15572556853294372559f, -0.00034815820981748402f, -0.01348802447319030762f, 0.43380767107009887695f, -0.00050767057109624147f, -0.00551649369299411774f, 0.00379055202938616276f, 0.00583803048357367516f, -0.02714788913726806641f, 0.08422943949699401855f, -0.84029251337051391602f, 0.01266643870621919632f, 0.05233158543705940247f, -0.01074031647294759750f, -0.02672018855810165405f, -0.02188577875494956970f, 0.09745080769062042236f, -0.12300226092338562012f, 0.94401836395263671875f, -0.00567598361521959305f, 0.49098223447799682617f, -1.19977831840515136719f, -0.00619686115533113480f, 1.09890913963317871094f, -1.16792643070220947266f, -0.05724528059363365173f, -0.34194207191467285156f, 1.18692493438720703125f, -0.34415933489799499512f, 1.02160525321960449219f, 0.12918981909751892090f, -0.23321920633316040039f, -0.12093327939510345459f, 0.28124755620956420898f, -0.18469887971878051758f, -1.43409407138824462891f, -0.05588428676128387451f, 0.00813461747020483017f, -0.37649160623550415039f, -0.02636558003723621368f, -0.00714953709393739700f, -0.29952812194824218750f, 0.58408486843109130859f, 1.05001235008239746094f, 1.12492799758911132812f, -0.33221873641014099121f, -0.07942093908786773682f, -0.48735681176185607910f},
  {-0.05801494419574737549f, -0.03434412926435470581f, 0.01833708398044109344f, 0.08468338847160339355f, -0.03029769286513328552f, -0.01304247975349426270f, 0.03242811560630798340f, -0.02636922709643840790f, 0.01643856614828109741f, 0.00639732228592038155f, -0.00697804894298315048f, 0.01764812134206295013f, 0.01592049561440944672f, -0.07659655064344406128f, -0.02994377538561820984f, -0.02274976111948490143f, -0.15387441217899322510f, 0.00218491023406386375f, 0.01434019394218921661f, 0.07170468568801879883f, -0.02152339182794094086f, -0.01903747022151947021f, -0.00550494017079472542f, 0.02623771876096725464f, -0.05851339921355247498f, -0.11080052703619003296f, 0.05393827706575393677f, 0.00455321883782744408f, 0.01546552311629056931f, -0.01816494762897491455f, -0.01242587063461542130f, -0.01818059943616390228f, 0.16791151463985443115f, -0.07350382208824157715f, -0.02489620260894298553f, -0.01577593199908733368f, 0.01093505229800939560f, -0.00927984807640314102f, -0.03596126660704612732f, -0.05939629673957824707f, 0.06090555712580680847f, -0.03705618903040885925f, 0.06541137397289276123f, -0.01792184822261333466f, -0.00322367483749985695f, -0.05142476037144660950f, -0.05381169542670249939f, 0.02570520713925361633f, 0.11944960057735443115f, -0.10678958892822265625f, -0.00748765654861927032f, -0.07669196277856826782f, 0.00121888844296336174f, -0.00606584036722779274f, 0.00773693667724728584f, -0.03353361412882804871f, -0.02182902023196220398f, -0.06708052009344100952f, -0.08502118289470672607f, 0.06134413182735443115f, 0.02984823845326900482f, 0.08436127752065658569f, -0.06098952889442443848f, -0.01661439985036849976f},
  {-0.02468168362975120544f, 0.20673041045665740967f, -0.00603281054645776749f, -0.27364531159400939941f, -0.00516956485807895660f, -0.01430494058877229691f, -0.01571280136704444885f, 0.00050217367243021727f, -0.09377373754978179932f, 0.07209113240242004395f, 0.02233321778476238251f, -0.02207316271960735321f, -0.03481992706656455994f, -0.06573151051998138428f, 0.00658803805708885193f, -0.00756589183583855629f, 0.30164313316345214844f, -0.01488557457923889160f, -0.05576299503445625305f, -0.13930574059486389160f, 0.03810732811689376831f, -0.01142423599958419800f, 0.01877859793603420258f, -0.03966478258371353149f, 0.07145482301712036133f, 0.04606104269623756409f, -0.34391275048255920410f, -0.04192031174898147583f, 0.02926450967788696289f, -0.03278573229908943176f, 0.00786246079951524734f, -0.00976153090596199036f, 0.02307285368442535400f, -0.00463960831984877586f, 0.22362506389617919922f, -0.01589850895106792450f, 0.07075759768486022949f, -0.10135596245527267456f, -0.00741200009360909462f, 0.06005332618951797485f, -0.16323287785053253174f, 0.14242000877857208252f, -0.09444873034954071045f, 0.29339751601219177246f, 0.14787295460700988770f, 0.00708038080483675003f, -0.12854933738708496094f, -0.25134187936782836914f, 0.02997978217899799347f, 0.14000208675861358643f, -0.01202207151800394058f, -0.10023435950279235840f, -0.01324344333261251450f, -0.01397994253784418106f, -0.05095171928405761719f, -0.00299360952340066433f, 0.01971396245062351227f, -0.13194498419761657715f, 0.15726767480373382568f, 0.11761507391929626465f, 0.04304159805178642273f, 0.04402554780244827271f, 0.02357906848192214966f, -0.26304292678833007812f},
  {0.09462612867355346680f, -0.32242327928543090820f, 0.06097186729311943054f, 1.42614412307739257812f, 0.12240169942378997803f, 0.12009955197572708130f, -0.12017793208360671997f, -0.05363979935646057129f, 0.01678982935845851898f, -1.94434738159179687500f, 0.06954337656497955322f, -0.11945371329784393311f, 0.04194567352533340454f, 0.44487240910530090332f, 0.13157349824905395508f, 0.12729905545711517334f, -1.26386821269989013672f, 0.06742507964372634888f, 0.03170612454414367676f, 0.22922106087207794189f, 0.04738143831491470337f, 0.08125262707471847534f, -0.02712089009582996368f, 0.03453231975436210632f, 0.10901228338479995728f, 0.92528206110000610352f, 0.29729327559471130371f, 0.08089940994977951050f, -0.13062493503093719482f, -0.00194624252617359161f, 0.10573916882276535034f, 0.08250610530376434326f, -0.33445647358894348145f, 0.25359869003295898438f, -1.46004796028137207031f, 0.08423659205436706543f, -1.83323252201080322266f, 0.17391011118888854980f, 0.06122024729847908020f, 0.40747976303100585938f, 1.23119854927062988281f, -0.00315439468249678612f, 0.28641551733016967773f, 0.24221691489219665527f, 0.01833956874907016754f, -0.17632225155830383301f, 1.22008430957794189453f, 0.04827648401260375977f, -0.02500070817768573761f, -1.24125850200653076172f, -0.90497046709060668945f, 0.45611491799354553223f, 0.49493747949600219727f, -0.00642235483974218369f, 0.50742655992507934570f, 0.11789045482873916626f, -0.02049927785992622375f, 1.20566558837890625000f, -0.22592188417911529541f, -0.00904460623860359192f, -0.27156966924667358398f, -1.22827553749084472656f, -0.10066734254360198975f, -0.22582726180553436279f},
  {0.00478640617802739143f, -0.23176874220371246338f, 0.12661916017532348633f, 0.08369287103414535522f, -0.01745409332215785980f, -0.03888627141714096069f, -0.00340749602764844894f, 0.06422170251607894897f, 0.07298269867897033691f, -0.08223185688257217407f, -0.03518510237336158752f, -0.04608297348022460938f, -0.04276510700583457947f, 0.01316969841718673706f, -0.04310182109475135803f, -0.02372932992875576019f, -0.07580805569887161255f, 0.00602772133424878120f, 0.01125609874725341797f, 0.01544755510985851288f, 0.00708329118788242340f, -0.01918514817953109741f, -0.02651251666247844696f, -0.00107573787681758404f, -0.01881682127714157104f, -0.01179451122879981995f, 0.23322202265262603760f, 0.00688529899343848228f, 0.01358749996870756149f, 0.00003594525696826167f, -0.04288937896490097046f, -0.02449129335582256317f, -0.05234438180923461914f, -0.06484961509704589844f, -0.15836068987846374512f, -0.03996659070253372192f, -0.09943807125091552734f, 0.04072462394833564758f, -0.02561879716813564301f, -0.07365316152572631836f, 0.03276346996426582336f, -0.23038579523563385010f, 0.05485127493739128113f, -0.12821798026561737061f, -0.08455724269151687622f, -0.00800998974591493607f, 0.05027795583009719849f, 0.08919019252061843872f, -0.09911520034074783325f, 0.01935676671564579010f, 0.04980771243572235107f, 0.09046885371208190918f, 0.02545125223696231842f, 0.02452449500560760498f, 0.06302169710397720337f, -0.04323094338178634644f, -0.04972191900014877319f, 0.02354296110570430756f, -0.21484535932540893555f, 0.10080763697624206543f, -0.04326961934566497803f, -0.03032744303345680237f, -0.06208910420536994934f, 0.02783746644854545593f},
  {-0.01958270184695720673f, -0.01255925465375185013f, -0.00935177039355039597f, 0.04381738975644111633f, -0.00750568229705095291f, -0.02583933249115943909f, 0.03516629710793495178f, -0.02274898067116737366f, 0.01045579835772514343f, -0.04149017110466957092f, -0.05574115738272666931f, 0.05064310505986213684f, -0.05300661176443099976f, 0.12889216840267181396f, -0.01143633760511875153f, -0.04292265325784683228f, -0.00470704259350895882f, -0.04064683616161346436f, 0.01372892688959836960f, 0.20001854002475738525f, 0.03911017999053001404f, -0.00584881938993930817f, -0.00314828031696379185f, -0.02443994022905826569f, -0.01696729287505149841f, -0.04813190177083015442f, 0.16425916552543640137f, -0.03560104593634605408f, 0.00768322637304663658f, 0.02558562904596328735f, -0.03844883292913436890f, -0.02052239514887332916f, 0.09823612123727798462f, -0.13217402994632720947f, -0.12244489789009094238f, -0.04483554512262344360f, 0.02037932351231575012f, 0.00939685385674238205f, -0.02285907603800296783f, -0.05045064166188240051f, 0.07105991244316101074f, -0.04457235708832740784f, 0.14893613755702972412f, 0.00344443041831254959f, 0.04166453704237937927f, -0.05454661697149276733f, -0.10435273498296737671f, 0.06882584095001220703f, -0.06837225705385208130f, -0.22124771773815155029f, -0.01793928816914558411f, -0.05362176522612571716f, 0.08331172913312911987f, 0.00407598679885268211f, 0.14997245371341705322f, 0.00676225032657384872f, 0.02555976994335651398f, 0.04343169927597045898f, -0.02218116074800491333f, -0.14416837692260742188f, 0.01703957654535770416f, 0.09985855966806411743f, -0.04667875543236732483f, 0.05022817105054855347f},
  {0.26618316769599914551f, -0.01703661680221557617f, 0.75150489807128906250f, 1.28455197811126708984f, 0.30251473188400268555f, 0.23281762003898620605f, -0.30757722258567810059f, -0.37895041704177856445f, 0.01303623802959918976f, -1.25835490226745605469f, 0.11180114001035690308f, -0.31941595673561096191f, 0.10680569708347320557f, 0.17970541119575500488f, 0.33811709284782409668f, 0.33161723613739013672f, -0.36727452278137207031f, 0.12327554821968078613f, 0.05490747839212417603f, 1.01835012435913085938f, 0.07392128556966781616f, 0.17158775031566619873f, -0.04214404895901679993f, 0.07304935902357101440f, 0.44646847248077392578f, 0.25910010933876037598f, 0.70490980148315429688f, 0.17271213233470916748f, -0.30158960819244384766f, 0.00601466046646237373f, 0.25242441892623901367f, 0.27820762991905212402f, -0.70526701211929321289f, -0.04168170318007469177f, -1.02341198921203613281f, 0.22534282505512237549f, -1.44428384304046630859f, 0.79541796445846557617f, 0.35146209597587585449f, 0.40842866897583007812f, 0.00292272563092410564f, -1.01729166507720947266f, 0.34337744116783142090f, 0.21291688084602355957f, -0.22395236790180206299f, -0.07184846699237823486f, 0.05365777760744094849f, -0.02190630696713924408f, -0.20394162833690643311f, -1.42025959491729736328f, -2.07784628868103027344f, -0.40900996327400207520f, 0.30313584208488464355f, 0.01440461445599794388f, 0.06438728421926498413f, 0.29630145430564880371f, -0.04476469010114669800f, 1.24091267585754394531f, 0.38840162754058837891f, -0.31360912322998046875f, -0.08167614042758941650f, 0.03267161920666694641f, 0.88990384340286254883f, -0.05162006616592407227f},
  {-0.01358358748257160187f, -0.22508731484413146973f, 0.04549942165613174438f, 0.01488104928284883499f, -0.03997790813446044922f, -0.02283981814980506897f, 0.00507307611405849457f, 0.05138364806771278381f, 0.09760558605194091797f, -0.16828900575637817383f, -0.01022255886346101761f, 0.01078705117106437683f, -0.00834050402045249939f, 0.06602650880813598633f, -0.01776742748916149139f, -0.01581904105842113495f, -0.06701915711164474487f, 0.01300181075930595398f, -0.01019612792879343033f, 0.02892442606389522552f, 0.05806399881839752197f, -0.02205174975097179413f, 0.01616741344332695007f, 0.01395135466009378433f, -0.01602244749665260315f, -0.02633545547723770142f, 0.22861489653587341309f, -0.01635577343404293060f, -0.01360828988254070282f, 0.00128715927712619305f, 0.01439476292580366135f, -0.02123092859983444214f, -0.30933979153633117676f, 0.01524855475872755051f, -0.14603948593139648438f, -0.02551396004855632782f, -0.13546894490718841553f, 0.04221013188362121582f, 0.01798865757882595062f, -0.10036200284957885742f, 0.05217975005507469177f, -0.21973647177219390869f, 0.07772888243198394775f, -0.15233805775642395020f, -0.20205672085285186768f, -0.20476809144020080566f, 0.02145147137343883514f, 0.18257144093513488770f, 0.04371828958392143250f, 0.06934528797864913940f, 0.05020349472761154175f, 0.11770448088645935059f, 0.01004514377564191818f, -0.00766931427642703056f, -0.08910734206438064575f, -0.04505456611514091492f, 0.03379502519965171814f, 0.03523859009146690369f, -0.15507084131240844727f, 0.11461624503135681152f, -0.04764651507139205933f, -0.02680125087499618530f, -0.04673167690634727478f, 0.22623568773269653320f},
  {-0.00600348506122827530f, 0.05916503816843032837f, -0.05427477508783340454f, 0.09248025715351104736f, 0.00535276252776384354f, -0.00087915151380002499f, -0.01177024003118276596f, -0.14119021594524383545f, 0.01997149363160133362f, 0.01034263242036104202f, -0.01004524063318967819f, 0.04291850700974464417f, 0.01339423563331365585f, 0.17378160357475280762f, 0.00363763375207781792f, -0.00500799948349595070f, 0.00554355792701244354f, 0.02309222146868705750f, 0.03310714662075042725f, 0.03516093268990516663f, -0.02936813235282897949f, -0.02777872420847415924f, -0.04902303963899612427f, 0.04670324921607971191f, -0.01264211535453796387f, -0.02763228490948677063f, -0.04320514202117919922f, 0.02463925443589687347f, 0.02098325453698635101f, -0.02102258056402206421f, -0.01322267949581146240f, 0.00874741282314062119f, 0.09760020673274993896f, 0.00002776354995148722f, 0.07802271842956542969f, -0.01899564824998378754f, 0.04190399125218391418f, 0.09858417510986328125f, -0.01057133264839649200f, 0.19332471489906311035f, 0.03411097452044487000f, 0.04601943865418434143f, -0.14976638555526733398f, -0.08969588577747344971f, -0.05883942916989326477f, 0.01623168773949146271f, -0.08531691133975982666f, -0.02344596199691295624f, 0.13141463696956634521f, -0.08235902339220046997f, -0.00985438097268342972f, -0.16315583884716033936f, 0.09790332615375518799f, -0.03222885355353355408f, 0.11796215921640396118f, -0.01740670762956142426f, -0.00527706975117325783f, 0.02156401611864566803f, -0.04872777312994003296f, 0.00166593957692384720f, -0.13143771886825561523f, 0.05767124146223068237f, -0.02361478097736835480f, -0.05410502478480339050f},
  {0.00032585966982878745f, -0.01083399355411529541f, 0.01149417925626039505f, -0.10246150195598602295f, 0.00044709889334626496f, 0.00048266531666740775f, -0.00047611544141545892f, 0.00875422079116106033f, -0.03364142030477523804f, -0.70914477109909057617f, 0.00008465955761494115f, -0.00046539137838408351f, 0.00002467495687596966f, -1.85565936565399169922f, 0.00050197145901620388f, 0.00046069416566751897f, -0.00306858238764107227f, 0.00009028176282299682f, 0.00001295207221119199f, -0.04828613623976707458f, 0.00005099572081235237f, 0.00010737182310549542f, -0.00002297966602782253f, 0.00002353668241994455f, 0.00068659591488540173f, 0.00469229556620121002f, -0.01797461695969104767f, 0.00015509068907704204f, -0.00051477132365107536f, -0.00001522840466350317f, 0.00040889414958655834f, 0.00031968875555321574f, -0.00903721805661916733f, -0.44246986508369445801f, 0.26837906241416931152f, 0.00018942593305837363f, -0.31964477896690368652f, -0.01993741281330585480f, 0.00055960309691727161f, -0.07738705724477767944f, -0.01215708442032337189f, -0.00115956633817404509f, -0.29124236106872558594f, 0.06520453095436096191f, -0.42043548822402954102f, -0.41441339254379272461f, -0.00755442166700959206f, 0.66069108247756958008f, -0.20557209849357604980f, 0.05573695898056030273f, -0.25960165262222290039f, -0.17280544340610504150f, -0.65578103065490722656f, -0.00003267368083470501f, -0.80055880546569824219f, 0.00043622226803563535f, -0.00001963173599506263f, -0.01436488423496484756f, -0.32981309294700622559f, -1.35836780071258544922f, -0.26763260364532470703f, 0.01035654917359352112f, -0.00058780424296855927f, -0.24722354114055633545f},
  {-0.05599025636911392212f, -0.02685520797967910767f, 0.04913490638136863708f, -0.26775690913200378418f, 0.02118564769625663757f, 0.02205391041934490204f, 0.00947074312716722488f, 0.06030524149537086487f, -0.07742356508970260620f, -0.04996647313237190247f, -0.02129632979631423950f, 0.02238721027970314026f, 0.00601817294955253601f, 0.08276775479316711426f, 0.01633381657302379608f, -0.01626007631421089172f, 0.07047381252050399780f, -0.03109405748546123505f, 0.03826839104294776917f, -0.13760556280612945557f, 0.02692386135458946228f, 0.00976554397493600845f, 0.02968275919556617737f, -0.00692980550229549408f, 0.03585151955485343933f, 0.04994576051831245422f, -0.08293894678354263306f, -0.02667444199323654175f, 0.02294475026428699493f, 0.05948087573051452637f, -0.02540690265595912933f, -0.02010039426386356354f, -0.06541530787944793701f, 0.01239597797393798828f, 0.13999664783477783203f, -0.02902392856776714325f, -0.07081867754459381104f, -0.01811885088682174683f, -0.02609836868941783905f, 0.00665943976491689682f, -0.07858502119779586792f, -0.04493311420083045959f, -0.10499013215303421021f, 0.03267353028059005737f, -0.13565115630626678467f, -0.10870721191167831421f, 0.07244785130023956299f, -0.03773934021592140198f, -0.06534240394830703735f, 0.26079589128494262695f, 0.01873745955526828766f, 0.19294600188732147217f, 0.05587899684906005859f, -0.01572032831609249115f, 0.01674217544496059418f, -0.01006167847663164139f, 0.04479983448982238770f, -0.01959456503391265869f, -0.02101683989167213440f, 0.07821951806545257568f, 0.06042343378067016602f, -0.10236835479736328125f, 0.03272362053394317627f, 0.05407773703336715698f},
  {-0.00186891667544841766f, -0.21331378817558288574f, 0.08361066877841949463f, -0.10199826955795288086f, -0.01340183336287736893f, -0.00744501268491148949f, 0.03401898220181465149f, 0.06582795828580856323f, 0.02180970273911952972f, -0.03548346459865570068f, 0.01820216141641139984f, 0.02971070818603038788f, -0.00555820530280470848f, -0.05806906521320343018f, -0.05704239755868911743f, 0.00404144776985049248f, -0.01038465648889541626f, -0.01732776500284671783f, -0.03157451376318931580f, -0.06969497352838516235f, 0.01957158558070659637f, -0.00942588411271572113f, 0.01592232473194599152f, -0.03301306441426277161f, 0.02234848402440547943f, 0.00482131261378526688f, 0.14598277211189270020f, -0.01350920367985963821f, 0.01371213048696517944f, 0.01935446262359619141f, -0.03851386159658432007f, -0.01630945317447185516f, -0.05036470666527748108f, 0.05057168379426002502f, -0.08817004412412643433f, -0.01703210733830928802f, -0.11330044269561767578f, -0.00342166400514543056f, -0.03374109044671058655f, -0.05409283936023712158f, 0.04143802449107170105f, -0.17646616697311401367f, -0.03950034454464912415f, -0.11903809756040573120f, -0.10484994947910308838f, 0.03005261346697807312f, 0.07338448613882064819f, -0.00163305783644318581f, -0.09519108384847640991f, 0.08824492990970611572f, 0.04098970070481300354f, 0.14550054073333740234f, 0.06644026190042495728f, -0.00019801527378149331f, 0.07656954228878021240f, -0.02855710871517658234f, 0.00298440246842801571f, -0.00507127586752176285f, -0.09991244971752166748f, -0.06395526230335235596f, -0.05408587679266929626f, -0.10241580754518508911f, -0.09406054019927978516f, 0.05421048402786254883f},
